{"generation": 47905, "population": [{"input_nodes": 12, "hidden_nodes": 16, "output_nodes": 4, "weights_ih": [[0.9551530667729033, 4.809763351427137, -8.494442910724558, -3.747998355860768, 7.054114027880084, -8.637963040631982, 8.93678725706796, -0.3715633777150633, 2.6727667441496394, 0.12279797932625033, -5.755523056081809, -16.392777912272635], [-0.5165571608816965, -13.673657842381859, 6.010612262420389, -2.8763640770096277, 13.049559278235831, -4.853566664771182, 16.359390565477717, 10.100081316298885, 1.5182750853117817, -3.8192700913571733, -9.20870926158871, 15.469714201566239], [8.792770067791311, 5.95068597158717, -4.838265782525616, 8.434320794070983, -16.03262564332563, -9.962708856967058, 16.801449624211063, -12.151846996830368, 18.16885203029351, -5.921152789173555, 16.444783940950472, -5.462626811776523], [0.10386529659084383, 25.233261930008066, -21.38530698820209, 3.6741997550957652, -3.820313605451478, -3.3166702904246765, -9.019027313050836, 7.6855812425851955, 9.791277575139498, -0.538980333952326, 1.6619803593322586, -18.46492544895996], [2.231311089998032, -13.39382906923487, -2.8503202639349, -11.98865655479522, -4.288944871057129, 17.937257483361346, 5.60372373297364, -10.560791448505388, -0.6863451779999329, 9.954181342376808, 2.9833244964903582, 2.066090475683989], [-17.046157286100545, -4.694061145263466, 15.400889905678087, 3.144907123045841, 5.810598946964804, 20.478432700787785, 21.262048754445114, 4.777723472860346, 3.6231582679798184, -20.603838153960133, -12.940110080281746, -16.82545146058621], [5.434621284571096, -4.03383092194139, -15.645922979112969, 11.708680085356026, 5.9865969564248, 8.66351412944693, 15.157622005403063, 13.341956247179521, 6.438086023279814, -3.677266143423619, 5.363307785578755, 6.9291545515619895], [2.14209789343939, 3.2191362104783314, -11.047414334490572, -16.09297528688047, -6.964929106887782, 9.218708989513553, -5.3476679345292215, 8.853351241978627, 18.82877513720256, -15.04106208517064, 17.486102549306555, -7.921431513098518], [2.4588306702401352, -19.69657906418323, -2.4580966391294057, 10.781433978523744, -9.285050424530779, -22.13489000321085, -5.705601135860233, 17.23021025120773, 18.15273857938565, -19.887035828496483, -8.40368694500249, -0.4167288679898556], [6.700997633289668, -0.20776912054193863, 17.77141269760649, 4.415062734969711, 0.8399011744142433, 9.461020515604856, 4.530327736565431, -6.351285176266969, 28.236901357171803, -2.5282838417444857, -8.371842439210203, 3.3283637490782603], [-10.780124684879983, 12.042064542039032, 0.4213019589808461, -1.337568668941072, -4.677014846337786, -6.282026836369209, 1.8053947565210926, -12.386961862045599, -7.701470196886144, -7.148257761126909, -4.423568176805702, 17.455865555846394], [10.327460651644197, 3.4905213681695892, -3.8315491194608486, 7.106487211509528, -11.653101294541967, 7.609312884000986, 13.163884080758221, 5.351478987068466, -13.257159032737759, -19.764580110453885, 4.628359484835006, -2.1986828230221542], [-5.551881618732434, -10.256525796282789, -7.188482319085009, -4.272809948159272, -3.7091243230224213, 37.92501125237481, -7.647389174133943, -3.001073406769545, 4.7195757146510084, 6.606689506184868, 4.907671260795523, 5.583292640739222], [-9.666154742675808, 18.534805560196094, -4.1533071787614375, -10.591815019301436, 11.390394285666643, 9.23831061184027, -4.248779484233955, -7.764089344647731, -3.0747878941105236, 7.550583210398312, -5.751790206669648, -13.793161468732805], [1.4462326271182122, 18.962354577421873, -19.279720604915386, -7.505410145000127, -5.41914747971837, -14.08986252950681, 16.126372913333885, 2.2045923494552038, 5.6593855522714405, -17.777155390683728, 33.55056953051095, 28.700379400957317], [-4.900317170946545, -23.183047858599164, 2.042455260480642, 6.247659848892452, -11.047181926271186, -11.709552290617191, 10.676051858543678, 2.709351814262069, 16.407405700197472, -29.66096298163366, -7.301791141495496, -9.145744940703866]], "weights_ho": [[-5.917241658391162, -10.523789077518172, -0.4363885205331526, -5.300687339512817, 13.377602168069927, -24.509995554190393, 17.309007423707314, 28.101319549091585, 9.85901813555666, -9.65520902646335, -15.996328712093753, 1.6896227226358056, -3.9925012835454505, -1.9948624617542285, 15.137201686879868, 4.92952834901182], [-5.41444519697865, -2.493462524998295, 8.855472655332258, -18.98324429417532, 18.627512031200602, -10.290665854350006, 4.162952605064579, -1.4875833546919157, -10.495489196662383, 5.163855724835057, 16.295980481546895, -37.88809442332377, -4.7725910063492485, 6.7660198951890145, -20.14729132312519, -7.110851543634355], [3.7614100964639383, -7.881307455676956, -4.133683924621518, -3.4564528173370292, -8.23667663580996, 7.51119486151313, -4.444949990988467, 0.4525159178756522, 3.601216976183535, 5.58983450195596, 22.07218903247378, -5.148906415437367, 13.585265149732242, -24.002253580028867, -19.309026263732523, 6.457548773742695], [-2.425806456722618, 32.57987893918381, -13.133594481758845, 8.998930176655573, -3.363240290516384, -1.0466720431130598, 12.089944237711912, -3.1493955318629907, 28.08906949700148, -24.880898385678147, 9.139702030352376, -11.351962467310758, -16.715527820975844, -6.219704368460567, -2.7752027794343905, 13.568565605826924]], "bias_h": [[-10.13847014018155], [-8.137209850444638], [-11.447544264334], [-17.784255222453776], [-2.190347534367023], [5.8139734111280905], [21.901663953276596], [20.190381493405336], [3.3058019391087154], [-0.4702504409014725], [-0.2420741071103751], [16.430865029255028], [8.456463137264612], [1.376017873209673], [12.662269738677928], [6.764278412154725]], "bias_o": [[-4.334831635084102], [-1.3013002031377672], [-11.477748090798437], [-12.278629367211217]]}, {"input_nodes": 12, "hidden_nodes": 16, "output_nodes": 4, "weights_ih": [[0.9551530667729033, 4.854777138629618, -8.3947223292048, -3.747998355860768, 7.054114027880084, -8.744364939356805, 8.93678725706796, -0.4532662512564705, 2.648904090040607, 0.12279797932625033, -5.771537098351021, -16.392777912272635], [-0.5165571608816965, -13.673657842381859, 6.010612262420389, -2.6884974141815308, 13.323564404394599, -4.784452520555137, 16.32786119985514, 10.192428387109763, 1.5182750853117817, -3.8991390472829655, -9.20870926158871, 15.469714201566239], [8.792770067791311, 6.07715290639659, -4.9411387724728835, 8.434320794070983, -15.920504517504368, -9.928465219920803, 16.85419163401487, -12.151846996830368, 18.257834409366385, -5.921152789173555, 16.444783940950472, -5.4631415791261455], [0.052877030745039855, 25.2387709717508, -21.43132856000481, 3.6741997550957652, -3.698220531412491, -3.3166702904246765, -8.917305839119225, 7.6855812425851955, 9.791277575139498, -0.538980333952326, 1.6207641592973905, -18.42599472542095], [2.231311089998032, -13.269482440997214, -2.8503202639349, -11.98865655479522, -4.288944871057129, 17.76755710975482, 5.60372373297364, -10.511376884270986, -0.6238329496224788, 9.954181342376808, 2.9833244964903582, 2.174929923874033], [-17.073420601409552, -4.748231239939786, 15.44247630477424, 3.144907123045841, 5.810598946964804, 20.335111794513995, 21.21252607913808, 4.8427652172491635, 3.537596518173593, -20.441678151736827, -13.104188422145675, -16.82545146058621], [5.434621284571096, -4.03383092194139, -15.645922979112969, 11.708680085356026, 5.9865969564248, 8.66351412944693, 15.255252372131624, 13.504695289969147, 6.346243102191812, -3.677266143423619, 5.146587318782477, 6.999727083730462], [2.4101554762057873, 3.1899336743915763, -10.989146162302978, -16.09297528688047, -6.893482521356769, 9.228213372495402, -5.19040680618282, 8.853351241978627, 18.82877513720256, -15.04106208517064, 17.560636097716884, -8.037597921983922], [2.6682921648918594, -19.859016164996607, -2.4272083837680536, 10.628501464874912, -9.21198630469332, -22.13489000321085, -5.705601135860233, 17.190989630110117, 18.15273857938565, -19.878665369815703, -8.348108887150735, -0.4167288679898556], [6.706637952065155, -0.20776912054193863, 17.863217060801624, 4.415062734969711, 0.8399011744142433, 9.668843784623332, 4.575826241368639, -6.351285176266969, 28.236901357171803, -2.454571210828095, -8.553831697599392, 3.290639059524613], [-10.780124684879983, 12.069141432157922, 0.4213019589808461, -1.1857327714670056, -4.826733990556681, -6.282026836369209, 1.63706733098753, -12.434745864913726, -7.701470196886144, -7.148257761126909, -4.5401161493803235, 17.455865555846394], [10.361271474180693, 3.4905213681695892, -3.8315491194608486, 7.106487211509528, -11.653101294541967, 7.664117534858563, 13.287931731960233, 5.351478987068466, -13.39832898988042, -19.764580110453885, 4.628359484835006, -2.271052568669655], [-5.551881618732434, -10.256525796282789, -7.157537853882808, -4.272809948159272, -3.7091243230224213, 37.81635454617405, -7.647389174133943, -2.9702299833126684, 4.647822121664252, 6.65164095300556, 4.907671260795523, 5.658505469003187], [-9.666154742675808, 18.816547974231636, -4.153940674782818, -10.605838603214528, 11.390394285666643, 9.23831061184027, -4.451238329011216, -7.865807141686134, -3.0747878941105236, 7.550583210398312, -5.751790206669648, -13.793161468732805], [1.4462326271182122, 18.88614842667787, -19.279720604915386, -7.505410145000127, -5.465432802322396, -14.08986252950681, 16.126372913333885, 2.2045923494552038, 5.6593855522714405, -17.821254968047434, 33.55056953051095, 28.700379400957317], [-4.900317170946545, -23.19730790722783, 2.0339180384340465, 6.041402953416177, -11.154618146856322, -11.709552290617191, 10.496584948897592, 2.710021162253679, 16.407405700197472, -29.66096298163366, -7.365331173768054, -9.145744940703866]], "weights_ho": [[-5.876210914746054, -10.523789077518172, -0.4363885205331526, -5.24155424552762, 13.377602168069927, -24.403303885159172, 17.309007423707314, 28.101319549091585, 9.935966868004291, -9.80666072409515, -16.073338576294567, 1.790572304527476, -3.9925012835454505, -1.9948624617542285, 15.137201686879868, 4.92952834901182], [-5.543750546365056, -2.493462524998295, 8.855472655332258, -19.061624142820726, 18.627512031200602, -10.290665854350006, 4.162952605064579, -1.358635233622806, -10.495489196662383, 5.424928000815177, 16.295980481546895, -37.867023535474026, -4.7725910063492485, 6.811047686072606, -19.94927201004754, -7.110851543634355], [3.803530902674671, -8.020474434183011, -4.075599284099945, -3.5065752031853124, -8.475082092833786, 7.51119486151313, -4.444949990988467, 0.4525159178756522, 3.601216976183535, 5.4996775929773305, 22.07218903247378, -5.148906415437367, 13.567540832042521, -24.002253580028867, -19.35738578729836, 6.457548773742695], [-2.425806456722618, 32.57987893918381, -13.245496026626203, 8.951289574299876, -3.363240290516384, -1.0331366280274659, 12.089944237711912, -3.1493955318629907, 28.08906949700148, -24.86419019115232, 9.139702030352376, -11.351962467310758, -16.715527820975844, -6.219704368460567, -2.7752027794343905, 13.509516559514308]], "bias_h": [[-10.13847014018155], [-8.229377071426665], [-11.61203855092237], [-17.784255222453776], [-2.3212958548941534], [5.8139734111280905], [22.037709409147844], [20.190381493405336], [3.5698352466987546], [-0.4702504409014725], [-0.2420741071103751], [16.395465523609126], [8.456463137264612], [1.376017873209673], [12.662269738677928], [6.764278412154725]], "bias_o": [[-4.17613573533048], [-1.2188930163020129], [-11.324314632844919], [-12.209290973522673]]}, {"input_nodes": 12, "hidden_nodes": 16, "output_nodes": 4, "weights_ih": [[1.0085955297856994, 4.809763351427137, -8.553297062281889, -3.6822163967342703, 7.054114027880084, -8.480926173148115, 9.018929139312654, -0.3715633777150633, 2.785855927311977, -0.03790453901438903, -5.755523056081809, -16.392777912272635], [-0.4750724446880662, -13.673657842381859, 5.940876647892264, -2.8763640770096277, 13.049559278235831, -4.855929087609617, 16.499089875104456, 10.100081316298885, 1.7266243727521684, -3.856850878594013, -9.20870926158871, 15.324164453231287], [8.795339487085087, 5.95068597158717, -4.838265782525616, 8.434320794070983, -16.139955155232233, -10.17581473099313, 16.801449624211063, -12.279174938951321, 18.221012181732338, -5.880668366577561, 16.444783940950472, -5.462626811776523], [-0.05931995288381588, 25.158699200312757, -21.49047419097945, 3.5253993563573527, -3.719984629057833, -3.3166702904246765, -9.019027313050836, 7.6855812425851955, 9.791277575139498, -0.538980333952326, 1.6619803593322586, -18.46492544895996], [2.316252893585304, -13.39382906923487, -2.8503202639349, -11.98865655479522, -4.288944871057129, 17.937257483361346, 5.60372373297364, -10.722284381891964, -0.723857145313461, 10.008676143242495, 2.9889432749319145, 1.993869706373759], [-16.984824161533943, -4.694061145263466, 15.445837903811155, 3.144907123045841, 5.630374570381565, 20.574472987839464, 21.21398249849587, 4.777723472860346, 3.616333347324044, -20.603838153960133, -12.955052852477996, -16.82545146058621], [5.584494581927592, -4.03383092194139, -15.645922979112969, 11.818817747265715, 5.876514238768073, 8.644187862097622, 15.157622005403063, 13.370431379488455, 6.333839900065613, -3.557798564416319, 5.459943281833481, 6.9291545515619895], [2.2778524502463, 3.3603627714658137, -11.077390435375271, -16.09612841935536, -6.964929106887782, 9.218708989513553, -5.251855365291513, 8.87571362774072, 18.82877513720256, -14.970974662405538, 17.483684236217535, -7.962847131539862], [2.4588306702401352, -19.69657906418323, -2.6549209521093404, 10.781433978523744, -9.285050424530779, -22.13489000321085, -5.705601135860233, 17.23021025120773, 18.12778283145278, -20.020806372534658, -8.496565430755387, -0.32098880246263944], [6.700997633289668, -0.20776912054193863, 17.77141269760649, 4.361522316239331, 0.762823275854818, 9.461020515604856, 4.540732721356285, -6.351285176266969, 28.11701109725081, -2.5282838417444857, -8.424606482885356, 3.3283637490782603], [-10.780124684879983, 11.931781556871583, 0.48842089553336676, -1.2031481431295101, -4.889966826065332, -6.282026836369209, 1.7215246900877346, -12.465202313286246, -7.7563947984356805, -7.2930872974117955, -4.423568176805702, 17.455865555846394], [10.327460651644197, 3.5863168341229685, -3.8315491194608486, 6.963054275731239, -11.653101294541967, 7.4686166696363445, 13.163884080758221, 5.290909832318844, -13.257159032737759, -19.764580110453885, 4.628359484835006, -2.1423132113889922], [-5.551881618732434, -10.43906701006006, -7.115074594145157, -4.272809948159272, -3.62693292713889, 37.91848800911565, -7.647389174133943, -3.001073406769545, 4.652082068658425, 6.724556496787123, 4.853274231303685, 5.583292640739222], [-9.433590686905216, 18.534805560196094, -4.1533071787614375, -10.591815019301436, 11.560218588283933, 9.23831061184027, -4.248779484233955, -7.717134763028501, -3.0951520271597297, 7.550583210398312, -5.7387533802311514, -13.855291481636696], [1.4462326271182122, 18.962354577421873, -19.279720604915386, -7.5085937954591415, -5.41914747971837, -14.08986252950681, 16.126372913333885, 2.2998538697062805, 5.6593855522714405, -17.88136029760778, 33.55056953051095, 28.700379400957317], [-4.877965715876266, -22.997635703466248, 2.009532161705308, 6.247659848892452, -11.269021419621538, -11.709552290617191, 10.676051858543678, 2.709351814262069, 16.407405700197472, -29.66096298163366, -7.283057913644608, -9.145744940703866]], "weights_ho": [[-5.917241658391162, -10.551294512002867, -0.4363885205331526, -5.300687339512817, 13.377602168069927, -24.205284669529483, 17.320193508238667, 28.18209124340539, 9.85901813555666, -9.65520902646335, -15.996328712093753, 1.6896227226358056, -3.9925012835454505, -1.9948624617542285, 14.913800594804298, 4.92952834901182], [-5.41444519697865, -2.493462524998295, 8.855472655332258, -18.98324429417532, 18.566473637284243, -10.290665854350006, 4.108302567911481, -1.4875833546919157, -10.525316970531867, 5.2639142444923595, 16.295980481546895, -37.88809442332377, -4.7725910063492485, 6.906966305203675, -20.14729132312519, -6.8745199984705785], [3.7126560259748684, -7.896873803517283, -4.133683924621518, -3.439496855174143, -8.23667663580996, 7.51119486151313, -4.444949990988467, 0.4525159178756522, 3.6998918032997445, 5.541564676808608, 22.07218903247378, -5.148906415437367, 13.585265149732242, -23.943712136810674, -19.309026263732523, 6.457548773742695], [-2.441890223807041, 32.57987893918381, -13.188813283284293, 8.998930176655573, -3.363240290516384, -1.1095272279782291, 11.956695174345919, -3.010277281195683, 28.099410858391458, -24.880898385678147, 9.139702030352376, -11.351962467310758, -16.792903688847012, -6.1712964258679355, -2.7752027794343905, 13.568565605826924]], "bias_h": [[-10.13847014018155], [-8.140627357348544], [-11.359674537155653], [-17.864826276711252], [-2.0735994302552814], [5.8139734111280905], [21.901663953276596], [20.024324300870813], [3.2681619462663507], [-0.4702504409014725], [-0.23812632561929237], [16.430865029255028], [8.616666330829657], [1.4802014926144966], [12.788957686121366], [6.764278412154725]], "bias_o": [[-4.344093252744282], [-1.3001572216595052], [-11.477748090798437], [-12.278629367211217]]}, {"input_nodes": 12, "hidden_nodes": 16, "output_nodes": 4, "weights_ih": [[0.9551530667729033, 4.827324482176161, -8.494442910724558, -3.747998355860768, 7.054114027880084, -8.64098705170429, 8.878741392337316, -0.3715633777150633, 2.6727667441496394, 0.21946740535784037, -5.755523056081809, -16.261551045914793], [-0.5165571608816965, -13.594242997116968, 5.94247103325376, -3.0117363294288855, 13.049559278235831, -4.853566664771182, 16.33784073677886, 10.236737202205733, 1.5892657376830222, -3.8192700913571733, -9.169953337045882, 15.732549843878752], [9.204417345937445, 5.95068597158717, -4.941145284068625, 8.434320794070983, -16.03262564332563, -9.962708856967058, 16.562763034934548, -12.151846996830368, 17.997126869332455, -5.921152789173555, 16.444783940950472, -5.366123068868339], [0.19569114433430923, 25.221095606815457, -21.39033593449561, 3.769831032250863, -3.8298915753955405, -3.3166702904246765, -9.078179543226089, 7.70432378811453, 9.794839334464736, -0.538980333952326, 1.7374351543216477, -18.446870109589344], [2.231311089998032, -13.39382906923487, -2.815706534856376, -11.773677363837542, -4.288944871057129, 17.944143657704817, 5.60372373297364, -10.560791448505388, -0.6863451779999329, 9.962376840281923, 2.9833244964903582, 2.066090475683989], [-17.06472330998661, -4.694061145263466, 15.400889905678087, 3.124713417673148, 5.822020375146302, 20.43342890181153, 21.262048754445114, 4.777723472860346, 3.6231582679798184, -20.49903693905537, -12.940110080281746, -16.756828941448877], [5.434621284571096, -3.9679122737098904, -15.645922979112969, 11.788484382159666, 5.9611293659901925, 8.83528918990356, 15.157622005403063, 13.341956247179521, 6.445045939148637, -3.636156631539063, 5.363307785578755, 6.9291545515619895], [2.2461083966974806, 3.223542878609757, -11.047414334490572, -16.09065167275726, -7.1629176082483355, 9.218708989513553, -5.350721960296249, 8.853351241978627, 18.82877513720256, -14.947990935279458, 17.486102549306555, -7.921431513098518], [2.4588306702401352, -19.495486207688845, -2.4580966391294057, 10.672588060027408, -9.280789759177273, -22.13489000321085, -5.730915668449831, 17.23021025120773, 18.15273857938565, -19.85095810192593, -8.40368694500249, -0.35558528516739174], [6.725962987145774, -0.20776912054193863, 17.871812181450313, 4.415062734969711, 0.8399011744142433, 9.414435921008973, 4.562380362006045, -6.4044745894686, 28.236901357171803, -2.3551896752015136, -8.309379295553976, 3.3283637490782603], [-10.927246420372802, 12.150551378638607, 0.4213019589808461, -1.369936561002319, -4.623577898380247, -6.282026836369209, 1.8473942058424693, -12.355872315281664, -7.629560822019717, -7.164438111460453, -4.423568176805702, 17.455865555846394], [10.412747093453932, 3.525505521418675, -3.8315491194608486, 7.050101437745244, -11.653101294541967, 7.656765628789719, 13.163884080758221, 5.351478987068466, -13.257159032737759, -19.83792083073137, 4.403665042088673, -2.372710523848897], [-5.645995716183712, -10.256525796282789, -7.188482319085009, -4.258664602970076, -3.714891610775158, 37.882439052560116, -7.647389174133943, -2.8522821951753348, 4.929831469146042, 6.822264907333406, 4.907671260795523, 5.583292640739222], [-9.558116421187773, 18.41122692785319, -4.059834486424692, -10.548688987698933, 11.26037918629848, 9.33705635908352, -4.248779484233955, -7.764089344647731, -3.0747878941105236, 7.669658503948743, -5.751790206669648, -13.793161468732805], [1.4462326271182122, 18.962354577421873, -19.279720604915386, -7.505410145000127, -5.414128462652339, -14.08986252950681, 16.126372913333885, 2.0420575958059497, 5.6593855522714405, -17.71051764786477, 33.600418889341235, 28.805837393315056], [-4.900317170946545, -23.183047858599164, 2.042455260480642, 6.247659848892452, -11.047181926271186, -11.709552290617191, 10.676051858543678, 2.847832964030339, 16.264947745841884, -29.66096298163366, -7.301791141495496, -9.145744940703866]], "weights_ho": [[-5.917241658391162, -10.528705261609963, -0.3497202317152834, -5.412838285112228, 13.349912553431245, -24.509995554190393, 17.307892057676373, 28.082371418552512, 9.606355938774692, -9.847236019402448, -15.996328712093753, 1.6896227226358056, -3.844316281231856, -1.9948624617542285, 15.010845471516237, 4.92952834901182], [-5.41444519697865, -2.493462524998295, 8.855472655332258, -19.096121335794948, 18.627512031200602, -10.27025429514975, 4.162952605064579, -1.4875833546919157, -10.495489196662383, 5.163855724835057, 16.295980481546895, -37.88809442332377, -4.790616079072798, 6.715418038033906, -20.14729132312519, -7.1020198209733], [3.7614100964639383, -7.824356110888442, -4.249560038136787, -3.4564528173370292, -8.23667663580996, 7.482810661030854, -4.444949990988467, 0.4394149399908353, 3.601216976183535, 5.58983450195596, 22.122558871664168, -5.381617266849143, 13.547802480984986, -24.002253580028867, -19.30398164399594, 6.515642893243179], [-2.425806456722618, 32.57987893918381, -13.133594481758845, 8.998930176655573, -3.363240290516384, -1.0466720431130598, 12.089944237711912, -3.1843739830608695, 28.113120294785094, -24.880898385678147, 9.139702030352376, -11.367311354710196, -16.715527820975844, -6.173236334336951, -2.7752027794343905, 13.568565605826924]], "bias_h": [[-10.13847014018155], [-8.358431685886217], [-11.539937582019737], [-17.784255222453776], [-2.1266421744502524], [5.8139734111280905], [21.906574894442127], [20.190381493405336], [3.3901389704967464], [-0.4702504409014725], [-0.2420741071103751], [16.430865029255028], [8.456463137264612], [1.485454913761671], [12.662269738677928], [6.764278412154725]], "bias_o": [[-4.329456781930988], [-1.2747533343451682], [-11.477748090798437], [-12.249908698287962]]}, {"input_nodes": 12, "hidden_nodes": 16, "output_nodes": 4, "weights_ih": [[1.1162571354655304, 4.850678592550807, -8.494442910724558, -3.724722448772684, 7.054114027880084, -8.637963040631982, 8.93678725706796, -0.3715633777150633, 2.6727667441496394, 0.15459018256472276, -5.812927854021973, -16.46160299902582], [-0.5165571608816965, -13.673657842381859, 6.010612262420389, -2.9090171351561893, 13.049559278235831, -4.60274389571565, 16.359390565477717, 10.063095188823933, 1.6666975182165022, -3.8192700913571733, -9.20870926158871, 15.469714201566239], [8.792770067791311, 5.95068597158717, -4.642448452074498, 8.629132466090832, -15.994829977111676, -9.813913482113358, 16.801449624211063, -12.138848201585143, 18.064116817567218, -5.977414344351259, 16.555027935905798, -5.496642617989738], [0.14864824688284906, 25.233261930008066, -21.417640403998107, 3.6741997550957652, -3.820313605451478, -3.3166702904246765, -9.019027313050836, 7.683859230843613, 9.69390947993507, -0.538980333952326, 1.6168015094020165, -18.46492544895996], [2.05121986395179, -13.48459574841539, -2.8503202639349, -11.98865655479522, -4.259790892803105, 17.948059814858137, 5.60372373297364, -10.560791448505388, -0.6863451779999329, 9.954181342376808, 2.9833244964903582, 2.066090475683989], [-17.105869832529788, -4.706290684934332, 15.400889905678087, 3.144907123045841, 5.924545041061108, 20.5808572507331, 21.048993699011987, 4.777723472860346, 3.542840908238825, -20.578226056565576, -12.940110080281746, -16.82545146058621], [5.434621284571096, -4.03383092194139, -15.645922979112969, 11.708680085356026, 5.989334166924546, 8.56168335491126, 15.157622005403063, 13.26496472182786, 6.438086023279814, -3.677266143423619, 5.363307785578755, 7.088280097798879], [2.14209789343939, 3.241313602002181, -11.047414334490572, -16.09297528688047, -6.964929106887782, 9.276246655043558, -5.3476679345292215, 8.853351241978627, 18.98865839551794, -15.08424529002367, 17.42886863383026, -7.921431513098518], [2.5708015667736053, -19.69657906418323, -2.4975103824645357, 10.781433978523744, -9.285050424530779, -22.01802833185371, -5.820351874405089, 17.21169544838047, 18.030761970720153, -19.75190124325228, -8.40368694500249, -0.27011076699452513], [6.793315508603488, -0.20776912054193863, 17.752605458764357, 4.613586635796248, 0.8601673222903539, 9.461020515604856, 4.514900831684743, -6.369874992427185, 28.236901357171803, -2.5312494311367466, -8.304181617078855, 3.3283637490782603], [-10.780124684879983, 12.042064542039032, 0.4213019589808461, -1.2482735014966484, -4.677014846337786, -6.265583328047254, 1.8053947565210926, -12.658202800545316, -7.701470196886144, -7.2351120998839535, -4.423568176805702, 17.472202927542387], [10.244751840768602, 3.4905213681695892, -3.8315491194608486, 7.106487211509528, -11.653101294541967, 7.609312884000986, 13.036596715978039, 5.351478987068466, -13.257159032737759, -19.82355999553025, 4.585330057685617, -2.047573318892728], [-5.551881618732434, -10.256525796282789, -7.188482319085009, -4.485144880424312, -3.7091243230224213, 37.89392675316154, -7.5386503375741265, -2.8811166852521994, 4.7195757146510084, 6.60318037289079, 4.883962861348687, 5.343591409066633], [-9.666154742675808, 18.63224288902365, -4.1533071787614375, -10.591815019301436, 11.390394285666643, 9.281040426602846, -4.162178862530831, -7.730479186382186, -3.0747878941105236, 7.550583210398312, -5.747461711925299, -13.793161468732805], [1.3619156818035956, 18.929316337047947, -19.279720604915386, -7.505410145000127, -5.41914747971837, -14.135380047143032, 16.2252151609827, 2.3582954323801855, 5.572345196421016, -17.777155390683728, 33.55056953051095, 28.567767898650295], [-4.615727286984257, -23.25890306110924, 2.042455260480642, 6.189241092855124, -11.047181926271186, -11.64209601433631, 10.676051858543678, 2.5314931177365505, 16.40856447154301, -29.61634127828459, -7.301791141495496, -9.11883282662431]], "weights_ho": [[-5.917241658391162, -10.379867640018071, -0.4363885205331526, -5.300687339512817, 13.273915559595215, -24.547369857198326, 17.3306413457847, 28.101319549091585, 9.85901813555666, -9.65520902646335, -15.939497817059168, 1.5907498183728037, -3.9925012835454505, -1.9948624617542285, 15.057989574751312, 4.92952834901182], [-5.480988656284922, -2.493462524998295, 8.855472655332258, -18.980573878217598, 18.627512031200602, -10.290665854350006, 4.162952605064579, -1.4875833546919157, -10.486086073419276, 5.163855724835057, 16.295980481546895, -37.79932009375565, -4.7642328420336995, 6.776962622623219, -20.14729132312519, -7.03873408720252], [3.7614100964639383, -7.834323390455202, -4.049966201707968, -3.4564528173370292, -8.228184105928314, 7.51119486151313, -4.5434379150098465, 0.4525159178756522, 3.593434435289429, 5.687262987800401, 22.07218903247378, -5.148906415437367, 13.488971350916215, -24.002253580028867, -19.263231975019558, 6.50650018951587], [-2.3922108662466632, 32.57987893918381, -13.284585994477506, 9.076826811643025, -3.429188760073833, -1.0466720431130598, 12.089944237711912, -3.1493955318629907, 28.08906949700148, -24.87148277969218, 9.052285613894242, -11.351962467310758, -16.712886315373552, -6.219704368460567, -2.7752027794343905, 13.568565605826924]], "bias_h": [[-10.141532857450716], [-8.240435860113893], [-11.301460756113592], [-17.784255222453776], [-2.190347534367023], [5.827275808669923], [21.901663953276596], [20.276495193317114], [3.3058019391087154], [-0.5592655773687261], [-0.3341380527314134], [16.430865029255028], [8.456463137264612], [1.4689390758730845], [12.662269738677928], [6.847567981328743]], "bias_o": [[-4.342062948611434], [-1.2355517595364947], [-11.477748090798437], [-12.236607367960385]]}, {"input_nodes": 12, "hidden_nodes": 16, "output_nodes": 4, "weights_ih": [[0.9551530667729033, 4.860907189571933, -8.494442910724558, -3.838043514128655, 7.054114027880084, -8.641481367475826, 8.93678725706796, -0.3715633777150633, 2.6727667441496394, 0.12279797932625033, -5.755523056081809, -16.392777912272635], [-0.5165571608816965, -13.673657842381859, 6.010612262420389, -2.748912830407836, 13.049559278235831, -4.853566664771182, 16.359390565477717, 10.209048534209302, 1.69302830939009, -3.8192700913571733, -9.196896313286832, 15.469714201566239], [8.792770067791311, 5.95068597158717, -4.838265782525616, 8.434320794070983, -16.03262564332563, -9.934078495574285, 16.801449624211063, -12.16694482284067, 18.16885203029351, -5.921152789173555, 16.444783940950472, -5.451097319816474], [0.0654949110203034, 25.233261930008066, -21.34862233196668, 3.5936645269974705, -3.797225975557993, -3.3166702904246765, -9.019027313050836, 7.6855812425851955, 9.594222560485013, -0.415548721570368, 1.6619803593322586, -18.524560233349803], [2.231311089998032, -13.444931425789846, -2.8885010021662687, -11.98865655479522, -4.424352960435336, 17.937257483361346, 5.585508433955426, -10.560791448505388, -0.6863451779999329, 9.954181342376808, 2.9833244964903582, 2.066090475683989], [-17.075175803834313, -4.7646626642511425, 15.491115330609208, 3.144907123045841, 5.622671010647347, 20.41943279872154, 21.34954911858394, 4.777723472860346, 3.6231582679798184, -20.637633638143104, -12.940110080281746, -16.859997564040217], [5.434621284571096, -4.03383092194139, -15.684384046958371, 11.59556442969053, 5.82998580533649, 8.66351412944693, 15.195781310317777, 13.341956247179521, 6.198927403762649, -3.595520274948834, 5.363307785578755, 6.858353243231132], [2.161861122552612, 3.301375806382899, -11.047414334490572, -16.09297528688047, -6.854892104169249, 9.218708989513553, -5.357795144061752, 8.799271859313913, 18.836489679689787, -15.074393898678686, 17.486102549306555, -7.921431513098518], [2.45270829625188, -19.69657906418323, -2.4580966391294057, 10.779368814695996, -9.431084467712571, -22.13489000321085, -5.768136285952033, 17.23021025120773, 18.15273857938565, -19.772066888377804, -8.332142749488906, -0.6123562510652325], [6.568642076037551, -0.20776912054193863, 17.913419055858665, 4.415062734969711, 0.8399011744142433, 9.461020515604856, 4.530327736565431, -6.351285176266969, 28.236901357171803, -2.5282838417444857, -8.371842439210203, 3.14109125694432], [-10.780124684879983, 12.042064542039032, 0.4576067435731553, -1.2798919535368902, -4.876792385548284, -6.282026836369209, 1.7213127623109052, -12.261008843156837, -7.664170062289311, -7.1535052309871965, -4.423568176805702, 17.436760687400092], [10.327460651644197, 3.392088732260602, -3.8363796878354317, 7.310451605740602, -11.653101294541967, 7.541555809164308, 13.223149508252723, 5.351478987068466, -13.291419345064776, -19.764580110453885, 4.628359484835006, -2.239487360394691], [-5.551881618732434, -10.256525796282789, -7.188482319085009, -4.272809948159272, -3.7091243230224213, 37.92501125237481, -7.647389174133943, -3.001073406769545, 4.7195757146510084, 6.606689506184868, 4.907671260795523, 5.583292640739222], [-9.605752898718794, 18.534805560196094, -4.1533071787614375, -10.591815019301436, 11.253342097923156, 9.23831061184027, -4.248779484233955, -7.764089344647731, -3.1971798654399315, 7.635826910050755, -5.850784609984032, -13.879851314048182], [1.4462326271182122, 18.962354577421873, -19.435970715256044, -7.600775480848312, -5.364515492602161, -14.146418340252751, 16.14247694061908, 2.308921009565329, 5.7267931231604985, -17.574821160126156, 33.74960836039493, 28.790949207965042], [-4.935816290032188, -23.183047858599164, 2.042455260480642, 6.387173974833751, -11.047181926271186, -11.709552290617191, 10.676051858543678, 2.709351814262069, 16.407405700197472, -29.664832554764992, -7.301791141495496, -9.277060108132074]], "weights_ho": [[-5.917241658391162, -10.523789077518172, -0.2438993820748513, -5.300687339512817, 13.586842945068245, -24.509995554190393, 17.309007423707314, 28.101319549091585, 9.85076865440415, -9.65520902646335, -15.889538073923928, 1.6069319428511641, -3.90235989837111, -1.9948624617542285, 14.950600155943434, 4.92952834901182], [-5.41444519697865, -2.493462524998295, 8.854780601716111, -18.849097522832338, 18.52735711115196, -10.290665854350006, 4.162952605064579, -1.4875833546919157, -10.495489196662383, 5.163855724835057, 16.27090055590541, -37.905343957490466, -5.013390294843304, 6.7660198951890145, -20.14729132312519, -7.110851543634355], [3.798127037475201, -7.9551353279965795, -4.133683924621518, -3.5121190044193833, -8.1951539216559, 7.51119486151313, -4.444949990988467, 0.4916570738909595, 3.5691646234026733, 5.58983450195596, 22.07218903247378, -5.1449486195315215, 13.585265149732242, -24.002253580028867, -19.150723000216825, 6.480073835823684], [-2.505071325852199, 32.57987893918381, -13.133594481758845, 8.998930176655573, -3.363240290516384, -1.0466720431130598, 12.058163740690206, -3.08992556407154, 27.92072671327936, -24.80363821355884, 9.14776683262423, -11.53076005848161, -16.715527820975844, -6.219704368460567, -2.5818833780628045, 13.529356729448445]], "bias_h": [[-10.292340071045981], [-8.30192523946994], [-11.447544264334], [-17.784255222453776], [-2.203128526880803], [6.025605940285796], [21.901663953276596], [20.206410835398163], [3.282790604168429], [-0.4702504409014725], [-0.16966452659056852], [16.430865029255028], [8.208195167604254], [1.376017873209673], [12.662269738677928], [6.861012572572917]], "bias_o": [[-4.2748415361252965], [-1.417044275643033], [-11.477748090798437], [-12.278629367211217]]}, {"input_nodes": 12, "hidden_nodes": 16, "output_nodes": 4, "weights_ih": [[0.8762792376809541, 4.701367928780789, -8.470174177494952, -3.747998355860768, 7.030925904801096, -8.637963040631982, 8.859675052921254, -0.3715633777150633, 2.6727667441496394, 0.14207159951485637, -5.755523056081809, -16.36009379523699], [-0.5870954021525262, -13.721468979095397, 6.199898599246567, -2.8710551056467515, 13.069681116391138, -4.837551447318261, 16.12179818745461, 10.214409169305618, 1.5182750853117817, -3.8192700913571733, -9.416256735686817, 15.469714201566239], [8.792770067791311, 5.95068597158717, -4.838265782525616, 8.434320794070983, -15.904036144294173, -9.967477881806813, 16.801449624211063, -12.151846996830368, 18.29542677354971, -5.921152789173555, 16.59084922628343, -5.680417943045746], [0.2615647011885638, 25.180758104141194, -21.583172348509905, 3.754305290197804, -3.820313605451478, -3.3166702904246765, -9.099313878466582, 7.830354695150272, 9.791277575139498, -0.6344962988881987, 1.6619803593322586, -18.54604174993292], [2.240768451958656, -13.338318962099258, -2.935004990444695, -11.98865655479522, -4.288944871057129, 17.97508528104847, 5.60372373297364, -10.560791448505388, -0.6605947457713243, 9.735233054312445, 3.0560724035902105, 2.066090475683989], [-16.887225730025055, -4.694061145263466, 15.371716200860856, 3.144907123045841, 5.813952974561113, 20.478432700787785, 21.262048754445114, 4.777723472860346, 3.6231582679798184, -20.603838153960133, -12.940110080281746, -16.82545146058621], [5.603304947655551, -4.087455060611134, -15.645922979112969, 11.708680085356026, 5.959300484481172, 8.66351412944693, 15.261486515641385, 13.341956247179521, 6.438086023279814, -3.8263188077076395, 5.363307785578755, 6.997759383767926], [2.14209789343939, 3.259204392704542, -11.047414334490572, -16.09229052427096, -6.9175997137734, 9.303731503384725, -5.3476679345292215, 8.853351241978627, 18.722039162791315, -15.04106208517064, 17.486102549306555, -7.921431513098518], [2.4765476222887797, -19.86405073005606, -2.4580966391294057, 10.781433978523744, -9.285050424530779, -22.13489000321085, -5.705601135860233, 17.23021025120773, 18.15273857938565, -19.887035828496483, -8.40368694500249, -0.4167288679898556], [6.700997633289668, -0.20776912054193863, 17.749756719888673, 4.286942892545511, 0.8399011744142433, 9.362675792946211, 4.712597556296405, -6.492937181917872, 28.236901357171803, -2.5282838417444857, -8.321926846557588, 3.2247575445515944], [-10.780124684879983, 12.042064542039032, 0.4213019589808461, -1.337568668941072, -4.677014846337786, -6.321654828060002, 1.7320800542995218, -12.386961862045599, -7.701470196886144, -6.998699800310742, -4.423568176805702, 17.455865555846394], [10.262801065166958, 3.356868323005039, -3.8315491194608486, 7.106487211509528, -11.653101294541967, 7.609312884000986, 13.163884080758221, 5.351478987068466, -13.257159032737759, -19.75258685195297, 4.461388220377252, -2.1986828230221542], [-5.66458562754105, -10.054417705295833, -7.188482319085009, -4.272809948159272, -3.71090693170551, 37.92501125237481, -7.451504537867934, -2.8959491486192452, 4.7195757146510084, 6.415717545405698, 4.907671260795523, 5.449183124467612], [-9.457324371997737, 18.544280489185862, -4.159324829456598, -10.591815019301436, 11.665226227175202, 9.23831061184027, -4.248779484233955, -7.764089344647731, -3.0747878941105236, 7.550583210398312, -5.55854160970119, -13.793161468732805], [1.4462326271182122, 18.962354577421873, -19.279720604915386, -7.505410145000127, -5.35733067358544, -14.090306884488726, 16.126372913333885, 2.2045923494552038, 5.6593855522714405, -17.777155390683728, 33.55056953051095, 28.913383537179044], [-4.900317170946545, -23.179658318056767, 2.042455260480642, 6.247659848892452, -11.015601715204058, -11.739514980570444, 10.676051858543678, 2.709351814262069, 16.407405700197472, -29.562292958679738, -7.301791141495496, -9.111545293179544]], "weights_ho": [[-5.843239443708826, -10.543109426024925, -0.3413305944231386, -5.436351150408929, 13.377602168069927, -24.509995554190393, 17.31089660420376, 28.081836598821635, 9.979493403859525, -9.65520902646335, -15.850501729281635, 1.7155779402086615, -3.9925012835454505, -1.94838139237897, 15.074379476707033, 4.92952834901182], [-5.41444519697865, -2.6613566531082227, 8.855472655332258, -18.985708328244296, 18.627512031200602, -10.32975083537112, 4.137948728340789, -1.4505343864373617, -10.495489196662383, 5.125891862861258, 16.283191377932944, -37.911992302693584, -4.553114785042208, 6.7660198951890145, -20.14729132312519, -7.1667287693614155], [3.598852722225855, -7.853336844734457, -4.149910833528079, -3.528360586691198, -8.252683025566865, 7.51119486151313, -4.487766239161263, 0.4525159178756522, 3.5112248788431586, 5.641352999581371, 22.07218903247378, -5.148906415437367, 13.435933037633387, -24.11617089388606, -19.304906378173012, 6.418624309139492], [-2.425806456722618, 32.56885362631208, -13.133594481758845, 9.013147754320952, -3.363240290516384, -1.0466720431130598, 12.26509580515486, -3.1493955318629907, 28.08906949700148, -24.880898385678147, 9.139702030352376, -11.351962467310758, -16.711550958200863, -6.219704368460567, -2.7752027794343905, 13.568565605826924]], "bias_h": [[-10.13847014018155], [-8.137209850444638], [-11.447544264334], [-17.784255222453776], [-2.190347534367023], [5.659136640288482], [21.9304633193989], [20.190381493405336], [3.2685412948866692], [-0.39187808890936576], [-0.1236704520950512], [16.46873641321505], [8.604017554542965], [1.3514630517413184], [12.662269738677928], [6.908633213255316]], "bias_o": [[-4.290630127730382], [-1.3013002031377672], [-11.477748090798437], [-12.278629367211217]]}, {"input_nodes": 12, "hidden_nodes": 16, "output_nodes": 4, "weights_ih": [[0.9502061782832738, 4.809763351427137, -8.460053409808749, -3.747998355860768, 7.054114027880084, -8.637963040631982, 8.85202601603123, -0.3715633777150633, 2.694107040683643, 0.1716810780506577, -5.755523056081809, -16.392777912272635], [-0.5165571608816965, -13.673657842381859, 6.010612262420389, -2.827851208406321, 13.14568016337892, -4.7840559115035495, 16.334551819414802, 10.038398328776966, 1.5182750853117817, -3.8192700913571733, -9.20870926158871, 15.466822739703474], [8.792770067791311, 5.888340601958994, -4.838265782525616, 8.332553732483431, -16.03262564332563, -9.962708856967058, 16.77867363612659, -12.10831267451304, 18.16885203029351, -5.839365347031615, 16.444783940950472, -5.462626811776523], [0.10386529659084383, 25.232935474346554, -21.337898535933356, 3.6741997550957652, -3.8039469530345196, -3.3166702904246765, -9.15000648363543, 7.6855812425851955, 9.706805874352655, -0.538980333952326, 1.6008521403590572, -18.451413088112602], [2.2126857263167543, -13.563639569607654, -2.8503202639349, -11.98865655479522, -4.288944871057129, 17.899602654765538, 5.60372373297364, -10.560791448505388, -0.8259157540291876, 9.954181342376808, 3.0889150651232646, 2.009594005085952], [-16.929266681341062, -4.694061145263466, 15.430149186449896, 3.1678024883673355, 5.878451351270191, 20.478432700787785, 21.262048754445114, 4.777723472860346, 3.41588180416906, -20.603838153960133, -12.948704534270385, -16.96228859469544], [5.434621284571096, -4.03383092194139, -15.645922979112969, 11.64783598934706, 6.089926951697289, 8.780719211937635, 15.090274908471617, 13.299365013521069, 6.438086023279814, -3.6419785575808454, 5.268734806087869, 6.9291545515619895], [2.14209789343939, 3.2191362104783314, -11.047414334490572, -16.129664065356373, -6.973707655953338, 9.176433024434601, -5.506737558386303, 8.853351241978627, 18.605047156127778, -15.04106208517064, 17.599086205801687, -7.873054081845423], [2.5650964995598637, -19.69657906418323, -2.4580966391294057, 10.821490789822958, -9.285050424530779, -22.333863578353967, -5.683786401637112, 17.395990121590234, 18.308949497079062, -19.887035828496483, -8.40368694500249, -0.4167288679898556], [6.844853261846288, -0.2859709242968909, 17.797232566526922, 4.415062734969711, 0.7593302487759939, 9.444305628947529, 4.530327736565431, -6.351285176266969, 28.236901357171803, -2.5282838417444857, -8.371842439210203, 3.3634083516926894], [-10.780124684879983, 11.972393353607577, 0.44016193327854997, -1.337568668941072, -4.827332296845463, -6.071333507676218, 1.8053947565210926, -12.386961862045599, -7.701470196886144, -7.0991696673911315, -4.481336156620278, 17.63337450345198], [10.327460651644197, 3.4905213681695892, -3.8315491194608486, 7.157776615308172, -11.653101294541967, 7.609312884000986, 13.163884080758221, 5.314396557924924, -13.20266272067519, -19.786126387028013, 4.628359484835006, -2.327636552671691], [-5.551881618732434, -10.256525796282789, -7.213127788247679, -4.272809948159272, -3.7091243230224213, 37.70312365624875, -7.647389174133943, -3.018016087541042, 4.683303349327882, 6.606689506184868, 4.840253874374559, 5.6170244057318595], [-9.662830402321, 18.610521731065287, -4.1533071787614375, -10.591815019301436, 11.390394285666643, 9.191284753995504, -4.248779484233955, -7.764089344647731, -3.115536178971577, 7.488074196045664, -5.783815195682067, -13.72758733419977], [1.3435573611430525, 19.055829539115162, -19.279720604915386, -7.505410145000127, -5.41914747971837, -14.050464674917933, 16.05253759564504, 2.2045923494552038, 5.493330413295626, -17.777155390683728, 33.55056953051095, 28.643677384602064], [-4.883488266080805, -23.183047858599164, 2.042455260480642, 6.247659848892452, -11.047181926271186, -11.66010078218731, 10.726843555332838, 2.709351814262069, 16.64357844445601, -29.687845599716937, -7.301791141495496, -9.145744940703866]], "weights_ho": [[-5.917241658391162, -10.523789077518172, -0.39124846059364315, -5.338258944671594, 13.377602168069927, -24.509995554190393, 17.20022988523772, 28.101319549091585, 9.801327890621588, -9.65520902646335, -16.052724070671456, 1.6097392686463325, -4.0141496822363205, -2.0505330560982373, 15.137201686879868, 4.906563335548063], [-5.41444519697865, -2.493462524998295, 8.855472655332258, -18.88975004384964, 18.78172087829584, -10.290665854350006, 4.162952605064579, -1.6135651802976303, -10.495489196662383, 5.163855724835057, 16.11829904764342, -38.00160093131519, -4.7725910063492485, 6.595435504130131, -20.14729132312519, -7.110851543634355], [3.5298799981419013, -7.86329262330073, -4.133683924621518, -3.4564528173370292, -8.23667663580996, 7.679689510465891, -4.444949990988467, 0.4525159178756522, 3.601216976183535, 5.58983450195596, 22.04768383030494, -5.164077482349586, 13.570780425655686, -24.002253580028867, -19.309026263732523, 6.400534329118155], [-2.5149556792111034, 32.591611049765646, -13.133594481758845, 8.998930176655573, -3.2466059489777126, -1.0466720431130598, 11.97193584412681, -3.1493955318629907, 28.08906949700148, -24.880898385678147, 9.321609288950295, -11.351962467310758, -16.618553173448625, -6.200480034563908, -2.7752027794343905, 13.72208535112517]], "bias_h": [[-10.12060679980823], [-8.137209850444638], [-11.333816944236542], [-17.784255222453776], [-2.037668700821926], [5.9070798021391795], [21.901663953276596], [20.190381493405336], [3.3058019391087154], [-0.4270770680015337], [-0.2420741071103751], [16.306498358716535], [8.417311469486268], [1.3597187651006555], [12.662269738677928], [6.761886393686683]], "bias_o": [[-4.361175534008757], [-1.3013002031377672], [-11.477748090798437], [-12.278629367211217]]}, {"input_nodes": 12, "hidden_nodes": 16, "output_nodes": 4, "weights_ih": [[0.9551530667729033, 4.809763351427137, -8.493196118027347, -3.747998355860768, 7.036981036261291, -8.527456575123875, 9.10041863195265, -0.4942117924807319, 2.6727667441496394, 0.040713487942912616, -5.85485122317757, -16.392777912272635], [-0.5165571608816965, -13.82470202592007, 5.925393404832494, -2.8763640770096277, 13.087897328495028, -5.048326605689097, 16.307416404678445, 10.100081316298885, 1.453107330529915, -3.849424315281726, -9.101014049084018, 15.386355833309945], [8.894038621435302, 6.088889674563037, -4.838265782525616, 8.434320794070983, -16.03495679860896, -9.962708856967058, 16.871191538063222, -12.298836793810302, 18.16885203029351, -5.904247170192992, 16.367782292665023, -5.462626811776523], [0.12506861030326777, 25.233261930008066, -21.38530698820209, 3.6741997550957652, -3.820313605451478, -3.294475478627382, -9.019027313050836, 7.592501727225111, 9.784706121668597, -0.4796030973978104, 1.6581586086560796, -18.46492544895996], [2.2530688727600823, -13.39382906923487, -2.861170752049872, -11.972562649736554, -4.288944871057129, 17.937257483361346, 5.5083031141215715, -10.567648879009269, -0.7622449987897795, 10.045826936134402, 2.9833244964903582, 2.066090475683989], [-17.046157286100545, -4.680503517314394, 15.400889905678087, 2.985614047467356, 5.810598946964804, 20.478432700787785, 21.262048754445114, 4.777723472860346, 3.6608443158918296, -20.698341980544388, -12.940110080281746, -16.82545146058621], [5.402653301134904, -3.8101149450332326, -15.645922979112969, 11.534557637121079, 5.9865969564248, 8.66351412944693, 15.06314217789378, 13.341956247179521, 6.333004989547468, -3.744122052371894, 5.363307785578755, 6.9291545515619895], [2.112088531519845, 3.221151348284511, -11.047414334490572, -15.917867918292863, -6.964929106887782, 9.218708989513553, -5.408427460394085, 8.853351241978627, 18.82877513720256, -15.04106208517064, 17.486102549306555, -7.921431513098518], [2.5213118275654227, -19.69657906418323, -2.641479201949961, 10.781433978523744, -9.285050424530779, -22.13489000321085, -5.705601135860233, 17.08683652006664, 18.15273857938565, -19.887035828496483, -8.40368694500249, -0.3688961584307534], [6.543244173977293, -0.20776912054193863, 17.808868043633762, 4.3912877407892, 0.7923001459695067, 9.461020515604856, 4.530327736565431, -6.351285176266969, 28.13407368847739, -2.560407850196123, -8.291000991384387, 3.3283637490782603], [-10.672427275677308, 12.012534452700537, 0.5120975226129886, -1.4117052579831848, -4.699112746128748, -6.282026836369209, 1.7219135687607097, -12.447357536964457, -7.701470196886144, -7.148257761126909, -4.423568176805702, 17.455865555846394], [10.327460651644197, 3.542156388138861, -3.7750419613818122, 7.106487211509528, -11.529402769839574, 7.609312884000986, 13.163884080758221, 5.351478987068466, -13.257159032737759, -19.764580110453885, 4.628359484835006, -2.160072001846437], [-5.551881618732434, -10.362618189417523, -7.188482319085009, -4.222827598814709, -3.7091243230224213, 37.856658476332115, -7.950411342609832, -3.001073406769545, 4.7195757146510084, 6.678544387895406, 4.844192605042908, 5.276149909031272], [-9.670228934525662, 18.534805560196094, -4.1533071787614375, -10.609199515150195, 11.352068645864865, 9.23831061184027, -4.253203784035388, -7.799259548927006, -3.1910881070903976, 7.550583210398312, -5.65131217714691, -13.793161468732805], [1.4507670972021323, 18.970352390155174, -19.31177496021798, -7.460688331514827, -5.35668668638523, -14.08986252950681, 15.938845791066045, 2.121302658078735, 5.594063469698032, -17.802416614215936, 33.55056953051095, 28.6286701728628], [-4.900317170946545, -23.183047858599164, 2.0479886808999317, 6.034506185792904, -11.047181926271186, -11.499217129493426, 10.65983027755153, 2.709351814262069, 16.542666697781993, -29.66096298163366, -7.301791141495496, -9.161622567632827]], "weights_ho": [[-5.917241658391162, -10.523789077518172, -0.4363885205331526, -5.281815150753524, 13.42873074075033, -24.509995554190393, 17.185874785102246, 28.101319549091585, 9.85901813555666, -9.55152012327806, -15.918663982675847, 1.624325870882411, -3.9925012835454505, -2.199027656888844, 15.137201686879868, 4.869296821373025], [-5.426781680434528, -2.455253159021384, 8.844536109519765, -19.02448255361568, 18.757371533255064, -10.290665854350006, 4.162952605064579, -1.5133018664756468, -10.495489196662383, 5.163855724835057, 16.34687594910763, -37.88809442332377, -4.7725910063492485, 6.6332226535455705, -19.945862767778184, -7.185215220016078], [3.964081890022541, -7.868411735860978, -4.133683924621518, -3.4564528173370292, -8.072963200654733, 7.3154025592637275, -4.444949990988467, 0.308266272834371, 3.6320440332997608, 5.589897836014426, 22.03584185651622, -5.148906415437367, 13.529232059043643, -24.002253580028867, -19.34194510962264, 6.457548773742695], [-2.425806456722618, 32.57987893918381, -13.133594481758845, 8.998930176655573, -3.363240290516384, -1.0466720431130598, 12.046207816852275, -3.1493955318629907, 28.08906949700148, -25.072910262775505, 9.100364871829598, -11.297851566796975, -16.729968290270225, -6.219704368460567, -2.7752027794343905, 13.679075304623252]], "bias_h": [[-10.111897085646063], [-8.042236978703992], [-11.447544264334], [-17.784255222453776], [-2.190347534367023], [5.8139734111280905], [21.901663953276596], [20.206795273560562], [3.1916944054553285], [-0.7074810953383069], [-0.04811894786709073], [16.430865029255028], [8.456463137264612], [1.376017873209673], [12.699138926480927], [6.764278412154725]], "bias_o": [[-4.334831635084102], [-1.1040732207595556], [-11.477748090798437], [-12.149568675134036]]}, {"input_nodes": 12, "hidden_nodes": 16, "output_nodes": 4, "weights_ih": [[0.97528117426927, 4.918762891236518, -8.576439027561614, -3.6363366828120465, 7.054114027880084, -8.554225662570405, 9.041892524366933, -0.442447118190513, 2.6727667441496394, 0.12279797932625033, -5.755523056081809, -16.33717799907252], [-0.5997668634440827, -13.673657842381859, 6.010612262420389, -2.8763640770096277, 13.167535331766773, -4.841121567186315, 16.283998263509904, 10.100081316298885, 1.5182750853117817, -3.8192700913571733, -9.20870926158871, 15.469714201566239], [8.792770067791311, 5.95068597158717, -4.838265782525616, 8.566543470270672, -16.03262564332563, -9.962708856967058, 16.801449624211063, -12.151846996830368, 18.15943362628028, -5.749672264972096, 16.40881725772028, -5.370623262043391], [0.21200122841724978, 25.233261930008066, -21.38530698820209, 3.6741997550957652, -3.8503860125579767, -3.5443564428266296, -9.085555977798766, 7.691735094976737, 9.791277575139498, -0.538980333952326, 1.5878142159904176, -18.46492544895996], [2.271204276064423, -13.39382906923487, -2.8503202639349, -12.001265353635327, -4.3923674559470856, 17.937257483361346, 5.7689353883020456, -10.475312216351858, -0.7395054672863999, 9.954181342376808, 2.9833244964903582, 2.005472788261317], [-17.02111171853359, -4.65401965986736, 15.400889905678087, 3.144907123045841, 5.810598946964804, 20.50945324783353, 21.263379897505335, 4.777723472860346, 3.519116180202486, -20.6375091751864, -12.940110080281746, -16.788286145450797], [5.4594950238347835, -4.048940410299171, -15.645922979112969, 11.708680085356026, 5.854593066122757, 8.66351412944693, 15.157622005403063, 13.341956247179521, 6.42558538832137, -3.5710746651948324, 5.363307785578755, 6.884604511224229], [2.14209789343939, 3.2191362104783314, -11.047414334490572, -15.95992519200238, -6.964929106887782, 9.218708989513553, -5.3476679345292215, 8.846652166216506, 18.82877513720256, -15.218031871946446, 17.486102549306555, -7.921431513098518], [2.4588306702401352, -19.69657906418323, -2.4580966391294057, 10.781433978523744, -9.252960611419084, -22.13489000321085, -5.758904267827783, 17.179964712424344, 18.18551059589442, -19.771766279632587, -8.27392756197703, -0.4167288679898556], [6.904522393078147, -0.20776912054193863, 17.76467321890489, 4.498256521713987, 0.8399011744142433, 9.479437023971368, 4.530327736565431, -6.357956240040796, 28.176535233022904, -2.5282838417444857, -8.244756570368311, 3.480979728250727], [-10.595368951034764, 12.037471904141293, 0.4004494956837664, -1.337568668941072, -4.606011447603558, -6.2536026889239995, 1.8053947565210926, -12.1421018621858, -7.820568390873606, -7.148257761126909, -4.374161467812136, 17.41752791292048], [10.491433530763464, 3.4905213681695892, -3.8315491194608486, 7.120042184418003, -11.714943881726889, 7.609312884000986, 13.256740185318456, 5.351478987068466, -13.152039337794909, -19.74126988379704, 4.628359484835006, -2.26472293759954], [-5.551881618732434, -10.242533045995371, -7.188482319085009, -4.272809948159272, -3.794124730342121, 37.8466211606469, -7.647389174133943, -3.001073406769545, 4.809022406247919, 6.5967207524004525, 4.767968827127663, 5.423524562965166], [-9.695028353642355, 18.534805560196094, -4.1533071787614375, -10.523263518519766, 11.355799949818303, 9.115458478818393, -4.248779484233955, -7.880310147408986, -3.0747878941105236, 7.5064851571333095, -5.751790206669648, -13.793161468732805], [1.4462326271182122, 19.006509213319944, -19.314857164207922, -7.515216566691106, -5.41914747971837, -13.972815404307331, 16.008348837011773, 2.2045923494552038, 5.6593855522714405, -17.777155390683728, 33.552686876269256, 28.700379400957317], [-4.8655100949856225, -23.183047858599164, 2.042455260480642, 6.247659848892452, -11.132516602010503, -11.709552290617191, 10.676051858543678, 2.709351814262069, 16.407405700197472, -29.477769955567624, -7.301791141495496, -9.107836254272893]], "weights_ho": [[-5.917241658391162, -10.438933764859005, -0.4070644725915198, -5.300687339512817, 13.341447547411471, -24.58794382971225, 17.309007423707314, 28.297176996203316, 9.85901813555666, -9.65520902646335, -15.996328712093753, 1.6896227226358056, -3.9925012835454505, -1.9948624617542285, 15.137201686879868, 4.92952834901182], [-5.487644822445961, -2.5632015761030127, 8.855472655332258, -19.0518077793114, 18.627512031200602, -10.318548945115763, 4.162952605064579, -1.4875833546919157, -10.495489196662383, 5.163855724835057, 16.295980481546895, -38.108316081983496, -4.7725910063492485, 6.7660198951890145, -20.14729132312519, -7.133804478327535], [3.755595086736964, -7.881307455676956, -4.315280521702089, -3.3837763802914003, -8.23667663580996, 7.51119486151313, -4.494204876213781, 0.5387972640558806, 3.5594539699855794, 5.58983450195596, 22.1618009997805, -5.148906415437367, 13.585265149732242, -24.002253580028867, -19.309026263732523, 6.410572771909486], [-2.468384123285206, 32.41335572675735, -13.133594481758845, 8.998930176655573, -3.3099819412124885, -0.9419936039803037, 12.123986835557467, -3.1493955318629907, 28.08906949700148, -24.79441246648534, 9.139702030352376, -11.351962467310758, -16.876658067701516, -6.274387948135469, -2.581095618774661, 13.470751707104247]], "bias_h": [[-10.13847014018155], [-8.137209850444638], [-11.447544264334], [-17.784255222453776], [-2.398778819126684], [5.6318696105706465], [21.901663953276596], [20.198134750328155], [3.3058019391087154], [-0.4702504409014725], [-0.2420741071103751], [16.430865029255028], [8.474151949729682], [1.376017873209673], [12.581309066031718], [6.764278412154725]], "bias_o": [[-4.24504055668969], [-1.3013002031377672], [-11.70630941131057], [-12.278629367211217]]}, {"input_nodes": 12, "hidden_nodes": 16, "output_nodes": 4, "weights_ih": [[1.053069207599705, 4.936350203429486, -8.494442910724558, -3.7906612119590952, 7.054114027880084, -8.684381179403758, 8.93678725706796, -0.3715633777150633, 2.53431216315565, 0.12279797932625033, -5.798919646557637, -16.392777912272635], [-0.5165571608816965, -13.673657842381859, 6.010612262420389, -2.9227334015361843, 13.073639359530802, -4.853566664771182, 16.359390565477717, 10.100081316298885, 1.5362500823743641, -3.613386562194644, -9.32043419069141, 15.564131325533037], [8.82485226601724, 6.049914646873074, -4.838265782525616, 8.434320794070983, -16.212928446926423, -9.956255201298516, 16.801449624211063, -12.151846996830368, 17.94934256868841, -5.921152789173555, 16.444783940950472, -5.462626811776523], [0.1820454506732065, 25.344709043101254, -21.38530698820209, 3.7108300091649618, -3.75347664998733, -3.3166702904246765, -9.031904366061475, 7.6855812425851955, 9.781324387603862, -0.46664828617013765, 1.6619803593322586, -18.51772349230831], [2.324096805662948, -13.39382906923487, -2.8503202639349, -12.077350728596063, -4.216305165111814, 17.937257483361346, 5.60372373297364, -10.549483566040314, -0.6863451779999329, 9.88879420995678, 2.8389564299315784, 2.227143494411201], [-17.187211443212973, -4.694061145263466, 15.41422533004732, 3.144907123045841, 5.810598946964804, 20.625299867677626, 21.262048754445114, 4.8190662973104565, 3.6519936238884685, -20.56102732775903, -12.940110080281746, -16.82545146058621], [5.434621284571096, -3.9936514861320567, -15.578826120661132, 11.708680085356026, 5.9865969564248, 8.66351412944693, 15.064003341453619, 13.341956247179521, 6.419135477285349, -3.797388654849548, 5.36576777520361, 6.9291545515619895], [2.14209789343939, 3.273676791537815, -11.085565319203688, -16.16395932191759, -6.964929106887782, 9.218708989513553, -5.316323882495943, 8.853351241978627, 18.82877513720256, -15.04106208517064, 17.45774190452056, -7.921431513098518], [2.3403482505090696, -19.71053453800253, -2.4580966391294057, 10.781433978523744, -9.20721707356476, -22.13489000321085, -5.705601135860233, 17.23021025120773, 18.133830730129773, -19.887035828496483, -8.40368694500249, -0.4167288679898556], [6.7667640241294045, -0.20776912054193863, 17.77141269760649, 4.415062734969711, 0.8630111093349507, 9.380120222288216, 4.530327736565431, -6.311809045158792, 28.2003630081046, -2.640674228563975, -8.371842439210203, 3.3283637490782603], [-10.780124684879983, 12.11321979657203, 0.4213019589808461, -1.2962774614194372, -4.758697537854962, -6.282026836369209, 1.7885558446580407, -12.386961862045599, -7.701470196886144, -7.183922002377243, -4.487034391781478, 17.455865555846394], [10.327460651644197, 3.4905213681695892, -3.847288934219448, 7.106487211509528, -11.70408997973828, 7.609312884000986, 13.095557732397756, 5.351478987068466, -13.257159032737759, -19.764580110453885, 4.628359484835006, -2.1572727560779823], [-5.4580088159506275, -10.256525796282789, -7.188482319085009, -4.115393909482614, -3.660682326786169, 37.92501125237481, -7.695750520835835, -3.001073406769545, 4.5433776282295355, 6.606689506184868, 4.907671260795523, 5.797102668088375], [-9.692037023352668, 18.407586063029832, -4.107168267098009, -10.437269883403447, 11.390394285666643, 9.23831061184027, -4.307679231832541, -7.764089344647731, -3.0704482542010885, 7.738071076663059, -5.751790206669648, -13.708730439290218], [1.4462326271182122, 18.851776328882224, -19.279720604915386, -7.505410145000127, -5.41914747971837, -14.08986252950681, 16.126372913333885, 2.0835768761379274, 5.6903798433787065, -17.655095155256372, 33.55056953051095, 28.74952037998094], [-4.895514649631819, -23.183047858599164, 2.2060969512046813, 6.247659848892452, -11.03704235285611, -11.810356426064471, 10.676051858543678, 2.7009676981478234, 16.407405700197472, -29.66096298163366, -7.307212393901227, -9.107644989387143]], "weights_ho": [[-5.917241658391162, -10.35275191516885, -0.48538493692983803, -5.300687339512817, 13.29746407260106, -24.509995554190393, 17.309007423707314, 28.101319549091585, 9.760236577825927, -9.821572575847469, -15.98595947211492, 1.4350442353100288, -3.9925012835454505, -1.9574016209826033, 15.137201686879868, 5.022447261473157], [-5.479785621896032, -2.65703310127132, 8.803487040794108, -19.148525676000403, 18.60532431544051, -10.290665854350006, 4.162952605064579, -1.4875833546919157, -10.644006771067692, 5.128349049712614, 16.295980481546895, -37.88809442332377, -4.7725910063492485, 6.7984026982113015, -20.103692701636746, -7.110851543634355], [3.7614100964639383, -7.8300137786429955, -4.027984343931442, -3.4564528173370292, -8.025945490437051, 7.51119486151313, -4.444949990988467, 0.4558372944769699, 3.4852678164064823, 5.58983450195596, 22.155509187276127, -5.148906415437367, 13.585265149732242, -24.103906064796195, -19.309026263732523, 6.457548773742695], [-2.3455077340378585, 32.57987893918381, -13.166896534033715, 9.091373828121784, -3.396085227908728, -1.0466720431130598, 12.089944237711912, -3.1493955318629907, 28.08906949700148, -24.863342892108573, 9.216971325364723, -11.417580231134075, -16.715527820975844, -6.219704368460567, -2.7752027794343905, 13.411442917692295]], "bias_h": [[-10.13847014018155], [-8.137209850444638], [-11.447544264334], [-17.784255222453776], [-2.190347534367023], [5.8139734111280905], [21.894841958915276], [20.16250415953486], [3.3058019391087154], [-0.3535944993972562], [-0.10084094064095592], [16.433542194170943], [8.456463137264612], [1.376017873209673], [12.738623567053704], [6.622172259022343]], "bias_o": [[-4.334831635084102], [-1.232395178758095], [-11.477748090798437], [-12.224533468882528]]}, {"input_nodes": 12, "hidden_nodes": 16, "output_nodes": 4, "weights_ih": [[0.9103021910331686, 4.809763351427137, -8.662881042375208, -3.730343237101124, 7.054114027880084, -8.381674629442376, 9.026989976596862, -0.30064273991971346, 2.6727667441496394, 0.2804412348862547, -5.766269146138067, -16.36153012286471], [-0.5861790819193247, -13.589517979204926, 5.92257918797125, -2.8763640770096277, 12.995111338736685, -4.782171804294744, 16.359390565477717, 10.100081316298885, 1.5182750853117817, -3.8192700913571733, -9.250819606197805, 15.469714201566239], [8.783718259443235, 6.0352324242447315, -4.838265782525616, 8.434320794070983, -16.03262564332563, -9.962708856967058, 16.752958680303855, -12.151846996830368, 18.052495233741723, -5.921152789173555, 16.44435710049452, -5.462626811776523], [0.1771501156119636, 25.33075663494274, -21.38530698820209, 3.6741997550957652, -3.820313605451478, -3.3166702904246765, -9.019027313050836, 7.6855812425851955, 9.791277575139498, -0.538980333952326, 1.5848321660012936, -18.370189288038876], [2.231311089998032, -13.39382906923487, -2.83405882416759, -12.014360735792122, -4.371202896603384, 18.07424464754352, 5.50277167711407, -10.560791448505388, -0.788040489565667, 9.954181342376808, 3.0958538781388714, 2.0617372504290006], [-16.966405405563812, -4.694061145263466, 15.400889905678087, 3.2555153720892474, 5.810598946964804, 20.478432700787785, 21.262048754445114, 4.777723472860346, 3.6231582679798184, -20.603838153960133, -12.940110080281746, -16.82545146058621], [5.434621284571096, -3.8826411758261035, -15.62083399145283, 11.58957045555195, 5.935716750431959, 8.66351412944693, 15.157622005403063, 13.341956247179521, 6.438086023279814, -3.677266143423619, 5.3383468093804485, 6.9291545515619895], [2.2384818176543892, 3.2191362104783314, -11.140097976177453, -16.09297528688047, -6.964929106887782, 9.218708989513553, -5.3476679345292215, 9.002190937212285, 18.82877513720256, -15.04106208517064, 17.486102549306555, -7.864951228995757], [2.4588306702401352, -19.808802609452925, -2.4152026152968804, 10.771564105877253, -9.141291401821853, -21.88963740097788, -5.705601135860233, 17.23021025120773, 18.255053073269295, -19.887035828496483, -8.40368694500249, -0.4167288679898556], [6.700997633289668, -0.20031286910193713, 17.77141269760649, 4.415062734969711, 0.9461263229858299, 9.461020515604856, 4.427339720847855, -6.351285176266969, 28.236901357171803, -2.3825570992093077, -8.385388696908052, 3.3328090507622394], [-10.887416921318728, 12.037420696801208, 0.3478725469759811, -1.337568668941072, -4.540757060188152, -6.282026836369209, 1.8045621172829607, -12.386961862045599, -7.701470196886144, -7.177713664120943, -4.423568176805702, 17.428992607850724], [10.327460651644197, 3.463764267691987, -3.8315491194608486, 7.106487211509528, -11.734107630750675, 7.609312884000986, 13.237107034177468, 5.496787410841185, -13.331041217608933, -19.85893595179089, 4.628359484835006, -2.1986828230221542], [-5.551881618732434, -10.256525796282789, -7.07160164764275, -4.272809948159272, -3.7091243230224213, 37.900423059072146, -7.647389174133943, -2.859875495209425, 4.779628458730687, 6.606689506184868, 4.812854628657811, 5.583292640739222], [-9.666154742675808, 18.378885489004567, -4.1533071787614375, -10.591815019301436, 11.466876158651278, 9.23831061184027, -4.248311490738837, -7.842212115695925, -3.0747878941105236, 7.601062730197672, -5.695852944657386, -13.895301279661386], [1.5818241550995817, 18.962354577421873, -19.279720604915386, -7.505410145000127, -5.355898819536876, -14.08986252950681, 16.060237585528032, 2.2432888566317875, 5.6300370742327335, -17.956701597566507, 33.562084934260994, 28.700379400957317], [-4.749597944125081, -23.183047858599164, 1.8140147943607527, 6.247659848892452, -11.047181926271186, -11.780488281582688, 10.676051858543678, 2.8600527549143253, 16.498574871013233, -29.66096298163366, -7.192774714443045, -9.264001702279419]], "weights_ho": [[-5.917241658391162, -10.523789077518172, -0.4363885205331526, -5.300687339512817, 13.377602168069927, -24.509995554190393, 17.309007423707314, 28.010886667661197, 9.84169917174603, -9.65520902646335, -15.996328712093753, 1.6896227226358056, -3.9925012835454505, -1.9948624617542285, 15.19934281931685, 4.92952834901182], [-5.41444519697865, -2.371523449549255, 8.831740711529543, -18.98324429417532, 18.497546727296523, -10.290665854350006, 4.162952605064579, -1.4875833546919157, -10.5443731622989, 5.163855724835057, 16.295980481546895, -37.88809442332377, -4.739605677713774, 6.7660198951890145, -20.153460464427745, -7.034124358911745], [3.7614100964639383, -7.881307455676956, -4.133683924621518, -3.4564528173370292, -8.11451935211203, 7.51119486151313, -4.444949990988467, 0.4525159178756522, 3.601216976183535, 5.6562391478239435, 22.066839816974134, -5.148906415437367, 13.69122138992149, -24.002253580028867, -19.350679740762377, 6.4878666160063085], [-2.526570454579333, 32.57987893918381, -13.133594481758845, 8.998930176655573, -3.363240290516384, -0.9983349519996492, 12.04604155571762, -3.141791788463997, 28.08906949700148, -24.880898385678147, 9.150611596795875, -11.351962467310758, -16.715527820975844, -6.132779831116986, -2.7752027794343905, 13.568565605826924]], "bias_h": [[-10.13847014018155], [-8.137209850444638], [-11.447544264334], [-17.784255222453776], [-2.190347534367023], [5.829257194373161], [21.901663953276596], [20.190381493405336], [3.3058019391087154], [-0.4702504409014725], [-0.3328741873622405], [16.316934656654862], [8.456463137264612], [1.376017873209673], [12.662269738677928], [6.742954884761804]], "bias_o": [[-4.334831635084102], [-1.3013002031377672], [-11.477748090798437], [-12.278629367211217]]}, {"input_nodes": 12, "hidden_nodes": 16, "output_nodes": 4, "weights_ih": [[0.96784992252721, 4.809763351427137, -8.478576781139417, -3.747998355860768, 7.054114027880084, -8.770624322004743, 8.856238298143742, -0.34310251150118426, 2.6727667441496394, 0.12279797932625033, -5.762258395130042, -16.392777912272635], [-0.559901398965805, -13.673657842381859, 6.010612262420389, -2.7326579403447697, 13.042427973392282, -4.853566664771182, 16.32120518200098, 9.929679200822397, 1.5182750853117817, -3.8192700913571733, -9.20870926158871, 15.526194017699128], [8.792770067791311, 5.95068597158717, -4.838265782525616, 8.434320794070983, -16.03262564332563, -9.986894595937883, 16.996746137390865, -12.151846996830368, 18.16885203029351, -6.0467032053791705, 16.556576969311674, -5.410934470972114], [0.15663953765694588, 25.233261930008066, -21.451575672710046, 3.6741997550957652, -3.7308237426631385, -3.3166702904246765, -9.019027313050836, 7.745021715553431, 9.791277575139498, -0.538980333952326, 1.7109577688459519, -18.46492544895996], [2.231311089998032, -13.368342090601335, -2.69190245077908, -11.98865655479522, -4.301105225336373, 17.88218970950402, 5.746115465018982, -10.661406380723903, -0.7940689664054738, 9.954181342376808, 2.9833244964903582, 2.073934850069242], [-17.046157286100545, -4.623922591623097, 15.400889905678087, 3.1480101155644364, 5.810598946964804, 20.478432700787785, 21.262048754445114, 4.653234153787745, 3.6231582679798184, -20.463478994351576, -12.940110080281746, -16.82545146058621], [5.434621284571096, -3.8940035463442118, -15.645922979112969, 11.63340227128521, 5.984500618609461, 8.586859262486202, 15.157622005403063, 13.341956247179521, 6.438086023279814, -3.677266143423619, 5.459016370197431, 6.936483272255992], [2.202349453058075, 3.2508030230165796, -11.047414334490572, -16.07258289929043, -7.004309044881592, 9.218708989513553, -5.3476679345292215, 9.007031912115599, 18.669353730912974, -14.880618519133998, 17.486102549306555, -7.921431513098518], [2.4588306702401352, -19.69657906418323, -2.4580966391294057, 10.827061349015645, -9.285050424530779, -22.13489000321085, -5.705601135860233, 17.100209937242063, 18.03680310319343, -19.883036391075066, -8.489321261841285, -0.4167288679898556], [6.7926855411341265, -0.29244569973919315, 17.77141269760649, 4.56480798072751, 0.8638084227129552, 9.474802620023254, 4.530327736565431, -6.351285176266969, 28.281235656388617, -2.5282838417444857, -8.371842439210203, 3.3283637490782603], [-10.780124684879983, 12.042064542039032, 0.4213019589808461, -1.337568668941072, -4.677014846337786, -6.263008457988754, 1.8053947565210926, -12.223456843695509, -7.701470196886144, -7.025382608574264, -4.423568176805702, 17.455865555846394], [10.327460651644197, 3.47682367224606, -3.8315491194608486, 7.106487211509528, -11.653101294541967, 7.578994615204305, 13.18851237483779, 5.351478987068466, -13.257159032737759, -19.84951376920157, 4.628359484835006, -2.1517127327978764], [-5.533322725186361, -10.256525796282789, -7.085350299829416, -4.224947980632515, -3.7091243230224213, 37.90031334837622, -7.7452362791355185, -3.001073406769545, 4.7195757146510084, 6.742372699910617, 4.907671260795523, 5.583292640739222], [-9.666154742675808, 18.506508482957788, -4.255772563873097, -10.534847599135922, 11.394638071294588, 9.23831061184027, -4.248779484233955, -7.764089344647731, -3.0747878941105236, 7.702719847459783, -5.751790206669648, -13.793161468732805], [1.4148254723820015, 18.962354577421873, -19.12475556079594, -7.505410145000127, -5.315068446915739, -14.08986252950681, 16.226380008848622, 2.2045923494552038, 5.6593855522714405, -17.884234509349138, 33.55056953051095, 28.77695401063766], [-5.007276609833699, -23.183047858599164, 2.183060473641417, 6.158641457984666, -11.099736232782638, -11.709552290617191, 10.703224589091871, 2.7316198383926467, 16.407405700197472, -29.66096298163366, -7.2589406836347266, -9.145744940703866]], "weights_ho": [[-5.893205200698758, -10.523789077518172, -0.4363885205331526, -5.300687339512817, 13.478944383219737, -24.499476869755977, 17.309007423707314, 28.101319549091585, 9.85901813555666, -9.764790959049748, -15.996328712093753, 1.6896227226358056, -4.015394010957739, -1.9948624617542285, 15.137201686879868, 4.772583950297031], [-5.250356702596237, -2.493462524998295, 8.855472655332258, -18.98324429417532, 18.627512031200602, -10.327377025375604, 4.162952605064579, -1.5019400247204018, -10.541362037205154, 5.163855724835057, 16.40157001670189, -37.88809442332377, -4.7725910063492485, 6.7660198951890145, -20.14729132312519, -7.110851543634355], [3.7614100964639383, -7.987544534870637, -4.133683924621518, -3.4110409226069667, -8.23667663580996, 7.51119486151313, -4.32567591815145, 0.41360991182565454, 3.667955556920071, 5.696906799543122, 22.000657569229272, -5.148906415437367, 13.585265149732242, -24.002253580028867, -19.309026263732523, 6.457548773742695], [-2.400800274668162, 32.427476001746996, -13.17771912326471, 8.998930176655573, -3.336148629384055, -1.0466720431130598, 12.089944237711912, -3.1493955318629907, 28.171761416941987, -25.0767214520287, 8.988871638576711, -11.219942912115648, -16.715527820975844, -6.218395247514611, -2.644949889341572, 13.613775482483302]], "bias_h": [[-10.129561402617396], [-8.137209850444638], [-11.467607092090303], [-17.71270424122607], [-2.10341459236498], [5.8139734111280905], [21.901663953276596], [20.230449265854254], [3.3058019391087154], [-0.4702504409014725], [-0.2420741071103751], [16.430865029255028], [8.456463137264612], [1.4611276196023477], [12.739276119394887], [6.943935441071799]], "bias_o": [[-4.364837005789463], [-1.2441840853390826], [-11.40327035702262], [-12.278629367211217]]}, {"input_nodes": 12, "hidden_nodes": 16, "output_nodes": 4, "weights_ih": [[0.9551530667729033, 4.809763351427137, -8.494442910724558, -3.974706246272657, 6.928477332028003, -8.637963040631982, 8.93678725706796, -0.17885080295134959, 2.435706053352542, 0.12279797932625033, -5.807772618136165, -16.331935475812536], [-0.7304070436644601, -13.717307689070534, 6.010612262420389, -2.8763640770096277, 13.049559278235831, -4.853566664771182, 16.359390565477717, 10.100081316298885, 1.5961505145015784, -3.910550673009363, -9.20870926158871, 15.331194711275272], [8.823033757728753, 5.95068597158717, -4.895353378591434, 8.336578480886734, -16.03262564332563, -9.850493966054616, 16.801449624211063, -12.073982357821675, 18.275921403939773, -5.921152789173555, 16.46802752324691, -5.303883491583546], [0.10386529659084383, 25.46798494374837, -21.38530698820209, 3.6741997550957652, -3.9487420257653643, -3.3170183080058537, -9.00873490268519, 7.6855812425851955, 9.791277575139498, -0.538980333952326, 1.642065019897333, -18.516261679001286], [2.231311089998032, -13.464771502019532, -2.8037255418833067, -11.98865655479522, -4.288944871057129, 17.72392960365016, 5.60372373297364, -10.471256240614405, -0.6183865653174353, 9.954181342376808, 2.9833244964903582, 1.9337118924128671], [-16.977695040272117, -4.694061145263466, 15.40819780992782, 3.144907123045841, 5.810598946964804, 20.52048020399564, 21.45257459260995, 4.777723472860346, 3.6231582679798184, -20.63893327414339, -13.218491250582364, -16.78354258097981], [5.434621284571096, -4.03383092194139, -15.645922979112969, 11.708680085356026, 5.894428266705936, 8.534526762347927, 15.222627331557947, 13.383190337111756, 6.438086023279814, -3.575021825359041, 5.363307785578755, 6.644909919085028], [2.14209789343939, 3.2191362104783314, -10.946356475226562, -16.09297528688047, -6.964929106887782, 9.020509586283815, -5.3476679345292215, 8.835489176908299, 18.747453944452598, -15.04106208517064, 17.44073458997645, -7.921431513098518], [2.3741616330744653, -19.69657906418323, -2.586980295075309, 10.781433978523744, -9.285050424530779, -22.087219314369435, -5.592414093867173, 17.23021025120773, 18.15273857938565, -19.736504688025168, -8.40368694500249, -0.41776505076638265], [6.700997633289668, -0.2536410679291648, 17.77141269760649, 4.448224051902289, 0.8399011744142433, 9.425234730580923, 4.470650225013934, -6.456176182111468, 28.18873391710857, -2.5282838417444857, -8.42697378466356, 3.3435666135459354], [-10.780124684879983, 12.042064542039032, 0.4213019589808461, -1.219925435131208, -4.655466694981116, -6.282026836369209, 1.8587786031281637, -12.42582823036864, -7.48706972088678, -7.065302883195347, -4.423568176805702, 17.455865555846394], [10.327668060624207, 3.462689474354443, -3.8315491194608486, 7.106487211509528, -11.718045504819015, 7.609312884000986, 13.33725635492832, 5.351478987068466, -13.257159032737759, -19.70999047705723, 4.628359484835006, -2.2524801755034036], [-5.796081996304868, -10.341153965320808, -7.188482319085009, -4.291482821362369, -3.7091243230224213, 37.92501125237481, -7.565131596348244, -2.782613909486077, 4.731925376060679, 6.606689506184868, 4.907671260795523, 5.634122443837467], [-9.78015729651519, 18.556619795617035, -4.1533071787614375, -10.591815019301436, 11.40194619179922, 9.23831061184027, -4.260373150726795, -7.6586378712223135, -3.064111220090873, 7.590672681341471, -5.754836575435242, -13.837549259557218], [1.4833298687481762, 18.95299565675967, -19.279720604915386, -7.505410145000127, -5.41914747971837, -14.211471589668355, 16.126372913333885, 2.3386562869679257, 5.6963302294290346, -17.777155390683728, 33.55056953051095, 28.700379400957317], [-4.994567927558991, -23.328505700420926, 2.042455260480642, 6.215831259159608, -11.072148540115974, -11.709552290617191, 10.622864764734773, 2.662106944567634, 16.369105775616635, -29.66096298163366, -7.1685755794340835, -9.145744940703866]], "weights_ho": [[-5.944604044308149, -10.523789077518172, -0.5601825458069616, -5.300687339512817, 13.477687440978308, -24.509995554190393, 17.309007423707314, 28.101319549091585, 9.951538842738216, -9.65520902646335, -15.793749324378524, 1.6896227226358056, -3.9925012835454505, -1.9948624617542285, 15.34132774995608, 4.982184307214828], [-5.486544585541295, -2.3196614656715377, 8.87674233607379, -18.98324429417532, 18.627512031200602, -10.290665854350006, 4.162952605064579, -1.54376931432924, -10.604545157184493, 5.163855724835057, 16.163006643013027, -37.88809442332377, -4.7725910063492485, 6.652394354940148, -20.14729132312519, -7.037170832548151], [3.7036862118185154, -7.881307455676956, -4.119167696299015, -3.4103074159498203, -8.433515262472486, 7.51119486151313, -4.225167716264704, 0.4525159178756522, 3.601216976183535, 5.58983450195596, 22.103211542755698, -5.232510696915952, 13.585265149732242, -23.97244748136942, -19.309026263732523, 6.422706735313795], [-2.573013558209864, 32.57987893918381, -13.00826521531167, 8.983699660631602, -3.5162272790892475, -0.9499521717824346, 12.089944237711912, -3.2812078878805733, 28.052161845166204, -24.822958258950546, 9.120502694510382, -11.232748842233422, -16.65607859422577, -6.314420610077525, -2.7752027794343905, 13.568565605826924]], "bias_h": [[-10.252406704420327], [-8.121149639105955], [-11.447544264334], [-17.8338262435656], [-2.118714673982851], [5.8139734111280905], [22.017958246642408], [20.30841876743098], [3.3058019391087154], [-0.3024337348418147], [-0.30794979048349713], [16.46550306901133], [8.38173845133149], [1.376017873209673], [12.662269738677928], [6.9343934936572245]], "bias_o": [[-4.334831635084102], [-1.1607008362193292], [-11.477748090798437], [-12.278629367211217]]}, {"input_nodes": 12, "hidden_nodes": 16, "output_nodes": 4, "weights_ih": [[0.9551530667729033, 4.736213069400129, -8.494442910724558, -3.747998355860768, 7.185623148890918, -8.637963040631982, 8.849792573687761, -0.4390573895305186, 2.6012384328601845, 0.12279797932625033, -5.712026914558577, -16.392777912272635], [-0.5165571608816965, -13.673657842381859, 6.010612262420389, -2.8763640770096277, 13.038568181819866, -4.853566664771182, 16.358656803147557, 9.932395512224716, 1.5182750853117817, -3.8087869045946277, -9.323510278965008, 15.37910126969397], [8.792770067791311, 5.879907472367157, -4.838265782525616, 8.551306688420828, -16.03262564332563, -10.009551315988459, 16.80267879365517, -12.244701496850016, 18.231445943493018, -5.921152789173555, 16.444783940950472, -5.462626811776523], [0.06670988150273097, 25.0991018393759, -21.402614494862267, 3.6741997550957652, -3.820313605451478, -3.440741317727395, -9.019027313050836, 7.767622096859742, 9.621201600139615, -0.538980333952326, 1.6619803593322586, -18.46492544895996], [2.2100106878080146, -13.39382906923487, -2.8503202639349, -11.98865655479522, -4.360980637214737, 17.937257483361346, 5.60372373297364, -10.560791448505388, -0.6863451779999329, 10.029784864710113, 2.8142772496552806, 2.066090475683989], [-17.07166626420367, -4.811662740341359, 15.540694698220246, 3.0669966626109715, 5.810598946964804, 20.44550129013612, 21.114116764755522, 4.814242032676964, 3.5797642491623995, -20.603838153960133, -12.940110080281746, -16.623132064712742], [5.435121748886167, -3.9356035520374175, -15.824636672889527, 11.708680085356026, 5.9865969564248, 8.71467798860008, 15.157622005403063, 13.245915739256064, 6.391074087600501, -3.8371207003177963, 5.355677926360694, 6.9291545515619895], [2.3880598684192402, 3.215487933914199, -11.035717750474088, -16.168929624886577, -6.964929106887782, 9.330477572020481, -5.376007993905422, 8.853351241978627, 18.879446028959897, -14.919127896568833, 17.49661789723884, -7.921431513098518], [2.4588306702401352, -19.724151727236407, -2.5341951229958712, 10.762241953536357, -9.305404354659514, -22.291128770498034, -5.581531265162772, 17.23021025120773, 18.1294595458029, -19.887035828496483, -8.351233598893097, -0.4167288679898556], [6.706918521725479, -0.20776912054193863, 17.77141269760649, 4.415062734969711, 0.8399011744142433, 9.519077460665406, 4.530327736565431, -6.473016721003233, 28.236901357171803, -2.518489838439871, -8.314987803672597, 3.3283637490782603], [-10.780124684879983, 12.042064542039032, 0.4213019589808461, -1.337568668941072, -4.546298366210828, -6.214943435594133, 1.8663132550698436, -12.473517310075422, -7.660291557050815, -7.148257761126909, -4.423568176805702, 17.455865555846394], [10.287988082099032, 3.2435228898006665, -3.8201375493066694, 7.148417118476305, -11.653101294541967, 7.609312884000986, 13.163884080758221, 5.351478987068466, -13.08475051841463, -19.764580110453885, 4.628359484835006, -2.1986828230221542], [-5.52323611253264, -10.346993010155213, -7.188482319085009, -4.272809948159272, -3.7091243230224213, 37.85085626006813, -7.603559133019465, -2.909685160964076, 4.649606149793379, 6.487628191451874, 4.907671260795523, 5.66467644476247], [-9.666154742675808, 18.534805560196094, -4.1533071787614375, -10.591815019301436, 11.292194108919375, 9.23831061184027, -4.261203347243906, -7.764089344647731, -3.0747878941105236, 7.550583210398312, -5.882786635835727, -13.709547085652948], [1.5741732813602562, 19.00079138359656, -19.279720604915386, -7.453000659633981, -5.41914747971837, -14.251789829129109, 16.126372913333885, 2.276954024848697, 5.6593855522714405, -17.777155390683728, 33.55056953051095, 28.700379400957317], [-4.929606494628589, -23.215086039453485, 2.042455260480642, 6.247659848892452, -10.973367131619892, -11.709552290617191, 10.74908530778557, 2.9254726640766537, 16.407405700197472, -29.605296680821187, -7.387195221383347, -9.228852116334428]], "weights_ho": [[-5.833940366404875, -10.533100050972994, -0.4363885205331526, -5.251595968063582, 13.292094308650181, -24.384654889357254, 17.309007423707314, 28.101319549091585, 9.85901813555666, -9.671771990960915, -15.996328712093753, 1.7417978246357846, -3.9925012835454505, -1.8218370742863428, 15.137201686879868, 4.9664925585693664], [-5.41444519697865, -2.4770845010013476, 8.855472655332258, -18.91747696401399, 18.627512031200602, -10.290665854350006, 4.162952605064579, -1.4875833546919157, -10.495489196662383, 5.163855724835057, 16.27929123248633, -37.88809442332377, -4.7725910063492485, 6.840100364148638, -20.22021934963434, -7.110851543634355], [3.6161106055087435, -7.881307455676956, -4.083313011944141, -3.4419743461859498, -8.177272255677485, 7.51119486151313, -4.444949990988467, 0.4578283095307448, 3.601216976183535, 5.83293754298386, 22.035766046906236, -5.148906415437367, 13.585265149732242, -24.002253580028867, -19.309026263732523, 6.457548773742695], [-2.3794535847188536, 32.528993842413044, -13.133594481758845, 8.953609622882157, -3.363240290516384, -1.0466720431130598, 12.089944237711912, -3.1493955318629907, 28.08906949700148, -24.91445897833145, 9.139702030352376, -11.351962467310758, -16.715527820975844, -6.340344258135605, -2.698006923714957, 13.717568665778494]], "bias_h": [[-10.13847014018155], [-8.137209850444638], [-11.447544264334], [-17.784255222453776], [-2.190347534367023], [5.8139734111280905], [21.93925802049211], [20.190381493405336], [3.3058019391087154], [-0.4702504409014725], [-0.14104097962666529], [16.430865029255028], [8.456463137264612], [1.4420227813193933], [12.662269738677928], [6.764278412154725]], "bias_o": [[-4.483050631497894], [-1.3013002031377672], [-11.477748090798437], [-12.278629367211217]]}, {"input_nodes": 12, "hidden_nodes": 16, "output_nodes": 4, "weights_ih": [[1.0054717055724152, 4.9606436923369035, -8.494442910724558, -3.747998355860768, 7.054114027880084, -8.637963040631982, 8.697885923072706, -0.3715633777150633, 2.6727667441496394, 0.06096039533857202, -5.620561037930988, -16.328000661491263], [-0.5165571608816965, -13.673657842381859, 6.118203627836345, -2.8763640770096277, 13.049559278235831, -4.853566664771182, 16.359390565477717, 10.287835513053864, 1.5182750853117817, -3.880601350351961, -9.125070313439801, 15.469714201566239], [8.792770067791311, 5.9364579466943175, -4.7391906093819225, 8.432335538322775, -16.03262564332563, -9.90535181245636, 16.801449624211063, -12.151846996830368, 18.16885203029351, -5.921152789173555, 16.444783940950472, -5.5194558334909285], [0.10386529659084383, 25.098365524844034, -21.50412267523673, 3.6741997550957652, -3.820313605451478, -3.4595176434507233, -9.019027313050836, 7.904500721427278, 9.661160668167648, -0.5227850053719073, 1.6619803593322586, -18.437926331695962], [2.231311089998032, -13.39382906923487, -2.8503202639349, -11.98865655479522, -4.288944871057129, 17.86572852950327, 5.60372373297364, -10.518042253856208, -0.6686519475678702, 9.954181342376808, 2.9833244964903582, 2.066090475683989], [-17.046157286100545, -4.694061145263466, 15.400889905678087, 3.1367621355286124, 5.855840831305284, 20.445293189190796, 21.259583700220382, 4.880418066536322, 3.6132234011685243, -20.298935937156052, -12.912461845523405, -16.82545146058621], [5.423919184801469, -4.03383092194139, -15.645922979112969, 11.751649263495134, 5.9865969564248, 8.66351412944693, 15.222473624707355, 13.26102828476095, 6.438086023279814, -3.677266143423619, 5.406226314935049, 6.9291545515619895], [2.14209789343939, 3.2191362104783314, -10.882613181958252, -16.05335179021437, -7.054620060426395, 9.218708989513553, -5.28881550783128, 8.853351241978627, 18.82877513720256, -14.987151761897707, 17.486102549306555, -7.898246217415747], [2.512615923959427, -19.625122394978582, -2.385409871581162, 10.673244523848195, -9.285050424530779, -22.13489000321085, -5.705601135860233, 17.020923153212504, 18.15273857938565, -19.887035828496483, -8.40368694500249, -0.4167288679898556], [6.90902724066159, -0.20776912054193863, 17.65497291425176, 4.415062734969711, 0.8399011744142433, 9.273050953446633, 4.676141067878492, -6.351285176266969, 28.20928784579283, -2.439517406767673, -8.371842439210203, 3.3283637490782603], [-10.780124684879983, 12.042064542039032, 0.36259780919765316, -1.2740147860568327, -4.710324138030239, -6.2065174094578035, 1.8053947565210926, -12.386961862045599, -7.701470196886144, -7.148257761126909, -4.476230361052749, 17.308640443330695], [10.344723117002507, 3.4905213681695892, -3.8315491194608486, 7.014246732014136, -11.693618615221412, 7.751424137508716, 13.126678964179165, 5.298328166476428, -13.180902371627289, -19.701217827691753, 4.628359484835006, -2.1783977231873535], [-5.551881618732434, -10.256525796282789, -7.188482319085009, -4.189603847617904, -3.758111083373929, 37.92501125237481, -7.5975166810865575, -3.001073406769545, 4.7195757146510084, 6.690652357861538, 4.960542011789942, 5.515398994960884], [-9.666154742675808, 18.534805560196094, -4.29882209462414, -10.457083185870717, 11.395096012019087, 9.23831061184027, -4.248779484233955, -7.764089344647731, -3.2561717874069447, 7.550583210398312, -5.7644060429287105, -13.714846179899968], [1.4462326271182122, 18.962354577421873, -19.279720604915386, -7.505410145000127, -5.41914747971837, -14.336369462954956, 15.965361347849328, 2.283030363294125, 5.6593855522714405, -17.84363604114164, 33.55056953051095, 28.700379400957317], [-4.792812265119325, -23.183047858599164, 2.042455260480642, 6.247659848892452, -11.116660705580657, -11.681437983001853, 10.676051858543678, 2.770339838426382, 16.407405700197472, -29.643988884946666, -7.301791141495496, -9.145744940703866]], "weights_ho": [[-5.890538165093251, -10.497411393816035, -0.4363885205331526, -5.300687339512817, 13.377602168069927, -24.509995554190393, 17.309007423707314, 28.44290742343283, 9.85901813555666, -9.541953528107188, -16.057020051421365, 1.8559039622192282, -3.9925012835454505, -1.9948624617542285, 14.945981358728718, 4.92952834901182], [-5.604287546041192, -2.493462524998295, 8.855472655332258, -18.98324429417532, 18.627512031200602, -10.290665854350006, 4.275585021211569, -1.3088557771365783, -10.495489196662383, 5.163855724835057, 16.295980481546895, -37.88809442332377, -4.581444788663612, 6.845139856943634, -20.226266589877007, -7.110851543634355], [3.7614100964639383, -7.881307455676956, -4.133683924621518, -3.5164707608565346, -8.184268066637275, 7.51119486151313, -4.568706769888256, 0.4525159178756522, 3.4545349284147604, 5.58983450195596, 22.07218903247378, -5.135731210078787, 13.791432779975281, -24.002253580028867, -19.346828967561223, 6.650430915824301], [-2.2719732263153096, 32.46651643758569, -13.080811416215532, 8.998930176655573, -3.3561985793042832, -1.0466720431130598, 12.103985392336801, -3.1493955318629907, 28.02292622038724, -24.82684291708177, 9.190832665553621, -11.239948513907553, -16.715527820975844, -6.106467537800809, -2.682409740674779, 13.579650565498598]], "bias_h": [[-10.13847014018155], [-8.037508325637337], [-11.328019835853192], [-17.784255222453776], [-2.190347534367023], [5.8139734111280905], [21.901663953276596], [20.21839131982416], [3.3058019391087154], [-0.4101539556290829], [-0.2604894579333657], [16.430865029255028], [8.430101523598001], [1.376017873209673], [12.662269738677928], [6.764278412154725]], "bias_o": [[-4.345966224594307], [-1.3013002031377672], [-11.477748090798437], [-12.299413008122208]]}, {"input_nodes": 12, "hidden_nodes": 16, "output_nodes": 4, "weights_ih": [[0.9551530667729033, 4.809763351427137, -8.494442910724558, -3.6567940304295408, 7.047400248540502, -8.637963040631982, 8.831971510879791, -0.3715633777150633, 2.6340611660106927, 0.12279797932625033, -5.802145954622837, -16.392777912272635], [-0.5165571608816965, -13.59788741691327, 5.846087136509155, -2.8763640770096277, 13.049559278235831, -4.853566664771182, 16.359390565477717, 10.057313549190313, 1.5182750853117817, -3.8192700913571733, -9.20870926158871, 15.469714201566239], [8.70322328547428, 5.987963413525267, -4.838265782525616, 8.434320794070983, -16.03262564332563, -10.097220622293193, 17.012393117556584, -12.151846996830368, 18.201262634839093, -5.906217438688667, 16.444783940950472, -5.462626811776523], [0.10386529659084383, 25.233261930008066, -21.38530698820209, 3.6741997550957652, -3.61014012294969, -3.3166702904246765, -8.992175733329487, 7.6855812425851955, 9.791277575139498, -0.538980333952326, 1.6619803593322586, -18.46492544895996], [2.231311089998032, -13.337094891631152, -2.8503202639349, -11.98865655479522, -4.288944871057129, 17.937257483361346, 5.574590012577188, -10.563552977528733, -0.6863451779999329, 9.954181342376808, 2.9833244964903582, 1.9746212785188706], [-17.046157286100545, -4.576249318229537, 15.437350547560806, 3.336057753735198, 5.810598946964804, 20.478432700787785, 21.38599863830994, 4.777723472860346, 3.6231582679798184, -20.603838153960133, -13.028630089464167, -16.845527584215937], [5.516559200654762, -4.03383092194139, -15.67375513559708, 11.708680085356026, 5.9865969564248, 8.66351412944693, 15.157622005403063, 13.410150101073857, 6.438086023279814, -3.6464642949165786, 5.363307785578755, 6.9291545515619895], [2.183434095561734, 3.136594911747102, -11.145146618972968, -15.961238838553932, -7.054925658289174, 9.218708989513553, -5.3476679345292215, 8.701711098749083, 18.68830293837556, -15.04106208517064, 17.45121845812001, -7.921431513098518], [2.5121992956194665, -19.69657906418323, -2.5080232964717437, 10.781433978523744, -9.285050424530779, -22.09790669872708, -5.705601135860233, 17.23021025120773, 18.15273857938565, -19.984368943842874, -8.40368694500249, -0.38346966109589825], [6.707814120019304, -0.20776912054193863, 17.743438165317006, 4.415062734969711, 0.8399011744142433, 9.461020515604856, 4.530327736565431, -6.351285176266969, 28.236901357171803, -2.3269562290246313, -8.371842439210203, 3.1087879154358733], [-10.780124684879983, 12.127407532093082, 0.4213019589808461, -1.3046647692426234, -4.592011385733491, -6.282026836369209, 1.6778093806380017, -12.366998614599483, -7.705382903192844, -7.148257761126909, -4.423568176805702, 17.499436707039724], [10.40285852176238, 3.4905213681695892, -3.9842287371478102, 7.106487211509528, -11.54300298642755, 7.3729996482054485, 13.163884080758221, 5.3823842110065385, -13.185503785966235, -19.764580110453885, 4.578604087098151, -2.1986828230221542], [-5.697675684043523, -10.256525796282789, -7.188482319085009, -4.447188642688872, -3.7091243230224213, 37.92501125237481, -7.647389174133943, -2.9478752183867427, 4.742541794325688, 6.663073961868929, 4.907671260795523, 5.513843584862948], [-9.666154742675808, 18.5591522093122, -4.1533071787614375, -10.591815019301436, 11.333150203277839, 9.478382676659308, -4.4197706329414785, -7.710042435697465, -3.114597081640174, 7.468703419322121, -5.751790206669648, -13.793161468732805], [1.4462326271182122, 18.962354577421873, -19.315220541917988, -7.505410145000127, -5.41914747971837, -14.08986252950681, 16.17166574952836, 2.1657027514142713, 5.6593855522714405, -17.777155390683728, 33.39695329106764, 28.572218805390243], [-4.900317170946545, -23.21149493505496, 2.042455260480642, 6.337306758710088, -10.989626862625006, -11.709552290617191, 10.676051858543678, 2.6957821616017985, 16.451730593622397, -29.707382774437686, -7.301791141495496, -9.145744940703866]], "weights_ho": [[-6.064856495977762, -10.523789077518172, -0.4363885205331526, -5.300687339512817, 13.444760072291723, -24.509995554190393, 17.466088207488628, 28.101319549091585, 9.85901813555666, -9.551287847196294, -15.850999533770759, 1.6896227226358056, -3.9925012835454505, -1.9948624617542285, 15.137201686879868, 4.92952834901182], [-5.41444519697865, -2.493462524998295, 8.873493989942782, -18.970328438300882, 18.569043685618226, -10.203093864824249, 4.162952605064579, -1.4875833546919157, -10.495489196662383, 5.216165649845946, 16.360097620491537, -37.789776491119305, -5.008283940118716, 6.571542889984647, -19.954646837601526, -7.110851543634355], [3.6835980584188377, -7.757293116821394, -4.140882905792186, -3.4564528173370292, -8.327616900067415, 7.512274003636794, -4.444949990988467, 0.4525159178756522, 3.5791219772170373, 5.596400135498811, 22.060495149868352, -5.131058634832586, 13.535644835415168, -24.002253580028867, -19.176834653236366, 6.645233447627549], [-2.4177171394552404, 32.57987893918381, -12.965582802207296, 8.95408587235128, -3.363240290516384, -1.0466720431130598, 12.089944237711912, -2.989529517246151, 27.909092884997843, -24.79608428114873, 9.139702030352376, -11.438356807316971, -16.713364077812468, -6.192531955578878, -2.7135109228246748, 13.571521577967248]], "bias_h": [[-10.13847014018155], [-8.137209850444638], [-11.564348455875798], [-17.85162116185527], [-2.190347534367023], [5.829946608463701], [21.901663953276596], [20.114204848574516], [3.3058019391087154], [-0.5100771664496471], [-0.2420741071103751], [16.45086821455383], [8.456463137264612], [1.376017873209673], [12.662269738677928], [6.838753986825404]], "bias_o": [[-4.287411102845684], [-1.2625735841358168], [-11.477748090798437], [-12.379945208839624]]}, {"input_nodes": 12, "hidden_nodes": 16, "output_nodes": 4, "weights_ih": [[0.8078656574100394, 4.972366977560985, -8.494442910724558, -3.84205508232867, 7.054114027880084, -8.850770290688073, 9.113193583391553, -0.28501058468488016, 2.6727667441496394, 0.12279797932625033, -5.755523056081809, -16.431195518495233], [-0.4166587840035829, -13.64408805657982, 6.010612262420389, -2.8763640770096277, 13.0628329665442, -4.853566664771182, 16.359390565477717, 10.100081316298885, 1.532262913011647, -3.8192700913571733, -9.20870926158871, 15.469714201566239], [8.664453263524832, 5.908184237495151, -4.838265782525616, 8.618386922423802, -15.978397796206623, -9.88899706578439, 16.801449624211063, -12.064672713979697, 18.16885203029351, -5.908885437387471, 16.593754004032906, -5.462626811776523], [0.10386529659084383, 25.051085028294523, -21.106182499087183, 3.5523947402372666, -3.8575778769875497, -3.3166702904246765, -9.019027313050836, 7.6855812425851955, 9.791277575139498, -0.6568768792599271, 1.6619803593322586, -18.46492544895996], [2.270407784125605, -13.429744833202028, -2.9333838016821, -11.98865655479522, -4.2487704572135305, 17.937257483361346, 5.60372373297364, -10.574158327411007, -0.6396441006156267, 9.954181342376808, 2.9833244964903582, 2.0407133074675463], [-17.046157286100545, -4.61100515687519, 15.400889905678087, 3.2967138525389346, 5.810598946964804, 20.478432700787785, 21.262048754445114, 4.872828811612637, 3.6231582679798184, -20.618981764911634, -12.940110080281746, -16.82545146058621], [5.386739069841069, -4.03383092194139, -15.645922979112969, 11.698146645720893, 6.046575863674332, 8.616304900409943, 15.267814289873163, 13.341956247179521, 6.438086023279814, -3.6879459366565084, 5.363307785578755, 6.9291545515619895], [2.14209789343939, 3.2191362104783314, -11.115822837166792, -16.09297528688047, -6.919386384590933, 9.212505390788591, -5.3476679345292215, 8.853351241978627, 18.743488262548897, -15.04106208517064, 17.355172323605867, -7.844992835731376], [2.4588306702401352, -19.69657906418323, -2.5500701968088717, 10.781433978523744, -9.285050424530779, -21.970441904870263, -5.705601135860233, 17.23021025120773, 17.967860324235275, -19.887035828496483, -8.40368694500249, -0.3876752323718091], [6.692274974185215, -0.24186477451903204, 17.862093305083953, 4.415062734969711, 0.8399011744142433, 9.38069410084348, 4.530327736565431, -6.351285176266969, 28.236901357171803, -2.5282838417444857, -8.248628605082757, 3.3283637490782603], [-10.780124684879983, 12.042064542039032, 0.4102838290173377, -1.4903288818907678, -4.677014846337786, -6.491421562169233, 1.7628159799292116, -12.485137529822358, -7.701470196886144, -7.16579138337987, -4.423568176805702, 17.455865555846394], [10.327460651644197, 3.423292635883599, -3.9498028435467067, 7.042774081588553, -11.758346695050049, 7.609312884000986, 13.090256115686719, 5.351478987068466, -13.238914084333027, -19.764580110453885, 4.628359484835006, -2.157587201072781], [-5.551881618732434, -10.177214322083627, -7.186268129825085, -4.239825518861244, -3.657976431572328, 