{"generation": 49031, "population": [{"input_nodes": 12, "hidden_nodes": 16, "output_nodes": 4, "weights_ih": [[1.2365446336927197, 6.250912230299682, -8.222880877903874, -3.8547508081868527, 7.0359407833311085, -8.484285683485176, 8.216276055669, -0.5676570548038379, 4.423286726210204, 0.32670338079598304, -5.779414254579066, -17.38277689566385], [0.2190698165868047, -13.122158673022659, 6.348718311010531, -2.534336706441826, 13.394481976412452, -5.21055904483287, 17.730701603219888, 10.474115524945336, 1.0894760562619612, -5.1468903498059335, -9.41087945466154, 16.447454760396635], [7.831304933858126, 6.695343756205618, -4.945557997239861, 9.097442722405587, -16.66356322270733, -10.269122503491834, 16.609118629156004, -12.934379486684136, 18.203872996269723, -5.746957741095193, 16.79728282357595, -5.7028389166438505], [-0.7858978235214249, 25.42691122047051, -21.203442213468314, 3.283190877895251, -3.255404724799447, -2.8678337059768397, -9.678655954412921, 8.501609195619247, 8.672226956970203, 0.0013785061646984786, 1.6791846752346227, -16.857136987265765], [2.4335256751303422, -12.734788930295489, -2.941272787026906, -12.041452800254227, -4.201916212176236, 16.30629490404319, 6.622963489729617, -11.110603782802128, -0.3960311972559068, 10.490215781623327, 3.2554713563054216, 1.8627769836872166], [-16.763472143162222, -3.7553481169126592, 14.884854262703875, 2.935934405098934, 6.453419627008439, 20.384140190391197, 20.16398298201983, 3.8347271208027993, 3.1543130492600184, -20.907648249219147, -12.509357784515526, -16.964769263567916], [5.557767182601388, -4.229335577069161, -16.360846555253545, 11.415884905739158, 6.433182198156926, 8.059081736997328, 15.418429178499093, 13.323266680726336, 7.022077634813661, -3.698898452328913, 5.29049696665434, 8.319306302833006], [2.4142142242546702, 3.6117494712929257, -12.300347146966777, -16.034508310221423, -8.083849534490346, 8.988699132552165, -5.603340693059293, 9.321118855827876, 17.73568363145454, -15.992470009820366, 16.263257733300684, -8.335474059201173], [2.6774812976041162, -20.682482395831467, -1.8699057577568217, 11.793086165735449, -10.18621431228456, -21.65986779754058, -5.798802560286295, 18.162846266471963, 18.44788743110103, -19.408645792628022, -8.032341114984998, -1.0849738341362798], [6.744050765837695, -1.1474571988697784, 17.119219166093398, 3.989628750646061, 1.0456152934669494, 8.88104863488949, 3.0380560793849147, -4.862998687662884, 28.034205025681004, -2.4119187126700967, -8.956252394303803, 4.067606610949742], [-11.416577089031524, 11.52005472046262, 0.2651993980734298, -1.3890226671136157, -5.553975339817692, -8.288729950821608, 1.6732722280153378, -11.645377106636156, -6.942788786609574, -7.506824529110974, -3.9652820907389636, 18.018894979805253], [9.596071571324904, 4.982664487199011, -4.596468405194733, 6.058750316347182, -11.066249255079196, 6.106099687664465, 12.950968024508297, 4.913606867856366, -13.658707513640044, -18.823742371121632, 5.122131927483127, -2.4295223940356734], [-5.733605028494073, -10.808364817654953, -6.21789897427395, -4.437775764884214, -2.9470139588019286, 37.22679647046177, -7.581385314071466, -2.852182154931791, 6.028793846162973, 7.077754056160926, 4.631979224579183, 5.673476346715217], [-9.518067464938948, 20.17510081283355, -3.9853349168429375, -10.55849468555086, 11.093068114795791, 9.561877111787524, -4.8524274864699475, -7.84690439618489, -2.494199259579314, 7.104851181861013, -5.256115707424274, -13.416648750409573], [1.242383381352671, 17.648032259547445, -20.392888574933842, -7.467347727210894, -5.166312625300124, -14.723345395370382, 15.910738407387777, 2.029030068480493, 5.359813957132999, -17.797559922205803, 33.01449271818721, 29.254399535774084], [-5.099922668564219, -22.728474587378834, 0.7334689787786071, 7.265391960980569, -12.034528829614139, -11.72227044596121, 10.566756310128145, 2.389756395492009, 17.044885822211, -30.368234106659195, -7.8443886778265615, -9.942838164600232]], "weights_ho": [[-5.342332918856439, -10.08439791561095, 0.1592518818549986, -4.578521388635415, 13.649334320900863, -25.61911399815695, 19.001795899376344, 27.74718819559407, 9.932341068604998, -10.534176407049722, -15.328731793888796, 1.5309725580577158, -4.038831945533546, -0.7973953019017936, 14.001202884890755, 4.0528241544045525], [-6.561241010906676, -2.8297999674346466, 9.816700018575668, -18.46873913629798, 17.804808447546872, -10.463304013716597, 4.4821400479678015, -1.3360078238055015, -10.401952231469105, 5.674192611966901, 17.08380847414864, -38.06968875965323, -3.727448754462977, 6.792275594557298, -19.10482657938491, -8.093156460582172], [3.913042499086425, -6.205218670549981, -4.789065567523211, -3.0603912261734094, -8.026103044555565, 6.989208744552052, -4.370458652097465, 0.09423519320773022, 3.5514669873877662, 5.875798514008049, 21.93983360098682, -5.8876458241462215, 12.41740664494996, -24.42894310578685, -18.807270883814354, 7.258873888809455], [-2.4308647090819915, 31.468255604092004, -13.537181706828706, 8.514816088395495, -3.5944069264396865, -1.3903024032554636, 11.162272874778331, -3.089954930792452, 28.52146493354482, -23.77202738678733, 8.222054702867666, -11.047523731323876, -15.24121294333965, -5.712733232353496, -1.6294783565860274, 14.988373506596083]], "bias_h": [[-9.838700072124329], [-8.245946246440857], [-11.897876122144904], [-17.77468003067463], [-1.9514846622325848], [6.209649413199165], [21.70894336481406], [21.100036313888918], [3.7442638243559463], [-0.8493402042278819], [1.5139663453278234], [15.294327557159688], [7.72619205004328], [1.6873894071832822], [13.311057986765046], [7.826962149149394]], "bias_o": [[-4.497965564256313], [-0.9380577538873837], [-11.86742514894638], [-12.783436598634983]]}, {"input_nodes": 12, "hidden_nodes": 16, "output_nodes": 4, "weights_ih": [[1.3723766345208372, 6.232590193845514, -8.195149084284052, -3.8547508081868527, 6.900001448819111, -8.390736528158811, 8.216276055669, -0.5676570548038379, 4.536426780616194, 0.32670338079598304, -5.779414254579066, -17.38277689566385], [0.25410658823491805, -13.122158673022659, 6.499184516575668, -2.534336706441826, 13.526586869054531, -5.297468082219, 17.730701603219888, 10.474115524945336, 1.0894760562619612, -5.1468903498059335, -9.38805400264965, 16.447454760396635], [7.831304933858126, 6.695343756205618, -5.063184653315142, 9.097442722405587, -16.66356322270733, -10.275961705633001, 16.61445612122131, -13.052822156478022, 18.207817235002974, -5.815221675952891, 16.82002410649329, -5.624629997541069], [-0.6455679527385944, 25.42691122047051, -21.203442213468314, 3.283190877895251, -3.255404724799447, -2.8678337059768397, -9.631426946289116, 8.501609195619247, 8.58402101633956, 0.0013785061646984786, 1.8368393380623864, -16.857136987265765], [2.5306592295519814, -12.580764487283124, -3.1104329899550853, -12.041452800254227, -4.136665329854886, 16.285986651948264, 6.428825591256935, -11.184817348075347, -0.3960311972559068, 10.549758475070885, 3.2554713563054216, 1.8439565792568733], [-16.70371880324514, -3.6931598341856207, 14.884854262703875, 2.935934405098934, 6.460256655544036, 20.384140190391197, 20.16398298201983, 3.739612795749093, 3.1543130492600184, -20.907648249219147, -12.47513992710464, -17.043865083814353], [5.622006171805707, -4.166176738716425, -16.14331085743721, 11.411061755769879, 6.433182198156926, 8.236783263054562, 15.359666281235432, 13.323266680726336, 7.152194291433286, -3.6193346316947395, 5.29340521021704, 8.28288041172204], [2.4615690259639695, 3.6117494712929257, -12.364717340475629, -16.127101431225064, -8.204371628497602, 9.130421370153305, -5.60233792767498, 9.321118855827876, 17.94164702218409, -15.992470009820366, 16.193956943965, -8.335474059201173], [2.6774812976041162, -20.682482395831467, -1.8699057577568217, 11.793086165735449, -10.205205343257203, -21.676552187546104, -5.856345069197948, 18.162846266471963, 18.44788743110103, -19.27782210219996, -8.086391201891132, -0.9564999418214803], [6.751709441945914, -1.1474571988697784, 17.119219166093398, 3.989628750646061, 1.0456152934669494, 8.88104863488949, 2.9201186021191243, -4.862998687662884, 28.03791993176049, -2.451234312384383, -8.803326174396025, 4.013197940194041], [-11.558064204349845, 11.52005472046262, 0.2651993980734298, -1.4820492406337147, -5.6502612836399235, -8.401848526903331, 1.5923163703893757, -11.645377106636156, -7.003714634530148, -7.681358278729583, -3.843590669920526, 18.12203742083035], [9.66214833224827, 4.905338233467179, -4.6075128514187895, 5.8999320528398975, -11.015861386445824, 6.106099687664465, 12.950968024508297, 4.826655709319759, -13.658707513640044, -18.900728859191236, 4.980589211261954, -2.407113026465212], [-5.733605028494073, -10.808364817654953, -6.21789897427395, -4.475500466064673, -2.9470139588019286, 37.22679647046177, -7.581385314071466, -2.852182154931791, 6.028793846162973, 7.077754056160926, 4.718151351055128, 5.673476346715217], [-9.518067464938948, 20.17510081283355, -3.9853349168429375, -10.55849468555086, 11.13541424184582, 9.561877111787524, -4.874306197846535, -7.84690439618489, -2.494199259579314, 7.013835212879577, -5.256115707424274, -13.352910175181053], [1.1906028808564308, 17.555816709186452, -20.392888574933842, -7.382223665454648, -5.166312625300124, -14.874769378620849, 15.964544226401896, 2.029030068480493, 5.359813957132999, -17.87772418366665, 33.01449271818721, 29.28158021734977], [-5.167555718789757, -22.639140542197392, 0.7334689787786071, 7.265391960980569, -12.120882847633753, -11.72227044596121, 10.600172096055934, 2.389756395492009, 17.044885822211, -30.405777567145098, -7.666737785080033, -9.942838164600232]], "weights_ho": [[-5.342332918856439, -9.995365477136994, 0.10113608428577348, -4.578521388635415, 13.688387314915676, -25.65925467228704, 19.005822151961347, 27.74718819559407, 9.932341068604998, -10.550076569630056, -15.328731793888796, 1.6580062724145843, -4.111969948987573, -0.8847452929146712, 14.001202884890755, 4.108002398330315], [-6.561241010906676, -2.854466045493005, 9.519524154730624, -18.46873913629798, 17.92296819923419, -10.463304013716597, 4.499885983674842, -1.4247091263262437, -10.297596625350334, 5.6668803583936285, 17.078568310235376, -38.06968875965323, -3.727448754462977, 6.7974972632066155, -19.01926123046389, -8.113837193727353], [3.9753385459860007, -6.205218670549981, -4.735921702723199, -3.1521511768935846, -8.026103044555565, 6.989208744552052, -4.370458652097465, 0.09423519320773022, 3.5574001411382326, 5.875798514008049, 21.86015071689566, -5.894564424647574, 12.344405740009991, -24.42894310578685, -18.886764156585325, 7.152573503179387], [-2.5411458695832065, 31.59928566650376, -13.537181706828706, 8.617929897872457, -3.5944069264396865, -1.481706838170957, 11.162272874778331, -3.1328283071899823, 28.52146493354482, -23.85033637483482, 7.977336591636999, -11.047523731323876, -15.24121294333965, -5.718018168273357, -1.5867187894454309, 15.061675437753237]], "bias_h": [[-9.838700072124329], [-8.492982434713365], [-11.908117411336201], [-17.80228506099261], [-1.9514846622325848], [6.209649413199165], [21.808522050015466], [21.100036313888918], [3.7442638243559463], [-0.8584207986296758], [1.5139663453278234], [15.294327557159688], [7.72619205004328], [1.4175900981954568], [13.311057986765046], [7.826962149149394]], "bias_o": [[-4.613304261672642], [-0.9380577538873837], [-12.063649373647664], [-12.783436598634983]]}, {"input_nodes": 12, "hidden_nodes": 16, "output_nodes": 4, "weights_ih": [[1.2759943957688256, 6.250912230299682, -8.222880877903874, -3.727651581425485, 7.066208623183188, -8.484285683485176, 8.24620867310183, -0.5606544671392011, 4.4132523904028, 0.32670338079598304, -5.733598581851655, -17.416602331448324], [0.2190698165868047, -13.245755574905596, 6.464191409599733, -2.534336706441826, 13.366313504866095, -5.21055904483287, 17.633989278861126, 10.576322230981571, 1.097022686719185, -5.1468903498059335, -9.41087945466154, 16.447454760396635], [7.67967389726289, 6.755940975898624, -4.945557997239861, 9.097442722405587, -16.586074908414695, -10.269122503491834, 16.500922425730632, -12.934379486684136, 18.3251958573679, -5.726428110532995, 16.806003604456055, -5.7028389166438505], [-0.9037211290079407, 25.42691122047051, -20.936335308799066, 3.2589002115516683, -3.255404724799447, -2.765691580957193, -9.585999864043249, 8.501609195619247, 8.591672557282113, -0.09445846674887981, 1.6274701209799665, -17.012977838779932], [2.236942844774044, -12.734788930295489, -2.941272787026906, -12.041452800254227, -4.201916212176236, 16.30629490404319, 6.583758282518833, -11.110603782802128, -0.43214402446913047, 10.529816153704237, 3.3489146942736827, 1.7092098656691972], [-16.73790829402201, -3.7553481169126592, 14.884854262703875, 2.9829126361193357, 6.497653518988151, 20.384140190391197, 20.109363268395324, 3.9562085498080286, 3.1543130492600184, -20.907648249219147, -12.509357784515526, -16.908269565007235], [5.557767182601388, -4.315586991639246, -16.31816926061563, 11.415884905739158, 6.489881082893775, 8.183757566080631, 15.505979741512142, 13.323266680726336, 6.998937290620281, -3.5873988579988016, 5.29049696665434, 8.27134778609528], [2.259620366796471, 3.4724340755295047, -12.21679703745523, -16.034508310221423, -8.083849534490346, 8.988699132552165, -5.603340693059293, 9.321118855827876, 17.729044946866427, -15.992470009820366, 16.296073611001056, -8.335474059201173], [2.8091546867517496, -20.682482395831467, -1.965563864415238, 11.951932098148673, -10.18621431228456, -21.65986779754058, -5.798802560286295, 18.21090625603381, 18.44788743110103, -19.408645792628022, -8.086879776700776, -1.0849738341362798], [6.744050765837695, -1.1474571988697784, 17.119219166093398, 3.989628750646061, 1.0456152934669494, 8.88104863488949, 3.0380560793849147, -4.862998687662884, 28.015324946386833, -2.5373523431050837, -8.956252394303803, 4.055390964887327], [-11.408511009345043, 11.530394807915677, 0.2968602528831366, -1.534921570111053, -5.553975339817692, -8.362877937792323, 1.6761095591975643, -11.708904044962265, -6.8598951961222685, -7.506824529110974, -3.832168261535658, 18.03239402255189], [9.596071571324904, 4.982664487199011, -4.596468405194733, 6.058750316347182, -11.06870322930304, 6.193332121418028, 12.950968024508297, 4.900578569563716, -13.658707513640044, -18.823742371121632, 5.122131927483127, -2.292313176273504], [-5.733605028494073, -10.760613694367755, -6.252350684812146, -4.488048051673186, -2.894225383742578, 37.14571540359247, -7.4602589561931385, -2.852182154931791, 6.0115232005387975, 7.077754056160926, 4.631979224579183, 5.732182015445418], [-9.518067464938948, 20.17510081283355, -3.8587441370416524, -10.55849468555086, 11.093068114795791, 9.454581718340696, -4.919610085722973, -7.8558461828435995, -2.4675756274456564, 7.375920918642073, -5.256115707424274, -13.22407945996906], [1.1661220867223492, 17.648032259547445, -20.454956318432597, -7.5367092241584634, -5.166312625300124, -14.723345395370382, 15.910738407387777, 1.9469245882375803, 5.279419505261106, -17.678810940121757, 33.01449271818721, 29.254399535774084], [-5.13616401263105, -22.681611113596258, 0.7334689787786071, 7.270410347171522, -12.034528829614139, -11.72227044596121, 10.566756310128145, 2.389756395492009, 17.044885822211, -30.368234106659195, -7.8443886778265615, -9.942838164600232]], "weights_ho": [[-5.254737899533015, -10.08439791561095, 0.1592518818549986, -4.69349608130783, 13.66835012921454, -25.61911399815695, 19.001795899376344, 27.688631739648503, 9.914263116032265, -10.534176407049722, -15.328731793888796, 1.3994273397819657, -3.9084788831352952, -0.7769713863969117, 14.081398075353876, 4.047631324059144], [-6.464994387090645, -2.8297999674346466, 9.693341694663768, -18.46873913629798, 17.804808447546872, -10.463304013716597, 4.612683849644271, -1.3360078238055015, -10.47080597421599, 5.674192611966901, 17.08380847414864, -38.06968875965323, -3.646245723670951, 6.784091722158769, -19.10482657938491, -7.998910375131503], [3.913042499086425, -6.19996096875721, -4.7744240851536714, -3.126717787797049, -8.026103044555565, 7.1238477526626465, -4.460184071603956, 0.09423519320773022, 3.4011297259242705, 5.957226567042647, 21.894536926744344, -5.852570982035514, 12.530240630888626, -24.399639701634847, -18.807270883814354, 7.258873888809455], [-2.1805223136272627, 31.43871024203798, -13.401523575211371, 8.559541287083613, -3.4353931807845526, -1.37076718415437, 11.070944006304098, -3.089954930792452, 28.52146493354482, -23.74952037586426, 8.29252008749862, -11.199547668194727, -15.138751985620374, -5.703431892215316, -1.6294783565860274, 14.988373506596083]], "bias_h": [[-9.838700072124329], [-8.258164714284167], [-11.897876122144904], [-17.77468003067463], [-1.9514846622325848], [6.242587952269445], [21.65726471197299], [21.13279128102546], [3.658073724996368], [-0.8493402042278819], [1.5139663453278234], [15.294327557159688], [7.72619205004328], [1.6873894071832822], [13.311057986765046], [7.826962149149394]], "bias_o": [[-4.497965564256313], [-0.7612016569937649], [-11.893788625251101], [-12.783436598634983]]}, {"input_nodes": 12, "hidden_nodes": 16, "output_nodes": 4, "weights_ih": [[1.2679413364877463, 6.250912230299682, -8.222880877903874, -3.998212958439772, 7.0359407833311085, -8.446139515669627, 8.216276055669, -0.4911197573961256, 4.459504547679056, 0.20415892444354833, -5.779414254579066, -17.28922992777684], [0.2190698165868047, -13.19936001416914, 6.348718311010531, -2.4788453949683937, 13.346453740300467, -5.21055904483287, 17.730701603219888, 10.474115524945336, 1.2212605885349752, -5.1468903498059335, -9.41087945466154, 16.447454760396635], [7.722171709276473, 6.695343756205618, -5.041177373592267, 9.097442722405587, -16.66356322270733, -10.322891899282268, 16.609118629156004, -12.934379486684136, 18.203872996269723, -5.746957741095193, 16.99118521498816, -5.7217469221713495], [-0.8395971922196408, 25.51265452240923, -21.203442213468314, 3.283190877895251, -3.255404724799447, -2.829078279138004, -9.678655954412921, 8.402669634671717, 8.672226956970203, 0.011289553333771544, 1.6791846752346227, -16.857136987265765], [2.4335256751303422, -12.833740070676692, -2.941272787026906, -12.041452800254227, -4.131712750807709, 16.30629490404319, 6.622963489729617, -11.110603782802128, -0.3960311972559068, 10.484315865445824, 3.114671875383576, 1.9646233668340494], [-16.763472143162222, -3.6988551489595753, 14.799395936784714, 2.667807061331606, 6.306337088898117, 20.384140190391197, 20.16398298201983, 3.8347271208027993, 3.1543130492600184, -20.907648249219147, -12.432076628108229, -16.964769263567916], [5.557767182601388, -4.384344855963124, -16.360846555253545, 11.415884905739158, 6.433182198156926, 8.059081736997328, 15.418429178499093, 13.420462682110095, 7.101959495465235, -3.705801822116084, 5.464536928373321, 8.345933719217703], [2.5633773475709263, 3.6117494712929257, -12.300347146966777, -16.195539903497824, -8.03269518565396, 8.988699132552165, -5.509408442194643, 9.321118855827876, 17.73568363145454, -15.992470009820366, 16.263257733300684, -8.442303689325415], [2.6774812976041162, -20.682482395831467, -1.9515120369707701, 11.782918170833982, -10.201933781490686, -21.65986779754058, -5.798802560286295, 18.243418210662988, 18.54537725006446, -19.408645792628022, -8.064319610476124, -1.0478561406009248], [6.616303034410958, -1.282510596313742, 17.168529692785864, 3.7803998535844485, 1.0456152934669494, 8.88104863488949, 2.93302970815365, -4.862998687662884, 27.975043637472012, -2.2210003439103603, -8.872938456324226, 4.067606610949742], [-11.416577089031524, 11.572921114723961, 0.29070722018932016, -1.3890226671136157, -5.553975339817692, -8.328095096589589, 1.6727189217184992, -11.557393227497645, -6.942788786609574, -7.506824529110974, -3.9652820907389636, 18.046713203298843], [9.366232350630675, 4.981456667579847, -4.596468405194733, 6.208690906261753, -11.066249255079196, 6.106099687664465, 12.950968024508297, 4.913606867856366, -13.88325392324837, -18.95067932264128, 5.17781055498378, -2.390591512817616], [-5.749408779128145, -10.78661965623319, -6.390401879625223, -4.437775764884214, -2.828317153321267, 37.22679647046177, -7.581385314071466, -2.852182154931791, 6.028793846162973, 6.848595425571278, 4.850456581109423, 5.536695681976547], [-9.547898119480598, 20.17510081283355, -4.080434021689622, -10.569331421960566, 11.093068114795791, 9.545629394358523, -4.8524274864699475, -7.84690439618489, -2.494199259579314, 7.104851181861013, -5.302410984965916, -13.468932559521294], [1.1473891993168872, 17.648032259547445, -20.393310672642937, -7.52114990303925, -5.166312625300124, -14.723345395370382, 15.910738407387777, 2.145007799013797, 5.359813957132999, -17.83357817704144, 33.06341757959111, 29.128109936388274], [-5.099922668564219, -22.728474587378834, 0.667044488918654, 7.265391960980569, -12.201181807424827, -11.82916998663599, 10.702436944173321, 2.3128627188352424, 17.017911362243424, -30.294110770405606, -7.8443886778265615, -9.81034563726117]], "weights_ho": [[-5.342332918856439, -10.043132667015355, 0.19654127078154102, -4.578521388635415, 13.551922692941842, -25.61911399815695, 19.001795899376344, 27.555167898280793, 9.973189459938608, -10.498752005027695, -15.23145413850046, 1.5309725580577158, -4.21665911934764, -0.7208383249994257, 13.99573830337966, 4.0528241544045525], [-6.560789436818104, -2.764637510658747, 9.816700018575668, -18.46873913629798, 17.834014540389084, -10.463304013716597, 4.396287492294296, -1.3360078238055015, -10.372905219501451, 5.6710838610031855, 17.08380847414864, -38.08160320082803, -3.727448754462977, 6.792275594557298, -19.10482657938491, -7.9164843473912425], [3.913042499086425, -6.205218670549981, -4.7057186651394405, -3.0603912261734094, -7.971271182136597, 6.989208744552052, -4.370458652097465, 0.09198474338355984, 3.5514669873877662, 5.799542986341446, 21.93983360098682, -5.9004622143179635, 12.41740664494996, -24.40033716777041, -18.807270883814354, 7.258873888809455], [-2.3618698831973615, 31.468255604092004, -13.737465716239312, 8.514816088395495, -3.5944069264396865, -1.4924015310460756, 11.162272874778331, -3.100034909385718, 28.52146493354482, -23.77202738678733, 8.170654133600262, -11.047523731323876, -15.181392140801655, -5.331202580390593, -1.8500910494367633, 14.988373506596083]], "bias_h": [[-9.838700072124329], [-8.291190989832694], [-11.822596893457185], [-17.713989030774343], [-1.9514846622325848], [6.209649413199165], [21.70894336481406], [21.100036313888918], [3.536260226054012], [-1.0187675790311599], [1.5371950029121628], [15.233293718563617], [7.6463732638753], [1.6873894071832822], [13.40058066401779], [8.033888533047511]], "bias_o": [[-4.497965564256313], [-0.9380577538873837], [-11.86742514894638], [-12.783436598634983]]}, {"input_nodes": 12, "hidden_nodes": 16, "output_nodes": 4, "weights_ih": [[1.4813859437217411, 6.103171181551614, -8.222880877903874, -3.8547508081868527, 7.0359407833311085, -8.484285683485176, 8.216276055669, -0.4524508048856375, 4.423286726210204, 0.32670338079598304, -5.779414254579066, -17.38277689566385], [0.15724833216590361, -13.122158673022659, 6.336498745234644, -2.534336706441826, 13.394481976412452, -5.278802290057185, 17.730701603219888, 10.474115524945336, 1.0894760562619612, -5.20184432810953, -9.41087945466154, 16.447454760396635], [7.831304933858126, 6.738570036749959, -5.003359224039135, 9.055788999000889, -16.70183905279381, -10.35527414427821, 16.609118629156004, -13.055083568488408, 18.06149807169141, -5.69345054956176, 16.664208051000326, -5.797381929362349], [-0.7386726281752267, 25.42691122047051, -21.203442213468314, 3.283190877895251, -3.255404724799447, -2.8678337059768397, -9.699822935773781, 8.457003875904379, 8.609673187719055, 0.0013785061646984786, 1.7897998888551472, -16.917046825700076], [2.503121522704117, -12.734788930295489, -2.958365804750833, -12.041452800254227, -4.201916212176236, 16.30629490404319, 6.529365685447321, -11.110603782802128, -0.36186915139345216, 10.462733829013503, 3.41892641204929, 1.8627769836872166], [-16.929746157011376, -3.7553481169126592, 15.038696693550413, 2.935934405098934, 6.453419627008439, 20.384140190391197, 20.03543984187078, 3.946321130102564, 3.1543130492600184, -20.943102347778268, -12.509357784515526, -16.964769263567916], [5.464104085584842, -4.229335577069161, -16.217343939985717, 11.415884905739158, 6.433182198156926, 8.059081736997328, 15.418429178499093, 13.323266680726336, 6.835619790580736, -3.734405355353125, 5.29049696665434, 8.486252306698294], [2.519340943443721, 3.6117494712929257, -12.300347146966777, -16.18492438244295, -8.083849534490346, 8.988699132552165, -5.518359461617431, 9.194261451228522, 17.61591012087435, -15.992470009820366, 16.263257733300684, -8.23951840834434], [2.6660495203582184, -20.536414068685964, -1.8701604843812494, 11.753471302314265, -10.18621431228456, -21.59350224360233, -5.798802560286295, 18.162846266471963, 18.447934520476256, -19.385107046842638, -8.009168964631453, -1.1359629705593268], [6.641785255407109, -1.04556037775692, 17.119219166093398, 3.989628750646061, 1.0456152934669494, 8.786691434019613, 2.9052869071394047, -4.862998687662884, 27.95846229538124, -2.1929084085449904, -8.956252394303803, 4.067606610949742], [-11.416577089031524, 11.52005472046262, 0.20332158944696183, -1.3890226671136157, -5.542032118595612, -8.288729950821608, 1.8316132225965243, -11.625443677269017, -6.936687665602962, -7.522343031043069, -3.9652820907389636, 18.018894979805253], [9.596071571324904, 5.041873650937857, -4.596468405194733, 6.11494750083207, -11.066249255079196, 6.106099687664465, 12.950968024508297, 4.896776775921955, -13.730625887879201, -18.823742371121632, 5.122131927483127, -2.3635142715708346], [-5.787428348856366, -10.837195123922482, -6.217318906785835, -4.45785945472447, -3.056601475563002, 37.22679647046177, -7.439017213755376, -2.852182154931791, 5.922462831934517, 7.231562744717099, 4.631979224579183, 5.718758524747727], [-9.518067464938948, 20.199498040105947, -3.9853349168429375, -10.55849468555086, 11.131736733611708, 9.561877111787524, -4.928354855215326, -7.890460421798932, -2.533965910566332, 7.017253416415309, -5.256115707424274, -13.416648750409573], [1.242383381352671, 17.70737451952655, -20.42283503388893, -7.359505584705691, -5.363032309636756, -14.723345395370382, 15.910738407387777, 2.029030068480493, 5.319845186275459, -17.884565366193666, 33.183066929873966, 29.291098045393564], [-5.036204090119204, -22.728474587378834, 0.7334689787786071, 7.265391960980569, -12.109461367273513, -11.764525692507844, 10.566756310128145, 2.389756395492009, 17.044885822211, -30.368234106659195, -7.8443886778265615, -9.942838164600232]], "weights_ho": [[-5.342332918856439, -10.157175384727445, 0.1592518818549986, -4.478823828482002, 13.6601521962331, -25.61911399815695, 18.95658552855547, 27.74718819559407, 10.061415219549309, -10.59094255914079, -15.32081563151007, 1.5309725580577158, -4.038831945533546, -0.878669599922643, 13.882253523340184, 4.03787065611043], [-6.513548740668679, -2.8297999674346466, 9.816700018575668, -18.46873913629798, 17.804808447546872, -10.463304013716597, 4.519015180261889, -1.3360078238055015, -10.401952231469105, 5.674192611966901, 17.053447102482178, -38.06968875965323, -3.727448754462977, 6.792275594557298, -19.24666019260209, -8.093156460582172], [3.8552783226037004, -6.13657240376577, -4.761397493952654, -2.9802069901552244, -8.112739403343808, 6.86587742171905, -4.370458652097465, -0.016383680134200385, 3.4678414318511552, 5.875798514008049, 21.81488990874622, -5.850254925859963, 12.375525905873577, -24.326448649768825, -18.807270883814354, 7.297058177615737], [-2.3887788179525424, 31.468255604092004, -13.537181706828706, 8.514816088395495, -3.5944069264396865, -1.415244262171234, 11.424202805012307, -3.080061268086983, 28.52146493354482, -23.737932887387853, 8.222054702867666, -11.182933901092973, -15.24121294333965, -5.621276844384723, -1.6294783565860274, 14.988373506596083]], "bias_h": [[-9.752972519506523], [-8.245946246440857], [-11.897876122144904], [-17.660555018354202], [-2.0089967936387163], [6.209649413199165], [21.627934272069204], [21.100036313888918], [3.7442638243559463], [-0.8493402042278819], [1.6337697051797428], [15.294327557159688], [7.72619205004328], [1.6873894071832822], [13.241050059799607], [7.826962149149394]], "bias_o": [[-4.497965564256313], [-0.9938496509101702], [-11.86742514894638], [-12.877849817011322]]}, {"input_nodes": 12, "hidden_nodes": 16, "output_nodes": 4, "weights_ih": [[1.2365446336927197, 6.18438758144137, -8.222880877903874, -3.8547508081868527, 7.131574015352913, -8.276264812572672, 8.15926579841786, -0.5364900422736895, 4.423286726210204, 0.4727533472026467, -5.836363164187194, -17.201999817705065], [0.2190698165868047, -13.122158673022659, 6.348718311010531, -2.551423874307194, 13.394481976412452, -4.91002352940386, 17.780405709676078, 10.444259157175347, 1.1560186352957253, -5.1468903498059335, -9.464090310236369, 16.45961928006549], [7.777712122991665, 6.695343756205618, -4.945557997239861, 8.951222295986632, -16.66356322270733, -10.269122503491834, 16.520743281052397, -13.03367433007305, 18.011494430791245, -5.659501176357599, 16.701616030384397, -5.7028389166438505], [-0.7858978235214249, 25.56259763004134, -21.203442213468314, 3.116202478678567, -3.2382557474834943, -2.764861703955429, -9.678655954412921, 8.552034845552106, 8.672226956970203, 0.0013785061646984786, 1.6791846752346227, -16.857136987265765], [2.4335256751303422, -12.734788930295489, -2.941272787026906, -12.135046858452021, -4.201916212176236, 16.30629490404319, 6.63330653839533, -11.035348292409049, -0.4809773220820985, 10.490215781623327, 3.2701384435877103, 2.045592767839994], [-16.763472143162222, -3.7553481169126592, 14.801618142603488, 2.935934405098934, 6.469136216513519, 20.384140190391197, 20.16398298201983, 3.8623325682617975, 3.1736491803117928, -20.939285835992212, -12.470137491548591, -16.964769263567916], [5.557767182601388, -4.178535445997224, -16.389493739815055, 11.459588977186527, 6.38662573307589, 8.038502274036004, 15.418429178499093, 13.323266680726336, 7.022077634813661, -3.698898452328913, 5.29049696665434, 8.416774105486779], [2.3619253220692706, 3.483127102572345, -12.300347146966777, -16.0604336447857, -8.027982994548742, 8.955640734736003, -5.603340693059293, 9.321118855827876, 17.73568363145454, -15.992470009820366, 16.263257733300684, -8.335474059201173], [2.6774812976041162, -20.682482395831467, -1.8699057577568217, 11.793086165735449, -10.18621431228456, -21.68121253995868, -5.798802560286295, 18.186155265349235, 18.372705824690048, -19.408645792628022, -8.025221947619777, -1.0440091503312485], [6.744050765837695, -1.161334911726575, 17.095103535749224, 3.9165770360525465, 1.167485818432653, 8.872118726150468, 3.0380560793849147, -4.844175767748522, 28.034205025681004, -2.506332269096502, -9.042148117373523, 4.082324150821793], [-11.32021309786026, 11.387300635942868, 0.2651993980734298, -1.3890226671136157, -5.581254773281764, -8.329533483592693, 1.6886716895657454, -11.75189338571843, -6.969809631602568, -7.506824529110974, -3.8912265494940215, 18.018894979805253], [9.599178352362173, 5.000799919167823, -4.827516893716968, 6.058750316347182, -11.089325973231432, 6.1664149736789176, 12.950968024508297, 4.913606867856366, -13.717718184754622, -18.823742371121632, 5.122131927483127, -2.4295223940356734], [-5.504276515541879, -10.98449096247696, -6.178319823705322, -4.437775764884214, -2.9470139588019286, 37.548658231344135, -7.581385314071466, -2.852182154931791, 6.028793846162973, 7.077754056160926, 4.631979224579183, 5.772614689726314], [-9.492375728705078, 20.207404754214487, -3.9853349168429375, -10.55849468555086, 11.093068114795791, 9.549281193065504, -4.717626731386183, -7.84690439618489, -2.3671636727261145, 7.166413512095216, -5.256115707424274, -13.416648750409573], [1.3309085951047375, 17.648032259547445, -20.38328740128783, -7.568058824801552, -5.274117502546676, -14.723345395370382, 15.854123267633435, 2.0774027005399915, 5.228406686762518, -17.601831711976452, 32.850403428236795, 29.254399535774084], [-5.0808307042408245, -22.728474587378834, 0.7334689787786071, 7.265391960980569, -12.034528829614139, -11.673965603307337, 10.463390208537996, 2.2304363689352886, 17.044885822211, -30.406124505038896, -7.870596826490251, -9.942838164600232]], "weights_ho": [[-5.40696438654683, -10.271702179052614, 0.27341441559975466, -4.578521388635415, 13.676392852602534, -25.61911399815695, 18.85039562586455, 27.74718819559407, 9.888631163986602, -10.490569704525214, -15.298048714890173, 1.445191252464358, -3.8546924303308154, -0.9008580928113755, 13.843615771708604, 4.026874136040222], [-6.4120007243926835, -2.9470816319440494, 9.803396085254501, -18.47982799036519, 17.86565638716003, -10.214143522613078, 4.4821400479678015, -1.4308494955674669, -10.523313517565892, 5.6675701413609385, 17.242603656279236, -38.06968875965323, -3.8153408128627904, 6.896153599402975, -19.196475065881657, -8.093156460582172], [3.8509273100061305, -6.205218670549981, -4.73592921333956, -3.015172482413878, -8.026103044555565, 6.989208744552052, -4.292843545998386, 0.15188020559098933, 3.5514669873877662, 5.909531306472864, 21.95794155486523, -5.871790121169914, 12.41740664494996, -24.42894310578685, -18.82642763713247, 7.258873888809455], [-2.4308647090819915, 31.468255604092004, -13.586390312441102, 8.549708758313932, -3.5944069264396865, -1.428309064240364, 11.193487249567093, -3.1118828810160117, 28.364958247734204, -23.75777429820576, 8.222054702867666, -11.026311868464417, -15.182241064520278, -5.712733232353496, -1.6589346413593313, 14.988373506596083]], "bias_h": [[-10.044104070048466], [-8.245946246440857], [-11.897876122144904], [-17.77468003067463], [-1.850831324446979], [6.209649413199165], [21.52256397937205], [21.100036313888918], [3.7858777493303406], [-0.8493402042278819], [1.5139663453278234], [15.291362737118932], [7.72619205004328], [1.6873894071832822], [13.311057986765046], [7.826962149149394]], "bias_o": [[-4.497965564256313], [-0.8501568440789103], [-11.951280231762327], [-12.783436598634983]]}, {"input_nodes": 12, "hidden_nodes": 16, "output_nodes": 4, "weights_ih": [[1.2592955851502263, 6.159423321665309, -8.153645576405832, -4.116980092486192, 7.0359407833311085, -8.70450608313328, 8.216276055669, -0.6439928458821489, 4.343277145291216, 0.3346139456103753, -5.779414254579066, -17.193359706797693], [-0.05495176756942072, -13.122158673022659, 6.397082819586763, -2.534336706441826, 13.298203404821663, -5.263562265223906, 17.730701603219888, 10.465197404280453, 1.0894760562619612, -5.110443350410764, -9.387079182341424, 16.489104957559842], [7.827805039446902, 6.695343756205618, -4.945557997239861, 8.953190059441956, -16.66356322270733, -10.269122503491834, 16.765515144419364, -12.868341109027474, 18.203872996269723, -5.59416993975693, 16.79728282357595, -5.7028389166438505], [-0.7858978235214249, 25.42691122047051, -21.203442213468314, 3.283190877895251, -3.3321807310431426, -2.7892401701806664, -9.678655954412921, 8.501609195619247, 8.672226956970203, 0.0013785061646984786, 1.8025335708745733, -16.817698888673025], [2.5221791880165707, -12.56779567865676, -2.941272787026906, -12.001888990185204, -4.259184510278426, 16.30629490404319, 6.622963489729617, -11.110603782802128, -0.4905951889592308, 10.496033812535227, 3.2038436725462978, 1.8627769836872166], [-16.760834477314717, -3.7553481169126592, 15.031036274354836, 2.914166007187835, 6.453419627008439, 20.384140190391197, 20.16398298201983, 3.8347271208027993, 3.1543130492600184, -20.907648249219147, -12.662437521441083, -17.02699735007091], [5.557767182601388, -4.271153488948243, -16.360846555253545, 11.510129599638919, 6.454464664562542, 8.059081736997328, 15.232595516774923, 13.323266680726336, 6.968266304881616, -3.5107285952805634, 5.229299703031359, 8.319306302833006], [2.4142142242546702, 3.243168236883385, -12.240871494034128, -16.185089587131355, -7.959301156800603, 8.988699132552165, -5.603340693059293, 9.321118855827876, 17.73568363145454, -15.956876212358736, 16.10779153167628, -8.270670447298494], [2.6516625988731533, -20.856292881095406, -1.8486044906254202, 11.753284562148215, -10.116239535589218, -21.65986779754058, -5.920027467762013, 18.162846266471963, 18.52168627114419, -19.408645792628022, -7.913463583664525, -1.0849738341362798], [6.744050765837695, -1.1767149124189866, 17.14277111324344, 3.926330305683005, 1.0456152934669494, 8.850499906608581, 2.84453422408186, -4.874524591958567, 28.034205025681004, -2.4119187126700967, -8.956252394303803, 4.067606610949742], [-11.323229719712977, 11.52005472046262, 0.2041459411120839, -1.2084247677141258, -5.573098032466075, -8.437729471951759, 1.3551523408772033, -11.645377106636156, -6.903799772874081, -7.453891919739879, -4.162082600838802, 18.018894979805253], [9.604246340999474, 4.982664487199011, -4.6079688794085465, 6.058750316347182, -11.007968808352162, 6.106099687664465, 12.950968024508297, 4.913606867856366, -13.49521871399427, -18.823742371121632, 5.122131927483127, -2.455626864171357], [-5.851443727497434, -10.808364817654953, -6.21789897427395, -4.636229748572125, -3.138187722646041, 37.31450246418779, -7.581385314071466, -2.852182154931791, 6.028793846162973, 7.098013580352114, 4.61778196110369, 5.697878419337882], [-9.518067464938948, 20.03528340421039, -3.9853349168429375, -10.327118433813263, 11.093068114795791, 9.423723079166516, -4.608959520158024, -8.00553186573369, -2.494199259579314, 7.104851181861013, -5.225319594994482, -13.416648750409573], [1.242383381352671, 17.648032259547445, -20.274052751220314, -7.467347727210894, -5.272618967494629, -14.723345395370382, 15.910738407387777, 2.029030068480493, 5.359813957132999, -17.797559922205803, 33.01449271818721, 29.248598960009822], [-5.099922668564219, -22.736372314594856, 0.45279090049876036, 7.265391960980569, -11.92059246593389, -11.72227044596121, 10.566756310128145, 2.384883794386152, 17.044885822211, -30.368234106659195, -7.8443886778265615, -9.876139626949477]], "weights_ho": [[-5.342332918856439, -10.017330719292108, 0.1592518818549986, -4.578521388635415, 13.649334320900863, -25.61911399815695, 18.986328785845682, 27.940274808045825, 9.932341068604998, -10.589683020173283, -15.328731793888796, 1.5309725580577158, -3.990810701231696, -0.7973953019017936, 14.001202884890755, 4.0528241544045525], [-6.561241010906676, -2.7422333680960054, 9.68233446637251, -18.46873913629798, 17.76040756360536, -10.580320361424066, 4.5469549499949995, -1.24033696045367, -10.401952231469105, 5.674192611966901, 17.144198738981224, -38.06968875965323, -3.727448754462977, 6.8186471711815955, -19.135438548293674, -8.077597125498972], [3.9793530559014054, -6.3000079250369545, -4.902384322057798, -3.0603912261734094, -8.026103044555565, 6.985832348764183, -4.372503278349755, 0.08990331839992503, 3.5514669873877662, 5.875798514008049, 21.93983360098682, -5.949217788838881, 12.41740664494996, -24.45110169336768, -18.807270883814354, 7.417502989819516], [-2.3761064643680707, 31.37937295959268, -13.571022110989327, 8.557199081256302, -3.5944069264396865, -1.3903024032554636, 11.162272874778331, -3.089954930792452, 28.52146493354482, -23.635915904528435, 8.38010386392232, -11.047523731323876, -15.24121294333965, -5.854508256416751, -1.5866746909200793, 14.988373506596083]], "bias_h": [[-9.838700072124329], [-8.245946246440857], [-11.897876122144904], [-17.51651118746342], [-1.9514846622325848], [6.209649413199165], [21.83654174669075], [21.100036313888918], [3.841848586676679], [-0.8493402042278819], [1.7553292208587856], [15.387244545288185], [7.72619205004328], [1.526555659774376], [13.469879657189345], [7.826962149149394]], "bias_o": [[-4.639248192546311], [-0.9380577538873837], [-11.803563397321495], [-12.783436598634983]]}, {"input_nodes": 12, "hidden_nodes": 16, "output_nodes": 4, "weights_ih": [[1.2365446336927197, 6.250912230299682, -8.222880877903874, -3.8547508081868527, 6.932913766441336, -8.484285683485176, 8.216276055669, -0.4833306749551056, 4.423286726210204, 0.32670338079598304, -5.893708988983104, -17.38277689566385], [0.2190698165868047, -13.122158673022659, 6.444034452149783, -2.534336706441826, 13.501689952852503, -5.21055904483287, 17.64417167386057, 10.474115524945336, 0.9074223735745562, -5.1468903498059335, -9.41087945466154, 16.51073156242753], [7.911845615021506, 6.6865688807603085, -5.06842451956289, 8.86839042682917, -16.768526951361476, -10.269122503491834, 16.609118629156004, -12.934379486684136, 18.203872996269723, -5.807575708719244, 16.79728282357595, -5.7028389166438505], [-0.7049697280305636, 25.42691122047051, -21.232733731101344, 3.283190877895251, -3.1320936815254505, -2.8678337059768397, -9.678655954412921, 8.404178365197593, 8.57986977115382, 0.0013785061646984786, 1.6945856035520268, -16.857136987265765], [2.4335256751303422, -12.734788930295489, -3.033474791699223, -12.206964818395033, -4.219048261318052, 16.267592142315014, 6.610496992206042, -11.110603782802128, -0.3644781694715514, 10.428475906224168, 3.2554713563054216, 1.7552736140949603], [-16.697467284103944, -3.7553481169126592, 14.884854262703875, 2.960751566875322, 6.408391756368904, 20.36965650062867, 20.102167432483256, 3.8347271208027993, 3.1543130492600184, -21.004610457628676, -12.509357784515526, -17.019101657940666], [5.5241173458683805, -4.229335577069161, -16.27443632892864, 11.415884905739158, 6.433182198156926, 8.059081736997328, 15.418429178499093, 13.42189671545668, 7.022077634813661, -3.7085180007382057, 5.29049696665434, 8.159479896551083], [2.360685201690918, 3.6117494712929257, -12.188465153742204, -16.034508310221423, -8.076111983164166, 8.870101505542587, -5.603340693059293, 9.313208423487167, 17.702134572273298, -15.992470009820366, 16.263257733300684, -8.292096044381521], [2.6774812976041162, -20.682482395831467, -1.8699057577568217, 11.74738537617656, -10.18621431228456, -21.65986779754058, -5.734212690620968, 18.238654011745922, 18.41579395745782, -19.408645792628022, -8.032341114984998, -1.2405197787296505], [6.744050765837695, -1.1474571988697784, 17.229229617754356, 3.771734064994099, 0.9281740119311683, 8.88104863488949, 3.0067520797655733, -4.961826418571754, 28.034205025681004, -2.512742264123714, -8.821327382324162, 4.067606610949742], [-11.416577089031524, 11.52005472046262, 0.10219457590646525, -1.3890226671136157, -5.553975339817692, -8.288729950821608, 1.6732722280153378, -11.535160479341103, -6.942788786609574, -7.465514363093996, -3.9652820907389636, 18.00997166571491], [9.596071571324904, 5.138355679051977, -4.8103640105484775, 6.058750316347182, -11.066249255079196, 6.149021253215972, 12.950968024508297, 4.868393110266993, -13.674185591295469, -18.635105632701823, 5.186448283960822, -2.5002163846915124], [-5.733605028494073, -10.7149977895701, -6.182112642453317, -4.540712792703486, -2.857460934210012, 37.22679647046177, -7.581385314071466, -2.852182154931791, 6.014490719972553, 7.077754056160926, 4.631979224579183, 5.673476346715217], [-9.518067464938948, 20.17580713823019, -3.9853349168429375, -10.413338425564309, 11.093068114795791, 9.590831400045905, -4.8524274864699475, -7.84690439618489, -2.494199259579314, 7.299730611562111, -5.256115707424274, -13.416648750409573], [1.242383381352671, 17.648032259547445, -20.392888574933842, -7.505597029083971, -5.158140875957007, -14.723345395370382, 15.961454599959424, 2.1013830728612914, 5.292113019229284, -17.797559922205803, 33.01449271818721, 29.226450612950675], [-5.099922668564219, -22.728474587378834, 0.7334689787786071, 7.205743438705106, -12.034528829614139, -11.917401958224648, 10.604683242594565, 2.311814690308216, 17.12154642995775, -30.368234106659195, -7.8443886778265615, -9.942838164600232]], "weights_ho": [[-5.317432780128178, -10.08439791561095, 0.1592518818549986, -4.50576870853685, 13.649334320900863, -25.61911399815695, 18.97608113210002, 27.74718819559407, 10.05950955659984, -10.534176407049722, -15.35361928932264, 1.4767087696897245, -3.9815320456234797, -0.7973953019017936, 14.038369348479996, 4.010773401579359], [-6.39095848751797, -2.7384414343647063, 9.852927161273763, -18.520158706203738, 17.843117460164823, -10.463304013716597, 4.3125375966560995, -1.3360078238055015, -10.413728212226294, 5.674192611966901, 17.08380847414864, -38.22158818627622, -3.727448754462977, 6.792275594557298, -19.10482657938491, -8.093156460582172], [3.854299720898587, -6.205218670549981, -4.7460402545729465, -2.968536494286248, -8.026103044555565, 6.989208744552052, -4.348060953239666, -0.02076440658680595, 3.5514669873877662, 5.875798514008049, 21.899691507224304, -5.769936622277673, 12.41740664494996, -24.515046171055317, -18.906343687331272, 7.277921637446534], [-2.4308647090819915, 31.468255604092004, -13.537181706828706, 8.514816088395495, -3.6660127932741333, -1.3903024032554636, 11.162272874778331, -3.1284654493295685, 28.386046934022094, -23.889384723923296, 8.028931308498882, -11.047523731323876, -15.32180910518193, -5.864653088775845, -1.6887788654335851, 14.988373506596083]], "bias_h": [[-9.838700072124329], [-8.245946246440857], [-12.01081285525086], [-17.826822421372505], [-1.9514846622325848], [6.250065532850134], [21.70894336481406], [20.99196660495132], [3.7442638243559463], [-0.7711400783628776], [1.5139663453278234], [15.327268280499606], [7.83498766102384], [1.6873894071832822], [13.311057986765046], [7.826962149149394]], "bias_o": [[-4.497965564256313], [-0.9380577538873837], [-11.80924983111311], [-12.588764582942746]]}, {"input_nodes": 12, "hidden_nodes": 16, "output_nodes": 4, "weights_ih": [[1.2365446336927197, 6.144239297035752, -8.222880877903874, -3.8547508081868527, 7.0359407833311085, -8.451182090787594, 8.216276055669, -0.5676570548038379, 4.423286726210204, 0.32670338079598304, -5.779414254579066, -17.38277689566385], [0.07018515070244277, -13.122158673022659, 6.348718311010531, -2.4167020572353475, 13.394481976412452, -5.451395734517256, 17.81377755198672, 10.31182751439252, 1.0894760562619612, -5.1468903498059335, -9.4292813692273, 16.468614617012015], [7.831304933858126, 6.819899660955659, -4.945557997239861, 9.097442722405587, -16.66356322270733, -10.2155627582685, 16.66433182969371, -12.782002788799561, 18.203872996269723, -5.811006185871666, 16.81666649041796, -5.7028389166438505], [-0.7858978235214249, 25.42691122047051, -21.322583499233996, 3.4059200614477465, -3.255404724799447, -2.841752294392256, -9.809067856747342, 8.501609195619247, 8.672226956970203, -0.03176296693848502, 1.6791846752346227, -16.838606336708377], [2.4902002129827125, -12.734788930295489, -2.9797508558225356, -12.041452800254227, -4.071633364460934, 16.30629490404319, 6.622963489729617, -11.160291896607813, -0.41516866769774735, 10.490215781623327, 3.2554713563054216, 1.8455810020718513], [-16.795914168179667, -3.7499785416070734, 14.884854262703875, 2.935934405098934, 6.453419627008439, 20.384140190391197, 20.16398298201983, 3.82187779483089, 3.1543130492600184, -20.94680842089626, -12.559997067070782, -16.964769263567916], [5.557767182601388, -4.1194914209989255, -16.360846555253545, 11.415884905739158, 6.433182198156926, 7.905327156187022, 15.418429178499093, 13.40156331392449, 6.983130106118505, -3.698898452328913, 5.29049696665434, 8.319306302833006], [2.4142142242546702, 3.6469444802970243, -12.265822064657828, -16.034508310221423, -8.083849534490346, 8.988699132552165, -5.603340693059293, 9.321118855827876, 17.73568363145454, -15.992470009820366, 16.27216857278145, -8.42324536230454], [2.6774812976041162, -20.68301903650346, -1.8699057577568217, 11.825775089594403, -10.18621431228456, -21.723918324728032, -5.798802560286295, 18.253971967819965, 18.382214597285213, -19.408645792628022, -8.092396464181855, -1.0849738341362798], [6.761229945388576, -1.1474571988697784, 17.177320829704716, 4.116327119057064, 0.9965181543553906, 8.88104863488949, 2.984958131242891, -4.862998687662884, 28.01353414516611, -2.5832372194984337, -8.956252394303803, 4.067606610949742], [-11.416577089031524, 11.57670807563439, 0.36044659464021955, -1.3890226671136157, -5.553975339817692, -8.334345598112295, 1.4270742608084819, -11.645377106636156, -6.942788786609574, -7.506824529110974, -4.063765623349341, 18.018894979805253], [9.636421519759885, 4.982664487199011, -4.530944502142402, 6.058750316347182, -11.066249255079196, 6.106099687664465, 12.968376101055105, 5.033484445065901, -13.658707513640044, -18.77714029875688, 5.2986479643471736, -2.4295223940356734], [-5.64886737721344, -10.808364817654953, -6.21789897427395, -4.580394253169526, -2.9402023268827486, 37.237447781650346, -7.581385314071466, -2.852182154931791, 5.939158243855485, 7.0665253318392445, 4.653505599795425, 5.673476346715217], [-9.650368347093552, 20.17510081283355, -3.9853349168429375, -10.55849468555086, 10.96480960612754, 9.561877111787524, -4.8524274864699475, -7.888412934176595, -2.455609980968518, 7.104851181861013, -5.256115707424274, -13.416648750409573], [1.242383381352671, 17.648032259547445, -20.392888574933842, -7.467347727210894, -5.166312625300124, -14.723345395370382, 16.006648822218114, 2.0320487966403076, 5.4094393743103835, -17.753189473124625, 33.01449271818721, 29.246057854924327], [-5.099922668564219, -22.564987441349786, 0.6978863110473306, 7.265391960980569, -12.034528829614139, -11.671948251898012, 10.566756310128145, 2.389756395492009, 17.044885822211, -30.407881157809268, -7.8443886778265615, -9.846945100653555]], "weights_ho": [[-5.460806042390096, -10.025264358714887, 0.17188110079570135, -4.631535677643409, 13.701870163141278, -25.700692100448265, 19.001795899376344, 27.81227328225438, 9.962870373070766, -10.615997451461268, -15.332333944817572, 1.5309725580577158, -3.937399603302226, -0.9245591300798454, 14.001994670227317, 4.116746632997286], [-6.503390890279282, -2.8297999674346466, 9.804910482284718, -18.46873913629798, 17.804808447546872, -10.463304013716597, 4.51599043463094, -1.3045744490374551, -10.347285621237173, 5.674192611966901, 17.208302173965723, -38.06968875965323, -3.727448754462977, 6.682128178697954, -19.06482110281648, -8.025932048213695], [3.877275377769146, -6.251938698487399, -4.789065567523211, -3.0603912261734094, -8.026103044555565, 6.989208744552052, -4.370458652097465, 0.014976748909570584, 3.5514669873877662, 5.830330675539894, 21.94593158678969, -5.779980985202926, 12.41740664494996, -24.522652668457344, -18.807270883814354, 7.258873888809455], [-2.4308647090819915, 31.468255604092004, -13.537181706828706, 8.497067849906804, -3.5944069264396865, -1.3903024032554636, 11.162272874778331, -3.089954930792452, 28.52146493354482, -23.77202738678733, 8.21752344003375, -11.047523731323876, -15.24121294333965, -5.712733232353496, -1.5859982743292291, 14.988373506596083]], "bias_h": [[-10.047787502633637], [-8.274611178906591], [-11.841374862277311], [-17.960783404935274], [-1.8515374593223035], [6.209649413199165], [21.70894336481406], [21.077287558040137], [3.7442638243559463], [-1.000072916478417], [1.5139663453278234], [15.37086781337178], [7.756366016495766], [1.6968624300703208], [13.245288250098017], [7.826962149149394]], "bias_o": [[-4.497965564256313], [-0.9380577538873837], [-12.007512989994394], [-12.783436598634983]]}, {"input_nodes": 12, "hidden_nodes": 16, "output_nodes": 4, "weights_ih": [[1.2365446336927197, 6.104622581175569, -8.222880877903874, -3.8547508081868527, 7.037342435316631, -8.448309339932196, 8.216276055669, -0.5676570548038379, 4.426112748268572, 0.32670338079598304, -5.779414254579066, -17.443736333826216], [0.16610755323124707, -12.983360509017318, 6.3714826701525045, -2.534336706441826, 13.401121014378145, -5.442941389737894, 17.730701603219888, 10.474115524945336, 1.0329720634704957, -5.1468903498059335, -9.350870503605318, 16.505922309257254], [7.948196066055692, 6.551631403254744, -4.945557997239861, 9.097442722405587, -16.66356322270733, -10.269122503491834, 16.6246055867857, -12.96441189799393, 18.01744599085697, -5.536237057674422, 16.79728282357595, -5.7028389166438505], [-0.7063200944535164, 25.42691122047051, -21.11347446372373, 3.283190877895251, -3.255404724799447, -2.788499408751005, -9.644774689151648, 8.608288431321895, 8.672226956970203, 0.0503727408924015, 1.6791846752346227, -16.827032658363233], [2.3727784077615595, -12.604864306534074, -2.941272787026906, -12.118523119901788, -4.201916212176236, 16.267781360158853, 6.622963489729617, -11.110603782802128, -0.3630930182732974, 10.490215781623327, 3.199873447202463, 1.768797343743719], [-16.837883210899026, -3.866608214510912, 14.774471278333577, 2.8644511266562662, 6.464450354887291, 20.317286152320392, 20.16398298201983, 3.750471301084256, 3.1543130492600184, -20.907648249219147, -12.509357784515526, -16.964769263567916], [5.5606972239916725, -4.229335577069161, -16.302069555171094, 11.415884905739158, 6.412738834957446, 8.059081736997328, 15.418429178499093, 13.323266680726336, 7.022077634813661, -3.812960977233544, 5.29049696665434, 8.38954483575899], [2.438115320451184, 3.6449703380274694, -12.300347146966777, -16.094865262717775, -8.083849534490346, 9.04184788325396, -5.5771923265947265, 9.321118855827876, 17.73568363145454, -15.992470009820366, 16.263257733300684, -8.294764537284328], [2.6764134524203014, -20.682482395831467, -1.8699057577568217, 11.632368233855415, -10.18621431228456, -21.640144223016012, -5.798802560286295, 18.162846266471963, 18.498132643037838, -19.408645792628022, -8.048262025713216, -0.9877349937003157], [6.744050765837695, -1.1474571988697784, 17.189338159467987, 3.989628750646061, 1.0456152934669494, 9.00069517391592, 3.0380560793849147, -4.862998687662884, 28.23125825713006, -2.4598744143665896, -8.956252394303803, 3.977954784187685], [-11.359622849424321, 11.52005472046262, 0.2651993980734298, -1.3890226671136157, -5.553975339817692, -8.288729950821608, 1.6732722280153378, -11.682658285643294, -7.064280231710697, -7.506824529110974, -3.968157751053774, 18.21394291619039], [9.596071571324904, 4.92491834536616, -4.577802361417021, 6.058750316347182, -10.939642562779108, 6.295887130178536, 12.950968024508297, 4.913606867856366, -13.63217238272615, -18.921349524821483, 5.122131927483127, -2.3718319788316027], [-5.733605028494073, -10.848034650814581, -6.21789897427395, -4.443824777602996, -3.124948415826352, 37.22679647046177, -7.43238092914036, -2.852182154931791, 6.028793846162973, 6.971566212989832, 4.5365289498155, 5.671321768072776], [-9.45843933438523, 20.17510081283355, -3.9853349168429375, -10.53651123890008, 11.093068114795791, 9.631049939671252, -4.8524274864699475, -7.828976930048156, -2.494199259579314, 7.104851181861013, -5.378214417644663, -13.24822504334274], [1.5234661041070052, 17.75669378467713, -20.392888574933842, -7.467347727210894, -5.136032932992326, -14.723345395370382, 15.910738407387777, 2.0889357785182843, 5.299745685128438, -17.797559922205803, 32.97830454510019, 29.254399535774084], [-5.014305446377594, -22.728474587378834, 0.7334689787786071, 7.265391960980569, -12.034528829614139, -11.73849104801107, 10.566756310128145, 2.389756395492009, 17.044885822211, -30.368234106659195, -7.8443886778265615, -9.830179787010488]], "weights_ho": [[-5.342332918856439, -10.17515561955214, 0.1592518818549986, -4.564670829152364, 13.47847648646202, -25.699716168888276, 19.001795899376344, 27.74718819559407, 10.051685697898964, -10.534176407049722, -15.34166324720807, 1.5309725580577158, -4.038831945533546, -0.7973953019017936, 14.007972546545064, 4.041524173690658], [-6.486481342794831, -2.8297999674346466, 9.794759508990225, -18.46873913629798, 17.804808447546872, -10.463304013716597, 4.429562141534987, -1.187017315597697, -10.429476647771665, 5.740155901682599, 17.08380847414864, -38.117672104795126, -3.8918190221927693, 6.792275594557298, -19.139517290234895, -7.833173732729285], [3.8309845428092792, -6.327890084162589, -4.638292954802734, -3.0603912261734094, -8.008666127317111, 6.793442181796402, -4.370458652097465, 0.09423519320773022, 3.5493823883287496, 5.875798514008049, 22.26733501464221, -5.8876458241462215, 12.41740664494996, -24.409419951714735, -18.807270883814354, 7.122358260093148], [-2.4308647090819915, 31.468255604092004, -13.537181706828706, 8.514816088395495, -3.741898799119069, -1.407596495126885, 11.312603545669857, -3.089954930792452, 28.52146493354482, -23.891290383534994, 8.194578561131575, -11.047523731323876, -15.228643479410753, -5.712733232353496, -1.5252468895073108, 14.919403325986059]], "bias_h": [[-9.761251630151408], [-8.301355399594671], [-11.899587820288618], [-17.80878005252716], [-2.0146771877931475], [6.236586975404344], [21.70985552027218], [21.100036313888918], [3.613942436079825], [-0.7645422717415662], [1.5812465448149042], [15.294327557159688], [7.72619205004328], [1.6873894071832822], [13.311057986765046], [7.93777717934877]], "bias_o": [[-4.497965564256313], [-1.011791864639375], [-11.919862250956346], [-12.879775528292878]]}, {"input_nodes": 12, "hidden_nodes": 16, "output_nodes": 4, "weights_ih": [[1.2143595817446027, 6.302899189992497, -8.222880877903874, -3.8547508081868527, 7.0359407833311085, -8.430648675082315, 8.216276055669, -0.5676570548038379, 4.423286726210204, 0.32670338079598304, -5.802326873227051, -17.38277689566385], [0.2190698165868047, -13.13350599040178, 6.195921298401199, -2.4514911019465924, 13.283736053660245, -5.21055904483287, 17.636655974704254, 10.363130506279168, 1.0275832814514647, -5.1468903498059335, -9.421522311079062, 16.447454760396635], [7.89476521454415, 6.695343756205618, -4.945557997239861, 9.097442722405587, -16.66356322270733, -10.158810285409034, 16.70442400209052, -12.934379486684136, 18.198752982509262, -5.746957741095193, 16.81751063111179, -5.7028389166438505], [-0.7858978235214249, 25.29227561374612, -21.203442213468314, 3.2582565456592407, -3.255404724799447, -2.8678337059768397, -9.678655954412921, 8.501609195619247, 8.801006788096128, -0.020808972957068177, 1.5742392761964277, -16.857136987265765], [2.4335256751303422, -12.71272389194296, -2.913984282786231, -12.118210864336161, -4.201916212176236, 16.30629490404319, 6.622963489729617, -10.944352512807662, -0.3960311972559068, 10.490215781623327, 3.2310130583213885, 1.8627769836872166], [-16.763472143162222, -3.7553481169126592, 14.884854262703875, 3.073567971634246, 6.453419627008439, 20.384140190391197, 19.972753994570827, 3.8347271208027993, 3.1543130492600184, -20.907648249219147, -12.509357784515526, -16.870879865360514], [5.525611039660662, -4.229335577069161, -16.360846555253545, 11.415884905739158, 6.2801938758328575, 8.058927509542553, 15.311157913375368, 13.323266680726336, 7.022077634813661, -3.698898452328913, 5.29049696665434, 8.319306302833006], [2.4142142242546702, 3.6117494712929257, -12.300347146966777, -16.034508310221423, -7.969053608988648, 8.988699132552165, -5.723856416889348, 9.43206449486899, 17.73568363145454, -15.992470009820366, 16.263257733300684, -8.404133803808396], [2.6774812976041162, -20.70002465041063, -1.8699057577568217, 11.793086165735449, -10.18621431228456, -21.65986779754058, -5.715245543405139, 18.162846266471963, 18.60666698209518, -19.408645792628022, -8.130231935260918, -0.9437004225058027], [6.778694592133959, -1.1474571988697784, 17.119219166093398, 4.141808520269586, 0.9769533780090944, 8.88104863488949, 3.0380560793849147, -4.904446817665334, 28.034205025681004, -2.4119187126700967, -8.909738270024762, 4.016917467103889], [-11.500772233892507, 11.668374869183658, 0.2651993980734298, -1.3890226671136157, -5.521924295675514, -7.997092182804658, 1.6732722280153378, -11.645377106636156, -6.904774996395411, -7.506824529110974, -3.9652820907389636, 18.018894979805253], [9.596071571324904, 4.921406387902764, -4.64975639619713, 6.058750316347182, -11.07888144383091, 6.048188251324283, 13.112243059639416, 4.913606867856366, -13.658707513640044, -18.80184379371899, 5.156581253485795, -2.4295223940356734], [-5.733605028494073, -10.916177465833854, -6.21789897427395, -4.42259620047486, -2.936467155527219, 37.252712210086386, -7.581385314071466, -2.852182154931791, 6.086541713439368, 7.126325388583412, 4.6410248024999685, 5.673476346715217], [-9.54638701705153, 20.17510081283355, -3.96798910625234, -10.55849468555086, 11.093068114795791, 9.561877111787524, -4.8524274864699475, -7.855938496556754, -2.496055477011223, 6.905670611204555, -5.256115707424274, -13.334912436280236], [1.4030249497051765, 17.77719952318309, -20.392888574933842, -7.451883682768812, -5.166312625300124, -14.723345395370382, 15.745835178554087, 1.9748865408374445, 5.36487492709357, -18.029654441998826, 33.03146346641619, 29.33120348603134], [-5.099922668564219, -22.728474587378834, 0.7025054690433599, 7.265391960980569, -12.17273849666293, -11.509732790654091, 10.566756310128145, 2.389756395492009, 17.18227498493259, -30.368234106659195, -7.913177278926546, -9.942838164600232]], "weights_ho": [[-5.342332918856439, -9.974028613382004, 0.19005252803718886, -4.5435333604740125, 13.649334320900863, -25.4212454882998, 18.931356263203245, 27.74718819559407, 9.932341068604998, -10.532710616469899, -15.328731793888796, 1.5309725580577158, -4.038831945533546, -0.7994811505522103, 14.002772348454242, 4.0528241544045525], [-6.561241010906676, -2.8197534112994402, 9.880881832622654, -18.567855594148043, 17.804808447546872, -10.463304013716597, 4.564487348725095, -1.352960976884031, -10.401952231469105, 5.674192611966901, 17.08380847414864, -37.97390831535478, -3.9121062033577196, 6.81749816076959, -19.10482657938491, -8.174442449830442], [3.913042499086425, -6.269146589012782, -4.831279867423112, -3.2105501808887307, -8.026103044555565, 6.931255381781733, -4.324642052466222, 0.09423519320773022, 3.6918843423079855, 5.875798514008049, 21.812372899699092, -5.8876458241462215, 12.296145093063235, -24.514980944182685, -18.889538411638778, 7.196109645808785], [-2.448697417142552, 31.468255604092004, -13.537181706828706, 8.514816088395495, -3.5944069264396865, -1.3903024032554636, 11.165171331207741, -3.019941168526888, 28.414795776220714, -23.77202738678733, 8.244048905105712, -11.047523731323876, -15.078312884842953, -5.712733232353496, -1.3918484637711612, 14.922778935371888]], "bias_h": [[-9.838700072124329], [-8.252652367986114], [-11.897876122144904], [-17.714782493670054], [-1.9514846622325848], [6.209649413199165], [21.52564749611835], [21.100036313888918], [3.7442638243559463], [-0.9138094362189416], [1.5849103104042996], [15.294327557159688], [7.72619205004328], [1.6641430733069813], [13.311057986765046], [7.636005942549871]], "bias_o": [[-4.497965564256313], [-0.9380577538873837], [-11.996305635708683], [-12.895864816708794]]}, {"input_nodes": 12, "hidden_nodes": 16, "output_nodes": 4, "weights_ih": [[1.2365446336927197, 6.250912230299682, -8.222880877903874, -3.9037359468095514, 6.958322176317495, -8.484285683485176, 8.238926806224576, -0.5676570548038379, 4.477343459106702, 0.32670338079598304, -5.779414254579066, -17.38277689566385], [0.15481135234694676, -13.122158673022659, 6.348718311010531, -2.3981126005778273, 13.40793100638797, -5.21055904483287, 17.730701603219888, 10.474115524945336, 1.1532875325218104, -5.1468903498059335, -9.330107216765045, 16.47643841426374], [7.831304933858126, 6.695343756205618, -4.952472256882295, 9.097442722405587, -16.66356322270733, -10.269122503491834, 16.499877324374022, -12.934379486684136, 18.203872996269723, -5.7917800371435275, 16.725612319637214, -5.844815662289596], [-0.7858978235214249, 25.4496701600301, -21.10045908534146, 3.384717294842967, -3.255404724799447, -2.8678337059768397, -9.678655954412921, 8.47042727923935, 8.672226956970203, 0.03848444352012276, 1.6791846752346227, -16.857136987265765], [2.5522339917776433, -12.70985298013897, -3.070836758992317, -12.041452800254227, -4.131368599987279, 16.24860068847803, 6.766488920218139, -11.110603782802128, -0.3960311972559068, 10.490215781623327, 3.2554713563054216, 1.7776616935089775], [-16.763472143162222, -3.8158025086838423, 14.935880349024766, 2.9094985223769627, 6.453419627008439, 20.211703693930307, 20.111270390217843, 3.8347271208027993, 3.1543130492600184, -20.907648249219147, -12.426513119739246, -16.964769263567916], [5.557767182601388, -4.232705044151738, -16.360846555253545, 11.415884905739158, 6.433182198156926, 8.20398088857412, 15.418429178499093, 13.342756071728422, 7.022077634813661, -3.847297694414467, 5.29049696665434, 8.32446361482102], [2.3155054636207577, 3.6306879969842702, -12.212838971932921, -16.034508310221423, -8.083849534490346, 9.08676880044068, -5.603340693059293, 9.29403258384295, 17.64523301205297, -16.049566713955624, 16.263257733300684, -8.267463737668189], [2.6774812976041162, -20.531455224677455, -1.8990538111557071, 11.793086165735449, -10.18621431228456, -21.65986779754058, -5.864933223836347, 18.162846266471963, 18.658488860792218, -19.40530729651018, -8.032341114984998, -1.0849738341362798], [6.781694728859066, -1.1474571988697784, 17.119219166093398, 3.9887585703531716, 0.8515313364156395, 8.765589274520456, 3.0380560793849147, -4.805601705244896, 28.111367151669395, -2.4119187126700967, -8.995709315027062, 4.190120450955045], [-11.274610673062188, 11.531437373338342, 0.2651993980734298, -1.3890226671136157, -5.553975339817692, -8.30617755553982, 1.6732722280153378, -11.645377106636156, -7.069795172697841, -7.514857567675852, -3.9652820907389636, 18.123023579311674], [9.42269390882435, 4.892648801121171, -4.596468405194733, 6.058750316347182, -11.184185263394127, 6.106099687664465, 13.06490106316567, 4.913606867856366, -13.658707513640044, -18.886466043453858, 4.959891754777971, -2.5824989259662754], [-5.733605028494073, -10.808364817654953, -6.272188066760341, -4.437775764884214, -2.9470139588019286, 37.366312549241094, -7.581385314071466, -2.80991798099635, 6.028793846162973, 7.077754056160926, 4.631979224579183, 5.74552007552096], [-9.518067464938948, 20.18880179051657, -3.9853349168429375, -10.55849468555086, 11.10994476459902, 9.624412049878073, -4.8524274864699475, -7.944183192040434, -2.4814711229156314, 7.104851181861013, -5.152106810981227, -13.416648750409573], [1.3079788784643605, 17.444398123645353, -20.392888574933842, -7.467347727210894, -5.235227014501883, -14.60386170377835, 15.79590592100114, 2.1728898652076185, 5.359813957132999, -17.797559922205803, 33.003453752495695, 29.254399535774084], [-5.099922668564219, -22.728474587378834, 0.6203766855286267, 7.224275550127625, -12.034528829614139, -11.74934437086157, 10.566756310128145, 2.360953497011449, 17.044885822211, -30.274917848123692, -7.793885255726551, -9.93494050754634]], "weights_ho": [[-5.49380254077777, -10.145353896492285, 0.04658743650769842, -4.578521388635415, 13.649334320900863, -25.61911399815695, 19.145865446149784, 27.74718819559407, 9.932341068604998, -10.544904380042729, -15.316320645547608, 1.5309725580577158, -4.038831945533546, -0.9186340462080854, 14.048385161169213, 3.9259195030142355], [-6.621862813808148, -3.0293739996090103, 9.816700018575668, -18.46873913629798, 17.620836422173355, -10.581135543363672, 4.573625261268725, -1.3875670762715395, -10.401952231469105, 5.550465335815651, 17.08380847414864, -38.00011427990279, -3.569461444170896, 6.792275594557298, -18.98584884778285, -7.993362256555567], [3.913042499086425, -6.205218670549981, -4.789065567523211, -3.0603912261734094, -8.026103044555565, 6.926895489532835, -4.370458652097465, 0.03584395634657563, 3.5514669873877662, 5.875798514008049, 21.93983360098682, -5.765088858579849, 12.393936808057163, -24.42894310578685, -18.807270883814354, 7.258873888809455], [-2.5090991436131014, 31.47112495255932, -13.537181706828706, 8.548299078612214, -3.5944069264396865, -1.3186934846188594, 11.295917651649592, -3.012101891718667, 28.60080603184991, -23.77202738678733, 8.217414311247756, -10.97070847216555, -15.193729600108874, -5.712733232353496, -1.6294783565860274, 14.985996161916843]], "bias_h": [[-9.838700072124329], [-8.245946246440857], [-11.92297440276758], [-17.77468003067463], [-1.9514846622325848], [6.209649413199165], [21.70894336481406], [21.12765321266943], [3.7442638243559463], [-0.8493402042278819], [1.5139663453278234], [15.32748975855552], [7.656929640946929], [1.6873894071832822], [13.311057986765046], [7.826962149149394]], "bias_o": [[-4.497965564256313], [-0.9380577538873837], [-11.753295472606762], [-12.83518937609284]]}, {"input_nodes": 12, "hidden_nodes": 16, "output_nodes": 4, "weights_ih": [[1.2365446336927197, 6.250912230299682, -8.222880877903874, -3.8547508081868527, 7.0359407833311085, -8.601990649447782, 8.258367874704364, -0.5676570548038379, 4.401946850649775, 0.32670338079598304, -5.7602336598365715, -17.30630792815098], [0.2190698165868047, -13.122158673022659, 6.348718311010531, -2.5583448076474147, 13.394481976412452, -5.027734403662341, 17.730701603219888, 10.474115524945336, 1.0894760562619612, -5.066216508995855, -9.180627565801458, 16.318219080424686], [7.831304933858126, 6.695343756205618, -4.790484454068273, 9.155590381224203, -16.602581161473463, -10.312492503049226, 16.57838275243138, -12.896090968212166, 18.237241637677304, -5.746957741095193, 17.087067689279028, -5.66979551262017], [-0.7858978235214249, 25.35456158603349, -21.22560644472016, 3.283190877895251, -3.2275911079295883, -2.816741479982022, -9.612683211382395, 8.368052928824708, 8.672226956970203, 0.0013785061646984786, 1.7798718647521627, -16.915592334489105], [2.4216970023175506, -12.734788930295489, -2.941272787026906, -11.938691099878843, -4.081800132699381, 16.30629490404319, 6.69784677039277, -11.084564346221613, -0.3960311972559068, 10.490215781623327, 3.2554713563054216, 1.8627769836872166], [-16.801175690922182, -3.770057312480838, 14.769737053854085, 2.935934405098934, 6.453419627008439, 20.384140190391197, 20.115789494600406, 3.8347271208027993, 3.1543130492600184, -20.907648249219147, -12.509357784515526, -16.964769263567916], [5.557767182601388, -4.235988151580628, -16.421270638761893, 11.415884905739158, 6.6193371728917185, 8.059081736997328, 15.405224056108525, 13.323266680726336, 6.81123620749633, -3.754132337825715, 5.295831202321919, 8.3249781918898], [2.3324956796986975, 3.6117494712929257, -12.320452508331197, -16.034508310221423, -8.083849534490346, 8.988699132552165, -5.685865280376359, 9.321118855827876, 17.96715249786326, -15.865296352659225, 16.263257733300684, -8.335474059201173], [2.6774812976041162, -20.62844152076475, -1.8699057577568217, 11.7228133232641, -10.180661397241147, -21.5721193750646, -5.746864026220798, 18.162846266471963, 18.44788743110103, -19.27568158769464, -8.032341114984998, -1.0849738341362798], [6.700622792116818, -1.1474571988697784, 17.119219166093398, 4.05065691653473, 1.0431571014428995, 8.88104863488949, 3.0380560793849147, -4.862998687662884, 28.034205025681004, -2.4119187126700967, -8.956252394303803, 4.067606610949742], [-11.298372455674134, 11.52005472046262, 0.10291337519148896, -1.3890226671136157, -5.553975339817692, -8.185250652729986, 1.732770183162097, -11.581881586534873, -6.942788786609574, -7.680802752936184, -3.9652820907389636, 18.04011471293846], [9.596071571324904, 4.982664487199011, -4.605511583522429, 6.058750316347182, -11.066249255079196, 6.106099687664465, 12.950968024508297, 4.913606867856366, -13.609725070700081, -18.823742371121632, 5.212535093880595, -2.4295223940356734], [-5.733605028494073, -10.8081442010879, -6.21789897427395, -4.309208482526766, -3.0618227799417403, 37.22679647046177, -7.581385314071466, -2.852182154931791, 6.028793846162973, 7.077754056160926, 4.631979224579183, 5.8125541012385895], [-9.518067464938948, 20.2972529747844, -4.123563461340498, -10.84610253728362, 10.965534578796346, 9.561877111787524, -4.875938500042401, -7.841375077537295, -2.494199259579314, 7.065189947948718, -5.435149307830137, -13.540782469176413], [1.4285240771613918, 17.648032259547445, -20.3456935249327, -7.467347727210894, -4.925997818416734, -14.723345395370382, 15.970355255034965, 2.2794484190679096, 5.3914161716191025, -17.797559922205803, 32.82531286373518, 29.11964827032303], [-5.169380466466474, -22.728474587378834, 0.7334689787786071, 7.265391960980569, -12.103912425479875, -11.72227044596121, 10.775307842710808, 2.3811584387783986, 17.044870147974017, -30.446388225428212, -7.8443886778265615, -10.021056926393257]], "weights_ho": [[-5.290741743264614, -9.997074905171697, 0.1592518818549986, -4.443360301508737, 13.649334320900863, -25.537329591802518, 19.001795899376344, 27.548125169855435, 9.825878762787918, -10.534176407049722, -15.328731793888796, 1.5096739205165872, -4.038831945533546, -0.8124082071520545, 14.001202884890755, 4.1683440978423105], [-6.431134014367823, -2.8297999674346466, 9.816700018575668, -18.46873913629798, 17.73341606301214, -10.463304013716597, 4.4821400479678015, -1.3780060174013584, -10.463429516029144, 5.674192611966901, 17.002761760622572, -38.06968875965323, -3.5868918021017167, 6.792275594557298, -19.10482657938491, -7.986764349840272], [3.8994420512042773, -6.201157046395459, -4.789065567523211, -3.0603912261734094, -8.026103044555565, 6.989208744552052, -4.469847999926426, 0.09423519320773022, 3.5514669873877662, 5.875798514008049, 21.93983360098682, -5.8876458241462215, 12.494880845445337, -24.42894310578685, -18.680578456457752, 7.258873888809455], [-2.490549105454201, 31.342458541437253, -13.47341447344134, 8.514816088395495, -3.5344458210619822, -1.3903024032554636, 11.162272874778331, -3.0986543238801794, 28.514186317227146, -23.77202738678733, 8.222054702867666, -11.047523731323876, -15.14011205485811, -5.712733232353496, -1.6294783565860274, 14.988373506596083]], "bias_h": [[-9.838700072124329], [-8.245946246440857], [-11.897876122144904], [-17.754493499795398], [-1.8697740968885075], [6.209649413199165], [21.701016560506304], [21.103388504060227], [3.785685477497789], [-0.8493402042278819], [1.5139663453278234], [15.294327557159688], [7.72619205004328], [1.7465842631090445], [13.353003932434646], [7.865787144470897]], "bias_o": [[-4.509247743509871], [-0.9380577538873837], [-11.734650048008392], [-12.64204373742787]]}, {"input_nodes": 12, "hidden_nodes": 16, "output_nodes": 4, "weights_ih": [[1.2427005646106537, 6.224961935260347, -8.222880877903874, -3.8547508081868527, 7.0359407833311085, -8.35593749692498, 8.216276055669, -0.5676570548038379, 4.423286726210204, 0.32670338079598304, -5.779414254579066, -17.38277689566385], [0.14526102588384077, -13.192382296062096, 6.333613702305934, -2.534336706441826, 13.394481976412452, -5.21055904483287, 17.579149694551564, 10.631824160224502, 1.0894760562619612, -5.166423881975695, -9.41087945466154, 16.47568462867205], [7.888747742345836, 6.695343756205618, -4.945557997239861, 9.029546723940285, -16.66356322270733, -10.092988280570303, 16.74044422831644, -13.058282138889428, 18.203872996269723, -5.746957741095193, 16.79728282357595, -5.7028389166438505], [-0.8768478519493172, 25.549810710003158, -21.161835419809012, 3.283190877895251, -3.2592930652275363, -2.9387972528522774, -9.678655954412921, 8.555973058851285, 8.746396379309171, 0.0013785061646984786, 1.6791846752346227, -16.837433875161818], [2.394111216286906, -12.734788930295489, -2.941272787026906, -12.131761094084235, -4.201916212176236, 16.30629490404319, 6.553657444821294, -10.973270959821741, -0.39982457971224117, 10.390294165843624, 3.2554713563054216, 1.7850839987584113], [-16.763472143162222, -3.7553481169126592, 14.884854262703875, 2.935934405098934, 6.453419627008439, 20.384140190391197, 20.16398298201983, 3.814252126160868, 3.1543130492600184, -20.907648249219147, -12.509357784515526, -16.771757613470925], [5.546089921309293, -4.229335577069161, -16.34911977061492, 11.415884905739158, 6.433182198156926, 8.05242975052836, 15.418429178499093, 13.144227140858861, 7.0392434878446375, -3.698898452328913, 5.29049696665434, 8.319306302833006], [2.4142142242546702, 3.356861696636653, -12.300347146966777, -16.034508310221423, -8.083849534490346, 8.988699132552165, -5.610938150667715, 9.321118855827876, 17.653198036095368, -16.13179867205049, 16.164375168918102, -8.345284139971723], [2.5620484256244116, -20.682482395831467, -1.8699057577568217, 11.793086165735449, -10.18621431228456, -21.65986779754058, -5.684547206566985, 18.064148363251963, 18.44788743110103, -19.408645792628022, -8.032341114984998, -1.155176881358284], [6.744050765837695, -1.2454641086546392, 17.119219166093398, 3.989628750646061, 1.1830980696474718, 8.776351702456614, 3.0380560793849147, -4.814108753497891, 28.153626995733475, -2.4321624803864323, -8.882237478010607, 4.039619760731179], [-11.482152305344465, 11.52005472046262, 0.2651993980734298, -1.3890226671136157, -5.61561259095753, -8.191882565971712, 1.4721491077646252, -11.688630314743854, -6.908060754231804, -7.492322051380988, -3.9652820907389636, 18.08781672409556], [9.719763894861863, 4.982664487199011, -4.596468405194733, 6.005782032395243, -11.011176129785452, 6.106099687664465, 12.950968024508297, 5.011065269494757, -13.658707513640044, -18.891947521162685, 5.122131927483127, -2.5278055778602515], [-5.733605028494073, -10.808364817654953, -6.21789897427395, -4.473844626015599, -2.9470139588019286, 37.22679647046177, -7.581385314071466, -3.037156875546441, 5.931883477847196, 6.9953694399037065, 4.606783717547432, 5.673476346715217], [-9.484272219553922, 20.17510081283355, -3.9853349168429375, -10.721969189011103, 11.21163122544967, 9.561877111787524, -4.8524274864699475, -7.7998994014173775, -2.465887727659698, 7.207149323555183, -5.256115707424274, -13.416648750409573], [1.3945824807123848, 17.71129830030732, -20.46831270687123, -7.467347727210894, -5.166312625300124, -14.76614557874787, 15.798371769308751, 2.029030068480493, 5.4671973432263385, -17.85286274938917, 32.840293439861725, 29.254399535774084], [-5.000865338620848, -22.717469250635425, 0.7000826384340975, 7.490502770234465, -12.034528829614139, -11.621798495900139, 10.566756310128145, 2.389756395492009, 17.044885822211, -30.357827198720994, -7.69213028665781, -9.895290022650666]], "weights_ho": [[-5.342332918856439, -10.028250601732308, 0.13699775724154792, -4.614439551514149, 13.649334320900863, -25.537711723621754, 19.001795899376344, 27.74718819559407, 9.932341068604998, -10.511281634315331, -15.328731793888796, 1.6771006671109678, -4.090811301416025, -0.7973953019017936, 14.209459741705018, 4.1698828222625295], [-6.5270143340561075, -2.791420267520367, 9.878365762777829, -18.46873913629798, 17.804808447546872, -10.463304013716597, 4.4821400479678015, -1.2581397597295805, -10.401952231469105, 5.674192611966901, 17.436397063217164, -38.0841798687544, -3.714770561125376, 6.792275594557298, -18.98684304600473, -8.041821510671792], [3.91853963857741, -6.205218670549981, -4.665707079715812, -3.0603912261734094, -8.026103044555565, 7.0985759431689, -4.370458652097465, 0.09423519320773022, 3.748727221814507, 5.875798514008049, 22.12861363024845, -5.648927523697743, 12.434222579567587, -24.42894310578685, -18.756338541484745, 7.293299677643436], [-2.471804295695109, 31.468255604092004, -13.537181706828706, 8.514816088395495, -3.5731905845741503, -1.3539311685256843, 11.112695463027853, -2.9313397987218517, 28.52146493354482, -23.774314713516095, 8.137365252727728, -11.04153259102946, -15.339408396595388, -6.027881329385059, -1.738742979918224, 14.988373506596083]], "bias_h": [[-9.860554414626307], [-8.245946246440857], [-11.897876122144904], [-17.76233434598037], [-2.047192802547403], [6.209649413199165], [21.77248012481451], [21.061953553601274], [3.7442638243559463], [-0.8493402042278819], [1.5139663453278234], [15.294327557159688], [7.72619205004328], [1.6873894071832822], [13.269987085509163], [7.803936755781756]], "bias_o": [[-4.515318218107887], [-1.1087306311878398], [-11.86742514894638], [-12.788799666036102]]}, {"input_nodes": 12, "hidden_nodes": 16, "output_nodes": 4, "weights_ih": [[1.1560667841400443, 6.2166361916277015, -8.222880877903874, -3.8547508081868527, 7.103556781877833, -8.484285683485176, 8.216276055669, -0.5676570548038379, 4.362962898977038, 0.3747776758451311, -5.779414254579066, -17.38277689566385], [0.036293753191176725, -13.317481957897884, 6.363091350894878, -2.534336706441826, 13.498752945820314, -5.21055904483287, 17.730701603219888, 10.474115524945336, 1.0844349522469694, -5.1468903498059335, -9.347905280025087, 16.37001118180382], [7.930414738669402, 6.636011960085141, -5.06579953349389, 9.312174108829911, -16.592333661198783, -10.269122503491834, 16.680398637542776, -12.934379486684136, 18.203872996269723, -5.746957741095193, 16.78289288571654, -5.787088141481912], [-0.7889860211635165, 25.42691122047051, -21.25624483224138, 3.4989437700843182, -3.255404724799447, -2.894849144080202, -9.753434485364252, 8.501609195619247, 8.672226956970203, -0.08708903550197916, 1.7637726506047706, -16.853441539870378], [2.583578587143132, -12.738875873319596, -3.0875876386173107, -12.063802744795424, -4.332503202926235, 16.324929106532444, 6.622963489729617, -11.054586045821482, -0.3960311972559068, 10.577140522297046, 3.2554713563054216, 1.8627769836872166], [-16.855769222960117, -3.730307958178502, 14.81818005583717, 2.935934405098934, 6.412959416778124, 20.575745046528038, 20.16398298201983, 3.8347271208027993, 3.1543130492600184, -21.05280805378379, -12.465402627078822, -16.86471077463278], [5.705581561567486, -4.229335577069161, -16.43554761121609, 11.391288746000988, 6.433182198156926, 8.205414581659523, 15.395076038341914, 13.158672626896877, 6.953035810419079, -3.842152651377881, 5.349426383020812, 8.319306302833006], [2.4142142242546702, 3.6117494712929257, -12.300347146966777, -16.034508310221423, -8.083849534490346, 9.011001853895587, -5.603340693059293, 9.321118855827876, 17.73568363145454, -15.992470009820366, 16.284419704869315, -8.539544937629318], [2.6774812976041162, -20.498053770981027, -1.8699057577568217, 11.767520875210367, -10.18621431228456, -21.65986779754058, -5.611554372151992, 18.162846266471963, 18.461843062457376, -19.408645792628022, -8.032341114984998, -1.0475070601898315], [6.744050765837695, -1.0367939577650178, 17.119219166093398, 4.034221965480673, 1.0456152934669494, 8.947826916167395, 3.0380560793849147, -4.862998687662884, 28.08641284700234, -2.4119187126700967, -9.049502883607303, 4.067606610949742], [-11.416577089031524, 11.663589583672378, 0.1423584240186902, -1.3984139914561617, -5.553975339817692, -8.288729950821608, 1.6732722280153378, -11.645377106636156, -6.942788786609574, -7.506824529110974, -3.964637095865598, 18.018894979805253], [9.596071571324904, 4.982664487199011, -4.647570234658494, 6.164848173949783, -11.066249255079196, 6.106099687664465, 13.012738903670444, 4.924466385010995, -13.582452117727994, -18.823742371121632, 5.122131927483127, -2.4295223940356734], [-5.733605028494073, -10.808364817654953, -6.15978848235196, -4.437775764884214, -3.002404044031201, 37.217866879997885, -7.581385314071466, -2.852182154931791, 5.972695002535147, 7.230525625588658, 4.568887613515104, 5.653052096639584], [-9.743994139117468, 19.92711597854995, -3.9745057387832587, -10.589798744774223, 11.160811361476478, 9.561877111787524, -4.8524274864699475, -7.979116535025281, -2.494199259579314, 7.104851181861013, -5.245088770520251, -13.416648750409573], [1.242383381352671, 17.648032259547445, -20.362166913889343, -7.468180213519766, -5.154279139665909, -14.767032541327549, 15.823150898289652, 2.029030068480493, 5.359813957132999, -17.77819200900766, 33.01449271818721, 29.05675921087488], [-5.099922668564219, -22.728474587378834, 0.7310843001809748, 7.265391960980569, -12.04773016387255, -11.72227044596121, 10.54459078987691, 2.389756395492009, 17.044885822211, -30.368234106659195, -7.8443886778265615, -10.126598432304998]], "weights_ho": [[-5.346926314651328, -10.063158698216991, 0.24983330133110715, -4.6082420776645465, 13.649334320900863, -25.567698421011638, 19.001795899376344, 27.712153549929972, 9.932341068604998, -10.534176407049722, -15.50232608572139, 1.5309725580577158, -4.152234782739516, -0.7973953019017936, 14.001202884890755, 4.0528241544045525], [-6.561241010906676, -2.9272731701377195, 9.874136406458259, -18.46873913629798, 17.804808447546872, -10.463304013716597, 4.552909340795826, -1.3360078238055015, -10.401952231469105, 5.674192611966901, 17.208450545212646, -38.06968875965323, -3.727448754462977, 6.786910198072198, -19.10482657938491, -8.093156460582172], [3.913042499086425, -6.205218670549981, -4.789065567523211, -3.0603912261734094, -8.065113097036212, 6.989208744552052, -4.373166624964113, -0.0783109556085661, 3.513628825045778, 5.892946704768695, 21.71077261261509, -5.856003011975262, 12.41740664494996, -24.42894310578685, -18.807270883814354, 7.25730828832846], [-2.4308647090819915, 31.468255604092004, -13.485373617642725, 8.51503910462266, -3.741357155805623, -1.3903024032554636, 11.195573017891201, -3.089954930792452, 28.52146493354482, -23.77202738678733, 8.163386988273826, -11.047523731323876, -15.253989342535284, -5.712733232353496, -1.6294783565860274, 14.896724423162464]], "bias_h": [[-9.599382289191002], [-8.245946246440857], [-11.897876122144904], [-17.656474468596574], [-2.0249897003008575], [6.209649413199165], [21.70894336481406], [21.100036313888918], [3.692913007172273], [-0.9746549010229801], [1.381077251191621], [15.294327557159688], [7.72619205004328], [1.6873894071832822], [13.23299682329393], [7.826962149149394]], "bias_o": [[-4.68663304679769], [-0.791290982267447], [-11.86742514894638], [-12.783436598634983]]}, {"input_nodes": 12, "hidden_nodes": 16, "output_nodes": 4, "weights_ih": [[1.2139339816540669, 6.200630418846854, -8.222880877903874, -3.8547508081868527, 7.0359407833311085, -8.484285683485176, 8.20686813530667, -0.5676570548038379, 4.423286726210204, 0.32670338079598304, -5.838743519920549, -17.311780016367226], [0.43531063201028486, -13.16757217855055, 6.348718311010531, -2.534336706441826, 13.415429003901277, -4.986496435998287, 17.730701603219888, 10.387378283007815, 1.0894760562619612, -5.151827116502554, -9.41087945466154, 16.45556780492779], [7.831304933858126, 6.768815139014471, -5.056668290926383, 9.097442722405587, -16.66356322270733, -10.269122503491834, 16.653759017753618, -12.934379486684136, 18.047714658018435, -5.648196177043041, 16.93252139360945, -5.792301700723874], [-0.7858978235214249, 25.46062832188577, -21.203442213468314, 3.283190877895251, -3.203268586805881, -3.0199706829128075, -9.657694208145513, 8.501609195619247, 8.7535957997208, 0.0013785061646984786, 1.6626914408806948, -16.89382948335466], [2.404387284497559, -12.734788930295489, -2.8195554618360594, -12.041452800254227, -4.201916212176236, 16.12433028722678, 6.6363817685078885, -11.110603782802128, -0.3960311972559068, 10.484119352903596, 3.261147043952313, 1.9457749714400625], [-16.763472143162222, -3.7553481169126592, 14.884854262703875, 2.935934405098934, 6.346484852065476, 20.384140190391197, 20.11679939521686, 4.029089866481421, 3.1543130492600184, -20.98957469345935, -12.612442081708675, -16.99752673548264], [5.516157359369744, -4.229335577069161, -16.360846555253545, 11.415884905739158, 6.433182198156926, 8.011416516711707, 15.560123401176062, 13.391346124924354, 7.204134100500783, -3.698898452328913, 5.29049696665434, 8.336724946245518], [2.4142142242546702, 3.6117494712929257, -12.235236304707543, -16.034508310221423, -8.083849534490346, 8.988699132552165, -5.603340693059293, 9.321118855827876, 17.73568363145454, -16.039228281580677, 16.263257733300684, -8.21049329417732], [2.6774812976041162, -20.777173501848093, -1.8699057577568217, 11.745783132388185, -10.336968872708356, -21.76280012708473, -5.667446022708378, 18.293803403697307, 18.363248527903057, -19.467434063036936, -8.070639296140575, -1.0483010375645971], [6.744050765837695, -1.0230669541828308, 17.03731942076669, 3.989628750646061, 1.0456152934669494, 8.796657147932075, 3.0380560793849147, -4.908133441773338, 27.999628462710774, -2.4119187126700967, -9.079613936755207, 4.067606610949742], [-11.57458295193506, 11.52005472046262, 0.34846307687600403, -1.3890226671136157, -5.553975339817692, -8.288729950821608, 1.8216532440049382, -11.62380970821389, -6.942788786609574, -7.550989380774553, -3.9652820907389636, 18.018894979805253], [9.74129826740965, 4.982664487199011, -4.596468405194733, 6.058750316347182, -11.066249255079196, 6.078382975121153, 12.875629412657343, 4.913606867856366, -13.658707513640044, -18.98597299035164, 5.122435192831982, -2.4564335354455062], [-5.637080917695455, -10.867892489979509, -6.0628490576458836, -4.437775764884214, -2.9470139588019286, 37.27996983631151, -7.581385314071466, -2.804262483769192, 6.028793846162973, 7.098625033065911, 4.631979224579183, 5.70627094514705], [-9.49987574893429, 20.17510081283355, -3.909539570235064, -10.574397475530793, 11.08764663323179, 9.561877111787524, -4.753079009089986, -7.84690439618489, -2.476429162518329, 7.104851181861013, -5.256115707424274, -13.437601047557516], [1.300068991218927, 17.648032259547445, -20.392888574933842, -7.467347727210894, -5.166312625300124, -14.712433265316971, 15.910738407387777, 2.029030068480493, 5.46037148010869, -17.770204384390567, 33.01449271818721, 29.254399535774084], [-4.961032415127837, -22.728474587378834, 0.695447049815498, 7.265391960980569, -11.875185332632414, -11.579275244636381, 10.419344715694777, 2.4633011766984305, 17.057595842778255, -30.368234106659195, -7.8443886778265615, -9.908442017663866]], "weights_ho": [[-5.342332918856439, -10.08439791561095, 0.1592518818549986, -4.597657291956809, 13.649334320900863, -25.625449053419942, 19.022031105149097, 27.619713470813068, 9.925780525608888, -10.614784852826554, -15.17056228517407, 1.2436645965132906, -4.149561416967285, -0.7973953019017936, 14.001202884890755, 4.100719102095333], [-6.561241010906676, -2.8297999674346466, 9.816700018575668, -18.46873913629798, 17.804808447546872, -10.463304013716597, 4.4821400479678015, -1.0970424798351102, -10.401952231469105, 5.674192611966901, 17.0381228471464, -38.07048590170074, -3.9335829501528474, 6.792275594557298, -19.042895233324916, -8.2256926785068], [3.913042499086425, -6.205218670549981, -4.614871510009116, -3.0874919741746174, -8.237882914551612, 7.191561047097934, -4.240333318959565, 0.09423519320773022, 3.5514669873877662, 5.873058310374313, 22.106221609474225, -5.9215464521115795, 12.540659816367302, -24.50187104650306, -18.807270883814354, 7.258873888809455], [-2.4308647090819915, 31.525101403797855, -13.438205993642361, 8.514816088395495, -3.5944069264396865, -1.3903024032554636, 11.128214645364924, -3.089954930792452, 28.667215969652165, -23.77202738678733, 8.222054702867666, -11.14596387531714, -15.088485632337274, -5.736547615225946, -1.473763265547607, 14.973619607434255]], "bias_h": [[-9.838700072124329], [-8.245946246440857], [-11.897876122144904], [-17.77468003067463], [-1.9452649709944319], [6.039490644475728], [21.597829495154624], [21.125872319246476], [3.7442638243559463], [-0.9191192121348454], [1.4624164970134887], [15.425643900708254], [7.72619205004328], [1.6873894071832822], [13.291859426627006], [7.783877242571966]], "bias_o": [[-4.497965564256313], [-0.9380577538873837], [-11.822853346176723], [-12.952721698892978]]}, {"input_nodes": 12, "hidden_nodes": 16, "output_nodes": 4, "weights_ih": [[1.2365446336927197, 6.250912230299682, -8.222880877903874, -3.8207670051025415, 7.116394184916791, -8.47237629175918, 8.216276055669, -0.4131313323343454, 4.423286726210204, 0.32670338079598304, -5.779414254579066, -17.186743411319167], [0.2190698165868047, -13.060611377267074, 6.443036702289215, -2.6700740240132514, 13.257169206281421, -5.21055904483287, 17.730701603219888, 10.474115524945336, 1.0714142085020408, -5.1468903498059335, -9.46510303094369, 16.465749164649846], [7.952645401024034, 6.676513113902469, -4.9610032420106, 9.097442722405587, -16.483713032899786, -10.269122503491834, 16.609118629156004, -12.972132478652922, 18.190110010070832, -5.563753672132296, 16.79728282357595, -5.833608012960253], [-0.7289548181006281, 25.42691122047051, -21.203442213468314, 3.283190877895251, -3.255404724799447, -2.8678337059768397, -9.678655954412921, 8.265470468270248, 8.58519999366176, -0.04962399818042365, 1.6791846752346227, -16.857136987265765], [2.3630194985231734, -12.669597191242845, -2.941272787026906, -12.041452800254227, -4.201916212176236, 16.30629490404319, 6.742353437902703, -11.143534364680262, -0.3960311972559068, 10.490215781623327, 3.2554713563054216, 1.8513973410330034], [-16.763472143162222, -3.83975309191899, 14.884854262703875, 2.912131166032785, 6.453419627008439, 20.384140190391197, 20.16398298201983, 3.8347271208027993, 3.1023613446548013, -20.907648249219147, -12.54407232402902, -16.964769263567916], [5.557767182601388, -4.186127215936673, -16.370883030525565, 11.415884905739158, 6.433182198156926, 8.059081736997328, 15.418429178499093, 13.323266680726336, 7.006292394010552, -3.762271253747701, 5.29049696665434, 8.319306302833006], [2.4142142242546702, 3.6235538048488607, -12.300347146966777, -16.034508310221423, -8.093689345209803, 8.988699132552165, -5.445585700055072, 9.321118855827876, 17.736139296831432, -15.992470009820366, 16.291720254209793, -8.335474059201173], [2.6486777298020114, -20.62394731326995, -1.769250968962292, 11.793086165735449, -10.18621431228456, -21.53207576114103, -5.665287021597086, 18.162846266471963, 18.44788743110103, -19.408645792628022, -8.032341114984998, -0.9952547459891421], [6.764673504820146, -1.1474571988697784, 17.18248271996779, 3.987972377912002, 1.071038055196068, 8.800012708068348, 2.9260801233741334, -4.862998687662884, 28.034205025681004, -2.3134457375330544, -8.956252394303803, 4.067606610949742], [-11.417155742163773, 11.52005472046262, 0.3121249025700126, -1.3607403792282307, -5.553975339817692, -8.29139155487567, 1.6732722280153378, -11.645377106636156, -6.942788786609574, -7.42812984019802, -3.7703157791499162, 18.018894979805253], [9.596071571324904, 4.982664487199011, -4.596468405194733, 6.058750316347182, -11.108449449963235, 6.106099687664465, 12.950968024508297, 4.913606867856366, -13.658707513640044, -18.823742371121632, 5.211867427189207, -2.620020452583411], [-5.733605028494073, -10.6402732304848, -6.21789897427395, -4.237074430277794, -2.9470139588019286, 37.22902106549073, -7.581385314071466, -2.729402184881376, 5.950584336875045, 6.948835087267818, 4.631979224579183, 5.673476346715217], [-9.518067464938948, 20.163493608928082, -3.9853349168429375, -10.55849468555086, 11.093068114795791, 9.540666142408584, -4.8524274864699475, -7.7438649780311115, -2.485888636911102, 7.104851181861013, -5.256115707424274, -13.416648750409573], [1.1349696537585086, 17.648032259547445, -20.392888574933842, -7.467347727210894, -5.094473814547224, -14.618776723478518, 15.991863174381463, 2.029030068480493, 5.266487579615723, -17.797559922205803, 33.01449271818721, 29.238836117911625], [-4.978759556618504, -22.728474587378834, 0.5779384539091119, 7.293155078700917, -12.033647514637035, -11.72227044596121, 10.575457213991873, 2.389756395492009, 17.085473432088545, -30.368234106659195, -7.8443886778265615, -9.942838164600232]], "weights_ho": [[-5.342332918856439, -10.08439791561095, 0.1592518818549986, -4.578521388635415, 13.680779700534092, -25.56872339608715, 19.001795899376344, 27.94198935910311, 10.077817887631781, -10.516070749912634, -15.307542301032022, 1.5309725580577158, -4.038831945533546, -0.7580517032585148, 14.041272410073017, 4.143432957912315], [-6.561241010906676, -2.8297999674346466, 9.816700018575668, -18.413054238714764, 17.776835147233843, -10.581646257500857, 4.588186242459936, -1.3360078238055015, -10.456794381040726, 5.621527781925387, 17.08380847414864, -38.06968875965323, -3.727202368708132, 6.792275594557298, -19.10482657938491, -8.01876357587994], [3.950614563006311, -6.384509526372758, -4.789065567523211, -3.0603912261734094, -7.903507118730295, 6.989208744552052, -4.370458652097465, 0.09423519320773022, 3.5514669873877662, 5.875798514008049, 21.93983360098682, -5.830819043408842, 12.506093995507726, -24.42894310578685, -18.815785268283022, 7.186432899851062], [-2.4308647090819915, 31.468255604092004, -13.537181706828706, 8.467093529103813, -3.5944069264396865, -1.3903024032554636, 11.162272874778331, -3.089954930792452, 28.496727929384456, -23.77202738678733, 8.222054702867666, -11.047523731323876, -15.24121294333965, -5.712733232353496, -1.6590400895655684, 14.988373506596083]], "bias_h": [[-9.838700072124329], [-8.245946246440857], [-11.897876122144904], [-17.77468003067463], [-1.9834905913833207], [6.209649413199165], [21.693929778641113], [21.100036313888918], [3.7012653526124173], [-0.8601592972215205], [1.5475189009502108], [15.294327557159688], [7.756024033830929], [1.741024416717172], [13.311057986765046], [7.826962149149394]], "bias_o": [[-4.412745193938947], [-0.9380577538873837], [-11.86742514894638], [-12.794408742040638]]}, {"input_nodes": 12, "hidden_nodes": 16, "output_nodes": 4, "weights_ih": [[1.2457967494053277, 6.250912230299682, -8.222880877903874, -3.7230885027218723, 7.0359407833311085, -8.484285683485176, 8.15576480492008, -0.5676570548038379, 4.423286726210204, 0.32670338079598304, -5.779414254579066, -17.314512165833808], [0.1923772554025291, -13.114399502805828, 6.30881303468861, -2.534336706441826, 13.368720441842136, -5.21055904483287, 17.892803379619302, 10.474115524945336, 1.0894760562619612, -5.1468903498059335, -9.39782773079505, 16.447454760396635], [7.724987835512274, 6.695343756205618, -4.8916998268835625, 9.158238966760338, -16.66356322270733, -10.269122503491834, 16.487082307252717, -12.934379486684136, 18.203872996269723, -5.746957741095193, 16.869813831233184, -5.728205772292794], [-0.7858978235214249, 25.42691122047051, -21.203442213468314, 3.283190877895251, -3.255404724799447, -2.8678337059768397, -9.678655954412921, 8.465893890784875, 8.672226956970203, 0.007235499463863749, 1.6791846752346227, -16.85240305440882], [2.4335256751303422, -12.734788930295489, -2.941272787026906, -11.843233701099152, -4.251459482441993, 16.230283429107146, 6.731855325178419, -11.088624690984288, -0.3960311972559068, 10.464745350848832, 3.301891848423481, 1.629758274550091], [-16.74227594133881, -3.9373576719192624, 14.853983592949852, 3.0235807510887787, 6.453419627008439, 20.384140190391197, 20.18633042595524, 3.8347271208027993, 3.1543130492600184, -20.864946607809117, -12.509357784515526, -17.057063455001025], [5.557767182601388, -4.436170628702014, -16.360846555253545, 11.415884905739158, 6.380252012608424, 8.12645837835408, 15.423900035849947, 13.323266680726336, 7.022077634813661, -3.698898452328913, 5.29049696665434, 8.293547932003246], [2.282828039946931, 3.5752287673722, -12.300347146966777, -16.034508310221423, -8.083849534490346, 8.988699132552165, -5.613731822326383, 9.448913543968576, 17.773275547720107, -15.992470009820366, 16.263257733300684, -8.335474059201173], [2.5706847029898743, -20.682482395831467, -1.8699057577568217, 11.793086165735449, -10.151174411648983, -21.698106581412468, -5.6310642933727895, 18.162846266471963, 18.51331559761679, -19.34762304575888, -8.032341114984998, -1.0569421541239652], [6.744050765837695, -1.1626460188656407, 17.112578447197688, 3.989628750646061, 1.0456152934669494, 8.88104863488949, 3.0380560793849147, -4.792056340962488, 28.034205025681004, -2.365539827748662, -8.979170454369026, 4.067606610949742], [-11.416577089031524, 11.52005472046262, 0.3773998289994508, -1.6708315560601084, -5.553975339817692, -8.185528671678806, 1.5575572751616118, -11.572500204438091, -6.942788786609574, -7.506824529110974, -3.9115216199908485, 18.022890405521228], [9.596071571324904, 4.982664487199011, -4.446733274358354, 6.026143900739787, -11.066249255079196, 6.2638881310837276, 13.011522746695238, 4.913606867856366, -13.81499552978819, -18.913246421100737, 4.954213945382613, -2.590809343793312], [-5.733605028494073, -10.808364817654953, 