{"generation": 48072, "population": [{"input_nodes": 12, "hidden_nodes": 16, "output_nodes": 4, "weights_ih": [[0.8363703973973715, 4.965876610498135, -7.970628806721212, -3.815086434323365, 6.918517615692193, -8.294924007619493, 8.811850747416823, 0.1810955805898335, 3.0927017481422117, 0.09932313028242354, -5.854199071197221, -16.709288391691636], [-0.373803794363224, -13.565555944054417, 6.199175805094425, -2.5261496390953186, 13.096585147577853, -4.943471328976445, 16.95371030427843, 9.60323321033851, 1.3989806099069666, -3.977565479844766, -8.981405386157181, 15.667265938191687], [8.46492232942965, 6.1127240810051, -5.228492583900607, 8.599695767109646, -16.174736906001087, -9.727439680665125, 17.090239553293234, -12.007262754774796, 18.23735234454267, -5.7531981848532565, 16.226956226171687, -5.437450189168434], [0.20163461691303436, 24.978431453607392, -21.5547573873513, 3.600704348389871, -3.2601490600555247, -2.918652903709322, -9.240444258775618, 7.818443427837497, 9.880134933500164, -0.3815177815860066, 1.7459586072235047, -18.253572241662717], [2.5377137238374763, -13.410793819930213, -3.0443644737935673, -11.616050649170399, -4.379599388114176, 17.751494959382235, 5.722425459655188, -10.960723651161079, -1.0188461309465637, 9.860773223252165, 3.18411604707754, 2.2428980144149784], [-16.777603405534485, -4.5567424077300736, 15.10179137708659, 2.845260751318409, 6.09613751884932, 20.843511811696334, 21.18593261807392, 4.195202902355829, 3.68769979033598, -20.40454953202358, -13.151825919620169, -16.617194748763044], [5.715860998647468, -4.583052274841726, -15.621610983116005, 11.154848864274676, 6.273405236497888, 8.543192282216726, 15.509534885906652, 13.507808401206507, 6.738187667007007, -3.6784317476879655, 5.808537529588624, 7.57434333263733], [2.399092563228899, 3.1385148938549525, -11.301598875009915, -15.959203550879975, -7.1427461651164315, 9.200557881035575, -5.509858746631887, 9.160895291041735, 18.60694368563046, -15.039304743233199, 17.46585666150841, -8.001768417681353], [2.4414295496590954, -19.381803573426, -2.477351177026128, 10.591937143235555, -9.770540698139405, -21.923206174408925, -6.196921750877407, 17.835248837433966, 18.53013827766609, -20.197750409018788, -8.256361460434547, -0.4830580871140606], [6.359755794014441, 0.110812502292475, 17.65186110204194, 4.10173786302699, 0.8022132959411825, 9.079286325387184, 4.360212251062715, -6.746332587091983, 28.003662442681797, -2.5918538086363867, -8.695877630318098, 3.185732958527668], [-10.654089644394908, 11.783590416603307, -0.14462240775541302, -1.3537794959509053, -4.943404894333426, -7.102419901855516, 1.3600041892555403, -12.337193741903338, -8.019719423292857, -7.841223109407825, -4.462196616998442, 17.84743421710364], [10.009795664919402, 3.8607394248201086, -4.128264835735443, 7.160930963288066, -11.590244327207099, 7.329611499597852, 13.197209456687867, 5.413591667343072, -13.305784741773275, -19.59262723186258, 4.575025532444084, -2.224001964549825], [-5.869991088560882, -10.607130657374794, -7.091548987644079, -4.34191757637529, -3.846669115451934, 38.05814585464771, -7.378517922438476, -3.0997707454461194, 4.777614309721321, 6.625564166756663, 5.081264765883602, 5.287647958332486], [-9.902532623803225, 19.19224251366485, -3.8647310203470546, -10.424373475948283, 11.400434869338222, 9.506363610667114, -4.063533338892379, -7.539443143288414, -2.887911132200711, 6.874353103583403, -5.793585699465229, -13.204599204350826], [1.2748877452125904, 18.538326654847786, -18.928235987464642, -7.869909483618674, -5.498328735517667, -14.161073918923776, 15.760927940773811, 2.574111703555367, 5.344044777299465, -18.104168139728436, 33.236646575390594, 28.511966453867924], [-4.703224002752922, -23.09302322508491, 1.7868453187494302, 6.173223531991545, -10.887654876012336, -12.142364679632871, 10.679963745588877, 2.5271844342727126, 16.6975288101217, -30.094774319531957, -7.399442997872176, -9.534313586061062]], "weights_ho": [[-6.155245474278151, -10.324102430650498, -0.14069738723499411, -5.088242412938616, 13.411831281884599, -24.72418588480224, 17.22349328254618, 28.00477994342656, 9.777912299807678, -9.813149323095757, -16.157208003196477, 1.8229184357076216, -4.109580077356472, -1.5595600876427493, 14.768937341116976, 4.559233069778934], [-6.107321956723535, -2.0524461083800083, 8.929578743635636, -19.071109079234475, 19.093251831100563, -10.316284146287456, 4.272874389224799, -1.4965895393826392, -10.44088950626624, 5.203490866464971, 17.05343316518879, -37.93207920039144, -4.242663859043526, 6.785509743467869, -19.69498079452395, -7.6080744742038515], [3.7221429069292835, -7.796686618716066, -4.728721598470389, -3.4277632161705966, -8.931244933323802, 7.021179296010292, -4.404977680242359, 0.5513768434247897, 3.874833859734981, 5.986389591482633, 22.13870181697374, -5.481152900127084, 12.989982115166967, -24.41851153898059, -19.977051530503864, 6.880058346218963], [-2.3249760036830627, 32.520364840841665, -12.844501250487601, 9.296524352334844, -3.244769456377771, -1.3076288219846914, 11.802165791913964, -2.3687930754568685, 27.804973033705807, -24.797219577853543, 8.500253783473251, -10.98468832655158, -16.222703661587488, -5.899435808130047, -2.81182691844351, 13.97254007093102]], "bias_h": [[-10.673503702581643], [-7.969280975148017], [-11.812077303422063], [-18.01571570504402], [-2.0262437316614927], [5.954738083603002], [21.688822581331568], [20.375100998832647], [3.459686819800387], [-0.2233577280259499], [0.44094494355573466], [16.26881110799637], [8.54872664505858], [1.3561381192382065], [12.978174886453925], [7.116093548119214]], "bias_o": [[-4.341276072536494], [-1.0745249928309315], [-11.981275652917207], [-11.858563853944176]]}, {"input_nodes": 12, "hidden_nodes": 16, "output_nodes": 4, "weights_ih": [[0.8363703973973715, 4.826674756347604, -7.970628806721212, -3.815086434323365, 6.958902241975707, -8.353376626013493, 8.811850747416823, 0.2806321300841558, 3.084293410847312, 0.09932313028242354, -5.854199071197221, -16.709288391691636], [-0.35442987271329207, -13.565555944054417, 6.199175805094425, -2.5261496390953186, 13.096585147577853, -4.947561572564486, 17.012819453431874, 9.636230386623486, 1.5924542008368876, -3.977565479844766, -8.981405386157181, 15.585084513951958], [8.46492232942965, 5.939985960289731, -5.208547568766081, 8.488355241646898, -16.174736906001087, -9.698944751551334, 17.10374427837626, -12.007262754774796, 18.23735234454267, -5.7387504920525645, 16.074063133157505, -5.437450189168434], [0.20163461691303436, 24.889874969176425, -21.632435679638775, 3.674872127956064, -3.2601490600555247, -2.918652903709322, -9.10859529896807, 7.6611882172597054, 9.880134933500164, -0.3815177815860066, 1.7459586072235047, -18.450279045375108], [2.474332897389388, -13.410793819930213, -3.105190356065873, -11.515380616088699, -4.379599388114176, 17.751494959382235, 5.722425459655188, -10.960723651161079, -1.0188461309465637, 9.773500350468323, 3.0535667245528515, 2.2428980144149784], [-16.777603405534485, -4.583608262407323, 15.10179137708659, 2.9434168415607647, 5.959220172312905, 21.159767518370554, 21.168307647555284, 4.195202902355829, 3.68769979033598, -20.488985097164687, -13.199726767825277, -16.491064821575762], [5.746788465603651, -4.583052274841726, -15.582754268059732, 11.262773815882232, 6.259889711320251, 8.543192282216726, 15.568023915968396, 13.475768924511268, 6.738187667007007, -3.681238676300207, 5.815729577904888, 7.57434333263733], [2.3590065470300567, 3.1385148938549525, -11.301598875009915, -15.959203550879975, -7.156983840163982, 9.200557881035575, -5.568658848658267, 9.160895291041735, 18.60694368563046, -15.039304743233199, 17.23845391756382, -8.001768417681353], [2.3616305224873164, -19.30938892909392, -2.477351177026128, 10.355916807944272, -9.82704958206982, -21.923206174408925, -6.196921750877407, 17.92133396071492, 18.452009355664988, -20.284492375553185, -8.188669909174624, -0.4830580871140606], [6.359755794014441, 0.110812502292475, 17.719585601635572, 4.222724930925955, 0.8022132959411825, 9.079286325387184, 4.360212251062715, -6.746332587091983, 28.003662442681797, -2.5539719093039093, -8.57884879851668, 3.185732958527668], [-10.442901214307007, 11.783590416603307, -0.14462240775541302, -1.3537794959509053, -5.1562424381284995, -7.102419901855516, 1.3075946331204156, -12.4211425834624, -8.019719423292857, -7.79721764307521, -4.462196616998442, 17.71831927100263], [10.009795664919402, 3.8607394248201086, -4.026349847187742, 7.0330292552431555, -11.622553889262418, 7.329611499597852, 13.197209456687867, 5.455779894289734, -13.377962143753548, -19.59262723186258, 4.602034900833944, -2.1070472101099047], [-5.869991088560882, -10.515941771617184, -6.980298939666297, -4.34191757637529, -3.7896456278060167, 38.07094184517142, -7.2985595966979275, -3.1359911573696424, 4.8640384132975525, 6.625564166756663, 5.2947883926814345, 5.287647958332486], [-9.902532623803225, 19.24609867380531, -3.8647310203470546, -10.424373475948283, 11.400434869338222, 9.420365351243289, -4.063533338892379, -7.512008147631163, -2.887911132200711, 7.016997100394779, -5.727951953895679, -13.073245628275385], [1.5021632900075808, 18.74778750353677, -18.828141854291363, -7.869909483618674, -5.498328735517667, -14.00446016050003, 15.682821674774006, 2.5070641830563734, 5.402000519821577, -18.104168139728436, 33.298765137175465, 28.511966453867924], [-4.703224002752922, -23.09302322508491, 1.7878301327544814, 6.202482559134062, -10.933004213536956, -12.142364679632871, 10.852969605285452, 2.5271844342727126, 16.599613274142452, -30.094774319531957, -7.3235649648045085, -9.534313586061062]], "weights_ho": [[-6.155245474278151, -10.435658341445345, -0.14069738723499411, -5.070637893880099, 13.454389748611993, -24.72418588480224, 17.260398302489573, 27.972060434362675, 9.777912299807678, -9.813149323095757, -16.157208003196477, 1.8229184357076216, -4.049469388777878, -1.5895348515002938, 14.904742878291835, 4.559233069778934], [-6.054430930102184, -2.0524461083800083, 8.929578743635636, -19.071109079234475, 19.017292837995793, -10.316284146287456, 4.272874389224799, -1.5385395321252924, -10.512070939956045, 5.203490866464971, 17.05343316518879, -37.93207920039144, -4.281771789602296, 6.941218757287891, -19.776971879109514, -7.6080744742038515], [3.7221429069292835, -7.766090977906621, -4.728721598470389, -3.4188949850720065, -8.931244933323802, 7.167029013366127, -4.242017828730824, 0.5513768434247897, 3.94270782141896, 5.986389591482633, 22.232091663843434, -5.481152900127084, 12.982456903498061, -24.41851153898059, -20.061064031403152, 6.880058346218963], [-2.220999674264781, 32.456353147299176, -12.844501250487601, 9.197460923210034, -3.244769456377771, -1.3076288219846914, 11.860120565741006, -2.223274265083606, 27.888878730304185, -24.93530728702727, 8.32903391815576, -10.98468832655158, -16.163672035064735, -6.062785456387124, -2.81182691844351, 13.97254007093102]], "bias_h": [[-10.725660196145332], [-7.969280975148017], [-11.917618793543229], [-17.98871255404427], [-2.0229026954826845], [5.8005963803801235], [21.688822581331568], [20.437545262837563], [3.4797437119325894], [-0.20276114388860422], [0.44094494355573466], [16.199977148201302], [8.567124950361118], [1.2960594766148201], [12.978174886453925], [7.048657996560405]], "bias_o": [[-4.247512904362912], [-1.1417633633851891], [-11.913319741903798], [-11.793081357877004]]}, {"input_nodes": 12, "hidden_nodes": 16, "output_nodes": 4, "weights_ih": [[0.8363703973973715, 4.898991989492974, -7.9949351806791915, -3.737161090135673, 6.918517615692193, -8.169126971027966, 8.811850747416823, 0.1810955805898335, 3.1418048868012556, 0.07461705750273268, -5.854199071197221, -16.709288391691636], [-0.373803794363224, -13.535555221028416, 6.068957926544941, -2.3566343766832, 13.096585147577853, -4.933044717986825, 16.95371030427843, 9.60323321033851, 1.3989806099069666, -3.9169621254148645, -8.981405386157181, 15.667265938191687], [8.46492232942965, 6.1127240810051, -5.228492583900607, 8.610904973994096, -16.174736906001087, -9.69568943329823, 17.09605103572832, -12.07675112921601, 18.23735234454267, -5.812208911461689, 16.297860121440234, -5.437450189168434], [0.20731281638312077, 24.957004550690712, -21.534771290188395, 3.5925832642057247, -3.2601490600555247, -2.918652903709322, -9.096661008710804, 7.818443427837497, 9.865395648910237, -0.39429749235084566, 1.997070208022495, -18.253572241662717], [2.5377137238374763, -13.50901896301068, -3.0443644737935673, -11.797461532355081, -4.379599388114176, 17.74645694421378, 5.84053617800677, -10.869568998424773, -0.9502558908557471, 9.860773223252165, 3.18411604707754, 2.2428980144149784], [-16.777603405534485, -4.5391834288631845, 15.165048191765564, 2.845260751318409, 6.050927540640042, 20.848302151113153, 21.174733207647762, 4.195202902355829, 3.68769979033598, -20.401867982240915, -13.15308648221554, -16.519508785683765], [5.715860998647468, -4.583052274841726, -15.561564463130116, 11.168090366105266, 6.248875975666726, 8.543192282216726, 15.64467210970538, 13.650709165757759, 6.8186197360224305, -3.6784317476879655, 5.995260871009619, 7.6111773621343515], [2.399092563228899, 3.1385148938549525, -11.301598875009915, -15.973566737853856, -7.1427461651164315, 9.328181492327218, -5.5524239698118985, 9.147475456674478, 18.588392653594603, -15.039304743233199, 17.507099173423814, -8.001768417681353], [2.4180647825950907, -19.381803573426, -2.477351177026128, 10.489177567011021, -9.845399586354775, -21.923206174408925, -6.196921750877407, 17.835248837433966, 18.53013827766609, -20.197750409018788, -8.325636038881512, -0.504178601123676], [6.249314752157879, 0.110812502292475, 17.65186110204194, 4.165991083756723, 0.8022132959411825, 9.079286325387184, 4.366174693273378, -6.746332587091983, 28.021453206370605, -2.7151283736262966, -8.695877630318098, 3.008634106152575], [-10.792534890268497, 11.783590416603307, -0.14462240775541302, -1.2670857675055558, -4.943404894333426, -6.886383384036054, 1.3600041892555403, -12.337193741903338, -7.894926929276378, -7.841223109407825, -4.462196616998442, 17.84743421710364], [10.009795664919402, 3.808337922495265, -4.128264835735443, 7.211927082900079, -11.422809817594388, 7.329611499597852, 13.40601435029634, 5.413591667343072, -13.305784741773275, -19.59262723186258, 4.575025532444084, -2.224001964549825], [-5.8445639556693285, -10.72890419582741, -7.134109388137629, -4.203360464229218, -3.846669115451934, 38.131179381058416, -7.378517922438476, -3.0997707454461194, 4.777614309721321, 6.620695476212993, 5.081264765883602, 5.287647958332486], [-9.870886496691227, 19.036097599830992, -3.8647310203470546, -10.424373475948283, 11.400434869338222, 9.506363610667114, -4.063533338892379, -7.480342724728575, -2.812552008190565, 6.874353103583403, -5.793585699465229, -13.218026582587282], [1.366423249630925, 18.508261745856082, -18.928235987464642, -7.73529640569184, -5.575455969021791, -14.161073918923776, 15.760927940773811, 2.6485436690253454, 5.463374067342275, -18.00687339705052, 33.27073219325621, 28.511966453867924], [-4.703224002752922, -23.09302322508491, 1.6320565774649596, 6.173223531991545, -10.88229281449819, -12.142364679632871, 10.679963745588877, 2.5271844342727126, 16.76258910332892, -30.055296032295896, -7.399442997872176, -9.534313586061062]], "weights_ho": [[-6.109346142678083, -10.324102430650498, -0.14069738723499411, -5.088242412938616, 13.529906483384789, -24.702027437780597, 17.29555996722951, 28.00477994342656, 9.777912299807678, -9.740547739377416, -16.201048700117678, 1.8005503173598703, -4.217340013646413, -1.5595600876427493, 14.739166272980603, 4.770610508037317], [-6.107321956723535, -2.0524461083800083, 8.929578743635636, -19.112344423874585, 18.954464458415117, -10.476037128870917, 4.272874389224799, -1.3425194889997947, -10.44088950626624, 5.203490866464971, 17.059758708967554, -37.93207920039144, -4.242663859043526, 6.785509743467869, -19.68820476375313, -7.6080744742038515], [3.596279014830228, -7.796686618716066, -4.77508316187405, -3.524075926099134, -9.03504034901546, 6.893179480098434, -4.404977680242359, 0.6910650463301763, 4.009156780272464, 5.985641690501542, 22.13870181697374, -5.481152900127084, 12.989982115166967, -24.359859131796597, -19.977051530503864, 6.880058346218963], [-2.3249760036830627, 32.520364840841665, -12.844501250487601, 9.296524352334844, -3.244769456377771, -1.1437972047396923, 11.802165791913964, -2.5818913059615425, 27.91359488086878, -24.797219577853543, 8.500253783473251, -10.98468832655158, -16.258323015497286, -5.899435808130047, -2.81182691844351, 13.97918623784474]], "bias_h": [[-10.673503702581643], [-7.969280975148017], [-11.812077303422063], [-17.984298840510366], [-2.0262437316614927], [5.947254319887587], [21.688822581331568], [20.375100998832647], [3.3253337666625495], [-0.2233577280259499], [0.44094494355573466], [16.286941083218323], [8.54872664505858], [1.355608641236199], [13.060076345517986], [7.239305259306171]], "bias_o": [[-4.37664779133028], [-1.0745249928309315], [-12.0531584278794], [-11.858563853944176]]}, {"input_nodes": 12, "hidden_nodes": 16, "output_nodes": 4, "weights_ih": [[0.8363703973973715, 4.965876610498135, -7.945950589938421, -3.790398301796191, 6.905226685307093, -8.294924007619493, 8.934380940624632, 0.1810955805898335, 3.0927017481422117, 0.15784879149971495, -5.854199071197221, -16.709288391691636], [-0.373803794363224, -13.575159503240906, 6.142888432807738, -2.5261496390953186, 13.149079506409501, -4.943471328976445, 16.95371030427843, 9.496581289770338, 1.3989806099069666, -3.977565479844766, -8.995455470903357, 15.608929978272903], [8.46492232942965, 6.000937572250821, -5.228492583900607, 8.689532000390964, -16.301738518062564, -9.727439680665125, 17.090239553293234, -12.012795190783475, 18.23735234454267, -5.7531981848532565, 16.226956226171687, -5.437450189168434], [0.5892524243318219, 24.908103021323875, -21.409601855191468, 3.600704348389871, -3.3000307029935163, -3.035787124889638, -9.240444258775618, 7.9509922033908165, 9.880134933500164, -0.3815177815860066, 1.6267096928819702, -18.37686907779434], [2.5377137238374763, -13.410793819930213, -3.0443644737935673, -11.616050649170399, -4.436693476179169, 17.734052187170416, 5.6819420465722255, -10.960723651161079, -1.0188461309465637, 9.860773223252165, 3.1966281069104485, 2.2068926354379093], [-16.61802693434788, -4.5567424077300736, 15.10179137708659, 2.845260751318409, 6.18700987733798, 20.843511811696334, 21.18593261807392, 4.195202902355829, 3.68769979033598, -20.359385240092912, -13.151825919620169, -16.617194748763044], [5.764522167220367, -4.58605678122538, -15.621610983116005, 11.154848864274676, 6.273405236497888, 8.380437627961754, 15.509534885906652, 13.518569863681297, 6.738187667007007, -3.8598411531490235, 5.6706932861468005, 7.545764979495857], [2.399092563228899, 3.1385148938549525, -11.301598875009915, -15.986978259926975, -7.1427461651164315, 9.200557881035575, -5.509858746631887, 9.160895291041735, 18.61007013755531, -15.039304743233199, 17.46585666150841, -8.001768417681353], [2.4414295496590954, -19.381803573426, -2.2963651074342692, 10.591937143235555, -9.770540698139405, -21.798705755068493, -6.103625443738631, 17.749553277974655, 18.567414674450987, -20.338757656293744, -8.275508947007049, -0.4715674728462204], [6.460080295121574, 0.110812502292475, 17.65186110204194, 4.10173786302699, 0.9765300738592658, 8.938626448532794, 4.398032875000605, -6.756238546352551, 27.883195631483037, -2.651373638736265, -8.766187399374042, 3.185732958527668], [-10.559133938451069, 11.613989795598057, -0.14462240775541302, -1.3537794959509053, -4.943404894333426, -7.102419901855516, 1.3398087365191764, -12.337193741903338, -8.019719423292857, -7.99374438544617, -4.55033938846645, 17.70495555857363], [10.009795664919402, 3.7998168429220813, -4.128264835735443, 7.049826986980642, -11.614370384864536, 7.329611499597852, 13.39641732239298, 5.388143784936013, -13.305784741773275, -19.555593097084653, 4.575025532444084, -2.15669248797213], [-5.835011550359009, -10.607130657374794, -6.977966177442153, -4.3852806992428635, -3.846669115451934, 38.056014048985425, -7.2270089858260596, -3.1481259562575303, 4.865440359054762, 6.556755221552703, 5.081264765883602, 5.287647958332486], [-9.902532623803225, 19.27147574281986, -3.835610548920138, -10.385102136425404, 11.443179020645099, 9.506363610667114, -4.213272336450297, -7.539443143288414, -2.887911132200711, 6.874353103583403, -5.630996214450871, -13.188846324913879], [1.2160883867031018, 18.502289794738207, -18.87461308365611, -7.869909483618674, -5.677097312806602, -14.161073918923776, 15.760927940773811, 2.574111703555367, 5.366740339910629, -17.887400540099602, 33.109199929042404, 28.665021442691224], [-4.7005297688484005, -23.09302322508491, 1.7868453187494302, 6.2781811953562805, -10.887654876012336, -11.997907511684948, 10.648928880435005, 2.5271844342727126, 16.613160132202825, -29.938209230626455, -7.399442997872176, -9.531556252735928]], "weights_ho": [[-6.140437974126527, -10.324102430650498, -0.10502356785506793, -5.132931419291312, 13.283004747622458, -24.79501623951586, 17.00026298652454, 27.81990258556906, 9.879351388839765, -9.813149323095757, -16.157208003196477, 1.8229184357076216, -4.109580077356472, -1.5284940434911591, 14.788294538851698, 4.559233069778934], [-6.107321956723535, -2.0524461083800083, 8.921183195020056, -19.071109079234475, 19.158990067368098, -10.316284146287456, 4.245066412985717, -1.5215997376250778, -10.44088950626624, 5.033524358520787, 17.05343316518879, -37.93207920039144, -4.109386587474249, 6.90930998366018, -19.80545478391284, -7.619419367525018], [3.7547380125217495, -7.773875433873176, -4.732170579789106, -3.4277632161705966, -8.931244933323802, 6.862337088465818, -4.333082905207812, 0.4452198894695809, 3.874833859734981, 6.105205901334593, 22.287506427594913, -5.481152900127084, 12.989982115166967, -24.41851153898059, -20.013520213219113, 6.650565966602201], [-2.3249760036830627, 32.536268104269325, -12.844501250487601, 9.35362091931341, -3.1935787773112585, -1.3739017105586762, 11.802165791913964, -2.3687930754568685, 27.804973033705807, -24.797219577853543, 8.53908997434168, -10.989180565644698, -16.222703661587488, -5.899435808130047, -3.058290427226831, 14.116265996557637]], "bias_h": [[-10.673503702581643], [-7.954507010677213], [-11.812077303422063], [-18.097867142084286], [-2.1270492236590792], [5.954738083603002], [21.688822581331568], [20.228582666248382], [3.5166048584946985], [-0.39236862790586424], [0.4833211167313507], [16.304776974873903], [8.54872664505858], [1.4272252127240226], [13.085444698565023], [7.116093548119214]], "bias_o": [[-4.341276072536494], [-1.0745249928309315], [-11.924318894934725], [-11.938559042317026]]}, {"input_nodes": 12, "hidden_nodes": 16, "output_nodes": 4, "weights_ih": [[0.9886215355592742, 4.965876610498135, -7.970628806721212, -3.815086434323365, 6.918517615692193, -8.294924007619493, 8.811850747416823, 0.27619801752564543, 3.2929779470383975, 0.08025568740827806, -5.854199071197221, -16.86795693884182], [-0.44914585741030466, -13.46970415617877, 6.229146092786494, -2.5047519012498944, 13.076377237539068, -4.796421621054212, 16.95371030427843, 9.60323321033851, 1.1791015057669434, -3.977565479844766, -9.068490656942116, 15.79576722001352], [8.46492232942965, 6.1127240810051, -5.366120300308329, 8.599695767109646, -16.174736906001087, -9.563756564906871, 17.090239553293234, -11.986936477215806, 18.23735234454267, -5.7531981848532565, 16.226956226171687, -5.512944603114498], [0.20163461691303436, 24.951907263297013, -21.48143785238073, 3.600704348389871, -3.2601490600555247, -3.0311875777957322, -9.240444258775618, 7.818443427837497, 9.880134933500164, -0.2736942215367837, 1.7459586072235047, -18.163419200485873], [2.5377137238374763, -13.410793819930213, -2.865999747077824, -11.616050649170399, -4.379599388114176, 17.751494959382235, 5.794459011365505, -10.960723651161079, -0.8418969315164598, 9.860773223252165, 3.18411604707754, 2.2428980144149784], [-16.79204406496537, -4.5567424077300736, 15.10179137708659, 2.845260751318409, 6.058677700348359, 20.843511811696334, 21.20106885307332, 4.1440025338351, 3.6777360003585895, -20.42608611383547, -13.151825919620169, -16.617194748763044], [5.770193096885636, -4.5597795796980956, -15.621610983116005, 11.154848864274676, 6.142857996924071, 8.543192282216726, 15.509534885906652, 13.476433728867821, 6.9424527059539685, -3.6784317476879655, 5.808537529588624, 7.57434333263733], [2.399092563228899, 3.1385148938549525, -11.301598875009915, -15.959203550879975, -7.1427461651164315, 9.200557881035575, -5.509858746631887, 9.299521672811222, 18.60694368563046, -15.055620450931071, 17.183818367957137, -8.029923079608773], [2.4414295496590954, -19.381803573426, -2.477351177026128, 10.538500875423855, -9.770540698139405, -21.923206174408925, -6.16351213143422, 17.835248837433966, 18.507990903359847, -20.250420316459753, -8.363881640866865, -0.4830580871140606], [6.471770597754933, -0.12908596122793697, 17.65186110204194, 4.10173786302699, 0.7466438239940202, 9.079286325387184, 4.360212251062715, -6.746332587091983, 28.003662442681797, -2.5918538086363867, -8.695877630318098, 3.185732958527668], [-10.647894917838531, 11.867662203888006, -0.2553909579201472, -1.3537794959509053, -4.943404894333426, -7.102419901855516, 1.2537938462483236, -12.337193741903338, -8.019719423292857, -7.841223109407825, -4.533493616845625, 17.814688795752808], [10.001341427546071, 3.8607394248201086, -4.128264835735443, 7.160930963288066, -11.542614024131364, 7.433577761542085, 13.265927494991628, 5.325497938534583, -13.305784741773275, -19.60184235955145, 4.575025532444084, -2.224001964549825], [-5.869991088560882, -10.644817035935093, -7.091548987644079, -4.447384771878183, -3.970422837479224, 37.986049482234726, -7.378517922438476, -3.1679570905177696, 4.634261420740796, 6.625564166756663, 5.016648196209382, 5.231409540955048], [-9.958646199920135, 19.19224251366485, -3.8647310203470546, -10.424373475948283, 11.481912493921895, 9.510000605079961, -4.110951669143556, -7.71482612949545, -3.0105454340074904, 7.031326657058083, -5.793585699465229, -13.204599204350826], [1.2748877452125904, 18.538326654847786, -18.935003615888693, -7.893751007829246, -5.4983409232528055, -14.121014356371923, 15.760927940773811, 2.5825109303405553, 5.344044777299465, -17.96391203304785, 33.236646575390594, 28.66149233917416], [-4.6448917352004475, -23.1376527758844, 1.750244481881685, 6.173223531991545, -10.887654876012336, -12.142364679632871, 10.679963745588877, 2.5271844342727126, 16.6975288101217, -30.094774319531957, -7.399442997872176, -9.528256294148736]], "weights_ho": [[-6.155245474278151, -10.3421134497382, -0.14069738723499411, -5.088242412938616, 13.225408724244751, -24.72418588480224, 17.22349328254618, 28.088537914605574, 9.777912299807678, -9.813149323095757, -16.288225227458216, 1.920875332699161, -4.308842605727957, -1.5595600876427493, 14.754678841225815, 4.5415573779221114], [-6.107321956723535, -2.0524461083800083, 8.929578743635636, -19.071109079234475, 19.093251831100563, -10.316284146287456, 4.405007148874843, -1.4796018330097893, -10.556787495058337, 5.203490866464971, 17.05343316518879, -37.93207920039144, -4.242663859043526, 6.785509743467869, -19.69498079452395, -7.653903433754668], [3.7221429069292835, -7.821960311334361, -4.5855118231502585, -3.4908211842777432, -8.931244933323802, 7.021179296010292, -4.404977680242359, 0.5513768434247897, 3.874833859734981, 6.044557768979212, 22.13870181697374, -5.5071253112681395, 13.10205338530396, -24.3471426031989, -19.80009205981363, 6.880058346218963], [-2.3249760036830627, 32.50851937187374, -12.965945556193333, 9.295752246308489, -3.3319512881299143, -1.5425448581651284, 11.744072885410892, -2.3687930754568685, 27.727388926079968, -24.797219577853543, 8.500253783473251, -11.045052970038045, -16.222703661587488, -5.899435808130047, -2.81182691844351, 13.714553943009026]], "bias_h": [[-10.776545909112482], [-7.969280975148017], [-11.694147795295773], [-18.25505960998398], [-2.00676416755402], [6.080072191812057], [21.744165042148264], [20.472721326667195], [3.459686819800387], [-0.2233577280259499], [0.44094494355573466], [16.318356464834935], [8.54872664505858], [1.3561381192382065], [12.978174886453925], [7.116093548119214]], "bias_o": [[-4.341276072536494], [-1.0745249928309315], [-11.894084789733755], [-11.889050678394755]]}, {"input_nodes": 12, "hidden_nodes": 16, "output_nodes": 4, "weights_ih": [[0.8363703973973715, 4.965876610498135, -7.970628806721212, -3.815086434323365, 6.956403690801516, -8.294924007619493, 8.763984835324857, 0.4293465809224137, 3.2881568282430806, 0.015063102503432929, -5.794387112947381, -16.709288391691636], [-0.373803794363224, -13.45826558374767, 6.327970920183316, -2.5261496390953186, 13.091804594960205, -4.760311818274179, 16.886731948046467, 9.513262083831453, 1.4552358331165094, -3.977565479844766, -8.981405386157181, 15.762276863539281], [8.46492232942965, 6.163524984927555, -5.228492583900607, 8.629986577635236, -16.146258257809677, -9.727439680665125, 17.00343605962434, -12.086374430799625, 18.23735234454267, -5.8382889293119185, 16.226956226171687, -5.437450189168434], [0.27605415720586834, 24.891182121070024, -21.648151153808552, 3.600704348389871, -3.2601490600555247, -2.916209708296821, -9.147930302232567, 7.811215816385201, 9.880134933500164, -0.3815177815860066, 1.6854093592234471, -18.253572241662717], [2.6557197030529625, -13.410793819930213, -2.9751958473585054, -11.616050649170399, -4.408994893313977, 17.751494959382235, 5.722425459655188, -10.960723651161079, -1.0188461309465637, 9.9375082613412, 3.18411604707754, 2.2428980144149784], [-16.68760543712276, -4.5567424077300736, 15.031685144919756, 2.845260751318409, 6.187199800873273, 20.929489216112472, 21.18593261807392, 3.9907702047404405, 3.68769979033598, -20.54664328073806, -13.151825919620169, -16.630311962563876], [5.715860998647468, -4.583052274841726, -15.621610983116005, 11.123170267882585, 6.2429019555558245, 8.592058041341236, 15.578543948867384, 13.507808401206507, 6.738187667007007, -3.6784317476879655, 5.916338533011687, 7.57434333263733], [2.399092563228899, 3.3272303598321464, -11.286287428306277, -15.959203550879975, -7.242392657262968, 9.200557881035575, -5.4666974415474305, 9.160895291041735, 18.60694368563046, -14.927242272475828, 17.46585666150841, -8.075106230764135], [2.4414295496590954, -19.333904172335, -2.477351177026128, 10.640147985529472, -9.647287430740782, -21.923206174408925, -6.196921750877407, 17.98944929816219, 18.549693463236846, -20.197750409018788, -8.256361460434547, -0.33051616877480416], [6.136778408794625, 0.110812502292475, 17.751769080567335, 4.10173786302699, 0.8022132959411825, 9.079286325387184, 4.360212251062715, -6.718370198855951, 28.003662442681797, -2.5918538086363867, -8.61574787498985, 3.185732958527668], [-10.654089644394908, 11.783590416603307, -0.1683073579358626, -1.3537794959509053, -5.076576299012249, -7.105691813638964, 1.3600041892555403, -12.337193741903338, -7.934801561906638, -7.841223109407825, -4.468305432242796, 17.734336236782628], [10.09340002484849, 4.00800543254069, -4.179749433597478, 7.160930963288066, -11.590244327207099, 7.339980444331367, 13.220285656783421, 5.642055689260652, -13.305784741773275, -19.497278582159392, 4.575025532444084, -2.1440583981759893], [-5.869991088560882, -10.607130657374794, -7.40687993813646, -4.34191757637529, -3.7898757529158997, 38.05814585464771, -7.377667871683159, -3.0997707454461194, 4.777614309721321, 6.616096037812658, 5.158112438983876, 5.287647958332486], [-9.972318982022914, 19.19224251366485, -3.8647310203470546, -10.491816717752846, 11.400434869338222, 9.506363610667114, -4.063533338892379, -7.608840376814798, -2.887911132200711, 6.874353103583403, -5.8454848475009795, -13.232427150896095], [1.1143763058292881, 18.54185429736521, -18.928235987464642, -7.869909483618674, -5.442059003427664, -14.161073918923776, 15.732007480101025, 2.6166357419108763, 5.413324480841789, -18.104168139728436, 33.34000972456818, 28.511966453867924], [-4.703224002752922, -23.09302322508491, 1.7868453187494302, 6.173223531991545, -10.865194932489894, -12.38926720842794, 10.679963745588877, 2.460478324001567, 16.686413809726783, -30.123353914351227, -7.372633643552371, -9.534313586061062]], "weights_ho": [[-6.155245474278151, -10.324102430650498, -0.2178446451504382, -5.088242412938616, 13.49038981087768, -24.72418588480224, 17.277230910388276, 27.890178850568216, 9.856689911510317, -9.94238714726213, -16.13678134859393, 1.6073925065266919, -4.109580077356472, -1.5603148681942822, 14.74732276575439, 4.559233069778934], [-6.107321956723535, -2.162040636996203, 8.929578743635636, -19.049157168069478, 19.093251831100563, -10.316284146287456, 4.342017872527702, -1.4854484139490742, -10.449310395560598, 5.090052954880471, 17.05343316518879, -37.90694110110748, -4.242663859043526, 6.785509743467869, -19.69498079452395, -7.630186522931274], [3.7221429069292835, -7.688527839818592, -4.707636770326972, -3.436051282212145, -8.931244933323802, 6.953775091055316, -4.399210427430489, 0.5513768434247897, 3.874833859734981, 6.053163439149213, 22.132981801975056, -5.347788446649813, 12.989982115166967, -24.638876894704723, -20.01947394258955, 6.880058346218963], [-2.1644549707247815, 32.34038209593756, -12.844501250487601, 9.153629701682034, -3.244769456377771, -1.3076288219846914, 11.79196301287266, -2.3687930754568685, 27.62221224456849, -24.797219577853543, 8.500253783473251, -10.98468832655158, -16.317360226864224, -5.84124215047467, -2.933131250266968, 14.003413808914855]], "bias_h": [[-10.673503702581643], [-7.982939970938368], [-11.841805422765168], [-18.01571570504402], [-2.0262437316614927], [5.943253365899962], [21.72531923123569], [20.449689750292592], [3.459686819800387], [-0.2233577280259499], [0.44094494355573466], [16.26881110799637], [8.655689535115593], [1.295541858668262], [12.978174886453925], [7.116093548119214]], "bias_o": [[-4.290774224763469], [-1.0685446577256976], [-11.981275652917207], [-11.820861325998097]]}, {"input_nodes": 12, "hidden_nodes": 16, "output_nodes": 4, "weights_ih": [[0.8363703973973715, 4.947964744647695, -8.096541384263197, -3.6542274794599128, 6.918517615692193, -8.469407524846675, 8.811850747416823, 0.1810955805898335, 3.0927017481422117, 0.09932313028242354, -5.854199071197221, -16.709288391691636], [-0.373803794363224, -13.387759041944644, 6.17510039235791, -2.6268117254026873, 13.187408250090085, -4.99072576635327, 16.95371030427843, 9.60323321033851, 1.3989806099069666, -3.8642139157784667, -9.033817132019122, 15.667265938191687], [8.383176181405734, 6.1127240810051, -5.23789907699131, 8.51878012344713, -16.144164564447408, -9.77514429305487, 17.08730180573119, -11.856838939665357, 18.23735234454267, -5.611367032252285, 16.226956226171687, -5.392246911928475], [0.20163461691303436, 24.78867031805481, -21.5547573873513, 3.549072533672944, -3.2601490600555247, -3.063988166570173, -9.38363116289411, 7.851293673921367, 9.880134933500164, -0.3815177815860066, 1.7874478931723818, -18.253572241662717], [2.5242626140344897, -13.342958510181264, -2.9949823558959565, -11.616050649170399, -4.341539513475936, 17.751494959382235, 5.722425459655188, -10.934396358913876, -1.0188461309465637, 9.860773223252165, 3.18411604707754, 2.4119199398731097], [-16.777603405534485, -4.5567424077300736, 14.999431385169261, 2.845260751318409, 6.014094601405153, 20.91769332807914, 21.22823748755235, 4.195202902355829, 3.68769979033598, -20.347490848106798, -13.151825919620169, -16.761253219338215], [5.812359157392402, -4.583052274841726, -15.621610983116005, 11.154848864274676, 6.273405236497888, 8.497445029967754, 15.509534885906652, 13.507808401206507, 6.738187667007007, -3.6784317476879655, 5.808537529588624, 7.57434333263733], [2.424665908499116, 3.1385148938549525, -11.301598875009915, -16.008308255808753, -7.196574983764823, 9.088682190650479, -5.618324112603059, 9.209765755888183, 18.60694368563046, -15.039304743233199, 17.46585666150841, -8.033683456078093], [2.4414295496590954, -19.381803573426, -2.4952261890374197, 10.591937143235555, -9.793255249153061, -21.78152109449392, -6.196921750877407, 17.77554865665326, 18.34766081937991, -20.197750409018788, -8.199814920090974, -0.4830580871140606], [6.359755794014441, 0.05100532974671207, 17.664802015493724, 4.1599852185069714, 0.795187326072669, 9.079286325387184, 4.237240205002444, -6.746332587091983, 27.961352037094052, -2.5918538086363867, -8.687706410769144, 3.185732958527668], [-10.654089644394908, 11.783590416603307, -0.14462240775541302, -1.3537794959509053, -4.943404894333426, -7.102419901855516, 1.2807019255578618, -12.344597141968524, -8.019719423292857, -7.842501231812675, -4.343960788644257, 17.854765854809663], [10.009795664919402, 3.9699507287772966, -4.238089686100644, 7.160930963288066, -11.590244327207099, 7.249624873210693, 13.197209456687867, 5.294336490702649, -13.317507253828571, -19.588055754526376, 4.575025532444084, -2.224001964549825], [-5.9176374676082775, -10.607130657374794, -7.091548987644079, -4.34191757637529, -3.846669115451934, 38.15998541782799, -7.378517922438476, -3.0997707454461194, 4.777614309721321, 6.566714554949973, 5.081264765883602, 5.287647958332486], [-9.90962011161662, 19.13918882444284, -4.015027263390832, -10.25903145877796, 11.616696287731473, 9.506363610667114, -4.004382444998793, -7.539443143288414, -2.887911132200711, 6.874353103583403, -5.793585699465229, -13.204599204350826], [1.350232120372498, 18.538326654847786, -18.928235987464642, -7.785986181371206, -5.553789808274511, -13.889140375864018, 15.760927940773811, 2.6451447423467367, 5.344044777299465, -18.104168139728436, 33.236646575390594, 28.415953862419432], [-4.717152674177989, -23.156758265620002, 1.6847965532168965, 6.173223531991545, -10.887654876012336, -12.142361401821628, 10.606158690239864, 2.5224953614652006, 16.6975288101217, -30.125894933014543, -7.399442997872176, -9.534313586061062]], "weights_ho": [[-6.104052915977594, -10.205801180572704, -0.09155991250001749, -5.000683987999386, 13.498211450244792, -24.72418588480224, 17.28172061335165, 28.00477994342656, 9.646557159947504, -9.813149323095757, -16.157208003196477, 1.6389853303252646, -4.109580077356472, -1.5595652231345125, 14.820488749035464, 4.645236316778801], [-6.107321956723535, -2.0524461083800083, 8.812557882190811, -19.071109079234475, 19.093251831100563, -10.316284146287456, 4.3531677844792, -1.332081929938038, -10.44088950626624, 5.203490866464971, 16.96216084405157, -38.01185514519025, -4.242663859043526, 6.785509743467869, -19.69498079452395, -7.6080744742038515], [3.7221429069292835, -7.796686618716066, -4.687571855279519, -3.3427363905224245, -8.931244933323802, 7.05552689855216, -4.404977680242359, 0.5541168212073846, 3.96477322985983, 5.986389591482633, 22.13870181697374, -5.48658438867858, 12.989982115166967, -24.364041406571886, -19.977051530503864, 6.974150401634434], [-2.3249760036830627, 32.520364840841665, -12.802839393079978, 9.315258340858177, -3.063818973148592, -1.2395085438370463, 11.912751039924263, -2.3687930754568685, 27.804973033705807, -24.797219577853543, 8.412843220488629, -10.98468832655158, -16.387455963732652, -5.899435808130047, -2.81182691844351, 13.97254007093102]], "bias_h": [[-10.633761958089723], [-7.962304852734749], [-11.812077303422063], [-17.87515493737932], [-2.0262437316614927], [5.9615363629249325], [21.688822581331568], [20.375100998832647], [3.459686819800387], [-0.178876512938113], [0.4248259902921301], [16.329927364425686], [8.525508523873222], [1.3561381192382065], [12.978174886453925], [7.116093548119214]], "bias_o": [[-4.341276072536494], [-1.0745249928309315], [-11.987631749000284], [-11.733226151396448]]}, {"input_nodes": 12, "hidden_nodes": 16, "output_nodes": 4, "weights_ih": [[0.8363703973973715, 4.965876610498135, -7.970628806721212, -3.815086434323365, 6.861863168394453, -8.360025200793713, 8.711543003978155, 0.1810955805898335, 3.1409919014818777, 0.09932313028242354, -5.92526662479873, -16.889897845887237], [-0.31743131083611326, -13.636659983697845, 6.315883365964707, -2.5261496390953186, 12.997465923333095, -4.943471328976445, 16.872674341980257, 9.60323321033851, 1.3989806099069666, -3.977565479844766, -8.981405386157181, 15.667265938191687], [8.453622406783406, 5.954337992822127, -5.23656179930016, 8.599695767109646, -16.20126983114151, -9.727439680665125, 17.090239553293234, -11.97797726372674, 18.21798556394808, -5.644369121555963, 16.203935928754422, -5.437450189168434], [0.07127635187167114, 24.978431453607392, -21.60147999945822, 3.4397896720514267, -3.1665910340407217, -2.918652903709322, -9.240444258775618, 8.020128794021895, 9.880134933500164, -0.3815177815860066, 1.8536588055602687, -18.253572241662717], [2.5377137238374763, -13.419077444985144, -3.0443644737935673, -11.7207483866532, -4.379599388114176, 17.50433076944737, 5.722425459655188, -10.960723651161079, -1.0188461309465637, 10.027699268019209, 3.2471915187492137, 2.2830335987813104], [-16.787625711078636, -4.426382069098173, 15.10179137708659, 2.970286701215578, 6.09613751884932, 20.843511811696334, 21.18593261807392, 4.3469753530397846, 3.747399219512325, -20.40454953202358, -13.151825919620169, -16.685200202115407], [5.715860998647468, -4.614860881110926, -15.621610983116005, 11.154848864274676, 6.486685307339959, 8.502751205679067, 15.509534885906652, 13.507808401206507, 6.738187667007007, -3.6880053922046354, 5.808537529588624, 7.6720881989595835], [2.399092563228899, 3.19304528992313, -11.301598875009915, -15.963580217245369, -7.1427461651164315, 9.299461808833533, -5.637414534630792, 8.961620866812813, 18.338950720500407, -15.039304743233199, 17.48882857985266, -8.001768417681353], [2.4414295496590954, -19.399617319728083, -2.477351177026128, 10.607695422369595, -9.770540698139405, -21.852641084728116, -6.196921750877407, 17.603276559773178, 18.55891275175457, -20.197750409018788, -8.600866892528297, -0.4830580871140606], [6.440066460407339, 0.1549595353986232, 17.860435923603998, 4.187974983613475, 0.9545620143187226, 9.079286325387184, 4.360212251062715, -6.848612946950275, 28.003662442681797, -2.5918538086363867, -8.55901350194984, 3.185732958527668], [-10.71442620633356, 11.922177059658361, -0.1689180157996106, -1.3177378239804831, -4.943404894333426, -7.066543334597247, 1.2921864268200176, -12.252337595340522, -8.019719423292857, -7.82653183372342, -4.565016484334959, 17.84743421710364], [10.009795664919402, 3.915237433550256, -4.018129199171475, 7.160930963288066, -11.590244327207099, 7.235330985799085, 13.269257811945904, 5.413591667343072, -13.305784741773275, -19.59262723186258, 4.575025532444084, -2.224001964549825], [-5.747650797888139, -10.516394916918914, -7.091548987644079, -4.410195432679134, -3.7863638507370734, 37.9336971416604, -7.378517922438476, -3.11222909415522, 4.807732321961393, 6.666892865132228, 5.0927277825439266, 5.248034259342383], [-10.091130236238397, 19.19224251366485, -3.8647310203470546, -10.476401336791406, 11.400434869338222, 9.578467188107018, -4.063533338892379, -7.683480126877256, -2.887911132200711, 6.786195589716151, -5.836726185685121, -13.204599204350826], [1.4002178399078815, 18.538326654847786, -18.920693575463297, -7.869909483618674, -5.3590526636064775, -14.161073918923776, 15.760927940773811, 2.5039605113352765, 5.392478636396606, -18.104168139728436, 33.21276253024127, 28.642958519877105], [-4.645512735726937, -23.09302322508491, 1.764127762875888, 6.173223531991545, -10.951203217559563, -12.143854651880956, 10.56778879304257, 2.5271844342727126, 16.6975288101217, -30.094774319531957, -7.28526535876146, -9.5379713735507]], "weights_ho": [[-6.15301596230106, -10.324102430650498, -0.19122820700789261, -5.167753525124973, 13.508644399270748, -24.72418588480224, 17.2047225943897, 28.01285096118198, 9.666907211504757, -9.655266539599456, -16.178922286593778, 1.9259138300452465, -4.109580077356472, -1.5595600876427493, 14.768937341116976, 4.559233069778934], [-6.182099775386026, -1.9914079358118884, 8.785962001412983, -19.071109079234475, 19.134788648726797, -10.316284146287456, 4.272874389224799, -1.4965895393826392, -10.44088950626624, 5.094509109377471, 17.00100984373477, -38.0306620362249, -4.3146009463841954, 6.785509743467869, -19.69498079452395, -7.5375641344975035], [3.7221429069292835, -7.658570282794338, -4.802845163037908, -3.4277632161705966, -8.835341637656303, 7.021179296010292, -4.5401408084546135, 0.5983210878844867, 3.874833859734981, 5.986389591482633, 22.09343988224075, -5.481152900127084, 12.989982115166967, -24.41851153898059, -19.977051530503864, 6.895749258131833], [-2.436634163729189, 32.50855985908673, -12.730957612536075, 9.435310478882352, -3.244769456377771, -1.3076288219846914, 11.802165791913964, -2.4118994154600566, 27.692978801065408, -24.774458112313326, 8.473526131960432, -11.092105929984626, -16.222703661587488, -5.781253053121188, -2.96355801810878, 13.97254007093102]], "bias_h": [[-10.559225259007077], [-7.969280975148017], [-11.643415357587589], [-18.01571570504402], [-2.010656102845114], [6.113255461266139], [21.688822581331568], [20.389837616552416], [3.5072925884638577], [-0.32808795851072675], [0.44094494355573466], [16.25979886809743], [8.54872664505858], [1.3561381192382065], [12.787133084463202], [7.143002401057239]], "bias_o": [[-4.231000435000946], [-1.0230739759656855], [-12.079762757172698], [-11.898126586550289]]}, {"input_nodes": 12, "hidden_nodes": 16, "output_nodes": 4, "weights_ih": [[0.8363703973973715, 4.916585063551749, -7.970628806721212, -3.815086434323365, 6.918517615692193, -8.294924007619493, 8.899649238727966, 0.16525185361502445, 3.1433558054385617, -0.08248816924420069, -5.854199071197221, -16.709288391691636], [-0.373803794363224, -13.565555944054417, 6.081901350253051, -2.5261496390953186, 13.096585147577853, -4.943471328976445, 16.95371030427843, 9.60323321033851, 1.5064154640974583, -4.001206654485781, -8.976006096367778, 15.667265938191687], [8.46492232942965, 6.164526184047888, -5.228492583900607, 8.55761203216201, -16.164607700175893, -9.68836335352346, 17.090239553293234, -12.10079192561994, 18.23735234454267, -5.7531981848532565, 16.1536983666721, -5.381962328305457], [0.20163461691303436, 24.978431453607392, -21.652341339835527, 3.600704348389871, -3.2601490600555247, -2.9341308423763293, -9.352953279009201, 7.818443427837497, 9.880134933500164, -0.4646372375547768, 1.7459586072235047, -18.216613253690404], [2.6899339599324987, -13.410793819930213, -3.2974070690345454, -11.518921075310548, -4.379599388114176, 17.751494959382235, 5.722425459655188, -10.960723651161079, -1.0188461309465637, 9.86681325254423, 3.18411604707754, 2.329684924679709], [-16.777603405534485, -4.5567424077300736, 15.105009145637728, 3.021203654655401, 6.09613751884932, 20.843511811696334, 21.245860121768484, 4.195202902355829, 3.68769979033598, -20.27820322834208, -13.220411830266391, -16.617194748763044], [5.587322106912373, -4.583052274841726, -15.624778436656012, 11.154848864274676, 6.273405236497888, 8.576246034289337, 15.509534885906652, 13.460195834122603, 6.802982446888822, -3.7135721620119404, 5.808537529588624, 7.57434333263733], [2.1858432049264143, 3.1385148938549525, -11.301598875009915, -16.076500830306752, -7.313608376761211, 9.200557881035575, -5.603645151245946, 9.160895291041735, 18.679036889359004, -15.039304743233199, 17.28134135739003, -8.024337854051666], [2.4414295496590954, -19.381803573426, -2.477351177026128, 10.683040553222998, -9.804190297977033, -21.952432650575716, -6.196921750877407, 17.835248837433966, 18.53013827766609, -20.197750409018788, -8.174592050484625, -0.4830580871140606], [6.279260014177335, 0.14076305380275428, 17.676767022655167, 4.061288736921233, 0.8022132959411825, 9.079286325387184, 4.462214188750744, -6.8523674160250785, 28.08230807125653, -2.5918538086363867, -8.724858104538564, 2.8742964619048283], [-10.624772628912595, 11.772270054841576, -0.14462240775541302, -1.469633172991574, -4.941403070126328, -7.004963379405942, 1.3600041892555403, -12.472860625130819, -8.142808866965781, -7.754424725170001, -4.348756998513042, 17.84743421710364], [10.197887091438533, 3.746347874854934, -4.139284150669372, 7.2836336397863946, -11.590244327207099, 7.329611499597852, 13.197209456687867, 5.413591667343072, -13.305784741773275, -19.61779233069603, 4.641853837283261, -2.2170348241881697], [-5.87141436912041, -10.607130657374794, -7.135315705325521, -4.34191757637529, -4.056775587328913, 38.05814585464771, -7.378517922438476, -3.0997707454461194, 4.653442313128208, 6.625564166756663, 5.081264765883602, 5.111226829181048], [-9.96789196401433, 19.183600038902167, -3.942973795822078, -10.415620973609688, 11.400434869338222, 9.506363610667114, -4.063533338892379, -7.539443143288414, -2.887911132200711, 6.874353103583403, -5.844225434433071, -13.219614696096071], [1.3430675451520666, 18.657364683310067, -18.73976505167869, -7.869909483618674, -5.620494431790892, -14.110760254784285, 15.760927940773811, 2.404305142858791, 5.1856708425345115, -18.074229711193762, 33.236646575390594, 28.511966453867924], [-4.520002946477091, -23.09302322508491, 1.7868453187494302, 6.215320235363579, -10.976999379451426, -11.978629010746637, 10.679963745588877, 2.5271844342727126, 16.617696325564356, -30.094774319531957, -7.545163273302429, -9.475260891994246]], "weights_ho": [[-6.155245474278151, -10.324102430650498, -0.23903367435067843, -5.022472612316791, 13.429674971572101, -24.72418588480224, 17.209950983948072, 28.00477994342656, 9.777912299807678, -9.822388859169669, -16.278645855447945, 1.8143540708164199, -4.067456772023783, -1.578662850428382, 14.768937341116976, 4.559233069778934], [-6.09037498645922, -2.1045869519544986, 8.929578743635636, -19.05826438418606, 19.093251831100563, -10.316284146287456, 4.229083929568112, -1.3813627063202722, -10.44088950626624, 5.203490866464971, 16.922580586267568, -37.93207920039144, -4.242663859043526, 6.785509743467869, -19.69498079452395, -7.566767254221664], [3.7221429069292835, -7.924474861978236, -4.495597397033289, -3.4277632161705966, -8.931244933323802, 7.021179296010292, -4.404977680242359, 0.7036271960753289, 3.874833859734981, 5.986389591482633, 22.13870181697374, -5.481152900127084, 12.767078074778974, -24.2963226733132, -20.114023949561574, 6.8147276452733525], [-2.3249760036830627, 32.586926674309865, -12.849578417281718, 9.296524352334844, -3.224964379668742, -1.3076288219846914, 11.802165791913964, -2.3687930754568685, 27.72687925546746, -25.009161115694013, 8.500253783473251, -10.941370999769779, -16.165798130924514, -5.78792658015498, -2.81182691844351, 13.936354489309913]], "bias_h": [[-10.673503702581643], [-8.02617607145941], [-11.966794755211028], [-17.92527754705002], [-2.031721079433057], [5.954738083603002], [21.688822581331568], [20.467724581754062], [3.459686819800387], [-0.2233577280259499], [0.42506770970889324], [16.26881110799637], [8.681402082322512], [1.3561381192382065], [12.978174886453925], [7.204703465666836]], "bias_o": [[-4.278362517143237], [-1.0745249928309315], [-11.981275652917207], [-11.835425370771043]]}, {"input_nodes": 12, "hidden_nodes": 16, "output_nodes": 4, "weights_ih": [[0.9565440126191582, 4.840824987425311, -7.970628806721212, -3.7057913646510467, 6.980658407531001, -8.348399323752012, 8.825840210094574, -0.01763354765270231, 3.1514760567298543, 0.06820339861179257, -5.854199071197221, -16.87266898576431], [-0.48051771013708594, -13.565555944054417, 6.218662465034265, -2.4269017438586045, 13.096585147577853, -4.943471328976445, 16.95371030427843, 9.624513682943299, 1.2644457360629597, -3.977565479844766, -8.981405386157181, 15.696216968564787], [8.46492232942965, 6.009751269021038, -5.192834475024534, 8.599695767109646, -16.174736906001087, -9.727439680665125, 17.264244742016306, -12.11056045139875, 18.23735234454267, -5.7531981848532565, 16.355223137955253, -5.437450189168434], [0.28456962576540445, 24.936804061217277, -21.5547573873513, 3.600704348389871, -3.1927435522472773, -2.708132991665069, -9.240444258775618, 7.818443427837497, 9.880134933500164, -0.2172670500635363, 1.7459586072235047, -18.354157960125793], [2.6930957081416964, -13.410793819930213, -2.9881233309029525, -11.726778641719541, -4.450901515538516, 17.53518151308763, 5.716884194456685, -10.960723651161079, -1.1425977102931042, 9.860773223252165, 3.2146409398646916, 2.043090903179178], [-16.777603405534485, -4.511546805702037, 15.182694418191025, 2.845260751318409, 5.933816407100927, 20.715203123191507, 21.154005830471256, 4.206397441326364, 3.68769979033598, -20.557593192128397, -13.151825919620169, -16.617194748763044], [5.715860998647468, -4.709567980905301, -15.547093054801818, 11.154848864274676, 6.238797364046467, 8.676721245850002, 15.622026416858244, 13.507808401206507, 6.738187667007007, -3.7807787979884178, 5.84882344273773, 7.57434333263733], [2.399092563228899, 3.191268610406648, -11.376894506767364, -15.959203550879975, -6.998330978669254, 9.200557881035575, -5.509858746631887, 9.218371136804024, 18.60694368563046, -14.969564473659007, 17.47629282550971, -8.001768417681353], [2.4414295496590954, -19.42608039577266, -2.477351177026128, 10.53690455880577, -9.770540698139405, -21.923206174408925, -6.1567674988075884, 17.835248837433966, 18.516190927985754, -20.197750409018788, -8.359924112301972, -0.4882154205568031], [6.364389306708571, 0.2325460771848623, 17.65186110204194, 4.10173786302699, 0.9612323617690207, 9.079286325387184, 4.316742231138377, -6.56281591386132, 28.003662442681797, -2.566926253724454, -8.695877630318098, 3.299245235787204], [-10.561335369581196, 11.715236849817142, -0.14462240775541302, -1.198330057410649, -4.943404894333426, -6.925114276934336, 1.2480100123364042, -12.337193741903338, -8.019719423292857, -7.880388196339216, -4.462196616998442, 17.84743421710364], [9.741957471180703, 3.8607394248201086, -4.128264835735443, 7.160930963288066, -11.75073093620027, 7.329611499597852, 13.197209456687867, 5.329432573541797, -13.436537939840902, -19.59262723186258, 4.575025532444084, -2.2581004236323357], [-5.882143752833225, -10.67833120201871, -7.220832521865524, -4.048174676814336, -3.953782258774014, 38.05814585464771, -7.378517922438476, -3.144558399369491, 4.762622662597157, 6.625564166756663, 5.001873230828246, 5.305895309315805], [-9.902532623803225, 19.19224251366485, -3.8647310203470546, -10.325936035539947, 11.400434869338222, 9.457774180086556, -4.035226679983064, -7.53353012503934, -3.032905970306671, 6.874353103583403, -5.786965590341142, -13.204599204350826], [1.1994985909513476, 18.54567965477745, -18.830598032546906, -7.869909483618674, -5.4711517003668995, -14.161073918923776, 15.6593049916232, 2.5349426042608205, 5.344044777299465, -17.96774498964629, 33.15364958373292, 28.226419566067253], [-4.703224002752922, -23.09302322508491, 1.834467473404127, 6.173223531991545, -10.79691531186246, -12.141509719399584, 10.739432390491332, 2.5516296546254384, 16.6975288101217, -30.094774319531957, -7.517421546016014, -9.534313586061062]], "weights_ho": [[-6.230562877809202, -10.324102430650498, -0.34043711286813627, -5.088242412938616, 13.411831281884599, -24.72418588480224, 17.191425839107335, 28.046009236906773, 9.790945649551151, -9.813149323095757, -16.1574985379395, 1.7825643327756941, -4.040583183687398, -1.5595600876427493, 14.6376406545998, 4.540749729516909], [-6.1090440414512015, -2.0524461083800083, 8.870687912881356, -19.071109079234475, 19.17331042319379, -10.316284146287456, 4.272874389224799, -1.4965895393826392, -10.44088950626624, 5.203490866464971, 17.05343316518879, -37.93207920039144, -4.217176943164076, 6.785509743467869, -19.644781468513358, -7.534791930321572], [3.763090819224885, -7.796686618716066, -4.728721598470389, -3.568592048631203, -8.931244933323802, 7.139922568767551, -4.404977680242359, 0.5513768434247897, 3.874833859734981, 5.986389591482633, 22.05984111032027, -5.481152900127084, 12.989982115166967, -24.5459720292296, -19.977051530503864, 6.88119380607854], [-2.2813721218415193, 32.52516572105844, -12.844501250487601, 9.368635122067799, -3.3243850127518018, -1.3147914600059236, 11.923555879762246, -2.5001648404672445, 27.804973033705807, -24.795979336108473, 8.550073750369396, -11.16506770234616, -16.276420892735047, -5.899435808130047, -2.816762367027932, 14.123535181212924]], "bias_h": [[-10.838960352521575], [-8.097454664331979], [-11.812077303422063], [-18.01571570504402], [-2.0262437316614927], [5.954738083603002], [21.62050703487854], [20.375100998832647], [3.579652427881528], [-0.37612221800446666], [0.4534742775311394], [16.26881110799637], [8.54872664505858], [1.2708988646335029], [12.978174886453925], [7.116093548119214]], "bias_o": [[-4.341276072536494], [-1.0745249928309315], [-11.981275652917207], [-11.858563853944176]]}, {"input_nodes": 12, "hidden_nodes": 16, "output_nodes": 4, "weights_ih": [[0.7347830370144816, 5.017159863366843, -7.970628806721212, -3.815086434323365, 6.918517615692193, -8.294924007619493, 8.811850747416823, 0.16101131182451364, 2.951702891416521, 0.09932313028242354, -5.854199071197221, -16.666131927245015], [-0.41487561199457484, -13.611539676475338, 6.213300964693502, -2.5261496390953186, 13.09077661756745, -4.943471328976445, 16.80067432321661, 9.650427201123271, 1.4142667205618853, -3.977565479844766, -8.981405386157181, 15.578915807766478], [8.46492232942965, 6.157258377599235, -5.228492583900607, 8.582028197580694, -16.133593376002587, -9.727439680665125, 17.090239553293234, -12.007262754774796, 18.23735234454267, -5.7531981848532565, 16.243611513285312, -5.415420014749465], [0.33199484965782167, 25.035448464039487, -21.416637759443077, 3.600704348389871, -3.2601490600555247, -2.918652903709322, -9.240444258775618, 7.818443427837497, 9.880134933500164, -0.4710561848730233, 1.7459586072235047, -18.300727608247065], [2.4558420740327622, -13.410793819930213, -2.942333432530258, -11.934765314618657, -4.379599388114176, 17.751494959382235, 5.722425459655188, -10.949471577912007, -1.0188461309465637, 9.860773223252165, 3.18411604707754, 2.3232572650135572], [-16.819377747546053, -4.5567424077300736, 15.10179137708659, 2.845260751318409, 6.09613751884932, 20.80163167242829, 21.18593261807392, 4.180195835561491, 3.56197423993862, -20.40454953202358, -13.151825919620169, -16.617194748763044], [5.612603792303164, -4.583052274841726, -15.656401305308483, 11.154848864274676, 6.039337100113262, 8.581790380558864, 15.583369384302113, 13.542001973588187, 6.822176716162523, -3.6784317476879655, 5.817239411047791, 7.57434333263733], [2.399092563228899, 3.1385148938549525, -11.301598875009915, -15.854920106767256, -7.265679532989144, 9.370464107675641, -5.732129383744303, 9.160895291041735, 18.563359445606288, -15.279397976490742, 17.46585666150841, -7.876529048650477], [2.4414295496590954, -19.381803573426, -2.39836560912637, 10.636397763624524, -9.771133108389456, -21.923206174408925, -6.196921750877407, 17.76286093171777, 18.330926410360174, -20.197750409018788, -8.072969934175578, -0.31991009445595264], [6.359755794014441, 0.110812502292475, 17.65186110204194, 4.10173786302699, 0.8084273608547482, 8.89831401973005, 4.360212251062715, -6.658755747837163, 28.003662442681797, -2.5918538086363867, -8.695877630318098, 3.3238500941292908], [-10.654089644394908, 11.792125539410183, -0.056887849428773465, -1.3252172345776152, -4.938854135748136, -7.102419901855516, 1.2986007885366035, -12.588963108433003, -7.93735073270735, -7.841223109407825, -4.501383182409591, 17.84743421710364], [10.009795664919402, 3.8607394248201086, -4.128264835735443, 7.160930963288066, -11.590244327207099, 7.309193501821967, 13.197209456687867, 5.413591667343072, -13.305784741773275, -19.566609888307358, 4.552003246531442, -2.224001964549825], [-6.122042262910745, -10.607130657374794, -7.013952015340607, -4.267043640196363, -3.846669115451934, 38.00502180323841, -7.46159984780773, -3.072809011767063, 4.777614309721321, 6.625564166756663, 5.170413823808504, 5.287647958332486], [-10.08231786217452, 19.19224251366485, -4.057675876859205, -10.424373475948283, 11.400434869338222, 9.458222513265133, -4.063533338892379, -7.576376407283551, -2.887911132200711, 6.874353103583403, -5.793585699465229, -13.129528901618368], [1.2748877452125904, 18.538326654847786, -18.928235987464642, -7.856876940988745, -5.569602918526784, -14.161073918923776, 15.701460198570919, 2.574111703555367, 5.295083920015242, -18.147782386146552, 33.236646575390594, 28.511966453867924], [-4.703224002752922, -23.245800365883483, 1.949754388115223, 6.243018138883132, -10.829459481875467, -12.190757232684517, 10.688176966878329, 2.3604590599911845, 16.623736592042945, -30.320165697147115, -7.3908490643483296, -9.691815501075226]], "weights_ho": [[-6.155245474278151, -10.257585423183066, -0.03973037584195474, -4.99121445861972, 13.378237459418148, -24.72418588480224, 17.22349328254618, 28.00477994342656, 9.806552732569001, -9.813149323095757, -16.157208003196477, 1.8229184357076216, -4.109580077356472, -1.5887903332162352, 14.768937341116976, 4.559233069778934], [-6.173809385957655, -2.0524461083800083, 8.929578743635636, -19.071109079234475, 19.212357291434298, -10.316284146287456, 4.298309585178865, -1.4965895393826392, -10.44088950626624, 5.243800714383474, 17.06608707507294, -37.93207920039144, -4.242663859043526, 6.688276740945032, -19.779280972123296, -7.6080744742038515], [3.7221429069292835, -7.854621950362313, -4.6999989614621684, -3.340674602226452, -8.736013159462756, 6.969242379591331, -4.558400410126688, 0.6389236766220048, 3.874833859734981, 5.887306567064309, 21.96725773187704, -5.6572072402069615, 12.972713023055052, -24.450444147055613, -19.98277000399438, 6.865326841496914], [-2.342229308732722, 32.601240944712615, -12.95323181497673, 9.278652280385158, -3.1964259545926508, -1.2277246433458602, 11.865891766017967, -2.4347237980831418, 27.804973033705807, -24.717695933975847, 8.500253783473251, -11.017517059428222, -16.097528222353812, -5.899435808130047, -2.81182691844351, 13.985063327210893]], "bias_h": [[-10.738086102302832], [-7.931499861609846], [-11.812077303422063], [-18.08511916016747], [-2.0262437316614927], [5.954738083603002], [21.568348133118132], [20.536880849224566], [3.4984849843055814], [-0.09764756343564268], [0.44094494355573466], [16.26881110799637], [8.54872664505858], [1.3457340139308742], [12.978174886453925], [7.139525654658525]], "bias_o": [[-4.341276072536494], [-1.0745249928309315], [-11.842653035733317], [-11.843503728298387]]}, {"input_nodes": 12, "hidden_nodes": 16, "output_nodes": 4, "weights_ih": [[0.8363703973973715, 4.965876610498135, -7.972641580001798, -3.7217081234240537, 6.918517615692193, -8.267078579686215, 8.811850747416823, 0.1810955805898335, 3.100329408195767, 0.09932313028242354, -5.82367358732244, -16.709288391691636], [-0.41244980807388276, -13.565555944054417, 6.199175805094425, -2.5180661270582845, 13.096585147577853, -4.943471328976445, 16.95371030427843, 9.60323321033851, 1.2767326488268167, -3.880051206209294, -8.97277019444913, 15.597177948735254], [8.532674817666937, 6.1127240810051, -5.228492583900607, 8.54610572319028, -16.11206944017471, -9.727439680665125, 17.090239553293234, -12.064147861265315, 18.22779818147032, -5.691219679992075, 16.23491018150834, -5.437450189168434], [0.2541246526518036, 25.054532294944167, -21.597742903730733, 3.658389306693056, -3.2601490600555247, -2.918652903709322, -9.24035049902633, 7.818443427837497, 9.88496792788657, -0.3815177815860066, 1.7459586072235047, -18.253572241662717], [2.590035152566955, -13.232995849947779, -3.1395641856616834, -11.616050649170399, -4.379599388114176, 17.809717862382254, 5.6809769302875175, -11.022835139023787, -1.0188461309465637, 9.860773223252165, 2.943908430748394, 2.2428980144149784], [-16.511265922646093, -4.5665130525984505, 15.099255847169031, 2.7936251031474546, 6.09613751884932, 20.8574933621623, 21.18593261807392, 4.195202902355829, 3.7298463442459324, -20.431173914345205, -13.151825919620169, -16.57204285408397], [5.715860998647468, -4.6696961961977, -15.621610983116005, 11.07764666000689, 6.121804869437913, 8.667422651256084, 15.509534885906652, 13.31093493750825, 6.807440211757603, -3.859334940852738, 5.808537529588624, 7.444450750900078], [2.399092563228899, 3.1385148938549525, -11.301598875009915, -15.963365741611836, -7.1427461651164315, 9.200557881035575, -5.546331249993214, 9.100981511512938, 18.54351158676927, -15.039304743233199, 17.31646318775503, -8.001768417681353], [2.5132094701739094, -19.381803573426, -2.4984620012026775, 10.591937143235555, -9.804518177124788, -21.748362381209276, -6.171449106952072, 17.835248837433966, 18.53013827766609, -20.197750409018788, -8.157610813778266, -0.4788883839057056], [6.135926915052741, 0.110812502292475, 17.849676890511102, 4.10173786302699, 0.810376654258143, 9.079286325387184, 4.360212251062715, -6.807712278651702, 28.0956579287962, -2.5918538086363867, -8.695877630318098, 3.185732958527668], [-10.654089644394908, 11.929503532471436, -0.14462240775541302, -1.3537794959509053, -4.943404894333426, -7.159471806779739, 1.3600041892555403, -12.337193741903338, -7.950434098906817, -7.834541581085179, -4.571527891618643, 17.84743421710364], [10.009795664919402, 3.8607394248201086, -4.128264835735443, 7.160930963288066, -11.612324468713334, 7.337174031527847, 13.197209456687867, 5.413591667343072, -13.477644676512774, -19.59262723186258, 4.664689449142322, -2.224001964549825], [-5.97220541561229, -10.463843981924601, -7.146578208494706, -4.34191757637529, -3.846669115451934, 38.05814585464771, -7.354445194231248, -3.138965796437902, 4.777614309721321, 6.497937177808968, 5.081264765883602, 5.249535847739185], [-9.902532623803225, 19.19224251366485, -3.8647310203470546, -10.424373475948283, 11.400434869338222, 9.46022343310147, -4.227233294080903, -7.379534205198638, -2.823536802020656, 6.767142109236936, -5.793585699465229, -13.230424871174284], [0.9946519810450708, 18.632362844922984, -18.996262548480342, -7.869909483618674, -5.650964591515513, -13.868575561619888, 15.760927940773811, 2.6362625269567603, 5.344044777299465, -18.104168139728436, 33.24121670555017, 28.578569713927866], [-4.703224002752922, -23.09302322508491, 1.7136382183719763, 6.2305157527852755, -10.887654876012336, -12.208826990986365, 10.677970659392143, 2.2809961706572204, 16.6975288101217, -30.103542790950886, -7.394041477754797, -9.534313586061062]], "weights_ho": [[-6.234784455428432, -10.197216495016779, -0.14069738723499411, -5.088242412938616, 13.411831281884599, -24.747042168537714, 17.271543667233203, 27.9065793734516, 9.748296333336882, -9.972408691639224, -16.157208003196477, 1.7426251459219901, -3.9177324995068887, -1.5595600876427493, 14.562671765531539, 4.559233069778934], [-6.125489683520123, -2.1193713282455806, 9.010603978846431, -19.139255971777658, 19.310564254109966, -10.316284146287456, 4.272874389224799, -1.4965895393826392, -10.44088950626624, 5.146627377583163, 17.245889334648577, -37.93207920039144, -4.242663859043526, 6.750671321684574, -19.882416858064957, -7.741582117873061], [3.7221429069292835, -7.796686618716066, -4.728721598470389, -3.463957895345459, -8.863786111053612, 7.021179296010292, -4.258619909021291, 0.49584340598884874, 3.874833859734981, 5.986389591482633, 21.952662031083396, -5.375625943342646, 12.989982115166967, -24.423985390142, -19.977051530503864, 7.010798523188667], [-2.3249760036830627, 32.520364840841665, -12.835120114389378, 9.296524352334844, -3.244769456377771, -1.3076288219846914, 11.802165791913964, -2.2950965285529703, 27.80060569047875, -24.7037828911528, 8.500253783473251, -11.009911592937117, -16.367374477873746, -5.899435808130047, -2.899146183227828, 13.87964796846071]], "bias_h": [[-10.673503702581643], [-7.969280975148017], [-11.812077303422063], [-18.182205554614264], [-2.124525309607597], [5.954738083603002], [21.68558496896476], [20.368220978776097], [3.405546374651309], [-0.30552440157476174], [0.44094494355573466], [16.20993748265174], [8.509485938712034], [1.3702189502656044], [12.90108522525138], [6.987688091956058]], "bias_o": [[-4.543848076681782], [-1.0745249928309315], [-11.975257342978905], [-11.909448521466706]]}, {"input_nodes": 12, "hidden_nodes": 16, "output_nodes": 4, "weights_ih": [[0.8363703973973715, 4.965876610498135, -7.921730925991783, -3.9190182120807995, 7.119346613782206, -8.294924007619493, 8.758531609524372, 0.19826756302895698, 3.0927017481422117, 0.09932313028242354, -5.6835515652729685, -16.757399046378566], [-0.373803794363224, -13.565555944054417, 6.156928591159791, -2.4914899614362165, 13.096585147577853, -4.943471328976445, 16.95371030427843, 9.60323321033851, 1.3989806099069666, -3.977565479844766, -9.159409802443946, 15.519630473055233], [8.444194534780058, 6.1127240810051, -5.3162867280872685, 8.762592456481904, -16.174736906001087, -9.727439680665125, 17.16557282665937, -12.069196002814406, 18.22972984299711, -5.7531981848532565, 16.226956226171687, -5.437450189168434], [0.20163461691303436, 24.978431453607392, -21.557853257762773, 3.5757201257667113, -3.1323273586866933, -2.918652903709322, -9.240444258775618, 7.824365740730974, 9.880134933500164, -0.3815177815860066, 1.7459586072235047, -18.253572241662717], [2.5377137238374763, -13.410793819930213, -3.0443644737935673, -11.692557506556449, -4.379599388114176, 17.939752620259075, 5.722425459655188, -11.034282236292306, -1.0188461309465637, 9.860773223252165, 3.202323124521372, 2.175701848550353], [-16.6758801193596, -4.5567424077300736, 15.14711792895322, 2.845260751318409, 6.354309772042157, 20.843511811696334, 21.18593261807392, 4.143541843835416, 3.7105446068426646, -20.40454953202358, -13.151825919620169, -16.617194748763044], [5.89475427806062, -4.583052274841726, -15.656777555607572, 11.11649910069886, 6.300521148955392, 8.601380142056506, 15.509534885906652, 13.507808401206507, 6.904004935500259, -3.4746597267985004, 5.807727362933133, 7.615073075455617], [2.331374687801953, 3.0719965667172655, -11.24906140154082, -15.959203550879975, -7.1427461651164315, 9.161568298964237, -5.509858746631887, 9.160895291041735, 18.60694368563046, -15.039304743233199, 17.46585666150841, -8.001768417681353], [2.4951774298065543, -19.395220708161222, -2.477351177026128, 10.591937143235555, -9.799174315701459, -21.91635858637469, -6.196921750877407, 17.835248837433966, 18.47404070425047, -20.197750409018788, -8.256361460434547, -0.4830580871140606], [6.369148552817488, 0.14806793533493912, 17.619274934275275, 4.370958094329589, 0.8022132959411825, 9.133902081471582, 4.327662488409631, -6.746332587091983, 27.812886839263957, -2.5918538086363867, -8.616990745454281, 3.185732958527668], [-10.654089644394908, 11.646147717142268, -0.029189666003839154, -1.21463347734875, -4.9084473419627805, -7.102419901855516, 1.374889710608583, -12.337193741903338, -8.019719423292857, -7.922274242699795, -4.462196616998442, 17.84743421710364], [10.009795664919402, 3.8724686495452785, -4.155491932427758, 7.075701136094258, -11.592253914212815, 7.329611499597852, 13.178891215530676, 5.413591667343072, -13.221517841062074, -19.59262723186258, 4.566798263582664, -2.224001964549825], [-5.897292940501137, -10.607130657374794, -6.9206604927891044, -4.396486012032383, -3.846669115451934, 38.113182446993385, -7.378517922438476, -3.1979095611996255, 4.688888629260914, 6.546180764156102, 5.047623281952629, 5.287647958332486], [-9.793696890211107, 19.239088872853213, -3.8647310203470546, -10.424373475948283, 11.400434869338222, 9.506363610667114, -4.063533338892379, -7.5983317641046515, -2.743664871112435, 6.874353103583403, -5.793585699465229, -13.15012946389509], [1.2494543838580694, 18.680379549145254, -18.98879730077742, -7.869909483618674, -5.390858841997379, -14.161073918923776, 15.856776196776124, 2.574111703555367, 5.344044777299465, -18.104168139728436, 33.236646575390594, 28.511966453867924], [-4.594027086766369, -23.14565664066668, 1.8453999292902792, 6.173223531991545, -10.887654876012336, -12.065617335737565, 10.679963745588877, 2.4188840343043387, 16.6975288101217, -30.121588763620014, -7.399442997872176, -9.534313586061062]], "weights_ho": [[-6.222982476009085, -10.4127846831011, -0.14069738723499411, -5.088242412938616, 13.501286133223749, -24.72418588480224, 17.22349328254618, 28.00477994342656, 9.777912299807678, -9.813149323095757, -16.157208003196477, 1.8229184357076216, -4.117828254342844, -1.5639490328757482, 14.896171344332018, 4.580499898703369], [-6.025928143434968, -2.0597442073320797, 8.929578743635636, -19.071109079234475, 18.916519275493002, -10.365186674998675, 4.23997694450554, -1.4965895393826392, -10.372290150804092, 5.203490866464971, 17.064247103062794, -37.93207920039144, -4.209643662542195, 6.785509743467869, -19.69498079452395, -7.6080744742038515], [3.7093829069652786, -7.796686618716066, -4.728721598470389, -3.3551087075377213, -8.93073450162233, 7.036540556959185, -4.4622041923803595, 0.5733891732627608, 3.674786405153643, 5.986389591482633, 22.348188462084327, -5.465441259926766, 12.989982115166967, -24.41851153898059, -19.977051530503864, 6.880058346218963], [-2.1706665987780704, 32.520364840841665, -12.844501250487601, 9.296524352334844, -3.2475615997552363, -1.3076288219846914, 11.802165791913964, -2.3687930754568685, 27.92377890262145, -24.797219577853543, 8.500253783473251, -10.823127941927984, -16.309922697371917, -5.899435808130047, -2.8634602973133996, 13.97254007093102]], "bias_h": [[-10.749086162081463], [-7.890602036460823], [-11.683854462184934], [-18.01571570504402], [-2.0262437316614927], [5.934226106278277], [21.525843500825058], [20.325842943532816], [3.4648567568092155], [-0.28511316626952266], [0.44094494355573466], [16.26881110799637], [8.581347419839128], [1.3561381192382065], [12.954098033426893], [7.116093548119214]], "bias_o": [[-4.341276072536494], [-1.0745249928309315], [-12.09526183930459], [-11.78352111259797]]}, {"input_nodes": 12, "hidden_nodes": 16, "output_nodes": 4, "weights_ih": [[0.8363703973973715, 4.965876610498135, -7.981995804205021, -3.815086434323365, 6.8263368465833, -8.216818313630897, 8.811850747416823, 0.1810955805898335, 3.0927017481422117, 0.19179787298990367, -5.8472332284554165, -16.701697167671618], [-0.24601123218448964, -13.565555944054417, 6.199175805094425, -2.4067965699232725, 13.162864183379558, -4.825946513260152, 16.85532388222264, 9.60323321033851, 1.3185005823832965, -3.977565479844766, -8.981405386157181, 15.667265938191687], [8.46492232942965, 6.051080870097484, -5.228492583900607, 8.599695767109646, -16.149359427584173, -9.63952831547035, 17.090239553293234, -12.007262754774796, 18.23735234454267, -5.7531981848532565, 16.226956226171687, -5.437450189168434], [0.20163461691303436, 24.978431453607392, -21.5547573873513, 3.7284695893441846, -3.1322091361744278, -2.8444403147545296, -9.240444258775618, 7.843618137394948, 9.816920222586388, -0.35802354131287467, 1.7459586072235047, -18.253572241662717], [2.363391200848717, -13.44516456868117, -3.0443644737935673, -11.616050649170399, -4.379599388114176, 17.751494959382235, 5.636875843703381, -10.827434600079805, -1.0188461309465637, 9.799405151720691, 3.4063298974579954, 2.311406883366426], [-16.777603405534485, -4.5567424077300736, 15.10179137708659, 2.845260751318409, 6.09613751884932, 20.896942804007598, 21.227595678185953, 4.195202902355829, 3.614912697630102, -20.40630330164774, -13.151825919620169, -16.617194748763044], [5.715860998647468, -4.645646274213249, -15.621610983116005, 11.102211222081655, 6.273405236497888, 8.521182974119306, 15.509534885906652, 13.507808401206507, 6.738187667007007, -3.6784317476879655, 5.808537529588624, 7.516528209622034], [2.3403362626510957, 3.1385148938549525, -11.453909721680642, -15.959203550879975, -7.1427461651164315, 9.016053871628179, -5.509858746631887, 9.160895291041735, 18.60694368563046, -15.039304743233199, 17.46585666150841, -8.165812609924384], [2.4414295496590954, -19.381803573426, -2.4045382559970356, 10.591937143235555, -9.770540698139405, -21.923206174408925, -6.306977792092234, 17.79744968431867, 18.53013827766609, -20.197750409018788, -8.55596604056022, -0.42467537610697714], [6.359755794014441, 0.13747482428568947, 17.798994850824993, 4.10173786302699, 0.8022132959411825, 8.950517876587602, 4.529883232768564, -6.743277398291267, 28.003662442681797, -2.7207607224518986, -8.695877630318098, 3.0868766023714875], [-10.541415542171599, 11.919963153853958, -0.14462240775541302, -1.4301631641509682, -4.943404894333426, -7.047889271220339, 1.3600041892555403, -12.37627800218287, -8.035662858178938, -7.841223109407825, -4.462196616998442, 17.84743421710364], [10.009795664919402, 3.8607394248201086, -4.086624145885614, 7.160930963288066, -11.590244327207099, 7.226641790073699, 13.197209456687867, 5.413591667343072, -13.305784741773275, -19.59262723186258, 4.575025532444084, -2.224001964549825], [-5.886731360278968, -10.607130657374794, -7.091548987644079, -4.34191757637529, -3.9473651804347676, 38.079442329926984, -7.378517922438476, -3.0997707454461194, 4.777614309721321, 6.625564166756663, 5.081264765883602, 5.287647958332486], [-9.731461540106048, 19.19224251366485, -3.8647310203470546, -10.433847981092562, 11.400434869338222, 9.506363610667114, -4.063533338892379, -7.539443143288414, -2.887911132200711, 6.874353103583403, -5.793585699465229, -13.17923165246165], [1.1811076413549457, 18.538326654847786, -18.928235987464642, -7.869909483618674, -5.578618381154149, -14.112784321182254, 15.78939035833934, 2.720677802146486, 5.346954162984931, -18.104168139728436, 33.34284760301874, 28.486598854652346], [-4.703224002752922, -22.969783046392177, 1.8104362806845884, 6.271785041935183, -11.074478630954694, -12.142364679632871, 10.789690541757466, 2.3378877424311644, 16.6975288101217, -30.094774319531957, -7.453204027535487, -9.451368511894875]], "weights_ho": [[-6.155245474278151, -10.320471164224907, -0.09212251710498828, -5.088242412938616, 13.545645280214071, -24.72418588480224, 17.11689806226391, 27.880732820738032, 9.661738240994364, -9.906253682709664, -16.2008890710515, 1.8229184357076216, -4.281706394530165, -1.5595600876427493, 14.752770784537612, 4.402220425701602], [-6.107321956723535, -2.0524461083800083, 8.929578743635636, -19.071109079234475, 19.093251831100563, -10.246603478204213, 4.272874389224799, -1.4965895393826392, -10.54519415353379, 5.203490866464971, 17.05343316518879, -37.90360198413017, -4.3408541903878035, 6.785509743467869, -19.69498079452395, -7.606960838121408], [3.7221429069292835, -7.886491030049427, -4.728721598470389, -3.2941070943290707, -8.95478793921202, 6.960486701031949, -4.442471808261429, 0.5513768434247897, 3.8902241214952693, 5.986389591482633, 22.079585275509125, -5.499478559995624, 12.989982115166967, -24.357405228429425, -19.997585953891903, 6.782360520374182], [-2.3249760036830627, 32.580669166158145, -12.844501250487601, 9.234937962510713, -3.244769456377771, -1.1592965759198735, 11.802165791913964, -2.395071624662724, 27.77713341389826, -24.636161878280117, 8.500253783473251, -10.929927377894401, -16.157927715615784, -5.75374268655743, -2.764768131042903, 13.97254007093102]], "bias_h": [[-10.673503702581643], [-7.892067112474221], [-11.892138647638776], [-18.091300149345496], [-2.0262437316614927], [5.887531988670692], [21.688822581331568], [20.375100998832647], [3.459686819800387], [-0.14566639196433806], [0.44094494355573466], [16.26881110799637], [8.57697107865994], [1.3561381192382065], [12.978174886453925], [6.891784341828328]], "bias_o": [[-4.341276072536494], [-1.0437785774039372], [-11.777341351899956], [-11.858563853944176]]}, {"input_nodes": 12, "hidden_nodes": 16, "output_nodes": 4, "weights_ih": [[0.8363703973973715, 4.96279037561566, -8.084053263734404, -3.831294545144152, 6.918517615692193, -8.330494971417368, 8.811850747416823, 0.1586491137950988, 2.863502162595923, 0.09932313028242354, -5.854199071197221, -16.76883654243541], [-0.3264287401812449, -13.565555944054417, 6.048149235990349, -2.5261496390953186, 13.096585147577853, -5.041308600237726, 16.95371030427843, 9.652745924372343, 1.4039472966740774, -3.977565479844766, -8.981405386157181, 15.667265938191687], [8.316407162113345, 6.1127240810051, -5.228492583900607, 8.759021611275779, -16.234638054915504, -9.727439680665125, 17.107389264382547, -12.002369804487298, 18.23735234454267, -5.7531981848532565, 16.226956226171687, -5.393739462423615], [0.2884543280481541, 24.978431453607392, -21.5547573873513, 3.600704348389871, -3.2601490600555247, -2.918652903709322, -9.240444258775618, 7.818443427837497, 9.840981688322886, -0.41100781122204844, 1.7466341045719567, -18.343698155298107], [2.4819795075009403, -13.410793819930213, -3.1054777250183756, -11.5760347030865, -4.379599388114176, 17.723626405278473, 5.722425459655188, -10.960723651161079, -1.0188461309465637, 9.815295933057655, 3.2895586327899347, 2.2428980144149784], [-16.777603405534485, -4.5076239777618, 14.936197014549847, 2.883354137187077, 6.118456235713868, 20.843511811696334, 21.18593261807392, 4.2603702849291265, 3.68769979033598, -20.601337447150662, -13.238433537490348, -16.54282529445924], [5.715860998647468, -4.583052274841726, -15.621610983116005, 11.287108877382945, 6.2160468217803055, 8.543192282216726, 15.406572460985831, 13.517340214219608, 6.738187667007007, -3.6784317476879655, 5.91431027681172, 7.57434333263733], [2.313886205034568, 3.1385148938549525, -11.301598875009915, -15.958383759536861, -7.04276129215291, 9.206248214841533, -5.514124005110899, 9.160895291041735, 18.60694368563046, -15.039304743233199, 17.46585666150841, -8.001768417681353], [2.4414295496590954, -19.39906978920285, -2.575018956841496, 10.591937143235555, -9.770540698139405, -21.923206174408925, -6.126497772136705, 17.885597575608735, 18.63144026374864, -20.23102334607325, -8.22805306336067, -0.4830580871140606], [6.5179511862441855, 0.09835417782171377, 17.65186110204194, 4.131078217105459, 0.8022132959411825, 9.079286325387184, 4.268478858488225, -6.746332587091983, 28.114440988506395, -2.7469379533232567, -8.856653771346567, 3.3510428831390313], [-10.77274345563049, 11.783590416603307, -0.14462240775541302, -1.3399013763562695, -4.989859387907786, -7.102419901855516, 1.3632808115958936, -12.412275520383973, -7.929738851687595, -7.894892783947677, -4.462196616998442, 17.84743421710364], [10.019647644453105, 3.8607394248201086, -4.128264835735443, 7.058616576393815, -11.590244327207099, 7.364148333966092, 13.395344164482628, 5.245632143739577, -13.50658397828847, -19.59262723186258, 4.798191708648865, -1.9564406534188268], [-6.0108884996684875, -10.551738567295532, -7.0346075014319736, -4.3317495446046195, -3.8701860139321633, 38.05814585464771, -7.378517922438476, -3.0997707454461194, 4.807706317612883, 6.625564166756663, 5.09217776930919, 5.269865087335888], [-9.925838751446348, 19.19223623271064, -3.8829267612617295, -10.436256865877194, 11.400434869338222, 9.69862462473079, -4.063533338892379, -7.376271772260931, -2.887911132200711, 6.75530336249916, -5.910923545252233, -13.120781739783297], [1.2748877452125904, 18.538326654847786, -18.928235987464642, -7.849481885878404, -5.479120796617459, -14.200052018002392, 15.760927940773811, 2.610808021096625, 5.1642552982084355, -18.104168139728436, 33.236646575390594, 28.422349628307845], [-4.68438999436947, -23.09302322508491, 1.7868453187494302, 6.2597850270294915, -10.853711234401262, -12.142364679632871, 10.679963745588877, 2.5271844342727126, 16.638890911883447, -30.094774319531957, -7.399442997872176, -9.534313586061062]], "weights_ho": [[-6.028898359114915, -10.263960061497768, -0.1748705779493473, -5.088242412938616, 13.494081508453267, -24.66075101790204, 17.22349328254618, 28.00477994342656, 9.675359986429232, -9.892711014690661, -16.227908666257157, 1.8229184357076216, -4.093304885229317, -1.4270748341312431, 14.768937341116976, 4.559233069778934], [-6.107321956723535, -2.11099256698381, 9.026539296854084, -18.956940816690626, 19.093251831100563, -10.389266906737388, 4.231722215598794, -1.4965895393826392, -10.44088950626624, 5.234474002046557, 16.881279290162077, -37.908286170823274, -4.129580039978646, 6.788644739554944, -19.704275019349403, -7.6080744742038515], [3.7221429069292835, -7.796686618716066, -4.728721598470389, -3.4962735054267187, -8.931244933323802, 7.021179296010292, -4.404977680242359, 0.5513768434247897, 3.874833859734981, 6.025159003897159, 22.133560445173654, -5.481152900127084, 12.967338914123035, -24.41851153898059, -19.98273622724484, 6.914966602241518], [-2.3249760036830627, 32.520364840841665, -12.892248875032779, 9.457787140726763, -3.3345202128129805, -1.2078223140550415, 11.802165791913964, -2.351561123240494, 27.81887054820872, -24.75765318835219, 8.481168832452154, -10.98468832655158, -16.222703661587488, -5.75599690231738, -2.81182691844351, 13.92915003550424]], "bias_h": [[-10.737129838969242], [-7.907274171876809], [-11.812077303422063], [-17.979989289727044], [-2.0262437316614927], [5.954738083603002], [21.647631625981557], [20.375100998832647], [3.543524125183326], [-0.20497405429658372], [0.3370397485222916], [16.26881110799637], [8.73500602392169], [1.277717933799671], [12.978174886453925], [7.125767060506457]], "bias_o": [[-4.378758946530882], [-1.0745249928309315], [-12.005676465799027], [-11.858563853944176]]}, {"input_nodes": 12, "hidden_nodes": 16, "output_nodes": 4, "weights_ih": [[0.9525816283370926, 4.8885813377436635, -7.970628806721212, -3.5788099218477307, 6.82975566643136, -8.06919153066356, 8.890649115782143, 0.1810955805898335, 3.0927017481422117, 0.09932313028242354, -5.8342125460933865, -16.546085329720157], [-0.373803794363224, -13.689252013998432, 6.214097953275823, -2.5261496390953186, 13.096585147577853, -4.943471328976445, 16.95710483343478, 9.603173969259455, 1.3560926571080447, -3.909749993865065, -8.981405386157181, 15.667265938191687], [8.543073612207008, 6.1127240810051, -5.228492583900607, 8.588068903844222, -16.32092470220136, -9.639969185851443, 17.090239553293234, -12.007262754774796, 18.23735234454267, -5.7531981848532565, 16.226956226171687, -5.591770815554303], [0.2882410771366566, 24.940670406968195, -21.5547573873513, 3.5877602265979274, -3.061078433487617, -2.932563605261268, -9.240444258775618, 7.650490269743673, 10.071246326628014, -0.3815177815860066, 1.7013244058042467, -18.310086503562694], [2.5377137238374763, -13.410793819930213, -3.0443644737935673, -11.498841451453016, -4.379599388114176, 17.844774634490456, 5.722425459655188, -10.891179897970217, -1.0188461309465637, 9.860773223252165, 3.107941206095909, 2.3833763587655583], [-16.89055556225938, -4.583775448564569, 14.969150899238816, 2.845260751318409, 6.073051581340026, 20.664089745537353, 21.19061697289742, 4.159809507777113, 3.506685351656007, -20.414990111393564, -13.165939584187266, -16.54354419336541], [5.592898696922652, -4.4606684138252115, -15.621610983116005, 11.321735650470407, 6.273405236497888, 8.543192282216726, 15.543283062982173, 13.617759640457093, 6.738187667007007, -3.78196138435653, 5.808537529588624, 7.4860329514927], [2.399092563228899, 3.318528357763667, -11.301598875009915, -16.042146957317737, -7.1427461651164315, 9.200557881035575, -5.566875172253507, 9.160895291041735, 18.60694368563046, -15.08358556266904, 17.46585666150841, -8.001768417681353], [2.4453727964896723, -19.52742328366357, -2.477351177026128, 10.591937143235555, -9.843180171707147, -21.923206174408925, -6.183917439946877, 17.774270906702277, 18.570941833216, -20.197750409018788, -8.17300368682877, -0.4830580871140606], [6.359755794014441, 0.08362374897481098, 17.65186110204194, 4.086402193432337, 1.012917161117254, 9.0662257497477, 4.261852711372947, -6.746332587091983, 28.003662442681797, -2.5918538086363867, -8.695877630318098, 3.185732958527668], [-10.654089644394908, 11.703346424723886, -0.09039163526934763, -1.4137517732641205, -4.943404894333426, -7.102419901855516, 1.225034171311775, -12.337193741903338, -7.777851072614745, -7.841223109407825, -4.691702762687676, 17.84743421710364], [10.009795664919402, 3.8607394248201086, -4.306958381337939, 7.144505986091447, -11.568003082950108, 7.329611499597852, 13.149743701550547, 5.413591667343072, -13.305784741773275, -19.59262723186258, 4.674490424999347, -2.224001964549825], [-5.918404419544914, -10.607130657374794, -7.091548987644079, -4.261182005664687, -3.846669115451934, 38.1991654907795, -7.520387036454456, -3.0997707454461194, 4.777614309721321, 6.430765362307269, 5.081264765883602, 5.287647958332486], [-9.902532623803225, 19.000286684096537, -3.926484624942517, -10.424373475948283, 11.400434869338222, 9.386599426174026, -4.063533338892379, -7.539443143288414, -2.887911132200711, 6.874353103583403, -5.696877593320753, -13.204599204350826], [1.2748877452125904, 18.538326654847786, -19.016837361615487, -7.869909483618674, -5.498328735517667, -14.161073918923776, 15.760927940773811, 2.5102791138851117, 5.344044777299465, -18.112115810739624, 33.252698281245145, 28.511966453867924], [-4.702138977704923, -23.008474038853752, 1.7612690397632582, 6.173223531991545, -10.887654876012336, -12.142364679632871, 10.679963745588877, 2.5271844342727126, 16.52971928428295, -30.094774319531957, -7.3020691346279305, -9.534313586061062]], "weights_ho": [[-6.119144453175507, -10.324102430650498, -0.14069738723499411, -4.963722478740235, 13.479299182344711, -24.72418588480224, 17.22349328254618, 28.083327548692914, 9.69586393440364, -9.813149323095757, -16.157208003196477, 1.980249537779746, -4.109580077356472, -1.6210748292877628, 14.768937341116976, 4.518236198914421], [-6.0158793558525385, -2.0524461083800083, 8.929578743635636, -19.071109079234475, 19.093251831100563, -10.316284146287456, 4.3929187479111675, -1.4415595416891729, -10.310143273687206, 5.203490866464971, 17.05343316518879, -37.93309995101291, -4.210445157436958, 6.733157736891136, -19.832013650076608, -7.769209487787854], [3.726693642336218, -7.683610304960011, -4.500467941362872, -3.4277632161705966, -8.875586215015616, 6.921999476632119, -4.404977680242359, 0.6061884220929714, 3.874833859734981, 6.003237752549183, 22.13870181697374, -5.481152900127084, 13.130413400399107, -24.388389434525376, -19.950082717794096, 6.905021674201776], [-2.3249760036830627, 32.520364840841665, -12.844501250487601, 9.296524352334844, -3.244769456377771, -1.3076288219846914, 11.802165791913964, -2.3320735416547813, 27.785846973424068, -24.817158775308876, 8.500253783473251, -11.042380703010306, -16.222703661587488, -5.8810796191102455, -2.7471515671230304, 14.010365584327369]], "bias_h": [[-10.673503702581643], [-7.861026101656496], [-11.743032559079502], [-18.01571570504402], [-2.0262437316614927], [5.872136651004605], [21.676632519172134], [20.253437159347524], [3.352079406371499], [-0.2233577280259499], [0.3032174598955339], [16.26881110799637], [8.54872664505858], [1.2624299804665224], [13.053975540557673], [7.219777934479552]], "bias_o": [[-4.341276072536494], [-1.0745249928309315], [-11.981275652917207], [-11.747402831325063]]}, {"input_nodes": 12, "hidden_nodes": 16, "output_nodes": 4, "weights_ih": [[0.9411128463128323, 4.965876610498135, -7.970628806721212, -3.8646942797176624, 7.045675797052758, -8.294924007619493, 8.863780413644907, 0.20317203154388738, 3.0927017481422117, 0.09932313028242354, -5.824812766001172, -16.709288391691636], [-0.49653417507286557, -13.589260411702869, 6.199175805094425, -2.450192180222747, 12.962850220281998, -4.943471328976445, 16.95371030427843, 9.60323321033851, 1.3989806099069666, -3.977565479844766, -8.981405386157181, 15.565655520415337], [8.46492232942965, 6.1127240810051, -5.121913799632019, 8.62039892157711, -16.106516510665312, -9.839617111461889, 17.15318684679233, -12.007262754774796, 18.353849636565275, -5.7531981848532565, 16.226956226171687, -5.392510536422237], [0.20163461691303436, 24.978431453607392, -21.506760243262047, 3.684080202695251, -3.2601490600555247, -3.0774755199561814, -9.263015802332182, 7.818443427837497, 9.880134933500164, -0.3815177815860066, 1.7459586072235047, -18.253572241662717], [2.4005381941394814, -13.625675477226958, -3.0443644737935673, -11.757875168475167, -4.437652190289803, 17.863442499992296, 5.827402662767635, -11.164082242999381, -0.8955899263787523, 9.860773223252165, 3.18411604707754, 2.3904976313331803], [-16.777603405534485, -4.5567424077300736, 15.073982727768046, 2.8402532313468245, 6.09613751884932, 21.025579995728812, 21.18593261807392, 4.325346828641305, 3.720478579467551, -20.568630673548707, -13.151825919620169, -16.42843390571023], [5.7838078058986975, -4.559347819964036, -15.63330532418641, 11.154848864274676, 6.373963957091172, 8.543192282216726, 15.366118823949032, 13.507808401206507, 6.738187667007007, -3.6784317476879655, 5.808537529588624, 7.57434333263733], [2.357238115766043, 3.046394884540667, -11.362146635114062, -15.977662359696888, -7.1427461651164315, 9.260370878140535, -5.509858746631887, 9.079435639443473, 18.60694368563046, -15.039304743233199, 17.526713319026136, -8.001768417681353], [2.4437276016240435, -19.409060960884545, -2.6452291481702193, 10.632950039794583, -9.856463876835337, -21.923206174408925, -6.113093875188552, 17.749110398024552, 18.481058564873436, -20.197750409018788, -8.273893769506566, -0.40772776903413965], [6.319325098169233, 0.1992873357224945, 17.65186110204194, 4.10173786302699, 0.8022132959411825, 9.079286325387184, 4.403904640695471, -6.79145056100451, 27.995383981530253, -2.5918538086363867, -8.695877630318098, 3.3896145185079725], [-10.654089644394908, 11.783590416603307, -0.14462240775541302, -1.3303835824169912, -4.943404894333426, -7.102419901855516, 1.3636379610438754, -12.337193741903338, -8.019719423292857, -7.841223109407825, -4.404019091580612, 17.84743421710364], [9.949087454517635, 3.7966690707451516, -4.128264835735443, 7.195736419812627, -11.590244327207099, 7.329611499597852, 13.247773286066142, 5.413591667343072, -13.40596116003992, -19.59262723186258, 4.575025532444084, -2.224001964549825], [-5.869991088560882, -10.61177547630376, -7.091548987644079, -4.417442976955242, -3.846669115451934, 38.22244566192013, -7.405645134811042, -3.241655955909542, 4.78790998142648, 6.625564166756663, 5.027183147150984, 5.306924781876054], [-9.902532623803225, 19.19224251366485, -3.8647310203470546, -10.424373475948283, 11.480249417654445, 9.626109350021334, -3.978750254526558, -7.539443143288414, -2.887911132200711, 6.937630425278648, -5.793585699465229, -13.029395588667645], [1.1620646089408027, 18.538326654847786, -18.928235987464642, -7.869909483618674, -5.498328735517667, -14.157966989232632, 15.787901631750959, 2.574111703555367, 5.344044777299465, -18.104168139728436, 33.098165850543154, 28.511966453867924], [-4.783640511800531, -23.071461441729735, 1.5644097587999457, 6.173223531991545, -10.918793586131269, -12.201908361993176, 10.771478991074291, 2.5762387929414237, 16.6975288101217, -30.094774319531957, -7.469467127432592, -9.534313586061062]], "weights_ho": [[-6.155245474278151, -10.23952078558944, -0.14069738723499411, -4.99869650967182, 13.636950428080883, -24.909445326071182, 17.093087519011696, 28.03433959452542, 9.756173833870488, -9.725657693156787, -16.138661205037003, 1.8229184357076216, -4.136601448436785, -1.4513620240781804, 14.768937341116976, 4.558804426622348], [-6.107321956723535, -2.0524461083800083, 8.803292298228058, -19.071109079234475, 19.11690917718974, -10.518142407392544, 4.125733615243525, -1.4965895393826392, -10.441342325277494, 5.203490866464971, 17.13528619675956, -38.03216811021809, -4.242663859043526, 6.785509743467869, -19.663983264315945, -7.6080744742038515], [3.7585240225140324, -7.796686618716066, -4.8991578777685225, -3.4277632161705966, -8.736584674956738, 7.060087701473401, -4.293209295692425, 0.5513768434247897, 3.8266355677821173, 5.783947926902992, 22.321683802498978, -5.364946653157272, 12.989982115166967, -24.41851153898059, -19.977051530503864, 6.880058346218963], [-2.3249760036830627, 32.520364840841665, -12.844501250487601, 9.369477206287566, -3.167490086814508, -1.3076288219846914, 11.714613051198425, -2.2975433228347946, 27.85994102784154, -24.797219577853543, 8.306721533785678, -10.98468832655158, -16.1467270583554, -5.846700951073608, -2.81182691844351, 13.910381125113219]], "bias_h": [[-10.673503702581643], [-7.9030300880163304], [-11.926652508518927], [-18.01571570504402], [-2.0262437316614927], [5.872261459195403], [21.688822581331568], [20.530409077950033], [3.459686819800387], [-0.2095178435262895], [0.44094494355573466], [16.23780914745494], [8.54872664505858], [1.3561381192382065], [12.978174886453925], [7.116093548119214]], "bias_o": [[-4.11653788275445], [-1.0745249928309315], [-11.856327962439579], [-11.898942962143149]]}, {"input_nodes": 12, "hidden_nodes": 16, "output_nodes": 4, "weights_ih": [[0.7257177669260358, 4.965876610498135, -8.05012972483417, -3.815086434323365, 6.918517615692193, -8.476412280689189, 8.829111943110163, 0.1810955805898335, 3.0927017481422117, 0.09932313028242354, -5.854199071197221, -16.709288391691636], [-0.4145518115379, -13.553406487364171, 6.199175805094425, -2.5261496390953186, 13.06376236635053, -5.033699197133636, 16.842096422037574, 9.60323321033851, 1.3704864283424545, -4.009037341571764, -8.981405386157181, 15.810824121723098], [8.571475691766324, 6.1127240810051, -5.228492583900607, 8.534848103211043, -16.174736906001087, -9.727439680665125, 17.09319903620764, -12.154731080326275, 18.177283563613297, -5.692714214696463, 16.131377723517385, -5.437450189168434], [0.1497414105242251, 25.082644228888643, -21.83672186629127, 3.600704348389871, -3.414959130161139, -2.7641916395334745, -9.240444258775618, 7.818443427837497, 9.880134933500164, -0.3815177815860066, 1.5899334023781377, -18.224891564187693], [2.6737195215386866, -13.214976989447763, -3.0443644737935673, -11.765060951819901, -4.43597793071609, 17.90892864074661, 5.685643388002853, -10.816371830695157, -1.1238695164551524, 9.860773223252165, 3.1172957743350755, 2.2428980144149784], [-16.815846784433347, -4.587091975515656, 15.10179137708659, 2.667936325586622, 6.048578641697845, 20.843511811696334, 21.0564667552668, 4.231371516234924, 3.6443953501280517, -20.43246627538071, -13.20483709426596, -16.617194748763044], [5.715860998647468, -4.685041634004651, -15.621610983116005, 11.07921319165778, 6.325967036292323, 8.550288439919617, 15.422667437061792, 13.580281309996135, 6.796121790006945, -3.750643484696208, 5.757129357126009, 7.57434333263733], [2.390421608152514, 3.1385148938549525, -11.189716993467767, -15.963249740290207, -7.038437622288354, 9.200557881035575, -5.509858746631887, 9.20090538184758, 18.669710062369315, -15.09964567945585, 17.490570336734198, -7.98525006152989], [2.4414295496590954, -19.381803573426, -2.477351177026128, 10.74210190264394, -9.770540698139405, -21.923206174408925, -6.196921750877407, 17.835248837433966, 18.53013827766609, -20.314195139078425, -8.256361460434547, -0.5444893272875979], [6.239220533252134, 0.110812502292475, 17.695992221983268, 4.073371278202396, 0.6619077006074623, 9.0186589590798, 4.390661192107936, -6.621972008780426, 28.063156279088926, -2.6949288533631774, -8.695877630318098, 3.1312828176229583], [-10.715454353557359, 11.734394322488857, -0.19404332760784712, -1.3521297285953666, -5.124915824215012, -7.102419901855516, 1.3600041892555403, -12.088108720334876, -8.02781336049517, -7.7660962878918305, -4.462196616998442, 17.84743421710364], [10.009795664919402, 3.894833528560643, -4.128264835735443, 7.200943980681388, -11.590244327207099, 7.471574711537301, 13.197209456687867, 5.475110306504968, -13.329953027102107, -19.430361341075475, 4.464966043732359, -2.2995280539696847], [-5.803127071277268, -10.6788445808487, -7.091548987644079, -4.34191757637529, -3.766265995441662, 38.05814585464771,