{"generation": 47887, "population": [{"input_nodes": 12, "hidden_nodes": 16, "output_nodes": 4, "weights_ih": [[0.893412419085618, 5.203115761962644, -8.456026660831904, -3.6006185949763063, 7.1315731079593645, -8.167900714957668, 8.90911594982312, -0.13279111551836242, 2.82239415236112, 0.08536937117328469, -5.204092178491893, -16.48693950063845], [-0.5024576832850014, -13.175983433398665, 5.988078639962629, -2.704397769915345, 12.625782126326081, -5.11303390940295, 16.710827330196526, 9.981592696980275, 1.564036571788962, -3.749531333455457, -9.13211317504234, 15.53565221529975], [8.696795781871614, 5.9098806675900075, -5.024046946867025, 8.651353096380653, -16.641479595675506, -10.278024813058138, 16.884675163766254, -12.36770388421861, 18.431262625367175, -5.718317715081355, 16.583306752874254, -5.85597921300167], [0.24065467180395633, 25.003479251795614, -21.31403548648801, 3.875353152462121, -3.4907256917893768, -3.2935667415268197, -8.970321735806131, 7.570046177441217, 9.839714479480831, -0.36356823835730745, 1.8690560722701213, -18.444728360346748], [2.340516293135531, -13.747817290583132, -2.9676407450124587, -11.109532996603324, -4.107411930186631, 17.751863692826596, 5.378535003922689, -10.445379965366214, -0.4583273770371624, 9.598470879357452, 2.9054109815034628, 2.0227393406367753], [-16.75127283138403, -4.7323380507169075, 15.350340314989024, 3.0706866263923605, 5.235198004779435, 20.602044794692357, 20.959857009248825, 4.842013230320019, 3.1557237009751233, -20.5070963209305, -12.602111433129869, -16.46802745554539], [5.279303019002454, -3.949586683736879, -15.328539965950466, 12.01189050091089, 6.086660689730093, 8.47800003357542, 15.230577212980052, 13.731808642028385, 6.147156971509564, -3.4527503920933516, 5.688692372070632, 6.80214004388006], [2.2436032514552684, 2.7715975503160464, -11.064916747459831, -16.235803965365523, -7.2020740259512195, 9.104911212897978, -5.455636240386488, 9.224666547170951, 18.780614134152405, -15.047531396999803, 17.475666123140662, -8.415791968488366], [2.8958719168044404, -19.95179957800144, -2.570084235502124, 10.911527000730933, -9.29253650918567, -22.1344592671074, -5.710044013290872, 17.03286871752406, 17.465942931195105, -20.007462392334105, -8.316301140084839, -0.6018213927065428], [6.637953333757022, -0.5529438069052022, 17.66151667212199, 4.19305011689151, 1.1092922759665538, 9.610032699467316, 3.979174045897365, -7.184471842238882, 28.336081500751103, -2.7332959961797014, -8.656916578098626, 3.322619741988167], [-10.569266290645691, 12.224177304898008, 1.3547579585764191, -1.0781239683127732, -4.7590818861701365, -6.151466565546925, 2.0741663764280203, -12.648927050539971, -7.702238112308465, -7.212905347953559, -4.598477425464105, 17.16314165407619], [10.41996908570184, 3.8493711504887407, -4.142365724723532, 6.770086739478705, -11.800519302995097, 7.778447520198089, 13.085161300293803, 5.063670475926326, -13.51567682380587, -19.610218470901202, 5.027329689249492, -2.122665270576929], [-5.504540655489123, -10.537993592599774, -7.030285218274263, -4.248134873000105, -3.7817801820769983, 37.6092365597594, -8.19118902520394, -3.0030794665700187, 4.84858631772683, 6.653873358536544, 4.688390575359057, 5.70025595598312], [-10.015133885407995, 18.891852049073982, -4.758118330011519, -10.500159177481457, 11.412404005649298, 8.589917286265129, -4.483127419557374, -7.884088159343293, -2.960649010261965, 7.129804402869131, -5.744201844703558, -13.643522408330139], [1.7293844463776313, 18.536167437348713, -19.13637748507215, -7.291979727715343, -5.52988304065847, -14.554762072069481, 15.786270290014112, 2.6193185432666954, 5.489666994586391, -17.35089113831181, 33.57998804260287, 28.774475267305405], [-5.163965256711503, -23.38202357638889, 2.0603467747835924, 6.5297984356566205, -11.242944887741096, -11.671931207440606, 10.23100559545443, 2.16878411550109, 16.514177826068778, -29.984021029694627, -7.186970099871527, -9.099888810985602]], "weights_ho": [[-5.890092061824454, -10.03465683872319, -0.6592581805688129, -5.463515622040921, 13.47311455199113, -24.298950828342612, 17.473109648898784, 28.31197004401219, 9.937214699709806, -9.79744361709622, -16.078392265100675, 1.151854181490791, -3.6646899377078084, -1.7094750072439395, 15.134473854935756, 4.89781530691264], [-4.975584571383663, -2.7192031002261348, 9.380361429632739, -19.110328237946423, 17.98334107394452, -10.300749680264094, 3.9653034684289143, -1.4828699686326743, -10.619258030231263, 5.406268653098648, 16.216509970027104, -38.17183675025424, -4.894748065007284, 6.916965695194394, -19.770299208488847, -7.384788390398081], [4.016380824002719, -7.780623027087157, -4.729113781392234, -3.3630146385931083, -8.688331498203231, 8.073239683197768, -4.899225604791317, 0.33197724691163866, 3.1744120155570164, 6.0008748231915865, 21.862401589291988, -5.385120080729825, 13.123584514501816, -24.41148082559831, -19.27462306596366, 6.7276406653425385], [-2.54464846535588, 32.65172437051644, -13.884973050120198, 9.201318642489076, -3.4905219981889384, -1.1127617779362144, 12.34898546730562, -2.9802384588113813, 27.690085573165053, -24.76199540946142, 9.29862703536005, -11.405741691340959, -16.677119681483642, -6.070978526366202, -2.273351158311864, 13.632201715394986]], "bias_h": [[-10.112091774447576], [-7.668835051919341], [-11.672941518566196], [-17.96834999085677], [-2.5667349956031416], [5.519358000861614], [21.75174323765343], [19.955880480900454], [3.2586591219471575], [-0.5647367365489402], [-0.5349571541977267], [16.183432803608], [8.480341605447979], [1.431802964961176], [12.348559499409278], [6.8351619376132415]], "bias_o": [[-4.566795622793267], [-1.801044652306376], [-11.734870586642991], [-12.155804873532063]]}, {"input_nodes": 12, "hidden_nodes": 16, "output_nodes": 4, "weights_ih": [[0.893412419085618, 5.203115761962644, -8.393881152800345, -3.576789480318313, 7.1315731079593645, -8.167900714957668, 8.921650201779704, -0.13279111551836242, 2.82239415236112, 0.1378325642797178, -5.204092178491893, -16.48693950063845], [-0.5024576832850014, -13.175983433398665, 5.987441109318129, -2.613521931084126, 12.557357353134371, -5.11303390940295, 16.710827330196526, 9.881410681742475, 1.6651284186957844, -3.6410251344480478, -8.924499967789071, 15.38614858825873], [8.696795781871614, 5.9098806675900075, -5.215819316988431, 8.651353096380653, -16.641479595675506, -10.278024813058138, 16.696488538345235, -12.36770388421861, 18.44222693501996, -5.730441065216328, 16.583306752874254, -5.85597921300167], [0.24065467180395633, 25.04013842801062, -21.286114485151813, 3.7982663549681557, -3.5254786249948076, -3.2935667415268197, -8.970321735806131, 7.570046177441217, 9.820611049986171, -0.6127898625706681, 2.037192191879053, -18.343705076614203], [2.340516293135531, -13.747817290583132, -2.866173692431331, -11.23025495918295, -4.035251032346038, 17.69559223245809, 5.378535003922689, -10.445379965366214, -0.5622965454837083, 9.45478223914956, 2.894470259806839, 2.0227393406367753], [-16.75127283138403, -4.7323380507169075, 15.350340314989024, 3.0706866263923605, 5.235198004779435, 20.602044794692357, 20.959857009248825, 4.716630320357526, 3.1605909364954274, -20.5070963209305, -12.602111433129869, -16.46667901222138], [5.279303019002454, -3.949586683736879, -15.328539965950466, 12.01189050091089, 6.086660689730093, 8.50506046156128, 15.213958895830128, 13.731808642028385, 6.147156971509564, -3.498837744790456, 5.688692372070632, 6.7372715601812745], [2.2650523096509234, 2.8042611767447574, -11.051445092192687, -16.235803965365523, -7.331196478302522, 9.104911212897978, -5.637388289032527, 9.139187384169704, 18.845100681256483, -15.047531396999803, 17.430485294285152, -8.415791968488366], [2.8278308592424133, -19.932354411700775, -2.4186579673090347, 10.842473034650077, -9.228885129094666, -22.1344592671074, -5.710044013290872, 16.965161191882437, 17.465942931195105, -19.89661866075988, -8.316301140084839, -0.7986236144206673], [6.637953333757022, -0.39128302728198716, 17.66151667212199, 4.183189743218214, 1.1092922759665538, 9.69508033226364, 3.9959063086970965, -7.184471842238882, 28.336081500751103, -2.7332959961797014, -8.864517917649076, 3.322619741988167], [-10.569266290645691, 12.269995705054761, 1.3547579585764191, -0.9985603132583085, -4.7590818861701365, -6.2302068314459484, 1.940686996245572, -12.490677980575377, -7.702238112308465, -7.212905347953559, -4.713638935372737, 17.16314165407619], [10.41996908570184, 3.8194406312120472, -4.142365724723532, 6.70874254639828, -11.787108737478567, 7.778447520198089, 12.983389886659227, 5.063670475926326, -13.51567682380587, -19.610218470901202, 5.027329689249492, -2.122665270576929], [-5.504540655489123, -10.326676607527617, -7.030285218274263, -4.122748736782954, -3.7817801820769983, 37.6092365597594, -8.19118902520394, -3.0518511934726256, 4.84858631772683, 6.515930363336492, 4.688390575359057, 5.70025595598312], [-9.924498336248634, 18.919909879329236, -4.758118330011519, -10.500159177481457, 11.412404005649298, 8.589917286265129, -4.643728309670642, -7.607088213923998, -2.9671699386809016, 7.089046938899225, -5.612883883799909, -13.643522408330139], [1.7293844463776313, 18.467726742611777, -19.155913066183825, -7.291979727715343, -5.52988304065847, -14.554762072069481, 15.821759280129918, 2.6193185432666954, 5.30763513784243, -17.35089113831181, 33.411557342977304, 29.02064321609307], [-5.283907824777391, -23.38202357638889, 2.0603467747835924, 6.5297984356566205, -11.242944887741096, -11.678003173182564, 10.223870371459236, 2.0058983639282575, 16.514177826068778, -29.984021029694627, -7.3179431462025075, -9.099888810985602]], "weights_ho": [[-5.890092061824454, -10.044506019469823, -0.6592581805688129, -5.435019477639464, 13.475989380823245, -24.510728217036224, 17.61899073266711, 28.29070335169632, 9.937214699709806, -9.79744361709622, -16.004610153095626, 1.151854181490791, -3.6646899377078084, -1.7504140972691256, 15.134473854935756, 4.89781530691264], [-4.856044901814729, -2.748994678553373, 9.534093980184535, -19.152994436168765, 17.98334107394452, -10.300749680264094, 3.9653034684289143, -1.4828699686326743, -10.545777782299526, 5.406268653098648, 16.123350803212006, -38.17183675025424, -4.728770019762995, 6.916965695194394, -19.770299208488847, -7.384788390398081], [4.016380824002719, -7.755509940194354, -4.594531597803194, -3.3630146385931083, -8.688331498203231, 7.967065627770552, -4.899225604791317, 0.5809161740667829, 3.313889584566579, 5.949994472239063, 22.026168260856743, -5.385120080729825, 13.18771997986517, -24.41148082559831, -19.27195997048841, 6.975226866967494], [-2.54464846535588, 32.71705519470234, -13.854533758356514, 9.201318642489076, -3.223435179344973, -1.2165729093385445, 12.34898546730562, -2.8185099464341152, 27.690085573165053, -24.853617304665377, 9.29862703536005, -11.405741691340959, -16.677119681483642, -5.910116597869382, -2.1931172469646136, 13.632201715394986]], "bias_h": [[-10.128018575163999], [-7.519859552072097], [-11.672941518566196], [-17.943250515194524], [-2.5667349956031416], [5.5882322518354215], [21.87562755550115], [19.919478356483438], [3.2586591219471575], [-0.5647367365489402], [-0.5349571541977267], [16.338605127775814], [8.480341605447979], [1.431802964961176], [12.348559499409278], [6.855736670520612]], "bias_o": [[-4.566795622793267], [-1.7296285961564621], [-11.577734949605535], [-12.155804873532063]]}, {"input_nodes": 12, "hidden_nodes": 16, "output_nodes": 4, "weights_ih": [[0.893412419085618, 5.203115761962644, -8.456026660831904, -3.6006185949763063, 7.168559740535439, -8.167900714957668, 8.90911594982312, -0.13279111551836242, 2.82239415236112, 0.20917922853326026, -5.040970250035559, -16.48693950063845], [-0.5024576832850014, -13.175983433398665, 5.988078639962629, -2.704397769915345, 12.625782126326081, -5.11303390940295, 16.710827330196526, 9.981592696980275, 1.564036571788962, -3.792896926586866, -9.13211317504234, 15.53565221529975], [8.696795781871614, 5.9098806675900075, -4.955366445745044, 8.651353096380653, -16.726480263434865, -10.364710801709682, 16.884675163766254, -12.36770388421861, 18.345804452930402, -5.529238181845898, 16.54932998790826, -5.727297126220015], [0.1890026819640418, 25.003479251795614, -21.224347889767866, 3.875353152462121, -3.4907256917893768, -3.259660829671878, -8.927600601980718, 7.661999763744167, 9.839714479480831, -0.36356823835730745, 1.8690560722701213, -18.444728360346748], [2.340516293135531, -13.747817290583132, -2.8719797977055834, -11.109532996603324, -4.112093335323474, 17.751863692826596, 5.460263187990093, -10.445379965366214, -0.46655371810849294, 9.598470879357452, 2.9160131302051666, 2.0227393406367753], [-16.679976234008258, -4.587874198074783, 15.243629427174005, 2.9241378129006437, 5.235198004779435, 20.565833361724057, 20.992130642585693, 4.819874546743949, 3.1176139011482182, -20.507474618265302, -12.602111433129869, -16.46802745554539], [5.20395002593004, -3.949586683736879, -15.328539965950466, 12.03357669716415, 5.91579813896772, 8.41659328906087, 15.190258694300244, 13.731808642028385, 6.147156971509564, -3.4527503920933516, 5.688692372070632, 6.8399095793066484], [2.2436032514552684, 2.7715975503160464, -11.064916747459831, -15.985747719475782, -7.263727099348978, 9.082305441065568, -5.455636240386488, 9.224666547170951, 18.549417091413446, -15.047531396999803, 17.360820084336417, -8.415791968488366], [2.8958719168044404, -19.95179957800144, -2.570084235502124, 11.029231544430807, -9.29253650918567, -22.146009562992493, -5.710044013290872, 17.18282393423233, 17.465942931195105, -20.007462392334105, -8.316301140084839, -0.6484247464491477], [6.771451241639035, -0.5529438069052022, 17.66151667212199, 4.19305011689151, 1.1092922759665538, 9.458850252150558, 3.979174045897365, -7.148238692088138, 28.252047787942505, -2.7086259081800956, -8.474547757187143, 3.322619741988167], [-10.432949839163735, 12.329514950524487, 1.3547579585764191, -0.9231849396285124, -4.806924080376295, -5.981859675044071, 2.0741663764280203, -12.648927050539971, -7.709995125719892, -7.36152517215408, -4.747352077479122, 17.13433936161708], [10.472270075091686, 3.8493711504887407, -4.001351260248331, 6.844747816429255, -11.800519302995097, 7.735979126785265, 13.168407977066156, 5.2723403924839225, -13.51567682380587, -19.605814107377064, 5.027329689249492, -2.122665270576929], [-5.584862817347123, -10.474536414650787, -7.377746592111129, -4.248134873000105, -3.7759317487796507, 37.6092365597594, -8.19118902520394, -3.0030794665700187, 4.84858631772683, 6.653873358536544, 4.688390575359057, 5.628310727138312], [-9.859709291305416, 18.914832007299584, -4.758118330011519, -10.577177827731255, 11.470441901959731, 8.589917286265129, -4.561845813800814, -7.827296983270052, -2.960649010261965, 7.135034689778177, -5.744201844703558, -13.595981056705565], [1.7047209520168694, 18.536167437348713, -19.197010428830957, -7.291979727715343, -5.52988304065847, -14.656867522288554, 15.786270290014112, 2.6293110130686275, 5.5986912476438615, -17.45172279150112, 33.49589089935293, 28.772094297194243], [-5.163965256711503, -23.38202357638889, 2.0603467747835924, 6.6925329162683225, -11.242944887741096, -11.66015904738626, 10.23100559545443, 2.068762133527739, 16.346629306602978, -30.040125444202527, -7.186970099871527, -9.17385753492501]], "weights_ho": [[-5.890092061824454, -9.995131444828994, -0.6592581805688129, -5.463515622040921, 13.47311455199113, -24.298950828342612, 17.473109648898784, 28.307906936696337, 9.796424608281026, -9.90318814431086, -16.078392265100675, 1.151854181490791, -3.6646899377078084, -1.7094750072439395, 15.134473854935756, 4.89781530691264], [-5.021868639471674, -2.739253938535139, 9.380361429632739, -19.013652938159375, 17.98334107394452, -10.411781289669149, 3.9653034684289143, -1.4999259755377112, -10.758146132656503, 5.406268653098648, 16.341139095306, -38.254182655715574, -5.003176300178536, 6.916965695194394, -19.75018565160133, -7.384788390398081], [4.016380824002719, -7.813695220516362, -4.729113781392234, -3.3566234990588812, -8.828233767836712, 8.052046566893592, -4.899225604791317, 0.16163343241245845, 3.1744120155570164, 6.0008748231915865, 21.862401589291988, -5.5127719975958875, 13.040568546457134, -24.41148082559831, -19.17170847456729, 6.6956865119656355], [-2.54464846535588, 32.43053209958864, -13.884973050120198, 9.201318642489076, -3.579799911652998, -1.1127617779362144, 12.34898546730562, -2.9802384588113813, 27.690085573165053, -24.618178975279363, 9.29862703536005, -11.405741691340959, -16.677119681483642, -6.103345210448577, -2.2197274136818472, 13.632201715394986]], "bias_h": [[-10.05706289347233], [-7.668835051919341], [-11.74232130196764], [-17.8297241945921], [-2.5667349956031416], [5.780991408012895], [21.666386429238784], [19.895217830576943], [3.2140461862405005], [-0.4234018546320061], [-0.5349571541977267], [15.983417825631804], [8.350331714391785], [1.431802964961176], [12.345106145579903], [6.793743657120147]], "bias_o": [[-4.566795622793267], [-1.801044652306376], [-11.615339029020566], [-12.155804873532063]]}, {"input_nodes": 12, "hidden_nodes": 16, "output_nodes": 4, "weights_ih": [[0.893412419085618, 5.1976172308626225, -8.456026660831904, -3.5239191518608366, 7.1315731079593645, -8.207372705027424, 8.868478720042997, 0.042932056573008526, 2.82239415236112, 0.08536937117328469, -5.402872386146941, -16.490829299582515], [-0.5024576832850014, -13.264464014159515, 5.988078639962629, -2.849818000219507, 12.762868199041913, -5.148418220036724, 16.634194287770313, 9.926511459100178, 1.564036571788962, -3.749531333455457, -9.13211317504234, 15.52628410531322], [8.696795781871614, 5.9098806675900075, -4.811893652304904, 8.651353096380653, -16.641479595675506, -10.278024813058138, 16.884675163766254, -12.190719744396974, 18.38109760511555, -5.718317715081355, 16.566442246023655, -5.708489317898388], [0.24065467180395633, 24.912049669555866, -21.31403548648801, 3.875353152462121, -3.4907256917893768, -3.2935667415268197, -8.970321735806131, 7.456225144403312, 10.015111483142265, -0.36356823835730745, 1.9429380292604232, -18.415810560588817], [2.418265569791019, -13.667242642050653, -2.9362254758594175, -11.03023927158612, -4.048720623754032, 17.818460420803547, 5.473184020541277, -10.445379965366214, -0.5038329202318982, 9.598470879357452, 2.9054109815034628, 2.0227393406367753], [-16.75127283138403, -4.627954180643257, 15.350340314989024, 3.017301407431198, 5.235198004779435, 20.602044794692357, 20.959857009248825, 4.841019387111111, 3.062155398181913, -20.506984320519628, -12.589767224854944, -16.46802745554539], [5.311546350581235, -3.949586683736879, -15.257169009192634, 11.886305473159927, 6.086660689730093, 8.690731370896907, 15.251387925241753, 13.731808642028385, 6.185281965020311, -3.4527503920933516, 5.49873677242363, 6.80214004388006], [2.153068493192674, 2.7516212266463103, -11.064916747459831, -16.213378258830776, -6.982864592605681, 9.157075594266756, -5.412032287742955, 9.224666547170951, 18.780614134152405, -15.164900015379036, 17.475666123140662, -8.415791968488366], [2.8958719168044404, -19.95179957800144, -2.570084235502124, 10.910317546131992, -9.355376185485168, -22.09745903942255, -5.638525968646511, 17.19574013755624, 17.465942931195105, -20.05526562784552, -8.316301140084839, -0.6018213927065428], [6.7076264440906135, -0.5529438069052022, 17.614934852032786, 4.341566995335127, 1.1092922759665538, 9.610032699467316, 3.838215564694814, -7.184471842238882, 28.297895419151615, -2.894202057821814, -8.656916578098626, 3.322619741988167], [-10.389532425171756, 12.1779631914219, 1.3547579585764191, -0.9746986618067851, -4.83350015109485, -6.313426861004308, 1.9083399931761849, -12.650455744028724, -7.702238112308465, -7.282698870696707, -4.4332396524501565, 17.23872916787758], [10.41996908570184, 3.8493711504887407, -4.170394905766241, 6.870256341614013, -11.810218722636382, 7.778447520198089, 13.085161300293803, 5.063670475926326, -13.51567682380587, -19.53911612727273, 4.986753198635117, -2.122665270576929], [-5.504540655489123, -10.376687127956938, -7.030285218274263, -4.248134873000105, -3.5147100894265746, 37.605490443806, -8.19118902520394, -2.987782072836178, 4.939753950546384, 6.653873358536544, 4.682846960247388, 5.70025595598312], [-10.011626560202108, 18.81289960434069, -4.910283382482558, -10.500159177481457, 11.412404005649298, 8.589917286265129, -4.483127419557374, -7.884088159343293, -2.777829425040685, 6.971817394473805, -5.822837913802787, -13.55432096929956], [1.7293844463776313, 18.536167437348713, -19.13637748507215, -7.246486175015933, -5.567252709869668, -14.628104127407207, 15.786270290014112, 2.6193185432666954, 5.587516066062858, -17.20950980784025, 33.57998804260287, 28.774475267305405], [-5.126757773933144, -23.221432270191052, 2.0603467747835924, 6.5297984356566205, -11.242944887741096, -11.671931207440606, 10.264997284112319, 2.16878411550109, 16.514177826068778, -29.984021029694627, -7.186970099871527, -9.099888810985602]], "weights_ho": [[-5.833458480414772, -9.960219376426515, -0.6388811636111735, -5.463515622040921, 13.308270647405575, -24.298950828342612, 17.473109648898784, 28.31197004401219, 9.937214699709806, -9.79744361709622, -16.078392265100675, 1.3467909197398633, -3.6646899377078084, -1.7094750072439395, 15.134473854935756, 4.953497812879175], [-4.975584571383663, -2.7192031002261348, 9.454262547337823, -19.009628931952612, 17.98334107394452, -10.265260417680357, 3.98535592996866, -1.4828699686326743, -10.50124387935586, 5.472715235566694, 16.379330190204115, -38.307234495688824, -4.894748065007284, 6.857509373200622, -19.770299208488847, -7.374794934477885], [4.016380824002719, -7.784019838935258, -4.639489772563923, -3.4730876002740025, -8.805089919867866, 8.004721995382228, -4.899225604791317, 0.33197724691163866, 3.179479284873556, 6.0008748231915865, 21.862401589291988, -5.415377173773522, 12.938291780253238, -24.5654506344422, -19.27462306596366, 6.7276406653425385], [-2.3166393107815715, 32.65172437051644, -13.884973050120198, 9.201318642489076, -3.4905219981889384, -1.1127617779362144, 12.354159488333885, -2.985843128456259, 27.691188421327134, -24.76199540946142, 9.093537257231658, -11.405741691340959, -16.677119681483642, -6.070978526366202, -2.2502404985430418, 13.68896655946559]], "bias_h": [[-10.112091774447576], [-7.668835051919341], [-11.672941518566196], [-17.8764681917539], [-2.517846516014269], [5.519358000861614], [21.63375930091913], [20.051261496227124], [3.3644946379476752], [-0.6460608100055385], [-0.5132139847288263], [16.154891573202676], [8.480341605447979], [1.431802964961176], [12.348559499409278], [6.8351619376132415]], "bias_o": [[-4.496262706042874], [-1.801044652306376], [-11.734870586642991], [-12.155804873532063]]}, {"input_nodes": 12, "hidden_nodes": 16, "output_nodes": 4, "weights_ih": [[0.893412419085618, 5.176137875754807, -8.439750293612434, -3.554714156534701, 7.036374541356914, -8.211151181785047, 8.929876218695378, -0.08422097138111839, 2.8223110541060907, 0.02973615953012773, -5.278903200441396, -16.579510699104574], [-0.5024576832850014, -13.175983433398665, 5.988078639962629, -2.7771596551866713, 12.538202469599225, -5.066410032729719, 16.579095822914784, 9.927763685888467, 1.564036571788962, -3.7810520173727684, -9.091149718091037, 15.53565221529975], [8.605802931338895, 5.9098806675900075, -5.024046946867025, 8.790245160858282, -16.641479595675506, -10.278024813058138, 16.884675163766254, -12.427928662406805, 18.502114318681706, -5.596132550841352, 16.583306752874254, -5.85597921300167], [0.32945860125465803, 25.036490470791513, -21.31403548648801, 3.875353152462121, -3.5675301138406925, -3.3199919610373767, -8.970321735806131, 7.570046177441217, 9.83350185872767, -0.36356823835730745, 1.8690560722701213, -18.36765243984882], [2.4982761501525825, -13.641944351852535, -2.8396266383970756, -11.109532996603324, -4.135105432713735, 17.751863692826596, 5.378535003922689, -10.445379965366214, -0.4583273770371624, 9.576760892174084, 2.9054109815034628, 2.0225868915987024], [-16.75127283138403, -4.901156463135247, 15.350340314989024, 3.0706866263923605, 5.254308387727347, 20.602044794692357, 20.959857009248825, 4.842013230320019, 3.1557237009751233, -20.378082130830837, -12.602111433129869, -16.46802745554539], [5.279303019002454, -3.949586683736879, -15.389476152839771, 12.132213427994964, 6.086660689730093, 8.447311516211414, 15.230577212980052, 13.731808642028385, 6.076041940850095, -3.435356316569141, 5.688692372070632, 6.804934744953384], [2.432919886390539, 2.7715975503160464, -11.161869357964957, -16.306940880357786, -7.2020740259512195, 9.153671157015443, -5.472327521566641, 9.27536011873776, 18.780614134152405, -15.047531396999803, 17.504366565089832, -8.415791968488366], [2.8958719168044404, -19.950818521635487, -2.570084235502124, 10.911527000730933, -9.326471128830383, -22.23419045999799, -5.710044013290872, 17.03286871752406, 17.465942931195105, -19.938573549385936, -8.316301140084839, -0.6018213927065428], [6.815938619714492, -0.600190699401163, 17.892220661631303, 4.293075125446203, 1.1396005660383606, 9.610032699467316, 4.072781137204802, -7.184471842238882, 28.446866222302454, -2.797981568226575, -8.558713778473658, 3.3079942922835675], [-10.569266290645691, 12.235830078869563, 1.3547579585764191, -1.1673225605670525, -4.7590818861701365, -6.151466565546925, 2.158889019249752, -12.648927050539971, -7.702238112308465, -7.142829384644051, -4.598477425464105, 17.23058762931658], [10.41996908570184, 3.8493711504887407, -4.037663597914245, 6.770086739478705, -11.800519302995097, 7.778447520198089, 13.163557876536629, 4.989060793378066, -13.506438962140763, -19.550194730664803, 5.027329689249492, -2.2835798550369684], [-5.504540655489123, -10.658267406791097, -7.030285218274263, -4.067890331923576, -3.7817801820769983, 37.6092365597594, -8.183024553278589, -3.0030794665700187, 4.84858631772683, 6.767428106363012, 4.6861866088739985, 5.738236037391884], [-9.925861413818357, 18.843392337648215, -4.758118330011519, -10.54963798504027, 11.412404005649298, 8.490639551906536, -4.536514379204184, -7.926586166039849, -2.960649010261965, 6.9973441556922955, -5.744201844703558, -13.737050740989728], [1.7293844463776313, 18.608829868210236, -19.13637748507215, -7.123927226516215, -5.502447037825093, -14.65176472554981, 15.603377347272902, 2.6193185432666954, 5.489666994586391, -17.370084091295606, 33.5795456848028, 28.715753179339824], [-5.163965256711503, -23.389516947825857, 2.0603467747835924, 6.629201614485808, -11.263875251319574, -11.410772195347436, 10.23100559545443, 2.16878411550109, 16.514177826068778, -29.984021029694627, -7.186970099871527, -9.061191102610787]], "weights_ho": [[-5.890092061824454, -10.03465683872319, -0.6592581805688129, -5.536931087504436, 13.47311455199113, -24.29260752137147, 17.425981626861226, 28.31197004401219, 9.937214699709806, -9.86962095359603, -16.078392265100675, 1.1469618820515228, -3.7718374796734486, -1.4980920493920953, 15.215239704424796, 4.89781530691264], [-4.958444175142373, -2.7192031002261348, 9.380361429632739, -19.097996892958086, 17.87178295560052, -10.300749680264094, 3.9653034684289143, -1.5201470607122087, -10.619258030231263, 5.525099838077242, 16.21099531011294, -38.17183675025424, -4.813199614952319, 6.916965695194394, -19.687412618694836, -7.384788390398081], [4.016380824002719, -7.732711317192238, -4.713817690775011, -3.3630146385931083, -8.688331498203231, 8.073239683197768, -4.8484278268045795, 0.13569483100463403, 3.336818896325524, 6.0008748231915865, 21.862401589291988, -5.385120080729825, 13.054187244762609, -24.41148082559831, -19.245487431767522, 6.718945924183444], [-2.389920714411476, 32.65172437051644, -14.04430041699505, 9.196760188128723, -3.4905219981889384, -1.1512642420999741, 12.34898546730562, -2.9802384588113813, 27.690085573165053, -24.76199540946142, 9.329318214800978, -11.405741691340959, -16.653393426339377, -5.994292870631084, -2.1864524533950385, 13.632201715394986]], "bias_h": [[-10.112091774447576], [-7.668835051919341], [-11.672941518566196], [-17.96834999085677], [-2.6199483178385408], [5.547640016592516], [21.75174323765343], [19.78734060523642], [3.2586591219471575], [-0.5647367365489402], [-0.46055209317769796], [16.191448963741312], [8.497890207990107], [1.431802964961176], [12.348559499409278], [6.8351619376132415]], "bias_o": [[-4.566795622793267], [-1.801044652306376], [-11.734870586642991], [-12.155804873532063]]}, {"input_nodes": 12, "hidden_nodes": 16, "output_nodes": 4, "weights_ih": [[0.9482713289798533, 5.203115761962644, -8.456026660831904, -3.5058190066880313, 7.179062186069052, -8.167900714957668, 8.84882062610568, -0.13279111551836242, 3.0316519649306137, 0.07109865985402283, -5.044208925117052, -16.55268091564242], [-0.5024576832850014, -13.175983433398665, 6.090199543109761, -2.704397769915345, 12.625782126326081, -5.2207850861974405, 16.677473999156568, 9.981592696980275, 1.564036571788962, -3.749531333455457, -9.01053939519826, 15.53565221529975], [8.696795781871614, 5.826895386153997, -5.184705530048463, 8.651353096380653, -16.641479595675506, -10.421668850148517, 16.94326757412858, -12.36770388421861, 18.431262625367175, -5.6939724687653825, 16.476896130119766, -5.853381287099377], [0.24065467180395633, 25.003479251795614, -21.294174345804247, 3.6425957953117476, -3.4907256917893768, -3.2935667415268197, -9.12328986770726, 7.516386565478733, 9.839714479480831, -0.36356823835730745, 1.8690560722701213, -18.299093985660676], [2.125401097658862, -13.660164036345298, -2.9676407450124587, -11.107225826036888, -4.351990138459946, 17.688811587161805, 5.378535003922689, -10.445379965366214, -0.48988217061548894, 9.598470879357452, 2.9054109815034628, 2.060607604204292], [-16.75127283138403, -4.760561710859659, 15.350340314989024, 3.0631416522396964, 5.264292081792352, 20.65437263060116, 20.959857009248825, 4.7107307766191155, 3.1557237009751233, -20.5070963209305, -12.602111433129869, -16.484367220106147], [5.279303019002454, -3.949586683736879, -15.328539965950466, 11.940979223982417, 6.086660689730093, 8.433740849144089, 15.230577212980052, 13.834628942228763, 6.147156971509564, -3.4527503920933516, 5.688692372070632, 6.916445174484858], [2.2436032514552684, 2.635623820931486, -11.064916747459831, -16.235803965365523, -7.176653449923665, 9.076159280596416, -5.5237032332161595, 9.224666547170951, 18.734233146761305, -14.92430670300992, 17.436531728786896, -8.29938841915734], [2.8958719168044404, -19.844554264295258, -2.6036297469767815, 10.997892145436042, -9.29253650918567, -22.1344592671074, -5.710044013290872, 16.96378464678351, 17.516040762448622, -19.902406388000077, -8.316301140084839, -0.6018213927065428], [6.7427042633132945, -0.5529438069052022, 17.789544568152603, 4.044178134148968, 1.0778097751362339, 9.57474437458793, 3.979174045897365, -7.251325925021121, 28.399188517343273, -2.77289806433888, -8.656916578098626, 3.371592695802644], [-10.569266290645691, 12.224177304898008, 1.3547579585764191, -1.0938525725989798, -4.871860020882896, -6.244989304844492, 2.1069200349918256, -12.648927050539971, -7.702238112308465, -7.330595435854557, -4.444107457067647, 17.047864431869733], [10.60906149020198, 3.9613383795411536, -4.1227228852845395, 6.770086739478705, -11.687480428333847, 7.737358464392543, 13.085161300293803, 5.057963662841394, -13.51567682380587, -19.610218470901202, 5.027329689249492, -2.156448475395], [-5.531475726117015, -10.5903041149798, -7.030285218274263, -4.248134873000105, -3.845965229815861, 37.62595280520507, -8.19118902520394, -3.0030794665700187, 4.84858631772683, 6.653873358536544, 4.572291019191281, 5.70025595598312], [-10.015133885407995, 18.891852049073982, -4.758118330011519, -10.448959870152946, 11.412404005649298, 8.603691929991209, -4.357929501790986, -7.884088159343293, -2.960649010261965, 7.140200641243046, -5.75493007265639, -13.629587594491982], [1.7293844463776313, 18.548765514413894, -19.171786203479847, -7.096602946898188, -5.458716475821905, -14.554762072069481, 15.782084228436856, 2.6193185432666954, 5.643160524047399, -17.35089113831181, 33.5063280649762, 28.814171671253533], [-5.254610277533514, -23.41168245390533, 1.9490762661473369, 6.5297984356566205, -11.256350944953434, -11.671931207440606, 10.281702795888338, 2.16878411550109, 16.514177826068778, -30.03513895652883, -7.174182959082818, -9.068335094420782]], "weights_ho": [[-5.890092061824454, -10.03465683872319, -0.6538466089525072, -5.4222879044149455, 13.47311455199113, -24.298950828342612, 17.414605196726253, 28.31197004401219, 9.827110019600637, -9.677288765299782, -16.056881764132047, 1.151854181490791, -3.841035046303897, -1.7094750072439395, 15.134473854935756, 4.89781530691264], [-4.975584571383663, -2.667761306670356, 9.314630416724544, -19.169318174481518, 17.838689926458283, -10.281953684730983, 3.9653034684289143, -1.521219601681281, -10.618791642487494, 5.406268653098648, 16.216509970027104, -38.17183675025424, -4.829338527192985, 6.962590583476368, -19.770299208488847, -7.277483120494701], [4.1199402960455656, -7.780623027087157, -4.729113781392234, -3.4344734556864687, -8.652269115017186, 8.073239683197768, -4.853955719779327, 0.33197724691163866, 3.1134326988430376, 6.0008748231915865, 21.831406053181528, -5.385120080729825, 12.981414273060086, -24.448242706653954, -19.27462306596366, 6.7276406653425385], [-2.5642156699947343, 32.652760116318156, -14.014111624450146, 9.201318642489076, -3.442022214077086, -1.0827532546265695, 12.42786950497051, -3.0615641550327073, 27.690085573165053, -24.76199540946142, 9.30751898900047, -11.422291203185694, -16.677119681483642, -6.070978526366202, -2.273351158311864, 13.720521209248504]], "bias_h": [[-10.10376099608354], [-7.7231992978024016], [-11.672941518566196], [-17.970888236727205], [-2.5667349956031416], [5.519358000861614], [21.75174323765343], [19.955880480900454], [3.2586591219471575], [-0.5647367365489402], [-0.5349571541977267], [16.041337901108705], [8.346531491499885], [1.431802964961176], [12.360866807781042], [6.8351619376132415]], "bias_o": [[-4.566795622793267], [-1.7880404328427615], [-11.734870586642991], [-12.155804873532063]]}, {"input_nodes": 12, "hidden_nodes": 16, "output_nodes": 4, "weights_ih": [[0.893412419085618, 5.204776005346791, -8.456026660831904, -3.6006185949763063, 7.135603343140975, -8.167900714957668, 8.95006104531026, -0.23540819450796713, 2.82239415236112, 0.08536937117328469, -5.204092178491893, -16.525524465519673], [-0.3446792573521952, -13.175983433398665, 5.991347423720701, -2.704397769915345, 12.52160673254162, -5.11303390940295, 16.72752466827793, 9.981592696980275, 1.564036571788962, -3.789541479270288, -9.051617445480256, 15.53565221529975], [8.752472087652903, 5.778764749099792, -5.187885004243159, 8.651353096380653, -16.69225610352396, -10.278024813058138, 16.800131209034223, -12.302333532239825, 18.431262625367175, -5.623605766387939, 16.64745272345138, -5.85597921300167], [0.4612733852648263, 25.003479251795614, -21.31403548648801, 3.875353152462121, -3.310436481743065, -3.307722988599671, -8.98177500512042, 7.570046177441217, 9.884121881213984, -0.36356823835730745, 1.6412065025466132, -18.444728360346748], [2.3564270524320157, -13.747817290583132, -2.9676407450124587, -11.109532996603324, -4.009858977312892, 17.751863692826596, 5.501393982873275, -10.445379965366214, -0.4788614897270163, 9.578235473206785, 2.9054109815034628, 2.0227393406367753], [-16.657959417130996, -4.7323380507169075, 15.350340314989024, 3.0706866263923605, 5.235198004779435, 20.627768708670683, 20.959857009248825, 4.842013230320019, 3.1557237009751233, -20.44624858972537, -12.74187036238327, -16.468402781523835], [5.279303019002454, -3.949586683736879, -15.501361164634007, 11.943339905648207, 6.086660689730093, 8.47800003357542, 15.173874166037965, 13.5857104147362, 6.147156971509564, -3.4527503920933516, 5.4933834801692605, 6.80214004388006], [2.2436032514552684, 2.822078354744009, -11.054832169843673, -16.235803965365523, -7.265713528946024, 8.988135143335246, -5.455636240386488, 9.163602410020458, 18.78464126676511, -14.963841562995954, 17.571700013280367, -8.415791968488366], [2.861023824954167, -19.95179957800144, -2.7207797721303777, 10.850413460539878, -9.279233268706282, -22.250789731663662, -5.710044013290872, 17.03286871752406, 17.465942931195105, -19.791772747644494, -8.316301140084839, -0.6018213927065428], [6.6564587644864455, -0.5529438069052022, 17.66151667212199, 4.349684303783766, 1.0499753249339738, 9.610032699467316, 4.091724346758856, -7.184471842238882, 28.413391777986497, -2.834483715046835, -8.656916578098626, 3.322619741988167], [-10.628770029803473, 12.224177304898008, 1.3547579585764191, -1.0781239683127732, -4.6623855794960924, -6.149548742607609, 2.1156806277124827, -12.700589177440952, -7.760895842744259, -7.212905347953559, -4.482458288930777, 17.364226555012095], [10.499404990687445, 3.8926548739011952, -4.142365724723532, 6.770086739478705, -11.800519302995097, 7.680099948443257, 13.085161300293803, 5.063670475926326, -13.51567682380587, -19.610218470901202, 5.027329689249492, -2.264142799053094], [-5.504540655489123, -10.537993592599774, -7.030285218274263, -4.317625060801698, -3.7817801820769983, 37.494258673054134, -8.19118902520394, -3.0999176937900828, 4.763749452298467, 6.722199036050494, 4.688390575359057, 5.787844954934566], [-10.015133885407995, 18.891852049073982, -4.554993188580356, -10.500159177481457, 11.412404005649298, 8.429635973951882, -4.483127419557374, -7.923505547051382, -2.960649010261965, 7.305413745530698, -5.744201844703558, -13.643522408330139], [1.7293844463776313, 18.536167437348713, -19.241343928488696, -7.291979727715343, -5.48832876226959, -14.530022772122642, 15.786270290014112, 2.6193185432666954, 5.511758768233936, -17.182386640680193, 33.57998804260287, 28.807612749997872], [-5.122397633303482, -23.38202357638889, 2.171022066501727, 6.315961014631443, -11.214625127749557, -11.671931207440606, 10.23100559545443, 2.16878411550109, 16.754876783320647, -29.984021029694627, -7.277885697237654, -9.199219969833619]], "weights_ho": [[-5.91626164078648, -10.03465683872319, -0.6592581805688129, -5.463515622040921, 13.515580238965795, -24.2710480225715, 17.581872061385866, 28.259882876313295, 9.987904316820693, -9.79744361709622, -15.988245169089678, 0.9767283039202307, -3.774083477783899, -1.7094750072439395, 15.134473854935756, 4.827643657204751], [-4.975584571383663, -2.7192031002261348, 9.422652118723272, -18.744902008095135, 18.031641776546767, -10.300749680264094, 3.9653034684289143, -1.73614107540167, -10.619258030231263, 5.4654216325634195, 16.216509970027104, -38.08655271375643, -4.894748065007284, 7.09101991652758, -19.770299208488847, -7.384788390398081], [4.016380824002719, -7.880205229672997, -4.729113781392234, -3.3630146385931083, -8.688331498203231, 8.180129847516234, -4.844465102372459, 0.29937000833616284, 3.252660140871816, 5.940398575113682, 21.81515321524361, -5.285475112980674, 13.123584514501816, -24.494081795186506, -19.269714840941866, 6.7276406653425385], [-2.54464846535588, 32.65172437051644, -13.884973050120198, 9.151135136938102, -3.569117788966438, -0.9513047656887963, 12.34898546730562, -3.168154127016302, 27.690085573165053, -24.858247889053256, 9.29862703536005, -11.405741691340959, -16.611635226734354, -6.116264400524738, -2.2460815240585807, 13.632201715394986]], "bias_h": [[-10.040006456503477], [-7.649052108667571], [-11.725297178626642], [-18.021128776329007], [-2.5696481405310703], [5.480938946952342], [21.752398577700948], [19.955880480900454], [3.379810885419177], [-0.6539034148029766], [-0.5349571541977267], [16.183432803608], [8.376930875238513], [1.3033895764586507], [12.376319456375924], [6.8351619376132415]], "bias_o": [[-4.566795622793267], [-1.8898379958543983], [-11.805749894296918], [-12.155804873532063]]}, {"input_nodes": 12, "hidden_nodes": 16, "output_nodes": 4, "weights_ih": [[0.893412419085618, 5.203115761962644, -8.456026660831904, -3.6006185949763063, 7.130600383258872, -8.167900714957668, 8.85647911463432, -0.16042705125177184, 2.82239415236112, 0.0568115023141985, -5.359885299807543, -16.556762474102936], [-0.5024576832850014, -13.175983433398665, 6.047452508781153, -2.75488542859409, 12.625782126326081, -5.271926698034687, 16.710827330196526, 9.981592696980275, 1.5445819739430773, -3.766009710073646, -9.139162213593266, 15.53565221529975], [8.696795781871614, 5.9098806675900075, -5.024046946867025, 8.651353096380653, -16.641479595675506, -10.278024813058138, 16.884675163766254, -12.36770388421861, 18.494683497573213, -5.868626096246677, 16.836366033402104, -5.85597921300167], [0.24065467180395633, 24.991631018082725, -21.31403548648801, 3.875353152462121, -3.4907256917893768, -3.2571519802075954, -8.798504078078748, 7.568612972743099, 9.839714479480831, -0.36356823835730745, 1.8690560722701213, -18.345399437251373], [2.340516293135531, -13.66972955728781, -3.083304993040492, -11.109532996603324, -4.107411930186631, 17.852487447164116, 5.552242677388116, -10.445379965366214, -0.48381655434007104, 9.756985632511434, 2.8986393880140002, 1.9201609407752955], [-16.75127283138403, -4.7323380507169075, 15.306592998568327, 3.0706866263923605, 5.422954624688595, 20.602044794692357, 20.959857009248825, 4.842013230320019, 3.12705048450633, -20.344142230198223, -12.480599197438032, -16.568715117355982], [5.098912676035008, -4.020125589140331, -15.407329086619814, 12.01189050091089, 6.086660689730093, 8.47800003357542, 15.230577212980052, 13.731808642028385, 6.147156971509564, -3.489250276014052, 5.688692372070632, 6.7072463948935175], [2.2436032514552684, 2.555307889290894, -11.064916747459831, -16.235803965365523, -7.033168040213926, 9.101073858321541, -5.455636240386488, 9.224666547170951, 18.71819409668467, -15.047531396999803, 17.475666123140662, -8.485742970021896], [2.8958719168044404, -19.95179957800144, -2.570084235502124, 10.911527000730933, -9.29253650918567, -22.1344592671074, -5.710044013290872, 17.03286871752406, 17.465942931195105, -20.007462392334105, -8.202752128795977, -0.45836356047017257], [6.541472611990335, -0.6463429666618796, 17.661658879572474, 4.251965974337249, 1.1092922759665538, 9.592877122206728, 3.979174045897365, -7.197945046802339, 28.382609746323844, -2.6480954026130714, -8.585329210192826, 3.4247289805430388], [-10.586707229357803, 12.165071343402621, 1.3477161696600841, -1.0781239683127732, -4.780481401075726, -6.085297148277726, 1.9114253290371592, -12.648927050539971, -7.702238112308465, -7.208141540204949, -4.565987885301594, 17.16314165407619], [10.41996908570184, 3.8493711504887407, -4.142365724723532, 6.842179590888632, -11.848122206769895, 7.84249043614733, 13.085161300293803, 5.158750400096151, -13.522426553990634, -19.521179888795857, 5.035802601977839, -2.122665270576929], [-5.504540655489123, -10.537993592599774, -7.030285218274263, -4.248134873000105, -3.888129317671105, 37.58133508442746, -8.156597137857135, -3.0022879507464264, 4.741612778298742, 6.653873358536544, 4.76266301636311, 5.687166229243303], [-10.015133885407995, 18.891852049073982, -4.645659256649882, -10.36249133470279, 11.412404005649298, 8.589917286265129, -4.483127419557374, -7.884088159343293, -2.952092627557741, 7.217571926860503, -5.7865556501739945, -13.643522408330139], [1.7293844463776313, 18.536167437348713, -19.222554979719867, -7.291979727715343, -5.473265748055142, -14.554762072069481, 15.750843847283038, 2.518517270577909, 5.489666994586391, -17.35089113831181, 33.57998804260287, 28.8496000521898], [-5.199082666503937, -23.38202357638889, 2.107753128121778, 6.5297984356566205, -11.178840630925867, -11.671931207440606, 10.23100559545443, 2.16878411550109, 16.3875331308578, -29.984021029694627, -7.131858954999135, -9.229353927982013]], "weights_ho": [[-5.903309833806686, -10.03465683872319, -0.6592581805688129, -5.576844834704378, 13.47311455199113, -24.4019255340718, 17.473109648898784, 28.31197004401219, 9.937214699709806, -9.79744361709622, -16.14110700268334, 1.151854181490791, -3.7995027510702424, -1.7094750072439395, 14.981500207912422, 4.918800055111157], [-5.089244351242679, -2.631122849157569, 9.531598803958433, -19.110328237946423, 17.957125624889883, -10.300749680264094, 4.011472659686324, -1.3732305010714392, -10.698576774948629, 5.406268653098648, 16.117917848430825, -38.146607729205705, -4.894748065007284, 6.835777856273303, -19.770299208488847, -7.427303016946338], [3.8264350914018177, -7.780623027087157, -4.729113781392234, -3.3630146385931083, -8.509979271886909, 8.073239683197768, -4.771972365262779, 0.33197724691163866, 3.1744120155570164, 5.8986768055002, 21.932776030510276, -5.347175864673836, 13.232587987103825, -24.318724022419246, -19.27462306596366, 6.7276406653425385], [-2.4282151785659782, 32.49754422293367, -13.62611714570009, 9.201318642489076, -3.4216489544252786, -1.1127617779362144, 12.28224083763272, -2.9802384588113813, 27.576943309214467, -24.76199540946142, 9.29862703536005, -11.368654113940666, -16.678744277450427, -6.070978526366202, -2.273351158311864, 13.46339367391234]], "bias_h": [[-10.16874807888705], [-7.668835051919341], [-11.713443961344309], [-18.005780498540037], [-2.5551341817554385], [5.640258911214294], [21.75174323765343], [19.955880480900454], [3.2586591219471575], [-0.5647367365489402], [-0.48455355475670986], [16.183432803608], [8.336633027595038], [1.431802964961176], [12.348559499409278], [6.8351619376132415]], "bias_o": [[-4.566795622793267], [-1.7672227530187774], [-11.541725036678095], [-12.155804873532063]]}, {"input_nodes": 12, "hidden_nodes": 16, "output_nodes": 4, "weights_ih": [[0.7991517496213945, 5.221273810507409, -8.500270872590443, -3.6006185949763063, 7.1315731079593645, -8.167900714957668, 8.90911594982312, -0.13279111551836242, 2.82239415236112, 0.08536937117328469, -4.986605511821147, -16.48693950063845], [-0.5024576832850014, -13.175983433398665, 5.959315892208459, -2.7964719261040694, 12.528572223986853, -4.9944597574849325, 16.6799346458657, 9.981592696980275, 1.6310098263045492, -3.749531333455457, -9.195235148394953, 15.53565221529975], [8.696795781871614, 5.9098806675900075, -5.024046946867025, 8.58838016343155, -16.762173318896792, -10.278024813058138, 16.884675163766254, -12.36770388421861, 18.431262625367175, -5.758003567694572, 16.638206041302766, -5.804761824797068], [0.24065467180395633, 25.011887032942916, -21.2765953398535, 3.875353152462121, -3.594332231053334, -3.3632387973129134, -8.854098829380229, 7.375563723706004, 9.776918202162763, -0.3720213269885784, 2.020997832076872, -18.444728360346748], [2.469608115574579, -13.747817290583132, -3.0991921027017426, -11.109532996603324, -4.1249189352332385, 17.724990851687235, 5.378535003922689, -10.445379965366214, -0.4583273770371624, 9.714646585104184, 3.0004630729239903, 1.8867500374104151], [-16.75127283138403, -4.7323380507169075, 15.350340314989024, 3.0706866263923605, 5.2990998799937366, 20.52850561255819, 20.9246148530847, 4.805589867318058, 3.3699828455729266, -20.46872025063565, -12.61366857794199, -16.46802745554539], [5.279303019002454, -3.949586683736879, -15.406276726971356, 12.040144124662508, 6.2384383612484875, 8.442527053946376, 15.230577212980052, 13.607562330190811, 6.144106456128796, -3.380778099295899, 5.591356452667575, 6.80214004388006], [2.162847815456027, 2.872422972599119, -11.064916747459831, -16.249941124275498, -7.2020740259512195, 9.222092409481693, -5.455636240386488, 9.321382360433457, 18.780614134152405, -14.962614109732161, 17.59148712000529, -8.391837072711937], [2.8958719168044404, -19.95179957800144, -2.570084235502124, 10.948660161002172, -9.29253650918567, -22.304175875640688, -5.596919495903957, 17.03286871752406, 17.465942931195105, -20.054653098738864, -8.316301140084839, -0.5614058297327283], [6.637953333757022, -0.47147629838973304, 17.66151667212199, 4.318900949661552, 1.1092922759665538, 9.557416226088321, 3.775569699381038, -7.113027809357293, 28.336081500751103, -2.9014304977815795, -8.645002871806689, 3.322619741988167], [-10.50045652044598, 12.224177304898008, 1.2712229530824066, -1.0319726155144557, -4.897558062647695, -6.257346619447373, 2.0741663764280203, -12.724448240336974, -7.681167917876974, -7.212905347953559, -4.552664667189293, 17.16314165407619], [10.41996908570184, 3.744745732567001, -4.132756429685243, 6.662009941773201, -11.800519302995097, 7.754012198665543, 12.93049834165384, 5.005577872706484, -13.445741288553572, -19.610218470901202, 5.027329689249492, -1.9840245383488335], [-5.504540655489123, -10.537993592599774, -7.030285218274263, -4.248134873000105, -3.7817801820769983, 37.68241378728857, -8.19118902520394, -3.0030794665700187, 4.84858631772683, 6.653873358536544, 4.688390575359057, 5.604933258422555], [-10.015133885407995, 18.891852049073982, -4.758118330011519, -10.510954414260492, 11.490775702704422, 8.493466115002892, -4.483127419557374, -7.868916704061315, -2.9090882135225615, 7.4340101533752065, -5.743868323984901, -13.872454329930184], [1.7293844463776313, 18.536167437348713, -19.15176639487156, -7.291979727715343, -5.456027359302536, -14.554762072069481, 15.786270290014112, 2.648393379563446, 5.489666994586391, -17.263582863909154, 33.57998804260287, 28.7983327797712], [-5.1124268029690905, -23.465147721750878, 2.0603467747835924, 6.337162937788698, -11.242944887741096, -11.671931207440606, 10.193503889995746, 2.16878411550109, 16.514177826068778, -29.92474110225069, -7.186970099871527, -9.249344949733036]], "weights_ho": [[-5.998245674749499, -10.03465683872319, -0.6824105604331923, -5.463515622040921, 13.445552675456465, -24.298950828342612, 17.473109648898784, 28.31197004401219, 9.937214699709806, -9.683569429657416, -16.02552850912064, 1.22070338592077, -3.766807165415814, -1.657236217156249, 15.242695579141111, 4.835987900573705], [-4.975584571383663, -2.7192031002261348, 9.225054140053157, -19.131785062777464, 17.98334107394452, -10.273160270055174, 3.9653034684289143, -1.5048620594922493, -10.619258030231263, 5.406268653098648, 16.11210895732019, -38.17900546685411, -4.894748065007284, 6.844642597854386, -19.745112060320174, -7.384788390398081], [4.016380824002719, -7.553369013113336, -4.786725152321606, -3.3246881267792983, -8.664633495271717, 8.097618310714088, -4.899225604791317, 0.08593880032927848, 3.1861742131948247, 6.00991581681857, 21.941424040661154, -5.385120080729825, 13.123584514501816, -24.41148082559831, -19.35872160121486, 6.8379184682741405], [-2.561506098911521, 32.67246450582098, -13.884973050120198, 9.13549559803635, -3.3891576605101434, -1.1127617779362144, 12.34308085823501, -2.8153515701609413, 27.690085573165053, -24.76199540946142, 9.29862703536005, -11.405741691340959, -16.71247997620403, -6.070978526366202, -2.3010853475656723, 13.858099740797037]], "bias_h": [[-10.112517218072309], [-7.809445172905965], [-11.656445975806353], [-17.993666984015064], [-2.5667349956031416], [5.519358000861614], [21.75174323765343], [19.955880480900454], [3.2586591219471575], [-0.6098160805260452], [-0.4445720390370802], [16.183432803608], [8.67414769531861], [1.487981268548365], [12.348559499409278], [6.968657115331686]], "bias_o": [[-4.605827192850268], [-1.8965159274450412], [-11.734870586642991], [-12.100935709241911]]}, {"input_nodes": 12, "hidden_nodes": 16, "output_nodes": 4, "weights_ih": [[0.893412419085618, 5.037098732101749, -8.530506118258034, -3.647044818684803, 7.1315731079593645, -8.014251223423187, 8.866248332021817, -0.13393219512301419, 2.82239415236112, 0.08536937117328469, -5.204092178491893, -16.45915828787765], [-0.5024576832850014, -13.175983433398665, 5.988078639962629, -2.704397769915345, 12.625782126326081, -5.007904866079974, 16.798692140434966, 9.97591226046336, 1.564036571788962, -3.816110252743397, -9.13211317504234, 15.53565221529975], [8.86138354711259, 5.9098806675900075, -5.098720688821521, 8.651353096380653, -16.641479595675506, -10.278024813058138, 16.776161267821912, -12.282258017117078, 18.421295478628704, -5.718317715081355, 16.45091911447845, -5.90259464115282], [0.41879143925944073, 25.003479251795614, -21.31403548648801, 3.8880379745205453, -3.4133239110714215, -3.298427844754084, -8.970321735806131, 7.570046177441217, 9.860658141911115, -0.36356823835730745, 1.8690560722701213, -18.444728360346748], [2.321829822211818, -13.670166008272506, -2.9676407450124587, -11.307533400253822, -4.107411930186631, 17.751863692826596, 5.383759946593391, -10.322817449671783, -0.48271763720066946, 9.598470879357452, 2.756880077912132, 2.0227393406367753], [-16.789379307898482, -4.600560160490711, 15.294472757828121, 3.0706866263923605, 5.235198004779435, 20.638339730824832, 21.020607636184348, 4.842013230320019, 3.1557237009751233, -20.5070963209305, -12.602111433129869, -16.46802745554539], [5.279303019002454, -3.949586683736879, -15.142387185091112, 11.93595746116929, 6.3640633543180565, 8.252255861195119, 15.185265372804318, 13.731808642028385, 6.147156971509564, -3.4527503920933516, 5.688692372070632, 6.819207097443439], [2.2436032514552684, 2.8815579538579197, -11.064916747459831, -16.235803965365523, -7.15312401108577, 9.225367984508557, -5.486162146570489, 9.247402410817426, 18.780614134152405, -14.992647569881324, 17.58134376618328, -8.415791968488366], [2.8958719168044404, -19.95179957800144, -2.548849133859902, 10.857483108502723, -9.29253650918567, -22.27136703936966, -5.7835969107446035, 17.03286871752406, 17.465942931195105, -20.007462392334105, -8.271350202422166, -0.5645532823322771], [6.637953333757022, -0.43036809241229695, 17.697111344697404, 4.1587366880195615, 1.1092922759665538, 9.610032699467316, 3.979174045897365, -7.183794037714854, 28.318167315136908, -2.701070904154343, -8.656916578098626, 3.322619741988167], [-10.520656809342102, 12.224177304898008, 1.3741639187703427, -1.0781239683127732, -4.7590818861701365, -6.151466565546925, 2.0741663764280203, -12.558547072159216, -7.702238112308465, -7.2711690838749305, -4.598477425464105, 17.167491364455643], [10.41996908570184, 3.6462873891021887, -4.142365724723532, 6.770086739478705, -11.689886456848319, 7.778447520198089, 13.132115617090225, 5.063670475926326, -13.51567682380587, -19.610218470901202, 5.11752762215725, -2.122665270576929], [-5.504540655489123, -10.544782265943404, -6.904563136786619, -4.315123364715484, -3.7817801820769983, 37.6092365597594, -8.175011609044791, -3.0030794665700187, 4.84858631772683, 6.692716501708474, 4.688390575359057, 5.70025595598312], [-10.015133885407995, 18.891852049073982, -4.7386728601153285, -10.627953263189351, 11.504875885048746, 8.737845181729005, -4.483127419557374, -8.009654428757532, -3.045982502183829, 7.066980214176761, -5.744201844703558, -13.643522408330139], [1.7293844463776313, 18.616763575155456, -19.13637748507215, -7.377995695981434, -5.418576803740986, -14.554762072069481, 15.74676868978869, 2.5291709271964957, 5.411502332800557, -17.49180781403931, 33.65573928296121, 28.826641420528837], [-5.163965256711503, -23.377043935264247, 2.0603467747835924, 6.653276930374737, -11.242944887741096, -11.540478292758705, 10.22735942376115, 2.066312953237048, 16.514177826068778, -30.121130015252835, -7.186970099871527, -8.993893637214416]], "weights_ho": [[-5.890092061824454, -10.03465683872319, -0.5909301742668184, -5.463515622040921, 13.47311455199113, -24.316665466207485, 17.473109648898784, 28.31197004401219, 9.937214699709806, -9.79744361709622, -16.08781746673564, 1.0733227644529615, -3.6646899377078084, -1.7094750072439395, 15.274063632955622, 4.967688412954815], [-4.848418307498235, -2.7192031002261348, 9.54226622685712, -19.110328237946423, 17.98334107394452, -10.325102836975837, 3.888480856337784, -1.4828699686326743, -10.619258030231263, 5.406268653098648, 16.312042760260628, -38.239417343722636, -4.894748065007284, 6.97894923516209, -19.80320162718559, -7.384788390398081], [4.099465324599638, -7.780623027087157, -4.84764163031252, -3.3630146385931083, -8.81432328220667, 8.073239683197768, -4.899225604791317, 0.33197724691163866, 3.1744120155570164, 6.0008748231915865, 21.862401589291988, -5.385120080729825, 13.123584514501816, -24.41148082559831, -19.299586753323002, 6.660007483213964], [-2.5190797239868856, 32.65172437051644, -14.011313000552057, 9.257221333607802, -3.4905219981889384, -1.183340739146031, 12.55712872091376, -2.9802384588113813, 27.77376275349101, -24.76199540946142, 9.279941085134565, -11.321971237429773, -16.677119681483642, -6.070978526366202, -2.217475584167222, 13.632201715394986]], "bias_h": [[-10.112091774447576], [-7.668835051919341], [-11.75355093306847], [-17.955702155082527], [-2.594045616785986], [5.453319875692892], [21.75174323765343], [19.939758586952177], [3.2586591219471575], [-0.5647367365489402], [-0.5349571541977267], [16.183432803608], [8.464298996487036], [1.34201926662608], [12.329654558482037], [6.8351619376132415]], "bias_o": [[-4.566795622793267], [-1.801044652306376], [-11.749615290550459], [-12.155804873532063]]}, {"input_nodes": 12, "hidden_nodes": 16, "output_nodes": 4, "weights_ih": [[0.7868055791209824, 5.203115761962644, -8.415072017649619, -3.6006185949763063, 7.242601989359034, -8.031555200502906, 8.90911594982312, -0.08370768400184722, 2.82023755451472, -0.025391900964897074, -5.204092178491893, -16.48693950063845], [-0.4635274089330879, -13.171672833378791, 6.0144351988164475, -2.5533696652590647, 12.757952555211409, -5.11303390940295, 16.710827330196526, 9.981592696980275, 1.3876136128344287, -3.749531333455457, -9.13211317504234, 15.53565221529975], [8.696795781871614, 5.9098806675900075, -4.906674731507829, 8.446448147778781, -16.610201002560025, -10.234062364234248, 16.884675163766254, -12.36770388421861, 18.40327325504247, -5.718317715081355, 16.54013054916939, -5.956510961704298], [0.24065467180395633, 25.292076526154535, -21.315934036679224, 3.849138524661718, -3.4325108999439626, -3.2707954666631203, -8.970321735806131, 7.570046177441217, 9.839714479480831, -0.2097417095688757, 1.9555867790159236, -18.444728360346748], [2.4295674475632607, -13.747817290583132, -2.9676407450124587, -11.109532996603324, -4.107411930186631, 17.944923822521424, 5.302470866055069, -10.57261229681743, -0.2620472312822585, 9.701626498258543, 2.8704252536749157, 2.1542341688841553], [-16.873418752336274, -4.7323380507169075, 15.350340314989024, 3.0706866263923605, 5.235198004779435, 20.602044794692357, 20.847064888070733, 4.917754207975926, 3.182831930041854, -20.586263260380782, -12.602111433129869, -16.355544376425176], [5.279303019002454, -3.7303409292574314, -15.485798059361242, 12.01189050091089, 6.086660689730093, 8.637455154859849, 15.166312401479777, 13.731808642028385, 6.147156971509564, -3.372831044227246, 5.708406523072941, 6.87946487885396], [2.3408675926097273, 2.7715975503160464, -11.004203546680417, -16.1877977834678, -7.2020740259512195, 9.089111481199083, -5.455636240386488, 9.185848368073982, 18.780614134152405, -14.834944415091016, 17.45499364408962, -8.415791968488366], [2.9009254862991343, -20.006455550266743, -2.570084235502124, 10.896327012460644, -9.313833975463282, -22.1344592671074, -5.697189086903981, 17.03286871752406, 17.45685883439962, -20.007462392334105, -8.199151150679604, -0.6018213927065428], [6.511579149112679, -0.6295541240558278, 17.56286828423051, 4.212482136183058, 1.1092922759665538, 9.610032699467316, 3.979174045897365, -7.262143082892255, 28.337385574835352, -2.4872533118160276, -8.656916578098626, 3.322619741988167], [-10.569266290645691, 12.224177304898008, 1.2881413462218076, -0.9879030116577405, -4.7590818861701365, -6.133636801434895, 2.0741663764280203, -12.699044299459388, -7.702238112308465, -7.212905347953559, -4.598477425464105, 17.16314165407619], [10.4286911873067, 3.796868717513062, -4.002438206229848, 6.889606760451228, -11.800519302995097, 7.778447520198089, 12.87426179762752, 5.063670475926326, -13.51567682380587, -19.610218470901202, 5.027329689249492, -2.122665270576929], [-5.438662622113652, -10.537993592599774, -7.030285218274263, -4.298875962855851, -3.7817801820769983, 37.69299348317016, -8.19118902520394, -3.0030794665700187, 4.875763260285278, 6.515388137351883, 4.710388294772, 5.46997697389049], [-10.02068264038151, 18.891852049073982, -4.758118330011519, -10.500159177481457, 11.412404005649298, 8.589917286265129, -4.434207752110603, -7.884088159343293, -2.960649010261965, 7.057948988117469, -5.726773017016816, -13.549902509798523], [1.6908540776443977, 18.479880880296673, -19.13637748507215, -7.4857951506112155, -5.52988304065847, -14.540750070378216, 15.786270290014112, 2.7828514967043834, 5.371545278709787, -17.47179690707163, 33.57998804260287, 28.85918669363811], [-5.0070945213293525, -23.327286167260194, 2.0603467747835924, 6.5297984356566205, -11.242944887741096, -11.671931207440606, 10.255027342886141, 2.16878411550109, 16.514177826068778, -29.984021029694627, -6.992235446892293, -9.099888810985602]], "weights_ho": [[-6.034352652949078, -9.9665638822754, -0.6592581805688129, -5.434051468668394, 13.370748231467406, -24.298950828342612, 17.473109648898784, 28.31197004401219, 9.937214699709806, -9.79744361709622, -16.078392265100675, 1.151854181490791, -3.629158153466549, -1.766264679078555, 15.134473854935756, 4.921600646916193], [-4.975584571383663, -2.688777187798648, 9.335834261398908, -19.110328237946423, 17.98334107394452, -10.300749680264094, 3.9653034684289143, -1.4616823260745209, -10.619258030231263, 5.304811481769578, 16.118526991610338, -38.02547049512381, -4.894748065007284, 6.916028561760257, -19.770299208488847, -7.492181187690889], [4.016380824002719, -7.794927080222158, -4.729113781392234, -3.4018705076136415, -8.688331498203231, 8.073239683197768, -4.899225604791317, 0.33197724691163866, 3.1744120155570164, 6.1066686661096075, 21.862401589291988, -5.385120080729825, 13.01096042485025, -24.59393039285872, -19.362764284763667, 6.829823112949264], [-2.4065388199144317, 32.65172437051644, -13.884973050120198, 9.201318642489076, -3.423122441142277, -1.1038162148237745, 12.34898546730562, -2.8832597764608483, 27.690085573165053, -24.70824132202991, 9.255121084211398, -11.394265577578825, -16.838643148161292, -6.004826274063538, -2.273351158311864, 13.632201715394986]], "bias_h": [[-10.112091774447576], [-7.668835051919341], [-11.734089066015157], [-18.02230078962805], [-2.5667349956031416], [5.497615308081242], [21.75174323765343], [19.955880480900454], [3.271666783500281], [-0.5647367365489402], [-0.5349571541977267], [16.192890397413255], [8.480341605447979], [1.3607143900026775], [12.348559499409278], [6.8351619376132415]], "bias_o": [[-4.490712439790765], [-1.801044652306376], [-11.734870586642991], [-12.14062126969297]]}, {"input_nodes": 12, "hidden_nodes": 16, "output_nodes": 4, "weights_ih": [[0.893412419085618, 4.976836645187718, -8.456026660831904, -3.6006185949763063, 7.223111267147223, -8.167900714957668, 8.90911594982312, -0.14641920545375212, 2.911302420704937, 0.009737294770782168, -5.314138464664458, -16.47394732868825], [-0.6035343513808231, -13.175983433398665, 5.988084093999649, -2.628002366723257, 12.625782126326081, -5.11303390940295, 16.62527088638017, 9.981592696980275, 1.453240246630275, -3.749531333455457, -9.2378612713952, 15.505752246871424], [8.696795781871614, 5.908960673894552, -4.919156733873189, 8.651353096380653, -16.71824209634777, -10.278024813058138, 16.884675163766254, -12.682242780269506, 18.431262625367175, -5.957229956008781, 16.51217944455783, -5.85597921300167], [0.24065467180395633, 25.003479251795614, -21.31403548648801, 3.875353152462121, -3.4018649372870855, -3.244906906295153, -8.920413284206766, 7.6841249876098034, 10.09033512181103, -0.36356823835730745, 1.8690560722701213, -18.35165513416589], [2.340516293135531, -13.747817290583132, -3.1419497387071873, -11.109532996603324, -4.162277524342201, 17.746024159533377, 5.378535003922689, -10.504511929753427, -0.47508211059305655, 9.598470879357452, 2.794152422288352, 2.066911500003752], [-16.609123290448135, -4.608720974548613, 15.350340314989024, 3.086119847026511, 5.277525329547478, 20.602044794692357, 20.959857009248825, 4.842013230320019, 3.1557237009751233, -20.51009860449391, -12.541010411380173, -16.566309121148674], [5.344526787906198, -3.949586683736879, -15.373082542449538, 12.01189050091089, 6.075875567642645, 8.47800003357542, 15.230577212980052, 13.731808642028385, 6.201203395798514, -3.46614636934163, 5.5643555167993375, 6.804860765880864], [2.3378214685681735, 2.784631543005749, -10.857428526042545, -16.192318317912743, -7.20919398219698, 9.080575687499397, -5.455636240386488, 9.224666547170951, 18.780614134152405, -15.047531396999803, 17.452025362254158, -8.33331160730083], [2.8958719168044404, -20.090756236507357, -2.5578470501932937, 11.031673870175986, -9.29253650918567, -22.1344592671074, -5.710044013290872, 17.03286871752406, 17.465942931195105, -20.007462392334105, -8.316301140084839, -0.48141357814586505], [6.637953333757022, -0.5529438069052022, 17.66151667212199, 4.19305011689151, 1.133676436752862, 9.610032699467316, 3.979174045897365, -7.184471842238882, 28.419239098563164, -2.5956367875685946, -8.567353636653548, 3.322619741988167], [-10.569266290645691, 12.14709269334436, 1.3547579585764191, -1.0781239683127732, -4.852391540427672, -6.011471648950798, 2.0741663764280203, -12.648927050539971, -7.702238112308465, -7.212905347953559, -4.602393839450665, 17.16314165407619], [10.40754408145414, 3.8493711504887407, -4.091787900786927, 6.770086739478705, -11.723068258670317, 7.716069767301994, 13.085161300293803, 5.063670475926326, -13.51567682380587, -19.702447299284792, 4.957287414447211, -2.1909820505172575], [-5.39012699340612, -10.423216404562279, -7.030285218274263, -4.248134873000105, -3.7950710779344092, 37.66825932153936, -8.19118902520394, -3.1592922486811217, 4.7059396457070815, 6.400280960166214, 4.688390575359057, 5.811256308381729], [-9.972884847314358, 18.891852049073982, -4.659153930459056, -10.500159177481457, 11.412404005649298, 8.589917286265129, -4.483127419557374, -7.884088159343293, -2.815694756743376, 7.129804402869131, -5.615947133463217, -13.917009866365555], [1.7293844463776313, 18.474209102922767, -19.13637748507215, -7.302543252271837, -5.491396470285872, -14.644539681649421, 15.876968492933521, 2.6193185432666954, 5.468256966158116, -17.35089113831181, 33.520605871548504, 28.699972499951816], [-5.287261146425226, -23.50178064087633, 2.0603467747835924, 6.5297984356566205, -11.242944887741096, -11.671931207440606, 10.23100559545443, 2.1815631821761574, 16.514177826068778, -29.985680340612788, -7.155662481049285, -9.131880130712574]], "weights_ho": [[-5.9785015207495675, -9.949936492510378, -0.6592581805688129, -5.463515622040921, 13.47311455199113, -24.298950828342612, 17.473109648898784, 28.20226517971237, 9.802216756362762, -9.79744361709622, -16.078392265100675, 1.151854181490791, -3.6646899377078084, -1.8631760649871978, 15.134473854935756, 4.8514325658810575], [-4.900490288307986, -2.6619497011219218, 9.380361429632739, -19.267792918262153, 17.985702808173333, -10.171577506331705, 3.8511082348914814, -1.4828699686326743, -10.516016142442476, 5.406268653098648, 16.216509970027104, -38.152307582034794, -4.78352119957852, 6.916965695194394, -19.853442477605956, -7.384788390398081], [3.919735580931504, -7.716366882085384, -4.776769449853425, -3.323236560678901, -8.688331498203231, 8.101248201029621, -4.899225604791317, 0.23517482151083224, 3.286887903928119, 5.868896900732787, 21.86116326589396, -5.318927784973806, 13.123584514501816, -24.41148082559831, -19.071854086175787, 6.771048859664742], [-2.54464846535588, 32.65172437051644, -13.99421369025444, 9.153880117347763, -3.311494229504085, -1.1127617779362144, 12.393050392036935, -2.9802384588113813, 27.690085573165053, -24.76199540946142, 9.29862703536005, -11.469087108109019, -16.677119681483642, -6.131088172977054, -2.2767931907785854, 13.761834197135563]], "bias_h": [[-10.040269689483212], [-7.528384059664112], [-11.672941518566196], [-17.93423907966978], [-2.5667349956031416], [5.417538124615103], [21.700298432889294], [20.021413663411632], [3.124397845164844], [-0.5635623863803173], [-0.5214227138982206], [16.183432803608], [8.66852958018276], [1.6599817385231836], [12.348559499409278], [6.894328085680596]], "bias_o": [[-4.566795622793267], [-1.9706894880785968], [-11.644339578438418], [-12.155804873532063]]}, {"input_nodes": 12, "hidden_nodes": 16, "output_nodes": 4, "weights_ih": [[0.9086350823754276, 5.153268218178996, -8.456026660831904, -3.6006185949763063, 7.105837139129789, -8.167900714957668, 8.931040074100379, -0.2047896597447993, 2.82239415236112, 0.15665867127321698, -5.204092178491893, -16.48693950063845], [-0.5873414678536412, -13.029212253796894, 5.911605174491632, -2.704397769915345, 12.721875478702874, -5.087091311605052, 16.856110693696778, 9.981592696980275, 1.564036571788962, -3.749531333455457, -9.18086214338302, 15.384016965095062], [8.60287083560683, 5.9098806675900075, -5.024046946867025, 8.651353096380653, -16.641479595675506, -10.278024813058138, 16.884675163766254, -12.356334663823628, 18.366846684546214, -5.560770381158608, 16.403922591305076, -5.85597921300167], [0.24065467180395633, 25.136950009250754, -21.29518749561748, 3.875353152462121, -3.5886420121612197, -3.2935667415268197, -8.970321735806131, 7.570046177441217, 9.87958757085462, -0.2889052094916843, 1.9201113608790445, -18.490282803915097], [2.226911943741287, -13.747817290583132, -2.9684792910232134, -10.983455539062978, -4.107411930186631, 17.751863692826596, 5.420956160422779, -10.445379965366214, -0.4482363356793768, 9.633094778878572, 2.9054109815034628, 2.0227393406367753], [-16.75127283138403, -4.751020227081905, 15.350340314989024, 3.0706866263923605, 5.259193926633202, 20.63733199940953, 20.959857009248825, 4.928571915665697, 3.1557237009751233, -20.640689693266385, -12.655281469688799, -16.46802745554539], [5.279303019002454, -3.949586683736879, -15.181650143009499, 12.01189050091089, 6.014746952730621, 8.518500938510757, 15.262077105983396, 13.731808642028385, 6.147156971509564, -3.4527503920933516, 5.710002780518536, 6.80214004388006], [2.343797637806261, 2.7543815522162802, -11.064916747459831, -16.32588548517801, -7.2020740259512195, 9.035899500910217, -5.462691051341721, 9.372178122296376, 18.780614134152405, -15.047531396999803, 17.403228202449505, -8.40658634594907], [2.8958719168044404, -19.906657984821805, -2.570084235502124, 10.76175281778954, -9.329697786699883, -22.1344592671074, -5.710044013290872, 17.039577073177927, 17.44910470320939, -20.007462392334105, -8.316301140084839, -0.6540003868856972], [6.589661311019291, -0.48397427428590056, 17.552059037052363, 4.19305011689151, 1.1092922759665538, 9.610032699467316, 3.8349408172443735, -7.184471842238882, 28.336081500751103, -2.7332959961797014, -8.830927734167473, 3.322619741988167], [-10.569266290645691, 12.30940042984609, 1.3547579585764191, -1.23119105325661, -4.7590818861701365, -6.243387092409742, 2.0741663764280203, -12.641184431029908, -7.702238112308465, -7.212905347953559, -4.598477425464105, 17.16314165407619], [10.406174306754426, 3.8493711504887407, -4.080922052326784, 6.815635332639207, -11.786114626995534, 7.822916300490495, 12.896540763054588, 5.215984121015491, -13.51567682380587, -19.570981480241585, 5.027329689249492, -2.071935619363188], [-5.383989323209804, -10.537993592599774, -7.115774405704844, -4.248134873000105, -3.769875652670259, 37.64452473800661, -8.22666342257489, -2.7174221375808014, 4.8045629171158595, 6.650999526216313, 4.688390575359057, 5.725793349296851], [-10.02898945466579, 18.891852049073982, -4.846340786971894, -10.484622668061888, 11.4084353822641, 8.69303189423473, -4.483127419557374, -7.884088159343293, -2.98379310187714, 7.124843194963198, -5.6236994206140025, -13.661915205051411], [1.8314327286621528, 18.454587549537944, -19.13637748507215, -7.2234982519940605, -5.52988304065847, -14.428639160818765, 15.786270290014112, 2.6193185432666954, 5.489666994586391, -17.296440057617467, 33.581392001204954, 28.774475267305405], [-5.260476889199917, -23.48312583515066, 2.0603467747835924, 6.5288386135842496, -11.242944887741096, -11.671931207440606, 10.276396875688645, 2.099675907073121, 16.472707899842757, -30.15562246085303, -7.31193160565763, -9.099888810985602]], "weights_ho": [[-5.890092061824454, -10.03465683872319, -0.7030239449231578, -5.463515622040921, 13.47311455199113, -24.44859054986162, 17.473109648898784, 28.31197004401219, 9.937214699709806, -9.80152527378387, -16.078392265100675, 1.1926243458820864, -3.6646899377078084, -1.7094750072439395, 15.053015949869257, 4.89781530691264], [-4.8442872215634, -2.5681857497700626, 9.380361429632739, -19.110328237946423, 17.98334107394452, -10.340538734284511, 3.9653034684289143, -1.4828699686326743, -10.545252094994217, 5.406268653098648, 16.12355670698999, -38.17183675025424, -4.894748065007284, 6.938238202177621, -19.9482321745555, -7.400690290459045], [4.016380824002719, -7.686117976735386, -4.921768721455755, -3.44238546847143, -8.678630867388017, 8.073239683197768, -4.899225604791317, 0.33197724691163866, 3.1238775062827107, 6.0008748231915865, 21.984117895256706, -5.412343050067801, 13.123584514501816, -24.41148082559831, -19.165792427770743, 6.7276406653425385], [-2.54464846535588, 32.65172437051644, -13.974888478796428, 9.067785449601933, -3.4905219981889384, -1.1127617779362144, 12.214314721665483, -2.9802384588113813, 27.72857126080144, -24.76199540946142, 9.29862703536005, -11.405741691340959, -16.680217202137104, -6.070978526366202, -2.273351158311864, 13.632201715394986]], "bias_h": [[-10.20539497322605], [-7.668835051919341], [-11.672941518566196], [-17.890094971646814], [-2.4731555309397626], [5.445269594774342], [21.664403058346227], [19.955880480900454], [3.2586591219471575], [-0.5647367365489402], [-0.5349571541977267], [16.2559590625758], [8.65716285775291], [1.431802964961176], [12.326346176405629], [6.904896381243239]], "bias_o": [[-4.593326660819789], [-1.8655660216899834], [-11.734870586642991], [-12.14514779574795]]}, {"input_nodes": 12, "hidden_nodes": 16, "output_nodes": 4, "weights_ih": [[0.893412419085618, 5.203115761962644, -8.456026660831904, -3.6006185949763063, 7.1315731079593645, -8.446215520517697, 8.839716077683814, -0.1544410581692307, 2.82239415236112, -0.09045910198856641, -5.07963442756263, -16.48693950063845], [-0.36134634001777877, -13.175983433398665, 5.988078639962629, -2.704397769915345, 12.694190805706818, -5.11303390940295, 16.710827330196526, 9.981592696980275, 1.564036571788962, -3.749531333455457, -9.018709019477198, 15.53565221529975], [8.696795781871614, 5.9098806675900075, -5.024046946867025, 8.65389749164494, -16.758848384242253, -10.278024813058138, 16.884675163766254, -12.36770388421861, 18.43579792854765, -5.718317715081355, 16.72907758174316, -5.760349534962872], [0.24065467180395633, 25.013185118059003, -21.245646230025702, 3.875353152462121, -3.597182344843267, -3.3758395995257136, -8.970321735806131, 7.648398034218682, 9.781993663462618, -0.36356823835730745, 1.8690560722701213, -18.54067177539545], [2.313311223923906, -13.743144303143165, -2.9676407450124587, -11.11904235149493, -4.210591980570477, 17.914883134077474, 5.378535003922689, -10.445379965366214, -0.4583273770371624, 9.57496897597976, 2.9054109815034628, 2.08852813131439], [-16.548946568810685, -4.6882492301722785, 15.350340314989024, 3.171536355159275, 5.3880909088883735, 20.602044794692357, 20.909957608621497, 4.900036542135999, 3.1557237009751233, -20.40488977035453, -12.602111433129869, -16.46802745554539], [5.279303019002454, -3.949586683736879, -15.221403466072173, 12.014146441124787, 6.086660689730093, 8.495684510223857, 15.243047890805286, 13.731808642028385, 6.147156971509564, -3.4527503920933516, 5.702465823792528, 6.890893155721601], [2.251816777144199, 2.7715975503160464, -11.064916747459831, -16.235803965365523, -7.2020740259512195, 9.104911212897978, -5.493760615396278, 9.224666547170951, 18.69228145283572, -15.109039449806357, 17.475666123140662, -8.339513568519187], [2.751215819331741, -19.95179957800144, -2.5647564423366673, 11.011758014501313, -9.29253650918567, -22.1344592671074, -5.710044013290872, 17.04346427150175, 17.437370998292785, -20.007462392334105, -8.324316903463487, -0.5389871785425633], [6.447210730902159, -0.5529438069052022, 17.62844427720481, 4.335712658820029, 1.073419412642479, 9.701109656861059, 4.001724904556748, -7.184471842238882, 28.336081500751103, -2.7332959961797014, -8.644594028564399, 3.2880197603373476], [-10.569266290645691, 12.224177304898008, 1.4048433727131162, -1.1184491514855182, -4.584266793609565, -6.226666843167114, 2.0921178569777172, -12.62681478920879, -7.702238112308465, -7.29592874629788, -4.598477425464105, 17.16314165407619], [10.41996908570184, 3.7780136639028874, -4.142365724723532, 6.586061749003979, -12.00036085175136, 7.778447520198089, 13.085161300293803, 4.955620200222313, -13.51567682380587, -19.47360309817257, 4.983116833057378, -2.122665270576929], [-5.504540655489123, -10.258252542721303, -7.157593426990445, -4.1250182376954525, -3.7332578033120516, 37.5151339086998, -8.19118902520394, -3.096995782844809, 4.886005933413314, 6.653873358536544, 4.669834575576706, 5.70025595598312], [-10.094197121349854, 18.891852049073982, -5.019727901257633, -10.585085612694854, 11.532536174829099, 8.589917286265129, -4.2478161598298465, -7.884088159343293, -2.9512294978973928, 7.129804402869131, -5.742746717082743, -13.828786750185067], [1.8066522774375144, 18.536167437348713, -19.07658653643187, -7.291979727715343, -5.52988304065847, -14.4371328362784, 15.786270290014112, 2.733176038232002, 5.6613326189259645, -17.35089113831181, 33.57998804260287, 28.489399771459034], [-5.036686531151317, -23.431309010965567, 2.0603467747835924, 6.555663762675831, -11.247743577818827, -11.696443891515607, 10.23100559545443, 2.16878411550109, 16.55749741731658, -29.98380918969419, -7.172412364038261, -9.099888810985602]], "weights_ho": [[-5.868526440906554, -9.88488702284614, -0.6592581805688129, -5.3249475284211645, 13.513138664136529, -24.274397824439614, 17.473109648898784, 28.31197004401219, 9.937214699709806, -9.79744361709622, -16.078392265100675, 1.151854181490791, -3.6646899377078084, -1.7094750072439395, 15.134473854935756, 5.071590986742415], [-4.975584571383663, -2.8033636444072445, 9.380361429632739, -19.110328237946423, 17.98334107394452, -10.300749680264094, 3.9645696194238753, -1.3916115831132645, -10.619258030231263, 5.406268653098648, 16.216509970027104, -38.10599049402077, -4.894748065007284, 6.916965695194394, -19.6691297515575, -7.201295653370689], [4.176532438263921, -7.780623027087157, -4.729113781392234, -3.3630146385931083, -8.73091661961746, 7.860644498439769, -4.690611104124629, 0.33197724691163866, 3.1744120155570164, 5.859154775594189, 21.841627478815635, -5.385120080729825, 13.123584514501816, -24.41148082559831, -19.27462306596366, 6.7276406653425385], [-2.4462132465965976, 32.684440341900796, -13.884973050120198, 9.35851684741428, -3.4905219981889384, -1.1127617779362144, 12.408517787536425, -2.9201092330829193, 27.709572057352254, -24.57619626319106, 9.29862703536005, -11.450824786786516, -16.749334047198598, -6.117723018038637, -2.273351158311864, 13.570370060589045]], "bias_h": [[-10.141541511850914], [-7.626261548802718], [-11.672941518566196], [-17.98875491167369], [-2.5667349956031416], [5.519358000861614], [21.75174323765343], [19.955880480900454], [3.2556785817214657], [-0.4510313549134127], [-0.6344360036397517], [16.23027939559505], [8.480341605447979], [1.36432470180941], [12.348559499409278], [6.8351619376132415]], "bias_o": [[-4.566795622793267], [-1.7858816612298372], [-11.734870586642991], [-12.196563717566999]]}, {"input_nodes": 12, "hidden_nodes": 16, "output_nodes": 4, "weights_ih": [[0.893412419085618, 5.022024124915874, -8.456026660831904, -3.7542041397924835, 7.1315731079593645, -8.140177636864163, 8.609689953771472, -0.1700083302457756, 2.82239415236112, 0.08536937117328469, -5.204092178491893, -16.532764266932393], [-0.5024576832850014, -13.090961642341764, 6.011438876047046, -2.794146104169526, 12.499240951867577, -5.202516835493952, 16.710827330196526, 10.004957193126895, 1.564036571788962, -3.9491568749305803, -9.122954639416033, 15.768849811593242], [8.696795781871614, 5.9098806675900075, -5.118971464862653, 8.651353096380653, -16.652413034767296, -10.278024813058138, 16.884675163766254, -12.13742091537504, 18.441174303946667, -5.718317715081355, 16.583306752874254, -5.85597921300167], [0.24065467180395633, 25.003479251795614, -21.31403548648801, 3.875353152462121, -3.4907256917893768, -3.1487915897135963, -8.733179326943825, 7.501433110777663, 9.753000859272884, -0.4240120099734683, 2.183971404537822, -18.555112798002977], [2.2027988977009114, -13.747817290583132, -2.9676407450124587, -11.139922384936652, -4.107411930186631, 17.751863692826596, 5.371900176276788, -10.513341197947385, -0.4625812139175342, 9.598470879357452, 2.9054109815034628, 1.9949467348974186], [-16.66234297500067, -4.7323380507169075, 15.5342120670313, 3.045286469456224, 5.235198004779435, 20.602044794692357, 21.09659525382655, 4.893138614921377, 3.1557237009751233, -20.5070963209305, -12.466952667039562, -16.46802745554539], [5.404204976042635, -3.949586683736879, -15.211348201115378, 12.01189050091089, 6.073254191274841, 8.47800003357542, 15.141684676674991, 13.731808642028385, 6.089035703243674, -3.5432128210476153, 5.634453966501969, 6.80214004388006], [2.2010295234756256, 2.7715975503160464, -11.064916747459831, -16.17949892701355, -7.2020740259512195, 9.104911212897978, -5.5652695596702895, 9.224666547170951, 18.780614134152405, -15.062518813041772, 17.475666123140662, -8.487123930101639], [2.8958719168044404, -19.95179957800144, -2.7262243082525703, 10.911527000730933, -9.29253650918567, -22.09494892381563, -5.710044013290872, 17.098172892648915, 17.465942931195105, -19.84019285725959, -8.327000925048235, -0.6202444810189023], [6.510191583351661, -0.5529438069052022, 17.66151667212199, 4.140280446993492, 1.320929948299807, 9.486510040048056, 3.979174045897365, -7.226712199034404, 28.30380065822519, -2.691802581390839, -8.656916578098626, 3.322619741988167], [-10.569266290645691, 12.196331843446183, 1.439783986905648, -1.2540780235084126, -4.7590818861701365, -6.167776545696875, 2.0741663764280203, -12.648927050539971, -7.702238112308465, -7.212905347953559, -4.525929648865562, 17.09287687710251], [10.41996908570184, 3.8493711504887407, -4.142365724723532, 6.770086739478705, -11.800519302995097, 7.832181549778708, 12.906686199458285, 5.063670475926326, -13.51567682380587, -19.610218470901202, 4.934876117690816, -2.162168106512612], [-5.504540655489123, -10.573793962188823, -6.857299770797096, -4.287576436064163, -3.7991432991384912, 37.6092365597594, -8.19118902520394, -3.122737715036402, 4.85949205434899, 6.820676769742107, 4.6552583292392145, 5.599280058175611], [-9.95297786601276, 18.891852049073982, -4.801414542452052, -10.500159177481457, 11.268015874220142, 8.589917286265129, -4.573305555557132, -7.884088159343293, -2.960649010261965, 7.129804402869131, -5.744201844703558, -13.565078908453396], [1.7293844463776313, 18.536167437348713, -19.076061076798794, -7.2561114084546094, -5.52988304065847, -14.509048604971348, 15.687843915794895, 2.6193185432666954, 5.489666994586391, -17.35089113831181, 33.57998804260287, 28.774475267305405], [-5.163965256711503, -23.38202357638889, 2.167853400131351, 6.5297984356566205, -11.242944887741096, -11.671931207440606, 10.2673469976547, 2.16878411550109, 16.514177826068778, -29.984021029694627, -7.186970099871527, -9.099888810985602]], "weights_ho": [[-6.123764198571112, -10.026312306253017, -0.5747693903122204, -5.290923230567632, 13.51263860851106, -24.431468910544478, 17.473109648898784, 28.31197004401219, 9.937214699709806, -9.781741502503014, -15.933622029609039, 1.151854181490791, -3.6863701540806737, -1.8509465382031693, 15.119200646003538, 4.89781530691264], [-4.975584571383663, -2.6020761405176365, 9.380361429632739, -19.11988557022842, 18.076771767584145, -10.267583012237985, 3.9653034684289143, -1.3923766469444416, -10.650959022311131, 5.406268653098648, 16.216509970027104, -38.17183675025424, -4.893768154465933, 6.738958242397459, -19.98953737889365, -7.368776035727963], [4.0440012310172335, -7.780623027087157, -4.729113781392234, -3.3630146385931083, -8.688331498203231, 7.980365200404755, -4.941073204877184, 0.33197724691163866, 3.1865294909156763, 6.0008748231915865, 21.862401589291988, -5.303585632122784, 13.030165140780264, -24.41148082559831, -19.344065928252885, 6.649773684807002], [-2.54464846535588, 32.65172437051644, -13.884973050120198, 9.128007058469946, -3.4905219981889384, -1.2397888403440382, 12.34898546730562, -3.1154697093378347, 27.79552019333852, -24.76199540946142, 9.29862703536005, -11.162789673584378, -16.60250849987752, -6.0686274428911755, -2.273351158311864, 13.632201715394986]], "bias_h": [[-10.112091774447576], [-7.670439029517692], [-11.703486429076426], [-17.96834999085677], [-2.5667349956031416], [5.519358000861614], [21.806153778104353], [19.955880480900454], [3.2586591219471575], [-0.5647367365489402], [-0.5349571541977267], [16.333374748296123], [8.480341605447979], [1.431802964961176], [12.348559499409278], [6.8351619376132415]], "bias_o": [[-4.630131288446817], [-1.801044652306376], [-11.734870586642991], [-12.306865268437644]]}, {"input_nodes": 12, "hidden_nodes": 16, "output_nodes": 4, "weights_ih": [[0.893412419085618, 5.21500653011195, -8.456026660831904, -3.4780520987834045, 7.114188175919298, -8.276497228097607, 8.847080211431145, -0.18930352883573473, 2.82239415236112, 0.08536937117328469, -5.204092178491893, -16.411400716547217], [-0.5024576832850014, -13.175983433398665, 5.988078639962629, -2.704397769915345, 12.625782126326081, -5.11303390940295, 16.710827330196526, 10.07510156937646, 1.564036571788962, -3.7272454241529758, -9.041713365748498, 15.53565221529975], [8.589034679534569, 5.9098806675900075, -5.024046946867025, 8.705668534547328, -16.610115643425853, -10.46465788449801, 16.884675163766254, -12.36770388421861, 18.431262625367175, -5.62304789209811, 16.410013414735083, -5.85597921300167], [0.07010651059953502, 25.003479251795614, -21.31403548648801, 3.875353152462121, -3.512515037422098, -3.2935667415268197, -8.970321735806131, 7.570046177441217, 9.839714479480831, -0.36356823835730745, 1.9784627638507208, -18.39506011750993], [2.340516293135531, -13.870495401438248, -2.9676407450124587, -11.109532996603324, -4.107411930186631, 17.67913018139019, 5.378535003922689, -10.445379965366214, -0.4583273770371624, 9.62649020501002, 2.9054109815034628, 1.915010538811547], [-16.85801796362723, -4.7323380507169075, 15.350340314989024, 3.025011079769957, 5.235198004779435, 20.598722124233795, 20.959857009248825, 4.632658403430305, 3.0431901931471073, -20.5070963209305, -12.6216075481829, -16.257241052739772], [5.013871081538963, -3.8970508078833657, -15.328539965950466, 12.01189050091089, 6.35132245112606, 8.47800003357542, 15.350762694698041, 13.72408233923583, 6.200792828824564, -3.582020377125353, 5.688692372070632, 6.932357005340867], [2.1812306226854954, 2.7715975503160464, -10.973460928613017, -16.210672199976198, -7.229428204009114, 9.25604544388185, -5.455636240386488, 9.224666547170951, 18.93881640382058, -15.241472542382983, 17.475666123140662, -8.415791968488366], [2.970012020481335, -19.95179957800144, -2.5892557268247356, 10.911527000730933, -9.233766390749713, -22.1330929811888, -5.710044013290872, 17.03286871752406, 17.465942931195105, -20.056892903679064, -8.298754100093706, -0.6018213927065428], [6.637953333757022, -0.532380708507572, 17.59039618628249, 4.19305011689151, 1.1092922759665538, 9.610032699467316, 3.979174045897365, -7.184471842238882, 28.336081500751103, -2.7332959961797014, -8.52953774120449, 3.210960021452413], [-10.523618623293382, 12.224177304898008, 1.3537506347928834, -1.0783598876151512, -4.8538647775018795, -6.1490580617319806, 2.1314437058513356, -12.770477863539137, -7.702238112308465, -7.356836225945097, -4.598477425464105, 17.16314165407619], [10.41996908570184, 3.8493711504887407, -4.142365724723532, 6.828106664305598, -11.632110914228532, 7.60415310676441, 13.085161300293803, 4.988628276018684, -13.55737088899224, -19.610218470901202, 4.9655737842323235, -1.857196317980204], [-5.504540655489123, -10.417965242840825, -7.030285218274263, -4.361421258475676, -3.7817801820769983, 37.6092365597594, -8.153550355785788, -2.894901819366134, 4.84858631772683, 6.653873358536544, 4.609765587764944, 5.6086099291608384], [-10.163612686075336, 18.80707590309553, -4.758118330011519, -10.6370307566655, 11.431243402368242, 8.589917286265129, -4.356455487183571, -7.821182644507842, -2.875183974247527, 7.129804402869131, -5.766058921519314, -13.643522408330139], [1.8242742002591896, 18.564847092457683, -19.13637748507215, -7.291979727715343, -5.458753211995055, -14.470576492779735, 15.900204621960988, 2.627210138811646, 5.589397153886152, -17.441136777037745, 33.57998804260287, 28.88651735571691], [-5.035781073169444, -23.34288197426642, 2.122676195896021, 6.4393458233856755, -11.276525290568767, -11.671931207440606, 10.132785334754184, 2.16878411550109, 16.514177826068778, -29.984021029694627, -7.248064575689333, -9.099888810985602]], "weights_ho": [[-5.993420011318165, -9.930905986041035, -0.594138658262541, -5.463515622040921, 13.528138759035516, -24.384252418005243, 17.40523175989297, 28.10249309136278, 9.937214699709806, -9.722265116941628, -16.134942206697556, 1.259649117691393, -3.65517485821815, -1.7094750072439395, 15.243169361621192, 5.061341855801287], [-4.975584571383663, -2.6818643547952035, 9.486482539752584, -19.110328237946423, 17.958697298451234, -10.300749680264094, 3.9653034684289143, -1.4828699686326743, -10.619258030231263, 5.757365992941984, 16.216509970027104, -38.17183675025424, -4.911529384466124, 6.916965695194394, -19.769969433509743, -7.177784088844215], [3.8343782035629372, -7.780623027087157, -4.729113781392234, -3.313379823652619, -8.688331498203231, 8.073239683197768, -4.899225604791317, 0.33197724691163866, 3.1744120155570164, 6.0008748231915865, 22.01930912972729, -5.385120080729825, 13.123584514501816, -24.270939414850215, -19.27462306596366, 6.74498570250021], [-2.6023707090761765, 32.65172437051644, -13.884973050120198, 9.094418065482818, -3.4905219981889384, -1.2457380638720443, 12.315031513190347, -3.1694419144162373, 27.690085573165053, -24.802604962616957, 9.326190868802245, -11.504415395340958, -16.677119681483642, -6.048321632960436, -2.273351158311864, 13.60053431744847]], "bias_h": [[-10.112091774447576], [-7.705832373268769], [-11.672941518566196], [-18.04965748103528], [-2.3956291599394506], [5.519358000861614], [21.75174323765343], [19.955880480900454], [3.294600597179786], [-0.4793783699495144], [-0.3849751345687259], [16.169401180426963], [8.391458070360809], [1.431802964961176], [12.196659128658535], [6.820825010715554]], "bias_o": [[-4.6158279147223675], [-1.9414272808863189], [-11.734870586642991], [-12.156532004865245]]}, {"input_nodes": 12, "hidden_nodes": 16, "output_nodes": 4, "weights_ih": [[0.893412419085618, 5.3214394723533225, -8.418356871662327, -3.5070168727079367, 7.1315731079593645, -8.167900714957668, 8.866803711772187, -0.13279111551836242, 2.82239415236112, 0.08536937117328469, -5.204092178491893, -16.615317965427426], [-0.4612665958033474, -13.14729185210012, 5.988078639962629, -2.704397769915345, 12.625782126326081, -5.123695844051791, 16.80130576578253, 9.886435916213625, 1.564036571788962, -3.749531333455457, -9.102949754225614, 15.53565221529975], [8.696795781871614, 5.9098806675900075, -5.125076399509921, 8.826238901031287, -16.641479595675506, -10.337124769902427, 16.884675163766254, -12.378797832975573, 18.386515775002575, -5.786958909756047, 16.583306752874254, -5.85597921300167], [0.2318897401398846, 25.003479251795614, -21.26930664950664, 3.8956965401578887, -3.4907256917893768, -3.292417323054727, -8.992917966235837, 7.570046177441217, 9.839714479480831, -0.4938200822958385, 1.8690560722701213, -18.323374145321846], [2.4867297056835933, -13.747817290583132, -2.9676407450124587, -11.051479805493726, -4.237008597377954, 17.71261142096829, 5.378535003922689, -10.472331794878505, -0.43524078592768506, 9.605080565854237, 3.033736356762064, 1.8525585068246158], [-16.75127283138403, -4.7323380507169075, 15.358656085837167, 3.0706866263923605, 5.2892153411584255, 20.602044794692357, 20.906620852001133, 4.842013230320019, 3.1806334471415214, -20.5070963209305, -12.499917306320517, -16.34971682791022], [5.279303019002454, -3.949586683736879, -15.452202802493916, 11.99844529725871, 5.945506368638812, 8.47800003357542, 15.230577212980052, 13.924333281296589, 6.061396712743993, -3.4527503920933516, 5.597344552248328, 6.80214004388006], [2.2436032514552684, 2.7715975503160464, -11.064916747459831, -16.235803965365523, -7.2020740259512195, 8.869066575137287, -5.455636240386488, 9.123319933171361, 18.780614134152405, -15.047531396999803, 17.475666123140662, -8.349241041541712], [2.8958719168044404, -19.95179957800144, -2.570084235502124, 10.938947213680647, -9.29253650918567, -22.121283191532946, -5.710044013290872, 16.906882511342495, 17.530968211782234, -20.007462392334105, -8.209088331771373, -0.6586821571188726], [6.637953333757022, -0.6091581533643993, 17.697093388098693, 4.19305011689151, 1.098457264046939, 9.636734195911425, 3.900377613469889, -7.0491322883933485, 28.336081500751103, -2.7332959961797014, -8.706972432057173, 3.322619741988167], [-10.714026832589884, 12.181887031288042, 1.3547579585764191, -0.9678875963076139, -4.677205542116358, -6.191341859645707, 2.0741663764280203, -12.648927050539971, -7.702238112308465, -7.212905347953559, -4.686521642099371, 17.16314165407619], [10.559807166834752, 3.7822116279229467, -4.142365724723532, 6.652946545232588, -11.800519302995097, 7.761315620603223, 12.940996808587176, 5.063670475926326, -13.51567682380587, -19.686333076994906, 5.028940494082046, -2.122665270576929], [-5.504540655489123, -10.590010155527892, -7.030285218274263, -4.248134873000105, -3.818531563153801, 37.6092365597594, -8.121569912638227, -2.9795070627206237, 4.84858631772683, 6.653873358536544, 4.688390575359057, 5.70025595598312], [-10.015133885407995, 18.822380280847035, -4.758118330011519, -10.500159177481457, 11.412404005649298, 8.753358126619599, -4.483127419557374, -7.884088159343293, -2.960649010261965, 7.274458614457432, -5.744201844703558, -13.643522408330139], [1.7293844463776313, 18.536167437348713, -19.13637748507215, -7.391917963929557, -5.52988304065847, -14.633364095236157, 15.786270290014112, 2.8070110196068208, 5.668890833548349, -17.427108227217783, 33.57998804260287, 28.774475267305405], [-5.234627822854679, -23.38202357638889, 2.0412165306981693, 6.370103232852384, -11.157594343762502, -11.671931207440606, 10.23100559545443, 2.1967750386475187, 16.514177826068778, -30.039356870022196, -7.186970099871527, -9.099888810985602]], "weights_ho": [[-5.813709416268311, -10.010841478023067, -0.6592581805688129, -5.463515622040921, 13.614748546452583, -24.298950828342612, 17.473109648898784, 28.401147725132915, 9.783462029404928, -9.79744361709622, -16.078392265100675, 1.151854181490791, -3.6646899377078084, -1.5394740857422193, 15.134473854935756, 4.89781530691264], [-4.975584571383663, -2.8208133889425184, 9.380361429632739, -19.143827007559228, 18.003109120545908, -10.141740979206803, 3.7418363517924846, -1.385106097510893, -10.730403414808212, 5.406268653098648, 16.216509970027104, -38.21718528564587, -4.894748065007284, 6.953655725758647, -19.806614600630024, -7.384788390398081], [4.059680261857612, -7.694599050115975, -4.729113781392234, -3.3630146385931083, -8.688331498203231, 8.051744087747492, -4.880000913967384, 0.2862022286257933, 3.1310182012019676, 6.0008748231915865, 21.862401589291988, -5.385120080729825, 13.097798537207874, -24.41148082559831, -19.27462306596366, 6.7276406653425385], [-2.733290656986712, 32.65596609020893, -14.084155675277692, 9.201318642489076, -3.368413920542301, -1.1127617779362144, 12.34898546730562, -3.1040522978873653, 27.690085573165053, -24.76199540946142, 9.379784888756479, -11.405741691340959, -16.677119681483642, -6.029132973601773, -2.26283837505, 13.632201715394986]], "bias_h": [[-10.116349020100664], [-7.501268772079322], [-11.66791305760476], [-18.023407529575124], [-2.5667349956031416], [5.3865848290902605], [21.75174323765343], [19.955880480900454], [3.2586591219471575], [-0.5647367365489402], [-0.5349571541977267], [16.245646682836206], [8.420053830015355], [1.431802964961176], [12.348559499409278], [6.779547667385328]], "bias_o": [[-4.566795622793267], [-1.9346953139860406], [-11.855588800161511], [-12.152913610257466]]}, {"input_nodes": 12, "hidden_nodes": 16, "output_nodes": 4, "weights_ih": [[0.893412419085618, 5.203115761962644, -8.557841042982302, -3.6006185949763063, 7.1315731079593645, -8.217471534621803, 8.90911594982312, -0.2411915520488656, 2.875220336213098, 0.08536937117328469, -5.208469296715816, -16.48693950063845], [-0.5024576832850014, -13.175983433398665, 5.988078639962629, -2.704397769915345, 12.625782126326081, -5.11303390940295, 16.577202206095844, 9.981592696980275, 1.6444316774074326, -3.749531333455457, -9.063003477787177, 15.72228633930872], [8.696769801492064, 5.9098806675900075, -5.008303142349802, 8.651353096380653, -16.769202378336598, -10.2081509077057, 16.884675163766254, -12.475219032518961, 18.431262625367175, -5.718317715081355, 16.459550957232924, -5.803990909116227], [0.24065467180395633, 24.978527830298802, -21.36693405484926, 3.875353152462121, -3.659601431730569, -3.2935667415268197, -8.970321735806131, 7.619845095293722, 9.839714479480831, -0.5419948959885279, 1.8690560722701213, -18.423229503131218], [2.289881320573635, -13.747817290583132, -2.883373213349286, -11.067765610415075, -4.107411930186631, 17.751863692826596, 5.378535003922689, -10.445379965366214, -0.4583273770371624, 9.539476732419006, 2.9032940416696214, 1.921135387007965], [-16.75127283138403, -4.709241673664391, 15.350340314989024, 3.0706866263923605, 5.194244910110821, 20.602044794692357, 20.98490478720849, 4.731724790634882, 3.1557237009751233, -20.5070963209305, -12.63232279942725, -16.46802745554539], [5.279303019002454, -3.967404776332898, -15.328539965950466, 11.960209402708616, 6.086660689730093, 8.47800003357542, 15.230577212980052, 13.791745758885677, 6.147156971509564, -3.3580113793456703, 5.688692372070632, 6.669455720973775], [2.2516531619353617, 2.7715975503160464, -11.064916747459831, -16.07951686837025, -7.44570724357303, 9.104911212897978, -5.417019145967604, 9.224666547170951, 18.780614134152405, -15.047531396999803, 17.475666123140662, -8.415791968488366], [2.8931444834798716, -19.95179957800144, -2.570084235502124, 10.859173215235783, -9.465314160150486, -22.15951242658448, -5.710044013290872, 17.03286871752406, 17.568038813175797, -19.99495276953859, -8.316301140084839, -0.6018213927065428], [6.637953333757022, -0.39958255890967737, 17.763641291310684, 4.19305011689151, 0.9797437837252881, 9.610032699467316, 3.8711441584486335, -7.242857945687617, 28.289148358598133, -2.752175225894764, -8.656916578098626, 3.3172922949949597], [-10.569266290645691, 12.267393196681983, 1.3547579585764191, -1.2121008270201856, -4.866343647765557, -6.131034218974302, 2.0741663764280203, -12.648927050539971, -7.9325546213898726, -7.218654909844469, -4.598477425464105, 17.025550097982524], [10.41996908570184, 3.8493711504887407, -4.142365724723532, 6.661923718631279, -11.800519302995097, 7.949769642942559, 13.085161300293803, 5.193646310668112, -13.51567682380587, -19.610218470901202, 5.171531928618442, -2.122665270576929], [-5.426697043652964, -10.40169194604721, -7.030285218274263, -4.351132984285822, -3.7858307808420713, 37.329627705266844, 