{"generation": 47691, "population": [{"input_nodes": 12, "hidden_nodes": 16, "output_nodes": 4, "weights_ih": [[1.711570467102362, 4.130050239931647, -8.696019236963403, -3.47663649617223, 6.868128264956688, -7.929191088017142, 8.824640965398167, 0.026960479928369824, 3.9343970498772602, -0.9132926711909343, -5.3520565903000685, -16.76043183642165], [-1.3479746177754905, -13.885341470669127, 6.384915614450932, -4.00140068422031, 11.951130774107785, -3.717354350010708, 17.05182996317619, 9.221517412231147, 1.666307779723295, -2.2789671971701457, -9.140354973317292, 15.836826150566395], [9.166333978499567, 5.181576159789318, -5.4007840236105045, 8.865880171596142, -15.978849213062727, -9.631559968854718, 16.758823882552512, -12.289401130519824, 19.144430257103515, -4.903621968245819, 15.105383565693836, -4.134872648695353], [0.07851560771924804, 26.49506131214644, -20.909717495974316, 3.832371539466581, -2.738561529947883, -4.04172006575614, -7.911071171743431, 6.396330124005399, 10.40874069468592, -0.7897552078324892, 2.4961467783845417, -20.570257253421396], [2.6436398852320124, -13.296770158823291, -3.3677627784109383, -11.128167110030887, -3.9482659273249725, 17.879115472943553, 5.2374062589398305, -9.90167453530496, -0.6598205884268145, 10.540695624468137, 3.7875700713249305, 2.9007764729295724], [-15.981434907069984, -3.7864046510504283, 14.354320201151973, 3.0286181218815122, 4.295330769284196, 20.87872926064345, 21.559437858730266, 4.864337394144072, 3.453652760816414, -21.036594071140875, -11.747481626908225, -16.186306509590853], [5.011640578632309, -3.0362412954222155, -14.823418542958477, 12.353301332505199, 5.541019339934692, 8.63163902801746, 14.901826011885735, 14.57402893665853, 6.779946258400228, -3.0862217463846666, 6.642965152284903, 6.134081126849021], [2.045876242224195, 1.082708738866477, -10.084714455493723, -17.093809630091666, -7.149099494695136, 9.330397416026798, -5.884156238588401, 8.29807679507322, 17.901614402648015, -15.592762737080024, 17.123638762592176, -9.0946860601562], [2.3678100681121177, -19.46118709618551, -1.5495648150028374, 10.90088740411337, -9.55215309554689, -21.813985315271385, -5.806709811214445, 17.15033783458922, 17.919613680558683, -19.544420421381265, -7.180230185629738, -0.6618721926724644], [6.723227174391001, -1.1202385838363167, 17.76421425688128, 4.240718921220394, 0.851569692144024, 10.980336147071236, 4.311767276043285, -7.601189298139049, 28.34320347715245, -2.71010630668265, -9.304481430737614, 3.363888193591473], [-10.69570366734373, 12.77873246385692, 1.3138966584705778, -1.0819434992363117, -5.511153928051702, -6.856409062593382, 2.5136915766107544, -11.363429011094526, -8.18491175624777, -6.57738598307763, -4.0267985271811195, 17.198910154426265], [10.779734799732804, 4.29034066664525, -4.245166036237147, 6.280833788180996, -11.224932185303883, 7.8085378123059295, 13.536746399377066, 5.007127824688518, -13.22674461850798, -20.103601654723356, 3.6521754432027844, -2.4132396946280097], [-6.015401824698699, -10.966133726653329, -7.156077636585208, -4.076232169713292, -3.1318996487594957, 37.9335939791833, -8.04757536903513, -2.7321364146921465, 4.252460324205061, 6.572243663121085, 4.499208503637703, 5.1098289916254265], [-9.029065677939268, 18.313473430847576, -4.883724220337034, -11.165405974940983, 12.024453968984018, 7.918988699678966, -4.71161423915171, -7.706035024289269, -2.682524250370336, 7.209134639420104, -5.640728870170438, -13.658310034006947], [1.3593869702857224, 18.32077658400229, -19.450180803714236, -7.421793389062711, -5.266678983202526, -14.949506109177797, 16.075294670452646, 3.1010361597325944, 5.403005170621352, -17.501744724937662, 32.53795929567504, 29.038626288602888], [-5.078446485832752, -23.150020597462607, 0.752914701890697, 6.879175177252327, -10.625919131213989, -11.401060131146604, 9.966279277831777, 2.2373072418152837, 15.72659990707896, -29.346726730068927, -6.429008485991438, -8.550570264247838]], "weights_ho": [[-6.1303267273424185, -9.456439090235687, -0.37155895579967185, -4.195856185552864, 13.446479153483626, -23.398138435113122, 17.111029987676506, 28.255330960902473, 9.770694696671134, -9.067423297224073, -15.631748201654517, 0.34429024169111194, -4.865879058014958, -1.7009668510588127, 15.223709962810796, 5.33502568827448], [-4.044102937900955, -2.9275420796560407, 8.615424878636802, -18.126233477659316, 16.94796451592817, -10.872514482087853, 4.752200728002603, -0.8267533591104071, -11.832723715596906, 5.11557685077737, 15.975225849279298, -38.60654801581974, -4.365870991308279, 7.1587765815933215, -20.290335202062163, -6.817452077755819], [4.12859211142042, -8.193798492734162, -4.361668278689029, -3.4992203977170426, -8.433482963991487, 8.005247518054151, -4.138174558685507, 1.9525715246925803, 1.9596597432017988, 5.43607541569117, 22.109211081317113, -4.986800777680856, 11.962414116088828, -23.71730723419158, -19.14275327929152, 7.527774817569607], [-3.1224810468735607, 32.78109538323263, -12.645183411745599, 9.65522190765242, -3.7756062339490484, -1.2163746291410713, 12.548181807572941, -1.9784707599808211, 27.617881248702723, -24.826534265106417, 9.739823360706323, -10.946756207009548, -16.037019557605916, -7.36067736353027, -3.2155218236948273, 14.51895472432357]], "bias_h": [[-11.124942595802507], [-7.781917123436296], [-12.013598459081136], [-18.04638649835552], [-2.2634629568778104], [5.37468873283793], [20.299488528738234], [19.903951294706964], [3.4249385525179266], [-0.9028573070254631], [-1.0882275785883833], [16.202854967104514], [8.147210162458773], [0.9020710107558204], [11.98831701082813], [5.739539021571938]], "bias_o": [[-5.210615247107372], [-1.587800567802569], [-11.765800809283437], [-11.927502370120406]]}, {"input_nodes": 12, "hidden_nodes": 16, "output_nodes": 4, "weights_ih": [[1.711570467102362, 4.130050239931647, -8.76688470226632, -3.458415566764641, 7.058366988653156, -7.8801623268349585, 8.751477705201085, 0.026213418931673005, 3.9343970498772602, -0.9793522234390333, -5.3520565903000685, -16.657010383229913], [-1.382634180863125, -13.754334499993645, 6.294739254588521, -4.00140068422031, 11.97767983529917, -3.72487409549412, 17.05182996317619, 9.221517412231147, 1.666307779723295, -2.2201436242173305, -9.140354973317292, 15.836826150566395], [9.166333978499567, 5.1871634083055485, -5.4007840236105045, 8.865880171596142, -15.978849213062727, -9.697259197830045, 16.758823882552512, -12.289401130519824, 19.144430257103515, -4.903621968245819, 15.178616092475298, -4.0348076992773985], [0.14881840437801275, 26.49506131214644, -20.909717495974316, 3.832371539466581, -2.738561529947883, -4.04172006575614, -7.984539567166789, 6.396330124005399, 10.278595900380168, -0.8415166872151457, 2.3155972003279577, -20.56189508951046], [2.572487751861119, -13.296770158823291, -3.349092541146219, -11.128167110030887, -3.9736841412395987, 17.879115472943553, 5.2374062589398305, -9.90167453530496, -0.6249162564492681, 10.41801980228048, 3.7875700713249305, 2.9007764729295724], [-16.07451176815171, -3.824474651253535, 14.354320201151973, 3.0286181218815122, 4.295330769284196, 20.87872926064345, 21.48640831125042, 4.864337394144072, 3.453652760816414, -20.918034906707724, -11.747481626908225, -16.270954332596602], [4.942257687167333, -3.08364014856559, -14.823418542958477, 12.42165849100661, 5.541019339934692, 8.63163902801746, 14.901826011885735, 14.57402893665853, 6.779946258400228, -3.0680991784155514, 6.7349520976948, 6.134081126849021], [2.11078313887531, 1.082708738866477, -10.06110409015135, -17.093809630091666, -7.149099494695136, 9.513898729666554, -5.884156238588401, 8.29807679507322, 17.901614402648015, -15.514845822886784, 17.123638762592176, -9.0946860601562], [2.3678100681121177, -19.552822870177195, -1.5495648150028374, 10.90088740411337, -9.55215309554689, -21.796996413238492, -5.806709811214445, 17.049669445802035, 17.919613680558683, -19.544420421381265, -7.180230185629738, -0.6618721926724644], [6.756948660191534, -1.1202385838363167, 17.76421425688128, 4.347364021783769, 0.851569692144024, 10.980336147071236, 4.2968297961413935, -7.622753750205075, 28.34320347715245, -2.6070129427486743, -9.304481430737614, 3.3229594525659922], [-10.69570366734373, 12.77873246385692, 1.3138966584705778, -1.0819434992363117, -5.468254949323207, -7.000901254686142, 2.5136915766107544, -11.363429011094526, -8.18491175624777, -6.6330409243137165, -4.099988306821258, 17.198910154426265], [10.77692155548548, 4.29034066664525, -4.245166036237147, 6.203227600407503, -11.224932185303883, 7.8085378123059295, 13.618517198725973, 5.1234916591568, -13.22674461850798, -20.239925355684374, 3.6521754432027844, -2.4132396946280097], [-6.09453718126788, -10.966133726653329, -7.161417752726177, -4.076232169713292, -3.1318996487594957, 37.9335939791833, -8.04757536903513, -2.4796197876422257, 4.293964892239326, 6.580732250165753, 4.499208503637703, 5.162035056128303], [-9.029065677939268, 18.313473430847576, -4.883724220337034, -11.055099438540267, 12.024453968984018, 7.918988699678966, -4.71161423915171, -7.670097423481737, -2.682524250370336, 7.209134639420104, -5.568200763652287, -13.658310034006947], [1.40386601399292, 18.312411566278367, -19.573778340447852, -7.321745622226634, -5.266678983202526, -14.949506109177797, 16.207026761654646, 3.1010361597325944, 5.46072205180946, -17.501744724937662, 32.53795929567504, 29.038626288602888], [-5.086788312400783, -23.153428361167595, 0.752914701890697, 6.879175177252327, -10.595988055919154, -11.401060131146604, 9.966279277831777, 2.2510141297472135, 15.709915369028703, -29.346726730068927, -6.429008485991438, -8.522445642772135]], "weights_ho": [[-6.1303267273424185, -9.452257243910777, -0.34743422046140193, -4.150600651025171, 13.509500230919656, -23.236415704600848, 17.048312080241185, 28.397723209743074, 10.00468756967484, -9.067423297224073, -15.519333380181195, 0.34429024169111194, -4.865879058014958, -1.7009668510588127, 15.401862907000009, 5.33502568827448], [-4.044102937900955, -2.9275420796560407, 8.615424878636802, -18.120878278082852, 16.94796451592817, -10.872514482087853, 4.752200728002603, -0.8267533591104071, -11.832723715596906, 5.11557685077737, 15.975225849279298, -38.69927492862621, -4.460311477939539, 7.1587765815933215, -20.2847155396813, -6.817452077755819], [4.12859211142042, -8.193798492734162, -4.395790691426714, -3.4992203977170426, -8.48820400677127, 8.006087223109892, -4.138174558685507, 1.9525715246925803, 1.9596597432017988, 5.43607541569117, 22.109211081317113, -4.970772557821064, 12.134786032443431, -23.71730723419158, -19.14275327929152, 7.527774817569607], [-3.1224810468735607, 32.78109538323263, -12.645183411745599, 9.65522190765242, -3.7756062339490484, -1.1483080598553697, 12.428051818237956, -1.9611585884646223, 27.617881248702723, -24.9485585836986, 9.739823360706323, -10.946756207009548, -16.020167530991177, -7.387640005062046, -3.223433347851542, 14.34129840867569]], "bias_h": [[-11.124942595802507], [-7.827571170910643], [-12.171401230835107], [-18.04638649835552], [-2.3099965735420502], [5.4583862207185625], [20.299488528738234], [19.903951294706964], [3.4249385525179266], [-0.972239859816687], [-1.0882275785883833], [16.083564470157242], [8.038660620179432], [0.8972222596214423], [11.98831701082813], [5.739539021571938]], "bias_o": [[-5.210615247107372], [-1.7271526058198428], [-11.765800809283437], [-11.927502370120406]]}, {"input_nodes": 12, "hidden_nodes": 16, "output_nodes": 4, "weights_ih": [[1.7374006488384213, 4.022269062081119, -8.695531989554025, -3.47663649617223, 6.999764010587167, -8.002373777235121, 8.973001299471825, 0.033301490501133776, 4.014091261902657, -0.9132926711909343, -5.353385243145334, -16.84117376917273], [-1.3242774539165545, -13.885341470669127, 6.477853717508423, -4.00140068422031, 12.024058607141505, -3.717354350010708, 17.05182996317619, 9.221517412231147, 1.666307779723295, -2.3477782909004867, -9.140354973317292, 15.836826150566395], [9.341842306485553, 5.181576159789318, -5.4007840236105045, 8.865880171596142, -15.978849213062727, -9.633144328243676, 16.647984464817768, -12.332661136858455, 19.144430257103515, -4.903621968245819, 15.105383565693836, -4.134872648695353], [0.03176391991593891, 26.50225606746043, -20.909717495974316, 3.832371539466581, -2.8442403321549996, -4.04172006575614, -7.911071171743431, 6.170408502230466, 10.40874069468592, -0.5895218200014096, 2.5963647494264244, -20.570257253421396], [2.687078685070539, -13.296770158823291, -3.3677627784109383, -11.128167110030887, -3.9576094056285815, 17.879115472943553, 5.279336219160227, -9.90167453530496, -0.6598205884268145, 10.540695624468137, 3.846568426887643, 2.857347943591633], [-16.04665563825089, -3.7864046510504283, 14.45962341795636, 3.0286181218815122, 4.334485046126048, 21.01726864049482, 21.447025901431907, 4.864337394144072, 3.477700013301164, -20.985488884280265, -11.747481626908225, -16.186306509590853], [5.011640578632309, -3.0362412954222155, -14.709375267982603, 12.35702607166474, 5.541019339934692, 8.63163902801746, 14.901826011885735, 14.659325162924937, 6.870299794827267, -2.998038687521903, 6.564575791560116, 6.134081126849021], [1.9654876752027246, 1.1589548010849429, -10.01391841887818, -17.093809630091666, -7.212782835671945, 9.209185237487773, -5.7933906514932785, 8.173601559018955, 17.901614402648015, -15.592762737080024, 16.975370084998843, -8.992807854311392], [2.4640252463330814, -19.2854135422529, -1.5867186624723555, 11.016513970478877, -9.449856660148923, -21.813985315271385, -5.664831314514031, 17.15033783458922, 17.919613680558683, -19.544420421381265, -7.19031430748224, -0.6618721926724644], [6.885304019159214, -1.1202385838363167, 17.822412189787833, 4.161551926180695, 0.8269978974083213, 10.726731388832782, 4.582264928243414, -7.601189298139049, 28.43473163239461, -2.71010630668265, -9.304481430737614, 3.144950868428641], [-10.646628709788125, 12.77873246385692, 1.3138966584705778, -1.076430518569813, -5.549305863838684, -6.732516856196119, 2.5208152123246976, -11.329583272815134, -8.265549483307138, -6.57738598307763, -4.0267985271811195, 17.239595737163313], [10.817141157477144, 4.3652416107692575, -4.152566088027853, 6.369713919953871, -11.224932185303883, 7.759362945077916, 13.605337664407486, 5.109375071550267, -13.22674461850798, -20.103601654723356, 3.6521754432027844, -2.4132396946280097], [-6.015401824698699, -10.966133726653329, -7.068983722479935, -4.039763079017311, -3.1318996487594957, 38.016779608508564, -8.04757536903513, -2.7321364146921465, 4.205183398830925, 6.656954993436683, 4.394309661284562, 5.1098289916254265], [-9.029065677939268, 18.161138129657868, -4.883724220337034, -11.104548673088608, 12.024453968984018, 7.918988699678966, -4.885717517892751, -7.921407689951747, -2.682524250370336, 7.209134639420104, -5.640728870170438, -13.658310034006947], [1.34182232208245, 18.32077658400229, -19.3370374168413, -7.421793389062711, -5.266678983202526, -14.949506109177797, 16.075294670452646, 3.1010361597325944, 5.323752576548217, -17.601895273224343, 32.53795929567504, 29.038626288602888], [-4.924113479454382, -22.979001695873873, 0.634151719399778, 6.840961167642594, -10.571530192235624, -11.401060131146604, 10.034609351376748, 2.233420146377773, 15.72659990707896, -29.346726730068927, -6.473149051827363, -8.410342946922043]], "weights_ho": [[-6.1303267273424185, -9.44367828874547, -0.37155895579967185, -4.195856185552864, 13.446479153483626, -23.398138435113122, 17.111029987676506, 28.255330960902473, 9.647685770633617, -9.067423297224073, -15.444899249529609, 0.34429024169111194, -4.92273594710737, -1.7009668510588127, 15.300268617559418, 5.33502568827448], [-3.750666661543148, -2.9275420796560407, 8.615424878636802, -18.126233477659316, 17.121384432174114, -10.872514482087853, 4.752200728002603, -0.8267533591104071, -11.832723715596906, 5.154353249659747, 15.975225849279298, -38.52244977827112, -4.365870991308279, 7.1587765815933215, -20.358507451985123, -6.817452077755819], [4.12859211142042, -8.193798492734162, -4.307955099491385, -3.646550206609479, -8.474527774372381, 7.9868224884133685, -4.138174558685507, 1.9525715246925803, 1.9596597432017988, 5.619684991177009, 22.109211081317113, -4.986800777680856, 11.935054346375445, -23.69565140273148, -19.14275327929152, 7.527774817569607], [-3.0820287545010636, 32.78109538323263, -12.645183411745599, 9.65522190765242, -3.9317113553115486, -1.1083784795846556, 12.622229628900891, -1.9784707599808211, 27.64735974895451, -24.826534265106417, 9.739823360706323, -10.799695208749668, -16.037019557605916, -7.471450870016594, -3.0916181968655314, 14.505857547031992]], "bias_h": [[-10.984307431187842], [-7.93507139366561], [-12.013598459081136], [-18.04638649835552], [-2.2634629568778104], [5.37468873283793], [20.27366078723492], [19.903951294706964], [3.425624957790263], [-0.9916131753010426], [-1.0882275785883833], [16.202854967104514], [8.147210162458773], [0.9020710107558204], [11.895882654231256], [5.739539021571938]], "bias_o": [[-5.210615247107372], [-1.6371565454030645], [-11.820735822596836], [-11.861591854556014]]}, {"input_nodes": 12, "hidden_nodes": 16, "output_nodes": 4, "weights_ih": [[1.711570467102362, 4.130050239931647, -8.784565567405789, -3.356261156137474, 6.868128264956688, -7.929191088017142, 8.824640965398167, 0.026960479928369824, 3.9343970498772602, -0.8192966910814252, -5.3520565903000685, -16.76043183642165], [-1.3479746177754905, -13.966602531943822, 6.384915614450932, -4.00140068422031, 12.021111073842203, -3.717354350010708, 17.05182996317619, 9.122269580576548, 1.666307779723295, -2.3029287424759026, -9.140354973317292, 15.860796217372664], [9.069645408752878, 5.181576159789318, -5.4007840236105045, 8.733118260267625, -15.978849213062727, -9.73681791934006, 16.758823882552512, -12.185133411055363, 19.144430257103515, -4.903621968245819, 15.140993045788758, -4.063444259846209], [0.07851560771924804, 26.49506131214644, -20.909717495974316, 3.832371539466581, -2.738561529947883, -3.9969893404305, -7.911071171743431, 6.396330124005399, 10.40874069468592, -0.6765237737533393, 2.4961467783845417, -20.53209369265604], [2.6436398852320124, -13.296770158823291, -3.3677627784109383, -11.287548301512379, -3.7440484679239763, 17.879115472943553, 5.139441643271833, -9.90167453530496, -0.4568136388773799, 10.540695624468137, 3.931093568310996, 2.911434405246938], [-15.981434907069984, -3.863066117107156, 14.35345916268001, 3.0286181218815122, 4.295330769284196, 20.859780660134025, 21.625488959287956, 4.864337394144072, 3.453652760816414, -21.04488669212925, -11.747481626908225, -16.29359857069503], [5.148590410992801, -3.0362412954222155, -14.751091230753923, 12.353301332505199, 5.520966664934855, 8.72587758046864, 14.886546256570087, 14.57402893665853, 6.74635699342862, -3.262554975622619, 6.642965152284903, 6.18047892359039], [1.9915610477305845, 1.082708738866477, -10.084714455493723, -17.1624154053058, -7.184981406878081, 9.394906454889735, -5.884156238588401, 8.29807679507322, 17.901614402648015, -15.63699119752134, 17.150673518289704, -9.123893105405616], [2.3436503717879646, -19.46118709618551, -1.5495648150028374, 10.927562188408675, -9.55215309554689, -21.813985315271385, -5.806709811214445, 17.15033783458922, 17.99168127834521, -19.544420421381265, -7.374071774698596, -0.6618721926724644], [6.723227174391001, -1.1202385838363167, 17.82720268807144, 4.178719576375692, 0.794319243265009, 10.915737417154396, 4.256062238113529, -7.601189298139049, 28.356876186386202, -2.910794613910452, -9.180949073384973, 3.363888193591473], [-10.69570366734373, 12.882575963977699, 1.3138966584705778, -0.9973496061487345, -5.511153928051702, -6.856409062593382, 2.771808426042461, -11.363429011094526, -8.18491175624777, -6.468980878928952, -4.085317729871501, 17.114580889615393], [10.942673736614704, 4.29034066664525, -4.05809152668111, 6.280833788180996, -11.224932185303883, 7.712061334143236, 13.536746399377066, 5.007127824688518, -13.22674461850798, -20.171501294562706, 3.6521754432027844, -2.4132396946280097], [-6.030278069174225, -10.989416054362929, -7.271348418122663, -4.059848150192687, -3.1318996487594957, 37.892673105331106, -7.961025452055007, -2.7692361156439604, 4.160011604437517, 6.460906896513533, 4.499208503637703, 5.1098289916254265], [-9.186668713476848, 18.313473430847576, -4.883724220337034, -11.165405974940983, 12.078935900837404, 7.918988699678966, -4.597144383387486, -7.634707503290291, -2.682524250370336, 7.279494689141612, -5.637579829570841, -13.658310034006947], [1.3593869702857224, 18.19816941557026, -19.450180803714236, -7.448990598986778, -5.334294881222743, -14.966585330656327, 16.125230387359743, 3.133207246569322, 5.422883653863181, -17.501744724937662, 32.53795929567504, 29.038626288602888], [-4.871792615091377, -23.150020597462607, 0.8236630542285681, 6.954358234655975, -10.625919131213989, -11.170434313244765, 9.903216641132772, 2.2373072418152837, 15.74067976352896, -29.402292729442287, -6.492076734496042, -8.557883689877823]], "weights_ho": [[-6.1303267273424185, -9.456439090235687, -0.37155895579967185, -4.195856185552864, 13.446479153483626, -23.398138435113122, 17.29580902754599, 28.249760237238107, 9.834438221197225, -9.097036492604968, -15.592664187265802, 0.37570206427082825, -4.865879058014958, -1.7009668510588127, 15.223709962810796, 5.33502568827448], [-4.044102937900955, -2.9275420796560407, 8.615424878636802, -18.109400299137523, 16.903046685213102, -10.872514482087853, 4.556657395836504, -0.8267533591104071, -11.832723715596906, 5.1712830900495295, 15.850964095793936, -38.60654801581974, -4.302382962001902, 7.1587765815933215, -20.312627194340255, -6.816955602935927], [3.994852753967256, -8.193798492734162, -4.358689984014633, -3.4992203977170426, -8.397467602453764, 8.153612138384984, -4.258442854431318, 1.8884843580262618, 1.7970786014797893, 5.343294558009282, 22.109211081317113, -4.835558346862498, 11.870825542682196, -23.71730723419158, -18.969971118222528, 7.527774817569607], [-3.1224810468735607, 32.78109538323263, -12.645183411745599, 9.65522190765242, -3.8322169888294964, -1.2163746291410713, 12.548181807572941, -1.9784707599808211, 27.454516548244605, -24.826534265106417, 9.739823360706323, -10.946756207009548, -16.195233919377237, -7.36067736353027, -3.3297077551598235, 14.656776793464472]], "bias_h": [[-11.032707090031556], [-7.97042544943997], [-11.96752311993305], [-18.04638649835552], [-2.211358943343665], [5.37468873283793], [20.299488528738234], [19.82886027899507], [3.323125288045884], [-0.7138823349494878], [-1.0882275785883833], [16.202854967104514], [8.147210162458773], [0.8336195640404221], [12.033058625821823], [5.739539021571938]], "bias_o": [[-5.210615247107372], [-1.587800567802569], [-11.765800809283437], [-11.94699841333312]]}, {"input_nodes": 12, "hidden_nodes": 16, "output_nodes": 4, "weights_ih": [[1.711570467102362, 4.227410169200357, -8.637722634726838, -3.47663649617223, 6.868128264956688, -8.179042757657541, 8.824640965398167, 0.026960479928369824, 4.020618234110706, -0.9132926711909343, -5.3520565903000685, -16.76043183642165], [-1.3479746177754905, -13.666702593876416, 6.384915614450932, -4.00140068422031, 11.92600028994501, -3.69403324868561, 17.05182996317619, 9.221517412231147, 1.666307779723295, -2.2789671971701457, -9.140354973317292, 15.836826150566395], [9.19539296088012, 5.323802557163512, -5.4007840236105045, 8.865880171596142, -15.978849213062727, -9.70779809885447, 16.758823882552512, -12.437125184686826, 19.144430257103515, -4.8119458382047675, 15.302889972842936, -4.01563277252802], [0.07851560771924804, 26.49506131214644, -20.909717495974316, 3.949971056700716, -2.738561529947883, -3.860820415488796, -7.700689142743499, 6.396330124005399, 10.419983338540323, -0.6547703373275278, 2.4402312893312117, -20.447618806673173], [2.6436398852320124, -13.235624754781487, -3.432464861327315, -11.250421345780492, -3.9482659273249725, 17.879115472943553, 5.292151390337979, -9.90167453530496, -0.7254586885855927, 10.540695624468137, 3.8637887331959218, 2.732598851029285], [-15.891528376167658, -3.586391031704321, 14.359607648994373, 3.0286181218815122, 4.295330769284196, 20.87872926064345, 21.7095533878477, 4.864337394144072, 3.453652760816414, -21.036594071140875, -11.747481626908225, -16.186306509590853], [5.011640578632309, -3.0461942267378856, -14.727834893689886, 12.353301332505199, 5.541019339934692, 8.63163902801746, 14.901826011885735, 14.57402893665853, 6.781781158813916, -3.0862217463846666, 6.642965152284903, 6.134081126849021], [1.999721672250023, 1.0243140170760947, -10.084714455493723, -16.87218600574734, -7.216892203277661, 9.330397416026798, -5.986856001586031, 8.29807679507322, 17.926019946129834, -15.634338843138796, 17.123638762592176, -9.031771933523032], [2.3678100681121177, -19.6645176464376, -1.5495648150028374, 10.90088740411337, -9.377077646537526, -21.813985315271385, -5.806709811214445, 17.15546881632386, 17.919613680558683, -19.544420421381265, -7.078356490179627, -0.6618721926724644], [6.723227174391001, -1.1202385838363167, 17.76421425688128, 4.240718921220394, 0.851569692144024, 10.953227339854875, 4.363001559836192, -7.585464496483085, 28.34320347715245, -2.728589170451571, -9.192430172697092, 3.21442684057693], [-10.664949202539114, 12.77873246385692, 1.3065521039260273, -1.1654642639280668, -5.6014412410375645, -6.856409062593382, 2.5136915766107544, -11.363429011094526, -8.18491175624777, -6.57738598307763, -4.02969389721386, 17.198910154426265], [10.841266494391986, 4.29034066664525, -4.300833169143295, 6.280833788180996, -11.240182870954868, 7.8085378123059295, 13.405969324877836, 5.007127824688518, -13.22674461850798, -20.22406889909295, 3.544379598647568, -2.702523685991747], [-5.782844388256395, -11.063314209606702, -7.156077636585208, -4.076232169713292, -3.0345466117699313, 37.9335939791833, -7.863219836740626, -2.7321364146921465, 4.1198051478186715, 6.436688100970246, 4.373178005793864, 5.174914398885309], [-9.029065677939268, 18.313473430847576, -5.008730605155407, -11.101440609333967, 12.024453968984018, 7.890738613103073, -4.71161423915171, -7.542036097928588, -2.682524250370336, 7.209134639420104, -5.640728870170438, -13.658310034006947], [1.3593869702857224, 18.405273865068644, -19.524225301396683, -7.261439016597776, -5.266678983202526, -15.074175574290573, 16.087885801968998, 3.1010361597325944, 5.565840771587846, -17.501744724937662, 32.64599448953837, 28.96812001908972], [-5.078446485832752, -23.150020597462607, 0.6891340819275418, 6.879175177252327, -10.625919131213989, -11.401060131146604, 10.10091045900262, 2.256882025035208, 15.72659990707896, -29.358052790839317, -6.524227864555631, -8.550570264247838]], "weights_ho": [[-6.1303267273424185, -9.331497868443682, -0.37155895579967185, -4.389834704943801, 13.446479153483626, -23.441072662631633, 17.111029987676506, 28.344684441760535, 9.770694696671134, -9.040306686501376, -15.631748201654517, 0.34429024169111194, -4.982268870391032, -1.5826801200297747, 15.223709962810796, 5.33502568827448], [-4.048525034923414, -3.0690008847409165, 8.781838053827038, -18.126233477659316, 16.879625873081878, -10.872514482087853, 4.752200728002603, -0.8166819784983448, -11.832723715596906, 5.11557685077737, 15.624968465777458, -38.548103921958834, -4.365870991308279, 7.1587765815933215, -20.291725540530575, -6.817452077755819], [4.0391761394307295, -8.193798492734162, -4.361668278689029, -3.629124584089537, -8.42304266606901, 8.005247518054151, -4.063528760609333, 1.8833772881733948, 2.0504200522501006, 5.43607541569117, 22.109211081317113, -5.097095927434208, 11.962414116088828, -23.71730723419158, -19.015486045053436, 7.527774817569607], [-3.149884968420475, 32.884398699242155, -12.645183411745599, 9.62286325398731, -3.7756062339490484, -1.2163746291410713, 12.483511043084713, -1.910430615420694, 27.556078942688913, -24.67970547878205, 9.739823360706323, -10.839367200503132, -16.037019557605916, -7.347640531114827, -3.2710167611524366, 14.481254998668422]], "bias_h": [[-11.124942595802507], [-7.781917123436296], [-12.227892331275482], [-18.04638649835552], [-2.1483694842258325], [5.152329351559522], [20.226766888203702], [19.903951294706964], [3.3785994567764237], [-0.9028573070254631], [-1.2052237955336647], [16.11632917982514], [8.106804921256277], [0.8899383255765936], [11.98831701082813], [5.739539021571938]], "bias_o": [[-5.210615247107372], [-1.6595579688435387], [-11.851765453675833], [-11.927502370120406]]}, {"input_nodes": 12, "hidden_nodes": 16, "output_nodes": 4, "weights_ih": [[1.711570467102362, 4.301567355349935, -8.60479418510349, -3.47663649617223, 6.868128264956688, -8.059106783819688, 8.860528274833635, -0.16934707140088273, 3.9343970498772602, -0.8261901582237723, -5.3520565903000685, -16.604753595046958], [-1.3479746177754905, -13.885341470669127, 6.384915614450932, -4.046269395029635, 11.983464616370357, -3.717354350010708, 17.05182996317619, 9.28501817471934, 1.666307779723295, -2.2789671971701457, -9.320534664716657, 15.836826150566395], [9.166333978499567, 5.067357266212326, -5.4007840236105045, 8.757911194108964, -15.978849213062727, -9.635950948370922, 16.758823882552512, -12.289401130519824, 19.163942394510784, -4.90480568183228, 15.105383565693836, -4.198153566455307], [0.18090963437163404, 26.450720306387737, -20.835049024026148, 3.832371539466581, -2.6273558122984215, -3.9669663082702624, -7.833772676882434, 6.446914632911468, 10.40874069468592, -0.7897552078324892, 2.502919345042642, -20.524655377389223], [2.6436398852320124, -13.296770158823291, -3.3964571748179035, -11.151572415507829, -3.9200194349989625, 17.879115472943553, 5.218510390670616, -9.90167453530496, -0.6598205884268145, 10.540695624468137, 3.7114175345163676, 2.8872655103164084], [-15.981434907069984, -3.7864046510504283, 14.354320201151973, 3.266226320084377, 4.1627644711640945, 21.08165404849964, 21.559437858730266, 4.864337394144072, 3.453652760816414, -20.971346129818958, -11.747481626908225, -16.186306509590853], [5.160163241231453, -3.04102802595741, -14.70600042792937, 12.282548209918957, 5.5881489867110945, 8.63163902801746, 14.901826011885735, 14.554967928637968, 6.779946258400228, -3.0862217463846666, 6.642965152284903, 5.959400307592785], [2.134178838834608, 1.069811657739407, -10.084714455493723, -17.02946880491769, -7.149099494695136, 9.330397416026798, -5.823019117154725, 8.27862436215252, 17.936175795182493, -15.56437297175374, 16.910196324076797, -9.0946860601562], [2.509349943058893, -19.302547875238826, -1.5495648150028374, 10.902095847284164, -9.584332687406782, -21.962336049503477, -5.818962109114334, 17.15033783458922, 17.919613680558683, -19.544420421381265, -7.180230185629738, -0.6360653104386988], [6.723227174391001, -1.2931399589123593, 17.679893998273165, 4.240718921220394, 0.851569692144024, 11.063479329412475, 4.311767276043285, -7.601189298139049, 28.34320347715245, -2.71010630668265, -9.304481430737614, 3.363888193591473], [-10.589592062183447, 12.883293630781692, 1.3647228490750505, -1.0100085458035661, -5.511153928051702, -6.678631098135912, 2.5136915766107544, -11.363429011094526, -8.173948193455109, -6.57738598307763, -4.0267985271811195, 17.179607691675738], [10.779734799732804, 4.199544835843346, -4.245166036237147, 6.189303051924991, -11.224932185303883, 7.8085378123059295, 13.442935458918443, 5.007127824688518, -13.22674461850798, -20.044278658884103, 3.6521754432027844, -2.4658116560218803], [-6.015401824698699, -11.116024584388029, -6.897942830733224, -4.076232169713292, -3.1318996487594957, 37.9335939791833, -8.048565294488823, -2.6787873918760097, 4.252460324205061, 6.572243663121085, 4.581603652099307, 5.1098289916254265], [-9.018933906142404, 18.313473430847576, -4.845214904221767, -11.093139097720762, 12.024453968984018, 7.918988699678966, -4.705116529649921, -7.706035024289269, -2.5790570952795546, 7.174382085386228, -5.640728870170438, -13.791985686246996], [1.3727457238541354, 18.37675891385558, -19.450180803714236, -7.2559684054492255, -5.338107194585256, -14.949506109177797, 16.028445112475595, 3.0621869869182565, 5.422468551186942, -17.501744724937662, 32.53795929567504, 29.05505059053431], [-4.986285109072612, -23.150020597462607, 0.752914701890697, 6.879175177252327, -10.625919131213989, -11.401060131146604, 10.077369176420662, 2.2444224578251424, 15.72659990707896, -29.382026566527614, -6.686053564600504, -8.489009975091838]], "weights_ho": [[-6.045576457153826, -9.456439090235687, -0.37155895579967185, -4.195856185552864, 13.446479153483626, -23.378389034714, 17.211319381072542, 28.255330960902473, 9.880219088304983, -9.067423297224073, -15.747799299546463, 0.34429024169111194, -4.865879058014958, -1.4874903488184639, 15.115813260774484, 5.33502568827448], [-4.044102937900955, -2.86852623821546, 8.674933921071833, -18.248458289889946, 16.921272366889, -10.872514482087853, 4.850157754209854, -0.9124098018745866, -11.936744081476904, 5.084488980572301, 15.930978047576428, -38.71661697004783, -4.365870991308279, 7.1587765815933215, -20.16781898047801, -6.817452077755819], [4.099385227647331, -8.164420988356266, -4.361668278689029, -3.4992203977170426, -8.353055342197974, 8.005247518054151, -4.061160817925554, 1.9556998609178657, 1.9596597432017988, 5.43607541569117, 22.043039034529485, -4.986800777680856, 11.962414116088828, -23.559523171313604, -19.14275327929152, 7.666606770187694], [-3.2078378676748835, 32.762567437984956, -12.694893008613, 9.65522190765242, -3.8121915222299645, -1.2163746291410713, 12.548181807572941, -1.9264785371333117, 27.617881248702723, -24.826534265106417, 9.864219469361808, -10.960744776671444, -16.0112070602453, -7.510205468086902, -3.2155218236948273, 14.51895472432357]], "bias_h": [[-11.124942595802507], [-7.731451153325546], [-11.989757640061917], [-18.04638649835552], [-2.508159488117347], [5.29220880710095], [20.299488528738234], [19.903951294706964], [3.3699960760883503], [-0.8827350453454204], [-1.1024071531716328], [16.202854967104514], [8.256576156764007], [0.9020710107558204], [11.98831701082813], [5.739539021571938]], "bias_o": [[-5.0832734460807645], [-1.5050655634342676], [-11.765800809283437], [-11.927502370120406]]}, {"input_nodes": 12, "hidden_nodes": 16, "output_nodes": 4, "weights_ih": [[1.8113580423472206, 4.130050239931647, -8.696019236963403, -3.47663649617223, 6.868128264956688, -7.92545752096473, 8.832246204594068, 0.026960479928369824, 3.9119842278889583, -0.9132926711909343, -5.3520565903000685, -16.76043183642165], [-1.3479746177754905, -13.73837136675103, 6.324224214360726, -4.049216981597404, 11.951130774107785, -3.717354350010708, 17.05182996317619, 9.221517412231147, 1.666307779723295, -2.2789671971701457, -9.140354973317292, 15.836826150566395], [9.055331735407407, 5.181576159789318, -5.489797696637041, 8.865880171596142, -15.978849213062727, -9.691414669562423, 16.758823882552512, -12.289401130519824, 19.144430257103515, -4.8033906311399015, 15.190022024984101, -4.247339207566735], [0.0043628734325027035, 26.548761290035003, -20.900188010740553, 3.7960832671026563, -2.738561529947883, -3.8600660903014274, -7.964041627059087, 6.396330124005399, 10.40874069468592, -0.7897552078324892, 2.4961467783845417, -20.570257253421396], [2.6827234037473153, -13.481027757044282, -3.246670332881502, -11.128167110030887, -3.8760625112847342, 17.879115472943553, 5.230247245401557, -10.029764090772952, -0.6399257172732874, 10.540695624468137, 3.7875700713249305, 2.9562802722718544], [-16.082790905252423, -3.7864046510504283, 14.354320201151973, 2.9387487499752774, 4.388566167489909, 20.87872926064345, 21.486581866206674, 4.945868091532429, 3.337903785086965, -20.986149752798465, -11.871337479575093, -16.023932256185212], [4.868135448830172, -3.0362412954222155, -14.764248066645719, 12.338670645491817, 5.541019339934692, 8.63163902801746, 14.910792735972572, 14.596133200478837, 6.779946258400228, -3.0862217463846666, 6.606809892392983, 6.054335529479643], [2.1337925050717077, 0.8682951651013452, -10.031076253993275, -17.093809630091666, -7.141033493299491, 9.488316276933023, -5.884156238588401, 8.29807679507322, 17.90868404899973, -15.567915841949047, 17.123638762592176, -9.117257776794489], [2.5911253074368124, -19.46118709618551, -1.4536975972624362, 10.90088740411337, -9.804719042291623, -21.813985315271385, -5.788278987032184, 16.948137428688895, 17.907224418893183, -19.544420421381265, -7.24294435593794, -0.6618721926724644], [6.697282604070632, -1.1202385838363167, 17.858551358660996, 4.150536063737804, 0.8688475300423802, 10.980336147071236, 4.296631805310859, -7.601189298139049, 28.34320347715245, -2.643579736229494, -9.304481430737614, 3.520554275042112], [-10.69570366734373, 12.861538384402351, 1.3138966584705778, -1.0819434992363117, -5.7363191810488585, -6.701043294693523, 2.5136915766107544, -11.41488325489696, -8.18491175624777, -6.4682018102133725, -4.104390888183035, 17.088152785526532], [10.89413483447587, 4.342034903119084, -4.2687892211206, 6.280833788180996, -11.224932185303883, 7.8085378123059295, 13.445945674425811, 4.999727909977456, -13.205469149195103, -20.20031840021338, 3.6521754432027844, -2.4132396946280097], [-6.015401824698699, -10.966133726653329, -7.07946991728407, -4.209256499099913, -3.01912534895198, 37.9335939791833, -8.04757536903513, -2.6473963691307394, 4.252460324205061, 6.651031362296956, 4.582882269529113, 5.1098289916254265], [-9.157011741327794, 18.313473430847576, -4.883724220337034, -11.165405974940983, 11.937677590085967, 7.918988699678966, -4.722184856586701, -7.706035024289269, -2.797626830656219, 7.209134639420104, -5.640728870170438, -13.616508463365111], [1.3593869702857224, 18.32077658400229, -19.450180803714236, -7.3304437727665945, -5.266678983202526, -14.949506109177797, 16.2195078028735, 3.1010361597325944, 5.313360917884632, -17.501744724937662, 32.50151023241593, 29.038626288602888], [-5.078446485832752, -23.199038123535235, 0.752914701890697, 6.879175177252327, -10.625919131213989, -11.401060131146604, 10.153809951982218, 2.090795153148642, 15.764469933015102, -29.346726730068927, -6.326840439788459, -8.550570264247838]], "weights_ho": [[-6.1303267273424185, -9.386574977099977, -0.37155895579967185, -4.270976386577206, 13.446479153483626, -23.41250077623274, 17.111029987676506, 28.02883043579888, 9.770694696671134, -8.991203154114311, -15.52836245696964, 0.34429024169111194, -4.865879058014958, -1.9966294699328815, 15.223709962810796, 5.33502568827448], [-4.123552033226241, -2.894745324932833, 8.615424878636802, -18.126233477659316, 16.879809051507316, -10.838958709332946, 4.735240203228033, -0.8267533591104071, -11.832723715596906, 5.063602135273066, 15.90136936570953, -38.641996814288724, -4.22533921956581, 7.057742423220055, -20.264579557351315, -6.718626119925822], [4.064548568671197, -8.193798492734162, -4.431942077256674, -3.4992203977170426, -8.379998831848974, 8.005247518054151, -4.138174558685507, 2.1239747501245363, 1.9596597432017988, 5.43607541569117, 22.147422839142795, -4.873949709816765, 11.962414116088828, -23.71730723419158, -18.974488400612188, 7.564284263673477], [-3.1224810468735607, 32.78109538323263, -12.60722664642244, 9.629155716272544, -3.7930935213040677, -1.2044313185870184, 12.548181807572941, -1.9784707599808211, 27.601531467942937, -24.826534265106417, 9.739823360706323, -10.92920761218078, -16.037019557605916, -7.36067736353027, -3.2155218236948273, 14.51895472432357]], "bias_h": [[-11.341701602270307], [-7.781917123436296], [-12.013598459081136], [-17.95900578145645], [-2.2634629568778104], [5.477057268063409], [20.323697747237173], [19.903951294706964], [3.3843078189337934], [-0.9914685103246961], [-0.8674681118966857], [16.25133577981359], [8.05198077896157], [0.9020710107558204], [11.961552419045848], [5.739539021571938]], "bias_o": [[-5.349213307481117], [-1.587800567802569], [-11.775843579626539], [-11.927502370120406]]}, {"input_nodes": 12, "hidden_nodes": 16, "output_nodes": 4, "weights_ih": [[1.841161355286825, 4.130050239931647, -8.868765076932725, -3.47663649617223, 6.768942182758519, -7.687926208325853, 8.794415688224614, -0.028011415783952474, 3.922381789199819, -0.9132926711909343, -5.2531070215165, -16.816578610047447], [-1.3479746177754905, -13.847360641459067, 6.384915614450932, -4.00140068422031, 11.951130774107785, -3.717354350010708, 17.11607177683107, 9.221517412231147, 1.6608410591001324, -2.2789671971701457, -9.000980053664545, 15.971117277279133], [9.204912264426987, 5.24912298171717, -5.4007840236105045, 8.858495598801847, -16.06258388449474, -9.662964345070796, 16.758823882552512, -12.34355884200525, 19.0039424404986, -4.903621968245819, 15.06265177652725, -4.045821864697349], [0.07851560771924804, 26.404196812498625, -20.909717495974316, 4.053461444710973, -2.738561529947883, -4.04172006575614, -7.911071171743431, 6.379505981277547, 10.380493399921086, -0.845815888735605, 2.4961467783845417, -20.570257253421396], [2.758011139259712, -13.296770158823291, -3.3677627784109383, -11.030459581214151, -3.9482659273249725, 17.695371700249908, 5.141764567305488, -9.90167453530496, -0.672757850815187, 10.540695624468137, 3.7875700713249305, 2.8420566547596318], [-15.981434907069984, -3.7864046510504283, 14.371013454548022, 3.0286181218815122, 4.231617405386666, 20.844279320518922, 21.645389338564218, 4.823441422900367, 3.453652760816414, -21.16460564092699, -11.747481626908225, -16.186306509590853], [5.011640578632309, -3.2273294193982767, -14.823418542958477, 12.244141740931456, 5.567593659608981, 8.672147396584869, 14.992635105157442, 14.57402893665853, 6.9776007496263865, -3.0862217463846666, 6.642965152284903, 6.134081126849021], [1.8991876406085795, 1.082708738866477, -10.084714455493723, -17.028460820739593, -7.149099494695136, 9.261936023841189, -5.884156238588401, 8.176022527424056, 17.901614402648015, -15.592762737080024, 17.123638762592176, -9.0946860601562], [2.4717134521860977, -19.46118709618551, -1.5595247749699022, 10.90088740411337, -9.547071506005205, -21.860244375277485, -5.760428642907311, 17.15033783458922, 17.737081631063635, -19.544420421381265, -7.251435639995762, -0.6618721926724644], [6.6937346215640465, -1.1608704688989004, 17.76421425688128, 4.217608047066895, 0.851569692144024, 11.05620080574242, 4.311767276043285, -7.4524603104941365, 28.347741452004758, -2.71010630668265, -9.304481430737614, 3.363888193591473], [-10.69570366734373, 12.77873246385692, 1.3138966584705778, -1.0819434992363117, -5.511153928051702, -6.777459344326946, 2.5136915766107544, -11.363429011094526, -8.169822972449692, -6.641028524698476, -4.091363614155642, 17.198910154426265], [10.779734799732804, 4.29034066664525, -4.2196517175141475, 6.217767184157525, -11.224932185303883, 7.8085378123059295, 13.648039348120028, 5.047973329989478, -12.945037811322488, -20.094912288771617, 3.741107423697082, -2.4132396946280097], [-6.015401824698699, -10.966133726653329, -7.156077636585208, -3.9871944447197767, -3.1330742829486122, 37.9335939791833, -8.04757536903513, -2.695063732187707, 4.252460324205061, 6.572243663121085, 4.480712806927454, 5.090493701281127], [-9.029065677939268, 18.10596959301638, -4.773057453473583, -11.165405974940983, 12.024453968984018, 7.909896947595454, -4.710169392887427, -7.624929127050271, -2.6934891464986657, 7.209134639420104, -5.640728870170438, -13.680882808089473], [1.3427974147565045, 18.40896759413785, -19.450180803714236, -7.369046090363055, -5.259979144384025, -14.814949066169367, 16.075294670452646, 3.1010361597325944, 5.403005170621352, -17.501744724937662, 32.576191613224346, 29.038626288602888], [-5.078446485832752, -23.150020597462607, 0.6745351490066291, 6.879175177252327, -10.696455429546493, -11.507173938889643, 9.920267734833013, 2.2373072418152837, 15.72659990707896, -29.346726730068927, -6.282771451983872, -8.550570264247838]], "weights_ho": [[-6.1303267273424185, -9.456439090235687, -0.37155895579967185, -4.242543171950441, 13.39182259380674, -23.398138435113122, 17.411865634255474, 28.255330960902473, 9.770694696671134, -9.301590061477553, -15.492410150966172, 0.4224131043846554, -4.913040221572466, -1.7009668510588127, 15.243046541519588, 5.33502568827448], [-4.044102937900955, -2.9275420796560407, 8.615424878636802, -18.126233477659316, 16.94796451592817, -10.886514043557089, 4.752200728002603, -0.9682859159608348, -11.777581307788251, 5.061973837156234, 15.975225849279298, -38.63616583783418, -4.365870991308279, 7.1587765815933215, -20.290335202062163, -6.817452077755819], [4.12859211142042, -8.176570953108326, -4.261743074858359, -3.5436345237879756, -8.479612450723744, 8.005247518054151, -4.273690145271448, 1.9525715246925803, 2.0801776177336615, 5.43607541569117, 22.109211081317113, -4.986800777680856, 11.962414116088828, -23.55480595755953, -19.222373300527053, 7.527774817569607], [-3.1224810468735607, 32.78109538323263, -12.645183411745599, 9.627368714586485, -3.6895282802066456, -1.2163746291410713, 12.548181807572941, -1.9784707599808211, 27.43997778798366, -24.826534265106417, 9.84789600344564, -10.946756207009548, -16.037019557605916, -7.36067736353027, -3.2155218236948273, 14.51895472432357]], "bias_h": [[-11.124942595802507], [-8.027574799714502], [-12.013598459081136], [-18.17816585542386], [-2.2634629568778104], [5.417392838172125], [20.420548227122932], [19.903951294706964], [3.4249385525179266], [-0.9028573070254631], [-1.109286822836711], [16.190754050251122], [7.956801387624064], [0.9020710107558204], [12.059663084116302], [5.5989834626260135]], "bias_o": [[-5.210615247107372], [-1.587800567802569], [-11.765800809283437], [-11.860480265601899]]}, {"input_nodes": 12, "hidden_nodes": 16, "output_nodes": 4, "weights_ih": [[1.711570467102362, 4.130050239931647, -8.68902399238993, -3.47663649617223, 6.67544495239052, -7.929191088017142, 8.83072148684416, 0.026960479928369824, 3.9343970498772602, -0.9132926711909343, -5.349078013357387, -16.854360992187974], [-1.3479746177754905, -13.885341470669127, 6.5723279728998065, -4.00140068422031, 11.941637841960228, -3.76397007304805, 17.087452167501464, 9.203944253063455, 1.622657023378331, -2.1332935812651534, -8.977922141920494, 15.836826150566395], [9.185665315551306, 5.1587544579378495, -5.4007840236105045, 8.865880171596142, -15.824438253212113, -9.779712396509476, 16.792133639494004, -12.324566900367067, 19.182125844649622, -4.9132576530206675, 15.141498729300995, -4.101873427622775], [0.16347099642597063, 26.60263853818326, -21.06640628849021, 3.832371539466581, -2.592311273306752, -4.04172006575614, -8.079436474486691, 6.396330124005399, 10.316251249423297, -0.8552012637920513, 2.5089408200396197, -20.55363784567271], [2.5522335231343565, -13.45263109497785, -3.25099204075929, -11.128167110030887, -3.887679416556255, 17.993428373078647, 5.2374062589398305, -10.023668590505947, -0.6598205884268145, 10.665542492124413, 3.837048609944578, 2.9820117937944626], [-15.981434907069984, -3.7864046510504283, 14.354320201151973, 3.0286181218815122, 4.320189780620273, 20.981146313529862, 21.339025099582418, 4.891787748896876, 3.453652760816414, -21.078597756589044, -11.560270208548213, -16.180035422747533], [5.011640578632309, -3.014650115056894, -14.823418542958477, 12.366155694528306, 5.541019339934692, 8.595383318149077, 14.901826011885735, 14.638761206097167, 6.779946258400228, -3.0230593762959073, 6.642965152284903, 6.134081126849021], [2.045876242224195, 1.082708738866477, -10.168703409846703, -17.093809630091666, -7.149099494695136, 9.330397416026798, -5.884156238588401, 8.142704189765656, 17.7274142812708, -15.703386294949068, 17.123638762592176, -9.0946860601562], [2.3678100681121177, -19.352759623084506, -1.4712070226663516, 10.966666872939635, -9.544924925029324, -21.743936216351457, -5.781316505466352, 17.15033783458922, 17.936765735685977, -19.574102624727907, -7.241796361459935, -0.6618721926724644], [6.723227174391001, -1.1202385838363167, 17.76421425688128, 4.203416308864572, 0.9112874050375417, 10.980336147071236, 4.311767276043285, -7.523230368001944, 28.434703657117577, -2.660585206595312, -9.208531937866189, 3.363888193591473], [-10.69570366734373, 12.77873246385692, 1.4818506305850279, -1.070245907239862, -5.510117824722913, -6.856409062593382, 2.3540732916422513, -11.310966356083847, -8.18491175624777, -6.57738598307763, -4.0267985271811195, 17.16441717005352], [10.779734799732804, 4.413275750433269, -4.245166036237147, 6.280833788180996, -11.224932185303883, 7.8085378123059295, 13.536746399377066, 5.0221597451201845, -13.379647844837343, -20.02729799574539, 3.651382947472674, -2.3649847883416353], [-5.890817509421777, -10.966133726653329, -7.087541719833345, -3.913918402418959, -3.1318996487594957, 37.9335939791833, -7.997083917422765, -2.6787415856551804, 4.252460324205061, 6.572243663121085, 4.414916608153613, 4.971308292373196], [-9.1198215569361, 18.313473430847576, -4.7971584655410675, -11.146466719449531, 12.024453968984018, 7.918988699678966, -4.71161423915171, -7.706035024289269, -2.682524250370336, 7.1087370050840075, -5.591488470017681, -13.63293027977321], [1.3593869702857224, 18.32077658400229, -19.440739153304612, -7.541226761163022, -5.266678983202526, -14.949506109177797, 16.075294670452646, 3.1010361597325944, 5.396765049554908, -17.501744724937662, 32.53795929567504, 29.15533456263943], [-5.078446485832752, -23.08200042478059, 0.7244115464615202, 6.7846844696207125, -10.782984443690477, -11.401060131146604, 9.927733819463274, 2.2373072418152837, 15.873310291072759, -29.346726730068927, -6.429008485991438, -8.550570264247838]], "weights_ho": [[-6.1303267273424185, -9.522951950339786, -0.37155895579967185, -4.034532010553681, 13.446479153483626, -23.398138435113122, 17.111029987676506, 28.255330960902473, 9.727568575156102, -9.067423297224073, -15.631748201654517, 0.34429024169111194, -5.0159506522910515, -1.7009668510588127, 15.223709962810796, 5.346268048609211], [-4.028765913776388, -2.9275420796560407, 8.615424878636802, -18.126233477659316, 16.94796451592817, -10.946259131394427, 4.752200728002603, -0.841573453378496, -11.832723715596906, 5.044733737842553, 16.078075089291023, -38.60654801581974, -4.367706910762553, 7.1587765815933215, -20.290335202062163, -6.824431859763071], [4.184465970150711, -8.10184153463142, -4.361668278689029, -3.4992203977170426, -8.433482963991487, 8.005247518054151, -4.10606388283221, 1.8157466165090212, 1.9596597432017988, 5.43607541569117, 22.10496605157446, -4.986800777680856, 11.962414116088828, -23.71730723419158, -18.909234762988625, 7.504087018260759], [-3.1224810468735607, 32.83944229970968, -12.645183411745599, 9.65522190765242, -3.7672839426256193, -1.2163746291410713, 12.548181807572941, -1.957646504722351, 27.531691650516738, -24.826534265106417, 9.739823360706323, -10.946756207009548, -16.185943419487153, -7.36067736353027, -3.2334325395625405, 14.420186380754773]], "bias_h": [[-11.124942595802507], [-7.766513683615071], [-11.854226649874118], [-17.86324454380305], [-2.2939418231309103], [5.284476887876421], [20.221056025622165], [19.903951294706964], [3.386121634510226], [-0.9028573070254631], [-1.0882275785883833], [16.231743254179296], [8.147210162458773], [0.7135618751152418], [12.052562211791912], [5.648592043393013]], "bias_o": [[-5.233693964903151], [-1.6444251137332069], [-11.765800809283437], [-11.927502370120406]]}, {"input_nodes": 12, "hidden_nodes": 16, "output_nodes": 4, "weights_ih": [[1.711570467102362, 4.283204862888569, -8.696019236963403, -3.6037130904054586, 6.924176757267498, -8.009933399680287, 8.651605150919263, 0.08471296279334226, 3.9343970498772602, -0.9701124725355235, -5.358277652024197, -16.827803441059398], [-1.384422535610996, -13.885341470669127, 6.384915614450932, -4.00140068422031, 11.737641571964097, -3.717354350010708, 17.05182996317619, 9.221517412231147, 1.666307779723295, -2.2789671971701457, -9.140354973317292, 15.836826150566395], [9.166333978499567, 5.025540846547557, -5.304401606631385, 8.865880171596142, -16.149659491266377, -9.631559968854718, 16.758823882552512, -12.150162188803392, 19.083573348006837, -4.870898641926704, 15.105383565693836, -4.134872648695353], [0.07851560771924804, 26.49506131214644, -20.909717495974316, 3.7441024250385575, -2.738561529947883, -4.04172006575614, -7.920686977166038, 6.34266378394792, 10.40874069468592, -0.7897552078324892, 2.4961467783845417, -20.544245426966548], [2.639528940715416, -13.296770158823291, -3.361637905257014, -11.150232109287643, -4.036104758822239, 17.842185417268485, 5.2374062589398305, -9.90167453530496, -0.6598205884268145, 10.540695624468137, 3.7875700713249305, 2.983390762803813], [-15.899812490460866, -3.7864046510504283, 14.352037740702858, 3.137216999935862, 4.295330769284196, 20.87872926064345, 21.559437858730266, 4.923929021143711, 3.453652760816414, -21.036594071140875, -11.714683167808726, -16.186306509590853], [5.011640578632309, -3.0362412954222155, -14.72803171661673, 12.353301332505199, 5.541019339934692, 8.707239692480137, 14.901826011885735, 14.625572163916614, 6.893425559603938, -3.0862217463846666, 6.723652260482906, 6.134081126849021], [2.0016594411361135, 1.0897469148308712, -9.992292876942761, -17.093809630091666, -7.132408919554262, 9.330397416026798, -5.884156238588401, 8.29807679507322, 17.812239602709447, -15.592762737080024, 17.123638762592176, -9.0946860601562], [2.3558680140731276, -19.46118709618551, -1.5495648150028374, 10.90088740411337, -9.607584060423225, -21.96420058144998, -5.884577703391389, 17.15033783458922, 17.853044831772944, -19.544420421381265, -7.180230185629738, -0.7372892962285471], [6.723227174391001, -1.1202385838363167, 17.78523417553885, 4.240718921220394, 0.851569692144024, 10.980336147071236, 4.311767276043285, -7.43811952505198, 28.34320347715245, -2.8170206034245484, -9.452423906827544, 3.363888193591473], [-10.667147590708481, 12.77873246385692, 1.3138966584705778, -1.0819434992363117, -5.511153928051702, -6.837444530089365, 2.556095929446287, -11.363429011094526, -8.152634543217893, -6.354370448478251, -4.0267985271811195, 17.198910154426265], [10.779734799732804, 4.29034066664525, -4.245166036237147, 6.280833788180996, -11.200361657585415, 7.736105716327586, 13.665360110052765, 5.007127824688518, -13.22674461850798, -20.19574530374811, 3.6118791749098085, -2.4132396946280097], [-6.015401824698699, -10.91105880111491, -7.156077636585208, -4.076232169713292, -3.1318996487594957, 37.9335939791833, -8.04757536903513, -2.5236831302233935, 4.304220596134637, 6.572243663121085, 4.433825623345427, 5.178343095104411], [-9.076566790387425, 18.401773552369864, -4.883724220337034, -11.165405974940983, 11.955826479404006, 7.918988699678966, -4.71161423915171, -7.655818729376032, -2.682524250370336, 7.240297191564625, -5.640728870170438, -13.658310034006947], [1.2190980438612677, 18.32077658400229, -19.450180803714236, -7.421793389062711, -5.074056537678834, -14.84114979397714, 16.075294670452646, 3.0003174171423272, 5.695212547464993, -17.526120272053834, 32.46367509330626, 29.038626288602888], [-5.119193873417061, -23.150020597462607, 0.752914701890697, 6.879175177252327, -10.625919131213989, -11.401060131146604, 9.966279277831777, 2.2373072418152837, 15.691251327331868, -29.718364062037335, -6.399255327608865, -8.623697949440048]], "weights_ho": [[-6.149789630855767, -9.456439090235687, -0.693597917442325, -4.195856185552864, 13.144014197906712, -23.507069150831416, 17.111029987676506, 28.256978327060544, 9.683232539801025, -9.067423297224073, -15.435846663044181, 0.2020318735542707, -4.865879058014958, -1.5452755759202372, 15.114732071696205, 5.243824497107972], [-4.044102937900955, -2.877152803655941, 8.501079398747725, -18.095132640136022, 16.94796451592817, -10.872514482087853, 4.833098135041104, -0.7435563553334008, -11.832723715596906, 5.112336200118285, 15.958958866013836, -38.60654801581974, -4.382054035885702, 7.1587765815933215, -20.254407780041745, -6.817452077755819], [4.12859211142042, -8.193798492734162, -4.473156611257914, -3.4992203977170426, -8.510612397593507, 7.893258308242685, -4.138174558685507, 1.9525715246925803, 1.9596597432017988, 5.576366882763244, 22.149699120966652, -4.986800777680856, 12.055576058540975, -23.71730723419158, -19.16278691312985, 7.742698255227382], [-3.1703210933254184, 32.78109538323263, -12.716715211529253, 9.65522190765242, -3.8177442420938945, -1.1305837808376487, 12.548181807572941, -1.9784707599808211, 27.617881248702723, -24.887794083530054, 9.739823360706323, -10.945010780346273, -15.97824210715417, -7.208649283369365, -3.2155218236948273, 14.540367733666491]], "bias_h": [[-11.124942595802507], [-7.781917123436296], [-12.12049895803823], [-18.04638649835552], [-2.1138420462588363], [5.3972783790557175], [20.326418386075844], [19.903951294706964], [3.4249385525179266], [-0.9189697302293202], [-1.1243066654418299], [16.227558485746666], [8.147210162458773], [0.9020710107558204], [11.98831701082813], [5.739539021571938]], "bias_o": [[-5.210615247107372], [-1.436521513271313], [-11.765800809283437], [-11.927502370120406]]}, {"input_nodes": 12, "hidden_nodes": 16, "output_nodes": 4, "weights_ih": [[1.711570467102362, 4.0907630649093285, -8.630889424675233, -3.47663649617223, 6.7649008210303645, -7.929191088017142, 8.889743472045648, 0.11891920083330411, 3.9343970498772602, -0.9132926711909343, -5.380189664652105, -16.76043183642165], [-1.3058858599876642, -13.96303500797878, 6.384915614450932, -4.00140068422031, 12.064799006941609, -3.717354350010708, 17.07442073110218, 9.221517412231147, 1.666307779723295, -2.2789671971701457, -9.105164885774713, 15.738929721619057], [9.106347089287928, 5.181576159789318, -5.447401789831638, 8.855613286271799, -16.045217400792236, -9.631559968854718, 16.758823882552512, -12.122814214661911, 19.144430257103515, -4.839779175869766, 15.183378513906924, -4.185735236588265], [0.2278667213757601, 26.599740536221464, -20.960669209963235, 3.7428152324072252, -2.8295899322203732, -4.04172006575614, -7.904181342496244, 6.382274773588351, 10.40874069468592, -0.7897552078324892, 2.4961467783845417, -20.670192465599115], [2.6436398852320124, -13.296770158823291, -3.3677627784109383, -11.161669678532052, -3.9482659273249725, 17.879115472943553, 5.2374062589398305, -10.000247670867237, -0.7610699119159158, 10.662209338075181, 3.7980524415340318, 2.9007764729295724], [-16.06249015772427, -3.7864046510504283, 14.354320201151973, 3.0286181218815122, 4.295330769284196, 20.709449555627728, 21.661271295344683, 4.883181967751495, 3.453652760816414, -21.145753632681824, -11.663049782188056, -16.218159100688176], [4.992333322343833, -3.0481384587208753, -14.823418542958477, 12.353301332505199, 5.59328811320215, 8.63163902801746, 14.901433964354933, 14.57402893665853, 6.852595503196623, -3.0862217463846666, 6.642965152284903, 6.134081126849021], [2.045876242224195, 1.082708738866477, -10.084714455493723, -17.093809630091666, -7.187470090928737, 9.248845824544212, -5.932347121994057, 8.363590217138363, 17.97442247715334, -15.537573642445208, 17.162006713942535, -8.966282409272692], [2.413841166534998, -19.438305436131312, -1.4029953297422026, 10.950058404361899, -9.55215309554689, -21.78722983038139, -5.806709811214445, 17.158449637686644, 17.919613680558683, -19.544420421381265, -7.180230185629738, -0.6618721926724644], [6.723227174391001, -1.2169076954086866, 17.71513756452164, 4.240718921220394, 0.8214854559330544, 10.914295506877556, 4.311767276043285, -7.601189298139049, 28.34320347715245, -2.7975685519704343, -9.25076476576857, 3.274543803554156], [-10.69570366734373, 12.762263489698427, 1.2317404043146414, -1.0819434992363117, -5.533653735830406, -6.856409062593382, 2.5136915766107544, -11.363429011094526, -8.18491175624777, -6.57738598307763, -4.0267985271811195, 17.286940414697533], [10.779734799732804, 4.276952984735683, -4.222738827362527, 6.2707288480346, -11.224932185303883, 7.882630379769337, 13.536746399377066, 5.100993641246203, -13.102978025911225, -20.014041637814188, 3.649937207610411, -2.370957771560949], [-5.949389903824097, -10.953613256628907, -7.267329449498763, -3.968233799549239, -3.1318996487594957, 37.93909256417864, -8.04757536903513, -2.5082817263595736, 4.345763934876957, 6.572243663121085, 4.351715776673412, 5.1098289916254265], [-8.9879503802156, 18.218714704468756, -4.883724220337034, -11.07233590197659, 12.024453968984018, 7.918988699678966, -4.605131799422473, -7.628797920939696, -2.682524250370336, 7.116972181650228, -5.524740244496421, -13.658310034006947], [1.2968240411274214, 18.294010099302906, -19.450180803714236, -7.4584530177605135, -5.158054719936665, -14.949506109177797, 16.076332570027247, 3.1010361597325944, 5.36097257716712, -17.47016686135066, 32.25485072235081, 29.038626288602888], [-5.078446485832752, -23.150020597462607, 0.752914701890697, 6.972895016427559, -10.53030699813238, -11.401060131146604, 9.966279277831777, 2.138629222786699, 15.884185445505816, -29.346726730068927, -6.429008485991438, -8.332851115890493]], "weights_ho": [[-6.090257710780414, -9.456439090235687, -0.40904390254487677, -4.195856185552864, 13.508775147329153, -23.399544453697413, 17.111029987676506, 28.223260072166767, 9.90687423473699, -9.067423297224073, -15.748282916417047, 0.3036017808010313, -4.865879058014958, -1.7009668510588127, 15.223709962810796, 5.33502568827448], [-4.044102937900955, -2.9275420796560407, 8.570185535783212, -18.158238540266897, 16.936618190851004, -10.880925805505822, 4.790035579918276, -0.8989052056980241, -11.924639558375738, 5.069752122793352, 15.975225849279298, -38.771624950603275, -4.365870991308279, 6.968956557188444, -20.290335202062163, -6.817452077755819], [4.12859211142042, -8.193798492734162, -4.361668278689029, -3.4992203977170426, -8.433482963991487, 7.932459869009526, -4.138174558685507, 1.9525715246925803, 2.0092396373655195, 5.264023786375892, 22.109211081317113, -5.11931968419687, 11.912603839464419, -23.713343686298636, -19.269128649935293, 7.484410907963501], [-3.1734450953299205, 32.78109538323263, -12.521226055624613, 9.65522190765242, -3.7756062339490484, -1.2163746291410713, 12.434728240889699, -1.95555731499073, 27.617881248702723, -24.826534265106417, 9.739823360706323, -10.821371609179318, -15.86193795304977, -7.36067736353027, -3.2155218236948273, 14.53353195148636]], "bias_h": [[-11.124942595802507], [-7.781917123436296], [-12.173105205047706], [-18.064607450004676], [-2.1197141733773472], [5.37468873283793], [20.361152977992408], [19.903951294706964], [3.4249385525179266], [-0.7654278565747955], [-1.0882275785883833], [16.202854967104514], [8.162174086880215], [0.8616472643169306], [11.98831701082813], [5.739539021571938]], "bias_o": [[-5.210615247107372], [-1.6813345462071183], [-11.765800809283437], [-12.102030038605218]]}, {"input_nodes": 12, "hidden_nodes": 16, "output_nodes": 4, "weights_ih": [[1.711570467102362, 4.130050239931647, -8.696019236963403, -3.47663649617223, 6.868128264956688, -7.929191088017142, 8.71487966832697, 0.026960479928369824, 3.9343970498772602, -0.9132926711909343, -5.3520565903000685, -16.597733060798372], [-1.5329436249440542, -13.857448756740004, 6.384915614450932, -4.031365975430204, 11.951130774107785, -3.7170300737566038, 16.943767834192432, 9.193209124575564, 1.666307779723295, -2.2789671971701457, -9.21194910434576, 15.836826150566395], [9.190095433482236, 5.160151582803933, -5.4007840236105045, 8.865880171596142, -15.978849213062727, -9.631559968854718, 16.65810017920666, -12.236730747995765, 19.144430257103515, -4.903621968245819, 15.105383565693836, -4.134872648695353], [0.07851560771924804, 26.49506131214644, -20.909717495974316, 3.832371539466581, -2.738561529947883, -3.9780596799886094, -7.901799405405238, 6.396330124005399, 10.286142235760583, -0.7897552078324892, 2.4961467783845417, -20.548906710750362], [2.508385741380128, -13.271801718817255, -3.3677627784109383, -11.128167110030887, -3.9482659273249725, 18.106327296506606, 5.2374062589398305, -10.004150667203687, -0.6598205884268145, 10.61461502424757, 3.971620877280133, 2.8217807969339708], [-16.07936507150441, -3.6487091414210755, 14.354320201151973, 3.107400215381263, 4.0839614886038875, 20.87872926064345, 21.661441354745982, 4.864337394144072, 3.453652760816414, -21.036594071140875, -11.747481626908225, -16.357826670606777], [5.0933471048362, -3.1009024732277295, -15.037309679809702, 12.333790335226, 5.441761014343764, 8.63163902801746, 14.844617037911688, 14.57402893665853, 6.779946258400228, -3.0862217463846666, 6.642965152284903, 6.21195188654975], [2.046421832803736, 1.082708738866477, -10.25519971958519, -17.198442228747787, -7.185961322130784, 9.330397416026798, -5.965542006385558, 8.29807679507322, 17.901614402648015, -15.598061990961353, 17.123638762592176, -9.0946860601562], [2.3271434515207683, -19.46118709618551, -1.6644092751827202, 10.945121401810944, -9.459770581525845, -21.812660543598973, -5.782681064470303, 17.235166167173784, 18.05670168554071, -19.69607802311482, -7.180230185629738, -0.6569804070978482], [6.815933135697469, -1.1202385838363167, 17.76421425688128, 4.240718921220394, 0.851569692144024, 10.980336147071236, 4.179115152631259, -7.492723185926397, 28.34320347715245, -2.71010630668265, -9.165479479728127, 3.363888193591473], [-10.680129134017342, 12.77873246385692, 1.3138966584705778, -1.0108470356347552, -5.511153928051702, -6.786655669321776, 2.4463521144482185, -11.48941787893618, -8.18491175624777, -6.507261508161744, -4.0267985271811195, 17.198910154426265], [10.750824347707145, 4.362600456707239, -4.245166036237147, 6.280833788180996, -11.10930216259499, 7.740545421099567, 13.719564395047405, 5.144007726786218, -13.206874484629143, -20.103601654723356, 3.6521754432027844, -2.4646520131497467], [-6.015401824698699, -10.763392221128841, -7.273276776198126, -3.9479315063469325, -3.1318996487594957, 38.01606714518946, -8.04757536903513, -2.6464643430941797, 4.252460324205061, 6.572243663121085, 4.499208503637703, 5.049754758904952], [-9.029065677939268, 18.265376384759023, -4.622808876185476, -11.165405974940983, 12.024453968984018, 7.918988699678966, -4.71161423915171, -7.706035024289269, -2.7413780026689274, 7.209134639420104, -5.633455161749112, -13.658310034006947], [1.3593869702857224, 18.32077658400229, -19.407762167830196, -7.406762955599151, -5.3341631498279165, -14.949506109177797, 16.075294670452646, 3.1010361597325944, 5.403005170621352, -17.544437976648013, 32.53795929567504, 28.941660853592452], [-5.078446485832752, -23.150020597462607, 0.692723400918973, 7.006163239030848, -10.625919131213989, -11.326173537878638, 9.966279277831777, 2.3101258968261393, 15.72659990707896, -29.346726730068927, -6.367707826185146, -8.550570264247838]], "weights_ho": [[-6.128215424317102, -9.469458525766944, -0.3198691314536118, -4.195856185552864, 13.446479153483626, -23.398138435113122, 17.169559429623167, 28.257321873544413, 9.681194785443683, -8.996835122366642, -15.552905959399219, 0.34429024169111194, -4.90883887987708, -1.7009668510588127, 15.198747398371196, 5.498956725632796], [-3.943971732176813, -2.8617978329457534, 8.615424878636802, -18.05356585109115, 16.824121428181314, -10.936135934002806, 4.752200728002603, -0.8028073396189138, -11.832723715596906, 5.119818225340502, 15.975225849279298, -38.497431492435695, -4.377146038996489, 7.146629495030182, -20.428283685839023, -6.864828355863378], [4.231518309337363, -8.028676307484181, -4.361668278689029, -3.640737241578127, -8.364959298050264, 8.005247518054151, -4.095448711745623, 1.9525715246925803, 1.9596597432017988, 5.43607541569117, 22.109211081317113, -4.986800777680856, 11.962414116088828, -23.71730723419158, -19.131989869299453, 7.527774817569607], [-3.0836120275991368, 32.78109538323263, -12.628796390015836, 9.600168628759503, -3.7756062339490484, -1.227336494990521, 12.546377314395412, -1.9784707599808211, 27.640165608819665, -24.826534265106417, 9.748894128212438, -10.946756207009548, -15.98040768768242, -7.378126950825844, -3.2155218236948273, 14.580890639389244]], "bias_h": [[-11.120536353818391], [-7.762718601069906], [-12.013598459081136], [-18.040740006118057], [-2.259045232397248], [5.37468873283793], [20.299488528738234], [19.903951294706964], [3.4249385525179266], [-1.0617286218954844], [-1.0882275785883833], [16.202854967104514], [8.147210162458773], [0.9368702713573556], [11.98831701082813], [5.625651201213641]], "bias_o": [[-5.169639282491581], [-1.690055373293354], [-11.765800809283437], [-11.927502370120406]]}, {"input_nodes": 12, "hidden_nodes": 16, "output_nodes": 4, "weights_ih": [[1.711570467102362, 4.172154985337397, -8.696019236963403, -3.47663649617223, 6.868128264956688, -7.825223502787345, 8.824640965398167, 0.15303190033257186, 4.058194015214804, -0.9132926711909343, -5.3419163880072436, -16.76043183642165], [-1.3479746177754905, -13.885341470669127, 6.384915614450932, -4.064633963639106, 11.951130774107785, -3.80436247685298, 17.147657567137152, 9.221517412231147, 1.666307779723295, -2.372448352201363, -9.224003850197201, 15.836826150566395], [9.166333978499567, 4.970420771723627, -5.4007840236105045, 8.865880171596142, -15.978849213062727, -9.631559968854718, 16.77889013431895, -12.289401130519824, 19.144430257103515, -4.903621968245819, 15.105383565693836, -4.2793139196508125], [0.02614269584424351, 26.51447815638701, -20.85643148473957, 3.755226041470219, -2.7419400681324486, -4.04172006575614, -7.911071171743431, 6.396330124005399, 10.380674548103853, -0.7897552078324892, 2.4961467783845417, -20.570257253421396], [2.6436398852320124, -13.440324685554566, -3.3677627784109383, -11.128167110030887, -3.8701490039571116, 17.879115472943553, 5.2374062589398305, -9.998414623990143, -0.6598205884268145, 10.540695624468137, 3.9125471617991097, 2.8854043399617186], [-15.981434907069984, -3.7864046510504283, 14.354320201151973, 3.0286181218815122, 4.295330769284196, 20.87872926064345, 21.629590929162926, 4.849148628261085, 3.554312707323101, -21.084428464178938, -11.696753064892366, -16.186306509590853], [4.855786932766, -3.0362412954222155, -14.731379538145852, 12.294231603477753, 5.541019339934692, 8.673629819839599, 14.901826011885735, 14.63554521935115, 6.695014454851213, -3.068351224936961, 6.8109708967837825, 6.134081126849021], [2.0384098444198355, 1.0185216590298183, -10.084714455493723, -17.093809630091666, -7.149099494695136, 9.330397416026798, -5.848581360380021, 8.528612346324906, 17.831672377015355, -15.592762737080024, 17.22510539323065, -8.972669661194589], [2.3678100681121177, -19.46118709618551, -1.5495648150028374, 10.90088740411337, -9.55215309554689, -21.813985315271385, -5.806709811214445, 17.210624713676985, 17.919613680558683, -19.484853507204566, -7.0706073632672055, -0.6618721926724644], [6.64025278627331, -1.1925416973917917, 17.7630031833519, 4.302973634534576, 0.851569692144024, 10.980336147071236, 4.345166483647333, -7.601189298139049, 28.34320347715245, -2.71010630668265, -9.313614854733785, 3.363888193591473], [-10.559656157882795, 12.801876641302467, 1.3138966584705778, -1.0819434992363117, -5.511153928051702, -6.715501805617543, 2.5136915766107544, -11.363429011094526, -8.289571845117635, -6.57738598307763, -3.919486714100015, 17.198910154426265], [10.776208899804958, 4.444389047177383, -4.245166036237147, 6.280833788180996, -11.428496904155585, 7.8085378123059295, 13.391446619819417, 5.067271367798337, -13.22674461850798, -19.98781078072143, 3.6521754432027844, -2.4132396946280097], [-6.015401824698699, -11.105775514575376, -7.150948054595178, -4.115708745944267, -3.1516779998090314, 37.949656261475916, -8.10321723146404, -2.744486229558549, 4.252460324205061, 6.62463915438547, 4.499208503637703, 5.1098289916254265], [-9.029065677939268, 18.313473430847576, -4.883724220337034, -11.165405974940983, 12.008754354611261, 7.876253644715305, -4.71161423915171, -7.78719352433642, -2.7445241784998067, 7.209134639420104, -5.640728870170438, -13.658310034006947], [1.3593869702857224, 18.32077658400229, -19.450180803714236, -7.316136327574004, -5.488905459713595, -14.949506109177797, 16.075294670452646, 3.0714656542688665, 5.502999070939696, -17.431522580221475, 32.46148423210447, 29.190497899888538], [-5.078446485832752, -23.087216590285273, 0.752914701890697, 6.991248148137265, -10.566303685251535, -11.401060131146604, 9.966279277831777, 2.2373072418152837, 15.577025475937493, -29.194429391362437, -6.474203274149075, -8.550570264247838]], "weights_ho": [[-6.214713421064282, -9.456439090235687, -0.269863949585736, -4.196736841470563, 13.30036551114944, -23.398138435113122, 17.111029987676506, 28.255330960902473, 9.855502527727731, -9.091888876988863, -15.631748201654517, 0.43241822221320303, -4.972939644803152, -1.7009668510588127, 15.225213841203152, 5.293971341128092], [-4.044102937900955, -2.9275420796560407, 8.840044882010242, -18.24596836532911, 16.94796451592817, -10.872514482087853, 4.752200728002603, -0.7929596212220898, -11.82284540557598, 5.11557685077737, 15.975225849279298, -38.62141653853845, -4.365870991308279, 7.1587765815933215, -20.42606641525329, -6.831013823363693], [4.12859211142042, -8.193798492734162, -4.361668278689029, -3.6084931221299503, -8.433482963991487, 8.113723885557603, -4.1126401203365, 1.9525715246925803, 2.1259368945036257, 5.43607541569117, 22.271322404164707, -5.023696820489181, 11.873621496021862, -23.65717075518717, -18.913603244895896, 7.747733854276424], [-3.1224810468735607, 32.80261153760312, -12.645183411745599, 9.65522190765242, -3.9394692995737097, -1.0041855889951605, 12.59221403750918, -2.099784138710999, 27.617881248702723, -24.826534265106417, 9.724312023620879, -11.017731250853565, -16.037019557605916, -7.325437593827402, -3.276143221443835, 14.333562530156863]], "bias_h": [[-10.942159645655655], [-7.781917123436296], [-12.013598459081136], [-18.04638649835552], [-2.2883749161832676], [5.37468873283793], [20.438830305959183], [19.903951294706964], [3.4249385525179266], [-1.0467630677559703], [-0.9159849178684374], [16.137195164004034], [8.147210162458773], [0.9020710107558204], [11.869278544706207], [5.850201414245262]], "bias_o": [[-5.188156580065233], [-1.5440556341216007], [-11.765800809283437], [-11.783837993682065]]}, {"input_nodes": 12, "hidden_nodes": 16, "output_nodes": 4, "weights_ih": [[1.711570467102362, 4.130050239931647, -8.696019236963403, -3.47663649617223, 6.707219838411705, -7.929191088017142, 8.824640965398167, 0.026960479928369824, 3.9343970498772602, -0.9132926711909343, -5.223103635387031, -16.76043183642165], [-1.3240246624265641, -13.88847411102674, 6.582556340963212, -3.9630216512773435, 11.951130774107785, -3.6554622400373225, 17.05182996317619, 9.221517412231147, 1.7214770479671528, -2.2789671971701457, -9.129056171019583, 16.023990648028654], [9.166333978499567, 5.181576159789318, -5.4007840236105045, 8.78897061931202, -15.978849213062727, -9.631559968854718, 16.758823882552512, -12.442306013943368, 19.25532720025296, -4.903621968245819, 15.254415327531774, -4.134872648695353], [0.07851560771924804, 26.570858421344983, -20.735081955795934, 3.9503266797181613, -2.623542602713105, -3.8521423453483035, -7.911071171743431, 6.396330124005399, 10.40874069468592, -0.7897552078324892, 2.3800473433589335, -20.405831240917763], [2.6436398852320124, -13.296770158823291, -3.263641378414695, -11.126317690417004, -4.149983085832148, 17.879115472943553, 5.255256608192388, -9.90167453530496, -0.48325998438567974, 10.501603453234626, 3.779341893045585, 2.9007764729295724], [-15.981434907069984, -3.7599010340056993, 14.354320201151973, 2.9786046850428796, 4.432602385428465, 20.777718298685254, 21.629638681882795, 4.80003346097532, 3.5083755969096675, -21.070708560383125, -11.747481626908225, -16.186306509590853], [4.999281811761803, -3.0362412954222155, -14.823418542958477, 12.30955262229172, 5.541019339934692, 8.590114839433587, 14.938615870482828, 14.59821352052409, 6.779946258400228, -3.0862217463846666, 6.58564684493367, 6.3051326300648345], [2.045876242224195, 1.044433938678027, -10.155635071743365, -17.093809630091666, -7.149099494695136, 9.330022653258585, -5.884156238588401, 8.29807679507322, 17.903033913485185, -15.592762737080024, 17.08606660823463, -9.0946860601562], [2.2971624672518134, -19.46118709618551, -1.5853080132541546, 10.90088740411337, -9.55215309554689, -21.813985315271385, -5.806709811214445, 17.23257483031943, 17.919613680558683, -19.544420421381265, -7.180230185629738, -0.6618721926724644], [6.652792435786459, -1.1202385838363167, 17.54809255079871, 4.2201874933425065, 0.851569692144024, 10.965729680595018, 4.311767276043285, -7.601055480435882, 28.34320347715245, -2.71010630668265, -9.304481430737614, 3.4480938306939906], [-10.495735527565078, 12.77873246385692, 1.3138966584705778, -1.1225053297581602, -5.511153928051702, -6.769500050281245, 2.5136915766107544, -11.423444587705147, -8.18491175624777, -6.54692802261881, -4.0267985271811195, 17.335972425007558], [10.779734799732804, 4.096311364670236, -4.281926707154604, 6.280833788180996, -11.224932185303883, 7.7384342636673455, 13.47035135689805, 5.007127824688518, -13.169992984867886, -20.103601654723356, 3.7291478750047413, -2.428019406866653], [-5.961089866774717, -10.97249404955672, -7.156077636585208, -4.076232169713292, -3.1422881191472003, 37.9335939791833, -8.032221555876392, -2.7321364146921465, 4.252460324205061, 6.572243663121085, 4.499208503637703, 5.083663909954648], [-9.029065677939268, 18.254718160365158, -4.863758881548208, -11.164735621699256, 12.028743717040378, 7.982585334062202, -4.71161423915171, -7.706035024289269, -2.786134501467441, 7.209134639420104, -5.640728870170438, -13.658310034006947], [1.4411195971767745, 18.32077658400229, -19.450180803714236, -7.519255322092602, -5.266678983202526, -14.962345131850208, 15.979544194490684, 3.1010361597325944, 5.513664038023057, -17.501744724937662, 32.53795929567504, 29.134144395139742], [-5.270477085954797, -23.150020597462607, 0.8022887838453797, 6.941208399895243, -10.603401084854601, -11.567207062468228, 9.897419251661871, 2.234482321227501, 15.805646325014026, -29.257733653787977, -6.396614036891998, -8.550570264247838]], "weights_ho": [[-6.1303267273424185, -9.315900485625708, -0.37155895579967185, -4.195856185552864, 13.405358065085785, -23.398138435113122, 17.16778979654239, 28.36238139343194, 9.650268274982148, -9.19788055458034, -15.631748201654517, 0.30104673749062116, -4.821783577116788, -1.7009668510588127, 15.099221461885639, 5.1303783410240325], [-4.09865459548021, -2.9275420796560407, 8.562614641839755, -18.126233477659316, 16.84386485075402, -10.872514482087853, 4.752200728002603, -0.7499608011856941, -11.832723715596906, 5.11557685077737, 15.897003549320177, -38.68548588723779, -4.496235993036387, 7.144768276800728, -20.290335202062163, -6.785203420536897], [4.12265552991098, -8.331825113959704, -4.361668278689029, -3.5676955606624916, -8.43732712524246, 8.101452489184181, -4.0054895407636515, 2.00933563165769, 1.9596597432017988, 5.446643403125051, 22.177733597418786, -4.986800777680856, 11.814324093254786, -23.624704343950974, -19.14275327929152, 7.614415636724081], [-3.1224810468735607, 32.8539881552928, -12.645183411745599, 9.75801079831685, -3.7285093603774246, -1.0578414648723127, 12.548181807572941, -1.9784707599808211, 27.617881248702723, -24.826534265106417, 9.806232103766769, -10.946756207009548, -16.037019557605916, -7.347068680399875, -3.117773898564606, 14.64759070272299]], "bias_h": [[-11.124942595802507], [-7.781917123436296], [-12.013598459081136], [-18.04638649835552], [-2.1292993705057546], [5.37468873283793], [20.32096271126468], [19.968656580482644], [3.4249385525179266], [-0.9301250399535322], [-0.9544468564753672], [16.202854967104514], [8.063806496568498], [0.9055584537432471], [11.98831701082813], [5.739539021571938]], "bias_o": [[-5.169002514920007], [-1.575558154916459], [-11.656003383939234], [-11.962724522904864]]}, {"input_nodes": 12, "hidden_nodes": 16, "output_nodes": 4, "weights_ih": [[1.711570467102362, 4.130050239931647, -8.696019236963403, -3.47663649617223, 6.868128264956688, -7.929191088017142, 8.937040841276422, 0.07414931143929684, 3.820500541872794, -0.9557754630454354, -5.3520565903000685, -16.76043183642165], [-1.2596304833555352, -13.888842342203088, 6.392999586045856, -4.101325104555286, 11.855818668883916, -3.717354350010708, 17.058571083535217, 9.396568253482492, 1.666307779723295, -2.2999675209086883, -9.140354973317292, 15.836826150566395], [9.166333978499567, 5.151241894687799, -5.4007840236105045, 8.918692369723919, -15.978849213062727, -9.616894085666836, 16.785681624030936, -12.27427635314591, 19.05433125341698, -4.974851590720422, 15.105383565693836, -4.134872648695353], [0.052792962817990466, 26.49118893362647, -20.909717495974316, 3.847514984611083, -2.494023230421207, -4.04172006575614, -7.911071171743431, 6.396330124005399, 10.40874069468592, -0.7897552078324892, 2.4593791250602655, -20.45168665917693], [2.6436398852320124, -13.218987037501797, -3.1458775988408725, -11.003235885026468, -3.9482659273249725, 17.76603484902702, 5.2374062589398305, -9.90167453530496, -0.6598205884268145, 10.564897858157966, 3.6571428620243944, 2.9667338757050294], [-16.050575186321755, -3.8400857385989027, 14.317879960015604, 3.0286181218815122, 4.44083179894918, 20.87872926064345, 21.559437858730266, 5.041512518223363, 3.453652760816414, -21.078628703559477, -11.747481626908225, -16.186306509590853], [4.8020385673122705, -3.0362412954222155, -14.8722189038535, 12.353301332505199, 5.541019339934692, 8.546779404250735, 14.901826011885735, 14.57402893665853, 6.819531634010827, -3.0551927648694996, 6.642965152284903, 6.134081126849021], [2.1193549248237726, 1.082708738866477, -10.082155552635243, -17.151774010563017, -7.055636366339918, 9.249032720353902, -5.884156238588401, 8.26490341948742, 17.77042011878638, -15.592762737080024, 17.123638762592176, -9.0946860601562], [2.3678100681121177, -19.386495474489752, -1.6436756895503626, 10.960079889487353, -9.65986561654988, -21.813985315271385, -5.806709811214445, 17.15033783458922, 17.91174944213263, -19.571940328185274, -7.180230185629738, -0.6618721926724644], [6.723227174391001, -1.2925218911590688, 17.810274664990622, 4.240718921220394, 0.9059237303091667, 10.911565999018089, 4.205855659181991, -7.601189298139049, 28.400452868957835, -2.7396334721336286, -9.48798052337291, 3.363888193591473], [-10.57379006732977, 12.899828084687769, 1.4038895432508975, -1.0819434992363117, -5.511153928051702, -6.856409062593382, 2.4925351696989773, -11.363429011094526, -8.055050112680942, -6.545388287589014, -4.0267985271811195, 17.198910154426265], [10.704526020666853, 4.29034066664525, -4.245166036237147, 6.280833788180996, -11.224932185303883, 7.857847074378797, 13.536746399377066, 5.007127824688518, -13.22674461850798, -20.103601654723356, 3.4771088388289537, -2.659132707739516], [-6.015401824698699, -11.02794293401501, -7.156077636585208, -4.076232169713292, -2.985118994738757, 37.99305935513327, -8.023137045013021, -2.7321364146921465, 4.252460324205061, 6.572243663121085, 4.499208503637703, 5.037621874742219], [-8.919845874063832, 18.313473430847576, -4.883724220337034, -11.221883461434704, 12.239781782842226, 7.880985594430014, -4.71161423915171, -7.706035024289269, -2.682524250370336, 7.060801935149575, -5.640728870170438, -13.73896868011928], [1.3593869702857224, 18.32077658400229, -19.364050584075322, -7.421793389062711, -5.266678983202526, -14.949506109177797, 16.34245669168745, 3.1010361597325944, 5.403005170621352, -17.501744724937662, 32.34080040908672, 29.053331090969717], [-5.025611861919837, -23.150020597462607, 0.886846229956955, 6.879175177252327, -10.772211174238368, -11.395934253242293, 9.966279277831777, 2.217305721225132, 15.72659990707896, -29.493812204567497, -6.445790620592064, -8.550570264247838]], "weights_ho": [[-6.1303267273424185, -9.456439090235687, -0.5135481540110832, -4.440865094043695, 13.53194753075081, -23.398138435113122, 17.111029987676506, 28.255330960902473, 9.826059644580393, -9.067423297224073, -15.473577036076785, 0.2576394213597062, -4.962125992637191, -1.7726771784137614, 15.224999514617524, 5.33502568827448], [-4.060522398707374, -2.8074008270815702, 8.615424878636802, -18.126233477659316, 16.980350142123726, -10.78507664697896, 4.818351000814904, -0.8098136808062629, -11.832723715596906, 5.138112051647454, 16.102029323587217, -38.60654801581974, -4.521356318742289, 7.1587765815933215, -20.28289660429777, -6.817452077755819], [4.1721523715150095, -8.085190043995343, -4.361668278689029, -3.3194206464512055, -8.41646256990506, 7.936622271634562, -4.138174558685507, 1.9525715246925803, 1.9713125120085766, 5.484323266513721, 22.049890079994366, -5.26717793398585, 11.962414116088828, -23.71730723419158, -19.079682542705772, 7.527774817569607], [-3.1224810468735607, 32.78109538323263, -12.756583995863052, 9.629449371475292, -3.7756062339490484, -1.2962707424805902, 12.561708957534842, -1.9700432558595091, 27.617881248702723, -24.826534265106417, 9.967594083668564, -11.100742726032568, -15.901141041220976, -7.414337448852285, -3.2155218236948273, 14.51895472432357]], "bias_h": [[-11.209348608766192], [-7.781917123436296], [-11.92833835731976], [-18.04638649835552], [-2.2634629568778104], [5.311905166690189], [20.299488528738234], [19.862888348523953], [3.4249385525179266], [-0.9028573070254631], [-1.0882275785883833], [16.202854967104514], [8.147210162458773], [0.8898228015983359], [11.98831701082813], [5.739539021571938]], "bias_o": [[-5.3070590472998], [-1.5091496109088147], [-11.822093682901336], [-12.075593863470266]]}, {"input_nodes": 12, "hidden_nodes": 16, "output_nodes": 4, "weights_ih": [[1.7840657897499193, 4.2257858216887385, -8.696019236963403, -3.47663649617223, 6.868128264956688, -7.929191088017142, 8.804117059064357, 0.11081879893576387, 3.9343970498772602, -0.9132926711909343, -5.3520565903000685, -16.76043183642165], [-1.3955451157075254, -13.871091523387689, 6.384915614450932, -4.00140068422031, 11.941971027813482, -3.703831504298814, 17.05182996317619, 9.221517412231147, 1.666307779723295, -2.2789671971701457, -9.140354973317292, 15.896889317179838], [9.166333978499567, 5.233930765417318, -5.4007840236105045, 8.865880171596142, -16.001074253828865, -9.631559968854718, 16.59254145221955, -12.289401130519824, 19.144430257103515, -4.997098400917366, 15.105383565693836, -4.161716070018922], [0.07851560771924804, 26.554390506480257, -20.94977391041059, 3.832371539466581, -2.8100194891785617, -4.04172006575614, -7.903756853886222, 6.186897268298889, 10.40874069468592, -0.64111905464063, 2.4961467783845417, -20.536486207256097], [2.6436398852320124, -13.107309281498692, -3.3677627784109383, -11.212228481578885, -3.9343112484469334, 17.879115472943553, 5.284832760725915, -9.688485180240685, -0.6598205884268145, 10.540695624468137, 3.7875700713249305, 3.1393674059292533], [-16.152866928211367, -3.5905713817308307, 14.326402588854474, 3.0286181218815122, 4.295330769284196, 20.87872926064345, 21.702188787410048, 4.865575115024577, 3.453652760816414, -21.131906777827968, -11.916833302857532, -16.186306509590853], [5.064981066502854, -2.9456286419845883, -15.022200609156773, 12.353301332505199, 5.559641857115729, 8.713617073656044, 14.901826011885735, 14.688991672603224, 6.779946258400228, -3.0729846389984092, 6.642965152284903, 6.134081126849021], [1.9276534910265644, 1.082708738866477, -10.084714455493723, -17.189026605445264, -7.068291130022461, 9.338069079095915, -5.88652576468075, 8.16463369849897, 18.04885097437539, -15.722875925294325, 17.123638762592176, -8.98396853615098], [2.3678100681121177, -19.54323479424369, -1.66073190886504, 10.90088740411337, -9.717124876548343, -21.761251020088693, -5.806709811214445, 17.30089673754347, 17.914721604440274, -19.544420421381265, -6.975292803286085, -0.6618721926724644], [6.723227174391001, -1.1070218396693194, 17.72887708216837, 4.240718921220394, 0.851569692144024, 11.015633607631797, 4.311767276043285, -7.601189298139049, 28.272204789210942, -2.7525221862186764, -9.304481430737614, 3.363888193591473], [-10.69570366734373, 12.77873246385692, 1.347707870661161, -1.1639660248940609, -5.511153928051702, -6.970574531578585, 2.5136915766107544, -11.195499297303778, -8.15015702325378, -6.57738598307763, -4.016942178633046, 17.198910154426265], [10.82560758484919, 4.29034066664525, -4.3409648192717345, 6.280833788180996, -11.224932185303883, 7.812104610754926, 13.488923353236366, 5.154844738554391, -13.22674461850798, -20.103601654723356, 3.6521754432027844, -2.5442192394554444], [-6.015401824698699, -10.966133726653329, -7.046914301437252, -4.122564674324552, -3.2741741698653812, 37.9950118709058, -8.04757536903513, -2.7321364146921465, 4.34271357814235, 6.451083743076642, 4.499208503637703, 5.1098289916254265], [-8.849753470251391, 18.313473430847576, -4.813662944261522, -11.165405974940983, 11.946055546621835, 7.845691781785587, -4.71161423915171, -7.706035024289269, -2.660602137056108, 7.284933863337569, -5.640728870170438, -13.590559235632078], [1.4572454121179623, 18.32077658400229, -19.513529791904567, -7.421793389062711, -5.266678983202526, -14.949506109177797, 16.128756377496114, 3.1010361597325944, 5.507756360281893, -17.501744724937662, 32.57588980254777, 29.098174489701222], [-5.078446485832752, -22.943253232984155, 0.8740510881271052, 6.824373829519372, -10.439985911285234, -11.37177242551376, 9.903820239912733, 2.2373072418152837, 15.677507928021345, -29.386012294530612, -6.429008485991438, -8.579074210705134]], "weights_ho": [[-6.1303267273424185, -9.456439090235687, -0.37155895579967185, -4.054619387639575, 13.446479153483626, -23.252848942602125, 17.111029987676506, 28.255330960902473, 9.770694696671134, -9.080756632859284, -15.65158932250218, 0.3562621753771887, -4.689665635397523, -1.7009668510588127, 15.234217395992788, 5.33502568827448], [-3.908895580474257, -2.9275420796560407, 8.576136473109484, -18.213219768447775, 16.94796451592817, -10.872514482087853, 4.675236836515702, -0.8267533591104071, -11.838018895193493, 5.11557685077737, 16.11354462034446, -38.601854273735, -4.3115222508155915, 7.2831406925005675, -20.353067839661616, -6.854800931026384], [4.12859211142042, -8.339569545156648, -4.361668278689029, -3.4992203977170426, -8.501087102645268, 8.005247518054151, -4.138174558685507, 1.9525715246925803, 1.9596597432017988, 5.43607541569117, 22.109211081317113, -4.986800777680856, 11.962414116088828, -23.71730723419158, -19.08050284193589, 7.549653612824731], [-3.2103379026161774, 32.825552056344726, -12.419454007774501, 9.65522190765242, -3.7756062339490484, -1.2189833915393413, 12.548181807572941, -1.9784707599808211, 27.617881248702723, -24.826534265106417, 9.726382110544115, -10.946756207009548, -16.037019557605916, -7.184001290391926, -3.162954914801375, 14.599200673634133]], "bias_h": [[-10.910324312859313], [-7.781917123436296], [-12.013598459081136], [-18.141164627800418], [-2.3762603230319295], [5.434227357503256], [20.299488528738234], [19.880226529873354], [3.4211760551736545], [-0.9028573070254631], [-1.0905467802910693], [16.310420764720636], [8.147210162458773], [0.9020710107558204], [11.949281304163867], [5.739539021571938]], "bias_o": [[-5.061742064991171], [-1.5531077664293786], [-11.833705476492582], [-11.927502370120406]]}, {"input_nodes": 12, "hidden_nodes": 16, "output_nodes": 4, "weights_ih": [[1.711570467102362, 4.224682829649845, -8.696019236963403, -3.47663649617223, 6.984578851423402, -7.929191088017142, 8.732986102331015, 0.026960479928369824, 3.9343970498772602, -0.9132926711909343, -5.580335436895876, -16.726337999536554], [-1.313455840527748, -13.948196796352788, 6.650675051375916, -3.9425552077895913, 11.933958842395075, -3.734898041998736, 16.93413650376246, 9.122619164695525, 1.666307779723295, -2.2789671971701457, -9.246091417670884, 15.836826150566395], [9.218018975622922, 5.181576159789318, -5.330167209257045, 8.865880171596142, -15.978849213062727, -9.631559968854718, 16.805685282551618, -12.212607272661472, 19.144430257103515, -4.903621968245819, 15.105383565693836, -4.009662371435864], [0.07851560771924804, 26.47836868307518, -20.909717495974316, 4.061546188005727, -2.738561529947883, -4.045668030002629, -7.982466168320267, 6.509317764828652, 10.5343929397869, -0.7897552078324892, 2.537305523193835, -20.570257253421396], [2.54818584698048, -13.296770158823291, -3.3885347484741613, -11.128167110030887, -3.947530923892437, 17.78588324037456, 5.2374062589398305, -9.758936595748914, -0.6598205884268145, 10.581179361133794, 3.7875700713249305, 2.9007764729295724], [-15.981434907069984, -3.7864046510504283, 14.354320201151973, 2.922553367687761, 4.30606852303958, 20.87872926064345, 21.49262066122719, 4.864337394144072, 3.453652760816414, -20.971093397513393, -11.805397911305516, -16.186306509590853], [5.011640578632309, -3.117618788260599, -14.62077323682606, 12.353301332505199, 5.541019339934692, 8.63163902801746, 14.901826011885735, 14.576493593698524, 6.75378847803233, -3.01546003898807, 6.610742319509652, 6.093747203021798], [2.045876242224195, 1.0059567129866804, -10.118282395095868, -17.093809630091666, -7.427899036781064, 9.330397416026798, -5.884156238588401, 8.227164123963728, 17.901614402648015, -15.38046711103592, 17.064385253691615, -9.158900720158346], [2.3678100681121177, -19.376858208737207, -1.5946456727069511, 10.894083533129276, -9.55215309554689, -21.81000005153929, -5.927226025807446, 17.19463220760336, 18.019079129208002, -19.56624099904375, -7.180230185629738, -0.6618721926724644], [6.723227174391001, -1.1202385838363167, 17.901233388491793, 4.240718921220394, 0.851569692144024, 10.980336147071236, 4.311767276043285, -7.412873281782526, 28.345636416549546, -2.71010630668265, -9.304481430737614, 3.553631677351731], [-10.898363449837404, 12.800288399941744, 1.3928771411378063, -1.0726900947912619, -5.511153928051702, -6.856409062593382, 2.5136915766107544, -11.28445287330233, -8.111553362548761, -6.6620997510628825, -4.0267985271811195, 17.198910154426265], [10.779734799732804, 4.29034066664525, -4.325942232473837, 6.357640491938427, -11.28210398354586, 7.8085378123059295, 13.476624405005692, 5.007127824688518, -13.22674461850798, -20.103601654723356, 3.632934841365359, -2.4132396946280097], [-6.015401824698699, -11.167540338787102, -7.156077636585208, -4.076232169713292, -3.1318996487594957, 37.9335939791833, -8.04757536903513, -2.7321364146921465, 4.100041128708219, 6.488900119754204, 4.691481742631322, 5.1098289916254265], [-9.029065677939268, 18.313473430847576, -4.883724220337034, -11.17258216373431, 12.075174794021473, 7.957324154955811, -4.71161423915171, -7.706035024289269, -2.8128144156453185, 7.177545135326327, -5.640728870170438, -13.658310034006947], [1.2916673966380376, 18.29593108400343, -19.450180803714236, -7.421793389062711, -5.178405368168808, -14.949506109177797, 16.075294670452646, 3.1010361597325944, 5.428186146925167, -17.46507286012401, 32.53795929567504, 28.909549210078648], [-5.078446485832752, -23.282238933928937, 0.752914701890697, 7.069687429540875, -10.54304350329188, -11.470619323210055, 9.966279277831777, 2.2478150752996986, 15.72659990707896, -29.346726730068927, -6.475016832122766, -8.62747651805776]], "weights_ho": [[-6.085964456760969, -9.456439090235687, -0.37155895579967185, -4.195856185552864, 13.446479153483626, -23.398138435113122, 17.111029987676506, 28.255330960902473, 9.770694696671134, -9.067423297224073, -15.510200341027556, 0.34429024169111194, -4.865879058014958, -1.7009668510588127, 15.34046025851107, 5.417226913480613], [-4.044102937900955, -2.9275420796560407, 8.615424878636802, -18.179402626185144, 16.94796451592817, -10.872514482087853, 4.849543064992664, -0.7671325862147241, -11.670335665680097, 5.217625240411808, 15.975225849279298, -38.60654801581974, -4.527373254933566, 7.13088455536273, -20.290335202062163, -6.820471257008169], [4.12859211142042, -8.193798492734162, -4.380127803061035, -3.4992203977170426, -8.433482963991487, 8.005247518054151, -4.176785542690503, 1.9525715246925803, 2.0620189910491717, 5.382012602781358, 22.306858316289613, -4.986800777680856, 12.155800345252016, -23.71730723419158, -19.28431122116202, 7.527774817569607], [-3.1224810468735607, 32.78109538323263, -12.584756169085122, 9.65522190765242, -3.7756062339490484, -1.2113966614184806, 12.47877784411348, -1.975046671580097, 27.514820096508043, -24.554745490472335, 9.739823360706323, -10.946204721336661, -16.042701445355853, -7.36067736353027, -3.2155218236948273, 14.51895472432357]], "bias_h": [[-11.065222840087563], [-7.899876508465693], [-12.06972979479807], [-18.130097945213393], [-2.2634629568778104], [5.37468873283793], [20.299488528738234], [19.903951294706964], [3.4249385525179266], [-0.9674644356908045], [-1.1216414545377476], [16.126262914092123], [8.126621403895268], [0.9050009168669897], [11.98831701082813], [5.775497499696366]], "bias_o": [[-5.210615247107372], [-1.587800567802569], [-11.765800809283437], [-11.927502370120406]]}, {"input_nodes": 12, "hidden_nodes": 16, "output_nodes": 4, "weights_ih": [[1.711570467102362, 4.265714838793954, -8.72059202938929, -3.4328211651264557, 6.851818895035876, -7.929191088017142, 8.824640965398167, -0.07555179613756492, 4.044590457152865, -0.8811407864768467, -5.3520565903000685, -16.76043183642165], [-1.3487441056411542, -13.885341470669127, 6.384915614450932, -4.061846131977756, 11.951130774107785, -3.8013468039755125, 17.05279766604817, 9.221517412231147, 1.5533109358458452, -2.2789671971701457, -8.939439571572985, 15.815033426258939], [9.35376198837032, 5.11802953893889, -5.4007840236105045, 8.865880171596142, -15.978849213062727, -9.631559968854718, 16.793646026927025, -12.277894101124543, 19.05567755893311, -4.903621968245819, 15.105383565693836, -4.033167138930718], [0.07851560771924804, 26.49506131214644, -20.909717495974316, 3.832371539466581, -2.7741398671921136, -4.04172006575614, -7.911071171743431, 6.396330124005399, 10.40874069468592, -0.7897552078324892, 2.4961467783845417, -20.570257253421396], [2.6436398852320124, -13.334149409694767, -3.3677627784109383, -11.139307796480919, -3.9482659273249725, 17.9238110028231, 5.2374062589398305, -9.90167453530496, -0.658434422727734, 10.540695624468137, 3.7875700713249305, 2.9351304078578253], [-16.084183655220784, -3.7864046510504283, 14.354320201151973, 2.9215491102756364, 4.295330769284196, 20.892915435066055, 21.621303666302765, 5.052544877258134, 3.453652760816414, -21.036594071140875, -11.67998982316051, -16.217174548733396], [4.983534078731013, -3.0362412954222155, -14.987816238405408, 12.371886344091921, 5.4299731888421086, 8.63163902801746, 15.009316147725718, 14.700454022451337, 6.804212703425439, -3.1009974209523783, 6.642965152284903, 6.134081126849021], [2.045876242224195, 1.082708738866477, -10.21710773216629, -17.093809630091666, -7.290916112631293, 9.330397416026798, -5.859748920574001, 8.29807679507322, 17.901614402648015, -15.592762737080024, 17.03118927585585, -9.0946860601562], [2.291220078712424, -19.46118709618551, -1.5495648150028374, 10.90088740411337, -9.570504600213306, -21.841772704261324, -5.806709811214445, 17.15033783458922, 17.919613680558683, -19.544420421381265, -7.257674297395716, -0.6618721926724644], [6.618837559557039, -1.1202385838363167, 17.76421425688128, 4.240718921220394, 0.9406777864552578, 10.980336147071236, 4.311767276043285, -7.641006945101629, 28.34320347715245, -2.71010630668265, -9.328431513726198, 3.363888193591473], [-10.730130052756714, 12.77873246385692, 1.3138966584705778, -1.0819434992363117, -5.460612793058629, -7.032743660623337, 2.367527073839134, -11.363429011094526, -8.18491175624777, -6.443976933219095, -4.0267985271811195, 17.235493211629723], [10.617706703660183, 4.399395793608915, -4.245166036237147, 6.280833788180996, -11.302543672207264, 7.8085378123059295, 13.542292521527582, 5.101317192258963, -13.373403430778144, -20.081498062049697, 3.6521754432027844, -2.4132396946280097], [-5.910268112940938, -10.966133726653329, -7.231461052013188, -4.031480416001784, 