{"generation": 49331, "population": [{"input_nodes": 12, "hidden_nodes": 16, "output_nodes": 4, "weights_ih": [[1.3810171307685355, 5.670267508679859, -7.4227687577158985, -3.7389839280658745, 7.085415768298964, -8.569135115180918, 7.848680727456661, -1.1890574414721964, 4.460261585618182, -0.6865378765599147, -5.2960597067362185, -17.282460061854117], [0.2720782648170553, -13.34269067705397, 6.704565182841411, -1.6691212638025392, 15.089200130273753, -5.745789484189256, 17.582439143568855, 10.853663317680077, 1.0226423128931952, -5.023355383758552, -9.410444192394834, 16.201589275457483], [8.415535514986335, 5.1771262785240495, -3.7640722836939147, 8.744324586451851, -16.726499480604193, -10.051705397765442, 15.802572819962348, -13.063998649075154, 18.802481292981213, -6.2550403885190216, 17.205135942702235, -6.295196540179586], [-0.7699849521903726, 25.117421957671272, -22.15562060605486, 2.7651198956270227, -3.8352222773915257, -2.768938029843725, -9.355934867365127, 9.71015572771372, 8.31012079975906, 1.1983306522910864, 1.1540572459429193, -16.88556655687642], [2.309717752078935, -12.940753667818894, -3.0856055593623966, -12.173065656553543, -5.353243557833641, 16.97003684235962, 7.736925438818358, -11.639766492840197, 0.23730861735827738, 10.328288667548584, 2.9102482557054694, 2.189011083551589], [-16.507563929103096, -3.87489508430414, 13.872527207123028, 3.1614523688332135, 6.70077034416695, 21.52353414822424, 20.891296233189454, 4.036547380936798, 4.599460242474451, -21.661312326238647, -12.011513984623196, -18.634474200924775], [5.942213213947571, -4.565924820207165, -16.355428024149354, 11.499615250983473, 6.586070373337628, 7.754004824674576, 15.802245844273138, 12.413416968183952, 7.635803429456072, -3.7781334293520064, 5.022964180668409, 8.306474543453648], [1.188076448065795, 3.1486887487074577, -12.759410795632975, -16.0661040824512, -7.073191885683755, 7.981212592292143, -5.880227198672151, 9.952195011022319, 18.363720939554014, -17.006726447063986, 16.92320981651429, -7.125317630361386], [3.15313241436051, -20.14238490264657, -2.159648263647207, 11.80666383042942, -10.75151330500945, -22.208821950527604, -5.882149932138863, 19.098773220916144, 19.869356720284113, -18.583299424912745, -7.876718567141248, -1.8010640006938212], [7.7704698110652135, -0.26313467751725417, 16.824103312945393, 3.6420581607755684, 1.355053443014224, 9.170477518136163, 3.373234175047568, -4.2672119410166856, 26.93997107821285, -1.0618239766040576, -9.801923206285883, 3.146439572859341], [-10.802160880474933, 11.509264961458712, 0.706457718473155, -1.6973869050564843, -5.1179249264117805, -7.731527813260258, 1.4639686325842574, -12.023906371921413, -6.587552652144312, -8.244210537626135, -4.557230030889581, 16.702812547627975], [9.183005990904823, 4.720336156773906, -4.964193820222858, 6.65561293903112, -10.025281902625908, 5.502614145134922, 12.920043256464014, 5.755817997544327, -13.43573083165377, -19.69673972582626, 5.890651555643303, -2.8790974189404834], [-5.5357927909944085, -10.850106947812447, -6.300702604348548, -4.696963066392235, -2.7292719288602645, 37.141357218587565, -7.30739967119686, -2.408223784677471, 7.129317754887956, 7.593446217676819, 4.816327503724304, 4.61088913759046], [-8.985945457595747, 18.610520274240184, -4.093259668619934, -9.993985524380967, 10.366764939571238, 9.58166238283848, -5.3556315018373075, -7.073849840622915, -2.895248108908858, 8.19641744680923, -5.263175347834529, -13.003510480152295], [2.172651595670204, 17.502241990572877, -19.87806017216951, -7.6571821372842805, -5.104619854623652, -15.057136772438502, 16.664212919021004, 1.5923924573883042, 5.903043396326522, -17.600961989255488, 34.12332828219185, 29.522504664340445], [-5.476037483222725, -22.757510261788095, 1.2857063769844035, 5.792805636182176, -11.708333559746679, -11.874984694270767, 9.712652518033313, 1.5302647274754684, 17.261885713831443, -30.136050668198173, -8.549540278283546, -9.390894250013325]], "weights_ho": [[-6.2306883172081, -9.285717868953533, 0.556991640133998, -5.0498946549140316, 13.118696678481344, -26.657250292291778, 19.337395388114267, 27.535524439736633, 9.248306024875282, -10.532699984381422, -15.691345564374961, 1.5126403851954582, -3.4039861484787455, -0.7282789498056808, 14.286025513219036, 2.3883596748753972], [-6.095323309706337, -2.106641421656708, 10.065135980368071, -18.10066180913633, 17.43879902179667, -10.43847787550306, 4.246169469572325, -1.8616626065931696, -9.950139386918101, 6.219256024450697, 16.130868743721837, -37.55448284993108, -2.983548947356961, 7.8244002562950055, -20.30115165278714, -8.642392196065382], [3.5728602510713663, -6.718366808165608, -4.559814734968842, -3.0168573589930645, -8.622150764878132, 7.090115277603505, -4.551949982200544, 0.37610630633181286, 2.9594566079181126, 5.338203919047577, 21.886217900825898, -5.3733745002471105, 12.061712008599624, -24.946430728617482, -18.545615452812584, 7.893561416386364], [-3.346015204233068, 30.716095396460396, -14.647003545109833, 8.406591198412661, -3.3050729293338907, -1.272426032812505, 11.651981075462158, -3.335112165507339, 28.618775794135743, -22.872659676582614, 8.126677842819818, -11.347486041661064, -15.826480859797604, -5.212862866140081, -1.9876094575419658, 15.006116092376612]], "bias_h": [[-10.586568833974678], [-7.918831199705821], [-10.99428058929894], [-17.66092158169187], [-1.6369826851312281], [6.373520432326362], [22.136085295017125], [20.22026076223962], [3.317225693344757], [0.23802184661943093], [2.0936750928452668], [14.769925642360613], [7.7201203965689835], [1.9282494154016505], [13.608858202145763], [7.962637273408491]], "bias_o": [[-4.433613486615015], [-0.716769109218938], [-12.04965015889467], [-13.210242384830186]]}, {"input_nodes": 12, "hidden_nodes": 16, "output_nodes": 4, "weights_ih": [[1.3810171307685355, 5.670267508679859, -7.4227687577158985, -3.729485735959391, 7.128816410830942, -8.569135115180918, 7.848680727456661, -1.1057616992282082, 4.460261585618182, -0.7864503977653821, -5.2960597067362185, -17.388763698890795], [0.42137806790968274, -13.237249714381608, 6.704565182841411, -1.6691212638025392, 15.089200130273753, -5.745789484189256, 17.67494421474687, 10.655516371605788, 1.1367284605359638, -4.970659098539926, -9.410444192394834, 16.201589275457483], [8.415535514986335, 5.1771262785240495, -3.7640722836939147, 8.744324586451851, -16.726499480604193, -10.051705397765442, 15.923450466731067, -12.979831929378053, 18.802481292981213, -6.2550403885190216, 17.205135942702235, -6.295196540179586], [-0.7699849521903726, 25.146602421251117, -22.237577292877727, 2.6945094045562312, -3.8352222773915257, -2.7124408483013815, -9.404439850956118, 9.672643773426739, 8.31012079975906, 1.2795603811491854, 1.2965225338168973, -17.071285665032942], [2.341361717978137, -12.85402680055602, -2.9956067840659393, -12.173065656553543, -5.353243557833641, 16.902072490642116, 7.883539898853973, -11.639766492840197, 0.48916274456055553, 10.328288667548584, 2.9102482557054694, 2.189011083551589], [-16.405799744743796, -3.9888740053125167, 13.872527207123028, 3.1614523688332135, 6.764111146591516, 21.66939801453145, 20.891296233189454, 4.036547380936798, 4.651265313101557, -21.59580878037227, -11.981670639818624, -18.821455728909], [5.942213213947571, -4.407866345877153, -16.355428024149354, 11.712443924148461, 6.483276056521625, 7.7230199003328295, 15.802245844273138, 12.294935223848515, 7.635803429456072, -3.82665448496031, 5.141008874632639, 8.306474543453648], [1.2146327728667765, 3.386115913044669, -12.626495064527841, -16.0661040824512, -7.073191885683755, 7.903574869918097, -5.880181387599336, 9.952195011022319, 18.445162897594095, -17.006726447063986, 16.866340740970212, -7.083391121884868], [3.15313241436051, -20.228024410851766, -2.159648263647207, 11.694111314668687, -10.75151330500945, -22.208821950527604, -5.882149932138863, 19.098773220916144, 19.869356720284113, -18.583299424912745, -7.876718567141248, -1.882048360803361], [7.7704698110652135, -0.26313467751725417, 16.88504081554169, 3.6420581607755684, 1.355053443014224, 9.170477518136163, 3.373234175047568, -4.141121992942981, 26.947927309417654, -0.9632177496248546, -9.801923206285883, 3.146439572859341], [-10.802160880474933, 11.50668233232239, 0.706457718473155, -1.5063839501311693, -5.1179249264117805, -7.762618445651026, 1.4639686325842574, -11.863730111663186, -6.587552652144312, -8.244210537626135, -4.557230030889581, 16.743895973533995], [9.26695925145232, 4.720336156773906, -4.964193820222858, 6.65561293903112, -10.089856652840302, 5.367515984166465, 12.920043256464014, 5.825841075439092, -13.43573083165377, -19.759744552219942, 5.760186217127935, -2.8790974189404834], [-5.5357927909944085, -10.894982938999853, -6.557195214939248, -4.696963066392235, -2.491145705676876, 37.15493016945831, -7.476351826473235, -2.408223784677471, 7.129317754887956, 7.593446217676819, 4.9532402369076935, 4.710182909299866], [-9.055076193607102, 18.56277533493811, -4.093259668619934, -9.993985524380967, 10.23515846447587, 9.58166238283848, -5.3556315018373075, -7.073849840622915, -2.908048264595806, 8.19641744680923, -5.177109548845267, -13.043269433409657], [2.275569033219129, 17.502241990572877, -19.91889693618761, -7.6571821372842805, -5.038625618227751, -15.057136772438502, 16.695885442437035, 1.5923924573883042, 5.931128031858645, -17.679382057566276, 34.12332828219185, 29.522504664340445], [-5.558785793927749, -22.757510261788095, 1.347488541073477, 5.792805636182176, -11.841520709562817, -11.83616582260271, 9.712652518033313, 1.5302647274754684, 17.235105177756427, -30.136050668198173, -8.549540278283546, -9.390894250013325]], "weights_ho": [[-6.2306883172081, -9.285717868953533, 0.556991640133998, -5.02700304398573, 13.118696678481344, -26.657250292291778, 19.337395388114267, 27.535524439736633, 9.248306024875282, -10.756243348949756, -15.596223156103546, 1.5828565620063055, -3.483553061579908, -0.7746760227952492, 14.286025513219036, 2.3883596748753972], [-6.095323309706337, -2.066889697369109, 10.090201811236604, -18.195112447722295, 17.40894328797278, -10.43847787550306, 4.314517371133235, -1.7001336777753253, -9.919425094474965, 6.219256024450697, 16.13935903317083, -37.55448284993108, -2.983548947356961, 7.8244002562950055, -20.30115165278714, -8.642392196065382], [3.668466635478635, -6.830175840815037, -4.583735500155059, -3.0168573589930645, -8.622150764878132, 7.090115277603505, -4.551949982200544, 0.37610630633181286, 2.9594566079181126, 5.291346258864073, 21.99849496563609, -5.542584550665584, 11.99176117540649, -25.081038646144783, -18.545615452812584, 7.893561416386364], [-3.282088637878656, 30.85601895282381, -14.647003545109833, 8.54026545036015, -3.3545406895881484, -1.272426032812505, 11.625391309429519, -3.335112165507339, 28.618775794135743, -22.93994762169671, 8.116981171368659, -11.386095066402453, -15.826879930183146, -5.2625056919027635, -2.0050543910040437, 15.006116092376612]], "bias_h": [[-10.586568833974678], [-7.9299443925448045], [-10.956751314254205], [-17.66092158169187], [-1.6369826851312281], [6.464461204435417], [22.136085295017125], [20.22026076223962], [3.2639044596098454], [0.34778194689653397], [2.1155164248843996], [14.769925642360613], [7.7201203965689835], [1.927309916180791], [13.64501138024135], [7.957035850327754]], "bias_o": [[-4.529292487362543], [-0.6894633479461367], [-12.04965015889467], [-13.210242384830186]]}, {"input_nodes": 12, "hidden_nodes": 16, "output_nodes": 4, "weights_ih": [[1.3810171307685355, 5.670267508679859, -7.42454600539048, -3.7389839280658745, 7.229619501678196, -8.539691716878679, 7.73101306889986, -1.1890574414721964, 4.460261585618182, -0.6865378765599147, -5.043423446213015, -17.391207669831136], [0.2720782648170553, -13.281846751816666, 6.759188632600776, -1.6691212638025392, 15.089200130273753, -5.771045757979789, 17.486647207661463, 10.853663317680077, 0.9376436587636621, -5.273878809765121, -9.343303167825889, 16.201589275457483], [8.415535514986335, 5.1771262785240495, -3.6705570955649245, 8.744324586451851, -16.726499480604193, -10.08475091752664, 15.932565518478501, -13.12065228079133, 18.724752158125966, -6.128710535923893, 17.28453462679835, -6.295196540179586], [-0.6113677044415065, 25.117421957671272, -22.174762855914622, 2.7651198956270227, -3.8352222773915257, -2.7218671726149712, -9.216173906627336, 9.71015572771372, 8.20318806240193, 1.0052052656438284, 1.1540572459429193, -16.79793732298652], [2.331216445313285, -12.940753667818894, -3.0856055593623966, -12.017864696582368, -5.353243557833641, 17.027249771159042, 7.7355935863124445, -11.639766492840197, 0.18900112417392967, 10.328288667548584, 2.9102482557054694, 2.143250331706629], [-16.58673767163298, -3.87489508430414, 13.872527207123028, 2.85602011339419, 6.680916767560887, 21.52353414822424, 20.891296233189454, 3.955493635299326, 4.69284299674988, -21.712103645825028, -12.011513984623196, -18.634474200924775], [6.165166793461252, -4.561546009226484, -16.355428024149354, 11.499615250983473, 6.539695107376647, 7.790838775594959, 15.802245844273138, 12.249086086310797, 7.535175317192987, -3.8635499800919564, 5.191535197323055, 8.306474543453648], [1.3264616988751747, 3.1492040627431095, -12.759410795632975, -16.10542347600479, -7.042740872849463, 7.981212592292143, -5.82633729920624, 9.952195011022319, 18.363720939554014, -17.006726447063986, 16.92320981651429, -7.180736681985992], [3.213721770785593, -20.098855381413873, -2.159648263647207, 11.841866396861876, -10.75151330500945, -22.36225067093364, -5.882149932138863, 19.098773220916144, 19.869356720284113, -18.583299424912745, -7.876718567141248, -1.8010640006938212], [7.744407427307052, -0.26313467751725417, 16.902165580313817, 3.6420581607755684, 1.4361166815822042, 8.982716558814934, 3.471274714512292, -4.158763393879193, 26.93997107821285, -1.0772275707321337, -9.801923206285883, 2.970835137144612], [-10.802160880474933, 11.460804157210683, 0.706457718473155, -1.7292000800412684, -5.111311669134251, -7.731527813260258, 1.6483304955338811, -12.023906371921413, -6.521220795368687, -8.244210537626135, -4.2541517064124115, 16.80750597511042], [9.15973126739157, 4.777313928003536, -4.964193820222858, 6.65561293903112, -10.020469126190395, 5.502614145134922, 12.85681890406997, 5.755817997544327, -13.43573083165377, -19.556823889059498, 5.890651555643303, -2.8790974189404834], [-5.372053921141304, -10.796484647909207, -6.25480108424313, -4.696963066392235, -2.8305456277007788, 37.141357218587565, -7.30739967119686, -2.416208988182078, 7.129317754887956, 7.593446217676819, 4.816327503724304, 4.592918677088361], [-8.995503710886299, 18.610520274240184, -4.093259668619934, -10.122462406300578, 10.366764939571238, 9.686052646771428, -5.3556315018373075, -7.073849840622915, -2.895248108908858, 8.092856963469538, -5.122379118444264, -12.931891660056872], [2.0133299842767034, 17.32526336377629, -20.118289693736795, -7.6571821372842805, -5.104619854623652, -15.168472291327545, 16.568286986313794, 1.5923924573883042, 5.9924038805764335, -17.600961989255488, 34.12332828219185, 29.522504664340445], [-5.400165403606136, -22.752189315756084, 1.2991024253281374, 5.792805636182176, -11.739208868826575, -11.854307530133497, 9.716033185110348, 1.5302647274754684, 17.36042576132613, -30.136050668198173, -8.576635440321155, -9.390894250013325]], "weights_ho": [[-6.104819084146447, -9.285717868953533, 0.6699407057172891, -5.0498946549140316, 13.064300387315129, -26.705977860816844, 19.426163623869787, 27.535524439736633, 9.216610122472927, -10.532699984381422, -15.691345564374961, 1.6948620632079625, -3.3489862045954086, -0.6534915289833949, 14.286025513219036, 2.2719359629927927], [-6.095323309706337, -2.2417514555607383, 10.315514018454438, -18.10066180913633, 17.51375074853112, -10.43847787550306, 4.25820351515485, -1.8490826319391152, -9.950139386918101, 6.219256024450697, 16.130868743721837, -37.62150500320476, -2.9539530400955503, 7.907284338466487, -20.33377939966534, -8.756932103939272], [3.5728602510713663, -6.644154737453552, -4.562977378939224, -3.0168573589930645, -8.872311056305525, 7.090115277603505, -4.551949982200544, 0.20298515817112653, 3.0578059324992144, 5.338203919047577, 21.893602888395804, -5.371448401268414, 12.061712008599624, -24.78248024977573, -18.545615452812584, 7.913037644167046], [-3.2749845728326927, 30.716095396460396, -14.72945989470995, 8.406591198412661, -3.3050729293338907, -1.3096102347214629, 11.651981075462158, -3.2680749377020666, 28.618775794135743, -22.77731603202049, 8.083352043625966, -11.470503937014175, -15.826480859797604, -5.212862866140081, -1.9876094575419658, 15.10375127902077]], "bias_h": [[-10.586568833974678], [-7.918831199705821], [-10.908263885276176], [-17.71625607611216], [-1.5666069722260403], [6.373520432326362], [22.136085295017125], [20.22026076223962], [3.2991966513979047], [0.23802184661943093], [2.1172223445336678], [14.769925642360613], [7.8548249482223245], [1.9282494154016505], [13.608858202145763], [7.962637273408491]], "bias_o": [[-4.433613486615015], [-0.716769109218938], [-12.185479648211063], [-13.254353902454929]]}, {"input_nodes": 12, "hidden_nodes": 16, "output_nodes": 4, "weights_ih": [[1.3810171307685355, 5.886798913929156, -7.605746004887685, -3.7389839280658745, 7.064822138348617, -8.569135115180918, 7.804887692585043, -1.1902459447962623, 4.461302811692299, -0.7384675348828973, -5.2960597067362185, -17.22200760580499], [0.2045290271151496, -13.34269067705397, 6.704565182841411, -1.8228800641415241, 15.020347616881741, -5.683161576652135, 17.60553119218495, 10.853663317680077, 1.0226423128931952, -5.013247839293152, -9.410444192394834, 16.169013343310418], [8.415535514986335, 5.294973398696242, -3.8239937203782786, 8.723483123401916, -16.726499480604193, -10.051705397765442, 15.819238976446085, -12.862868929481246, 18.623872486124025, -6.2550403885190216, 17.24673498229764, -6.134800905527147], [-0.689259835088492, 25.178346926474592, -22.15562060605486, 2.5903920258566284, -3.6268990551042464, -2.768938029843725, -9.355934867365127, 9.71015572771372, 8.112062315456793, 1.2969627121450176, 1.1540572459429193, -16.884950021980124], [2.309717752078935, -13.088656680509079, -3.0856055593623966, -12.35473345968867, -5.353243557833641, 16.97003684235962, 7.846488314028888, -11.639766492840197, 0.23730861735827738, 10.137001669836081, 3.0835087715787908, 2.230120983804182], [-16.4470745066787, -3.87489508430414, 13.872527207123028, 2.9194645371491355, 6.70077034416695, 21.544218014047043, 20.891296233189454, 3.9994966849241016, 4.65271270954321, -21.730605616704974, -12.011513984623196, -18.634474200924775], [5.895054692575006, -4.549230573212928, -16.523851220100614, 11.499615250983473, 6.539917242582796, 7.868604460598637, 15.823779960461335, 12.413416968183952, 7.635803429456072, -3.678018993351999, 5.022964180668409, 8.180253571475973], [1.1943124699859071, 3.1486887487074577, -12.78133838212442, -16.0661040824512, -7.044543300310731, 8.044104959542727, -5.800558372418668, 9.952195011022319, 18.363720939554014, -17.006726447063986, 16.92320981651429, -7.125317630361386], [3.15313241436051, -20.14238490264657, -2.0251564928615866, 11.80666383042942, -10.859506769256807, -22.208821950527604, -5.882149932138863, 19.098773220916144, 19.801803864746642, -18.586679173791925, -7.876718567141248, -1.8379774610361952], [7.7704698110652135, -0.26313467751725417, 16.824103312945393, 3.6420581607755684, 1.355053443014224, 9.170477518136163, 3.395044550692909, -4.195064152448375, 26.96155298178173, -1.0668555082113345, -9.801923206285883, 3.146439572859341], [-11.024664297064978, 11.299321520981104, 0.6328421263756231, -1.6973869050564843, -4.988557638584841, -7.704151202262592, 1.4639686325842574, -12.023906371921413, -6.587552652144312, -8.426736031221896, -4.526855363789251, 16.619581488588384], [9.198596677148714, 4.768606887299784, -4.974071745986571, 6.65561293903112, -10.025281902625908, 5.5072339738072325, 12.920043256464014, 5.57977790224641, -13.43573083165377, -19.69673972582626, 5.890651555643303, -2.8790974189404834], [-5.5965947396651545, -10.850106947812447, -6.350812292134012, -4.696963066392235, -2.7199821090347642, 37.141357218587565, -7.320836098680401, -2.327018371173585, 7.072820653627765, 7.486106185175276, 4.816327503724304, 4.61088913759046], [-8.985945457595747, 18.610520274240184, -4.086233747906617, -10.006373197316384, 10.476197351237502, 9.498461320105198, -5.452740415496608, -7.073849840622915, -2.895248108908858, 8.195981625817897, -5.0646791368496045, -13.129516091453846], [2.053549394916136, 17.502241990572877, -19.881284648529885, -7.6571821372842805, -5.104619854623652, -15.057136772438502, 16.664212919021004, 1.5053889396339393, 5.903043396326522, -17.600961989255488, 34.12332828219185, 29.75958210222596], [-5.476037483222725, -22.874593285173702, 1.0924252655642792, 5.825207179556315, -11.708333559746679, -11.874984694270767, 9.712652518033313, 1.5302647274754684, 17.45812359179165, -30.136050668198173, -8.48878302063883, -9.196058169989588]], "weights_ho": [[-6.2306883172081, -9.296687502597507, 0.556991640133998, -5.0498946549140316, 13.118696678481344, -26.657250292291778, 19.218389511359945, 27.535524439736633, 9.232424434815762, -10.532699984381422, -15.691345564374961, 1.4692533929145846, -3.4039861484787455, -0.7282789498056808, 14.346040677754376, 2.3883596748753972], [-6.137441842795302, -2.106641421656708, 10.065135980368071, -18.10066180913633, 17.457635877150157, -10.43847787550306, 4.246169469572325, -1.8268659397468439, -9.950139386918101, 6.219256024450697, 16.117569269851305, -37.61614674396244, -2.983548947356961, 7.926269342341514, -20.30115165278714, -8.642392196065382], [3.5728602510713663, -6.718366808165608, -4.559814734968842, -3.0904180751085053, -8.769413115033501, 7.090115277603505, -4.551949982200544, 0.40637474045093425, 2.9177403959770625, 5.219512601902348, 21.83430018155059, -5.590321272882242, 12.239828920962896, -24.780504994460777, -18.545615452812584, 7.893561416386364], [-3.436541990418517, 30.776876499143228, -14.44148259947955, 8.298381344209952, -3.3050729293338907, -1.272426032812505, 11.72213024557226, -3.335112165507339, 28.618775794135743, -22.82217243515055, 8.12251628878231, -11.347486041661064, -15.826480859797604, -5.293039131322612, -1.9876094575419658, 15.006116092376612]], "bias_h": [[-10.704844660835185], [-7.777480136551656], [-11.02013077690585], [-17.585330227918494], [-1.627560189798004], [6.373520432326362], [22.136085295017125], [20.241232715694967], [3.317225693344757], [0.11684637438401772], [2.0936750928452668], [14.811845141181307], [7.52325810260149], [1.9282494154016505], [13.608858202145763], [7.988022860429816]], "bias_o": [[-4.469500031765761], [-0.770574654011756], [-11.881426063436685], [-13.210242384830186]]}, {"input_nodes": 12, "hidden_nodes": 16, "output_nodes": 4, "weights_ih": [[1.3810171307685355, 5.670267508679859, -7.551272807361568, -3.7389839280658745, 7.039471261596133, -8.555596170470965, 7.848680727456661, -1.1890574414721964, 4.460261585618182, -0.6865378765599147, -5.2960597067362185, -17.282460061854117], [0.2720782648170553, -13.48178254122245, 6.782770937917323, -1.7756258780045289, 15.160436586505302, -5.745789484189256, 17.702505023339615, 10.853663317680077, 1.0613600409618988, -5.023355383758552, -9.410444192394834, 16.201589275457483], [8.415535514986335, 5.1771262785240495, -3.7640722836939147, 8.708701559453656, -16.726499480604193, -10.051705397765442, 15.681543025528688, -13.063998649075154, 18.802481292981213, -6.2550403885190216, 17.282006025551432, -6.285807513024375], [-0.7699849521903726, 25.117421957671272, -22.18500117243559, 2.7651198956270227, -3.8352222773915257, -2.7173687289969157, -9.378467383973804, 9.671971137292804, 8.282997255734594, 1.3308597883691902, 1.1540572459429193, -16.88556655687642], [2.1028949291183214, -13.017287157862535, -3.0856055593623966, -12.074894849420529, -5.353243557833641, 17.19663496407972, 7.602895331682851, -11.639766492840197, 0.3082063416154873, 10.328288667548584, 2.9102482557054694, 2.40218788621234], [-16.460009079641182, -3.87489508430414, 13.872527207123028, 3.255952226028462, 6.70077034416695, 21.52353414822424, 20.891296233189454, 4.046929993849606, 4.430828935772519, -21.661312326238647, -12.011513984623196, -18.634474200924775], [5.900629740714747, -4.565924820207165, -16.524104445267746, 11.649282262257945, 6.484865334356702, 7.754004824674576, 15.810298868141244, 12.413416968183952, 7.635803429456072, -3.811935602458651, 5.022964180668409, 8.423260993930453], [1.2508261107443261, 3.0255661293732126, -12.930467856845901, -16.0661040824512, -7.124169780630648, 7.896358554895111, -5.880227198672151, 10.023271858120177, 18.353076177869674, -17.006726447063986, 16.923092280393607, -7.006057530485931], [3.15313241436051, -20.14238490264657, -2.159648263647207, 11.80666383042942, -10.744937803000148, -22.208821950527604, -5.882149932138863, 19.105519697341034, 19.726767109445145, -18.583299424912745, -8.001895035365788, -1.8010640006938212], [7.734742733031589, -0.23963142611608265, 16.824103312945393, 3.6420581607755684, 1.355053443014224, 9.117748725521205, 3.373234175047568, -4.2672119410166856, 26.91894135048552, -1.0618239766040576, -9.801923206285883, 2.9886078483999943], [-10.920164082188405, 11.402864874671472, 0.8443672948608839, -1.7885151533533221, -5.1179249264117805, -7.717461557366668, 1.5069536791647802, -11.906106203860514, -6.587552652144312, -8.217085581458207, -4.686688657424199, 16.702812547627975], [9.183005990904823, 4.720336156773906, -5.022720262483011, 6.723420867034141, -10.025281902625908, 5.502614145134922, 12.98914522757825, 5.755817997544327, -13.43573083165377, -19.69673972582626, 5.890651555643303, -2.8863183394925187], [-5.483281345603391, -10.850106947812447, -6.1965511099881, -4.704868858507619, -2.7292719288602645, 37.19881068476971, -7.30739967119686, -2.408223784677471, 7.129317754887956, 7.62329368638604, 4.816327503724304, 4.400127203987153], [-9.017428509620757, 18.38986898079254, -4.093259668619934, -9.905414290582744, 10.39219339744812, 9.58166238283848, -5.391511020655884, -7.073849840622915, -3.0005771060755126, 8.19641744680923, -5.263175347834529, -13.010174559368023], [2.287516032222431, 17.502241990572877, -19.87806017216951, -7.6571821372842805, -5.104619854623652, -14.939298649499523, 16.664212919021004, 1.6485510692096907, 5.903043396326522, -17.600961989255488, 34.12332828219185, 29.522504664340445], [-5.476037483222725, -22.757510261788095, 1.2809620119806209, 5.638378110711229, -11.708333559746679, -11.874984694270767, 9.712652518033313, 1.6641448874598037, 17.261885713831443, -30.08643892648326, -8.489042578003541, -9.390894250013325]], "weights_ho": [[-6.2147990315076855, -9.285717868953533, 0.5385308733923477, -4.913420519720838, 13.239483237440245, -26.476975969157216, 19.3203895904814, 27.380412077848014, 9.193703954389875, -10.59623189639767, -15.691345564374961, 1.5126403851954582, -3.4039861484787455, -0.6133790232729731, 14.286025513219036, 2.3883596748753972], [-6.047857253426822, -2.106641421656708, 10.065135980368071, -18.10066180913633, 17.43879902179667, -10.426827465053854, 4.210076070741705, -1.8616626065931696, -9.853372073885193, 6.219256024450697, 16.023165177260246, -37.42127032466396, -2.9846156401705044, 7.895464177493815, -20.310958447793606, -8.736691192018212], [3.5728602510713663, -6.846364043803003, -4.4610575865462, -3.0168573589930645, -8.622150764878132, 7.097982670098369, -4.551949982200544, 0.37610630633181286, 2.9594566079181126, 5.338203919047577, 21.886217900825898, -5.35588443078216, 12.061712008599624, -24.946430728617482, -18.492650032587854, 7.893561416386364], [-3.4850825297085333, 30.716095396460396, -14.632556372566036, 8.406591198412661, -3.056256226824839, -1.2690779726471715, 11.651981075462158, -3.4244144143356925, 28.730669259308705, -22.872659676582614, 8.126677842819818, -11.347486041661064, -15.826480859797604, -5.212862866140081, -1.9876094575419658, 15.027318135127459]], "bias_h": [[-10.586568833974678], [-7.982161390369474], [-10.970163659670927], [-17.60187403517287], [-1.6369826851312281], [6.373520432326362], [22.136085295017125], [20.385168449353838], [3.317225693344757], [0.23802184661943093], [2.0936750928452668], [14.769925642360613], [7.721586821354266], [1.9282494154016505], [13.608858202145763], [7.962637273408491]], "bias_o": [[-4.433613486615015], [-0.5510408902500552], [-11.882126567994817], [-13.132079516919315]]}, {"input_nodes": 12, "hidden_nodes": 16, "output_nodes": 4, "weights_ih": [[1.3810171307685355, 5.756703492572547, -7.566080263514482, -3.7389839280658745, 7.085415768298964, -8.569135115180918, 7.848680727456661, -1.1688922086888793, 4.460261585618182, -0.6865378765599147, -5.247632048900058, -17.39529771348099], [0.16653936643938191, -13.438582374306305, 6.760344426032977, -1.6691212638025392, 15.057479819613384, -5.745789484189256, 17.582439143568855, 10.734140229499955, 1.0226423128931952, -5.023355383758552, -9.400855398537693, 16.058970778264356], [8.231249662623878, 5.1771262785240495, -3.772163378980624, 8.634483674308171, -16.726499480604193, -10.051705397765442, 15.839846607271452, -13.10369456786721, 18.809201466773327, -6.374426911701824, 17.205135942702235, -6.295196540179586], [-0.7699849521903726, 25.15767220123335, -22.15562060605486, 2.712239029434679, -3.787871303505081, -2.6215363000702965, -9.355934867365127, 9.75693386752991, 8.31012079975906, 1.147741408219657, 1.1540572459429193, -16.88556655687642], [2.309717752078935, -13.137266690232456, -3.0281411430856644, -12.06088501500047, -5.353243557833641, 16.97003684235962, 7.681810123872872, -11.639766492840197, 0.23730861735827738, 10.328288667548584, 2.9102482557054694, 2.189011083551589], [-16.507563929103096, -3.87489508430414, 13.872527207123028, 3.1614523688332135, 6.850327204793456, 21.52353414822424, 21.022226172972807, 4.036547380936798, 4.574126157861408, -21.674813648575398, -12.011513984623196, -18.522396895922217], [5.855494723458678, -4.593137559068281, -16.355428024149354, 11.499615250983473, 6.630838335504005, 7.754004824674576, 15.802245844273138, 12.358931852761886, 7.635803429456072, -3.7078700380661833, 5.022964180668409, 8.377446761971564], [1.188076448065795, 3.1486887487074577, -12.759410795632975, -16.261474966903688, -7.130178637336695, 7.981212592292143, -5.84338987559361, 9.948238803670614, 18.435872019995003, -17.15847094687836, 16.92320981651429, -6.954558837005398], [3.2285799715951558, -20.116803715148908, -2.159648263647207, 11.957632911533919, -10.75151330500945, -22.208821950527604, -5.976281379843152, 19.098773220916144, 19.902797110165935, -18.463975599355322, -7.655686561383088, -2.0080682987348486], [8.057003521415997, -0.23007187767234244, 16.824103312945393, 3.6420581607755684, 1.355053443014224, 9.08852580376612, 3.418619480541781, -4.2672119410166856, 26.93997107821285, -1.0361223668346418, -9.916150767799929, 3.146439572859341], [-10.766017982146124, 11.509264961458712, 0.706457718473155, -1.605745588838008, -5.1179249264117805, -7.731527813260258, 1.4639686325842574, -12.023906371921413, -6.593318249435124, -8.244210537626135, -4.556781661372347, 16.74441442190939], [9.276143064755122, 4.78223525670938, -4.73628928664036, 6.697585834663802, -9.831648020604018, 5.431490429825061, 12.853346704337898, 5.764535367434365, -13.436537355393172, -19.858633461051358, 5.890651555643303, -2.9411297339984817], [-5.5357927909944085, -10.931031757263314, -6.230364426456578, -4.696963066392235, -2.7292719288602645, 37.141357218587565, -7.30739967119686, -2.311330406193205, 7.129317754887956, 7.621041485085667, 4.949834503630863, 4.61088913759046], [-8.870364313020985, 18.691981358620797, -4.147248770250967, -9.993985524380967, 10.366764939571238, 9.58166238283848, -5.466113396201334, -7.073849840622915, -2.8179957989193243, 8.055349142675404, -5.300697954891725, -13.030010225918629], [2.1863164117294516, 17.502241990572877, -19.87806017216951, -7.6571821372842805, -5.104619854623652, -15.057136772438502, 16.723203680117912, 1.5923924573883042, 5.903043396326522, -17.600961989255488, 33.97707889734928, 29.37205126245933], [-5.34945741638883, -22.71177529381284, 1.1809874872614983, 5.865658975491258, -11.703420935941214, -11.943038821290564, 9.687323640175316, 1.5984420996485877, 17.261885713831443, -29.939230740232674, -8.689664835612488, -9.36931441944151]], "weights_ho": [[-6.2306883172081, -9.285717868953533, 0.5143225368167119, -5.0498946549140316, 13.170994055256754, -26.599031958993667, 19.337395388114267, 27.505592939754926, 9.248306024875282, -10.532699984381422, -15.74887022023614, 1.5678039615748038, -3.4039861484787455, -0.7282789498056808, 14.286025513219036, 2.300082047273381], [-6.141835529960608, -1.848572348801533, 10.065135980368071, -18.182267438231648, 17.43879902179667, -10.515078758838623, 4.0504270573084575, -1.8616626065931696, -9.970358236353604, 6.219256024450697, 16.2954996028473, -37.46857012447456, -2.983548947356961, 7.8244002562950055, -20.331979416426684, -8.642392196065382], [3.3623262012444575, -6.718366808165608, -4.559814734968842, -3.0168573589930645, -8.56007892276076, 6.99214473372741, -4.443717461204552, 0.37610630633181286, 2.9594566079181126, 5.338203919047577, 21.87008262327658, -5.483787689341402, 11.955458605064505, -24.847136078098746, -18.545615452812584, 7.969758314179142], [-3.110096614538476, 30.716095396460396, -14.647003545109833, 8.406591198412661, -3.1531960487998134, -1.2409410778480214, 11.651981075462158, -3.418427780979079, 28.618775794135743, -22.872659676582614, 8.020300693338541, -11.347486041661064, -15.826480859797604, -5.212862866140081, -1.9876094575419658, 15.008894458315572]], "bias_h": [[-10.586568833974678], [-7.867259763398324], [-10.99428058929894], [-17.640101716463978], [-1.6369826851312281], [6.459879874440222], [22.072447650588806], [20.22026076223962], [3.317225693344757], [0.23802184661943093], [2.0936750928452668], [14.700281688225571], [7.7201203965689835], [1.9282494154016505], [13.608858202145763], [7.962637273408491]], "bias_o": [[-4.5114930176468], [-0.716769109218938], [-12.04965015889467], [-13.21859515441345]]}, {"input_nodes": 12, "hidden_nodes": 16, "output_nodes": 4, "weights_ih": [[1.3810171307685355, 5.670267508679859, -7.4227687577158985, -3.6767399892772565, 7.085415768298964, -8.569135115180918, 7.781897532610472, -1.1891027602125348, 4.728286202562677, -0.6865378765599147, -5.361531987667466, -17.282460061854117], [0.2579785224758235, -13.423064319662274, 6.704565182841411, -1.6526548918506958, 15.089200130273753, -5.802419372965226, 17.548441791676876, 10.77663869998277, 1.207249078274157, -5.023355383758552, -9.410444192394834, 16.201589275457483], [8.290605611378334, 5.284897758623985, -3.7640722836939147, 8.743104146915456, -16.51842003986543, -9.965173994419251, 15.841042474500373, -12.971224058550582, 18.802481292981213, -6.2550403885190216, 17.32688208768686, -6.295196540179586], [-0.8654668623949224, 25.117421957671272, -22.15562060605486, 2.7651198956270227, -3.8352222773915257, -2.961845223632703, -9.397534382513689, 9.71015572771372, 8.459536937766043, 1.1983306522910864, 1.134474391335751, -16.851888510673284], [2.134275172340852, -12.940753667818894, -3.19448048685277, -12.173065656553543, -5.30888620607882, 16.930513703215595, 7.596740992741297, -11.731839735867894, 0.2891000350768445, 10.228478686476299, 2.7757057067186874, 2.189011083551589], [-16.540241560321068, -3.978267253835525, 13.872527207123028, 3.1614523688332135, 6.70077034416695, 21.648906725377884, 20.891296233189454, 3.873354842267237, 4.599460242474451, -21.661312326238647, -12.011513984623196, -18.841309440268027], [5.942213213947571, -4.565924820207165, -16.261845407737162, 11.5520532665881, 6.568429284416505, 7.754004824674576, 15.796349294306163, 12.413416968183952, 7.602611503046841, -3.713173618566113, 4.971476167890349, 8.306474543453648], [1.2626010827987388, 3.1486887487074577, -12.759410795632975, -16.19807245537096, -7.113758948895529, 8.040239531901408, -5.880227198672151, 9.924974149346216, 18.236612219961025, -17.006726447063986, 16.964328994695812, -7.069567634946454], [3.15313241436051, -20.14238490264657, -2.3509924007246075, 11.807352804538985, -10.75151330500945, -22.1774324167961, -5.828727603528257, 19.0627691715865, 19.84739399780164, -18.583299424912745, -7.876718567141248, -1.9212989245992529], [7.7704698110652135, -0.26313467751725417, 16.761765762206895, 3.7284046085808322, 1.3344427496156206, 9.170477518136163, 3.422194968003242, -4.485289540920438, 26.84218410363145, -1.0618239766040576, -9.801923206285883, 3.146439572859341], [-10.952629645969205, 11.477777241115486, 0.706457718473155, -1.6726902273851016, -5.191325601867318, -7.663645892195782, 1.4639686325842574, -12.051035664046077, -6.587552652144312, -8.230051901669002, -4.557230030889581, 16.702812547627975], [9.216553885903453, 4.720336156773906, -4.964193820222858, 6.65561293903112, -9.844730127558636, 5.502614145134922, 12.920043256464014, 5.755817997544327, -13.289106679551685, -19.54611882925456, 5.890651555643303, -2.8790974189404834], [-5.5543983846021865, -10.850106947812447, -6.256120224489958, -4.696963066392235, -2.542221021702635, 37.141357218587565, -7.30739967119686, -2.408223784677471, 7.129317754887956, 7.71409672001059, 4.816327503724304, 4.61088913759046], [-8.985945457595747, 18.396396279552697, -3.946498527313804, -10.030194666972271, 10.366764939571238, 9.58166238283848, -5.3556315018373075, -7.048089864690121, -2.895248108908858, 8.326213038555395, -5.263175347834529, -12.809711850016827], [2.160624551462339, 17.502241990572877, -19.95332180493517, -7.804484406107043, -5.104619854623652, -15.057136772438502, 16.566676541862716, 1.5923924573883042, 5.903043396326522, -17.600961989255488, 34.12332828219185, 29.522504664340445], [-5.476037483222725, -22.642725261988545, 1.139255157718152, 5.792805636182176, -11.708333559746679, -11.874984694270767, 9.837661412767542, 1.521368639996325, 17.350653557327895, -30.136050668198173, -8.549540278283546, -9.390894250013325]], "weights_ho": [[-6.2306883172081, -9.285717868953533, 0.50450853952754, -5.0498946549140316, 13.118696678481344, -26.603554474888156, 19.337395388114267, 27.535524439736633, 9.206688987870184, -10.721811777788954, -15.654846052645297, 1.5126403851954582, -3.3132942802937295, -0.7029967988366571, 14.412919705525182, 2.3883596748753972], [-6.166038111924554, -2.093308782679878, 10.0306688310918, -17.997355184638867, 17.438454318206993, -10.31499381275433, 4.35185884865039, -1.8616626065931696, -9.86382325459765, 6.204456347727389, 16.114820333757706, -37.480616992166546, -2.7860894567653873, 7.8244002562950055, -20.38191854164243, -8.791148277105455], [3.5209292027439933, -6.718366808165608, -4.640235200671162, -3.059450290202942, -8.66881082953961, 7.104554065707545, -4.523678254029737, 0.37610630633181286, 2.9857526597958075, 5.424520960399308, 21.909077790854983, -5.3733745002471105, 12.118825753333597, -24.9349390538221, -18.577963973528743, 7.893561416386364], [-3.346015204233068, 30.716095396460396, -14.595740309059552, 8.406591198412661, -3.5299866125571358, -1.231668411521488, 11.651981075462158, -3.3703103246754704, 28.618775794135743, -22.872659676582614, 8.126677842819818, -11.3202400615974, -15.885350516158153, -5.312929462258433, -1.9876094575419658, 15.006116092376612]], "bias_h": [[-10.732158324919704], [-7.918831199705821], [-10.862874492696724], [-17.509999747277288], [-1.4794965833323817], [6.373520432326362], [22.136085295017125], [20.168205399591184], [3.317225693344757], [0.23802184661943093], [2.132242476720112], [14.769925642360613], [7.7201203965689835], [1.9282494154016505], [13.498450513779801], [7.962637273408491]], "bias_o": [[-4.433613486615015], [-0.9107567240300402], [-11.96083315340069], [-13.301359239459046]]}, {"input_nodes": 12, "hidden_nodes": 16, "output_nodes": 4, "weights_ih": [[1.4092140292912763, 5.670267508679859, -7.4026028035375075, -3.7389839280658745, 7.085415768298964, -8.569135115180918, 7.848680727456661, -1.230830253483788, 4.460261585618182, -0.8553259238158106, -5.2960597067362185, -17.32944486695245], [0.25745168739470176, -13.34269067705397, 6.618543182441784, -1.6817965219440068, 14.921478312694285, -5.626081467750565, 17.625398409525417, 10.853663317680077, 0.7258489239461952, -5.023355383758552, -9.410444192394834, 16.201589275457483], [8.415535514986335, 5.186662227797269, -3.7640722836939147, 8.669724583794768, -16.726499480604193, -10.051705397765442, 15.802572819962348, -13.083195597621783, 18.80404481645954, -6.3089207899492346, 17.205135942702235, -6.295059580204453], [-0.7699849521903726, 25.277483201674553, -22.311749759753052, 2.665596220388595, -3.8305064631735175, -2.768938029843725, -9.355934867365127, 9.71015572771372, 8.315878549225342, 1.1983306522910864, 1.1540572459429193, -16.84331083586085], [2.309717752078935, -12.98859038914844, -3.0856055593623966, -12.173065656553543, -5.353243557833641, 16.97003684235962, 7.736925438818358, -11.51962418894825, 0.23730861735827738, 10.298346702124334, 2.7278202210814815, 2.0894730300357316], [-16.43283399963792, -3.812497601203023, 13.872527207123028, 3.1614523688332135, 6.70077034416695, 21.625018333329436, 20.891296233189454, 4.036547380936798, 4.599460242474451, -21.661312326238647, -11.964201075941064, -18.634474200924775], [5.942213213947571, -4.533026156806325, -16.355428024149354, 11.5462198758356, 6.541359673889346, 7.7406034641377905, 15.656485382663273, 12.413416968183952, 7.657194023344308, -3.7781334293520064, 5.043221661316209, 8.460041261715567], [1.188076448065795, 3.1486887487074577, -12.653855275970923, -15.892058162167698, -7.174609832250542, 7.981212592292143, -5.8770099846373, 9.88005526440254, 18.358750954848922, -17.04652832565892, 16.92320981651429, -7.124354112583987], [3.15313241436051, -19.994865091422877, -2.159648263647207, 11.80666383042942, -10.75151330500945, -22.41112416703841, -5.791828525542709, 19.098773220916144, 19.869356720284113, -18.583299424912745, -7.876718567141248, -1.8137809814465693], [7.806204514504471, -0.26313467751725417, 16.824103312945393, 3.5472333788369896, 1.291945067035927, 9.286703356769113, 3.347038271119728, -4.2672119410166856, 26.93997107821285, -1.0618239766040576, -9.66711024790042, 3.162092585804589], [-10.762651333287945, 11.509264961458712, 0.6866130947273935, -1.6973869050564843, -5.1179249264117805, -7.658597511150472, 1.5526936030257366, -12.026494214907142, -6.587552652144312, -8.225317318698979, -4.581791030063875, 16.704889599071127], [9.183005990904823, 4.61207818036261, -4.964193820222858, 6.73795426079013, -10.025281902625908, 5.500148005536259, 12.920043256464014, 5.755817997544327, -13.43573083165377, -19.69673972582626, 5.890651555643303, -2.8985688095542144], [-5.5357927909944085, -10.850106947812447, -6.300702604348548, -4.696963066392235, -2.7292719288602645, 37.28360600730375, -7.332889282487469, -2.408223784677471, 7.129317754887956, 7.593446217676819, 4.70423460358041, 4.599536906310707], [-9.199039914242315, 18.610520274240184, -4.093259668619934, -9.719883598687051, 10.313807974865952, 9.58166238283848, -5.3556315018373075, -7.073849840622915, -2.895248108908858, 8.320266539349614, -5.20730853608805, -12.971503081859417], [2.1231075695436132, 17.513256924981896, -19.88771662870684, -7.6276928254041465, -5.1164083954934565, -15.057136772438502, 16.571969232387477, 1.6450069423774138, 5.903043396326522, -17.600961989255488, 34.08555407842001, 29.51868323996857], [-5.356168388988259, -22.757510261788095, 1.3672524068940666, 5.792805636182176, -11.665347889483751, -11.91543027678485, 9.604136440634834, 1.732442038871866, 17.261885713831443, -30.136050668198173, -8.549540278283546, -9.256006235726284]], "weights_ho": [[-6.2306883172081, -9.285717868953533, 0.5118200267678539, -5.0498946549140316, 13.118696678481344, -26.657250292291778, 19.324142373095924, 27.535524439736633, 9.248306024875282, -10.589536980236986, -15.691345564374961, 1.4256040949371878, -3.474983695614962, -0.619492218056261, 14.286025513219036, 2.3883596748753972], [-6.146179940046496, -1.9588649610320117, 10.065135980368071, -18.192419477523792, 17.43879902179667, -10.43847787550306, 4.246169469572325, -1.8616626065931696, -9.950139386918101, 6.219256024450697, 16.05081394364027, -37.5739417739213, -2.983548947356961, 7.6549648315776775, -20.30115165278714, -8.642392196065382], [3.7557926113118576, -6.536068208422416, -4.385074514308143, -2.8691721329600957, -8.504751615318705, 7.097278542204277, -4.331150899067225, 0.37610630633181286, 2.858444865734182, 5.338203919047577, 21.886217900825898, -5.396733316840262, 12.07720283716695, -24.997336829729676, -18.545615452812584, 7.893561416386364], [-3.346015204233068, 30.623208794884267, -14.647003545109833, 8.406591198412661, -3.3050729293338907, -1.2980331517202957, 11.651981075462158, -3.1691164444641196, 28.618775794135743, -22.872659676582614, 8.084592445767251, -11.3010370335025, -15.826480859797604, -5.212862866140081, -1.9807150537580687, 15.120357254594254]], "bias_h": [[-10.586568833974678], [-7.918831199705821], [-11.012587561842947], [-17.65130489206045], [-1.6369826851312281], [6.370761796480471], [22.16935964993515], [20.22026076223962], [3.3505932351423175], [0.23802184661943093], [2.2572527461759693], [14.769925642360613], [7.7201203965689835], [1.9397258873701548], [13.673964663648235], [7.882829019564116]], "bias_o": [[-4.433613486615015], [-0.716769109218938], [-12.200647626343539], [-13.23879297013551]]}, {"input_nodes": 12, "hidden_nodes": 16, "output_nodes": 4, "weights_ih": [[1.3810171307685355, 5.627016565722142, -7.3270135048210125, -3.723130677086722, 7.171900310528289, -8.569135115180918, 7.848680727456661, -1.2538971031734087, 4.460261585618182, -0.5665740859571952, -5.2960597067362185, -17.374574680679522], [0.2720782648170553, -13.207757939883098, 6.658957046287957, -1.6691212638025392, 15.089200130273753, -5.745789484189256, 17.434863608822887, 10.946011371910215, 1.145514815444221, -5.05775764088566, -9.440432007188857, 16.201589275457483], [8.616695930587413, 5.1771262785240495, -3.7640722836939147, 8.744324586451851, -16.726499480604193, -10.1115665037818, 15.802694739371825, -12.878020625082677, 18.802481292981213, -6.182637357978442, 17.280691795992144, -6.295196540179586], [-0.7210297553978471, 25.117421957671272, -22.15562060605486, 2.8843038978572184, -3.8352222773915257, -2.856971998472339, -9.355934867365127, 9.71015572771372, 8.179747971566941, 1.1983306522910864, 1.1540572459429193, -16.81260788300922], [2.309717752078935, -12.940753667818894, -3.0856055593623966, -12.173065656553543, -5.519149802127803, 16.799622323095782, 7.736925438818358, -11.639766492840197, 0.40658716818602103, 10.440216897861918, 3.0599594679980773, 2.2097004878963356], [-16.63346079432368, -4.07126592681765, 13.793643716047361, 3.0757273864934795, 6.676868176737748, 21.46747278008129, 20.891296233189454, 3.974247001717199, 4.608079898403187, -21.673067071993305, -12.011513984623196, -18.634474200924775], [5.942213213947571, -4.565924820207165, -16.355428024149354, 11.639657621272152, 6.53127854344984, 7.754004824674576, 15.64982465917759, 12.340550346358043, 7.635803429456072, -3.7513764560013803, 5.022964180668409, 8.306474543453648], [1.1199995861565164, 3.1486887487074577, -12.873836880448602, -16.0661040824512, -7.073191885683755, 7.981212592292143, -5.880227198672151, 9.952195011022319, 18.363720939554014, -17.104446679339116, 16.92320981651429, -7.125317630361386], [3.064180654714692, -20.14238490264657, -2.159648263647207, 11.80666383042942, -10.76115340753774, -22.208821950527604, -5.983193474755807, 19.252471515105388, 19.85981340000313, -18.509330187485013, -7.879577133747782, -1.8010640006938212], [7.7704698110652135, -0.26313467751725417, 16.824103312945393, 3.6420581607755684, 1.31600949084757, 9.006622637896449, 3.4230289472791653, -4.3890375227392076, 26.908700416812138, -1.0360522942412393, -9.744079769541166, 3.146439572859341], [-10.70149533129201, 11.509264961458712, 0.6801450745041356, -1.772419965218487, -5.075995723848713, -7.731527813260258, 1.4639686325842574, -12.061362374161202, -6.587552652144312, -8.244210537626135, -4.557230030889581, 16.657980770056078], [9.183005990904823, 4.720336156773906, -4.964193820222858, 6.599361168382469, -10.025281902625908, 5.411227849649615, 12.859206848044856, 5.8603437701002585, -13.559731966510702, -19.69673972582626, 5.866177610025851, -2.9159742570809573], [-5.5357927909944085, -10.797887577263209, -6.284609282367164, -4.696963066392235, -2.7292719288602645, 37.100361467853546, -7.30739967119686, -2.4634045483799203, 7.129317754887956, 7.593446217676819, 4.868474507534336, 4.641221966958093], [-8.985945457595747, 18.610520274240184, -4.097870109359886, -10.10147772670551, 10.366764939571238, 9.58166238283848, -5.458771547131547, -6.984547082287058, -2.947103378937322, 8.19641744680923, -5.263175347834529, -13.106051442114886], [2.172651595670204, 17.50639635357369, -19.941385680071388, -7.6571821372842805, -5.136977501927483, -15.020480409021207, 16.758805055688914, 1.5923924573883042, 5.903043396326522, -17.550655924505435, 34.15980742682789, 29.522504664340445], [-5.476037483222725, -22.935319124896285, 1.135279673915051, 5.760038079904328, -11.58749724688212, -11.690744197229494, 9.70452697617342, 1.4091448374950453, 17.240948797289875, -30.19862486728598, -8.60529119439504, -9.574293277830769]], "weights_ho": [[-6.2306883172081, -9.285717868953533, 0.5556549170399265, -5.0498946549140316, 12.934255708584908, -26.77770079847696, 19.337395388114267, 27.683041565824844, 9.248306024875282, -10.539069762442171, -15.691345564374961, 1.4749064981371764, -3.4039861484787455, -0.7282789498056808, 14.448888896404279, 2.3628271650805646], [-6.019533751718455, -2.0627641740254767, 10.056604597473404, -18.10066180913633, 17.43879902179667, -10.57576467523675, 4.246169469572325, -1.899240981640015, -10.088574724967618, 6.016191102405422, 16.111302949939486, -37.52388560529814, -2.983548947356961, 7.873800195621595, -20.373094917897685, -8.575129465914394], [3.646687178971755, -6.718366808165608, -4.632509072632683, -3.0299835627548823, -8.622150764878132, 6.963386007875563, -4.723944529072379, 0.2856926986568429, 2.9594566079181126, 5.193932747739748, 21.927987267590623, -5.516569217632014, 11.974650862620631, -24.946430728617482, -18.41298113496925, 7.893561416386364], [-3.335092816103485, 30.61281889673038, -14.626449748544331, 8.532874603510177, -3.1451740098901864, -1.3193390424038067, 11.651981075462158, -3.5332120721451847, 28.721853127439548, -22.872659676582614, 8.126677842819818, -11.347486041661064, -15.826480859797604, -5.212862866140081, -1.832265068185289, 15.006116092376612]], "bias_h": [[-10.586568833974678], [-7.918831199705821], [-11.040894529889556], [-17.715175676035532], [-1.853574196269081], [6.373520432326362], [22.136085295017125], [20.22026076223962], [3.317225693344757], [0.1226275748395771], [2.0936750928452668], [14.769925642360613], [7.7201203965689835], [1.9282494154016505], [13.608858202145763], [7.936834817843273]], "bias_o": [[-4.433613486615015], [-0.716769109218938], [-12.04965015889467], [-13.210242384830186]]}, {"input_nodes": 12, "hidden_nodes": 16, "output_nodes": 4, "weights_ih": [[1.3810171307685355, 5.496574517226683, -7.336757277303179, -3.802849239738217, 7.1541243596850475, -8.527942548293426, 7.751040819313894, -1.1890574414721964, 4.4490433615547555, -0.6563111540960098, -5.2960597067362185, -17.291273566908245], [0.2404961608773488, -13.216960715896219, 6.751228050043553, -1.6438555631743423, 15.193226359418597, -5.745789484189256, 17.582439143568855, 10.853663317680077, 0.8957885442367406, -5.023355383758552, -9.410444192394834, 16.201589275457483], [8.415535514986335, 5.1771262785240495, -3.7640722836939147, 8.744324586451851, -16.908749802906065, -9.889691489205243, 15.94910681151022, -13.063998649075154, 18.802481292981213, -6.279647191331318, 17.147436218465664, -6.26856208632454], [-0.7699849521903726, 24.92261816328912, -22.15562060605486, 2.9002019335575313, -3.977329425252363, -2.730703240973021, -9.355934867365127, 9.71015572771372, 8.31012079975906, 1.1983306522910864, 1.0499069860603714, -16.88556655687642], [2.3860798573647712, -12.993728265007052, -3.0856055593623966, -12.197278241100758, -5.353243557833641, 16.97003684235962, 7.694155854005208, -11.629087928064688, 0.11647601324745442, 10.328288667548584, 2.9102482557054694, 2.2278333681540334], [-16.507563929103096, -3.87489508430414, 13.84550123814163, 3.0627086943089163, 6.728363310903788, 21.658321468056396, 20.891296233189454, 4.036547380936798, 4.630284187105978, -21.661312326238647, -12.010064250246984, -18.634474200924775], [5.847465379560172, -4.624540898629329, -16.31940619577215, 11.499615250983473, 6.586070373337628, 7.7811540053148125, 15.802245844273138, 12.413416968183952, 7.586276824983203, -3.7781334293520064, 4.930806013584786, 8.402564750372402], [1.188076448065795, 3.1486887487074577, -12.803089324804589, -16.042652032656903, -7.073191885683755, 8.16085000231377, -5.880227198672151, 9.893036572092779, 18.366337309871888, -17.060107130829262, 16.92320981651429, -7.125317630361386], [3.179742001713594, -20.370716270335773, -2.159648263647207, 11.80666383042942, -10.61092864291293, -22.159433130437623, -5.891793105912782, 19.131687451659513, 19.670341474335974, -18.60584350623101, -7.876718567141248, -1.8010640006938212], [7.7771603138416445, -0.26313467751725417, 16.694309348998065, 3.6420581607755684, 1.355053443014224, 9.045904031110336, 3.3413612944243405, -4.2672119410166856, 26.828821086039945, -1.0618239766040576, -9.756360688421093, 3.003875750434836], [-10.863476701589347, 11.404994396725176, 0.6951206628595361, -1.6016068330809312, -4.983995850676032, -7.575727000276991, 1.4639686325842574, -12.023906371921413, -6.587552652144312, -8.244210537626135, -4.675196931275982, 16.674050525805892], [9.239549799719208, 4.819877357386603, -4.964193820222858, 6.65561293903112, -10.146652339985877, 5.502614145134922, 12.920043256464014, 5.69005718045253, -13.529779570567849, -19.69673972582626, 6.0618185814075645, -2.8598063716674105], [-5.64422689699211, -10.850106947812447, -6.421595661844504, -4.696963066392235, -2.8511615697325463, 37.141357218587565, -7.30739967119686, -2.259792539219661, 7.129317754887956, 7.593446217676819, 4.954412074372336, 4.5700492196467355], [-8.985945457595747, 18.610520274240184, -4.093259668619934, -9.993985524380967, 10.366764939571238, 9.58166238283848, -5.2926838468900455, -6.98140907507877, -2.9865819706384813, 8.243462750261322, -5.263175347834529, -13.003510480152295], [2.172651595670204, 17.502241990572877, -19.87806017216951, -7.6571821372842805, -5.100393686599578, -15.057136772438502, 16.52119276837277, 1.6518241260374098, 5.973874789025218, -17.600961989255488, 34.102067874862634, 29.518227857639797], [-5.476037483222725, -22.757510261788095, 1.2613165317601653, 5.792805636182176, -11.708333559746679, -11.831979018434762, 9.775669331597216, 1.536677538091131, 17.261885713831443, -30.176404150971777, -8.549540278283546, -9.390894250013325]], "weights_ho": [[-6.2306883172081, -9.147306275546708, 0.556991640133998, -4.961920337065247, 13.118696678481344, -26.530711904187264, 19.337395388114267, 27.421008384417238, 9.248306024875282, -10.532699984381422, -15.750394927692826, 1.5126403851954582, -3.4039861484787455, -0.992737603632472, 14.286025513219036, 2.396011879434338], [-6.135530306423036, -2.106641421656708, 10.188299145866658, -18.10066180913633, 17.35734051374799, -10.558619143952146, 4.246169469572325, -1.928404849614085, -9.950139386918101, 6.1387128891101925, 16.018564073052296, -37.55448284993108, -3.0141764073578257, 7.7483601424071775, -20.30115165278714, -8.617006235174596], [3.546715327327343, -6.75782489174634, -4.495824855719772, -3.0168573589930645, -8.54870144662629, 7.032229151032165, -4.551949982200544, 0.37610630633181286, 2.938175160041994, 5.338203919047577, 21.81247347223269, -5.588699719219018, 12.042409521960922, -24.946430728617482, -18.545615452812584, 7.893561416386364], [-3.346015204233068, 30.716095396460396, -14.647003545109833, 8.406591198412661, -3.3050729293338907, -1.272426032812505, 11.738833217736996, -3.335112165507339, 28.74384093838112, -22.872659676582614, 8.192691887992744, -11.347486041661064, -15.826480859797604, -5.496646787279985, -1.9876094575419658, 14.997887330068686]], "bias_h": [[-10.586568833974678], [-7.918831199705821], [-10.962750120184868], [-17.66092158169187], [-1.6369826851312281], [6.431071193162396], [22.27345523891646], [20.22026076223962], [3.4330268971994435], [0.23802184661943093], [2.0936750928452668], [14.769925642360613], [7.7201203965689835], [1.9763014553419058], [13.717543470850641], [7.962637273408491]], "bias_o": [[-4.433613486615015], [-0.9074598485822019], [-12.04965015889467], [-13.210242384830186]]}, {"input_nodes": 12, "hidden_nodes": 16, "output_nodes": 4, "weights_ih": [[1.5386579920954415, 5.757614605193101, -7.4227687577158985, -3.7389839280658745, 7.085415768298964, -8.569135115180918, 7.680293244767956, -1.2276505329403642, 4.460261585618182, -0.9211089842604925, -5.2960597067362185, -17.31236149475334], [0.3543315278091006, -13.34269067705397, 6.704565182841411, -1.6691212638025392, 15.089200130273753, -5.745789484189256, 17.4773130828287, 10.853663317680077, 1.0226423128931952, -5.1444117619219325, -9.410444192394834, 16.201589275457483], [8.320365694453491, 5.1771262785240495, -3.8332500208521485, 8.744324586451851, -16.69903631857919, -10.051705397765442, 15.802572819962348, -13.063998649075154, 18.802481292981213, -6.360322796179629, 17.231688335712676, -6.295196540179586], [-0.8416814850367083, 25.117421957671272, -22.21795998027296, 2.7651198956270227, -3.8352222773915257, -2.768938029843725, -9.355934867365127, 9.73302626220713, 8.31012079975906, 1.1819800066739248, 1.0896736729301806, -16.761213571685026], [2.322821421986629, -12.999995328095872, -3.1664477598789853, -12.100001044545035, -5.353243557833641, 17.04740858701972, 7.736925438818358, -11.844773693898928, 0.23730861735827738, 10.328288667548584, 2.9102482557054694, 2.3290364183572296], [-16.507563929103096, -3.7115675479054735, 13.872527207123028, 3.241994799327551, 6.70077034416695, 21.52353414822424, 20.95516700618548, 3.8873946623817712, 4.599460242474451, -21.661312326238647, -11.85040283547771, -18.634474200924775], [6.0152385328384606, -4.565924820207165, -16.290963345242112, 11.656061181696336, 6.712460424097761, 7.78988448262781, 15.738231214047865, 12.413416968183952, 7.635803429456072, -3.7781334293520064, 5.022964180668409, 8.306474543453648], [1.188076448065795, 3.1486887487074577, -12.897972133774543, -16.046847737324782, -7.09614367278623, 8.01938767210503, -5.941710037991806, 9.952195011022319, 18.363720939554014, -17.080225814065198, 16.92320981651429, -7.302819157006732], [3.15313241436051, -20.01998879253768, -2.159648263647207, 11.74952194114352, -10.75151330500945, -22.156247512421036, -5.920552395422407, 19.356287474980636, 19.793901508440086, -18.621966260553226, -7.876718567141248, -1.8010640006938212], [7.7704698110652135, -0.26313467751725417, 16.861282198454166, 3.6420581607755684, 1.355053443014224, 9.170477518136163, 3.373234175047568, -4.2672119410166856, 27.0210799100766, -1.0408652944114705, -9.729712672636449, 3.146439572859341], [-10.970695728750375, 11.37430627428441, 0.706457718473155, -1.6973869050564843, -5.1179249264117805, -7.731527813260258, 1.5430537208240616, -12.100547404811019, -6.587552652144312, -8.23817795465087, -4.470314535683459, 16.702812547627975], [9.183005990904823, 4.720336156773906, -4.964193820222858, 6.65561293903112, -10.025281902625908, 5.4881949081354495, 12.920043256464014, 5.79567959156621, -13.358348573885582, -19.680181985293224, 5.882487945997506, -2.8139829410537915], [-5.5357927909944085, -10.881152598628692, -6.2763365769843675, -4.696963066392235, -2.7292719288602645, 37.141357218587565, -7.30739967119686, -2.408223784677471, 7.129317754887956, 7.593446217676819, 4.940374432154419, 4.54777458161822], [-8.985945457595747, 18.665883651797564, -4.093259668619934, -9.993985524380967, 10.403988651213732, 9.58166238283848, -5.3556315018373075, -6.998663968071827, -2.895248108908858, 8.19641744680923, -5.263175347834529, -12.984560473224027], [2.3192304027230075, 17.502241990572877, -19.930677176741796, -7.622544372596436, -5.104619854623652, -15.035165522572212, 16.540412784856862, 1.5971847866458604, 5.932197368601792, -17.582326516035323, 34.12332828219185, 29.522504664340445], [-5.476037483222725, -22.757510261788095, 1.2857063769844035, 5.756312002285722, -11.708333559746679, -11.797452813063606, 9.712652518033313, 1.5302647274754684, 17.12171408960942, -30.136050668198173, -8.415011798146432, -9.390894250013325]], "weights_ho": [[-6.18559828888364, -9.148824681760159, 0.556991640133998, -5.0498946549140316, 13.015585003514905, -26.386202903310878, 19.337395388114267, 27.535524439736633, 9.248306024875282, -10.614058956984433, -15.691345564374961, 1.5126403851954582, -3.4039861484787455, -0.7282789498056808, 14.327856339170408, 2.3883596748753972], [-6.095323309706337, -2.106641421656708, 10.129957368846597, -18.271400776484917, 17.43879902179667, -10.413807946729065, 4.246169469572325, -1.6450597056603118, -9.938275289190226, 6.219256024450697, 16.130868743721837, -37.6250706220425, -2.983548947356961, 8.069883836263648, -20.30115165278714, -8.642392196065382], [3.5728602510713663, -6.605765518979807, -4.607153290020262, -3.0168573589930645, -8.53912221409146, 7.0226076256820615, -4.672430650642767, 0.37610630633181286, 2.9594566079181126, 5.338203919047577, 22.084011255511044, -5.3556667834544776, 12.061712008599624, -24.946430728617482, -18.545615452812584, 7.931324477577467], [-3.346015204233068, 30.647206157933155, -14.630926832787585, 8.406591198412661, -3.270121593132437, -1.272426032812505, 11.783851403672779, -3.335112165507339, 28.618775794135743, -22.872659676582614, 8.126677842819818, -11.347486041661064, -15.826480859797604, -5.2484245440526385, -2.0693334413366937, 15.006116092376612]], "bias_h": [[-10.477631851134085], [-7.918831199705821], [-10.99428058929894], [-17.66092158169187], [-1.687617828805013], [6.433376845183964], [22.136085295017125], [20.22026076223962], [3.317225693344757], [0.15499222409898705], [2.2120499695628766], [14.769925642360613], [7.7201203965689835], [1.9282494154016505], [13.608858202145763], [7.962637273408491]], "bias_o": [[-4.433613486615015], [-0.6174756546829867], [-11.89992971709736], [-13.189824245762644]]}, {"input_nodes": 12, "hidden_nodes": 16, "output_nodes": 4, "weights_ih": [[1.2905081791119648, 5.670267508679859, -7.4227687577158985, -3.7389839280658745, 7.085415768298964, -8.533618296731731, 7.905792826043889, -1.3937798103713372, 4.433962554322031, -0.6861969032776402, -5.2960597067362185, -17.19196498266867], [0.2720782648170553, -13.328023502063774, 6.704565182841411, -1.6680381028313005, 15.089200130273753, -5.6615176474626345, 17.582439143568855, 10.853663317680077, 1.0911455280832465, -5.023355383758552, -9.487710646133353, 16.201589275457483], [8.374934619255034, 5.1771262785240495, -3.7419041623233205, 8.7319011648033, -16.707363872777005, -10.112184424214725, 15.799977512019149, -13.063998649075154, 18.802481292981213, -6.2550403885190216, 17.299703930867604, -6.42187258758757], [-0.7699849521903726, 25.032948671765876, -22.149213306741405, 2.821464239883977, -3.8352222773915257, -2.768938029843725, -9.253707438106792, 9.71015572771372, 8.31012079975906, 1.1734407281155768, 1.1540572459429193, -16.88556655687642], [2.332938861444936, -12.940753667818894, -3.0856055593623966, -12.076112940090828, -5.386404416291391, 16.97003684235962, 7.700466796426301, -11.639766492840197, 0.12363802811448829, 10.328288667548584, 2.9102482557054694, 2.189011083551589], [-16.592801311042486, -3.87489508430414, 13.872527207123028, 3.047132664800502, 6.7700086473673435, 21.52353414822424, 20.891296233189454, 3.9921260962414338, 4.642317859303678, -21.661312326238647, -12.011513984623196, -18.68393712348767], [5.942213213947571, -4.581953701930445, -16.355428024149354, 11.499615250983473, 6.760050047117098, 7.883914806421548, 15.739510387177347, 12.399207162781508, 7.557698626574055, -3.7781334293520064, 4.92716692626428, 8.164612977594981], [1.401561246250761, 3.1634476067934147, -12.725540596457819, -16.06130129962426, -7.166215744491517, 8.056969864632181, -5.959129286228783, 9.952195011022319, 18.36327902647168, -16.990365131209018, 16.8840482247858, -7.125317630361386], [3.1446917823047023, -20.14238490264657, -2.159648263647207, 11.872694223951802, -10.75151330500945, -22.217254107555267, -5.8118793503532284, 19.098672588662705, 19.869356720284113, -18.583299424912745, -7.782325273037547, -1.6331825851984056], [7.7704698110652135, -0.26313467751725417, 16.793339000063842, 3.630515496698153, 1.317448612510865, 9.170477518136163, 3.225272929486854, -4.553888626011222, 26.93997107821285, -1.0618239766040576, -9.781065324874195, 3.1821380898956257], [-10.802160880474933, 11.356626405311875, 0.706457718473155, -1.547371634532247, -5.1179249264117805, -7.731527813260258, 1.4639686325842574, -12.023906371921413, -6.587552652144312, -8.349194296395382, -4.557230030889581, 16.702812547627975], [9.183005990904823, 4.720336156773906, -4.759307398008872, 6.65561293903112, -10.025281902625908, 5.589849005500397, 13.001930416388905, 5.746327915598637, -13.43573083165377, -19.69673972582626, 5.838552753355677, -2.8790974189404834], [-5.5357927909944085, -10.850106947812447, -6.346533209100903, -4.754234860397434, -2.7292719288602645, 37.18961611897217, -7.30739967119686, -2.408223784677471, 7.129317754887956, 7.593446217676819, 4.97846371618923, 4.61088913759046], [-8.985945457595747, 18.610520274240184, -4.2954401975376255, -9.993985524380967, 10.366764939571238, 9.58166238283848, -5.3556315018373075, -7.073849840622915, -2.905917816647728, 8.19641744680923, -5.2082173302861605, -12.932540571303935], [2.172651595670204, 17.502241990572877, -19.855089292173535, -7.7279383810736295, -5.099081702015505, -15.0516476311968, 16.73400831265315, 1.588690128778671, 5.903043396326522, -17.54643387199981, 34.12332828219185, 29.553451123933545], [-5.476037483222725, -22.48454507939499, 1.40880154253068, 5.828952622887539, -11.630384011963182, -11.890744924955081, 9.712652518033313, 1.7845717983627332, 17.268529323963044, -30.136050668198173, -8.549540278283546, -9.343860467897679]], "weights_ho": [[-6.2306883172081, -9.202965494048895, 0.6445178298541946, -5.0498946549140316, 13.082175815938045, -26.73500068318721, 19.337395388114267, 27.538616462574666, 9.248306024875282, -10.575631535679092, -15.691345564374961, 1.5126403851954582, -3.4515245704113324, -0.629661594623256, 14.286025513219036, 2.3883596748753972], [-6.083462881467363, -2.0170964993015836, 10.065135980368071, -18.10066180913633, 17.400926969986127, -10.342823945531222, 4.246169469572325, -1.7965112362025624, -9.950139386918101, 6.219256024450697, 16.130868743721837, -37.62537963062611, -2.983548947356961, 7.8244002562950055, -20.23833258726753, -8.642392196065382], [3.5728602510713663, -6.568574537393393, -4.559814734968842, -2.9716189100307537, -8.621601414596865, 7.0164574546748995, -4.589960445743428, 0.37610630633181286, 2.9594566079181126, 5.338203919047577, 22.028278867156374, -5.384433996406666, 12.061712008599624, -25.011657083945426, -18.545615452812584, 7.869915902376542], [-3.406840370022694, 30.608539084526523, -14.647003545109833, 8.406591198412661, -3.368430671954034, -1.272426032812505, 11.651981075462158, -3.3361007459260077, 28.618775794135743, -22.872659676582614, 8.126677842819818, -11.414854682451878, -15.865331420521132, -5.212862866140081, -1.7267618353029723, 14.965990976568783]], "bias_h": [[-10.586568833974678], [-7.918831199705821], [-10.99428058929894], [-17.66092158169187], [-1.6369826851312281], [6.333175835594707], [22.234660283749122], [20.44585123030098], [3.317225693344757], [0.06476481377845827], [2.0718744830256774], [14.769925642360613], [7.84673950970401], [1.8606023169461694], [13.736808054148707], [7.962637273408491]], "bias_o": [[-4.433613486615015], [-0.716769109218938], [-12.04965015889467], [-13.216630611281106]]}, {"input_nodes": 12, "hidden_nodes": 16, "output_nodes": 4, "weights_ih": [[1.3810171307685355, 5.613530379046091, -7.4227687577158985, -3.7494127911468267, 6.97549642997524, -8.536212738285236, 7.806301305077063, -1.2200152762158591, 4.518675466919361, -0.7060919096753191, -5.440055767871318, -17.282460061854117], [0.2720782648170553, -13.454566002514946, 6.704565182841411, -1.5005693781008325, 15.089200130273753, -5.745789484189256, 17.582439143568855, 10.766105531861177, 0.986302911459338, -5.023355383758552, -9.459362964891607, 16.201589275457483], [8.393288919115175, 5.1771262785240495, -3.7640722836939147, 8.515873067781246, -16.741798020758697, -10.051705397765442, 15.903510923490078, -13.063998649075154, 18.679806701045905, -6.091920949262822, 17.130545940930322, -6.295196540179586], [-0.7699849521903726, 25.117421957671272, -22.11275889806177, 2.7651198956270227, -3.607028461791945, -2.768938029843725, -9.360879406118864, 9.71015572771372, 8.314234039473916, 1.1861519228051445, 1.2133076410969528, -17.162197970270842], [2.309717752078935, -12.975999949732959, -3.0205223244994195, -12.173065656553543, -5.353243557833641, 17.009179826267438, 7.736925438818358, -11.639766492840197, 0.23730861735827738, 10.42669150466348, 2.9102482557054694, 2.189011083551589], [-16.507563929103096, -3.87489508430414, 13.872527207123028, 3.0646955370760294, 6.7280739749697185, 21.607198968247022, 20.97563004553748, 4.036547380936798, 4.599460242474451, -21.539440911567556, -12.011513984623196, -18.533291166974966], [5.9134369907201565, -4.7603026001855895, -16.24540502960754, 11.209809202729701, 6.538725912089283, 7.818140747541638, 15.802245844273138, 12.418569446455033, 7.7086966175717775, -3.7781334293520064, 5.022964180668409, 8.306474543453648], [1.2105530882631172, 3.1486887487074577, -12.759410795632975, -16.179925996605448, -7.034626403232769, 7.981212592292143, -5.957594633700829, 9.952195011022319, 18.383770935617264, -17.006726447063986, 16.744184857874636, -6.9813254567677285], [3.166533484332079, -20.12501562661052, -2.1300329410035177, 11.821890897681044, -10.75151330500945, -22.208821950527604, -5.921697162106579, 19.0814910143899, 19.869356720284113, -18.477015269416157, -7.876718567141248, -2.036032468241962], [7.729053541571277, -0.26313467751725417, 16.824103312945393, 3.6420581607755684, 1.355053443014224, 9.282539609902605, 3.267848029677269, -4.314232838257677, 26.93997107821285, -1.0618239766040576, -9.801923206285883, 3.0142570892368714], [-10.95637779624258, 11.519013493387355, 0.706457718473155, -1.8131889644813737, -5.0580543246413665, -7.698347942940254, 1.4639686325842574, -11.923735939961537, -6.587552652144312, -8.244210537626135, -4.660279181110541, 16.702812547627975], [9.183005990904823, 4.720336156773906, -4.964193820222858, 6.65561293903112, -10.025281902625908, 5.502614145134922, 12.920043256464014, 5.685778356682231, -13.529774066620321, -19.614574570473618, 5.890651555643303, -3.0755841877909047], [-5.4408616602833035, -10.732048761724174, -6.300702604348548, -4.696963066392235, -2.556052980941557, 37.13073703229595, -7.248411535081581, -2.4029701800857888, 7.137490256276057, 7.593446217676819, 4.748185461111338, 4.597689375550851], [-9.036601569676948, 18.849856111820316, -4.1438445510835376, -9.993985524380967, 10.366764939571238, 9.602304594517229, -5.3556315018373075, -7.073849840622915, -2.911410728718293, 8.19641744680923, -5.3571857701904815, -12.806106328616858], [2.172651595670204, 17.502241990572877, -20.030152394425446, -7.633343038546288, -5.104619854623652, -15.092684737849067, 16.664212919021004, 1.5923924573883042, 6.037826861468956, -17.76002167248693, 34.170026336743575, 29.522504664340445], [-5.476037483222725, -22.757510261788095, 1.2857063769844035, 5.736792265669933, -11.81013537725682, -11.830889630855166, 9.776857830370757, 1.5302647274754684, 17.261885713831443, -30.136050668198173, -8.575636503499007, -9.312863309537668]], "weights_ho": [[-6.2306883172081, -9.436303246064925, 0.556991640133998, -5.0498946549140316, 13.118696678481344, -26.751404128956448, 19.229203742298722, 27.535524439736633, 9.248306024875282, -10.532699984381422, -15.924450234847844, 1.5126403851954582, -3.4823577288174445, -0.7282789498056808, 14.286025513219036, 2.5548976193702657], [-6.001395413305544, -2.0970366536212333, 10.02649166226074, -18.10066180913633, 17.43879902179667, -10.402093181796273, 4.246169469572325, -1.8616626065931696, -9.950139386918101, 6.219256024450697, 16.162812448056204, -37.55448284993108, -2.983548947356961, 7.8244002562950055, -20.424574026332305, -8.710599163406052], [3.5728602510713663, -6.821351382294421, -4.677117987486788, -3.0168573589930645, -8.587756244583861, 7.090115277603505, -4.551949982200544, 0.37610630633181286, 2.9845824912649133, 5.4160323620727215, 21.938707854323084, -5.354460010395515, 12.061712008599624, -24.946430728617482, -18.545615452812584, 7.775398821288486], [-3.346015204233068, 30.716095396460396, -14.77395647135872, 8.406591198412661, -3.3050729293338907, -1.5099252802483356, 11.651981075462158, -3.361626249289328, 28.618775794135743, -22.872659676582614, 8.126677842819818, -11.420564627981333, -15.808410325940315, -5.212862866140081, -2.102927707182695, 14.827707410407488]], "bias_h": [[-10.732424101095766], [-7.918831199705821], [-10.975082921997313], [-17.66092158169187], [-1.6010128623261066], [6.4043031229066205], [22.203033028537366], [20.104246691269275], [3.317225693344757], [0.23802184661943093], [2.0936750928452668], [14.807317154779572], [7.6445316616900465], [1.9282494154016505], [13.608858202145763], [7.900131803244834]], "bias_o": [[-4.4067363159720925], [-0.716769109218938], [-12.04965015889467], [-13.300146379607183]]}, {"input_nodes": 12, "hidden_nodes": 16, "output_nodes": 4, "weights_ih": [[1.4071428457767525, 5.559546685501241, -7.399066520355457, -3.671760790652316, 7.085415768298964, -8.54003869840078, 7.963494645232616, -1.245967099526047, 4.495558714698973, -0.6865378765599147, -5.2960597067362185, -17.313753734477963], [0.2720782648170553, -13.34269067705397, 6.704565182841411, -1.5592066519640237, 15.12344128129458, -5.761388566660353, 17.520277336234884, 10.881192653688206, 0.9571137715412595, -5.023355383758552, -9.410444192394834, 16.282334507074797], [8.290929861841823, 5.1771262785240495, -3.823708038345945, 8.744324586451851, -16.665459897420618, -10.051705397765442, 15.874237626834924, -13.063998649075154, 18.802481292981213, -6.079692352007092, 17.205135942702235, -6.39350314469881], [-0.7699849521903726, 25.163623427913368, -22.081792467027384, 2.7651198956270227, -3.8352222773915257, -2.768938029843725, -9.283561989048494, 9.674745911263873, 8.343352131566155, 1.2005615738192752, 1.1540572459429193, -16.97231803236265], [2.2539342067564023, -12.940753667818894, -3.172656467408638, -12.235366684074554, -5.353243557833641, 17.070045410712304, 7.759310712203203, -11.639766492840197, 0.2467521912689689, 10.344331242030295, 2.9328014861737444, 2.1874389778526355], [-16.507563929103096, -3.9434536939694125, 13.926373408936326, 3.1614523688332135, 6.70077034416695, 21.52353414822424, 20.911909890500876, 4.125656212346643, 4.599460242474451, -21.570929500550974, -12.011513984623196, -18.53622920362731], [6.037120535026206, -4.565924820207165, -16.355428024149354, 11.499615250983473, 6.586070373337628, 7.754004824674576, 15.802245844273138, 12.38998943340677, 7.635803429456072, -3.7781334293520064, 5.076571245549678, 8.306474543453648], [1.188076448065795, 3.1486887487074577, -12.874358009870912, -16.14957816521611, -6.943974881909113, 7.981212592292143, -5.880227198672151, 9.952195011022319, 18.363720939554014, -17.00519580579285, 16.972133521884817, -7.09175948299862], [3.15313241436051, -20.14238490264657, -2.159648263647207, 11.841615798107838, -10.75151330500945, -22.208821950527604, -5.743479156248799, 19.098773220916144, 19.85915373922289, -18.58430946236378, -7.876718567141248, -1.8010640006938212], [7.697215972838681, -0.26313467751725417, 16.78462766582175, 3.8430355294804306, 1.2396768161373093, 9.320090998493377, 3.373234175047568, -4.2672119410166856, 26.93997107821285, -1.1273107359042103, -9.699835145575205, 3.146439572859341], [-10.802160880474933, 11.509264961458712, 0.706457718473155, -1.6636635309626124, -5.272334754815313, -7.731527813260258, 1.470493549000452, -12.08998565840765, -6.587552652144312, -7.984415531620313, -4.483017768868619, 16.788558043550427], [9.147176083662846, 4.720336156773906, -4.987520367632869, 6.65561293903112, -10.176080094033978, 5.502501760262135, 12.920043256464014, 5.818013996528261, -13.487947105776069, -19.69673972582626, 5.8707640997202395, -2.868366798995838], [-5.5357927909944085, -10.92162521892005, -6.373467472243933, -4.7069065302050275, -2.7292719288602645, 37.18830483357154, -7.343666896088435, -2.444355969778528, 7.243815776030031, 7.593446217676819, 4.801037061788769, 4.667119612386037], [-9.162701475558329, 18.610520274240184, -4.166469725882694, -9.878301448854794, 10.42864106624191, 9.58166238283848, -5.29849898868744, -7.174291486908268, -2.895248108908858, 8.065718023790328, -5.368699078868646, -13.003510480152295], [2.172651595670204, 17.669467011153596, -19.904450571167462, -7.6571821372842805, -5.104619854623652, -15.057136772438502, 16.664212919021004, 1.5923924573883042, 6.096961418331591, -17.482855966911153, 34.12332828219185, 29.522504664340445], [-5.476037483222725, -22.793731292748888, 1.337275155898793, 5.9512274905764055, -11.719644648825453, -11.874984694270767, 9.739753163191013, 1.5302647274754684, 17.33560281234624, -30.120410244748832, -8.549540278283546, -9.58283794072977]], "weights_ho": [[-6.2306883172081, -9.340150973294488, 0.556991640133998, -5.238008030154328, 13.118696678481344, -26.61596402498454, 19.34095495480749, 27.735003488666592, 9.248306024875282, -10.570586350972432, -15.6790821450166, 1.5126403851954582, -3.4039861484787455, -0.7282789498056808, 14.286025513219036, 2.4160609426112676], [-6.104393900210034, -2.106641421656708, 9.986042316233998, -18.10066180913633, 17.43879902179667, -10.43791659944201, 4.273617727985416, -1.8616626065931696, -9.950139386918101, 6.219256024450697, 16.130868743721837, -37.55448284993108, -3.076168941319414, 7.8244002562950055, -20.504582790335984, -8.648665188619088], [3.5728602510713663, -6.804551883924012, -4.550881641998007, -3.1415815250513184, -8.622150764878132, 7.090115277603505, -4.551949982200544, 0.33685003869843094, 2.9713929781204116, 5.338203919047577, 21.879341344185608, -5.530646073035491, 12.039070374511994, -24.9068690521833, -18.545615452812584, 7.893561416386364], [-3.2440162901936724, 30.53229814093594, -14.647003545109833, 8.359626860884994, -3.425418565056756, -1.272426032812505, 11.651981075462158, -3.227022798790083, 28.618775794135743, -22.872659676582614, 7.936854656365224, -11.312965683274973, -15.790847769301022, -5.212862866140081, -1.9876094575419658, 15.006116092376612]], "bias_h": [[-10.586661078850826], [-7.853025712740905], [-10.99428058929894], [-17.66092158169187], [-1.6369826851312281], [6.373520432326362], [22.136085295017125], [20.22026076223962], [3.317225693344757], [0.2305672856341423], [2.0936750928452668], [14.615715269291833], [7.7201203965689835], [1.8979520590550838], [13.608858202145763], [7.962637273408491]], "bias_o": [[-4.261073001542262], [-0.716769109218938], [-12.001354823579021], [-13.338046006370462]]}, {"input_nodes": 12, "hidden_nodes": 16, "output_nodes": 4, "weights_ih": [[1.3810171307685355, 5.589817941461352, -7.4227687577158985, -3.6720227415785547, 7.085415768298964, -8.569135115180918, 7.945222900138386, -1.1890574414721964, 4.460261585618182, -0.6865378765599147, -5.332003671201479, -17.307360680357412], [0.2720782648170553, -13.455501474619476, 6.772415680141281, -1.6691212638025392, 15.089200130273753, -5.745789484189256, 17.676765985621884, 10.853663317680077, 1.0226423128931952, -5.023355383758552, -9.366166978372613, 16.201589275457483], [8.415535514986335, 5.287068481095714, -3.663608142455208, 8.744324586451851, -16.899970536038435, -10.051705397765442, 15.892308687817218, -13.063998649075154, 18.886432006127674, -6.2550403885190216, 17.205135942702235, -6.295196540179586], [-0.7699849521903726, 25.249268175324413, -22.064311415177844, 2.888856210091583, -3.8352222773915257, -2.713947434157385, -9.355934867365127, 9.653808212519419, 8.31012079975906, 1.266013552467122, 1.0881665363875233, -16.88556655687642], [2.309717752078935, -13.056206418548339, -2.9846003816050843, -12.13418434849233, -5.41093983751748, 17.168018996353975, 7.736925438818358, -11.639766492840197, 0.17409825874917914, 10.328288667548584, 2.9102482557054694, 2.189011083551589], [-16.553539164859433, -3.8643126475249456, 13.77601781401325, 3.1614523688332135, 6.763549190127613, 21.52275496356819, 20.920744817043534, 4.036547380936798, 4.599460242474451, -21.661312326238647, -12.050416989709293, -18.634474200924775], [5.897042309455732, -4.466185260605795, -16.355428024149354, 11.448984207787428, 6.587427540639478, 7.740043073478663, 15.802245844273138, 12.460474272157969, 7.635803429456072, -3.7781334293520064, 5.022964180668409, 8.325875123225027], [1.1003259118841564, 3.0957253387582733, -12.759410795632975, -16.0661040824512, -7.08028459351084, 7.981212592292143, -5.880227198672151, 9.952195011022319, 18.363720939554014, -17.270163333251993, 16.92320981651429, -7.096152523717363], [3.15313241436051, -20.25094791520047, -2.159648263647207, 11.80666383042942, -10.708689459496911, -22.208821950527604, -5.882149932138863, 19.098773220916144, 19.758452608054572, -18.583022889535936, -7.876718567141248, -1.950963999408361], [7.7704698110652135, -0.13508863648867916, 16.824103312945393, 3.6420581607755684, 1.355053443014224, 9.170477518136163, 3.373234175047568, -4.2672119410166856, 26.93997107821285, -0.8473233594957861, -9.680219070262805, 2.9898728581906275], [-10.757338651359555, 11.509264961458712, 0.706457718473155, -1.7918480842957187, -5.169512734783648, -7.731527813260258, 1.4639686325842574, -12.023906371921413, -6.648252747469338, -8.244210537626135, -4.557230030889581, 16.772322491722807], [9.097961925426771, 4.720336156773906, -4.964193820222858, 6.77245988546793, -10.024846853033267, 5.548013450941283, 12.920043256464014, 5.684132596532025, -13.361658911536448, -19.69673972582626, 5.9015059849716955, -2.8790974189404834], [-5.5357927909944085, -10.850106947812447, -6.448294570472215, -4.668890268980394, -2.7292719288602645, 37.141357218587565, -7.30739967119686, -2.4086465369449557, 7.129317754887956, 7.570220689673191, 4.816327503724304, 4.61088913759046], [-8.985945457595747, 18.610520274240184, -4.0714225983321635, -10.012316173569722, 10.366764939571238, 9.58166238283848, -5.3556315018373075, -7.073849840622915, -2.8749379786988083, 8.19641744680923, -5.140162305878881, -13.003510480152295], [2.172651595670204, 17.502241990572877, -19.87806017216951, -7.6571821372842805, -5.104619854623652, -15.116030910028304, 16.664212919021004, 1.5923924573883042, 5.832565141666813, -17.600961989255488, 34.1902399646118, 29.56315357367353], [-5.476037483222725, -22.757510261788095, 1.3417034591990447, 5.9199723443890715, -11.796403893713762, -11.874984694270767, 9.712652518033313, 1.5302647274754684, 17.308184490045946, -30.015188994855396, -8.549540278283546, -9.485341688205011]], "weights_ho": [[-6.2306883172081, -9.248129236590994, 0.556991640133998, -5.0498946549140316, 13.16100702210842, -26.657250292291778, 19.324878084007633, 27.880492768706382, 9.30770622358593, -10.532699984381422, -15.771838902798638, 1.5126403851954582, -3.358022589376097, -0.820121881652011, 14.286025513219036, 2.3883596748753972], [-6.095323309706337, -2.0344399242760645, 10.065135980368071, -18.206576808700262, 17.43879902179667, -10.43847787550306, 4.2416381270133945, -1.8616626065931696, -9.950139386918101, 6.219256024450697, 16.130868743721837, -37.54303509257389, -2.983548947356961, 7.867822190222504, -20.30115165278714, -8.503412524390319], [3.5728602510713663, -6.662366968640648, -4.559814734968842, -3.0168573589930645, -8.636012362456633, 7.2228018323675425, -4.551949982200544, 0.4535678195407464, 2.747895015121588, 5.197663770889625, 21.7550793697013, -5.3733745002471105, 12.089539111246927, -24.946430728617482, -18.629522160094808, 7.961226128118095], [-3.346015204233068, 30.644645089924964, -14.683385808263239, 8.406591198412661, -3.219831761871031, -1.272426032812505, 11.651981075462158, -3.253492485247289, 28.618775794135743, -22.860516218831414, 8.129402144783889, -11.45415702922914, -15.698816673389421, -5.270026579895727, -1.9876094575419658, 14.892276380841588]], "bias_h": [[-10.586568833974678], [-7.918831199705821], [-10.887833130621399], [-17.559237866243606], [-1.5993508680816777], [6.474330661065465], [21.944441878618523], [20.302102907800638], [3.317225693344757], [0.23802184661943093], [2.0936750928452668], [14.8418595936709], [7.7201203965689835], [1.8939306615804514], [13.608858202145763], [7.892410109514128]], "bias_o": [[-4.400240017796967], [-0.716769109218938], [-12.032936173025943], [-13.210242384830186]]}, {"input_nodes": 12, "hidden_nodes": 16, "output_nodes": 4, "weights_ih": [[1.4776501956359926, 5.670267508679859, -7.4227687577158985, -3.7274701660207397, 7.347318611421348, -8.569135115180918, 7.848680727456661, -1.2459769868190038, 4.509397745104384, -0.6801928128518449, -5.347296254921683, -17.37196914490195], [0.2720782648170553, -13.34269067705397, 6.704565182841411, -1.5922499196951576, 15.089200130273753, -5.745789484189256, 17.596218114891126, 10.937942473910997, 0.9909332262079206, -4.966165336195725, -9.410444192394834, 16.400424269524674], [8.415535514986335, 5.1771262785240495, -3.7640722836939147, 8.750094049561886, -16.726499480604193, -10.156392770374495, 15.802572819962348, -12.986033761652635, 18.832785254327906, -6.2550403885190216, 17.205135942702235, -6.421741487929549], [-0.7699849521903726, 25.029934649838804, -22.17908627229873, 2.7651198956270227, -3.8352222773915257, -2.768938029843725, -9.355934867365127, 9.701153136941155, 8.257168184374763, 1.1983306522910864, 1.1540572459429193, -16.88556655687642], [2.309717752078935, -12.940753667818894, -3.0856055593623966, -12.167449306325409, -5.353243557833641, 16.97003684235962, 7.828185066856549, -11.797698565782296, 0.2609121011966576, 10.328288667548584, 2.8161662372310317, 2.189011083551589], [-16.507563929103096, -3.87489508430414, 13.813612467678496, 3.1614523688332135, 6.70077034416695, 21.52353414822424, 20.891296233189454, 3.9554169280758256, 4.462449709855761, -21.68782407666943, -11.941472243634788, -18.61783121789365], [5.76516455299932, -4.537973434568723, -16.31889768981177, 11.361046926129834, 6.533459528544874, 7.754004824674576, 15.802245844273138, 12.413416968183952, 7.5482347646959935, -3.7781334293520064, 4.944082713988277, 8.306474543453648], [1.296099510626468, 3.1486887487074577, -12.936623802235314, -15.958296184351848, -7.073191885683755, 7.981212592292143, -5.657429271365295, 9.941144787367936, 18.363720939554014, -17.006726447063986, 16.92320981651429, -7.125317630361386], [3.15313241436051, -20.14238490264657, -2.159648263647207, 11.81956690277376, -10.793560862719113, -22.208821950527604, -5.880293165618066, 19.098773220916144, 19.869356720284113, -18.583299424912745, -7.876718567141248, -1.8010640006938212], [7.7704698110652135, -0.26313467751725417, 16.824103312945393, 3.6420581607755684, 1.2824996344323267, 9.145725341955744, 3.373234175047568, -4.2672119410166856, 27.0158841210773, -1.0618239766040576, -9.801923206285883, 3.14647321144884], [-10.802160880474933, 11.509264961458712, 0.8922188031048407, -1.5540748693541637, -5.1179249264117805, -7.731527813260258, 1.4639686325842574, -12.023906371921413, -6.500281371395294, -8.244210537626135, -4.581046891238791, 16.6331517659147], [9.102735992535548, 4.720336156773906, -4.833128586985502, 6.709540441821536, -10.025281902625908, 5.502614145134922, 12.928232746139686, 5.9089321155315115, -13.454845797560646, -19.817775646777154, 5.890651555643303, -2.8790974189404834], [-5.492092747560402, -10.904605887820306, -6.300702604348548, -4.769151660716394, -2.7687083186390145, 37.141357218587565, -7.30739967119686, -2.288677457561398, 6.966643046010773, 7.593446217676819, 4.816327503724304, 4.61088913759046], [-8.870617956125232, 18.676958902234606, -4.093259668619934, -9.993985524380967, 10.366764939571238, 9.58166238283848, -5.2885651637110564, -7.073849840622915, -2.895248108908858, 8.19641744680923, -5.358279215579542, -13.003510480152295], [2.0013514810289843, 17.375049227332156, -19.87806017216951, -7.6571821372842805, -5.104619854623652, -14.970999133276829, 16.664212919021004, 1.5923924573883042, 5.590162678601821, -17.600961989255488, 34.12332828219185, 29.522504664340445], [-5.427452017402542, -22.757510261788095, 1.4744518664760546, 5.792805636182176, -11.904768558577185, -11.874984694270767, 9.702744883379928, 1.6970764212034357, 17.261885713831443, -30.136050668198173, -8.672594911826186, -9.390894250013325]], "weights_ho": [[-6.198270163037554, -9.260789164874904, 0.556991640133998, -5.0498946549140316, 13.118696678481344, -26.657250292291778, 19.337395388114267, 27.535524439736633, 9.248306024875282, -10.579754867604414, -15.691345564374961, 1.5514880730798917, -3.291211363140716, -0.6995375149424037, 14.311340135240284, 2.3883596748753972], [-5.97423995409118, -2.0099184252060724, 10.065135980368071, -18.017979677416022, 17.43879902179667, -10.392394429666483, 4.1864688485192865, -1.8616626065931696, -10.016740715205989, 6.219256024450697, 16.130868743721837, -37.55448284993108, -2.7831574863464725, 7.8244002562950055, -20.298053444671066, -8.642392196065382], [3.6117711276810103, -6.550191079112317, -4.559814734968842, -2.913783521537376, -8.576029910845145, 7.090115277603505, -4.469711416847308, 0.43148151723661576, 2.9594566079181126, 5.338203919047577, 21.886217900825898, -5.3733745002471105, 11.917213190600231, -24.95127690948801, -18.488761785683444, 7.893561416386364], [-3.346015204233068, 30.716095396460396, -14.696119792635406, 8.340482657787351, -3.3793315526060326, -1.272426032812505, 11.651981075462158, -3.335112165507339, 28.618775794135743, -22.872659676582614, 8.126677842819818, -11.287282555089167, -15.692804948496041, -5.238047101425287, -1.879797599496281, 14.914088285342446]], "bias_h": [[-10.586568833974678], [-7.918831199705821], [-11.00990077811712], [-17.66092158169187], [-1.5362160900024722], [6.5780316262207235], [22.074925505117633], [20.22026076223962], [3.317225693344757], [0.23802184661943093], [2.136977634024769], [14.620960778409064], [7.751302220056744], [1.9282494154016505], [13.620319320985347], [7.962637273408491]], "bias_o": [[-4.277966861116976], [-0.541084748355468], [-11.927189980743476], [-13.210242384830186]]}, {"input_nodes": 12, "hidden_nodes": 16, "output_nodes": 4, "weights_ih": [[1.3810171307685355, 5.670267508679859, -7.4227687577158985, -3.627308131115582, 7.085415768298964, -8.569135115180918, 7.91046093685214, -1.2000849352762764, 4.460261585618182, -0.5765568095037145, -5.362333831124809, -17.345291890883278], [0.2720782648170553, -13.34269067705397, 6.704565182841411, -1.56062136489938, 15.089200130273753, -5.745789484189256, 17.582439143568855, 10.791077397822384, 1.0168736441928283, -4.989651408961503, -9.492185634741013, 16.165604482962113], [8.364543461957958, 5.1771262785240495, -3.5967300911481073, 8.744324586451851, -16.726499480604193, -10.220070429642584, 15.802572819962348, -13.058124454807968, 18.802481292981213, -6.191602706355253, 17.167594524892866, -6.218806344093589], [-0.7699849521903726, 25.069774759754253, -22.162854527557105, 2.84537894216899, -3.8352222773915257, -2.768938029843725, -9.355934867365127, 9.71015572771372, 8.31012079975906, 1.1983306522910864, 1.1540572459429193, -16.88556655687642], [2.4380767219425987, -12.940753667818894, -3.159121009710659, -12.231855057553094, -5.353243557833641, 16.97003684235962, 7.736925438818358, -11.679639919874756, 0.014653448237929828, 10.328288667548584, 2.9102482557054694, 2.189011083551589], [-16.507563929103096, -3.911695301017187, 13.765373576946816, 3.087419537134953, 6.70077034416695, 21.52353414822424, 20.891296233189454, 4.036547380936798, 4.515768106799612, -21.628598429696414, -12.011513984623196, -18.693184817667166], [6.077266464188871, -4.668995175939602, -16.239094605275618, 11.51269537871881, 6.371358429132101, 7.754004824674576, 15.802245844273138, 12.17897276330415, 7.780396304603033, -3.7781334293520064, 5.208780886625169, 8.164040382585384], [1.0887356841280986, 3.2208242715713418, -12.8270632334495, -16.0661040824512, -7.107931973690741, 7.921830610759903, -5.759025068540236, 9.952195011022319, 18.38694290799575, -17.210807578612524, 16.993048581161254, -7.125317630361386], [3.292961721818706, -20.14238490264657, -2.1084632545265345, 11.703134930052045, -10.75151330500945, -22.208821950527604, -5.882149932138863, 19.19031540752933, 19.842545361229362, -18.583299424912745, -7.914720240712352, -1.9503183334732725], [7.878586357017557, -0.16113070481184316, 16.72889198483007, 3.5775788107868025, 1.355053443014224, 9.32675852155358, 3.36254465495701, -4.222751229920973, 26.93997107821285, -0.9696516034891783, -9.712712368441053, 3.176424158871458], [-10.787795217401168, 11.509264961458712, 0.8472538136848216, -1.7311518453961485, -5.1179249264117805, -7.795833520931988, 1.4639686325842574, -12.023906371921413, -6.603940376321687, -8.300859163580448, -4.557230030889581, 16.702812547627975], [9.183005990904823, 4.700927782873329, -5.147243844821246, 6.65561293903112, -10.189743230832574, 5.5362185873009935, 12.920043256464014, 5.755817997544327, -13.46124773215622, -19.69673972582626, 5.785170610930543, -2.8790974189404834], [-5.450352509959067, -10.850106947812447, -6.300702604348548, -4.640660358745716, -2.7292719288602645, 37.16543766576553, -7.30739967119686, -2.502521471101477, 7.129317754887956, 7.804314489090484, 4.628066677874706, 4.61088913759046], [-8.985945457595747, 18.610520274240184, -4.093259668619934, -9.993985524380967, 10.228110717356056, 9.498582657185095, -5.3556315018373075, -7.073849840622915, -2.6499663889163707, 8.19641744680923, -5.240409965158531, -13.025040318384569], [2.172651595670204, 17.502241990572877, -19.77904928717074, -7.483972106826456, -5.274850281059357, -15.057136772438502, 16.664212919021004, 1.5923924573883042, 5.872423295414976, -17.56243124619544, 34.00166218676832, 29.535033701889173], [-5.641462161041761, -22.757510261788095, 1.3869749227168127, 5.723305928325087, -11.708333559746679, -11.874984694270767, 9.712652518033313, 1.6954712006186756, 17.261885713831443, -30.173239974898934, -8.549540278283546, -9.390894250013325]], "weights_ho": [[-6.091969653623249, -9.285717868953533, 0.556991640133998, -5.2430461041618885, 13.118696678481344, -26.711079313325804, 19.337395388114267, 27.63377681922574, 9.248306024875282, -10.532699984381422, -15.651353274885679, 1.5126403851954582, -3.4039861484787455, -0.9292617744471964, 14.286025513219036, 2.3883596748753972], [-6.07147865798958, -2.106641421656708, 10.065135980368071, -18.10066180913633, 17.336860804417345, -10.452692352165156, 4.409524068657864, -1.8616626065931696, -10.046198020425628, 6.219256024450697, 16.130868743721837, -37.57924830457624, -2.8639645603032204, 7.712674490808995, -20.365800564166932, -8.642392196065382], [3.5728602510713663, -6.718366808165608, -4.481919780762629, -3.0168573589930645, -8.423064605396108, 7.090115277603505, -4.551949982200544, 0.31144158189943016, 2.9594566079181126, 5.338203919047577, 21.886217900825898, -5.175464863289982, 12.152120182388952, -24.955185899176225, -18.545615452812584, 7.893561416386364], [-3.1926020148114214, 30.716095396460396, -14.586858619229785, 8.406591198412661, -3.3183996454503895, -1.272426032812505, 11.651981075462158, -3.4261405855644367, 28.586170322534084, -22.8858384356581, 8.062265410090292, -11.592845027527034, -15.826480859797604, -5.156036464483409, -2.035131831891349, 14.939192827326666]], "bias_h": [[-10.635039085651437], [-7.786233521715677], [-10.933923803676887], [-17.66092158169187], [-1.6369826851312281], [6.373520432326362], [22.23863807679705], [20.413267234209385], [3.317225693344757], [0.23802184661943093], [2.042519263441203], [14.769925642360613], [7.751215213853669], [1.9282494154016505], [13.63050953878569], [7.938316273429496]], "bias_o": [[-4.451448808424971], [-0.809772448103555], [-12.16621103905133], [-13.295384943774843]]}, {"input_nodes": 12, "hidden_nodes": 16, "output_nodes": 4, "weights_ih": [[1.3810171307685355, 5.670267508679859, -7.4227687577158985, -3.6563131113665404, 7.085415768298964, -8.616753675107073, 7.848680727456661, -1.254729720053341, 4.460261585618182, -0.8751996038533094, -5.388311325047678, -17.282460061854117], [0.17425613748082353, -13.34269067705397, 6.742231755212181, -1.669093514598789, 15.089200130273753, -5.8851993724906295, 17.51310734294586, 10.917816894406652, 0.9458570790863566, -5.023355383758552, -9.410444192394834, 16.22421259434347], [8.264436797077328, 5.1771262785240495, -3.7640722836939147, 8.744324586451851, -16.726499480604193, -10.051705397765442, 15.838645456842228, -13.008547184494487, 18.808132030415553, -6.326931391289977, 17.205135942702235, -6.194770502434861], [-0.7699849521903726, 25.1664546818592, -22.15562060605486, 2.7651198956270227, -3.8352222773915257, -2.768938029843725, -9.355934867365127, 9.745295798264248, 8.31012079975906, 1.310326698741792, 1.1540572459429193, -16.9826289808668], [2.015463810347466, -12.981505227192834, -3.0856055593623966, -12.173065656553543, -5.353243557833641, 16.80425580372494, 7.6450226277417705, -11.711786581618346, 0.5232884353818532, 10.328288667548584, 2.9102482557054694, 2.189011083551589], [-16.507563929103096, -3.8627170389017857, 13.743336078810417, 3.025039761654079, 6.543291645279492, 21.52353414822424, 20.891296233189454, 3.8881463041546263, 4.771311994885196, -21.900811539892747, -12.011513984623196, -18.634474200924775], [5.942213213947571, -4.565924820207165, -16.355428024149354, 11.56046836022412, 6.586070373337628, 7.733671406112917, 15.770515030135014, 12.413416968183952, 7.635803429456072, -3.7781334293520064, 5.03158770354454, 8.306474543453648], [1.188076448065795, 3.2116809605875845, -12.759410795632975, -16.0661040824512, -7.073191885683755, 7.981212592292143, -5.880227198672151, 9.962367531482137, 18.363720939554014, -17.075163334654796, 16.789801411821582, -7.299768538905088], [3.15313241436051, -20.14238490264657, -2.2078837357329464, 11.80666383042942, -10.74727331363789, -22.208821950527604, -5.882149932138863, 19.107370620499054, 19.934032758299825, -18.67449390265364, -7.876718567141248, -1.951642428201482], [7.730396789849888, -0.26313467751725417, 16.824103312945393, 3.7274085140797846, 1.4301337604854376, 9.171093110991094, 3.286498452960276, -4.2672119410166856, 27.128848321150535, -1.1591259640820448, -9.801923206285883, 3.146439572859341], [-10.765543048295667, 11.509264961458712, 0.706457718473155, -1.6622994790965377, -5.2634905261020615, -7.6252661720000825, 1.5403599139690787, -12.023906371921413, -6.563753930161849, -8.244210537626135, -4.557230030889581, 16.702812547627975], [9.183005990904823, 4.722533984028514, -4.964193820222858, 6.7282154183009135, -10.025281902625908, 5.502614145134922, 12.920043256464014, 5.755817997544327, -13.43573083165377, -19.69673972582626, 5.890651555643303, 