{"generation": 47033, "population": [{"input_nodes": 12, "hidden_nodes": 16, "output_nodes": 4, "weights_ih": [[1.5590740764101931, 5.969026432417993, -8.464999295210424, -3.956582129766395, 6.420755485043877, -7.836226577421762, 10.121055643730195, -0.2394340287103009, 6.25312061645512, -0.24917445190147874, -5.261485242714934, -15.893027360704005], [-0.980820739259872, -12.697430038005546, 6.0195873278398055, -4.099205177854679, 9.788467553087418, -4.165629083385254, 16.457393863640505, 8.379977972844827, 0.23536479552104775, -4.354897880319633, -7.709261074713257, 15.48167426938682], [9.742496884249048, 4.964241889788593, -7.049466224686425, 8.01209126449603, -16.584780734589888, -9.727169323416422, 15.3204504650288, -12.107054535650436, 19.939366339865217, -4.310165538341442, 13.314330459933508, -3.3318098041214483], [0.7675037426325769, 25.208118293804613, -21.998764885680988, 4.516197608295817, -2.6867997120901834, -6.110294758073922, -6.450565578503619, 5.43192915002623, 11.723277086989663, 0.5798471316575015, 2.650296967587555, -19.648260414117455], [2.5658303516189953, -13.072136468093614, -2.46627250489787, -10.964623189092114, -9.010097941246553, 16.218656989080955, 7.0070797585536795, -8.88066456191081, -2.6151589724674587, 10.826918116671289, 4.604098686822184, 2.237572967864047], [-18.655313245022256, -2.3543305729409543, 17.516977234223127, 1.6503346802343855, 3.3404049550908477, 19.970310568813744, 21.64912186311331, 3.3250377460360636, 0.9396788122550703, -23.15206833271712, -11.838774814950803, -16.566625307626094], [5.5904283773071075, -0.5726198430106703, -14.853666560083079, 13.360742778852085, 5.037954739123401, 6.271886016378329, 15.504280485981877, 16.933181473116605, 7.538331000440653, -4.640508953717278, 7.278841933137571, 5.832316806627696], [3.9323861900049724, -1.7385796221335652, -11.322529339047176, -16.48640851531973, -7.891985708490642, 9.620262984366281, -4.306904853177098, 5.718918886555645, 18.02355996456359, -15.798311209102323, 16.43366481708387, -7.780402957663886], [1.0391266169742803, -22.817137609520007, -0.7238080757095973, 8.076491628055477, -10.99802301645183, -24.388622146251627, -4.0963378588385275, 15.339589713758993, 19.730811254737986, -19.155265598598092, -4.99930740918873, 0.14419974114521844], [4.9516860957463855, 1.2959927030535967, 18.42935248504937, 5.130430729277104, 1.9761625259880256, 10.39700772573768, 5.594283531452396, -5.603528884823239, 26.872809102449512, -2.3832756526987358, -10.266823487751193, 1.4330935034352255], [-13.239609801804015, 13.529855118167609, 1.3031436587212315, -0.1551473419569695, -5.951949152802015, -6.322078786960031, 1.386833443376672, -10.706525662445303, -10.229408732337198, -7.222017161261986, -3.3631851962565165, 16.988292779887217], [10.306005955587477, 2.316278653954891, -4.15051549206835, 6.475496029058096, -13.350078909875597, 9.384683133771174, 12.727560756540496, 5.338030545584064, -12.389376853577755, -19.16303331408178, 4.319868467992951, -0.17860890785578032], [-8.226033864975957, -7.738074902516115, -8.634077684025513, -2.8777377903084274, -3.1210798064734786, 37.40384642195658, -9.534920905275742, -1.9194953221123219, 2.8372458832882326, 5.134481674450694, 7.134417118906054, 3.6386459986678825], [-7.491081856333155, 16.683815668950484, -6.5155744669670845, -11.737313512977902, 9.992584405020164, 8.672292339088672, -5.183929422038494, -10.565594443795433, -3.182360055716535, 5.485144059356879, -5.401061084525805, -14.248250374845602], [1.5515430475142833, 19.120578106067704, -17.942074561438567, -8.065370285608768, -5.6490459090177945, -14.805412880077775, 16.98824321643791, 1.3332318733517168, 7.082912923303574, -19.392302434143485, 31.69032149497896, 27.053908916184206], [-7.026889519752247, -20.924380366360932, -0.8431261258415974, 6.51522480616403, -10.340121280856094, -10.01134545439613, 8.656706439216439, 2.751844763953402, 16.47291704445168, -27.75176105402101, -6.76613429760843, -7.598726804212401]], "weights_ho": [[-6.255491409664044, -10.807338463717935, 0.16762848710560624, -5.818718920201937, 12.198563589526968, -23.441258658746662, 17.789448839543848, 27.722856903156753, 8.495896597917557, -7.495134240776936, -16.915952362069564, -0.8800966587517505, -6.1572419322327, 1.2621829715041533, 15.50949816578504, 3.34458882195821], [-3.4072336951209294, -0.9895039651868498, 7.438981899642213, -17.212990207236025, 19.24184474508384, -9.330948695054317, 5.621089111157689, -2.416037869323968, -8.969577376717693, 5.958081453385045, 16.125648226662985, -39.517282564430815, -4.231145782304029, 6.579081214762546, -21.475919666086384, -7.13198459236448], [2.5338918362235066, -8.103994710651815, -5.73625617401688, -5.214633269398511, -8.603027908181609, 10.546044932881701, -6.200608399163204, 3.598689029084866, 2.841750103058585, 3.7288093788150682, 21.847458067474964, -3.9406297477319496, 10.846274124445728, -22.307467524374132, -17.38598240031969, 9.806110557080897], [-2.456180734160733, 31.81021594951853, -12.910696963852752, 10.30002910708896, -3.3714102187939803, -0.893033852526896, 11.983261420886768, -0.366621537830926, 27.825851531837532, -25.27422279517508, 8.164583495136636, -10.66487031183954, -14.925430201400498, -8.066566041165448, -4.033892020940545, 17.10936617323062]], "bias_h": [[-8.975385487099055], [-6.961938075879665], [-12.02575193185349], [-18.828856438165836], [-2.6730308797701543], [4.880679157402114], [19.60604383951294], [18.746721620312027], [2.6983003975555717], [-1.4491184245159117], [-1.0004064380262223], [16.355641415144497], [9.5320965016358], [1.288267579420523], [14.316292074710113], [5.760261738438196]], "bias_o": [[-6.830941813599188], [-0.695537136958109], [-11.155351036529233], [-15.228389835147807]]}, {"input_nodes": 12, "hidden_nodes": 16, "output_nodes": 4, "weights_ih": [[1.4774530748587944, 5.983332571069357, -8.658515204496098, -3.956582129766395, 6.420755485043877, -7.884273953704634, 10.121055643730195, -0.19638054914160136, 6.25312061645512, -0.29276825711069726, -5.417653979146762, -15.893027360704005], [-0.980820739259872, -12.697430038005546, 5.83201453917723, -4.149454790230589, 9.796047372981544, -4.165629083385254, 16.457393863640505, 8.379977972844827, 0.23536479552104775, -4.354897880319633, -7.709261074713257, 15.48167426938682], [9.742496884249048, 5.046099571874259, -7.049466224686425, 8.01209126449603, -16.480087769364747, -9.727169323416422, 15.302128017035411, -11.97765681643965, 20.023321409956328, -4.310165538341442, 13.420823585636496, -3.3318098041214483], [0.7675037426325769, 25.024644455680924, -22.032718026376646, 4.516197608295817, -2.6867997120901834, -6.110294758073922, -6.457317926953994, 5.396535710069076, 11.66647743676803, 0.5798471316575015, 2.443164233972496, -19.648260414117455], [2.6481816989681772, -13.072136468093614, -2.46627250489787, -10.858545927884167, -9.010097941246553, 16.220535729995998, 6.910794724048275, -8.815176822712642, -2.6151589724674587, 10.826918116671289, 4.604098686822184, 2.237572967864047], [-18.655313245022256, -2.1619926414276334, 17.550542211286267, 1.6624941313406547, 3.3404049550908477, 19.913550402325875, 21.39536713139054, 3.3250377460360636, 0.8839141939321574, -23.15206833271712, -11.95159982803006, -16.61330689490566], [5.5904283773071075, -0.5726198430106703, -14.824325073776878, 13.351295411148142, 5.145244480367185, 6.271886016378329, 15.504280485981877, 16.933181473116605, 7.498560102622707, -4.640508953717278, 7.278841933137571, 5.7520855498442955], [3.9323861900049724, -1.7385796221335652, -11.562501737881725, -16.52857698557077, -7.891985708490642, 9.620262984366281, -4.306904853177098, 5.513414759435911, 18.02355996456359, -15.798311209102323, 16.43366481708387, -7.746477965234696], [1.098279165527955, -22.71909870898258, -0.7238080757095973, 8.076491628055477, -10.99802301645183, -24.388622146251627, -4.0963378588385275, 15.42995605819986, 19.730811254737986, -19.05355730755676, -4.973264025038433, 0.14419974114521844], [4.9516860957463855, 1.2959927030535967, 18.441232623871187, 5.130430729277104, 1.9761625259880256, 10.39700772573768, 5.443400054870819, -5.505920956671469, 26.772722432656828, -2.3832756526987358, -10.266823487751193, 1.18499295118549], [-13.20671461488899, 13.4589431903261, 1.3455931537583738, -0.1551473419569695, -6.037438976580755, -6.390673608310577, 1.386833443376672, -10.706525662445303, -10.325274827875806, -7.222017161261986, -3.3631851962565165, 16.988292779887217], [10.306005955587477, 2.316278653954891, -4.156581612826926, 6.3477025944325245, -13.350078909875597, 9.310771443396252, 12.50392253322526, 5.379331308871827, -12.389376853577755, -19.15078193253657, 4.316780420715548, -0.17860890785578032], [-8.226033864975957, -7.747440989390955, -8.634077684025513, -3.1161684247241754, -3.1210798064734786, 37.30698440766366, -9.616118279804388, -1.9194953221123219, 2.792192204926879, 5.134481674450694, 7.240435843158807, 3.6386459986678825], [-7.5008903230689254, 16.722088285304228, -6.616638557080133, -11.667928049887069, 9.992584405020164, 8.672292339088672, -5.05126472188153, -10.357443425908253, -3.182360055716535, 5.554561775616, -5.401061084525805, -14.31897236653732], [1.5515430475142833, 19.206654264544728, -17.985089280036515, -8.19734254842553, -5.8212226047993685, -14.805412880077775, 16.881381388430455, 1.2587008536414996, 7.082912923303574, -19.392302434143485, 31.714114857747727, 27.00800562120733], [-7.026889519752247, -20.924380366360932, -0.8431261258415974, 6.418134677946462, -10.343646780456236, -10.158591392810402, 8.702410968502566, 2.751844763953402, 16.47291704445168, -27.771310688994205, -6.5879585086615196, -7.519160750872545]], "weights_ho": [[-6.255491409664044, -10.798539848674372, 0.09149441776276873, -5.7517550286569765, 12.044367751367103, -23.29748803824332, 17.789448839543848, 27.722856903156753, 8.513035170355929, -7.495134240776936, -16.829085678605598, -0.8800966587517505, -6.18644570908729, 1.2621829715041533, 15.50949816578504, 3.34458882195821], [-3.4072336951209294, -0.996158634257464, 7.241857812057721, -17.212990207236025, 19.24184474508384, -9.329585258108313, 5.621089111157689, -2.2880623710831984, -8.94152057935056, 5.842737374838054, 16.125648226662985, -39.517282564430815, -4.153008410557767, 6.591161095488334, -21.475919666086384, -7.13198459236448], [2.6193161828409113, -8.033111965822124, -5.73625617401688, -5.214633269398511, -8.609518339621832, 10.529332762561694, -6.200608399163204, 3.598689029084866, 2.841750103058585, 3.8852101337978566, 21.94113310240965, -3.9406297477319496, 10.980466307724905, -22.40839104638324, -17.37864717068088, 9.806110557080897], [-2.527770900251358, 31.81021594951853, -12.827910257785984, 10.30002910708896, -3.2878828113089655, -0.7581240380528829, 11.983261420886768, -0.2944971128256767, 27.825851531837532, -25.236888767495312, 8.291410021951734, -10.66487031183954, -14.89047875226758, -8.066566041165448, -4.066061118826408, 17.15328194746879]], "bias_h": [[-8.975385487099055], [-7.237146265769527], [-12.02575193185349], [-18.828856438165836], [-2.770691271655167], [4.880679157402114], [19.61430934167296], [18.74222139909894], [2.6983003975555717], [-1.4491184245159117], [-1.0004064380262223], [16.355641415144497], [9.5320965016358], [1.1644247859712449], [14.210351884099486], [5.760261738438196]], "bias_o": [[-6.732801258968126], [-0.695537136958109], [-11.158475609114474], [-15.289760063832901]]}, {"input_nodes": 12, "hidden_nodes": 16, "output_nodes": 4, "weights_ih": [[1.4090857316367325, 5.969026432417993, -8.464999295210424, -3.893836800075564, 6.45903070204406, -7.8622448070568565, 9.848045425874684, -0.07860095771876624, 6.25312061645512, -0.24917445190147874, -5.261485242714934, -15.892024520252853], [-1.2386541794370811, -12.615105112207438, 6.0195873278398055, -4.256012254317427, 9.91582461753002, -4.2487731725694164, 16.457393863640505, 8.379977972844827, 0.23536479552104775, -4.252427617725925, -7.7036975746966005, 15.48167426938682], [9.742496884249048, 4.964241889788593, -7.049466224686425, 7.979055275977788, -16.584780734589888, -9.727169323416422, 15.3204504650288, -12.107054535650436, 19.917572305943317, -4.416249809335822, 13.404283472181342, -3.3318098041214483], [0.7675037426325769, 25.208118293804613, -21.998764885680988, 4.546547770036723, -2.6867997120901834, -6.297463753069167, -6.620109717901741, 5.43192915002623, 11.723277086989663, 0.5001943251807806, 2.650296967587555, -19.68547419657342], [2.5606441148946644, -13.072136468093614, -2.46627250489787, -10.964623189092114, -8.793169240155176, 16.20878985901865, 7.0070797585536795, -8.841852211829801, -2.6522104344512796, 10.826918116671289, 4.604098686822184, 2.2492123283271352], [-18.655313245022256, -2.3543305729409543, 17.516977234223127, 1.6316686294609368, 3.4518950903042667, 19.887434043217677, 21.64912186311331, 3.586956315324021, 0.9396788122550703, -23.15206833271712, -11.786337372833854, -16.566625307626094], [5.614258036031353, -0.6517480309322078, -14.853666560083079, 13.360742778852085, 5.037954739123401, 6.271886016378329, 15.504280485981877, 16.933181473116605, 7.509247805236777, -4.640508953717278, 7.189219163639573, 5.7586130608328405], [4.006992613021822, -1.7385796221335652, -11.322529339047176, -16.48640851531973, -7.891985708490642, 9.499633567433797, -4.295966391018152, 5.711276116956702, 18.02355996456359, -15.94219596431084, 16.43366481708387, -7.780402957663886], [1.1548778951079384, -22.817137609520007, -0.6934707818138812, 8.065814082294178, -10.99802301645183, -24.196922193245634, -4.077258226207488, 15.14146968230679, 19.730811254737986, -19.155265598598092, -4.9740564880883005, 0.06180978198309793], [4.949203647499344, 1.2959927030535967, 18.42935248504937, 5.162525624535584, 1.9761625259880256, 10.422707031843768, 5.594283531452396, -5.629531582850155, 26.872809102449512, -2.5083732000270276, -10.290926452746861, 1.4330935034352255], [-13.105071434017137, 13.545616379576954, 1.4351404093128926, -0.1551473419569695, -6.048695041937415, -6.322078786960031, 1.3874125274833875, -10.640412546821969, -10.229408732337198, -7.103854347014819, -3.344131058367944, 17.043236323183592], [10.306005955587477, 2.316278653954891, -4.048493749602392, 6.3873181620822095, -13.486753850724522, 9.384683133771174, 12.806527973526718, 5.26508672222245, -12.389376853577755, -19.113848726159596, 4.319868467992951, -0.11176664839628882], [-8.226033864975957, -7.738074902516115, -8.554126740823225, -2.977947501309788, -3.1210798064734786, 37.40384642195658, -9.642289672189673, -1.9194953221123219, 2.9275372331951193, 5.0911203603721, 7.134417118906054, 3.730635636842852], [-7.491081856333155, 16.52105723229703, -6.5155744669670845, -11.63525809078045, 10.1662807254659, 8.672292339088672, -5.183929422038494, -10.565594443795433, -3.2508901289244845, 5.485144059356879, -5.4377301065730395, -14.248250374845602], [1.5515430475142833, 19.120578106067704, -17.942074561438567, -7.871257341034065, -5.6490459090177945, -14.904422923573648, 16.95770750719956, 1.3332318733517168, 7.082912923303574, -19.392302434143485, 31.69032149497896, 27.053908916184206], [-7.026889519752247, -21.02136684311798, -0.8431261258415974, 6.51522480616403, -10.340121280856094, -10.01134545439613, 8.656706439216439, 2.8989681120096775, 16.303827645442173, -27.488382998306154, -6.731248213537771, -7.700015291082098]], "weights_ho": [[-6.315585892599918, -10.807338463717935, 0.02952919970993209, -5.901616978330142, 12.198563589526968, -23.32707507476403, 17.856448921940128, 27.722856903156753, 8.414265679902709, -7.495134240776936, -16.915952362069564, -0.9102112858362389, -6.262662839515617, 1.207917719255058, 15.504040177307418, 3.34458882195821], [-3.4072336951209294, -0.9895039651868498, 7.601718720410626, -17.230420037405622, 19.33031925393429, -9.330948695054317, 5.621089111157689, -2.34133650738335, -8.800812088261898, 5.958081453385045, 16.013887945315993, -39.517282564430815, -4.214979178041262, 6.579081214762546, -21.475919666086384, -7.092059800470414], [2.5338918362235066, -8.103994710651815, -5.73625617401688, -5.214633269398511, -8.603027908181609, 10.46501330782306, -6.200608399163204, 3.598689029084866, 2.841750103058585, 3.7288093788150682, 21.662214273524196, -3.9406297477319496, 10.935159567932093, -22.307467524374132, -17.25801685600494, 9.87073009909545], [-2.456180734160733, 31.811002431769168, -13.058342531027495, 10.30002910708896, -3.3714102187939803, -0.893033852526896, 11.94899809125894, -0.7001326339665193, 27.825851531837532, -25.343909545540768, 8.203004178810117, -10.77275564477157, -14.925430201400498, -8.066566041165448, -4.033892020940545, 17.10936617323062]], "bias_h": [[-8.94199464795492], [-6.990729031450646], [-12.02575193185349], [-18.74894768208863], [-2.6730308797701543], [4.872106519280982], [19.41762755619299], [18.87249317883775], [2.7196277186675797], [-1.4491184245159117], [-1.0826465009391841], [16.341947118198558], [9.5320965016358], [1.2150788492762246], [14.316292074710113], [5.731889821130469]], "bias_o": [[-6.86044121620545], [-0.617169112220236], [-11.155351036529233], [-15.374803818248385]]}, {"input_nodes": 12, "hidden_nodes": 16, "output_nodes": 4, "weights_ih": [[1.4669322881501, 5.744346587396039, -8.371244888238682, -4.000415117161032, 6.509775546052408, -7.708357520833184, 10.300898901502745, -0.19254446151893856, 6.391752497728488, 0.06591957812675202, -5.281814393192306, -16.134424514893883], [-0.6877347060618907, -12.72294859066261, 6.0729903257272655, -4.205313174400646, 9.715153067937816, -4.251514031429464, 16.3612345959167, 8.394807231222591, 0.20076015515353968, -4.424416553014346, -7.456350650209133, 15.709487097620935], [9.796122108585807, 5.003526732469602, -7.086694549651313, 7.999110856560399, -16.603051699014745, -9.922473652394004, 15.349246001878322, -12.229593422887284, 19.8797825771992, -4.2095247444209924, 13.314330459933508, -3.2274556493084434], [0.6549570839525929, 25.10306481539385, -21.975985173279973, 4.441400885849167, -2.6114979282320383, -6.193721571227608, -6.276043594670014, 5.438411314995813, 11.561407998030012, 0.6587301555525674, 2.6666188703943554, -19.7831343055008], [2.451008992986334, -12.896776574929754, -2.5854189801800223, -10.919842865657484, -9.001644610477054, 16.37461071774057, 6.996844156119992, -8.913139485208296, -2.833275915117258, 10.506445638168577, 4.667175239136186, 2.1360234440092536], [-18.66329049695426, -2.364439871378324, 17.46056932872483, 1.3218403823741518, 3.5852923767351443, 19.971447857482858, 21.63500492649085, 3.2593362642461225, 0.9695517748239969, -23.12977607487834, -11.889354100091708, -16.60973024514621], [5.76137833197116, -0.43985474093377247, -14.749577580201262, 13.27514039889616, 5.045267968570723, 6.085751342866661, 15.630478757064422, 16.994820400108892, 7.521715995844421, -4.718309567254739, 7.563822944789373, 5.78252340958441], [4.2024037088843045, -1.49161614616836, -11.117330391631612, -16.6123139502859, -8.021058079932123, 9.600639261029352, -4.035256567847912, 5.58011164067984, 18.03369066041713, -15.829489584583516, 16.25135703921017, -7.912836204300251], [0.8978421203240237, -22.80026267952725, -0.7662532411536227, 8.219599570108194, -10.961349348873004, -24.293474388851138, -4.0476143633677735, 15.338921629324073, 19.668070204855393, -19.016961153881834, -5.067532672186763, 0.2052829356819113], [4.935798211765019, 1.592761626264624, 18.588437259547444, 4.994118274585559, 1.7913767703400378, 10.281982338389207, 5.826656004893501, -5.396796231746364, 26.56277087360346, -2.3610113483287125, -10.211171012201428, 1.4504199358750234], [-12.959882251012784, 13.402937127306053, 1.7120397458845236, -0.494586308120492, -5.908610903251955, -6.40336575626041, 1.4219787556294878, -10.603818683726368, -10.033936291608972, -7.372962098832901, -3.1885914071331696, 17.05312706675253], [10.142222990258697, 2.2388362829014468, -4.073519490898689, 6.3796097017644176, -13.168318591938567, 9.019646409028027, 12.857608206954758, 5.307038335013832, -12.53216999518941, -19.368261726202732, 4.399059921091008, -0.33815531068154636], [-8.221411488109716, -7.9185731177894185, -8.578194386973443, -2.8546889804745783, -3.1480163274540103, 37.17867124059059, -9.368276372119034, -1.9690260372797799, 2.9755475369150473, 5.228043659441866, 7.026678211014934, 3.4590280326046283], [-7.399778933123561, 16.648864415929374, -6.556585862440702, -12.09480399455831, 10.142871318168652, 8.613387329281217, -5.396070004349027, -10.474035178582731, -3.1884663676735676, 5.636770205314065, -5.429590314328282, -14.16895312738024], [1.520540007720283, 19.19055862320322, -17.99956981215984, -8.067694766706655, -5.662260704853589, -14.781561319460565, 16.971988569425775, 1.3989732853984072, 7.065228079117006, -19.391760970307693, 31.52671898179643, 27.151434685815552], [-7.035202989815958, -21.062799096517985, -0.819722937883194, 6.413540080775098, -10.311024953345113, -9.983153452186485, 8.520435100516064, 2.8831455750119743, 16.338936585653325, -27.709819201515415, -6.476581334652448, -7.5594222700560305]], "weights_ho": [[-6.119901357915374, -10.715919927214506, -0.009778780141628543, -5.9171531447344, 12.168341621989791, -23.228475289239377, 17.69939588713605, 27.720595469147238, 8.355005210945102, -7.330147691167251, -17.14346192143745, -1.1757380785881293, -6.153284848928182, 1.2266205761732079, 15.499830326926656, 3.3029222514563705], [-3.350061941339478, -0.9895039651868498, 7.639056536123224, -17.18996459622525, 19.459322353962815, -9.296942491074379, 5.86462459048697, -2.497470874234651, -8.879915812622952, 5.962866841952792, 16.292878032182347, -39.60212824648885, -4.360700815234166, 6.631548928137098, -21.487359590596522, -7.018115496776213], [2.710154323348601, -8.247945587476817, -5.758195398941279, -5.166760501908062, -8.749192970410183, 10.569227837908766, -6.127343735089755, 3.3798009495431405, 3.0281662137769594, 3.7004771609975755, 22.011244604520282, -3.840984758171788, 11.075147870319986, -22.32853979291164, -17.392952747853563, 10.10992370348375], [-2.366440328511906, 31.677176723141304, -13.045880179956644, 10.158036564483536, -3.380186803976232, -1.0743085526435823, 12.03800946394767, -0.5802520102880374, 27.858303412950228, -25.27078934902493, 8.066857293180567, -10.492021346182804, -14.804913692711903, -7.989080478232282, -4.293686550601483, 17.137882703844916]], "bias_h": [[-8.81066515445358], [-6.643666699255105], [-11.85210631282623], [-18.97576634328041], [-2.4845571937064834], [4.947428814298271], [19.67871321577809], [18.889737519031133], [2.7127605166186703], [-1.409710577595976], [-0.6242993640282387], [16.1306208406421], [9.482263694535483], [1.484090689510149], [14.337435348994337], [5.772452563322319]], "bias_o": [[-6.990568655475213], [-0.6135431844024666], [-11.211944076525207], [-15.19417016020434]]}, {"input_nodes": 12, "hidden_nodes": 16, "output_nodes": 4, "weights_ih": [[1.5047035062439813, 5.964339036524541, -8.418122091724552, -3.9809716874913192, 6.520963546016772, -7.812227370773609, 10.186822437676039, -0.26286338264392545, 6.343312995732157, -0.10587819354504974, -5.2716498179536195, -15.876073059954473], [-0.6454097322139138, -12.710189314334077, 6.0046651970107545, -4.2417119931821174, 9.783468412679937, -4.2085715574073586, 16.4093142297786, 8.465001716130798, 0.21806247533729373, -4.38965721666699, -7.729624698544094, 15.578653439242256], [9.769309496417428, 4.958729872813806, -7.218954916508377, 8.098899160802075, -16.541449674391252, -9.60529411338668, 15.34388673898404, -12.23814735227604, 19.959190900507714, -4.215633198306506, 13.299353133021219, -3.279632726714946], [0.7256143318420812, 25.287782179237155, -22.06022613327931, 4.542393701659282, -2.6755620203083823, -6.181615552655543, -6.363304586586817, 5.425594549282867, 11.642342542509837, 0.6059894295312745, 2.658457918990955, -19.632224419836298], [2.361939207658957, -12.984456521511685, -2.482008517187916, -10.926154303285529, -9.027866948388489, 16.29663385341076, 7.029086004402481, -8.928255823376077, -2.7537685797221996, 10.801402159810802, 4.444369550950379, 2.189643935470576], [-18.825334262282556, -2.2930592031306007, 17.478752388954042, 1.4705628534498492, 3.4079429208341177, 19.954611777755936, 21.72802504244111, 3.3222496727755066, 0.9476664692002671, -23.224104952565487, -11.788051202626722, -16.53401413966913], [5.756802201670436, -0.5168463585848623, -14.785334050751965, 13.288882105107863, 5.110638304144718, 6.180682429696269, 15.517271108723499, 16.96400093661275, 7.395747052264262, -4.6794092604860085, 7.268834582887263, 5.778363409921685], [4.034773584117354, -1.5991371360450664, -11.214832141390188, -16.58633195682223, -7.956521894211383, 9.606785060526036, -4.195707636634718, 5.543841445979913, 18.02451120165714, -15.784748516582159, 16.34251092814702, -7.820164514614889], [0.9927781190374775, -22.808700144523627, -0.7487408037716468, 8.148045599081836, -10.94738652598747, -24.341048267551383, -4.1110436863821445, 15.339255671541533, 19.69944072979669, -19.10088803680822, -5.207777257149256, 0.05244318542476209], [4.918986063299052, 1.3429503468037312, 18.511859343313724, 5.086337832776168, 1.8837696481640318, 10.339495032063443, 5.638295830754225, -5.514463743230119, 26.867692116730137, -2.477695082343223, -10.274393058748196, 1.4417567196551244], [-13.151998780801968, 13.355209995275931, 1.5087047784599288, -0.22752421751636276, -5.888074045777051, -6.36272227161022, 1.4044060995030798, -10.655172173085836, -10.12083259245295, -7.33699340217852, -3.275888301694843, 16.99147993294568], [10.224114472923088, 2.277557468428169, -4.13405440314125, 6.481178647603874, -13.276323216273987, 9.257481112606477, 12.785187690118647, 5.435088397094123, -12.577233201451149, -19.093541929095082, 4.238748743507002, -0.2093175671730467], [-8.150873617693746, -7.880605438345249, -8.571798766670849, -2.866213385391503, -3.1345480669637444, 37.19993391194543, -9.499448088562897, -1.9704163242109332, 2.9063967101016397, 5.144005838018321, 7.133388268311867, 3.523726852424173], [-7.464473615295907, 16.779543916813797, -6.412109782597878, -11.933585125815538, 10.067727861594408, 8.490664255943363, -5.115652444695751, -10.532929950755484, -3.313360190813343, 5.467492097917429, -5.266269139815048, -14.155470198431589], [1.593286150577263, 19.155568364635464, -17.970822186799204, -8.035846031747237, -5.532853546165739, -14.780456532686806, 16.980115892931842, 1.2086433998519852, 7.174459712357121, -19.36631908850793, 31.608520238387698, 27.10609294466586], [-7.01429888850072, -20.9549670350394, -0.7997380541073885, 6.545546373804671, -10.325573117100603, -9.997249453291307, 8.612371556121554, 2.8372643786034675, 16.48718345578297, -27.730790127768213, -6.682908807268866, -7.674644821704317]], "weights_ho": [[-6.188796671934749, -10.772920312100712, 0.17623834116520898, -5.867936032468169, 12.18345260575838, -23.491176567243357, 17.74442236333995, 27.716562754438883, 8.40083351505434, -7.505822508635347, -17.029707141753505, -1.0279173686699399, -6.195213558361242, 1.2444017738386806, 15.53576002542164, 3.4477355440265303], [-3.3786478182302035, -1.181324399485306, 7.678018705296502, -17.247915559082557, 19.29348693780751, -9.375134288921336, 5.687485682626329, -2.3392643806009406, -8.924746594670323, 5.963819736919934, 16.209263129422666, -39.827512498358956, -4.295923298769098, 6.718728306358553, -21.520633853820566, -7.04222478181994], [2.664778942216114, -8.17851844686625, -5.7472257864790794, -5.190696885653287, -8.625641431376328, 10.538833465512669, -6.163976067126479, 3.562595188870234, 2.934958158417772, 3.6021604401695235, 21.867302307387455, -3.9416862980453478, 10.780977318307176, -22.318003658642887, -17.565525938441276, 9.958017130282323], [-2.4609266561345824, 31.74369633632992, -12.913875068398022, 10.22903283578625, -3.277419486082708, -0.9836712025852392, 12.040527105993995, -0.38390310611406, 27.762610024221807, -25.259218588359275, 8.098137884373633, -10.412473640794895, -14.834489281589644, -7.819754601712874, -3.987929460037785, 17.123624438537767]], "bias_h": [[-8.867421224568746], [-6.861243663404123], [-11.93892912233986], [-18.882208304785703], [-2.578794036738319], [4.977149469398954], [19.71952877538651], [18.71660950070411], [2.6541890059449353], [-1.577083511442304], [-0.8948909848649299], [16.3171839404536], [9.496158839437516], [1.423602316905191], [14.326863711852225], [5.766357150880257]], "bias_o": [[-6.832354341341032], [-0.6673311335385586], [-11.156325611749153], [-15.211279997676073]]}, {"input_nodes": 12, "hidden_nodes": 16, "output_nodes": 4, "weights_ih": [[1.4978295500503678, 6.100655577522471, -8.42477065674254, -3.953393781708612, 6.465265515548142, -7.951197738761184, 10.265575515838595, -0.18952616324143962, 6.244237898191123, -0.07161023575346932, -5.2716498179536195, -16.070464880610093], [-0.8342777226608813, -12.710189314334077, 6.029616551411193, -4.230689307619468, 9.751810310512617, -4.2085715574073586, 16.4093142297786, 8.454115834194802, 0.3506315863049885, -4.38965721666699, -7.655041930727623, 15.491702805332226], [9.769309496417428, 5.039257082140732, -7.124164188677446, 8.050039922063647, -16.541449674391252, -9.753161261661178, 15.698210764882182, -12.23814735227604, 20.050917833819064, -4.423202953570437, 13.314330459933508, -3.2824106928306316], [0.7438838731863281, 25.123101097143902, -21.94138477155692, 4.542393701659282, -2.627631342913162, -6.181615552655543, -6.487622056797407, 5.440853339108985, 11.526301775778018, 0.6873820130492067, 2.658457918990955, -19.92153100991463], [2.5084196723026646, -12.984456521511685, -2.5258457425389462, -10.986307077632038, -9.117845676091301, 16.29663385341076, 7.139401304894336, -8.928255823376077, -2.7242174437923583, 10.78549307482814, 4.792718191704494, 2.189643935470576], [-18.65930187098826, -2.481369864850223, 17.478752388954042, 1.59794327909915, 3.4338264757975443, 19.953915401917733, 21.40733174049015, 3.215521233715954, 0.9284550611631953, -23.14305008891199, -11.864064457521255, -16.575666962875687], [5.578668692927036, -0.5161588624966126, -14.80162207014217, 13.317941588874122, 5.2051239534290605, 6.266237716055749, 15.433298813661972, 16.96400093661275, 7.530023498142537, -4.6794092604860085, 7.383643239216518, 5.570209219808802], [4.034773584117354, -1.5991371360450664, -11.219929865339394, -16.45774541344695, -7.956521894211383, 9.606785060526036, -4.131957068273777, 5.649515263617743, 18.02451120165714, -15.884968482690283, 16.34251092814702, -7.815750481513436], [0.9236958580671899, -22.914320314797276, -0.7487408037716468, 8.148045599081836, -10.969876616373444, -24.437050455118193, -4.1110436863821445, 15.339255671541533, 19.69944072979669, -19.070002198206776, -5.11962634568083, 0.09469565586870629], [4.918986063299052, 1.0952089070125584, 18.328757155324954, 5.086337832776168, 1.8837696481640318, 10.339495032063443, 5.659690714064562, -5.487064163499048, 26.880671667101847, -2.346718023870878, -10.238997249976311, 1.4719594318222544], [-13.151998780801968, 13.509864972561953, 1.5075917023028775, -0.22752421751636276, -5.930280028026985, -6.36272227161022, 1.3693689171725318, -10.655172173085836, -10.001423530592639, -7.443762284731632, -3.275888301694843, 17.020709923319874], [10.224114472923088, 2.2573179694223406, -4.062621964389763, 6.4843113643533705, -13.276323216273987, 9.202164771399602, 12.785187690118647, 5.2941925417384095, -12.37685376506567, -19.185159385496977, 4.197522834225049, -0.2093175671730467], [-8.118300203967712, -7.880605438345249, -8.566869949915162, -2.866213385391503, -2.9676288180347976, 37.29125883127358, -9.459609151517679, -1.9442606796960509, 2.82840234626743, 5.144005838018321, 7.133388268311867, 3.651135749977039], [-7.464473615295907, 16.686094677281194, -6.526811018586587, -11.933585125815538, 10.067727861594408, 8.734721291509207, -5.149557678319774, -10.492294104444618, -3.0073839758325454, 5.528342974175533, -5.415325699427044, -14.20560339360033], [1.593286150577263, 19.155568364635464, -17.970822186799204, -8.057343768085797, -5.655653306935692, -14.79348709976917, 16.980115892931842, 1.320173706179706, 7.07407050121029, -19.36631908850793, 31.608520238387698, 27.10609294466586], [-6.922201439892951, -21.03731491170401, -0.8314245318623956, 6.464382443469564, -10.325573117100603, -9.997249453291307, 8.453562262333547, 2.7544852328378564, 16.48718345578297, -27.730790127768213, -6.5030363706774095, -7.597963252610393]], "weights_ho": [[-6.188796671934749, -10.71736522958784, 0.07892485348198885, -5.867936032468169, 12.18345260575838, -23.45553679247334, 17.74442236333995, 27.721726186151997, 8.385011758218079, -7.366777949237259, -17.029707141753505, -1.0279173686699399, -6.140572596952713, 1.4276199774777205, 15.469051115649455, 3.184391269996106], [-3.3786478182302035, -1.0424332820485152, 7.509727583790227, -17.066422810778985, 19.390890667484292, -9.127600747643807, 5.687485682626329, -2.392612115692195, -8.926934007266285, 6.003492816065303, 16.209263129422666, -39.60450431757829, -4.295923298769098, 6.50489723780578, -21.486958844660123, -7.075050044570347], [2.768386094225217, -8.17851844686625, -5.7472257864790794, -5.190696885653287, -8.515415408232748, 10.566182436747697, -6.163976067126479, 3.5001590969845857, 2.934958158417772, 3.7444561477216785, 21.82716138649558, -3.9287092820737377, 10.758184207852036, -22.163044519136278, -17.299016546559923, 9.980755447470274], [-2.4113105313363192, 31.74369633632992, -12.913875068398022, 10.150718485205825, -3.2437526599937114, -0.7922296143495389, 12.235802679944427, -0.33436661305377857, 27.675384878974175, -25.215840938036703, 8.098137884373633, -10.555813510318446, -14.883977958206662, -8.027823259698865, -4.216680897554784, 17.033976611564775]], "bias_h": [[-8.76048042711788], [-6.739096316823804], [-11.93892912233986], [-18.82247255872975], [-2.578794036738319], [5.07018644088349], [19.835993595902814], [18.68003078343024], [2.9191002792869587], [-1.4294145010559438], [-0.8736340516478018], [16.3171839404536], [9.579131541014599], [1.3494565907431373], [14.326863711852225], [5.466020701614296]], "bias_o": [[-7.0001152515332645], [-0.6911616534615362], [-11.30135048969781], [-15.211279997676073]]}, {"input_nodes": 12, "hidden_nodes": 16, "output_nodes": 4, "weights_ih": [[1.6644009395663244, 5.969026432417993, -8.464999295210424, -3.956582129766395, 6.420755485043877, -7.836226577421762, 10.07661229522137, -0.2394340287103009, 6.25312061645512, -0.2057926678256111, -5.277969074617207, -15.949788871361049], [-0.980820739259872, -12.697430038005546, 6.038765396992766, -4.099205177854679, 9.819336125155845, -4.165629083385254, 16.48437729970596, 8.416672674022042, 0.33634471227156515, -4.354897880319633, -7.709261074713257, 15.501186981168937], [9.742496884249048, 5.016776705050164, -7.049466224686425, 7.977762429491976, -16.641706893526152, -9.727169323416422, 15.353996877571042, -12.084009594752533, 19.939366339865217, -4.4342956045341415, 13.314330459933508, -3.395486282399559], [0.7675037426325769, 25.208118293804613, -21.998764885680988, 4.516197608295817, -2.7978506368848746, -6.110294758073922, -6.450565578503619, 5.43192915002623, 11.72223331607103, 0.6480247954599012, 2.6437129364242136, -19.70394600673799], [2.5658303516189953, -12.83117938278054, -2.46627250489787, -10.964623189092114, -9.010097941246553, 16.218656989080955, 7.0070797585536795, -8.910165085826229, -2.649440842453927, 10.861388666598629, 4.629493930187691, 2.237572967864047], [-18.655313245022256, -2.249648905011457, 17.516977234223127, 1.6503346802343855, 3.3404049550908477, 20.022701541957254, 21.64912186311331, 3.3250377460360636, 0.9396788122550703, -23.209926616206186, -11.838774814950803, -16.441282244945448], [5.541329261936401, -0.578672937682755, -14.88606048482746, 13.360742778852085, 5.007678896884525, 6.271886016378329, 15.460340870636406, 16.933181473116605, 7.538331000440653, -4.59251288043412, 7.278841933137571, 5.832316806627696], [3.9792954684443607, -1.748099862076875, -11.322529339047176, -16.449750147782606, -7.900472055282255, 9.732874045651164, -4.28861439955717, 5.718918886555645, 18.033816526030723, -15.855824090149751, 16.43366481708387, -7.843679793697911], [1.0391266169742803, -22.712288888593125, -0.6891042442112979, 8.076491628055477, -10.986917536876973, -24.388622146251627, -4.0963378588385275, 15.324398340624787, 19.60035911877958, -19.147248954233767, -5.164469392659252, 0.04477843578558019], [4.807975324136496, 1.1184583659933574, 18.42935248504937, 5.130430729277104, 1.9761625259880256, 10.52493462728532, 5.6285005953947485, -5.8572288669780175, 26.872809102449512, -2.388578936457983, -10.214889841990745, 1.401308329562923], [-13.385214745644804, 13.625919617407718, 1.3031436587212315, -0.3608278866733028, -6.209551009009623, -6.302894839477437, 1.386833443376672, -10.679049142546535, -10.229408732337198, -7.222017161261986, -3.3631851962565165, 16.988292779887217], [10.306005955587477, 2.316278653954891, -4.187011098946892, 6.475496029058096, -13.350078909875597, 9.431675233355591, 12.59660999423874, 5.224614995873715, -12.311028059733818, -19.16303331408178, 4.319868467992951, -0.17860890785578032], [-8.226033864975957, -7.768892789513771, -8.661983855766543, -2.8777377903084274, -3.1563702099427355, 37.39218032435394, -9.534920905275742, -1.8793403811817748, 2.8372458832882326, 5.134481674450694, 7.134417118906054, 3.655117170576357], [-7.531302806245534, 16.683815668950484, -6.5155744669670845, -11.737313512977902, 10.03668021768138, 8.672292339088672, -5.341662683118085, -10.565594443795433, -3.1892195954292784, 5.485144059356879, -5.401061084525805, -14.351816668771866], [1.4780840685562378, 19.120578106067704, -17.942074561438567, -8.065370285608768, -5.595863960512339, -14.804087543235822, 16.895811231205787, 1.3332318733517168, 6.985637071203145, -19.392302434143485, 31.69032149497896, 27.053908916184206], [-6.957290487461059, -21.004152465832856, -0.8431261258415974, 6.51522480616403, -10.340121280856094, -10.04747712086236, 8.655821894096727, 2.751844763953402, 16.395585330794535, -27.75176105402101, -6.707504761854031, -7.598726804212401]], "weights_ho": [[-6.255491409664044, -10.75091535426778, 0.16762848710560624, -5.818718920201937, 12.339208573427287, -23.487953598902028, 17.789448839543848, 27.81868757452334, 8.495896597917557, -7.556656513114838, -16.864963410839227, -0.8571272300384888, -6.1572419322327, 1.2621829715041533, 15.40818151576617, 3.4639570024998476], [-3.3949213146402233, -0.9895039651868498, 7.491042562544474, -17.306852932544444, 19.24184474508384, -9.330948695054317, 5.621089111157689, -2.416037869323968, -8.969577376717693, 5.958081453385045, 16.098509475128647, -39.299746204146864, -4.231145782304029, 6.579081214762546, -21.475919666086384, -7.13198459236448], [2.5519544385293482, -8.103994710651815, -5.73625617401688, -5.214633269398511, -8.603027908181609, 10.546044932881701, -6.200608399163204, 3.598689029084866, 2.8394355043228914, 3.7288093788150682, 21.934650011374536, -3.9406297477319496, 10.971199876748617, -22.307467524374132, -17.38598240031969, 9.827574965700048], [-2.456180734160733, 31.81021594951853, -12.910696963852752, 10.30002910708896, -3.382744082492552, -0.7113465707322366, 11.836690845824583, -0.366621537830926, 27.825851531837532, -25.283147976218824, 8.164583495136636, -10.66487031183954, -14.925430201400498, -7.91154543159959, -4.033892020940545, 17.10936617323062]], "bias_h": [[-8.975385487099055], [-6.961938075879665], [-12.02575193185349], [-18.94199691420601], [-2.6730308797701543], [4.880679157402114], [19.668614472302433], [18.746721620312027], [2.776965120422378], [-1.4491184245159117], [-0.947456250542132], [16.31759073072252], [9.5320965016358], [1.3386819123241467], [14.316292074710113], [5.760261738438196]], "bias_o": [[-6.830941813599188], [-0.8719222318128118], [-11.155351036529233], [-15.228389835147807]]}, {"input_nodes": 12, "hidden_nodes": 16, "output_nodes": 4, "weights_ih": [[1.5590740764101931, 5.951623821490567, -8.464999295210424, -3.956582129766395, 6.477573256331202, -7.862255860740153, 10.117440595522444, -0.24799411622566908, 6.25312061645512, -0.1402012084185758, -5.261485242714934, -15.987020001443847], [-0.9995336630913815, -12.848301090422936, 6.067805621935148, -4.099205177854679, 9.788467553087418, -4.110244366408506, 16.362684510744067, 8.366422278994996, 0.23536479552104775, -4.508251701230132, -7.8490977115496054, 15.481061375606533], [9.742496884249048, 4.964241889788593, -6.978138037648949, 8.01209126449603, -16.584780734589888, -9.727169323416422, 15.213917161666906, -12.107054535650436, 19.97409553456758, -4.310165538341442, 13.314330459933508, -3.357735497579281], [0.7675037426325769, 25.208118293804613, -21.998764885680988, 4.5332518807310445, -2.6867997120901834, -6.110294758073922, -6.63534933647453, 5.43192915002623, 11.798495434751304, 0.3643423518301885, 2.650296967587555, -19.51232836306672], [2.5069620251017586, -13.072136468093614, -2.46627250489787, -11.075595175750458, -9.103633257692048, 16.218656989080955, 7.0070797585536795, -8.944784018379014, -2.631807784528081, 10.826918116671289, 4.696397051452759, 2.237572967864047], [-18.65882162111313, -2.3856755794488755, 17.516977234223127, 1.6503346802343855, 3.438807019656381, 19.970310568813744, 21.64912186311331, 3.3250377460360636, 1.0134147207783621, -23.171766504868405, -11.838774814950803, -16.566625307626094], [5.5904283773071075, -0.5726198430106703, -14.853666560083079, 13.374946714116874, 5.037954739123401, 6.271886016378329, 15.613159887938512, 16.933181473116605, 7.538331000440653, -4.640508953717278, 7.3870207431545705, 5.832316806627696], [3.9323861900049724, -1.8659742130640378, -11.322529339047176, -16.48640851531973, -7.8263921725745025, 9.702654493636759, -4.376730906697622, 5.718918886555645, 18.02355996456359, -15.798311209102323, 16.408842722718948, -7.99028435698091], [0.9089110720436475, -22.817137609520007, -0.8048159966874205, 8.076491628055477, -11.10624870747581, -24.388622146251627, -4.0963378588385275, 15.339589713758993, 19.858786883006278, -19.155265598598092, -4.99930740918873, 0.21322063425042515], [4.9516860957463855, 1.3171379636271587, 18.42935248504937, 5.144468072233644, 1.9761625259880256, 10.39700772573768, 5.411414592276209, -5.603528884823239, 26.954130035363523, -2.280517115697951, -10.266823487751193, 1.5059791083654182], [-13.239609801804015, 13.417455956690361, 1.3793694662635647, -0.044680022899791116, -5.951949152802015, -6.322078786960031, 1.2710711538255388, -10.706525662445303, -10.246695215231755, -7.222017161261986, -3.3631851962565165, 16.988292779887217], [10.414600104256895, 2.316278653954891, -4.339228436800555, 6.475496029058096, -13.423608973649955, 9.384683133771174, 12.727560756540496, 5.515398279912971, -12.389376853577755, -19.16303331408178, 4.319868467992951, -0.24128402051097003], [-8.226033864975957, -7.738074902516115, -8.487006554633352, -2.929897097379213, -3.099966229057412, 37.40384642195658, -9.552811808952614, -1.883586063679448, 2.7187324333409033, 5.078442643478354, 7.134417118906054, 3.6386459986678825], [-7.491081856333155, 16.730305061518923, -6.5155744669670845, -11.66844234857548, 9.992584405020164, 8.865544876487151, -5.061832108490092, -10.565594443795433, -3.182360055716535, 5.485144059356879, -5.245520327110526, -14.248250374845602], [1.7550378165909777, 19.074398298133524, -17.942074561438567, -8.065370285608768, -5.6490459090177945, -14.878279576397409, 16.85811402344389, 1.3332318733517168, 7.12441435072686, -19.392302434143485, 31.85810596058935, 27.053908916184206], [-7.0099069248841905, -20.924380366360932, -1.0229088379875644, 6.51522480616403, -10.382926277602259, -10.024335086443191, 8.84091623008623, 2.751844763953402, 16.431100512949367, -27.75176105402101, -6.76613429760843, -7.851692473083849]], "weights_ho": [[-6.147432930456135, -10.791695147911302, 0.16762848710560624, -5.9142995964973855, 12.198563589526968, -23.441258658746662, 17.789448839543848, 27.722856903156753, 8.495896597917557, -7.495134240776936, -16.915952362069564, -0.8800966587517505, -6.1572419322327, 1.4139084013448797, 15.424256704560277, 3.34458882195821], [-3.4072336951209294, -0.9895039651868498, 7.365358417223167, -17.244302537794646, 19.24184474508384, -9.330948695054317, 5.578595268674732, -2.416037869323968, -8.969577376717693, 6.005417117142782, 16.13199227776187, -39.46484565716672, -4.231145782304029, 6.640194667499305, -21.40527163193297, -7.113339380736991], [2.5338918362235066, -8.103994710651815, -5.73625617401688, -5.280370340057441, -8.635894620323372, 10.546044932881701, -6.288660715089023, 3.598689029084866, 2.7931509636472596, 3.7288093788150682, 21.65731507708813, -3.912754646020862, 10.846274124445728, -22.307467524374132, -17.362904381789566, 9.850037666751918], [-2.4096981789082395, 31.6915764511575, -12.82571545783986, 10.394210672279364, -3.3714102187939803, -0.893033852526896, 12.108854865936861, -0.45915188085244685, 27.825851531837532, -25.27422279517508, 8.164583495136636, -10.66487031183954, -14.925430201400498, -8.066566041165448, -4.040241470834829, 17.10936617323062]], "bias_h": [[-8.855458023794899], [-6.982460099273206], [-12.130679206505674], [-18.91840427081266], [-2.5684396063303945], [4.827798467402785], [19.626434104555393], [18.746721620312027], [2.6141061101743066], [-1.4491184245159117], [-1.0004064380262223], [16.272417283076432], [9.540438474088852], [1.288267579420523], [14.384944018996931], [5.760261738438196]], "bias_o": [[-6.830941813599188], [-0.695537136958109], [-11.155351036529233], [-15.059288998736962]]}, {"input_nodes": 12, "hidden_nodes": 16, "output_nodes": 4, "weights_ih": [[1.4300984227009006, 5.897219950220963, -8.418122091724552, -4.0443087233868225, 6.36886994258106, -7.812227370773609, 10.21097727261647, -0.12649725666720846, 6.318059452130991, 0.059372626811459606, -5.347844151803745, -16.020217195687376], [-0.8184116814108529, -12.710189314334077, 6.2127422486091115, -4.152259176127663, 9.648652741851633, -4.224308964829802, 16.460803142994703, 8.426406475536606, 0.10712493128799783, -4.455964055684838, -7.6681963158312145, 15.629152880449158], [9.666681480468013, 4.983884311129097, -7.237356236699618, 8.050039922063647, -16.672753016034815, -9.753161261661178, 15.34388673898404, -12.23814735227604, 19.959190900507714, -4.314544513176076, 13.314330459933508, -3.2602545496983244], [0.7915535267585632, 25.064600710204555, -21.94138477155692, 4.542393701659282, -2.627631342913162, -6.126653030812891, -6.494177185064156, 5.440853339108985, 11.499843568088368, 0.5944099019972504, 2.6582139963481817, -19.975037873454866], [2.5084196723026646, -12.949879080435686, -2.7259755495940308, -10.926154303285529, -9.027866948388489, 16.29663385341076, 7.021336514566276, -8.870798183611083, -2.688840207599106, 10.820980974248615, 4.7333336930061884, 2.189643935470576], [-18.65930187098826, -2.4156297034409, 17.478752388954042, 1.5077793619036408, 3.2315323579440927, 19.953915401917733, 21.756630332341043, 3.3222496727755066, 0.9776509116398628, -23.183165021690886, -11.864064457521255, -16.61158922205989], [5.469737271954784, -0.5161588624966126, -14.80162207014217, 13.317941588874122, 5.0416113538470615, 6.178818679622495, 15.312278302491173, 17.115986953688285, 7.530023498142537, -4.6794092604860085, 7.3357641449551885, 5.780951403710404], [4.034773584117354, -1.5991371360450664, -11.219929865339394, -16.593493382619048, -8.087995250321491, 9.606785060526036, -4.195707636634718, 5.649515263617743, 17.95138470687036, -15.760374714862454, 16.34251092814702, -7.705380695530047], [1.0120469236375815, -22.808700144523627, -0.7487408037716468, 8.305986940774769, -10.913684771557335, -24.341048267551383, -4.1110436863821445, 15.339255671541533, 19.69944072979669, -19.044891195717582, -5.033420040687746, 0.009520236994116055], [4.973774093493123, 1.3429503468037312, 18.45766165394548, 5.086337832776168, 1.8837696481640318, 10.339495032063443, 5.710469768172949, -5.574559101767211, 26.689746287523896, -2.346718023870878, -10.238997249976311, 1.4913484161905306], [-13.14696961343486, 13.52990923695973, 1.5026895555376705, -0.22752421751636276, -5.854142141932436, -6.36272227161022, 1.4044060995030798, -10.655172173085836, -10.12083259245295, -7.285374911502833, -3.2629327718475527, 17.08360021566219], [10.214834635776766, 2.277557468428169, -4.091544861634365, 6.4843113643533705, -13.093110205417338, 9.202164771399602, 12.785187690118647, 5.3225344402989485, -12.513149639839897, -19.18714227204432, 4.2815508646508595, 0.07194201358139249], [-8.192486459849668, -7.880605438345249, -8.606136035499478, -2.866213385391503, -3.028278614485509, 37.29125883127358, -9.451598638697387, -1.897700150084443, 2.9063967101016397, 5.144005838018321, 7.133388268311867, 3.651135749977039], [-7.54291137850043, 16.62965027418672, -6.670151423226695, -11.94336256889318, 10.029730202468542, 8.642839834184944, -5.309547784219463, -10.532929950755484, -3.1854132116950513, 5.645692906678415, -5.415325699427044, -14.155470198431589], [1.6794912324924316, 19.155568364635464, -17.827695117397777, -8.057343768085797, -5.655653306935692, -14.802553033934224, 16.98197687482947, 1.2684506213147808, 7.216444983642021, -19.42513121791706, 31.76251648675616, 27.10609294466586], [-6.827543198131034, -21.03731491170401, -0.8314245318623956, 6.519206953592754, -10.325573117100603, -9.997249453291307, 8.601393437084832, 2.8372643786034675, 16.40772397298621, -27.81249805044057, -6.682908807268866, -7.589445689084542]], "weights_ho": [[-6.163456328198594, -10.533450344316535, -0.06996579952444232, -5.867936032468169, 12.117492547654585, -23.584685108129648, 17.76357513515045, 27.758689092454205, 8.431472658914812, -7.505822508635347, -16.925245975112897, -1.035856996360915, -6.139023964097058, 1.2444017738386806, 15.469051115649455, 3.3384723001185734], [-3.3786478182302035, -0.9895039651868498, 7.477535402169623, -17.201477401730635, 19.121369684715017, -9.473139351137652, 5.623120464970718, -2.418598302451068, -8.901268087015671, 6.066970006925617, 16.004642274981208, -39.60450431757829, -4.332219273980515, 6.605315071449822, -21.481639628341455, -7.2915506251347715], [2.664778942216114, -8.06725275166589, -5.625926805161795, -5.171571460806101, -8.625641431376328, 10.590524861696297, -6.163976067126479, 3.562595188870234, 2.934958158417772, 3.703056224284555, 21.929234936395986, -3.9124310594736396, 10.844233312079794, -22.321760666186297, -17.464371212872514, 9.82246128962398], [-2.545856839410933, 31.74369633632992, -12.871199306820259, 10.21857135542485, -3.3757985113851063, -1.0566079846937064, 12.040527105993995, -0.38390310611406, 27.762610024221807, -25.259218588359275, 8.098137884373633, -10.578445829011173, -14.834489281589644, -8.07554062955328, -4.152622666455946, 17.19967988433479]], "bias_h": [[-8.806939083829777], [-6.861243663404123], [-11.93892912233986], [-18.82247255872975], [-2.722519053128913], [4.713657344898023], [19.683836068926606], [18.71263265394088], [2.653668141467034], [-1.4294145010559438], [-0.8736340516478018], [16.26610336559894], [9.496158839437516], [1.3821336236824693], [14.092698871936289], [5.766357150880257]], "bias_o": [[-6.917345233113679], [-0.6673311335385586], [-11.087234353924282], [-15.211279997676073]]}, {"input_nodes": 12, "hidden_nodes": 16, "output_nodes": 4, "weights_ih": [[1.5590740764101931, 5.969026432417993, -8.464999295210424, -3.956582129766395, 6.420755485043877, -7.915096436771616, 9.957034485588949, -0.2394340287103009, 6.248438091588011, -0.24917445190147874, -5.261485242714934, -15.893027360704005], [-0.980820739259872, -12.656099446329812, 5.887927912108918, -4.226131096694497, 9.628694885811681, -4.042157347258831, 16.28297544056038, 8.379977972844827, 0.1958052028075307, -4.354897880319633, -7.718942420679038, 15.440287604924166], [9.939380206846918, 4.964241889788593, -7.049466224686425, 8.01209126449603, -16.584780734589888, -9.727169323416422, 15.310817006053986, -12.107054535650436, 19.939366339865217, -4.310165538341442, 13.314330459933508, -3.3347912881818775], [0.8415155482047664, 25.024678885041496, -21.918042990572083, 4.516197608295817, -2.6867997120901834, -6.110294758073922, -6.45178938780666, 5.43192915002623, 11.723277086989663, 0.598744247081083, 2.696654856180938, -19.648260414117455], [2.5658303516189953, -13.205647048699255, -2.46627250489787, -10.964623189092114, -9.010097941246553, 16.202964274447204, 7.0070797585536795, -8.88066456191081, -2.6151589724674587, 10.826918116671289, 4.604098686822184, 2.237572967864047], [-18.67602408123746, -2.3543305729409543, 17.431361003602152, 1.4783181582764515, 3.3404049550908477, 19.970310568813744, 21.8053516078407, 3.3250377460360636, 0.9396788122550703, -23.060060096497843, -11.735474941032157, -16.566625307626094], [5.5904283773071075, -0.5726198430106703, -14.814054146841723, 13.360742778852085, 5.106461329806341, 6.271886016378329, 15.504280485981877, 16.933181473116605, 7.778201471507129, -4.640508953717278, 7.278841933137571, 5.832316806627696], [3.9623816233428832, -1.7385796221335652, -11.322529339047176, -16.495196002799723, -7.891985708490642, 9.612810776037733, -4.306904853177098, 5.6356084972756815, 17.864106442000438, -15.798311209102323, 16.43366481708387, -7.780402957663886], [0.9665372615198387, -22.900632684512132, -0.7238080757095973, 8.050915765825007, -10.99802301645183, -24.388622146251627, -3.9363751936499796, 15.415649631086595, 19.730811254737986, -19.095138233120558, -5.019658627611756, 0.23734101872418123], [5.005213840315369, 1.2959927030535967, 18.377417344690862, 5.1603172202151555, 1.9761625259880256, 10.299452537929984, 5.594283531452396, -5.603528884823239, 26.872809102449512, -2.3693412602867405, -10.266823487751193, 1.4330935034352255], [-13.239609801804015, 13.529855118167609, 1.2110450490254665, -0.1551473419569695, -5.951949152802015, -6.34353854180605, 1.386833443376672, -10.706525662445303, -10.229408732337198, -7.138086079505155, -3.3631851962565165, 16.913810571739177], [10.306005955587477, 2.316278653954891, -4.067530055112821, 6.475496029058096, -13.350078909875597, 9.384683133771174, 12.599658800145823, 5.256255189171276, -12.334082259631549, -19.1869620881383, 4.319868467992951, -0.2444546197226236], [-8.3105290177665, -7.738074902516115, -8.608661308572458, -2.8777377903084274, -3.148163180338996, 37.32430542234666, -9.534920905275742, -2.034604953707668, 2.8372458832882326, 5.062081525310174, 7.21364388892526, 3.4849323667665764], [-7.491081856333155, 16.778563016499533, -6.4011644973898365, -11.88359070243747, 9.992584405020164, 8.753564896246283, -5.42126255392877, -10.565594443795433, -3.182360055716535, 5.485144059356879, -5.401061084525805, -14.210181285617177], [1.5515430475142833, 19.120578106067704, -17.942074561438567, -8.330192685027141, -5.6490459090177945, -14.887612452164317, 16.86551000364575, 1.3332318733517168, 7.082912923303574, -19.33534714382294, 31.69032149497896, 27.172720904029404], [-7.0749440256042515, -20.871957676086744, -0.7754477905288317, 6.51522480616403, -10.349286006153067, -10.112880685298165, 8.767268602774239, 2.751844763953402, 16.50616603233886, -27.75176105402101, -6.76613429760843, -7.54865943823613]], "weights_ho": [[-6.405932361107694, -10.807338463717935, 0.29347474220586955, -5.818718920201937, 12.199637915908479, -23.441258658746662, 17.789448839543848, 27.722856903156753, 8.495896597917557, -7.462783197589285, -16.955692308147075, -1.0117869465875964, -6.1572419322327, 1.2621829715041533, 15.57000898357408, 3.34458882195821], [-3.4072336951209294, -0.7940117494729666, 7.438981899642213, -17.212990207236025, 19.24184474508384, -9.330948695054317, 5.499289872464096, -2.4177064812367832, -8.969577376717693, 5.958081453385045, 16.125648226662985, -39.517282564430815, -4.231145782304029, 6.579081214762546, -21.475919666086384, -7.187452614342849], [2.5338918362235066, -8.162684809600448, -5.73625617401688, -5.158465641486183, -8.603027908181609, 10.637451165356277, -6.200608399163204, 3.598689029084866, 2.9365811568941043, 3.6043529615741243, 21.863036659330817, -3.8585586363371287, 10.745913734784553, -22.307467524374132, -17.381257129789205, 9.750649126092059], [-2.3608362027409378, 31.81021594951853, -12.910696963852752, 10.30002910708896, -3.2835072628488637, -0.893033852526896, 11.999753903001846, -0.366621537830926, 27.825851531837532, -25.249285482183623, 8.05696516455719, -10.66487031183954, -14.938160235804242, -8.066566041165448, -4.033892020940545, 17.06494683615479]], "bias_h": [[-9.002744237584388], [-7.048267148486329], [-12.160776420215843], [-18.53499498164824], [-2.6730308797701543], [5.007220643492553], [19.60604383951294], [19.000216342282297], [2.663696014475735], [-1.4563993592656237], [-1.0004064380262223], [16.355641415144497], [9.525217650503492], [1.288267579420523], [14.316292074710113], [5.760261738438196]], "bias_o": [[-6.777618936432957], [-0.7807976360107415], [-11.359264392376518], [-15.256468934647328]]}, {"input_nodes": 12, "hidden_nodes": 16, "output_nodes": 4, "weights_ih": [[1.6839126076403594, 5.969026432417993, -8.464999295210424, -3.892611122948104, 6.448212145993888, -7.859490412113887, 10.121055643730195, -0.2394340287103009, 6.250449485764604, -0.25351569109154115, -5.261485242714934, -15.893027360704005], [-0.980820739259872, -12.68064971251287, 6.0195873278398055, -3.9950824977569743, 9.845841913963552, -4.077300288880853, 16.457393863640505, 8.379977972844827, 0.20124771844557937, -4.250952142496084, -7.77971630416905, 15.462112971178165], [9.742496884249048, 4.793228243067025, -6.970696115471367, 8.01209126449603, -16.699412161504213, -9.833660752081036, 15.384198294311249, -12.100821263264722, 19.939366339865217, -4.202431213047513, 13.314330459933508, -3.3318098041214483], [0.7675037426325769, 25.208118293804613, -21.835831636352335, 4.53596410404893, -2.630549403332721, -6.175073068106721, -6.450565578503619, 5.584956753785797, 11.723277086989663, 0.5762596202641587, 2.650296967587555, -19.648260414117455], [2.5658303516189953, -13.072136468093614, -2.46627250489787, -10.964623189092114, -8.935121243859156, 16.218656989080955, 7.0070797585536795, -8.88066456191081, -2.6151589724674587, 10.76107419078985, 4.604098686822184, 2.1941815180600077], [-18.655313245022256, -2.3543305729409543, 17.516977234223127, 1.4525859927145404, 3.3404049550908477, 19.970310568813744, 21.64912186311331, 3.283678995457726, 0.9396788122550703, -23.24209636726174, -11.838774814950803, -16.453502555998437], [5.455570316847265, -0.5726198430106703, -14.733496498810629, 13.360742778852085, 5.037954739123401, 6.044087306682131, 15.567838388020881, 16.933181473116605, 7.441984305033889, -4.542308726530842, 7.270157753905738, 5.832316806627696], [3.8744172470464817, -1.7385796221335652, -11.322529339047176, -16.48640851531973, -7.891985708490642, 9.719129501082579, -4.306904853177098, 5.632842825119262, 18.02355996456359, -15.798311209102323, 16.43366481708387, -7.890160132488297], [1.0391266169742803, -22.834298926678166, -0.7238080757095973, 7.9390858820940595, -10.99802301645183, -24.388622146251627, -4.1576143828930725, 15.339589713758993, 19.730811254737986, -19.155265598598092, -4.99930740918873, 0.14419974114521844], [4.902972236627727, 1.2959927030535967, 18.37675408714184, 5.130430729277104, 1.7769989526621641, 10.402936251718202, 5.594283531452396, -5.603528884823239, 26.872809102449512, -2.458923938349172, -10.266823487751193, 1.4330935034352255], [-13.352189052883924, 13.537625580241873, 1.3031436587212315, -0.09948159571647334, -5.951949152802015, -6.322078786960031, 1.3194710390801798, -10.706525662445303, -10.229408732337198, -7.115755554751923, -3.2359686821925235, 16.988292779887217], [10.351354796255762, 2.316278653954891, -4.15051549206835, 6.475496029058096, -13.350078909875597, 9.384683133771174, 12.620023312434418, 5.49504029277066, -12.418468320615354, -19.15990535701627, 4.319868467992951, -0.26661663102246513], [-8.226033864975957, -7.738074902516115, -8.70305148326625, -2.8777377903084274, -3.029228455277241, 37.40384642195658, -9.492252739261806, -1.915122802477109, 2.8372458832882326, 5.034367505459288, 7.134417118906054, 3.8051958091455385], [-7.520591192411883, 16.683815668950484, -6.548108915261337, -11.737313512977902, 10.15097536162593, 8.672292339088672, -5.183929422038494, -10.565594443795433, -3.216081061946603, 5.586416870324679, -5.401061084525805, -14.181969723054225], [1.7738736480362807, 19.120578106067704, -17.942074561438567, -8.065370285608768, -5.673695710370593, -14.805412880077775, 16.925473566692585, 1.3332318733517168, 7.082912923303574, -19.603193896416546, 31.780599323464994, 26.973859497360685], [-6.986821858663202, -20.74381293574508, -0.7830544248383654, 6.4296018697361035, -10.340121280856094, -10.01134545439613, 8.656706439216439, 2.751844763953402, 16.47291704445168, -27.55961790404676, -6.76613429760843, -7.598726804212401]], "weights_ho": [[-6.07108082607935, -10.916910551407547, 0.17678732796456467, -5.818718920201937, 12.22384642197918, -23.39894584653556, 17.906866790780924, 27.722856903156753, 8.495896597917557, -7.495134240776936, -16.915952362069564, -0.8800966587517505, -6.243572971021711, 1.2147958674732078, 15.418643208803198, 3.427975394383376], [-3.4072336951209294, -1.2276107714498823, 7.379377627914043, -17.212990207236025, 19.149014218076267, -9.425357948668712, 5.621089111157689, -2.416037869323968, -8.986535276486482, 5.931336896872629, 16.228833438469284, -39.59633696203527, -4.231145782304029, 6.579081214762546, -21.668048970525327, -7.107615725198401], [2.51034567395872, -8.199630421888482, -5.773685118968501, -5.291775203212816, -8.603027908181609, 10.59393412435249, -6.298442844115306, 3.598689029084866, 2.841750103058585, 3.7288093788150682, 21.80838316340108, -4.0193801051629015, 10.77965061343501, -22.420245802396657, -17.38598240031969, 9.806110557080897], [-2.456180734160733, 31.819831758751885, -12.910696963852752, 10.146280925459884, -3.3714102187939803, -0.796257717175053, 12.021458661854464, -0.366621537830926, 27.788339667338573, -25.27422279517508, 8.086109967377226, -10.68221657605279, -14.925430201400498, -8.066566041165448, -4.033892020940545, 17.10936617323062]], "bias_h": [[-8.933244453628443], [-6.961938075879665], [-12.02575193185349], [-18.828856438165836], [-2.6730308797701543], [4.880679157402114], [19.60604383951294], [18.639667824304354], [2.6983003975555717], [-1.4491184245159117], [-1.0004064380262223], [16.430405499534167], [9.5320965016358], [1.2779919760027714], [14.316292074710113], [5.760261738438196]], "bias_o": [[-6.757541454687573], [-0.866436864162069], [-11.204175244900473], [-15.228389835147807]]}, {"input_nodes": 12, "hidden_nodes": 16, "output_nodes": 4, "weights_ih": [[1.5047035062439813, 6.032224806815436, -8.335075459553542, -3.9784986234637136, 6.399563347242746, -7.812227370773609, 10.249394186197048, -0.18952616324143962, 6.244237898191123, -0.09162743688736336, -5.2716498179536195, -16.020217195687376], [-0.8324679755820493, -12.710189314334077, 5.924680224135466, -4.17279567676565, 9.684777552126683, -4.2085715574073586, 16.441967907483125, 8.595305011843452, 0.4685182745776319, -4.38965721666699, -7.63701052082492, 15.561727827884726], [9.769309496417428, 4.983884311129097, -7.124164188677446, 7.844696049952506, -16.541449674391252, -9.809306228980908, 15.34388673898404, -12.244541615479843, 19.959190900507714, -4.218899437616047, 13.314330459933508, -3.1341720824622255], [0.7112304132925849, 25.155591554599233, -22.018478799957002, 4.570459096670421, -2.696714829676609, -6.198480718515741, -6.363304586586817, 5.440853339108985, 11.535404417096572, 0.5944099019972504, 2.658457918990955, -19.876138413486895], [2.5084196723026646, -13.092625103929368, -2.5258457425389462, -10.926154303285529, -8.979274863199631, 16.433907483914016, 6.883393214435223, -9.03555261634494, -2.7242174437923583, 10.666681877419933, 4.635636962979184, 2.189643935470576], [-18.5384069277952, -2.280147533914692, 17.383952907315994, 1.5173995407557805, 3.4338264757975443, 19.76154108523422, 21.61398732878588, 3.2582001294285257, 0.9355813504617643, -23.15504267625619, -11.924668081554865, -16.6173078739998], [5.578668692927036, -0.5056377522801193, -14.80162207014217, 13.507131071097257, 4.9719412835127965, 6.178818679622495, 15.471087892352333, 16.819788165610145, 7.352198226227927, -4.6794092604860085, 7.383643239216518, 5.778363409921685], [4.143862843824482, -1.504847381058268, -11.219929865339394, -16.674661867523934, -7.956521894211383, 9.671165177089913, -4.195707636634718, 5.733910419721646, 18.02451120165714, -15.79811864138445, 16.34251092814702, -7.945191325405364], [0.9927781190374775, -22.808700144523627, -0.7487408037716468, 8.148045599081836, -10.957482352480945, -24.341048267551383, -4.13058379767333, 15.451126453899338, 19.751285868926658, -19.10088803680822, -4.88856689603277, 0.12835530553301414], [4.727044356130042, 1.3292787601820595, 18.511859343313724, 5.086337832776168, 1.948084284870728, 10.363071076991972, 5.6649660299622795, -5.3786672138682325, 26.822653766446017, -2.440557323153493, -10.245186642120842, 1.395797297374131], [-13.151998780801968, 13.422283119073088, 1.3927940532645764, -0.22752421751636276, -5.930280028026985, -6.298644870253304, 1.4044060995030798, -10.655172173085836, -10.077698426255134, -7.27418617677662, -3.275888301694843, 17.020709923319874], [10.266736416324363, 2.2657271469165825, -4.118439457970732, 6.4843113643533705, -13.276323216273987, 9.088473656837406, 12.768280264446028, 5.3225344402989485, -12.405571323861142, -19.200432169317295, 4.31995961384882, -0.294335649532382], [-8.256059534408797, -7.880605438345249, -8.606136035499478, -2.866213385391503, -3.1916962101456208, 37.29125883127358, -9.470694187998292, -1.9442606796960509, 2.7837007188622405, 5.144005838018321, 7.229342872112511, 3.6143085662390275], [-7.464473615295907, 16.67728714922128, -6.526811018586587, -11.73981186543039, 10.067727861594408, 8.675229285782809, -5.229195429918054, -10.687526240074675, -3.1854132116950513, 5.492273799503048, -5.24433422590642, -14.146325205635996], [1.593286150577263, 19.155568364635464, -17.970822186799204, -8.057343768085797, -5.5516347256810405, -14.75437173037469, 17.028014527361304, 1.3661025793750619, 7.185515468601755, -19.297899870832783, 31.516401149830678, 27.101125559454037], [-7.1245229895549445, -21.03731491170401, -0.8314245318623956, 6.464382443469564, -10.325573117100603, -9.851720418309649, 8.601393437084832, 2.8372643786034675, 16.430553374527886, -27.730790127768213, -6.682908807268866, -7.68227712876804]], "weights_ho": [[-6.086853149382698, -10.71736522958784, 0.07892485348198885, -5.867936032468169, 12.229816575610267, -23.360264254016883, 17.719313588503407, 27.721726186151997, 8.42545090443133, -7.496705238696926, -17.029707141753505, -1.0142270769594492, -6.139023964097058, 1.2791673871806768, 15.33276885763411, 3.2306701369708057], [-3.3786478182302035, -1.009002089335548, 7.509727583790227, -17.201477401730635, 19.29348693780751, -9.347945273695531, 5.756297436580776, -2.5007199686964876, -8.924746594670323, 6.066970006925617, 16.09025743292203, -39.62699535638773, -4.295923298769098, 6.580429099760353, -21.481639628341455, -7.075050044570347], [2.664778942216114, -8.207787746362833, -5.667301360668532, -5.202734799694717, -8.606679826731622, 10.557636385395234, -6.133093356648687, 3.562595188870234, 2.934958158417772, 3.714643269906322, 21.881452156817492, -3.930014926996879, 11.01348955889464, -22.318003658642887, -17.448561182965747, 9.958017130282323], [-2.388665449309535, 31.74369633632992, -12.913875068398022, 10.22903283578625, -3.3757985113851063, -0.9836712025852392, 12.073278703855221, -0.4986455579034108, 27.641044788294256, -25.259218588359275, 8.098137884373633, -10.578445829011173, -14.834489281589644, -8.027823259698865, -4.152622666455946, 17.194928592081947]], "bias_h": [[-8.90882453320004], [-6.861243663404123], [-11.93892912233986], [-18.82247255872975], [-2.578794036738319], [5.059887251438332], [19.588359239176263], [18.71660950070411], [2.599312015070624], [-1.4342691959091978], [-0.8736340516478018], [16.3171839404536], [9.643438796251036], [1.3494565907431373], [14.326863711852225], [5.725537313462512]], "bias_o": [[-6.917345233113679], [-0.6673311335385586], [-11.156325611749153], [-15.211279997676073]]}, {"input_nodes": 12, "hidden_nodes": 16, "output_nodes": 4, "weights_ih": [[1.6102784687647178, 5.969026432417993, -8.336560168941006, -3.956582129766395, 6.405515248094668, -7.836226577421762, 9.981324642197546, -0.2394340287103009, 6.25312061645512, -0.3318040283260129, -5.261485242714934, -15.899120150598442], [-1.0553291330712173, -12.697430038005546, 6.0195873278398055, -4.099205177854679, 9.666062125550916, -4.165629083385254, 16.457393863640505, 8.379977972844827, 0.23536479552104775, -4.325668421809421, -7.709261074713257, 15.48167426938682], [9.742496884249048, 4.99780335484869, -7.036913775823326, 8.01209126449603, -16.584780734589888, -9.64874462016502, 15.42654446738398, -12.107054535650436, 19.939366339865217, -4.310165538341442, 13.314330459933508, -3.3318098041214483], [0.7307139676348006, 25.243614019856825, -21.998764885680988, 4.516961521784615, -2.6656638230075864, -6.340869161517011, -6.450565578503619, 5.4323797316904505, 11.572054265776044, 0.389422317453184, 2.650296967587555, -19.648260414117455], [2.5658303516189953, -13.07978909573964, -2.658536208699594, -10.860077908445485, -8.896685036110576, 16.218656989080955, 7.0070797585536795, -8.940761526323884, -2.6151589724674587, 10.826918116671289, 4.641220265489402, 2.3230015799994503], [-18.72591229564193, -2.3543305729409543, 17.516977234223127, 1.6291522439912238, 3.303215522136677, 19.874890957700554, 21.64912186311331, 3.3250377460360636, 0.8050676688070093, -23.114049123416386, -11.838774814950803, -16.65940537665543], [5.534077136658182, -0.5726198430106703, -14.712988706453062, 13.240970406275473, 5.037954739123401, 6.438303145014999, 15.504280485981877, 16.933181473116605, 7.538331000440653, -4.640508953717278, 7.278841933137571, 5.832316806627696], [3.9323861900049724, -1.8789535222929288, -11.322529339047176, -16.48640851531973, -7.891985708490642, 9.620262984366281, -4.306904853177098, 5.718918886555645, 18.02355996456359, -15.798311209102323, 16.283909623953853, -8.028168003073576], [1.077989053067074, -22.817137609520007, -0.7302742459428125, 8.076491628055477, -10.99802301645183, -24.425030694870852, -4.0963378588385275, 15.339589713758993, 19.730811254737986, -19.26830158743228, -4.99930740918873, 0.14419974114521844], [4.874273806034078, 1.2959927030535967, 18.567844510182322, 5.097093730872247, 1.9206996353988672, 10.453146490741227, 5.603812382818027, -5.437751416219945, 26.882737744396746, -2.3832756526987358, -10.266823487751193, 1.334209081282106], [-13.332334163753147, 13.559868113646585, 1.3031436587212315, -0.1551473419569695, -5.951949152802015, -6.138553719786864, 1.386833443376672, -10.490254753891183, -10.229408732337198, -7.345451231601545, -3.3795090741510627, 16.988292779887217], [10.221240323839835, 2.281535355199808, -4.15051549206835, 6.602012592392062, -13.258289104053011, 9.343128695930988, 12.727560756540496, 5.338030545584064, -12.354613712225897, -19.123692097616928, 4.257395618245534, -0.2881264714322332], [-8.23523376186521, -7.738074902516115, -8.634077684025513, -2.9365080755878226, -3.1210798064734786, 37.33339526192885, -9.534920905275742, -1.9194953221123219, 2.8372458832882326, 5.137865408788764, 7.231326193737655, 3.629313062668715], [-7.499986368612494, 16.683815668950484, -6.5155744669670845, -11.99360829725406, 9.992584405020164, 8.623887704850112, -5.178639683368488, -10.565594443795433, -3.130111423894795, 5.485144059356879, -5.401061084525805, -14.17849489026517], [1.3863276602228418, 19.300622607696766, -18.011400806631787, -8.1057640471242, -5.6490459090177945, -14.805412880077775, 16.98824321643791, 1.2939198125945621, 7.082912923303574, -19.18034581393996, 31.782820018645854, 26.96599510910591], [-7.026889519752247, -20.924380366360932, -0.8061804334964985, 6.431540274670718, -10.340121280856094, -10.01134545439613, 8.569264974906336, 2.751844763953402, 16.52704053001924, -27.75176105402101, -6.617511083548687, -7.598726804212401]], "weights_ho": [[-6.0527846263622305, -10.760099428076838, 0.07421755274681788, -5.543496042850531, 12.198563589526968, -23.441258658746662, 17.740814525317738, 27.722856903156753, 8.495896597917557, -7.495134240776936, -16.915952362069564, -0.7634938563670327, -6.1572419322327, 1.2621829715041533, 15.698780035682706, 3.34458882195821], [-3.4072336951209294, -0.9895039651868498, 7.438981899642213, -17.275507636622, 19.142932641251456, -9.330948695054317, 5.5898201151273526, -2.416037869323968, -9.032567412556867, 5.881474671893827, 16.125648226662985, -39.517282564430815, -4.094603262487516, 6.706848132274665, -21.629266100749724, -7.136303715240136], [2.5338918362235066, -7.951919986998146, -5.73625617401688, -5.214633269398511, -8.661485973034866, 10.62895933998293, -6.10564824894969, 3.517388777259228, 2.896606862673174, 3.7288093788150682, 21.847458067474964, -3.9406297477319496, 10.970460140715742, -22.381623442585923, -17.385501890123198, 9.806110557080897], [-2.456180734160733, 31.81021594951853, -12.910696963852752, 10.30002910708896, -3.258909275661746, -1.0016487255955, 11.939271282871625, -0.418250574542047, 27.825851531837532, -25.337969660259496, 8.147115209391085, -10.759792553953561, -14.851745394784196, -8.066566041165448, -4.1087657160750135, 17.10936617323062]], "bias_h": [[-9.026026180390165], [-6.961938075879665], [-12.02575193185349], [-18.828856438165836], [-2.6188800960616563], [4.961558279357368], [19.60604383951294], [18.814165804239476], [2.7683204249773032], [-1.5241635694084523], [-0.8877269037697599], [16.355641415144497], [9.5320965016358], [1.288267579420523], [14.316292074710113], [5.760261738438196]], "bias_o": [[-6.830941813599188], [-0.7177966531166505], [-11.155351036529233], [-15.228389835147807]]}, {"input_nodes": 12, "hidden_nodes": 16, "output_nodes": 4, "weights_ih": [[1.4462708769616686, 5.600470363366086, -8.371244888238682, -4.000415117161032, 6.587247632032969, -7.713867422640736, 10.360789337955731, -0.2144650523713288, 6.248693051649221, 0.06591957812675202, -5.281814393192306, -16.10536202457088], [-0.6565672229244941, -12.72294859066261, 6.108066041974816, -4.295385288958807, 9.715153067937816, -4.197145088486299, 16.3612345959167, 8.528253695544777, 0.20076015515353968, -4.424416553014346, -7.6142105941498155, 15.724461477520684], [9.567772405342248, 5.195739454976698, -7.198862152668466, 8.087988579631263, -16.49811861419262, -9.779153199905934, 15.344930816435516, -12.369240168901642, 20.013497850520874, -4.339794449801448, 13.1572342389322, -3.1624192751022244], [0.6549570839525929, 25.10306481539385, -21.884004657432854, 4.568589795022747, -2.568462973736141, -6.386733117680169, -6.276043594670014, 5.478016170654889, 11.479747894381791, 0.5896379393633101, 2.7417031779783714, -19.917984755910982], [2.451008992986334, -13.012781542610615, -2.5854189801800223, -10.887685417478945, -9.045635955530425, 16.37461071774057, 7.042440031287055, -8.975847084841341, -2.866225525894962, 10.655412607908985, 4.694115130897413, 2.141714903077105], [-18.66329049695426, -2.2317878333202477, 17.44052754368496, 1.26978872957596, 3.371599836565571, 19.937520235021726, 21.63500492649085, 3.3194615995149492, 0.9064906787575409, -22.983429193899127, -11.889354100091708, -16.55307074814881], [5.566909008546965, -0.45969788198255485, -14.696630731058638, 13.292870079758798, 4.990355998555469, 6.085751342866661, 15.53026173146512, 16.994820400108892, 7.592019011747761, -4.506820166451772, 7.488444545295466, 5.783408408344753], [4.253115512930139, -1.4774701659122393, -11.130669989667899, -16.721601924505716, -8.021058079932123, 9.593307136685793, -4.084510420092338, 5.58011164067984, 17.955824311455444, -15.851041264917322, 16.165951359321316, -8.011925553111714], [0.967935586681716, -23.033446820590243, -0.7653969922255868, 8.219599570108194, -10.961349348873004, -24.17965438955795, -4.234981116448928, 15.338921629324073, 19.7567267523093, -18.945914095448703, -5.067532672186763, 0.13093271627156283], [4.849436410132821, 1.3899079905538654, 18.60268851784734, 5.09920872239232, 1.884063835994385, 10.101218071556728, 6.053713975508573, -5.370599442174857, 26.723631825412987, -2.3101603950430194, -10.245571320927649, 1.4504199358750234], [-13.064387759799919, 13.349045348927216, 1.7120397458845236, -0.28041915315293486, -5.908610903251955, -6.40336575626041, 1.4219787556294878, -10.514175788217901, -10.012256452568703, -7.3487326617436795, -3.2562298885230376, 17.05312706675253], [10.142222990258697, 2.2087655674362665, -4.031661829412629, 6.492282405406468, -13.202567522672377, 9.018775179788344, 12.8428146236968, 5.307038335013832, -12.53216999518941, -19.04116654763839, 4.269306981320246, -0.24002622649031308], [-8.311197532245181, -8.08527626901713, -8.735900896661365, -2.8546889804745783, -3.1480163274540103, 37.3297935534557, -9.51870247952496, -1.909313195864856, 3.135444911621845, 5.15353000158595, 7.012206750619565, 3.663625501286196], [-7.437865374258658, 16.670758629492074, -6.538047570206089, -12.129856738653174, 10.142871318168652, 8.441971318877075, -5.221561380318748, -10.237242944985622, -3.1884663676735676, 5.657587040751885, -5.429590314328282, -14.062690022017575], [1.4701795844678105, 19.19055862320322, -17.99956981215984, -7.9292737173392895, -5.7286660773199625, -14.781561319460565, 17.078595485997763, 1.3989732853984072, 6.967174547336043, -19.340335742872373, 31.52671898179643, 27.15827697314751], [-7.001708257249193, -21.137708467262772, -0.6693572417707381, 6.510993382702025, -10.311024953345113, -10.00101955369373, 8.546080434953225, 2.922683993253533, 16.501449867114253, -27.709819201515415, -6.519389340117957, -7.6641584383142405]], "weights_ho": [[-6.032353557914211, -10.640759483999778, 0.02244238289663744, -6.089266046934109, 12.335040077106253, -23.46981492620002, 17.69939588713605, 27.641844718206872, 8.355005210945102, -7.614566572090708, -17.30120268130486, -1.2949563314455728, -6.127908281819172, 1.1911399105402258, 15.321729291263326, 3.332355778278937], [-3.350061941339478, -0.9895039651868498, 7.580473267938239, -17.227913286168526, 19.23368241578912, -9.419319882788354, 5.75388225409497, -2.4211587355781683, -8.917433512843294, 6.17585856046619, 16.292878032182347, -39.691726070725764, -4.423622957114481, 6.5006030354522615, -21.532107809288426, -7.018115496776213], [2.8406095257418564, -8.253042183080684, -5.758195398941279, -5.166760501908062, -8.650521622964686, 10.569227837908766, -6.105002030304357, 3.5265013486556027, 3.0281662137769594, 3.522757796184637, 21.958553903280546, -3.9272260521441176, 10.835506934750954, -22.32853979291164, -17.542760025425338, 10.10992370348375], [-2.231886523031405, 31.646908620067215, -13.073651027644948, 10.066279901902657, -3.355171821830094, -1.0743085526435823, 12.097792791101222, -0.4011846743971939, 27.628173640711225, -25.244214381543472, 8.03169227361063, -10.492021346182804, -14.839140719875873, -7.989080478232282, -4.271353311971345, 17.137882703844916]], "bias_h": [[-8.759456962038437], [-6.952793041553244], [-11.85210631282623], [-18.56580471757759], [-2.3569796509368137], [4.960318866769638], [19.767913993549502], [18.566955316619246], [2.619802822616859], [-1.409710577595976], [-0.6092633951487065], [16.278726465762702], [9.490746051096819], [1.4106456020657516], [14.358099580667979], [5.772452563322319]], "bias_o": [[-6.949299756625634], [-0.4910990197492574], [-11.170860779359925], [-15.19417016020434]]}, {"input_nodes": 12, "hidden_nodes": 16, "output_nodes": 4, "weights_ih": [[1.4534952271326445, 5.897219950220963, -8.377805091980369, -4.1055505458455395, 6.465265515548142, -8.127026001715976, 10.273313265542113, -0.18952616324143962, 6.068683045314203, -0.09162743688736336, -5.2716498179536195, -16.020217195687376], [-0.8011341477140029, -12.710189314334077, 6.029616551411193, -4.152259176127663, 9.751810310512617, -4.250776974182768, 16.4093142297786, 8.454115834194802, 0.3405066140662138, -4.38965721666699, -7.655041930727623, 15.561727827884726], [9.769309496417428, 5.059986324050166, -7.124164188677446, 7.949822117048579, -16.541449674391252, -9.753161261661178, 15.423716970356166, -12.23814735227604, 19.959190900507714, -4.472090607216978, 13.314330459933508, -3.2760950957065544], [0.870791445805972, 25.155591554599233, -21.94138477155692, 4.420404232674395, -2.627631342913162, -5.983574871427118, -6.363304586586817, 5.440853339108985, 11.562258792503785, 0.47553017873537706, 2.687683216744893, -19.796986822301122], [2.5084196723026646, -12.940843266590809, -2.498125827745574, -10.926154303285529, -9.027866948388489, 16.215003755476808, 7.029086004402481, -8.928255823376077, -2.7242174437923583, 10.591331541706989, 4.6423508571386, 2.177276437133681], [-18.65930187098826, -2.284727245254864, 17.595077086423668, 1.5077793619036408, 3.4338264757975443, 19.833538205477616, 21.57974892951061, 3.3222496727755066, 0.9355813504617643, -23.15504267625619, -11.876803788814309, -16.575666962875687], [5.578668692927036, -0.5598778711888829, -14.80162207014217, 13.293739275525812, 5.0416113538470615, 6.178818679622495, 15.637503443064254, 16.96400093661275, 7.597216547471433, -4.6794092604860085, 7.383643239216518, 5.778363409921685], [4.034773584117354, -1.5991371360450664, -11.219929865339394, -16.707728856149515, -7.956521894211383, 9.533168089932085, -4.2664393066774124, 5.649515263617743, 17.976671118935723, -15.81390039684292, 16.271752239444517, -7.685537149568863], [0.9927781190374775, -22.808700144523627, -0.769511646724844, 8.148045599081836, -10.979686182662416, -24.341048267551383, -4.1110436863821445, 15.443312604981886, 19.69944072979669, -19.10088803680822, -4.998452576832931, 0.12835530553301414], [5.117744575895012, 1.3429503468037312, 18.5007128565869, 5.086337832776168, 1.9203402566332477, 10.280901936560635, 5.886968228653958, -5.364514034008228, 26.822653766446017, -2.3956990569098755, -10.22502461264648, 1.4417567196551244], [-12.946740939364073, 13.44698547329681, 1.5075917023028775, -0.22752421751636276, -5.7847244280596355, -6.36272227161022, 1.4715278868277617, -10.655172173085836, -10.178080815007117, -7.151369241871132, -3.2116583440652775, 17.020709923319874], [10.450287932192575, 2.2466781744624256, -4.091088660740489, 6.351967174273139, -13.285372589760156, 9.212940409763048, 12.785187690118647, 5.340948481143867, -12.494490292714646, -19.035996283582936, 4.369585617985421, -0.2093175671730467], [-8.192486459849668, -7.783023658629982, -8.689147730224326, -2.776378239888457, -3.1345480669637444, 37.27766370661505, -9.451598638697387, -1.9442606796960509, 2.938019746286306, 5.2889629122133615, 7.133388268311867, 3.6666143064005823], [-7.464473615295907, 16.76414351060199, -6.526811018586587, -11.933585125815538, 10.02872990995446, 8.715010599316122, -5.350342260612987, -10.532929950755484, -3.1854132116950513, 5.577767943717605, -5.415325699427044, -14.155470198431589], [1.5520499201144458, 19.155568364635464, -17.993770325388834, -8.274789508126945, -5.655653306935692, -14.79348709976917, 16.980115892931842, 1.3661025793750619, 7.005363054501474, -19.36631908850793, 31.696809637411317, 27.26282836656332], [-7.01429888850072, -20.921543268378226, -0.8314245318623956, 6.464382443469564, -10.376252391599277, -9.997249453291307, 8.601393437084832, 2.798970755849984, 16.542513579975143, -27.582581520344533, -6.682908807268866, -7.443102168284928]], "weights_ho": [[-6.188796671934749, -10.71736522958784, 0.16107130031254385, -5.867936032468169, 12.18345260575838, -23.45553679247334, 17.793611992180978, 27.721726186151997, 8.42545090443133, -7.505822508635347, -17.029707141753505, -1.0279173686699399, -6.139023964097058, 1.2444017738386806, 15.469051115649455, 3.315626870861652], [-3.3786478182302035, -1.0048395860953063, 7.509727583790227, -17.201477401730635, 19.29348693780751, -9.375134288921336, 5.687485682626329, -2.418598302451068, -8.924746594670323, 5.997564948117961, 16.209263129422666, -39.53164654983118, -4.295923298769098, 6.566603416055317, -21.481639628341455, -7.126695051773744], [2.5143900909973644, -8.17851844686625, -5.7472257864790794, -5.270968583017011, -8.625641431376328, 10.559119702527527, -6.199246416525354, 3.562595188870234, 2.934958158417772, 3.643006887262969, 21.867302307387455, -3.930014926996879, 10.981252847889037, -22.310056526315822, -17.464371212872514, 9.958017130282323], [-2.222199690184547, 31.74369633632992, -12.978175217921867, 10.364389386432906, -3.3757985113851063, -0.9836712025852392, 12.074225808300152, -0.38390310611406, 27.929967340158736, -25.259218588359275, 8.232341093986754, -10.578445829011173, -14.819554645478808, -8.027823259698865, -4.152622666455946, 17.123624438537767]], "bias_h": [[-8.867421224568746], [-6.827406156673014], [-11.920042347096823], [-18.83316960537419], [-2.475504323318978], [4.930996424284104], [19.683836068926606], [18.71660950070411], [2.7013960926151683], [-1.4294145010559438], [-0.8736340516478018], [16.3171839404536], [9.546032304083807], [1.3494565907431373], [14.325419462913345], [5.766357150880257]], "bias_o": [[-6.923260212282428], [-0.701304199316845], [-11.224383592306161], [-15.227399699901953]]}, {"input_nodes": 12, "hidden_nodes": 16, "output_nodes": 4, "weights_ih": [[1.5047035062439813, 5.775455407475601, -8.363688076337386, -3.9784986234637136, 6.637988031681889, -7.812227370773609, 10.21097727261647, -0.18952616324143962, 6.276388872291619, -0.30808612985325456, -5.266448606348084, -16.020217195687376], [-0.8342777226608813, -12.710189314334077, 6.029616551411193, -4.112246812387595, 9.62548317504066, -4.1890313165668305, 16.4093142297786, 8.454115834194802, 0.16742803863997746, -4.38965721666699, -7.655041930727623, 15.561727827884726], [9.685362427484835, 4.983884311129097, -7.028261083887569, 8.025139167156587, -16.539647408046566, -9.753161261661178, 15.233403740752676, -12.098602054192684, 19.959190900507714, -4.195045590209137, 13.234326321164176, -3.279632726714946], [0.5750988861187956, 25.155591554599233, -21.8127306300627, 4.3733605091524765, -2.711281674785183, -6.181615552655543, -6.363304586586817, 5.440853339108985, 11.642342542509837, 0.630284789588466, 2.544180556207872, -19.796986822301122], [2.5084196723026646, -13.119455425368482, -2.4489007541601646, -10.910097315904704, -9.312517626926121, 16.371480550721127, 7.037191866603149, -8.897875965000665, -2.7242174437923583, 10.666681877419933, 4.635636962979184, 2.189643935470576], [-18.65930187098826, -2.3683154633761583, 17.478752388954042, 1.600259343702107, 3.519980168269114, 19.94452824430042, 21.64206339480208, 3.2969430629833045, 0.949720349168088, -23.04934590230237, -11.864064457521255, -16.575666962875687], [5.658989434360004, -0.5161588624966126, -14.765848360015715, 13.317941588874122, 5.026944307400473, 6.178818679622495, 15.517271108723499, 16.96400093661275, 7.530023498142537, -4.731619169681532, 7.557271308489469, 5.778363409921685], [4.034773584117354, -1.7603598233134279, -11.4885782645306, -16.58633195682223, -7.956521894211383, 9.56435864527301, -4.1887533050615975, 5.631694824675386, 18.052291196425674, -15.81390039684292, 16.452779139371327, -7.820164514614889], [0.9927781190374775, -22.808700144523627, -0.6988177772049764, 8.260072371629759, -10.979686182662416, -24.385650640119284, -3.968423820389139, 15.339255671541533, 19.69944072979669, -19.10088803680822, -5.033420040687746, 0.12835530553301414], [4.918986063299052, 1.273487144544775, 18.36149963268145, 5.086337832776168, 1.8593984510264667, 10.339495032063443, 5.613831855656839, -5.346282834054461, 26.822653766446017, -2.346718023870878, -10.226947924129789, 1.4417567196551244], [-13.151998780801968, 13.37898239696948, 1.5075917023028775, -0.2975958528958046, -5.975190033712388, -6.36272227161022, 1.4044060995030798, -10.655172173085836, -10.12083259245295, -7.285374911502833, -3.275888301694843, 17.020709923319874], [10.224114472923088, 2.277557468428169, -4.091088660740489, 6.4843113643533705, -13.276323216273987, 9.267718674370204, 12.745760451232938, 5.162024890879488, -12.32725576589963, -19.10148949849493, 4.4287526112924285, -0.035903875915061695], [-8.192486459849668, -7.880605438345249, -8.604307743587214, -2.735560500744933, -3.1345480669637444, 37.538317330542924, -9.375931142681482, -1.8031452999127355, 2.791464578728596, 5.144005838018321, 7.133388268311867, 3.7948025463963178], [-7.464473615295907, 16.67728714922128, -6.526811018586587, -11.933585125815538, 10.067727861594408, 8.642839834184944, -5.192151586565955, -10.532929950755484, -3.1854132116950513, 5.426549579993363, -5.2921289501333995, -14.261878340918406], [1.6259992663561802, 19.202601807495316, -17.95819138011681, -8.057343768085797, -5.609309442405179, -14.79348709976917, 16.76481299400452, 1.3296164022192587, 7.007220791582108, -19.39649403553068, 31.608520238387698, 27.10609294466586], [-6.9788397307156105, -21.059544911615912, -0.8314245318623956, 6.383982679373887, -10.325573117100603, -9.997249453291307, 8.59615720837229, 2.8372643786034675, 16.609812737456743, -27.730790127768213, -6.682908807268866, -7.6895945245913575]], "weights_ho": [[-6.163875425818387, -10.737956046474325, 0.20068906999127936, -5.822348360019541, 12.196451766253423, -23.45553679247334, 17.74442236333995, 27.52645414104498, 8.42545090443133, -7.601528557101278, -17.13972182634305, -1.1339046617355284, -5.938767194021775, 1.2692339593069528, 15.525745309635541, 3.455896432976361], [-3.3786478182302035, -0.9895039651868498, 7.587369032253804, -17.201477401730635, 19.29348693780751, -9.255734276267765, 5.687485682626329, -2.418598302451068, -8.859726575796664, 6.066970006925617, 16.157737419522327, -39.60450431757829, -4.253479089788547, 6.5163146613499405, -21.55011470310022, -7.072141177935878], [2.864097531598703, -8.148348551078975, -5.756503835621049, -5.190696885653287, -8.526161111373556, 10.4934290202914, -6.163976067126479, 3.5723878182891546, 3.0038499954177103, 3.6529680828612685, 21.93316808290882, -3.930014926996879, 10.92531931059435, -22.344493408033962, -17.556848997924135, 10.013835820635926], [-2.4113105313363192, 31.74369633632992, -12.874410677713394, 10.22903283578625, -3.2961326706723435, -0.9498701876796096, 12.003700748570726, -0.38390310611406, 27.762610024221807, -25.259218588359275, 7.999441105902741, -10.578445829011173, -14.681717304411459, -8.11753921981689, -4.152622666455946, 17.014386126717408]], "bias_h": [[-8.962843896284792], [-6.8714829232651455], [-11.93892912233986], [-18.82247255872975], [-2.578794036738319], [4.930996424284104], [19.683836068926606], [18.71660950070411], [2.653668141467034], [-1.382777671253266], [-0.7907369544621498], [16.42107458227438], [9.496158839437516], [1.3494565907431373], [14.326863711852225], [5.617797884757091]], "bias_o": [[-6.840300021917135], [-0.6673311335385586], [-11.242926506481838], [-15.211279997676073]]}, {"input_nodes": 12, "hidden_nodes": 16, "output_nodes": 4, "weights_ih": [[1.5047035062439813, 5.897219950220963, -8.418122091724552, -4.081748593245673, 6.343850734532472, -7.748090031070606, 10.200667271171765, -0.18952616324143962, 6.206711819595145, -0.18887580856894853, -5.468350567480965, -16.020217195687376], [-0.7865424874460177, -12.675174264798265, 5.990511068756431, -4.152259176127663, 9.751810310512617, -4.379901185484141, 16.4093142297786, 8.454115834194802, 0.21153942889229815, -4.38965721666699, -7.686229048274141, 15.651529985545682], [9.530891819713442, 5.020534057678458, -7.124164188677446, 8.148627604170278, -16.541449674391252, -9.753161261661178, 15.193768218236292, -12.244066502720454, 19.959190900507714, -4.198814368821031, 13.37420021333366, -3.279632726714946], [0.7873714597702266, 25.155591554599233, -22.053299783037186, 4.542393701659282, -2.61719318640272, -6.221554739416435, -6.334215633224923, 5.47128320639165, 11.698686786158746, 0.5944099019972504, 2.658457918990955, -19.796986822301122], [2.494507959068884, -13.293622217688192, -2.5699469679068656, -10.926154303285529, -9.104939376964005, 16.33273059316764, 7.061610054672851, -8.892925822791613, -2.7242174437923583, 10.666681877419933, 4.643738788739661, 2.189643935470576], [-18.65930187098826, -2.084651501707074, 17.395842213581457, 1.7262920310985626, 3.3823331924599156, 19.883921507496023, 21.64206339480208, 3.360070626442185, 0.9355813504617643, -23.15504267625619, -11.79328848097719, -16.5473101483821], [5.578668692927036, -0.39616203203796163, -14.80162207014217, 13.317941588874122, 5.0416113538470615, 6.178818679622495, 15.390361508665947, 16.96400093661275, 7.511312192057934, -4.6794092604860085, 7.430441630175209, 5.778363409921685], [3.9499270324902658, -1.5169887839928173, -11.219929865339394, -16.58633195682223, -7.956521894211383, 9.606785060526036, -4.195707636634718, 5.518446203274842, 17.90148748038096, -15.731198379720357, 16.34251092814702, -7.864165580971491], [0.9927781190374775, -22.839977450524866, -0.7487408037716468, 8.206067305145101, -10.979686182662416, -24.341048267551383, -4.1110436863821445, 15.339255671541533, 19.801330316926933, -19.163617924991275, -5.111818678233212, 0.12835530553301414], [4.918986063299052, 1.5241129900346608, 18.598020821408, 4.8852828863120905, 1.8746925164259736, 10.339495032063443, 5.771828018193089, -5.487064163499048, 26.55059101161383, -2.2323788799755726, -10.227698077168661, 1.4417567196551244], [-13.151998780801968, 13.509864972561953, 1.5034319060549433, -0.22752421751636276, -5.930280028026985, -6.36272227161022, 1.3995944968262575, -10.651005354292558, -10.12083259245295, -7.285374911502833, -3.275888301694843, 17.020709923319874], [10.340247783978663, 2.277557468428169, -4.091088660740489, 6.46450509826221, -13.366011829004737, 9.202164771399602, 12.785187690118647, 5.3225344402989485, -12.460773424383582, -19.16590873733668, 4.31995961384882, -0.2093175671730467], [-8.192486459849668, -7.880605438345249, -8.683973813047135, -2.866213385391503, -3.3029991064266575, 37.2814786105331, -9.385885148930905, -1.9442606796960509, 2.8984799027588513, 5.144005838018321, 7.133388268311867, 3.70161964510853], [-7.464473615295907, 16.815894343402174, -6.526811018586587, -11.933585125815538, 10.067727861594408, 8.652196525514558, -5.090632369041937, -10.620718104054536, -3.1854132116950513, 5.468725496459997, -5.415325699427044, -14.227832618303545], [1.593286150577263, 19.155568364635464, -17.80937346902725, -8.057343768085797, -5.655653306935692, -14.81605612233391, 17.085247712539367, 1.3661025793750619, 7.07407050121029, -19.373959569001755, 31.646098396259283, 27.10609294466586], [-6.998648867001381, -21.03731491170401, -0.8314245318623956, 6.464382443469564, -10.325573117100603, -9.997249453291307, 8.476953711075607, 2.8352126371836173, 16.642508752825346, -27.730790127768213, -6.522222731049969, -7.589445689084542]], "weights_ho": [[-6.188796671934749, -10.71736522958784, 0.001827151687844017, -5.867936032468169, 12.191179786722957, -23.45553679247334, 17.74442236333995, 27.48312657479911, 8.42545090443133, -7.505822508635347, -16.949797527112516, -1.0292696730671704, -6.139023964097058, 1.1282916750642948, 15.5624243450009, 3.3384723001185734], [-3.3786478182302035, -0.8015863406649648, 7.509727583790227, -17.044790690324888, 19.517761096434416, -9.212039275628056, 5.687485682626329, -2.418598302451068, -8.924746594670323, 6.086656580712045, 16.098924866118367, -39.60450431757829, -4.295923298769098, 6.585154794762199, -21.481639628341455, -7.075050044570347], [2.862838339371263, -8.17851844686625, -5.752837252897379, -5.190696885653287, -8.625641431376328, 10.567610166205553, -6.138708721155728, 3.562595188870234, 2.934958158417772, 3.789398004918391, 21.867302307387455, -3.9123593945191137, 11.021346580746398, -22.318003658642887, -17.464371212872514, 9.938156596617521], [-2.3469501095210203, 31.74369633632992, -12.913875068398022, 10.22903283578625, -3.3071953292848666, -0.6780492561160503, 12.040527105993995, -0.2763389693840468, 27.700699749058607, -25.259218588359275, 8.098137884373633, -10.450930077354077, -14.834489281589644, -8.049526306099281, -4.152622666455946, 17.0149966970863]], "bias_h": [[-8.867421224568746], [-6.861243663404123], [-11.943643672491897], [-18.788697136529553], [-2.578794036738319], [4.930996424284104], [19.80091597199051], [18.71660950070411], [2.653668141467034], [-1.334499863801718], [-0.9492200102116741], [16.3171839404536], [9.496158839437516], [1.4108138121565], [14.365834618521378], [5.766357150880257]], "bias_o": [[-6.934038448562467], [-0.6673311335385586], [-11.156325611749153], [-15.203528348136686]]}, {"input_nodes": 12, "hidden_nodes": 16, "output_nodes": 4, "weights_ih": [[1.6621679454119964, 5.897219950220963, -8.418122091724552, -3.895189309671843, 6.425062486318459, -7.812227370773609, 10.21097727261647, -0.18952616324143962, 6.213774693042636, -0.09162743688736336, -5.263684160439628, -16.020217195687376], [-0.814951672841033, -12.60051534270423, 6.040770226363598, -4.026824533684417, 9.75220981893913, -4.208670318800429, 16.4093142297786, 8.56253383888232, 0.09665621137764022, -4.336840643976023, -7.655041930727623, 15.6197466567598], [9.614104968884257, 4.807773454592363, -7.124164188677446, 8.050039922063647, -16.541449674391252, -9.609681184408474, 15.34388673898404, -12.358259109202772, 19.959190900507714, -4.314544513176076, 13.159714034607688, -3.279632726714946], [0.8003290645904271, 25.179875516275136, -21.94138477155692, 4.542393701659282, -2.47083415448046, -6.181615552655543, -6.324454835437929, 5.440853339108985, 11.642342542509837, 0.5944099019972504, 2.658457918990955, -19.796986822301122], [2.5084196723026646, -13.032336094826773, -2.607048720843623, -10.926154303285529, -9.027866948388489, 16.29663385341076, 7.029086004402481, -9.01846753556891, -2.7242174437923583, 10.583074421220664, 4.5642492613538765, 2.396962569397487], [-18.701897513379883, -2.2930592031306007, 17.217400896259647, 1.5077793619036408, 3.420681171926828, 19.826906446586783, 21.64206339480208, 3.3222496727755066, 0.9249216595384563, -23.15504267625619, -11.847586051864562, -16.575666962875687], [5.578668692927036, -0.5161588624966126, -14.80162207014217, 13.307410254758915, 5.004067866559723, 6.117191394191713, 15.517271108723499, 16.87267940770242, 7.463455576908787, -4.692825717506572, 7.383643239216518, 5.778363409921685], [4.034773584117354, -1.717966782895761, -11.425055952166549, -16.612810292398066, -8.006338306939487, 9.606785060526036, -4.195707636634718, 5.473532292588122, 18.02451120165714, -15.871744626158062, 16.34251092814702, -7.787576859269954], [0.9927781190374775, -22.805492285867828, -0.6754470813706347, 8.218722888724571, -10.955812635701678, -24.3830897957048, -4.069702655051565, 15.286403080190265, 19.69944072979669, -19.094366653442638, -5.150739473890892, 0.2357152448509689], [4.918986063299052, 1.3429503468037312, 18.511859343313724, 5.017629801098719, 1.8420754436827291, 10.339495032063443, 5.788226772447085, -5.42419312483136, 26.822653766446017, -2.346718023870878, -10.238997249976311, 1.4417567196551244], [-13.034465269824647, 13.509864972561953, 1.5540284115322014, -0.1529631966547664, -5.8756008214646, -6.36272227161022, 1.4056515612671292, -10.7450590049342, -10.233440123694331, -7.282643356204991, -3.306744453936603, 17.054068223013655], [10.224114472923088, 2.277557468428169, -4.091088660740489, 6.4843113643533705, -13.196055683226007, 9.343348833614362, 12.785187690118647, 5.377300546476579, -12.322818048702057, -19.097386299693838, 4.303462610481347, -0.2093175671730467], [-8.423718594495341, -7.988150677874358, 