{"generation": 49215, "population": [{"input_nodes": 12, "hidden_nodes": 16, "output_nodes": 4, "weights_ih": [[1.1485066290980446, 6.149521846990504, -8.222880877903874, -3.948087361382479, 7.036504580869598, -8.324390237747565, 8.215611081464727, -0.5676570548038379, 4.423286726210204, 0.10239807644417886, -5.743416705954244, -17.628408119406995], [0.13438450471582897, -13.044720474113742, 6.431512802057133, -2.654646670232995, 13.342957383478613, -5.417862459790844, 17.812546822561913, 10.415055503144758, 1.0894760562619612, -4.965762479274449, -9.3828812916322, 16.253956975360566], [7.902255341763427, 6.484150411663473, -4.88988831702186, 9.114355149677827, -16.672664552345847, -10.331091103579723, 16.56706289145906, -12.934379486684136, 18.11083297272959, -5.920833081227972, 16.79728282357595, -5.675996565792031], [-0.78970978050444, 25.31850436792648, -21.12742943227033, 3.283190877895251, -3.3916878875821976, -2.859010798823154, -9.648347014015835, 8.691593811825445, 8.774430908817143, -0.056567067279799814, 1.9059935084164334, -16.857136987265765], [2.602826751693346, -12.809199507243434, -3.033509855131696, -12.001901357859545, -4.201916212176236, 16.45165235252812, 6.781927961766395, -11.097537729634043, -0.3960311972559068, 10.516793200464164, 2.9700413561779513, 1.646764519415712], [-16.731248332309683, -3.7244622140771986, 14.966449295690955, 3.0245768802095427, 6.453419627008439, 20.447876595698556, 20.253941524804382, 3.7998044094243255, 3.1543130492600184, -20.75387840665488, -12.369726939403197, -16.85843032872829], [5.599112873694385, -4.098092581203592, -16.414005576355127, 11.056742269105122, 6.557694746554936, 7.9339114927818795, 15.483853998534983, 13.337353533150539, 7.015720757509626, -3.7677574829691394, 5.288634095797196, 8.412284829362031], [2.418742265276308, 3.56103906555864, -12.161977206928198, -16.04295167101002, -8.058959353570032, 9.135682390980028, -5.603340693059293, 9.14350068397704, 17.76053230093032, -16.02206031143878, 16.085534848643643, -8.397185226540154], [2.551577732325491, -20.821160070705993, -1.766440361720861, 11.752148220471065, -10.136401406262326, -21.799926079425198, -5.885797438149436, 18.162846266471963, 18.539851595236346, -19.42047324436068, -7.879735029872766, -1.3128560442317465], [6.813810259175459, -1.0537249099198305, 17.065799558085345, 3.871952519440406, 1.1797924450280004, 9.125929775254486, 2.9237103020258677, -4.820259745462171, 28.034205025681004, -2.312191385341652, -9.101666827240981, 3.963362830699424], [-11.368037545882231, 11.708348798615443, 0.3177328524068777, -1.1249407607703459, -5.179170176620409, -8.307794255011162, 1.6771407526462954, -11.600519028206973, -6.598279559401023, -7.506824529110974, -4.106963501979951, 17.77725599289805], [9.325290774963582, 4.982664487199011, -4.554284059194854, 6.2381914659633715, -11.078928481227358, 5.71618126049782, 12.994805663721316, 4.8920842411072005, -13.54064553576966, -18.91074339310996, 5.228793208512274, -2.6283196580963537], [-5.604431374047241, -10.887626764626846, -6.016459335711136, -4.374091479664119, -2.9470139588019286, 37.26772315847255, -7.303639575308788, -3.052098464987314, 6.173833503934034, 7.077754056160926, 4.674285804351544, 5.65513556081328], [-9.51034629925003, 20.365544767274187, -3.920735184926085, -10.634910966006903, 11.093068114795791, 9.504711660301497, -4.864635982302475, -7.881602401062544, -2.473340746253153, 7.104851181861013, -5.256115707424274, -13.144285922096218], [1.0878488417383725, 17.74710295081564, -20.342491576135842, -7.621823063898755, -5.327514194943625, -14.723345395370382, 15.807102970994478, 2.041423232583854, 5.5955657514853065, -17.797559922205803, 33.09912589711825, 29.1022325693201], [-5.17375446264379, -22.744187151996325, 0.5329352331090353, 7.396226137254439, -12.028033959578458, -11.688973576374766, 10.409147232623212, 2.406089297741925, 17.044885822211, -30.37128443809651, -7.8443886778265615, -9.904634268359272]], "weights_ho": [[-5.503838125365043, -9.904086121240166, -0.23736069659197423, -4.741881789645555, 13.821399101241163, -25.675284614883804, 18.968334675092642, 27.63925811513506, 9.97065916384045, -10.44641814010391, -15.324511834710039, 1.5103177828532337, -4.146597886984097, -0.7242905544360987, 14.060658477637757, 3.9619499496883797], [-6.39611018528843, -2.7108719647633492, 9.79994624664756, -18.58417620074965, 17.889737188407146, -10.52052653182164, 4.478957221860058, -1.3360078238055015, -10.192867103503074, 5.489422823091818, 16.98349183687918, -38.15829139649733, -3.7324308440177556, 6.741338543133487, -19.116477720259812, -8.068944242371932], [4.068682616174971, -6.568382013748949, -4.789065567523211, -2.9589607090252783, -8.227955759929234, 6.861013500233906, -4.285999105904161, 0.2906283235085805, 3.481345780459581, 5.936913952352951, 21.961096728419825, -5.991575816725851, 12.467661353634583, -24.42067512597566, -19.13417169746556, 7.1995888883049615], [-2.466276696481167, 31.512484128547065, -13.551451036806338, 8.634634418800594, -3.5944069264396865, -1.3971285312663448, 10.990706875673933, -3.089954930792452, 28.657387373116595, -23.69769381009739, 8.009431958441315, -11.024315176099286, -15.148407931639989, -5.5868449135188225, -1.700517382187411, 14.902847949195769]], "bias_h": [[-9.982390724522137], [-8.350600963440836], [-11.739582894324219], [-17.912064583656825], [-1.9593671093709126], [6.429298977683102], [21.71464083542292], [20.97564980946864], [3.7949890902592514], [-0.7045188778674147], [1.4731496273983804], [15.294327557159688], [7.72619205004328], [1.7686712279874275], [13.59249520586318], [7.768175737517887]], "bias_o": [[-4.343466689445661], [-0.8157701068206947], [-11.760511417885105], [-12.686610503499223]]}, {"input_nodes": 12, "hidden_nodes": 16, "output_nodes": 4, "weights_ih": [[1.1485066290980446, 6.149521846990504, -8.222880877903874, -3.88961150496246, 7.223123582291691, -8.265000657340458, 8.215611081464727, -0.5676570548038379, 4.423286726210204, -0.03388289671070621, -5.698165299018029, -17.547956316522573], [0.3110855890635369, -13.044720474113742, 6.443803012819843, -2.6857369453846314, 13.342957383478613, -5.417862459790844, 17.648967532939718, 10.50498647102297, 1.0894760562619612, -4.806968812095064, -9.291691157077, 16.253956975360566], [7.902255341763427, 6.484150411663473, -4.749450576049421, 9.072808569485218, -16.672664552345847, -10.331091103579723, 16.581964671118236, -12.876565483865013, 18.121150830100035, -5.920833081227972, 16.97379400839545, -5.708534362876291], [-0.9841711721576244, 25.24315021611916, -21.12742943227033, 3.283190877895251, -3.3916878875821976, -2.859010798823154, -9.594189757711163, 8.691593811825445, 8.777718670030666, -0.20918528102031397, 1.9947477954160624, -16.857136987265765], [2.610246080202563, -12.699131703081061, -3.2280624753926133, -12.001901357859545, -4.1570673612420705, 16.45165235252812, 6.781927961766395, -11.097537729634043, -0.3960311972559068, 10.516793200464164, 2.8266389192335315, 1.5160903786921862], [-16.731248332309683, -3.7244622140771986, 14.9693230880857, 3.0245768802095427, 6.453419627008439, 20.251685255209022, 20.3111660121666, 3.6943179603554666, 3.1543130492600184, -21.031585263849685, -12.369726939403197, -16.85843032872829], [5.617716590837923, -4.026529457903194, -16.414005576355127, 11.123841846652093, 6.557694746554936, 7.9339114927818795, 15.483853998534983, 13.412378081008702, 7.015720757509626, -3.6509020776612324, 5.196469107188318, 8.412284829362031], [2.418742265276308, 3.486256842336397, -12.169169101431876, -16.003149267867645, -8.058959353570032, 9.135682390980028, -5.603340693059293, 9.116248024358919, 17.796854612028607, -15.976413134259445, 15.991710398905317, -8.397185226540154], [2.551577732325491, -20.821160070705993, -1.6720998623759291, 11.759104725838904, -10.136401406262326, -21.768563310384874, -5.877471237298103, 18.162846266471963, 18.552401315858962, -19.336197577379586, -7.879735029872766, -1.3128560442317465], [6.875805777922247, -0.959451900654787, 17.065799558085345, 3.9172052824018913, 1.1797924450280004, 8.980851140962972, 2.9237103020258677, -4.70572168070589, 28.160552803944917, -2.312191385341652, -9.311020394322625, 3.963362830699424], [-11.368037545882231, 11.708348798615443, 0.4185004594624444, -1.1249407607703459, -5.195384472664118, -8.290870649704951, 1.6771407526462954, -11.612677476528296, -6.598279559401023, -7.506824529110974, -4.128426261891209, 17.77725599289805], [9.353424073993654, 4.982664487199011, -4.657238455419035, 6.159002526604521, -11.078928481227358, 5.71618126049782, 12.994805663721316, 4.897455326041267, -13.54064553576966, -18.91074339310996, 5.308667866248515, -2.6283196580963537], [-5.439252324593435, -10.887626764626846, -6.094374714660645, -4.374091479664119, -2.9470139588019286, 37.26772315847255, -7.276810330906488, -3.052098464987314, 6.173833503934034, 7.077754056160926, 4.692187511648897, 5.65513556081328], [-9.555797398271048, 20.365544767274187, -3.920735184926085, -10.63434342415456, 11.248051670241818, 9.473267365034294, -4.864635982302475, -7.947214379529719, -2.4945602419309822, 7.050823257498616, -5.256115707424274, -13.144285922096218], [0.9773071147437663, 17.86316873413276, -20.23152107439127, -7.760796322938944, -5.327514194943625, -14.697173400839844, 15.825739567506432, 2.0169765052693243, 5.581459882199945, -17.71942003483203, 33.09912589711825, 29.1022325693201], [-5.17375446264379, -22.722760916165814, 0.5329352331090353, 7.425456218781653, -11.876039309201815, -11.688973576374766, 10.409147232623212, 2.552077741364669, 17.044885822211, -30.473063401021495, -7.927642120895893, -9.93730351021876]], "weights_ho": [[-5.3690932880581785, -10.005395669536261, -0.23736069659197423, -4.741881789645555, 13.83148757036974, -25.675284614883804, 18.968334675092642, 27.63925811513506, 9.970006196692935, -10.60295611001802, -15.324511834710039, 1.4098969747414383, -4.146597886984097, -0.7242905544360987, 14.060658477637757, 4.0749540220315925], [-6.39611018528843, -2.7108719647633492, 9.79994624664756, -18.58417620074965, 17.889737188407146, -10.52052653182164, 4.478957221860058, -1.3979048952338153, -10.192867103503074, 5.489422823091818, 16.98349183687918, -38.13467858319709, -3.7324308440177556, 6.682512504035863, -19.116477720259812, -8.068944242371932], [4.068682616174971, -6.3200649728518075, -4.789065567523211, -2.9589607090252783, -8.227955759929234, 6.635346594712236, -4.285999105904161, 0.298673708839734, 3.481345780459581, 5.936913952352951, 21.961096728419825, -5.980236638517431, 12.498062802649955, -24.591254387710723, -19.13417169746556, 7.1995888883049615], [-2.466276696481167, 31.593210972251214, -13.551451036806338, 8.760480872229097, -3.594815052850827, -1.3971285312663448, 11.048650824698797, -3.0535793752302043, 28.712052261184787, -23.724050969266436, 7.894017003241009, -11.024315176099286, -15.038360079722102, -5.5868449135188225, -1.700517382187411, 14.983944840086329]], "bias_h": [[-10.031697743245168], [-8.405252535995311], [-11.472250013219384], [-17.912064583656825], [-1.9593671093709126], [6.429298977683102], [21.77616299599178], [20.900292401035905], [3.678132367864043], [-0.7045188778674147], [1.4731496273983804], [15.505530886906758], [7.72619205004328], [1.7686712279874275], [13.562997276489382], [7.768175737517887]], "bias_o": [[-4.273040928180545], [-0.6851377081036782], [-11.760511417885105], [-12.686610503499223]]}, {"input_nodes": 12, "hidden_nodes": 16, "output_nodes": 4, "weights_ih": [[1.010948005077832, 6.069451005102128, -8.222880877903874, -3.7757647105768517, 7.02254511587232, -8.324390237747565, 8.215611081464727, -0.5015952095656256, 4.423286726210204, 0.19076694516240517, -5.625144058740291, -17.628408119406995], [0.2819306024860578, -13.106784193592649, 6.431512802057133, -2.6026573983187293, 13.26648642150913, -5.371866799533037, 17.684413190435922, 10.477462054925297, 1.0894760562619612, -4.965762479274449, -9.3828812916322, 16.242670202559975], [7.902255341763427, 6.484150411663473, -4.834781519372524, 9.114355149677827, -16.672664552345847, -10.386883230901548, 16.6607205703387, -12.934379486684136, 18.078227823304903, -5.920833081227972, 16.79728282357595, -5.675996565792031], [-0.7054153745867119, 25.20315983605753, -21.12742943227033, 3.283190877895251, -3.459533820371692, -2.900481750514624, -9.671849091775625, 8.691593811825445, 8.725555416686602, -0.056567067279799814, 1.9059935084164334, -16.857136987265765], [2.602826751693346, -12.733068101776773, -3.033509855131696, -11.857361544567057, -4.028724807451047, 16.45165235252812, 6.882958484248813, -11.097537729634043, -0.4408765283302777, 10.542611290806184, 3.0208462106505123, 1.6444557901068195], [-16.731248332309683, -3.724521311824221, 14.966449295690955, 3.0245768802095427, 6.453419627008439, 20.447876595698556, 20.253941524804382, 3.84266369154871, 3.0707540889882488, -20.75387840665488, -12.369726939403197, -16.85843032872829], [5.420002968225456, -4.098092581203592, -16.525707137679216, 11.056742269105122, 6.557694746554936, 7.9339114927818795, 15.483853998534983, 13.337353533150539, 7.015720757509626, -3.7677574829691394, 5.288634095797196, 8.412284829362031], [2.5788932096925246, 3.3956014017293605, -12.239955495202988, -16.04295167101002, -8.277852810614112, 9.2011455200696, -5.603340693059293, 9.14350068397704, 17.753788481064483, -16.019401628796828, 15.988585959678703, -8.397185226540154], [2.551577732325491, -20.821160070705993, -1.71469718714321, 11.752148220471065, -10.136401406262326, -21.795732370831782, -5.885797438149436, 18.076208462308802, 18.43834514300719, -19.42047324436068, -7.8372513202007905, -1.3128560442317465], [6.813810259175459, -1.0537249099198305, 17.065799558085345, 3.871952519440406, 1.1765999933870601, 9.263134362818112, 2.9632278205034064, -4.959877008060572, 27.812544912145036, -2.312191385341652, -9.168065142444135, 3.961160130078912], [-11.467381323478381, 11.708348798615443, 0.3177328524068777, -1.1249407607703459, -5.199960891373474, -8.151732717815696, 1.6097298126765853, -11.720062303571309, -6.546747919506946, -7.409909620333219, -4.106963501979951, 17.77725599289805], [9.325290774963582, 4.982664487199011, -4.597973333608554, 6.2481956699346535, -11.12676483520272, 5.71618126049782, 13.033299854250261, 4.8920842411072005, -13.54064553576966, -18.976186383087104, 5.216588718498527, -2.688311678780643], [-5.604431374047241, -10.887626764626846, -5.8762223071915995, -4.399033895987595, -2.956582200643524, 37.26772315847255, -7.303639575308788, -2.9831872836030673, 6.325204751459843, 7.03873301207832, 4.674285804351544, 5.45379545523901], [-9.380013438864353, 20.365544767274187, -3.920735184926085, -10.634910966006903, 11.093068114795791, 9.691732972428639, -4.770313124372267, -7.846962565890932, -2.473340746253153, 7.104851181861013, -5.256115707424274, -13.144285922096218], [0.9045039215920797, 17.745104649653516, -20.342491576135842, -7.621823063898755, -5.327514194943625, -14.616860650506828, 15.671457279774144, 2.041423232583854, 5.577298547304101, -17.843233232270787, 33.09912589711825, 29.1022325693201], [-5.17375446264379, -22.632451075324813, 0.5782029806807342, 7.2881685952007285, -12.028033959578458, -11.688973576374766, 10.365676014531084, 2.406089297741925, 17.006858457570065, -30.37128443809651, -7.8443886778265615, -9.904634268359272]], "weights_ho": [[-5.453543024032147, -9.960740758647765, -0.1475168548898022, -4.664829449856411, 13.821399101241163, -25.561934292443645, 18.852170064785568, 27.63925811513506, 9.978652540519626, -10.5031793883728, -15.312290746931923, 1.5103177828532337, -4.102055616371388, -0.7242905544360987, 14.060658477637757, 3.9619499496883797], [-6.403214070223681, -2.5160453278055894, 9.625804509090448, -18.626347186050225, 17.889737188407146, -10.52052653182164, 4.478957221860058, -1.3360078238055015, -10.341193626605161, 5.489422823091818, 16.98349183687918, -38.15829139649733, -3.7324308440177556, 6.741338543133487, -19.116477720259812, -8.336942922372334], [4.129981367291993, -6.478931773701722, -4.789065567523211, -2.953364337152611, -8.218851809799384, 6.827285222045894, -4.3422963665700305, 0.2906283235085805, 3.672025998550703, 5.9654797999905975, 22.024452359713333, -6.091407219917418, 12.467661353634583, -24.42067512597566, -19.13417169746556, 7.1995888883049615], [-2.466276696481167, 31.512484128547065, -13.70803626658046, 8.644471695538881, -3.624448887527196, -1.438745132425688, 10.990706875673933, -3.0680157259925225, 28.487655257209592, -23.590651070122693, 8.009431958441315, -10.958606380543001, -15.148407931639989, -5.5868449135188225, -1.6837491568971472, 14.902847949195769]], "bias_h": [[-10.056260356436203], [-8.476562182199382], [-11.739582894324219], [-17.829544235675854], [-1.9593671093709126], [6.429298977683102], [21.772179355905763], [20.943637075604727], [3.79440954863157], [-0.7045188778674147], [1.6783561179510114], [15.294327557159688], [7.72619205004328], [1.7701164011447053], [13.59249520586318], [7.768175737517887]], "bias_o": [[-4.343466689445661], [-0.8157701068206947], [-11.760511417885105], [-12.855453735515354]]}, {"input_nodes": 12, "hidden_nodes": 16, "output_nodes": 4, "weights_ih": [[1.1485066290980446, 6.149521846990504, -8.222880877903874, -3.822576323941055, 7.036504580869598, -8.324390237747565, 8.215611081464727, -0.5676570548038379, 4.384214170486818, 0.10239807644417886, -5.791587161122964, -17.637895573322393], [0.031932960423426984, -13.044720474113742, 6.517730167490588, -2.7738887397432546, 13.31025813621484, -5.330539288569389, 17.824033372899674, 10.419161678314564, 1.0894760562619612, -4.83527993292253, -9.3828812916322, 16.16503488373418], [7.922773110971672, 6.404404775698139, -5.017760777920253, 9.28555374077374, -16.672664552345847, -10.252067796351682, 16.56706289145906, -12.934379486684136, 18.11083297272959, -5.920833081227972, 16.65151705596037, -5.675996565792031], [-0.78970978050444, 25.22824593202251, -21.12742943227033, 3.228032660105895, -3.489645852603956, -2.8907100269927897, -9.648347014015835, 8.691593811825445, 8.556931677344988, 0.08330909832786718, 1.9059935084164334, -16.857136987265765], [2.5943064217461442, -12.809199507243434, -3.033509855131696, -12.001901357859545, -4.201916212176236, 16.488755833766017, 6.7520144455699675, -11.047804366594464, -0.2864907696284554, 10.516793200464164, 3.164598651944994, 1.5665077683468511], [-16.762542627697925, -3.8745914295854327, 15.10045801691509, 3.1486021695124666, 6.453419627008439, 20.374147955275227, 20.406884371315986, 3.7998044094243255, 3.112040772713264, -20.758267033589167, -12.369726939403197, -16.85843032872829], [5.599112873694385, -4.098092581203592, -16.414005576355127, 11.056742269105122, 6.557694746554936, 7.9339114927818795, 15.40715013209865, 13.342608109801752, 7.015720757509626, -3.7677574829691394, 5.288634095797196, 8.412284829362031], [2.418742265276308, 3.56103906555864, -12.142258134856645, -16.04295167101002, -8.058959353570032, 9.135682390980028, -5.657170006611561, 9.14350068397704, 17.76053230093032, -16.02206031143878, 16.085534848643643, -8.397185226540154], [2.50321388124812, -20.71648086178438, -1.8170593991026693, 11.603934108096697, -10.104187847185925, -21.793090660080658, -5.885797438149436, 18.162846266471963, 18.539851595236346, -19.24239773274768, -7.905613997772285, -1.3128560442317465], [6.841070826074462, -1.0537249099198305, 16.87244673052543, 3.8168119243027356, 1.1797924450280004, 9.223197370607922, 2.9237103020258677, -4.845027907918596, 27.980439655630466, -2.312191385341652, -9.101666827240981, 3.963362830699424], [-11.410891057974956, 11.641675672748983, 0.2726345246930766, -1.1249407607703459, -5.335388098163553, -8.307794255011162, 1.6771407526462954, -11.600519028206973, -6.598279559401023, -7.506824529110974, -4.169353924185844, 17.77725599289805], [9.325290774963582, 4.982664487199011, -4.516032478219558, 6.2381914659633715, -11.001854240968692, 5.624233648162107, 12.994805663721316, 4.848583473106655, -13.54064553576966, -19.098366432616935, 5.228793208512274, -2.6283196580963537], [-5.604431374047241, -10.905769506765433, -6.016459335711136, -4.339850783698513, -3.0737772833637322, 37.26772315847255, -7.303639575308788, -3.052098464987314, 6.138178945163261, 7.077754056160926, 4.703347820851489, 5.65513556081328], [-9.51034629925003, 20.343586493167248, -4.044038360193944, -10.634910966006903, 11.397945537688265, 9.504711660301497, -4.864635982302475, -7.836895576165893, -2.533211620935089, 7.1628368810843694, -5.256115707424274, -13.144285922096218], [1.13019874520195, 17.74710295081564, -20.342491576135842, -7.6033246169994895, -5.402601333612337, -14.81247989678286, 15.807102970994478, 2.041423232583854, 5.521145768839261, -17.65366262448668, 33.09912589711825, 29.1022325693201], [-5.066633419862454, -22.73248721087408, 0.5329352331090353, 7.396226137254439, -12.083459089186535, -11.688973576374766, 10.504329040215895, 2.417729898927688, 17.137523442444483, -30.363741277658317, -7.8443886778265615, -9.904634268359272]], "weights_ho": [[-5.503838125365043, -9.904086121240166, -0.23736069659197423, -4.68530402255218, 13.868569364217267, -25.675284614883804, 18.968334675092642, 27.6596370950687, 9.930616417574, -10.44641814010391, -15.324511834710039, 1.5103177828532337, -4.146597886984097, -0.8137389802490789, 14.036390121787047, 3.9748199173840453], [-6.535722856948823, -2.700007644487757, 9.79994624664756, -18.58417620074965, 17.889737188407146, -10.52052653182164, 4.478957221860058, -1.4089318057498108, -10.192867103503074, 5.489422823091818, 16.98349183687918, -38.11008256801578, -3.7324308440177556, 6.741338543133487, -19.116477720259812, -7.991703020129433], [4.19012641527163, -6.428472533398781, -4.955734030153703, -2.9589607090252783, -8.227955759929234, 6.861013500233906, -4.285999105904161, 0.3242175444495086, 3.481345780459581, 5.84563421288493, 22.087641141681704, -6.029782723225714, 12.467661353634583, -24.42067512597566, -18.985784303852874, 7.1995888883049615], [-2.567614912909679, 31.407410121588466, -13.726693104546719, 8.634634418800594, -3.5944069264396865, -1.4369834003222504, 11.050106956881788, -3.1917534767694975, 28.641935273209935, -23.69769381009739, 8.054498504748674, -11.024315176099286, -15.162721170105186, -5.448717514548151, -1.6701176612778412, 15.042220737744438]], "bias_h": [[-10.00890632219872], [-8.363242625208867], [-11.739582894324219], [-17.919676096003162], [-1.9593671093709126], [6.429298977683102], [21.656925839399918], [20.97564980946864], [3.6916409430824455], [-0.7625005977898851], [1.4447640057541937], [15.294327557159688], [7.72619205004328], [1.8550078393075058], [13.59249520586318], [7.818939891786323]], "bias_o": [[-4.228739700803288], [-0.8157701068206947], [-11.760511417885105], [-12.657127500971379]]}, {"input_nodes": 12, "hidden_nodes": 16, "output_nodes": 4, "weights_ih": [[1.1485066290980446, 6.129803222770343, -8.222880877903874, -4.032371681236393, 7.036504580869598, -8.324390237747565, 8.09607354023058, -0.5676570548038379, 4.423286726210204, 0.10239807644417886, -5.590110034318454, -17.628408119406995], [0.243940365271554, -13.044720474113742, 6.47813655367649, -2.6725095117000017, 13.367877173321233, -5.417862459790844, 17.812546822561913, 10.45504672716304, 0.9007060279580894, -5.126846227690304, -9.300852152520921, 16.253956975360566], [7.8198388823040785, 6.484150411663473, -4.8471677319102415, 9.114355149677827, -16.838748789901157, -10.331091103579723, 16.637595255157983, -12.934379486684136, 18.11083297272959, -5.6939558493117035, 16.784832265735293, -5.7162808062413495], [-0.7223584019265029, 25.31850436792648, -21.19998925039052, 3.2558122904677522, -3.3916878875821976, -2.859010798823154, -9.732832797990685, 8.691593811825445, 8.774430908817143, -0.125028925343881, 1.9059935084164334, -16.857136987265765], [2.650060272862331, -12.809199507243434, -3.033509855131696, -12.001901357859545, -4.201916212176236, 16.460827631484477, 6.7081473351645755, -11.141145317106993, -0.3960311972559068, 10.603689251692803, 2.9700413561779513, 1.646764519415712], [-16.731248332309683, -3.539784741146718, 14.966449295690955, 3.0245768802095427, 6.542417139129507, 20.447876595698556, 20.34148119754596, 3.842366391492156, 3.1245621073970655, -20.75387840665488, -12.369726939403197, -16.856995266423972], [5.599112873694385, -4.209682254475781, -16.414005576355127, 10.989921735588615, 6.555001913364068, 7.9339114927818795, 15.473916635041268, 13.337353533150539, 7.015720757509626, -3.8089658778791224, 5.288634095797196, 8.44328360274943], [2.418742265276308, 3.56103906555864, -12.161977206928198, -16.04295167101002, -8.01171327372846, 9.211563239214401, -5.494099977296722, 9.113500006847602, 17.663394191095286, -16.064328756628655, 16.085534848643643, -8.397185226540154], [2.587672708611369, -20.854283280221047, -1.766440361720861, 11.687624621064138, -10.136401406262326, -21.799926079425198, -5.7931105372499045, 18.178813890118768, 18.539851595236346, -19.501520903112013, -7.775072635097, -1.2658522152122862], [6.719393452220118, -1.0537249099198305, 17.065799558085345, 3.724688571595091, 1.1295976735067197, 9.125929775254486, 2.973814861797798, -4.9264661356493225, 28.034205025681004, -2.4119366480479427, -9.101666827240981, 4.057210009696926], [-11.138295424608676, 11.708348798615443, 0.33748341108191593, -0.9792816187512137, -5.387575513071977, -8.326120984170853, 1.6771407526462954, -11.600519028206973, -6.598279559401023, -7.50590836366427, -4.106963501979951, 18.057116444862956], [9.24824240409621, 4.847162973013561, -4.554284059194854, 6.2381914659633715, -11.078928481227358, 5.839251588576617, 12.97572742310357, 4.875922048622911, -13.396152934758467, -18.91074339310996, 5.228793208512274, -2.6283196580963537], [-5.604431374047241, -10.887626764626846, -6.016459335711136, -4.333006997639222, -3.0696539199230664, 37.26772315847255, -7.328946456610593, -3.0309747104672513, 6.173833503934034, 7.077754056160926, 4.674285804351544, 5.653382751470281], [-9.51034629925003, 20.22883163406496, -3.920735184926085, -10.634910966006903, 10.798372872143915, 9.463987530376441, -5.050265975648462, -7.815204050134335, -2.473340746253153, 7.091352668664619, -5.256115707424274, -13.02737271369012], [1.0878488417383725, 17.87152279695549, -20.41074253538809, -7.621823063898755, -5.327514194943625, -14.723345395370382, 15.807102970994478, 1.9010871901169828, 5.667078902288424, -17.797559922205803, 33.03917429597629, 29.345994461372836], [-5.17375446264379, -22.75502737372759, 0.5329352331090353, 7.293081949770071, -12.028033959578458, -11.544003388010829, 10.468821420883387, 2.406089297741925, 17.044885822211, -30.394029003349857, -7.797276639343442, -9.86321339643397]], "weights_ho": [[-5.503838125365043, -9.842621852378137, -0.23736069659197423, -4.741881789645555, 13.821399101241163, -25.675284614883804, 18.87846648312392, 27.637287331249897, 10.071796070409205, -10.354825115900393, -15.324511834710039, 1.5103177828532337, -4.1424854327456035, -0.7242905544360987, 14.101159521451223, 3.756809361926654], [-6.469173712817579, -2.6936041309048697, 9.853904850874866, -18.81680845820494, 17.912057809761553, -10.376617837024142, 4.478957221860058, -1.3148486697020567, -10.192867103503074, 5.489422823091818, 16.98349183687918, -38.15829139649733, -3.7324308440177556, 6.741338543133487, -19.14975455729604, -8.068944242371932], [4.11977417520996, -6.568382013748949, -4.789065567523211, -2.904827488272162, -8.199005755593083, 6.881352693546394, -4.285999105904161, 0.32993343392102986, 3.481345780459581, 5.928051795362425, 21.961096728419825, -5.936064144363167, 12.467661353634583, -24.42067512597566, -18.987642545986944, 7.1995888883049615], [-2.448596122358812, 31.512484128547065, -13.551451036806338, 8.786847019299273, -3.5944069264396865, -1.4249722764674158, 11.146874244613628, -3.089954930792452, 28.823996493824822, -23.69769381009739, 8.009431958441315, -11.024315176099286, -15.040466968250563, -5.5868449135188225, -1.6984058833806934, 14.902847949195769]], "bias_h": [[-9.739353995680204], [-8.350600963440836], [-11.824142012267515], [-17.912064583656825], [-1.9593671093709126], [6.429298977683102], [21.71464083542292], [20.90494556149531], [3.76227123802372], [-0.8314449517388456], [1.4731496273983804], [15.294327557159688], [7.643026238034644], [1.8283913283156854], [13.59249520586318], [7.773303529785332]], "bias_o": [[-4.379524785796182], [-0.8157701068206947], [-11.685763921310148], [-12.686610503499223]]}, {"input_nodes": 12, "hidden_nodes": 16, "output_nodes": 4, "weights_ih": [[1.1485066290980446, 6.219611913717076, -8.222880877903874, -3.974532595289981, 7.148694833291532, -8.330555439149599, 8.235370788852968, -0.5720265447875048, 4.423286726210204, 0.13242148803671114, -5.682076337557722, -17.617490896411592], [0.13438450471582897, -13.044720474113742, 6.431512802057133, -2.654646670232995, 13.438527048055384, -5.33602588892786, 17.987926466781698, 10.415055503144758, 1.0894760562619612, -4.965762479274449, -9.31455606092196, 16.27574983370329], [7.763444649820861, 6.509791184715237, -4.844920282087426, 9.09151329053982, -16.672664552345847, -10.331091103579723, 16.56706289145906, -12.939570537168757, 18.11083297272959, -5.920833081227972, 16.79728282357595, -5.675996565792031], [-0.78970978050444, 25.453111735110618, -21.198904819844135, 3.283190877895251, -3.3916878875821976, -2.9393352264470654, -9.546673492246162, 8.717213548657782, 8.628899912061586, -0.056093573011942253, 1.9059935084164334, -16.855662752240317], [2.466539737307909, -12.726059561085686, -3.033509855131696, -11.944545506619772, -4.195879425727703, 16.517190252459006, 6.63819880539336, -11.097537729634043, -0.3960311972559068, 10.59795326203876, 2.9700413561779513, 1.646764519415712], [-16.649544880309712, -3.6624375413890893, 15.018155472597277, 3.0245768802095427, 6.453419627008439, 20.447876595698556, 20.094631392757, 3.7998044094243255, 3.1543130492600184, -20.727642586175843, -12.369726939403197, -16.85843032872829], [5.599112873694385, -4.289165036615244, -16.414005576355127, 11.056742269105122, 6.568531445396847, 7.930626868808837, 15.483853998534983, 13.337353533150539, 6.919968460961115, -3.8249427011968318, 5.336141806977049, 8.424269655222009], [2.362398199994985, 3.56103906555864, -12.161977206928198, -16.04295167101002, -8.058959353570032, 9.166239241930837, -5.6599829051113115, 9.14350068397704, 17.76053230093032, -15.811272143049685, 16.051802642530557, -8.397185226540154], [2.551577732325491, -20.821160070705993, -1.766440361720861, 11.752148220471065, -10.136401406262326, -21.760743404832688, -5.885797438149436, 18.1350807575536, 18.568771333168115, -19.42047324436068, -7.879735029872766, -1.3128560442317465], [6.834042035884963, -1.013845772056376, 17.22533906381733, 3.9674452791032655, 1.0828984065100438, 9.051665877043614, 2.9237103020258677, -4.7424324382858805, 28.054310508607482, -2.409091095775673, -9.235006915911296, 4.1121676436303245], [-11.368037545882231, 11.708348798615443, 0.3177328524068777, -1.1249407607703459, -5.275775357203339, -8.385046385231425, 1.6710644268717318, -11.600519028206973, -6.598279559401023, -7.56189455413264, -3.948102195321349, 17.77725599289805], [9.325290774963582, 5.1652597535339515, -4.672372568692153, 6.198512968966947, -11.025472354148546, 5.71618126049782, 13.046812310574404, 4.8920842411072005, -13.36175940127127, -18.91074339310996, 5.22042258345891, -2.603682571085725], [-5.604381882498608, -10.887626764626846, -6.173696657781397, -4.360180406081914, -2.9470139588019286, 37.26772315847255, -7.230210910444992, -3.0757149551821596, 6.173833503934034, 7.096118806381809, 4.674285804351544, 5.68166458402837], [-9.51034629925003, 20.365544767274187, -3.895483273493864, -10.634910966006903, 11.093068114795791, 9.504711660301497, -4.864635982302475, -7.881602401062544, -2.2496044681255674, 7.104851181861013, -5.244727452021684, -13.156845208591381], [1.0878488417383725, 17.74710295081564, -20.342491576135842, -7.637456790560522, -5.327514194943625, -14.80627344605916, 15.807102970994478, 2.041423232583854, 5.474200337903974, -17.648284478302838, 33.02749586163634, 29.1022325693201], [-5.093589489107995, -22.69443190986467, 0.58492166438404, 7.505286457762122, -12.028033959578458, -11.662541108904414, 10.566332049543643, 2.122896822225907, 16.733538133296197, -30.37128443809651, -7.8443886778265615, -9.904634268359272]], "weights_ho": [[-5.503838125365043, -9.904086121240166, -0.23736069659197423, -4.741881789645555, 13.821399101241163, -25.675284614883804, 18.968334675092642, 27.456643087467356, 9.781729150525395, -10.457967406219936, -15.488482152464353, 1.5103177828532337, -4.165386832109713, -0.7242905544360987, 14.060658477637757, 3.9619499496883797], [-6.39611018528843, -2.7108719647633492, 9.929473689964965, -18.58417620074965, 17.77691931726157, -10.436479719834008, 4.591321279572424, -1.3805211685449597, -10.192867103503074, 5.489422823091818, 16.98349183687918, -38.31252543174655, -3.7324308440177556, 6.845685486029295, -19.116477720259812, -8.068944242371932], [4.213027706111975, -6.568382013748949, -4.598676367011154, -2.9975757731854036, -8.247292608925738, 6.833669994410585, -4.417273422632013, 0.2906283235085805, 3.481345780459581, 6.011870265578388, 22.03956809039638, -6.039653113386261, 12.467661353634583, -24.42067512597566, -19.13417169746556, 7.1995888883049615], [-2.466276696481167, 31.522238204653206, -13.568002391649275, 8.741694276610735, -3.7343519543241133, -1.4783662697353601, 10.960971245522792, -3.1921333213304477, 28.594020072391547, -23.629652492089864, 8.009431958441315, -10.97552999225775, -15.139152870819354, -5.636778799939345, -1.700517382187411, 14.890714568814847]], "bias_h": [[-9.982390724522137], [-8.403272604719573], [-11.739582894324219], [-17.90094272433324], [-1.9593671093709126], [6.429298977683102], [21.779246417563442], [20.943418386698053], [3.835208817457656], [-0.7549167631007087], [1.4182197391842664], [15.294327557159688], [7.72619205004328], [1.7686712279874275], [13.59249520586318], [7.709933322212435]], "bias_o": [[-4.345195164471223], [-0.8536560150075662], [-11.807086801405324], [-12.686610503499223]]}, {"input_nodes": 12, "hidden_nodes": 16, "output_nodes": 4, "weights_ih": [[1.2100948014485815, 6.08342875293271, -8.222880877903874, -3.948087361382479, 7.036504580869598, -8.273657823417672, 8.00118740941262, -0.43975446500794835, 4.481151883765637, 0.10239807644417886, -5.503577670057968, -17.628408119406995], [0.14428982534470797, -13.044720474113742, 6.431512802057133, -2.654646670232995, 13.42070371872943, -5.4995079052017815, 17.89159699173769, 10.563762719338552, 1.0894760562619612, -4.965762479274449, -9.3828812916322, 16.221620090141148], [7.902255341763427, 6.484150411663473, -4.872213190521706, 9.114355149677827, -16.672431725225174, -10.319227762478434, 16.56706289145906, -12.934379486684136, 17.972728776052058, -5.920833081227972, 16.671128097536116, -5.819252949252939], [-0.8607358635564242, 25.201161539459168, -21.12742943227033, 3.283190877895251, -3.3916878875821976, -2.859010798823154, -9.648347014015835, 8.679362387241884, 8.722786647685771, -0.19059235576731562, 1.9059935084164334, -16.857136987265765], [2.608456657645884, -12.809199507243434, -3.2955764888390298, -12.08490322264448, -4.201916212176236, 16.474293878587623, 6.789707756579096, -11.097537729634043, -0.36162518812839733, 10.516793200464164, 2.8394910984614015, 1.6237574982165706], [-16.72803188086045, -3.7244622140771986, 14.966449295690955, 3.2447470317607534, 6.506220544501324, 20.621030160194955, 20.253941524804382, 3.9028736467526204, 3.1348812519186335, -20.733609192794404, -12.369726939403197, -16.909964054193495], [5.471452949604597, -3.9338988111555486, -16.34690712115871, 11.048342344348935, 6.440388042384218, 7.9339114927818795, 15.6619133880819, 13.180576645100663, 6.958423512914346, -3.7677574829691394, 5.459480582460338, 8.412284829362031], [2.4707881945965418, 3.56103906555864, -12.20586569436664, -16.074209770281, -7.896432040178196, 9.135682390980028, -5.603340693059293, 9.14350068397704, 17.840230403751743, -16.02206031143878, 15.925638136351344, -8.39556314397562], [2.551577732325491, -20.821160070705993, -1.5850995298991275, 11.773732319019196, -10.136401406262326, -21.863405218896897, -5.894892848083361, 18.208378164234322, 18.49972101031716, -19.42047324436068, -7.668504351608069, -1.4328800705622962], [6.648862142966908, -1.1355764858858097, 17.00806981726341, 3.558458928474953, 1.1797924450280004, 9.126353168150331, 2.8651439953464135, -4.786299059924366, 28.022953537418953, -2.312191385341652, -9.101666827240981, 3.963362830699424], [-11.286488781912752, 11.652122715274606, 0.3177328524068777, -1.0569265854535277, -5.179170176620409, -8.307794255011162, 1.6613548391463782, -11.718567463718085, -6.687563906696864, -7.506824529110974, -4.2103581988826955, 17.77725599289805], [9.325290774963582, 4.982664487199011, -4.554284059194854, 6.166690967320146, -11.266019104249544, 5.71618126049782, 13.044226004688786, 4.8920842411072005, -13.61335770197137, -18.91074339310996, 5.172492509221574, -2.788256073409098], [-5.604431374047241, -10.887626764626846, -6.024593834796185, -4.345950451434614, -2.9470139588019286, 37.26772315847255, -7.294220469458351, -3.052098464987314, 6.163341097228535, 6.980444305923112, 4.674285804351544, 5.678463637677765], [-9.51034629925003, 20.365544767274187, -3.957953597088153, -10.634910966006903, 11.093068114795791, 9.702348663736295, -5.0155975694122565, -7.881602401062544, -2.5367782150849854, 7.066170497008619, -5.256115707424274, -13.144285922096218], [1.2023772685699043, 17.618504056465245, -20.342491576135842, -7.621823063898755, -5.2302433474833965, -14.70474856824617, 15.807102970994478, 2.0191371351540965, 5.5955657514853065, -17.797559922205803, 32.946535756654434, 29.1022325693201], [-5.22656675736099, -22.744187151996325, 0.7100830365433212, 7.381042068054671, -11.921900568972129, -11.688973576374766, 10.409147232623212, 2.379428132577696, 17.044885822211, -30.37128443809651, -7.8585347453502505, -9.904634268359272]], "weights_ho": [[-5.503838125365043, -10.090645785729587, -0.21147039593476186, -4.604855118039274, 13.898595892682028, -25.675284614883804, 18.968334675092642, 27.646099170318248, 9.98823043884531, -10.44641814010391, -15.324511834710039, 1.449463730031419, -3.975785058377468, -0.7242905544360987, 14.060658477637757, 4.005072460055205], [-6.3749325812401825, -2.847670620465702, 9.703346207078468, -18.58417620074965, 17.889737188407146, -10.396643928126322, 4.529988312956456, -1.3360078238055015, -10.192867103503074, 5.626262128524606, 17.001540702987196, -38.15829139649733, -3.5466001077493265, 6.677653991364978, -19.11302255302427, -8.068944242371932], [4.068682616174971, -6.550121630936896, -4.739397608844587, -2.9336198498010955, -8.203824648311462, 6.861013500233906, -4.285999105904161, 0.2906283235085805, 3.481345780459581, 5.936913952352951, 21.85373389688081, -5.991575816725851, 12.73223361421937, -24.42067512597566, -19.13417169746556, 7.0814009122372426], [-2.466276696481167, 31.512484128547065, -13.551451036806338, 8.634634418800594, -3.5944069264396865, -1.3971285312663448, 10.849086698749439, -3.089954930792452, 28.657387373116595, -23.69769381009739, 8.009431958441315, -11.091056399185652, -15.148407931639989, -5.755866652737948, -1.700517382187411, 14.902847949195769]], "bias_h": [[-9.982390724522137], [-8.315209778714934], [-11.739582894324219], [-17.95922890344443], [-1.7062917055787488], [6.423003767365312], [21.897280989613066], [21.031177012042775], [3.620947609267792], [-0.7045188778674147], [1.491225374318704], [15.294327557159688], [7.72619205004328], [1.7441992492602287], [13.59249520586318], [7.768175737517887]], "bias_o": [[-4.452972542047961], [-0.7936596643884781], [-11.754549572126841], [-12.686610503499223]]}, {"input_nodes": 12, "hidden_nodes": 16, "output_nodes": 4, "weights_ih": [[1.1485066290980446, 6.149521846990504, -8.201802155045032, -3.948087361382479, 7.091104362755532, -8.39355123423291, 8.215611081464727, -0.4771840211964456, 4.423286726210204, 0.10239807644417886, -5.868794640173929, -17.628408119406995], [0.012053700500610831, -13.044720474113742, 6.404628340936935, -2.64859249165858, 13.342957383478613, -5.419777607957594, 17.812546822561913, 10.415055503144758, 1.005458860069009, -4.965762479274449, -9.272977966406797, 16.17963351352716], [7.902255341763427, 6.484150411663473, -4.82452429181902, 9.114355149677827, -16.549546479567773, -10.331091103579723, 16.670115124789646, -12.934379486684136, 18.0640384695002, -5.896335744294824, 16.885134202860115, -5.5767554728754725], [-0.78970978050444, 25.31850436792648, -21.15328236411717, 3.334194682134426, -3.3916878875821976, -2.859010798823154, -9.64200967283709, 8.818622551051876, 8.715094886795509, -0.056567067279799814, 1.9059935084164334, -16.857136987265765], [2.5161151460360953, -12.830479949604147, -3.033509855131696, -11.92390151509719, -4.201916212176236, 16.45165235252812, 6.74411029529678, -11.219734208212438, -0.27309130040131363, 10.444424801899457, 2.9700413561779513, 1.646764519415712], [-16.731248332309683, -3.7244622140771986, 15.237767740273359, 3.002294487979711, 6.453419627008439, 20.447876595698556, 20.253941524804382, 3.8425814435371066, 3.1319910194180025, -20.75387840665488, -12.340351622118833, -16.85843032872829], [5.599112873694385, -4.101988317658348, -16.414005576355127, 11.056742269105122, 6.557694746554936, 7.890473736635247, 15.628387163779434, 13.337353533150539, 7.015720757509626, -3.8315367304073735, 5.1010353776998025, 8.3494237252881], [2.418742265276308, 3.4237084348648774, -11.99871880955919, -15.888111191921158, -7.977593116591927, 9.258566480092796, -5.557765663875873, 9.14350068397704, 17.76053230093032, -16.02206031143878, 16.085534848643643, -8.402214892670003], [2.551577732325491, -20.821160070705993, -1.8644506838619406, 11.752148220471065, -10.136401406262326, -21.799926079425198, -5.795657264730087, 18.237248844241133, 18.539851595236346, -19.423893468425657, -7.879735029872766, -1.3128560442317465], [6.813810259175459, -1.0537249099198305, 17.065799558085345, 3.871952519440406, 1.3618076178317229, 9.10129332266933, 2.9237103020258677, -4.8770305314281925, 28.034205025681004, -2.39111564619842, -9.101666827240981, 3.963362830699424], [-11.368037545882231, 11.708348798615443, 0.3177328524068777, -1.1501990852770625, -5.179170176620409, -8.307794255011162, 1.6895704139320933, -11.600519028206973, -6.5832347091336185, -7.506824529110974, -4.106963501979951, 17.77725599289805], [9.295235240093147, 5.143133225935934, -4.528021322996525, 6.166846936595145, -11.078928481227358, 5.71618126049782, 12.888836614187625, 4.8920842411072005, -13.602465686844198, -18.91074339310996, 5.228793208512274, -2.504786853941833], [-5.604431374047241, -10.887626764626846, -6.09319946784522, -4.374091479664119, -2.9470139588019286, 37.26772315847255, -7.461833409252683, -2.8542849724358987, 6.037821049271415, 7.077754056160926, 4.674285804351544, 5.65513556081328], [-9.51034629925003, 20.365544767274187, -3.9249993642485674, -10.634910966006903, 11.165647900289773, 9.580378097281349, -4.864635982302475, -7.881602401062544, -2.473340746253153, 6.963261430469391, -5.256115707424274, -13.144285922096218], [1.0878488417383725, 17.74710295081564, -20.342491576135842, -7.7959231543037575, -5.241233040807574, -14.723345395370382, 15.807102970994478, 2.1206202656942357, 5.5955657514853065, -17.797559922205803, 33.09034485079246, 29.1022325693201], [-5.17375446264379, -22.77921692732215, 0.5329352331090353, 7.396226137254439, -12.028033959578458, -11.688973576374766, 10.409147232623212, 2.3766255791003927, 17.044885822211, -30.448056857021605, -7.8443886778265615, -9.911754635389231]], "weights_ho": [[-5.503838125365043, -9.904086121240166, -0.3222773223193771, -4.731089677728838, 13.821399101241163, -25.675284614883804, 18.968334675092642, 27.63925811513506, 10.002022627375856, -10.43588610902215, -15.324511834710039, 1.5103177828532337, -4.187339133904283, -0.7242905544360987, 14.060658477637757, 3.9619499496883797], [-6.2750124377869785, -2.7108719647633492, 9.955333123802017, -18.678239114884992, 17.884446043639215, -10.520893413639612, 4.478957221860058, -1.3360078238055015, -10.10681967461623, 5.533505038852275, 16.98349183687918, -38.2512668236963, -3.7324308440177556, 6.674218005249672, -19.116477720259812, -7.916805585045269], [4.044535282963197, -6.568382013748949, -4.941734027718642, -3.0867694457257726, -8.259098874047966, 6.861013500233906, -4.122182716624146, 0.3239941480814904, 3.5594280807340937, 5.936913952352951, 21.9987148216358, -5.991575816725851, 12.467661353634583, -24.42067512597566, -19.231298352241527, 7.1918467995913415], [-2.505900832535355, 31.512484128547065, -13.67979505836561, 8.634634418800594, -3.5790218719967206, -1.3971285312663448, 10.990706875673933, -3.089954930792452, 28.657387373116595, -23.518779295975634, 8.008625462978282, -11.030403127516772, -15.148407931639989, -5.5868449135188225, -1.7712542585010804, 14.902847949195769]], "bias_h": [[-9.983177580945608], [-8.198813149323204], [-11.728872934213669], [-18.094833622856385], [-1.979557901999242], [6.50659264647079], [21.71464083542292], [20.97863294671315], [3.7949890902592514], [-0.7045188778674147], [1.4731496273983804], [15.28926650844024], [7.61268010887183], [1.7686712279874275], [13.545461918335901], [7.768175737517887]], "bias_o": [[-4.343466689445661], [-0.8299256220926807], [-11.944762500517747], [-12.686610503499223]]}, {"input_nodes": 12, "hidden_nodes": 16, "output_nodes": 4, "weights_ih": [[1.1485066290980446, 6.039476924866238, -8.308304966139863, -3.910638786975821, 7.009752271359177, -8.311788031180209, 8.215611081464727, -0.5676570548038379, 4.423286726210204, 0.10239807644417886, -5.647701479010037, -17.661622936084846], [0.122111200026807, -13.018589453114368, 6.483608976727318, -2.654646670232995, 13.291301577396242, -5.380880377257474, 17.812546822561913, 10.415055503144758, 1.0894760562619612, -4.965762479274449, -9.372808232398624, 16.254872842326247], [8.044234533756384, 6.4781908184584855, -4.8448170749891535, 9.114355149677827, -16.672664552345847, -10.331091103579723, 16.571662313899754, -12.934379486684136, 18.11083297272959, -5.980658662609556, 16.79728282357595, -5.627606224298837], [-0.78970978050444, 25.534095320432844, -21.12742943227033, 3.291135757826132, -3.3001360669969433, -2.9140749589841715, -9.648347014015835, 8.691593811825445, 8.70693752820443, -0.056567067279799814, 1.978938713041118, -16.857136987265765], [2.602826751693346, -12.809199507243434, -3.0682068439172205, -12.241262336970355, -4.171416151775892, 16.45165235252812, 6.781927961766395, -11.204141902204773, -0.434923163444363, 10.47512750723111, 2.7021462859474417, 1.646764519415712], [-16.75882027518579, -3.525207518500305, 14.954805762441342, 3.0245768802095427, 6.479789165060897, 20.435171950025033, 20.223356095339025, 3.886962538945321, 3.1074131423740305, -20.627116250689156, -12.369726939403197, -16.84010974421902], [5.520791675150382, -4.098092581203592, -16.367499194980315, 10.852276543117396, 6.5644536135923905, 8.026694781441535, 15.39988078327294, 13.409246581208896, 7.015720757509626, -3.7940355969392474, 5.288634095797196, 8.412284829362031], [2.3758233035884624, 3.56103906555864, -12.161977206928198, -15.931435598040984, -8.026680623383502, 9.104328922162154, -5.603340693059293, 9.215318204382992, 17.85197513537505, -16.032368934222532, 16.092473930698546, -8.397185226540154], [2.551577732325491, -20.821160070705993, -1.766440361720861, 11.768747211870771, -10.240869542259096, -21.799926079425198, -5.920382380297544, 18.162846266471963, 18.539851595236346, -19.42047324436068, -7.828791840568821, -1.3128560442317465], [6.813810259175459, -1.2251167047870277, 17.060254634772573, 3.799193201287524, 1.1797924450280004, 9.125929775254486, 3.039580398580283, -4.820259745462171, 28.034205025681004, -2.312191385341652, -9.046167862062367, 3.9213476087408696], [-11.368037545882231, 11.642612761514894, 0.3177328524068777, -1.1249407607703459, -5.264690917030032, -8.307794255011162, 1.6771407526462954, -11.600519028206973, -6.486966059023251, -7.519717596469142, -4.106963501979951, 17.79276521067748], [9.325290774963582, 4.982664487199011, -4.656507562151431, 6.2381914659633715, -11.078928481227358, 5.71618126049782, 12.994805663721316, 4.8920842411072005, -13.54064553576966, -18.91074339310996, 5.228793208512274, -2.6283196580963537], [-5.604431374047241, -10.887626764626846, -6.016459335711136, -4.174888469230865, -2.9891690791526475, 37.26772315847255, -7.330274383693084, -3.052098464987314, 6.173833503934034, 6.987076611578386, 4.674285804351544, 5.65513556081328], [-9.51034629925003, 20.364914422473646, -4.086119328041985, -10.46753390649543, 11.196456606058929, 9.478967751323532, -4.864635982302475, -7.881602401062544, -2.473340746253153, 7.104851181861013, -5.32284094189512, -13.144285922096218], [1.0878488417383725, 17.953256842111205, -20.342491576135842, -7.621823063898755, -5.409495077130034, -14.58389163595217, 15.807102970994478, 2.0417696017965796, 5.635348856608846, -17.737362192890668, 33.13461070663635, 29.1022325693201], [-5.317382980667033, -22.957665725809157, 0.5446152766638804, 7.4198543083147666, -12.028033959578458, -11.841926260663616, 10.599231576687473, 2.1935150975165905, 17.164757531087318, -30.37128443809651, -7.8443886778265615, -9.920173207532795]], "weights_ho": [[-5.664405890916922, -9.859032757501929, -0.23736069659197423, -4.741881789645555, 13.735587574148422, -25.626626351504576, 19.02748465254852, 27.806608152915455, 10.268493532912261, -10.328585853384626, -15.381689010633856, 1.5103177828532337, -4.175511325224325, -0.5382068809297219, 13.975687183241002, 4.043551462942184], [-6.39611018528843, -2.6080967992762716, 9.803619988418932, -18.67087348145503, 18.009553121662826, -10.488606459674761, 4.496119493433266, -1.3360078238055015, -10.185424567254541, 5.617693599635252, 17.08130328200365, -38.15829139649733, -3.7324308440177556, 6.79890324484206, -19.116477720259812, -8.068944242371932], [3.948901323059744, -6.568382013748949, -4.793095782365856, -2.9589607090252783, -8.227955759929234, 6.73561999539931, -4.339897886154508, 0.2906283235085805, 3.481345780459581, 6.043110274814398, 21.961096728419825, -5.991575816725851, 12.573601504804902, -24.420045603163945, -19.13417169746556, 7.1995888883049615], [-2.529953280771639, 31.512484128547065, -13.570295279950644, 8.634634418800594, -3.5944069264396865, -1.4204868611488086, 11.036450067665498, -3.0631899101349025, 28.48561081487663, -23.80371197274789, 7.886433090326342, -11.024315176099286, -15.057912898597491, -5.7288345121168085, -1.8665613460395805, 14.819721097263923]], "bias_h": [[-10.01929140735845], [-8.387557733132262], [-11.687592857852817], [-17.912064583656825], [-1.9593671093709126], [6.627861348393321], [21.744971642852228], [20.97564980946864], [3.7949890902592514], [-0.5813290217074776], [1.4627301385905704], [15.294327557159688], [7.899278891883645], [1.8269038683709502], [13.59249520586318], [7.867874206856419]], "bias_o": [[-4.440702307098315], [-0.9019522925924122], [-11.760511417885105], [-12.801942862460525]]}, {"input_nodes": 12, "hidden_nodes": 16, "output_nodes": 4, "weights_ih": [[1.1485066290980446, 6.149521846990504, -8.249744878796017, -3.948087361382479, 7.253700805006983, -8.298704192721178, 8.134919814355593, -0.5676570548038379, 4.423286726210204, 0.10239807644417886, -5.743416705954244, -17.632583032615532], [0.13371107011169897, -13.044720474113742, 6.629303871688431, -2.654646670232995, 13.342957383478613, -5.417862459790844, 17.812546822561913, 10.181937878890617, 1.0894760562619612, -4.965762479274449, -9.43060482619053, 16.238108966382377], [7.902255341763427, 6.447209511688573, -4.88988831702186, 9.12185102558584, -16.672664552345847, -10.375116211916547, 16.654751043649014, -12.848318675773355, 18.144493995475134, -6.143671378362227, 16.89944486369205, -5.843487006410245], [-0.78970978050444, 25.261188609921618, -21.12742943227033, 3.283190877895251, -3.3916878875821976, -2.859010798823154, -9.648347014015835, 8.691593811825445, 8.881653515012639, -0.056567067279799814, 1.9059935084164334, -16.857136987265765], [2.613010915418889, -12.809199507243434, -2.961981044493322, -12.05798304083399, -4.201916212176236, 16.45165235252812, 6.781927961766395, -11.097537729634043, -0.23557294113607471, 10.516793200464164, 2.9700413561779513, 1.646764519415712], [-16.88275367549996, -3.925104290049692, 14.966449295690955, 3.0245768802095427, 6.453419627008439, 20.447876595698556, 20.389166207213858, 3.7998044094243255, 3.198710542254351, -20.751458016657313, -12.369726939403197, -16.85843032872829], [5.599112873694385, -3.952663469582144, -16.414005576355127, 11.271253068188681, 6.557694746554936, 7.9339114927818795, 15.483853998534983, 13.348892714976518, 7.015720757509626, -3.626982015905626, 5.3632540273813, 8.412284829362031], [2.3379274449994414, 3.56103906555864, -12.161977206928198, -16.04295167101002, -8.14652126351593, 9.135682390980028, -5.603340693059293, 9.219481460820385, 17.874643645765705, -16.09580358705033, 16.085534848643643, -8.454640824497545], [2.551577732325491, -20.827333368536213, -1.8194045783396928, 11.664002891294885, -10.136401406262326, -21.799926079425198, -5.885797438149436, 18.162846266471963, 18.539851595236346, -19.290940881786394, -7.879735029872766, -1.2425647522405048], [6.877491182047675, -1.0537249099198305, 17.065799558085345, 3.888391815547643, 1.1680968323147056, 9.125929775254486, 2.9204923291008966, -4.828506971729848, 28.1503509609886, -2.312191385341652, -9.101666827240981, 3.963362830699424], [-11.368037545882231, 11.708348798615443, 0.3177328524068777, -1.0842474281608434, -5.236005433008122, -8.307794255011162, 1.6968044396958781, -11.600519028206973, -6.5889294377966925, -7.5748768091426335, -4.106963501979951, 17.77725599289805], [9.325290774963582, 4.982664487199011, -4.648938022421881, 6.2381914659633715, -10.968279668055349, 5.561028777802485, 12.962791125164516, 4.840306098069096, -13.54064553576966, -18.91074339310996, 5.407114340021751, -2.812105358784741], [-5.604431374047241, -11.103681792305075, -6.016459335711136, -4.496051507334167, -2.9470139588019286, 37.08860613061324, -7.182762798399474, -3.052098464987314, 6.173833503934034, 7.077754056160926, 4.803533621683528, 5.65513556081328], [-9.51034629925003, 20.18711219538507, -3.8548249942452033, -10.634910966006903, 11.15436170978023, 9.59935072385559, -4.897348054228645, -7.881602401062544, -2.473340746253153, 7.104851181861013, -5.256115707424274, -13.032151927212166], [1.0878488417383725, 17.904167030504592, -20.425002678584928, -7.68213000889761, -5.327514194943625, -14.67710030956535, 15.817614602687605, 2.041423232583854, 5.5955657514853065, -17.804554924287636, 33.09912589711825, 29.155253763700895], [-5.128028422570212, -22.687723089124564, 0.5329352331090353, 7.419763742628568, -12.066700515271185, -11.688973576374766, 10.409147232623212, 2.406089297741925, 17.044885822211, -30.610755241085165, -7.8443886778265615, -9.904634268359272]], "weights_ho": [[-5.503838125365043, -9.904086121240166, -0.3298529750914152, -4.676825683927871, 13.818799547444756, -25.675284614883804, 18.91450522120005, 27.566648887492867, 9.97065916384045, -10.511453900931036, -15.280030102435415, 1.5103177828532337, -4.146597886984097, -0.6876956471323205, 14.133834407795904, 3.853066736238649], [-6.39611018528843, -2.7108719647633492, 9.916267337970208, -18.58417620074965, 17.937824301519754, -10.73543558056376, 4.478957221860058, -1.3360078238055015, -10.26953080647678, 5.4867721548756725, 17.003384547775138, -38.15829139649733, -3.7324308440177556, 6.741338543133487, -19.07282599301613, -8.118713809692993], [4.068682616174971, -6.568382013748949, -4.789065567523211, -2.9589607090252783, -8.227955759929234, 6.744507266493633, -4.285999105904161, 0.09621308269914336, 3.70261558262309, 5.995849469884782, 21.961096728419825, -5.996895701963061, 12.467661353634583, -24.267432665009068, -19.156992644406923, 7.063286843130754], [-2.466276696481167, 31.512484128547065, -13.558762689455882, 8.56957793023852, -3.5944069264396865, -1.5020859678259075, 10.990706875673933, -3.089954930792452, 28.44110370052769, -23.80158152811993, 8.009431958441315, -11.024315176099286, -15.11937169043336, -5.602034038136939, -1.700517382187411, 14.902847949195769]], "bias_h": [[-9.982390724522137], [-8.340477214253395], [-11.669384556658553], [-17.912064583656825], [-1.8845184130932497], [6.357258481347343], [21.774970284095254], [21.008954019641763], [3.7949890902592514], [-0.7045188778674147], [1.5348334904373941], [15.294327557159688], [7.72619205004328], [1.7684282068673918], [13.59249520586318], [7.768175737517887]], "bias_o": [[-4.343466689445661], [-0.7563651160990451], [-11.636076297224115], [-12.686610503499223]]}, {"input_nodes": 12, "hidden_nodes": 16, "output_nodes": 4, "weights_ih": [[1.1485066290980446, 6.1723820526895175, -8.222880877903874, -3.948087361382479, 7.036504580869598, -8.324390237747565, 8.174210325905221, -0.5400075050501238, 4.443622019707323, 0.10239807644417886, -5.743416705954244, -17.628408119406995], [0.13438450471582897, -13.044720474113742, 6.39286229622571, -2.654646670232995, 13.51418566083517, -5.4399965690615595, 17.81789283034063, 10.393749258718152, 1.0894760562619612, -4.965762479274449, -9.3234718924956, 16.223699179680736], [8.02520452955219, 6.484150411663473, -4.924979354137586, 9.114355149677827, -16.749902303041804, -10.442039218529114, 16.56706289145906, -12.919731005406105, 18.138126832941566, -6.0426588915911, 16.79728282357595, -5.675996565792031], [-0.7544436303411863, 25.406577967564974, -20.97606454476275, 3.3105755315714314, -3.3277943778451435, -2.859010798823154, -9.638677285331788, 8.691593811825445, 8.912203636219346, -0.056567067279799814, 1.9861343734209167, -16.857136987265765], [2.602826751693346, -12.815735456475258, -3.033509855131696, -12.011120846445202, -4.109402840925995, 16.319106772190676, 6.801250488579764, -11.190396163552375, -0.39389148010844477, 10.516793200464164, 2.921488628904315, 1.646764519415712], [-16.731248332309683, -3.7723348517287043, 14.871068999517675, 3.1605494951195334, 6.453419627008439, 20.447876595698556, 20.136122179578663, 3.932500704592641, 3.1543130492600184, -20.813990609682822, -12.369726939403197, -16.85843032872829], [5.599112873694385, -4.1581235588326875, -16.543819058926807, 11.057977628104787, 6.557694746554936, 7.9339114927818795, 15.483853998534983, 13.346845131894524, 7.015720757509626, -3.7188532507381704, 5.288634095797196, 8.412284829362031], [2.4224839240860656, 3.6341118798382492, -12.210371958382268, -16.04295167101002, -8.058959353570032, 9.245778164159496, -5.559752689285432, 9.14350068397704, 17.85307594906393, -16.00694037580967, 16.085534848643643, -8.397185226540154], [2.551577732325491, -20.685013619058118, -1.766440361720861, 11.752148220471065, -10.089360342289622, -21.77337050934566, -5.885797438149436, 18.162846266471963, 18.539851595236346, -19.42047324436068, -7.879735029872766, -1.3072639717265697], [6.813810259175459, -0.9837205989380029, 17.065799558085345, 3.8953757819813477, 1.1797924450280004, 9.186597364374883, 2.80988697755006, -4.849240471888782, 27.993698908886223, -2.3367834892386874, -9.101666827240981, 3.963362830699424], [-11.368037545882231, 11.708348798615443, 0.3177328524068777, -1.1249407607703459, -5.179170176620409, -8.389801441733221, 1.6771407526462954, -11.600519028206973, -6.568632370748171, -7.506824529110974, -4.106963501979951, 17.77725599289805], [9.295612901492596, 4.98294874793794, -4.4726564581600385, 6.2381914659633715, -11.084307435227464, 5.639808218492728, 12.994805663721316, 4.8920842411072005, -13.54064553576966, -18.91074339310996, 5.228793208512274, -2.508532703113494], [-5.6767304182590905, -10.876812323443254, -5.986469425679292, -4.2734819261893415, -2.9470139588019286, 37.26772315847255, -7.394050719269518, -3.052098464987314, 6.110442464948553, 7.077754056160926, 4.677346726197615, 5.65513556081328], [-9.433560706704252, 20.365544767274187, -3.8106591531000595, -10.642671834067436, 11.095870659816637, 9.618110802653428, -4.875895752451213, -7.856250689726859, -2.4704541169410734, 7.104851181861013, -5.225378189570888, -13.164787432262075], [1.0878488417383725, 17.819029565920214, -20.40559102470648, -7.621823063898755, -5.237564255656442, -14.758915853974463, 15.806353539358913, 2.0774600126593312, 5.5955657514853065, -17.800665130570746, 33.09912589711825, 28.92703519233655], [-5.17375446264379, -22.741025420639172, 0.5329352331090353, 7.396226137254439, -12.014267226069563, -11.703133319611936, 10.409147232623212, 2.406089297741925, 17.01833782104068, -30.37128443809651, -7.958130288799505, -9.904634268359272]], "weights_ho": [[-5.503838125365043, -9.904086121240166, -0.3972251078882534, -4.741881789645555, 13.869724860754943, -25.586076131200056, 18.94703457681268, 27.567808716895485, 9.97065916384045, -10.341258182418905, -15.324511834710039, 1.655856776918976, -4.2412180617601525, -0.9114529470356669, 13.946182523401848, 3.9619499496883797], [-6.401339340670897, -2.7108719647633492, 9.79994624664756, -18.58417620074965, 17.889737188407146, -10.444242746100507, 4.478957221860058, -1.3360078238055015, -10.117009505106562, 5.524468788390074, 16.833016553350216, -38.14250032728745, -3.690118022119719, 6.622098057268256, -19.110228737262844, -8.068944242371932], [3.960096182192152, -6.719979907022593, -4.584856012079832, -3.016004549114144, -8.227955759929234, 6.861013500233906, -4.285999105904161, 0.32253395816109215, 3.6442946347018337, 5.936913952352951, 21.985272615909683, -6.010832560274867, 12.457897417398504, -24.42067512597566, -18.912478786715607, 7.096176543635473], [-2.608472601277495, 31.512484128547065, -13.551451036806338, 8.622011564880047, -3.5944069264396865, -1.440999009661844, 11.05709476007521, -3.089954930792452, 28.535182670891544, -23.69769381009739, 8.159057542730784, -11.024315176099286, -15.00414006254743, -5.623826514896587, -1.700517382187411, 14.902847949195769]], "bias_h": [[-9.94653351076722], [-8.350600963440836], [-11.763559431776843], [-17.912064583656825], [-1.9593671093709126], [6.429298977683102], [21.71464083542292], [21.130984623104066], [3.743328266965354], [-0.8141859718065937], [1.5810243855307036], [15.219793220802945], [7.753187527153737], [1.867696852805555], [13.59249520586318], [7.768175737517887]], "bias_o": [[-4.43302859259213], [-0.8157701068206947], [-11.760511417885105], [-12.686610503499223]]}, {"input_nodes": 12, "hidden_nodes": 16, "output_nodes": 4, "weights_ih": [[1.1485066290980446, 6.149521846990504, -8.062962913825396, -3.948087361382479, 6.904571671580393, -8.125314498492056, 8.215611081464727, -0.5676570548038379, 4.532136797325795, 0.03961713333719903, -5.743416705954244, -17.809515265355653], [0.13438450471582897, -13.044720474113742, 6.3270299895203825, -2.654646670232995, 13.333814151459503, -5.3330166212436785, 17.94765746074782, 10.415055503144758, 1.0894760562619612, -5.197027303597535, -9.3828812916322, 16.051543283051096], [7.60622609093702, 6.490643926575751, -4.7096003321952855, 8.90160178249545, -16.672664552345847, -10.191593706345618, 16.56706289145906, -12.88629798917995, 18.11083297272959, -5.923832431811718, 16.79728282357595, -5.4853458537672575], [-0.78970978050444, 25.31850436792648, -21.12742943227033, 3.1626649721182694, -3.5678358830272803, -2.859010798823154, -9.648347014015835, 8.691593811825445, 8.638883965414921, -0.13979008437860335, 1.9321631657366485, -16.857136987265765], [2.722503778278142, -12.809199507243434, -2.9723537886602305, -12.001901357859545, -4.175523909158199, 16.45165235252812, 6.781927961766395, -11.10660024705388, -0.3960311972559068, 10.528461162286886, 2.9700413561779513, 1.620889560345604], [-16.731248332309683, -3.7244622140771986, 14.966449295690955, 3.049786746080309, 6.515165007331852, 20.447876595698556, 20.367419656916347, 3.7998044094243255, 3.1543130492600184, -20.75387840665488, -12.369726939403197, -16.778842647710302], [5.446935091616265, -4.128757409303659, -16.414005576355127, 11.056742269105122, 6.557694746554936, 7.9339114927818795, 15.483853998534983, 13.274296354441852, 7.015720757509626, -3.7677574829691394, 5.288634095797196, 8.412284829362031], [2.37733458112394, 3.56103906555864, -12.161977206928198, -16.04295167101002, -7.919082434423212, 9.135682390980028, -5.603340693059293, 9.14350068397704, 17.673689964862238, -16.02206031143878, 16.129192716292653, -8.436189995268098], [2.7544928384357092, -20.817562273288075, -1.7965693482622234, 11.752148220471065, -10.03733643064941, -21.790060257797286, -5.885797438149436, 18.162846266471963, 18.539851595236346, -19.42047324436068, -7.886050409621838, -1.4038282052234745], [6.695875425672672, -1.0537249099198305, 17.344082147956538, 3.871952519440406, 1.1797924450280004, 9.125929775254486, 2.9237103020258677, -4.820259745462171, 28.034205025681004, -2.312191385341652, -9.101666827240981, 3.9616641984019485], [-11.382246990043011, 11.453773655899484, 0.07849664222675026, -1.2712983285795814, -5.330764651838256, -8.307794255011162, 1.6771407526462954, -11.600519028206973, -6.597486973642129, -7.506824529110974, -4.14992756798052, 17.77725599289805], [9.290183886017195, 4.982664487199011, -4.469968808405156, 6.2381914659633715, -11.023694770473892, 5.71618126049782, 12.994805663721316, 4.835778913725588, -13.62201108832117, -18.91074339310996, 5.198859102547487, -2.6283196580963537], [-5.687173176088629, -11.011942250363083, -6.101307742468168, -4.39383436064976, -3.042563202723738, 37.26772315847255, -7.303639575308788, -3.052098464987314, 6.143045886548474, 7.014367462902462, 4.674285804351544, 5.538818543705714], [-9.593196915580021, 20.365544767274187, -3.920735184926085, -10.634910966006903, 11.093068114795791, 9.504711660301497, -4.864635982302475, -7.933227808879526, -2.5620733050458715, 7.2741573065514915, -5.289853862212924, -13.196025595986605], [1.0878488417383725, 17.747460670984733, -20.565192254792674, -7.621823063898755, -5.327514194943625, -14.817242211990791, 15.807102970994478, 2.041423232583854, 5.5955657514853065, -17.69620268701022, 33.09912589711825, 29.126146735013258], [-5.17375446264379, -22.909607781212507, 0.5115936323978585, 7.2114923512855205, -12.028033959578458, -11.714834983510151, 10.409147232623212, 2.406089297741925, 17.044885822211, -30.266257627821137, -7.885730311015906, -9.904634268359272]], "weights_ho": [[-5.503838125365043, -9.904086121240166, -0.3019690707041757, -4.741881789645555, 13.672791414745568, -25.675284614883804, 18.968334675092642, 27.63925811513506, 10.015863503081487, -10.44641814010391, -15.467373140992892, 1.6374271383425072, -4.3528559517329475, -0.7480286585833257, 14.0061538747807, 4.022600569962815], [-6.39611018528843, -2.7108719647633492, 9.79994624664756, -18.621648857815725, 17.889737188407146, -10.721161976162232, 4.521829072346456, -1.5760219288351804, -10.207280376965008, 5.489422823091818, 17.104310839167066, -38.15829139649733, -3.7324308440177556, 6.841733117988215, -19.1391665706027, -7.832401745625154], [4.068682616174971, -6.568382013748949, -4.969090512799439, -2.9589607090252783, -8.260939823311382, 6.861013500233906, -4.236700225828239, 0.2906283235085805, 3.4101757210714094, 5.936913952352951, 21.961096728419825, -5.991575816725851, 12.259362662493215, -24.30693454594519, -19.13417169746556, 7.058998030225666], [-2.336828823153296, 31.493157889278766, -13.525976836099876, 8.735072181058506, -3.5944069264396865, -1.3971285312663448, 10.961281362503298, -2.881190569416427, 28.61167654185349, -23.69769381009739, 7.813285443355102, -11.012897551408633, -15.148407931639989, -5.5868449135188225, -1.700517382187411, 14.969476930011867]], "bias_h": [[-9.929719792385384], [-8.350600963440836], [-11.739582894324219], [-17.76264010549889], [-1.9593671093709126], [6.429298977683102], [21.605575549686137], [20.9253988000508], [3.5608143416086753], [-0.9154463333922125], [1.4731496273983804], [15.294327557159688], [7.695746638104746], [1.7686712279874275], [13.59249520586318], [7.768175737517887]], "bias_o": [[-4.343466689445661], [-0.8157701068206947], [-11.760511417885105], [-12.686610503499223]]}, {"input_nodes": 12, "hidden_nodes": 16, "output_nodes": 4, "weights_ih": [[1.2995706997293073, 6.149521846990504, -8.222880877903874, -4.027338077545928, 6.973807005585312, -8.324390237747565, 8.215611081464727, -0.398966988326121, 4.423286726210204, 0.10239807644417886, -5.705185957191342, -17.723083817162358], [0.15485513286946648, -12.922008831080129, 6.334512325976867, -2.714136052430609, 13.342957383478613, -5.417862459790844, 17.812546822561913, 10.594786046178447, 1.0894760562619612, -4.965762479274449, -9.31007217337686, 16.253956975360566], [7.902255341763427, 6.502051170566705, -4.899908193546729, 9.114355149677827, -16.71597225760846, -10.15406458181595, 16.56706289145906, -12.934379486684136, 18.404507136243502, -5.891783817965412, 16.724629896018072, -5.675996565792031], [-0.9516526498224179, 25.31850436792648, -21.130785065205288, 3.283190877895251, -3.3916878875821976, -2.859010798823154, -9.648347014015835, 8.825233824352361, 8.767090946579613, 0.01716076013164442, 1.8557946753554873, -16.75891656859222], [2.602826751693346, -12.809199507243434, -2.957073002962741, -11.823011990326396, -4.085950663833356, 16.45165235252812, 6.76700669500235, -11.097537729634043, -0.34796758265169314, 10.494731580059906, 2.854613980662265, 1.5837590715895338], [-16.731248332309683, -3.6534577726555746, 14.966449295690955, 3.0245768802095427, 6.513695912868203, 20.445627507969483, 20.216895879653073, 3.7998044094243255, 3.1543130492600184, -20.72011120564468, -12.445274011064651, -16.85843032872829], [5.599112873694385, -4.098092581203592, -16.414005576355127, 11.08985171265682, 6.557694746554936, 7.9339114927818795, 15.442212722574025, 13.337353533150539, 7.015720757509626, -3.7677574829691394, 5.288634095797196, 8.464306203552532], [2.3634928748657105, 3.56103906555864, -12.161977206928198, -16.04295167101002, -8.067576951599516, 9.135682390980028, -5.548077619950049, 9.157060855169926, 17.76053230093032, -16.261237839652257, 15.947472012365482, -8.349332230989484], [2.551577732325491, -20.821160070705993, -1.5562251792689785, 11.752148220471065, -10.287843782726613, -21.799926079425198, -5.890922665161491, 18.118637185530893, 18.539851595236346, -19.328807160866006, -7.879735029872766, -1.2458197268285711], [6.813810259175459, -1.0017899423293277, 17.065799558085345, 3.871952519440406, 1.1797924450280004, 9.125929775254486, 2.9348468256976985, -4.820259745462171, 28.034205025681004, -2.3066320139148844, -9.101666827240981, 3.963362830699424], [-11.368037545882231, 11.708348798615443, 0.3177328524068777, -1.1249407607703459, -5.179170176620409, -8.42419091865231, 1.7127993520673483, -11.620026888031447, -6.598279559401023, -7.420202896831882, -4.106963501979951, 17.77725599289805], [9.234719422632924, 4.982664487199011, -4.554284059194854, 6.2381914659633715, -10.990110429996648, 5.71618126049782, 12.997352330189797, 4.946844630388116, -13.47776698173039, -18.91074339310996, 5.228793208512274, -2.5679701230067336], [-5.604431374047241, -10.887626764626846, -6.03645503578493, -4.374091479664119, -2.9470139588019286, 37.26772315847255, -7.32105033946697, -3.084401313909575, 6.147154997460621, 7.062581761806916, 4.674285804351544, 5.521387732716345], [-9.444416746844222, 20.365544767274187, -3.920735184926085, -10.634910966006903, 11.093068114795791, 9.679550772450026, -4.772609406601586, -7.881602401062544, -2.473340746253153, 7.073045597760267, -5.256115707424274, -13.197549322179], [1.002561433218756, 17.671986734816667, -20.342491576135842, -7.621823063898755, -5.3908108140346815, -14.723345395370382, 15.78018406695384, 2.041423232583854, 5.5955657514853065, -17.959218165219497, 33.09912589711825, 29.258957347957047], [-5.17375446264379, -22.744187151996325, 0.5329352331090353, 7.342127240109657, -12.085018305241407, -11.688973576374766, 10.409147232623212, 2.406089297741925, 17.044885822211, -30.37128443809651, -7.88104331858426, -9.904634268359272]], "weights_ho": [[-5.5889211679831705, -10.01459709555402, -0.23736069659197423, -4.7285711662154215, 13.821399101241163, -25.675284614883804, 18.70438260422536, 27.437404474899196, 9.97065916384045, -10.44641814010391, -15.324511834710039, 1.4939724737799214, -4.146597886984097, -0.7242905544360987, 14.060658477637757, 3.9619499496883797], [-6.39611018528843, -2.8914823691423504, 9.839533057425243, -18.58417620074965, 17.84178287159982, -10.52052653182164, 4.478957221860058, -1.3360078238055015, -10.192867103503074, 5.489422823091818, 16.949443711812947, -38.15829139649733, -3.708856397794724, 6.741338543133487, -19.116477720259812, -8.068944242371932], [4.106594799392235, -6.568382013748949, -4.789065567523211, -2.9589607090252783, -8.227955759929234, 6.858429340799309, -4.285999105904161, 0.4105114858076597, 3.4925616406369357, 5.936913952352951, 21.834979376159964, -5.81628564440721, 12.467661353634583, -24.42067512597566, -18.968711981988537, 7.1995888883049615], [-2.4227398637860964, 31.31014595669797, -13.52953542564943, 8.634634418800594, -3.565079600268671, -1.3430903612406515, 10.990706875673933, -3.2532366751524044, 28.621899339007076, -23.692203959144376, 8.009431958441315, -11.024315176099286, -15.148407931639989, -5.5868449135188225, -1.700517382187411, 14.960726129875939]], "bias_h": [[-9.96589596186157], [-8.398250170719495], [-11.773677296318056], [-17.912064583656825], [-1.9719999876653849], [6.422259984483989], [21.677287511363776], [20.97564980946864], [3.7949890902592514], [-0.575049121233651], [1.547133768096535], [15.294327557159688], [7.72619205004328], [1.7674195703538618], [13.59249520586318], [7.768175737517887]], "bias_o": [[-4.1953706305324845], [-0.8157701068206947], [-11.66049981418015], [-12.894256260442141]]}, {"input_nodes": 12, "hidden_nodes": 16, "output_nodes": 4, "weights_ih": [[1.1485066290980446, 6.149521846990504, -8.222880877903874, -3.948087361382479, 6.843648032744909, -8.324390237747565, 8.354951143904255, -0.36975369948031966, 4.423286726210204, 0.03212797988949362, -5.743416705954244, -17.687471313598977], [0.13438450471582897, -13.013295227786696, 6.431512802057133, -2.654646670232995, 13.493199562454947, -5.403575527397799, 17.812546822561913, 10.415055503144758, 1.0894760562619612, -4.965762479274449, -9.375953414839168, 16.229950152871385], [7.893678289632564, 6.484150411663473, -4.88988831702186, 8.918687666053422, -16.672664552345847, -10.325399213636832, 16.56706289145906, -12.879776291872517, 18.11083297272959, -5.920833081227972, 16.870739641729543, -5.482378358190624], [-0.6464669598478242, 25.33342549305829, -21.12742943227033, 3.3186755667305023, -3.193457603496953, -2.859010798823154, -9.663009621845008, 8.691593811825445, 8.888870322584516, -0.11951527500057904, 1.8063294650947532, -17.024044614862273], [2.602826751693346, -12.809199507243434, -3.033509855131696, -12.001901357859545, -4.201916212176236, 16.45165235252812, 6.781927961766395, -11.130975608591955, -0.3052200907130979, 10.516793200464164, 2.896928250350465, 1.646764519415712], [-16.731248332309683, -3.7244622140771986, 14.966449295690955, 3.108839619227701, 6.453419627008439, 20.487268222499036, 20.126576083067715, 3.7476301128058798, 3.1543130492600184, -20.802614544413093, -12.347945289651118, -16.975243153438083], [5.5937440148223185, -4.085682548805954, -16.414005576355127, 11.056742269105122, 6.557694746554936, 7.795883533105783, 15.483853998534983, 13.337353533150539, 6.945125375061681, -3.6314651995541825, 5.288634095797196, 8.412284829362031], [2.4417061070251536, 3.56103906555864, -12.161977206928198, -16.04295167101002, -8.058959353570032, 9.135682390980028, -5.6340870057800885, 9.01071480512709, 17.925020740791776, -16.02206031143878, 16.085534848643643, -8.356596887053136], [2.597362620837075, -20.821160070705993, -1.766440361720861, 11.752148220471065, -10.136401406262326, -21.72183772685407, -5.78640090271373, 18.162846266471963, 18.539851595236346, -19.42047324436068, -7.879735029872766, -1.3128560442317465], [6.87929775041532, -0.9577746927603905, 17.054787456452306, 3.871952519440406, 1.189992457738469, 9.046052131802567, 2.9237103020258677, -4.820259745462171, 28.10661473318631, -2.298796055595523, -9.101666827240981, 3.799981062951473], [-11.368037545882231, 11.708348798615443, 0.21051707409881854, -1.1249407607703459, -5.179170176620409, -8.307794255011162, 1.6771407526462954, -11.790993720562247, -6.598279559401023, -7.67959671824036, -3.8569002423048593, 17.77725599289805], [9.34154307544116, 4.982664487199011, -4.554284059194854, 6.2381914659633715, -11.078928481227358, 5.588093701053364, 12.994805663721316, 4.8920842411072005, -13.54064553576966, -18.946362498951114, 5.228793208512274, -2.6283196580963537], [-5.604431374047241, -10.973012860638773, -6.112757324160699, -4.590503513498034, -2.8515797188508776, 37.44817029570043, -7.3120204494601255, -3.052098464987314, 5.92975133630765, 7.159893814222434, 4.548981622997368, 5.677191277078305], [-9.51034629925003, 20.365544767274187, -3.920735184926085, -10.674825628114439, 11.139558636559837, 9.504711660301497, -4.852790309620605, -7.881602401062544, -2.473340746253153, 6.991046789684971, -5.256115707424274, -13.144285922096218], [1.0878488417383725, 17.74710295081564, -20.4088635761549, -7.621823063898755, -5.287819375575011, -14.723345395370382, 15.807102970994478, 2.0859812842041108, 5.64833835799001, -17.797559922205803, 33.229045488567564, 29.2926281487583], [-5.17375446264379, -22.744187151996325, 0.37408345472728466, 7.584169430015833, -12.028033959578458, -11.688973576374766, 10.409147232623212, 2.307952535163643, 17.044885822211, -30.37128443809651, -7.8443886778265615, -9.980813163411382]], "weights_ho": [[-5.528175554906059, -9.904086121240166, -0.39135250027053514, -4.856287985847095, 13.925674150954919, -25.716608672798554, 18.968334675092642, 27.729337392412216, 9.97065916384045, -10.483302094419185, -15.324511834710039, 1.5103177828532337, -4.16983631137099, -0.7242905544360987, 14.060658477637757, 3.9619499496883797], [-6.311175577881723, -2.7108719647633492, 9.678255551410597, -18.4201544176874, 17.889737188407146, -10.52052653182164, 4.478957221860058, -1.3360078238055015, -10.08960704307963, 5.489422823091818, 16.98349183687918, -38.09089534300714, -3.7324308440177556, 6.741338543133487, -19.12401681814189, -8.168080091764965], [4.055641238995582, -6.568382013748949, -5.0026232352999855, -2.9589607090252783, -8.339402704322314, 6.663066362714102, -4.266581297290262, 0.2906283235085805, 3.5471419718146096, 5.828154892518621, 21.94113545961662, -5.9415249097076765, 12.396911152900742, -24.549385338065722, -19.090497125593103, 7.1995888883049615], [-2.431722506945276, 31.512484128547065, -13.551451036806338, 8.634634418800594, -3.6345631848369244, -1.5085624823449266, 10.999029591229345, -3.077943907484163, 28.657387373116595, -23.69769381009739, 8.009431958441315, -11.024315176099286, -15.148407931639989, -5.610109794605828, -1.642919860710699, 14.99888868063942]], "bias_h": [[-9.982390724522137], [-8.322659160463703], [-11.739582894324219], [-17.79244365660163], [-1.9593671093709126], [6.429298977683102], [21.582810112319077], [20.906827135370687], [3.908352922412866], [-0.7045188778674147], [1.4731496273983804], [15.166957286781367], [7.699097590887617], [1.720707277106671], [13.59249520586318], [7.766314145911807]], "bias_o": [[-4.388370909903286], [-0.8157701068206947], [-11.788029858495637], [-12.686610503499223]]}, {"input_nodes": 12, "hidden_nodes": 16, "output_nodes": 4, "weights_ih": [[1.1485066290980446, 6.080362606947877, -8.144783813187006, -3.9294754901975746, 7.036504580869598, -8.324390237747565, 8.215611081464727, -0.5425072399255876, 4.507311266071119, 0.10239807644417886, -5.743416705954244, -17.628408119406995], [0.2762235448636267, -13.044720474113742, 6.601241990488049, -2.6104150286964765, 13.233563568775471, -5.417862459790844, 17.848764681269888, 10.332940962172586, 1.0894760562619612, -4.953427396291198, -9.455686284236863, 16.19090906925019], [7.849060757766136, 6.444974235281605, -5.014191186335387, 9.136217495549063, -16.672664552345847, -10.331091103579723, 16.617619614020658, -12.934379486684136, 18.11083297272959, -5.920833081227972, 16.912666216374593, -5.675996565792031], [-0.8326150325692663, 25.31850436792648, -21.12742943227033, 3.283190877895251, -3.3916878875821976, -2.859010798823154, -9.648347014015835, 8.625462734876116, 8.774430908817143, -0.056567067279799814, 1.8245117784003009, -16.857136987265765], [2.6843718397412086, -12.845998897017589, -3.033509855131696, -12.001901357859545, -4.201916212176236, 16.45165235252812, 6.855791927035535, -11.099269451958499, -0.3960311972559068, 10.35182989847937, 2.9700413561779513, 1.646764519415712], [-16.731248332309683, -3.8985925797764294, 15.020861478154897, 3.0245768802095427, 6.44056270350725, 20.390129422596264, 20.253941524804382, 3.7998044094243255, 3.1543130492600184, -21.018964193168717, -12.479202379422556, -16.84111589193154], [5.679093770686098, -4.098092581203592, -16.486471646695815, 11.056742269105122, 6.557694746554936, 7.9309599506876856, 15.293094586636492, 13.337353533150539, 7.015720757509626, -3.7677574829691394, 5.288634095797196, 8.58453781667764], [2.418742265276308, 3.617821715422058, -12.086363765734756, -16.163208007742185, -8.058959353570032, 9.008524665919504, -5.603340693059293, 9.211066958228272, 17.76053230093032, -16.02206031143878, 16.085534848643643, -8.460041988639885], [2.7637215818758913, -20.821160070705993, -1.766440361720861, 11.752148220471065, -10.222026448089244, -21.799926079425198, -5.885797438149436, 18.162846266471963, 18.36999035784863, -19.42047324436068, -7.708834363373229, -1.3128560442317465], [6.813810259175459, -0.8442146565306594, 17.065799558085345, 3.871952519440406, 1.1498388105293873, 9.159858333370284, 3.0698451583560784, -4.777575585562131, 28.034205025681004, -2.387320565625475, -9.183642109740042, 3.9981200806865096], [-11.466531034311014, 11.708348798615443, 0.2994333014404762, -1.1249407607703459, -5.302692602389328, -8.307794255011162, 1.6771407526462954, -11.600519028206973, -6.619124184885355, -7.573140265562744, -4.106963501979951, 17.77725599289805], [9.434621553083362, 4.982664487199011, -4.554284059194854, 6.269223911484556, -11.068071067761313, 5.706009750613735, 13.042066711181219, 5.000654830693071, -13.768325831621075, -18.91074339310996, 5.387152418515068, -2.709096996996687], [-5.604431374047241, -10.856444297778244, -6.016459335711136, -4.3967785798426515, -2.9691214603388842, 37.158186640500745, -7.303639575308788, -3.1161855285415516, 6.173833503934034, 7.077754056160926, 4.674285804351544, 5.65513556081328], [-9.51034629925003, 20.469003659449886, -3.920735184926085, -10.701871867580834, 11.093068114795791, 9.504711660301497, -5.080224114716954, -7.881602401062544, -2.5191620813187057, 6.943420902219528, -5.256115707424274, -13.2612589492534], [1.0878488417383725, 17.74710295081564, -20.40881191610686, -7.621823063898755, -5.327514194943625, -14.723345395370382, 15.807102970994478, 2.1125523007825167, 5.755142697214269, -17.774358532336766, 33.09912589711825, 29.1022325693201], [-5.17375446264379, -22.869162312930357, 0.510899216550378, 7.396226137254439, -12.028033959578458, -11.760113204612649, 10.570948014147135, 2.406089297741925, 16.946428500941387, -30.37128443809651, -7.8443886778265615, -9.904634268359272]], "weights_ho": [[-5.503838125365043, -9.904086121240166, -0.23736069659197423, -4.741881789645555, 13.821399101241163, -25.675284614883804, 18.968334675092642, 27.63925811513506, 9.97065916384045, -10.44641814010391, -15.217652909454964, 1.4061005213588054, -3.9507010785634007, -0.7706512394403461, 14.238634555873492, 4.02056491350573], [-6.487155167763308, -2.6950913264236407, 9.79994624664756, -18.58417620074965, 17.784035078462438, -10.422915359573018, 4.398946059186585, -1.328800751349021, -10.274489195632492, 5.489422823091818, 17.095133482982213, -38.07457266546582, -3.7324308440177556, 6.712978085477508, -19.116477720259812, -8.068944242371932], [3.9146434547348448, -6.568382013748949, -4.6728510035770965, -2.9589607090252783, -8.227955759929234, 6.766614933162768, -4.1740831437099395, 0.23288425851179087, 3.6089256248299373, 5.866064638303451, 21.961096728419825, -6.075648092047157, 12.467661353634583, -24.42003975545102, -19.13417169746556, 7.1995888883049615], [-2.4594948022053114, 31.530518904546227, -13.551451036806338, 8.634634418800594, -3.5944069264396865, -1.3131371486633558, 10.990706875673933, -3.089954930792452, 28.548764526449837, -23.69769381009739, 8.042582931845612, -11.15471161718155, -15.148407931639989, -5.5868449135188225, -1.6674499485903473, 14.902847949195769]], "bias_h": [[-9.982390724522137], [-8.35954303021808], [-11.739582894324219], [-17.912064583656825], [-1.9123558357889485], [6.440026252567045], [21.734194168800364], [21.014696098417335], [3.9601339178534176], [-0.7173189353194241], [1.487107039081749], [15.36419872691706], [7.72619205004328], [1.7686712279874275], [13.59249520586318], [7.877037933239954]], "bias_o": [[-4.386196529852075], [-0.7531430536630425], [-11.760511417885105], [-12.603589758048706]]}, {"input_nodes": 12, "hidden_nodes": 16, "output_nodes": 4, "weights_ih": [[1.1444748299394838, 6.149521846990504, -8.232860473736746, -3.980099140261236, 6.9963209936537964, -8.432837134453848, 8.287291639299182, -0.5873922541021749, 4.423286726210204, 0.23027842577398117, -5.564585914229425, -17.704530551316843], [0.18566201480009228, -13.097378364885131, 6.48722969654975, -2.6209002345464136, 13.342957383478613, -5.445104536981246, 17.812546822561913, 10.345291767073267, 1.0894760562619612, -4.965762479274449, -9.3828812916322, 16.33184309309793], [7.902255341763427, 6.484150411663473, -4.925633078892121, 9.054531674704549, -16.7038550828682, -10.331091103579723, 16.728569187758787, -12.934379486684136, 18.11083297272959, -6.2048990384307805, 16.86073407801921, -5.55133113148747], [-0.78970978050444, 25.47182262664427, -21.199727678354193, 3.224916516070694, -3.293390991085431, -2.9122207373975746, -9.648347014015835, 8.691593811825445, 8.774430908817143, -0.03620161210579572, 1.8246772068560149, -16.828106133946292], [2.602826751693346, -13.003067676693792, -3.0108877953436086, -12.001901357859545, -4.136348344881098, 16.45165235252812, 6.781927961766395, -11.097537729634043, -0.4547390374673115, 10.516793200464164, 2.9700413561779513, 1.6352410089926612], [-16.784210950497783, -3.7244622140771986, 14.966449295690955, 3.0245768802095427, 6.453419627008439, 20.489265445525508, 20.253941524804382, 3.7998044094243255, 3.066924390069737, -20.772153074998588, -12.28124108310033, -17.04376960632959], [5.599112873694385, -4.098092581203592, -16.414005576355127, 11.075362472427667, 6.557694746554936, 7.9339114927818795, 15.483853998534983, 13.337353533150539, 7.015720757509626, -3.7677574829691394, 5.288634095797196, 8.46377448402545], [2.4033418038415926, 3.56103906555864, -12.19903087027926, -16.04295167101002, -8.107838276148637, 9.165130688404924, -5.664292535302228, 9.14350068397704, 17.76053230093032, -16.098693712294594, 16.085534848643643, -8.473051881398], [2.5228087613073984, -20.925444999665896, -1.766440361720861, 11.723887787686827, -10.136401406262326, -21.69073317799357, -5.885797438149436, 18.162846266471963, 18.54143692205793, -19.42047324436068, -7.684995463479569, -1.236716326871341], [6.813810259175459, -1.0821787805000644, 17.065799558085345, 3.79153543959365, 1.1797924450280004, 9.125929775254486, 2.803193130090403, -4.820259745462171, 28.120064167843196, -2.376756802603824, -9.064952822624491, 3.963362830699424], [-11.3056588315001, 11.79580596050971, 0.3177328524068777, -1.1742850612163076, -5.179170176620409, -8.307794255011162, 1.6771407526462954, -11.615691943770004, -6.684381991584493, -7.506824529110974, -4.106963501979951, 17.858245000272525], [9.325290774963582, 4.995082512943029, -4.554284059194854, 6.2381914659633715, -11.229913704090837, 5.547435134622364, 12.994805663721316, 4.8920842411072005, -13.54064553576966, -18.91074339310996, 5.228793208512274, -2.4082745413228994], [-5.604431374047241, -10.961912089975444, -6.036444998418631, -4.4573147841214285, -2.8365605172215766, 37.26772315847255, -7.303639575308788, -3.052098464987314, 6.173833503934034, 7.077754056160926, 4.674285804351544, 5.771367509930017], [-9.57896395616221, 20.365544767274187, -3.838032174110964, -10.844787451766097, 11.093068114795791, 9.504711660301497, -4.768528082504629, -7.881602401062544, -2.552951129457061, 7.082641170393509, -5.256115707424274, -13.182698230538177], [1.0878488417383725, 17.96410756016582, -20.187990485713275, -7.621823063898755, -5.444231225893358, -14.80053963252756, 15.807102970994478, 1.8355301641935122, 5.5841253705289855, -17.93282489019458, 33.09912589711825, 29.062053429442464], [-5.114008782827213, -22.88029247732187, 0.5578438990513447, 7.484408780740449, -12.009311472284566, -11.688973576374766, 10.409147232623212, 2.505910591796422, 17.044885822211, -30.35728202437905, -7.837007073414228, -9.904634268359272]], "weights_ho": [[-5.503838125365043, -9.91535354754099, -0.10453800831033935, -4.69041763707937, 13.67722482271484, -25.675284614883804, 18.968334675092642, 27.775998054448376, 9.97065916384045, -10.44641814010391, -15.309161697580748, 1.4745957608340436, -4.146597886984097, -0.6649691027718789, 14.060658477637757, 3.9619499496883797], [-6.306920012305794, -2.7108719647633492, 9.79994624664756, -18.550393549205832, 17.906811615613183, -10.52052653182164, 4.611664666560304, -1.3360078238055015, -9.993350006394063, 5.486352935744139, 16.989511546376775, -38.15829139649733, -3.8609731213206473, 6.741338543133487, -19.116477720259812, -8.068944242371932], [3.970047768858245, -6.568382013748949, -4.9488869424445, -2.9589607090252783, -8.235155013964288, 6.8699620544383935, -4.285999105904161, 0.2399978732694884, 3.5777104530848183, 6.1118463522135045, 22.12771345186134, -6.07529866111385, 12.39951046086369, -24.563252738703362, -19.026840810529933, 7.144357038129709], [-2.466276696481167, 31.569736376842734, -13.486931409853923, 8.634634418800594, -3.610757307721453, -1.3971285312663448, 10.990706875673933, -3.0951660371667624, 28.657387373116595, -23.69769381009739, 7.970061474633217, -11.024315176099286, -15.156057151255078, -5.5868449135188225, -1.5239574770196063, 14.902847949195769]], "bias_h": [[-9.982390724522137], [-8.350600963440836], [-11.673623457890749], [-17.90876961297764], [-1.9593671093709126], [6.429298977683102], [21.71464083542292], [21.089815274602756], [3.864060538629792], [-0.6047048446400738], [1.446850271308818], [15.294327557159688], [7.72619205004328], [1.7452524188808056], [13.599762245204325], [7.913978010000798]], "bias_o": [[-4.343466689445661], [-0.8157701068206947], [-11.760511417885105], [-12.720083033924288]]}, {"input_nodes": 12, "hidden_nodes": 16, "output_nodes": 4, "weights_ih": [[1.2311305450802241, 6.37557529431794, -8.222880877903874, -3.9697659752382584, 7.036504580869598, -8.324390237747565, 8.174788949608196, -0.5855236256415429, 4.423286726210204, 0.12574832491535468, -5.743416705954244, -17.664400486460462], [0.059100486360621096, -13.044720474113742, 6.431512802057133, -2.654646670232995, 13.22539186187625, -5.417862459790844, 17.812546822561913, 10.372472459336445, 1.0894760562619612, -4.965762479274449, -9.3828812916322, 16.300172930583336], [7.902255341763427, 6.484150411663473, -4.88988831702186, 9.054852566743023, -16.561963701703373, -10.400453261116366, 16.56706289145906, -12.934379486684136, 18.200276162173616, -5.920833081227972, 16.88088212040021, -5.675996565792031], [-0.78970978050444, 25.13236907705679, -21.173714375918276, 3.283190877895251, -3.410693798876071, -2.859010798823154, -9.566407836076376, 8.743899444493573, 8.774430908817143, 0.053764504020025396, 2.1955238943810804, -16.857136987265765], [2.602826751693346, -12.973398545039137, -3.100560181985376, -12.001901357859545, -4.21504637515077, 16.45165235252812, 6.781927961766395, -10.994183378150765, -0.3960311972559068, 10.516793200464164, 2.9100027182553494, 1.646764519415712], [-16.735999261166906, -3.6596081367705287, 14.966449295690955, 3.0624083101345514, 6.453419627008439, 20.375997183176462, 20.253941524804382, 3.978937670427129, 3.215126157006147, -20.75387840665488, -12.369726939403197, -16.919760782013583], [5.607524783989022, -4.248401917108349, -16.414005576355127, 11.013334756203887, 6.5880611068138215, 7.856403040034602, 15.422549210955946, 13.337353533150539, 7.015720757509626, -3.7677574829691394, 5.229157956127609, 8.429689282173808], [2.418742265276308, 3.6354968591388817, -12.161977206928198, -16.04295167101002, -8.058959353570032, 9.25072663583389, -5.603340693059293, 9.14350068397704, 17.76053230093032, -16.02206031143878, 16.07908061569558, -8.397185226540154], [2.5972732057349166, -20.962335096506287, -1.8435419332980847, 11.752148220471065, -10.136401406262326, -21.799926079425198, -5.885797438149436, 18.020970643638652, 18.37621296974815, -19.42047324436068, -7.859233686902597, -1.3128560442317465], [6.785544058376344, -1.1320084552279754, 17.065799558085345, 3.871952519440406, 1.1797924450280004, 9.178429827973847, 2.89197331281141, -4.820259745462171, 28.034205025681004, -2.2016978276353147, -9.13628399711461, 3.963362830699424], [-11.3978913757481, 11.767453610967504, 0.21903163760930722, -1.0584832373409525, -5.094161583721086, -8.229782662069567, 1.529371281724989, -11.557526552416881, -6.598279559401023, -7.689509210885722, -4.1367625355193445, 17.749542528616196], [9.418210295281861, 4.982664487199011, -4.437749786385166, 6.301401665225, -11.078928481227358, 5.850297183825267, 12.994805663721316, 4.811995738894436, -13.58963167219381, -18.91074339310996, 5.267989528715727, -2.6283196580963537], [-5.604431374047241, -10.887626764626846, -5.985274577914429, -4.374091479664119, -3.06814033527848, 37.26772315847255, -7.4227576851194925, -3.052098464987314, 6.173833503934034, 7.077754056160926, 4.674285804351544, 5.455147990103568], [-9.408846905446701, 20.365544767274187, -3.6764968196391155, -10.715235049946854, 11.093068114795791, 9.615711740858591, -4.864635982302475, -7.9336586057060705, -2.473340746253153, 7.036856975419145, -5.256115707424274, -13.144285922096218], [1.1549859652119103, 17.60850994736586, -20.342491576135842, -7.611609623102894, -5.3543836201907915, -14.578829302932537, 15.807102970994478, 2.130312678724374, 5.54613273831543, -17.833298987445772, 32.94125611119373, 29.1022325693201], [-5.17375446264379, -22.688622323198015, 0.5329352331090353, 7.396226137254439, -12.028033959578458, -11.70296518359304, 10.407960254899956, 2.4038153680172005, 17.00835082636004, -30.37128443809651, -7.8443886778265615, -9.947147744979459]], "weights_ho": [[-5.503838125365043, -9.904086121240166, -0.2947302313824475, -4.741881789645555, 13.708294515199443, -25.675284614883804, 18.922005132617922, 27.63925811513506, 10.059907495544529, -10.300072272939014, -15.324511834710039, 1.5103177828532337, -4.27591739563415, -0.7242905544360987, 14.055599755583497, 3.9619499496883797], [-6.345185668748302, -2.7108719647633492, 9.79994624664756, -18.656839488398422, 17.86506997748251, -10.7180087282317, 4.633856183224399, -1.305996097667748, -10.143356990654189, 5.665935601307315, 17.062056782014867, -38.15829139649733, -3.7383419277893695, 6.686590842062571, -19.008356262265437, -8.068944242371932], [4.144887987622132, -6.568382013748949, -4.789065567523211, -2.9589607090252783, -8.227955759929234, 6.861013500233906, -4.285999105904161, 0.2906283235085805, 3.481345780459581, 5.936913952352951, 21.891395913220556, -5.695660218142589, 12.395762026952426, -24.42067512597566, -19.13417169746556, 7.1995888883049615], [-2.4456469758282946, 31.580286979781263, -13.643230471035155, 8.582018436056547, -3.5944069264396865, -1.3971285312663448, 10.990706875673933, -2.806189970861077, 28.657387373116595, -23.89957701337608, 8.009431958441315, -11.05286313889554, -15.148407931639989, -5.825858223521113, -1.7743122963503435, 14.902847949195769]], "bias_h": [[-9.991999738569094], [-8.350600963440836], [-11.739582894324219], [-17.912064583656825], [-1.864353342979499], [6.429298977683102], [21.6263119623157], [20.977684846946946], [3.8645600883791222], [-0.7045188778674147], [1.4731496273983804], [15.229203141297498], [7.72619205004328], [1.8326711675418248], [13.59249520586318], [7.727185803279747]], "bias_o": [[-4.343466689445661], [-0.9213663767697299], [-11.760511417885105], [-12.698366672369556]]}, {"input_nodes": 12, "hidden_nodes": 16, "output_nodes": 4, "weights_ih": [[0.9149671254477642, 6.380022095666508, -8.222880877903874, -4.1526782846047805, 7.036504580869598, -8.324390237747565, 8.215611081464727, -0.5432027166123168, 4.5114007837199415, 0.1450779296287814, -5.743416705954244, -17.870915732105935], [0.15987466721416926, -13.221936403514672, 6.530782299438722, -2.712145898079838, 13.342957383478613, -5.417862459790844, 17.797913839152113, 10.415055503144758, 1.2072728836309223, -5.119750810351617, -9.407917509669623, 16.253956975360566], [7.902255341763427, 6.484150411663473, -4.856779556238041, 9.114355149677827, -16.637906093150246, -10.469383481549292, 16.56706289145906, -12.928431894633517, 18.11083297272959, -5.808746926659003, 16.643263525479597, -5.675996565792031], [-0.8795735143513725, 25.41182432087398, -21.12742943227033, 3.283190877895251, -3.548446224128768, -2.859010798823154, -9.648347014015835, 8.691593811825445, 8.680441557507361, -0.16146199658902657, 2.051688395107221, -16.857136987265765], [2.6087140095249155, -12.809199507243434, -2.9199818586819504, -12.094340883786307, -4.201916212176236, 16.36245563255921, 6.912892672801501, -11.097537729634043, -0.4034582180230014, 10.516793200464164, 2.9700413561779513, 1.646764519415712], [-16.731248332309683, -3.7765374081353267, 15.080373936653949, 3.040590703983676, 6.453419627008439, 20.442166150839277, 20.253941524804382, 3.5714293111859496, 3.1543130492600184, -20.72896466995097, -12.587986365895318, -16.85843032872829], [5.599112873694385, -3.983009046172947, -16.414005576355127, 10.969449991792645, 6.557694746554936, 7.916822125057352, 15.481793177552845, 13.268233441192276, 6.8426293519141455, -3.62674119609475, 5.288634095797196, 8.412284829362031], [2.418742265276308, 3.422074256858213, -12.318236321330982, -16.04295167101002, -8.11074838678725, 9.135682390980028, -5.574376749463022, 9.14350068397704, 17.74372530895108, -16.025406163722593, 16.085534848643643, -8.340588945951177], [2.4896116864129074, -20.718517187046373, -1.766440361720861, 11.752148220471065, -10.136401406262326, -21.799926079425198, -5.885797438149436, 18.162846266471963, 18.539851595236346, -19.522227313816114, -7.7090845240802475, -1.3128560442317465], [6.813810259175459, -1.0584902286854165, 17.065799558085345, 3.903412771815534, 1.1797924450280004, 9.085187903881067, 3.06133859192157, -4.820259745462171, 27.856136651944357, -2.312191385341652, -9.165345453826696, 3.963362830699424], [-11.367494959872685, 11.708348798615443, 0.4166513019438444, -1.1249407607703459, -5.179170176620409, -8.188664672351921, 1.7763124140619653, -11.684219775345968, -6.598279559401023, -7.506824529110974, -3.9250261537290223, 17.77725599289805], [9.325290774963582, 4.982664487199011, -4.5437683545195755, 6.1879407724684095, -11.048367015235845, 5.71618126049782, 13.093025837455519, 4.8355590376156705, -13.424923862856437, -18.91074339310996, 5.243241474020285, -2.6123776716012337], [-5.499975989447043, -10.935812879559471, -6.016459335711136, -4.4875352939518445, -2.9470139588019286, 