{"generation": 48246, "population": [{"input_nodes": 12, "hidden_nodes": 16, "output_nodes": 4, "weights_ih": [[1.665882745779422, 6.412219619903234, -8.491832771106829, -3.098309692430662, 7.2550730209527385, -8.10865624307449, 8.70311108523881, 0.19354643175718086, 3.893328593620982, 0.40011840729202663, -5.709030117413854, -17.138595488322903], [-0.023161708000480712, -13.563647477082162, 6.404871719469577, -2.9951755461452394, 12.982707735912195, -4.587698397336034, 16.789727359691504, 9.61352104906463, 1.4881172811806078, -4.379949003825721, -9.158036245018536, 15.838324278048496], [8.030119796906376, 6.451661430599205, -5.074234254044647, 8.66916073167512, -16.400147443228903, -9.776796859397294, 17.160837690489842, -12.411529809020676, 18.251393766125613, -5.898169306974215, 15.99581830947112, -5.752621573495816], [-0.5766927291790708, 25.041680621599323, -21.338523303121374, 2.8821883312188725, -2.991591078183145, -2.575420597058847, -9.289463085052306, 7.5427148229218, 9.693364080296472, -0.12184300564203782, 1.7537305222999882, -17.995733280604746], [2.354973380302369, -13.577358056767634, -3.1496039579337975, -11.7511039981169, -4.014011477428728, 17.352608599368867, 5.890821194801593, -11.192602470801107, -1.3789320958707973, 9.417159243185736, 3.4712035858633197, 1.7470838207038042], [-17.0773906737063, -3.936410129708522, 14.904843001440263, 3.3386800090024265, 6.178321139970624, 20.718070796124913, 20.66900166229858, 3.870562264815885, 3.2890130357253136, -20.378668698328774, -12.953566720566487, -17.59536900834043], [5.87926065942935, -4.664430202348845, -15.908064221429873, 11.4129194142362, 6.376891474952984, 7.923456658372707, 15.263712499934046, 13.44719758808452, 6.911461589613019, -3.11401248520444, 5.902744455487982, 8.469709573312205], [2.407699789154213, 3.152042555608, -11.927866080096138, -15.505110135230208, -7.387096436928079, 9.587905940873638, -5.619830527779935, 8.966737574476415, 17.784173355794657, -15.901553290216091, 16.919154537938653, -8.149511796186546], [3.2216659426360783, -20.02425986929272, -2.5916978089563694, 10.517849807312734, -9.751701036709637, -21.850132508091356, -5.46727773525715, 17.887531899459983, 18.895801215996855, -20.078349861499017, -8.766445379505774, -0.7087331861870101], [6.649363829429676, -0.5092376406453342, 17.539853668556653, 3.8823494033668613, 0.722575416129957, 8.939711997716802, 3.9322714525873073, -6.0357429038053025, 28.005065599497954, -1.8851104581258875, -8.472810747452975, 3.599530399161763], [-11.013970129327548, 11.3633585162316, -0.17687841892457962, -1.697335208849558, -5.1340893493464765, -7.183110208093258, 1.4385065339371725, -12.075920554761064, -7.661355260355131, -7.334646235975846, -4.370470384509935, 17.402265007599006], [9.832809430296429, 3.9940904763103893, -4.606815818029994, 6.180760925484455, -11.721080380561647, 6.8830082663678365, 13.268910105078698, 5.4464190775745385, -13.04704627497508, -19.333030741271195, 4.54045324672201, -1.9845177739925957], [-5.868699310430014, -10.900612386829694, -6.849601862645272, -4.67778502086598, -2.8642320819625002, 38.208915417396675, -7.503595855172491, -3.492929329976928, 4.864798889915972, 7.1942450870716925, 5.020985922215493, 5.655768031324891], [-9.362242160836406, 19.27020986459944, -3.9020882496465563, -10.200980396916172, 11.694425450495109, 9.400567171332282, -4.738845906250748, -7.4965146183130615, -2.358865774653183, 7.376879834893524, -5.732526079575769, -13.957219885977567], [1.307653186688129, 17.76164268595945, -19.353501612075075, -7.622661787840079, -5.575621919179669, -14.309000495248362, 16.054655263474057, 2.0256523202928634, 5.131729108582143, -18.234117634365287, 33.44787550252808, 28.632318974363027], [-4.699675559477089, -23.312648425049527, 1.865159808272543, 6.525056816546028, -10.9858635094998, -11.873711145740954, 10.673442434479933, 2.1627666049957717, 16.95433536280925, -30.67102067697465, -7.484118219629259, -9.516934102610893]], "weights_ho": [[-5.671572576395267, -10.61285842976213, 0.2082379513307622, -4.576403321517083, 14.697167528471685, -24.579379794628043, 18.03193738260451, 28.112855620057, 10.260490944670426, -10.123476345989557, -15.501219691930393, 1.7272796601447649, -3.8715514830077993, -1.6182627533041098, 15.050042024445734, 4.271168591904449], [-5.793480233155421, -2.310794802529262, 9.615239217818417, -18.422290316771182, 18.91733842748611, -10.195509271623479, 3.963166981320128, -1.0643359433145905, -10.34310360878515, 5.414536900984394, 16.853771869498487, -37.648428427551806, -4.402715577780733, 6.792335461123795, -19.742419103738175, -8.448613545127062], [4.355826966018689, -7.108360678954158, -5.040864991472568, -3.186352427569707, -8.23051875132384, 7.066356386451791, -4.404755077507865, 0.2463678452773573, 3.7561458973195507, 5.512301807045916, 22.137681915961046, -4.935467996139878, 12.92897022744148, -24.589773291965784, -19.06017839857419, 7.123488616277054], [-2.2417603336162544, 32.29431049569086, -13.253128302068221, 8.540391329205587, -3.582920961228867, -1.1895911575676006, 11.330451980666433, -2.497588739273906, 28.366311569315492, -24.663989003518903, 8.559192754452996, -11.006763858914924, -15.906500000281506, -5.375717790373079, -2.4238039637780773, 14.76321597528936]], "bias_h": [[-10.210075165293336], [-7.904631162037238], [-12.041648849056362], [-17.699140770020225], [-2.246192726477144], [5.698488792208623], [21.916084313776718], [20.829863097462432], [3.2772481380060183], [0.4199210180518448], [0.4395658826863946], [16.086576372502883], [8.124431593859741], [1.3117874229427429], [13.547581155063424], [7.743988246636201]], "bias_o": [[-4.812976726543224], [-0.9425391332476531], [-11.531505199378154], [-12.398696918730344]]}, {"input_nodes": 12, "hidden_nodes": 16, "output_nodes": 4, "weights_ih": [[1.7774594008628535, 6.412219619903234, -8.580164373112186, -3.098309692430662, 7.279927845675106, -8.180347177123776, 8.70311108523881, 0.19354643175718086, 3.893328593620982, 0.3139880984746876, -5.709030117413854, -17.138595488322903], [-0.0022279187348743235, -13.62678538307026, 6.554275715059424, -2.9951755461452394, 13.094478760536344, -4.5633176937306095, 16.551078789613875, 9.61352104906463, 1.4745518670733828, -4.379949003825721, -9.240289849290134, 15.838324278048496], [8.030119796906376, 6.516253268749383, -5.134201029523223, 8.714680550978294, -16.400147443228903, -9.776796859397294, 17.293584090802646, -12.478239115598992, 18.251393766125613, -5.998404560502456, 15.99581830947112, -5.752621573495816], [-0.5766927291790708, 25.041680621599323, -21.338523303121374, 2.8821883312188725, -2.8718716599439484, -2.641255181079744, -9.23449787012299, 7.6000125209143565, 9.693364080296472, -0.313882831457605, 1.7537305222999882, -17.979440487614056], [2.306402408068292, -13.577358056767634, -3.1496039579337975, -11.7511039981169, -4.014011477428728, 17.352608599368867, 5.847519938164759, -11.192602470801107, -1.3479645352751837, 9.417159243185736, 3.4712035858633197, 1.7614069404409145], [-16.978329308957008, -3.936410129708522, 14.904843001440263, 3.3386800090024265, 6.178321139970624, 20.84042289889612, 20.66900166229858, 3.870562264815885, 3.262180573767258, -20.378668698328774, -12.970809181140478, -17.55820074751351], [5.87926065942935, -4.780124258189829, -15.908064221429873, 11.4129194142362, 6.430183112062984, 7.923456658372707, 15.301305019221248, 13.367815242719235, 6.911461589613019, -3.11401248520444, 5.902744455487982, 8.476792224717341], [2.357901052046054, 3.182692117490635, -11.819886058102718, -15.493602867661012, -7.282355377697004, 9.587905940873638, -5.619830527779935, 8.966737574476415, 17.784173355794657, -15.901553290216091, 16.721468805787318, -8.218124245402015], [3.2216659426360783, -20.025099498464204, -2.578378227764973, 10.517849807312734, -9.751701036709637, -21.850132508091356, -5.46727773525715, 17.92595568389178, 18.895801215996855, -20.078349861499017, -8.61338597384119, -0.7087331861870101], [6.649363829429676, -0.5092376406453342, 17.539853668556653, 3.839483045404512, 0.722575416129957, 9.061875219302483, 3.9358387410014566, -6.027926953923159, 28.005065599497954, -1.9279754338997979, -8.472810747452975, 3.599530399161763], [-10.942073497270028, 11.3633585162316, 0.0020844424865152644, -1.697335208849558, -5.1340893493464765, -7.270955284132872, 1.435083122352552, -12.075920554761064, -7.871845050658408, -7.3214421294362655, -4.370470384509935, 17.402265007599006], [9.832809430296429, 3.9940904763103893, -4.675150229850222, 6.180760925484455, -11.761268237028464, 6.828728072548694, 13.202247626863835, 5.4464190775745385, -13.04704627497508, -19.40162859879501, 4.512287589778529, -1.9845177739925957], [-5.748162458233301, -10.900612386829694, -6.865826425896183, -4.72077036639942, -2.782941323853692, 38.077786582497076, -7.503595855172491, -3.492929329976928, 4.737667233044739, 7.1942450870716925, 4.968111614532476, 5.671584610492858], [-9.362242160836406, 19.398158792133028, -3.9020882496465563, -10.200980396916172, 11.707490935196988, 9.380364734399413, -4.9263359855826, -7.620759411489756, -2.358865774653183, 7.3789329988427745, -5.674745725130754, -13.847952434663345], [1.307653186688129, 17.558783253957188, -19.406128869518167, -7.655014667995963, -5.4508083098115065, -14.309000495248362, 16.054655263474057, 2.0256523202928634, 5.131729108582143, -18.234117634365287, 33.405432125297374, 28.632318974363027], [-4.699675559477089, -23.312648425049527, 1.865159808272543, 6.525056816546028, -10.964208957220356, -11.873711145740954, 10.779162638131263, 2.1627666049957717, 16.83094799911497, -30.67102067697465, -7.484118219629259, -9.412919021672757]], "weights_ho": [[-5.671572576395267, -10.61285842976213, 0.07578781153379024, -4.576403321517083, 14.714552163795986, -24.575333227803092, 18.101872645435357, 28.194575030648963, 10.260490944670426, -10.016582617851263, -15.501219691930393, 1.7272796601447649, -3.8715514830077993, -1.4984930665286855, 15.050042024445734, 4.271168591904449], [-5.793480233155421, -2.335698007887819, 9.46334103637626, -18.598007692244117, 18.89367879670495, -10.215770564732656, 3.8428175153364026, -1.0643359433145905, -10.3996067189585, 5.460245826395294, 16.758228191815117, -37.6577205209944, -4.585485182841182, 6.74176497428224, -19.742419103738175, -8.448613545127062], [4.355826966018689, -7.180561461156234, -5.057282288717001, -3.186352427569707, -8.390372403741964, 7.066356386451791, -4.448628876134368, 0.22614534524007934, 3.69561343015985, 5.512301807045916, 22.169138031636727, -4.935467996139878, 12.909561593474008, -24.502038549112164, -19.06017839857419, 7.123488616277054], [-2.291575861245522, 32.29431049569086, -13.264845210085074, 8.588782964801515, -3.760309276381083, -1.1895911575676006, 11.330451980666433, -2.497588739273906, 28.366311569315492, -24.663989003518903, 8.584109961504865, -11.006763858914924, -15.906500000281506, -5.375717790373079, -2.3991253714344127, 14.76321597528936]], "bias_h": [[-10.354986053518752], [-7.904631162037238], [-12.22530925686969], [-17.679632494407553], [-2.246192726477144], [5.698488792208623], [21.797735415304178], [20.829863097462432], [3.4449313836576705], [0.4199210180518448], [0.4395658826863946], [16.0277039975033], [8.124431593859741], [1.3117874229427429], [13.554214442987], [7.909158552954676]], "bias_o": [[-4.7868739796464315], [-0.9425391332476531], [-11.507745708611377], [-12.398696918730344]]}, {"input_nodes": 12, "hidden_nodes": 16, "output_nodes": 4, "weights_ih": [[1.665882745779422, 6.412219619903234, -8.491832771106829, -3.0246164638969795, 7.2550730209527385, -8.0806894348138, 8.70311108523881, 0.19354643175718086, 3.893328593620982, 0.40011840729202663, -5.709030117413854, -17.25152304308808], [-0.023161708000480712, -13.563647477082162, 6.389466775514717, -2.9951755461452394, 12.949378147784154, -4.500305585318094, 16.789727359691504, 9.61352104906463, 1.4881172811806078, -4.379949003825721, -9.158036245018536, 15.801091402951176], [8.030119796906376, 6.451661430599205, -5.1715598020279305, 8.66916073167512, -16.400147443228903, -9.69129559854913, 17.160837690489842, -12.411529809020676, 18.251393766125613, -5.921403131967357, 15.99581830947112, -5.724507249921384], [-0.6072314038096567, 25.118648017336913, -21.338523303121374, 2.9817131727428583, -2.991591078183145, -2.6377210924893246, -9.27604484500452, 7.5427148229218, 9.693364080296472, -0.03416531462302709, 1.7537305222999882, -17.995733280604746], [2.272712550232345, -13.577358056767634, -3.1178449948881335, -11.7511039981169, -4.014011477428728, 17.352608599368867, 5.8116104523117995, -11.288590294492401, -1.4288283864971216, 9.447233798994825, 3.491700867524669, 1.7470838207038042], [-16.964284427908805, -3.808440863815915, 14.781607870020565, 3.3711053487964477, 6.056069183981542, 20.752604282838195, 20.66900166229858, 3.870562264815885, 3.2890130357253136, -20.378668698328774, -12.869990289605857, -17.621581276030394], [5.87926065942935, -4.664430202348845, -15.908064221429873, 11.4129194142362, 6.4422599647367615, 7.9029171217725205, 15.369829603288775, 13.44719758808452, 6.911461589613019, -3.11401248520444, 5.902744455487982, 8.469709573312205], [2.374579801645615, 3.152042555608, -11.958158749704436, -15.505110135230208, -7.387096436928079, 9.587905940873638, -5.346836442913638, 8.966737574476415, 17.964273805910263, -15.901553290216091, 16.919154537938653, -8.11807881891956], [3.399454658179871, -20.02425986929272, -2.5916978089563694, 10.609728048085524, -9.751701036709637, -21.60873749846494, -5.46727773525715, 17.83392271098825, 19.104856681404854, -20.178513296891193, -8.766445379505774, -0.7087331861870101], [6.499434844516105, -0.5564971795112421, 17.539853668556653, 3.8823494033668613, 0.722575416129957, 8.939711997716802, 3.788846865073338, -6.0286521138195575, 28.012241241472786, -1.8851104581258875, -8.636235546816938, 3.3658427959809827], [-11.013970129327548, 11.432072371099016, -0.11038260817883676, -1.5889949288930936, -5.1340893493464765, -7.077782428956466, 1.4245525619119923, -12.075920554761064, -7.661355260355131, -7.27943330645703, -4.370470384509935, 17.402265007599006], [9.832809430296429, 4.14255279164187, -4.487876634607433, 6.112122404652235, -11.721080380561647, 6.747534359356458, 13.268910105078698, 5.57527071159078, -13.04704627497508, -19.32516203423839, 4.54045324672201, -1.9845177739925957], [-5.868699310430014, -10.845391505306761, -6.709173137459307, -4.67778502086598, -2.8642320819625002, 38.208915417396675, -7.490533865544919, -3.4566447656087993, 4.790916912391414, 7.228247664565995, 5.020985922215493, 5.636196073149648], [-9.362242160836406, 19.27020986459944, -3.9020882496465563, -10.226238905071465, 11.765894834176953, 9.400567171332282, -4.616213595415289, -7.4965146183130615, -2.358865774653183, 7.376879834893524, -5.655840983898362, -14.099902455048325], [1.307653186688129, 17.76164268595945, -19.30013989595808, -7.677625651826972, -5.575621919179669, -14.293386141097885, 16.054655263474057, 2.0256523202928634, 5.131729108582143, -18.234117634365287, 33.363249689990006, 28.632318974363027], [-4.719848227236478, -23.312648425049527, 1.9021936064811742, 6.525056816546028, -11.051818373473397, -11.82845807909927, 10.673442434479933, 2.0973369304234426, 17.076196486634068, -30.641717066146754, -7.552870044156438, -9.516934102610893]], "weights_ho": [[-5.592193275899193, -10.61285842976213, 0.20888027488398697, -4.592792202030395, 14.55404066210106, -24.579379794628043, 18.03193738260451, 28.14656207729397, 10.174919546505178, -10.123476345989557, -15.370244023733695, 1.7272796601447649, -3.8715514830077993, -1.6200220203839288, 15.046416218513514, 4.271168591904449], [-5.675990338021774, -2.310794802529262, 9.630759189580214, -18.65821593225776, 18.90671027325714, -10.195737640562518, 3.963166981320128, -1.0643359433145905, -10.34310360878515, 5.414536900984394, 16.853771869498487, -37.56971269251689, -4.402715577780733, 6.792335461123795, -19.660658981387936, -8.40274382213665], [4.5623112137621, -7.108360678954158, -5.040864991472568, -3.186352427569707, -8.136401870160023, 7.066356386451791, -4.555801099934361, 0.2463678452773573, 3.7561458973195507, 5.512301807045916, 22.261567216222698, -4.935467996139878, 12.92897022744148, -24.589773291965784, -19.06017839857419, 7.127843922793911], [-2.380139252824672, 32.29431049569086, -13.253128302068221, 8.540391329205587, -3.582920961228867, -1.1895911575676006, 11.330451980666433, -2.583400397649211, 28.221057275630105, -24.663989003518903, 8.57285793447201, -10.882316201840979, -16.03287532522569, -5.36803454304658, -2.470635583701718, 14.76321597528936]], "bias_h": [[-10.210075165293336], [-7.704462245794257], [-12.00539397099793], [-17.699140770020225], [-2.1812410265025735], [5.698488792208623], [21.916084313776718], [20.777165753411975], [3.1718457919623506], [0.4199210180518448], [0.4395658826863946], [16.086576372502883], [8.124431593859741], [1.3071205899056533], [13.547581155063424], [7.743988246636201]], "bias_o": [[-4.97184875982302], [-0.9035500466717872], [-11.531505199378154], [-12.398696918730344]]}, {"input_nodes": 12, "hidden_nodes": 16, "output_nodes": 4, "weights_ih": [[1.7800210919229997, 6.412219619903234, -8.491832771106829, -3.098309692430662, 7.2065971311496, -8.10865624307449, 8.70311108523881, 0.19354643175718086, 4.134379340031301, 0.40011840729202663, -5.738291991280254, -17.279220142985903], [0.08660496714049407, -13.588623560728985, 6.404871719469577, -2.9951755461452394, 12.959608012711811, -4.704873432712559, 16.789727359691504, 9.61352104906463, 1.4881172811806078, -4.553588409702553, -9.158036245018536, 15.73026537791828], [8.030119796906376, 6.525016133491985, -5.074234254044647, 8.66916073167512, -16.400147443228903, -9.776796859397294, 17.160837690489842, -12.337746116335092, 18.251393766125613, -5.888751348349218, 16.083263371792437, -5.752621573495816], [-0.5056147160308817, 24.97713614182147, -21.338523303121374, 2.8821883312188725, -2.991591078183145, -2.6611843925189524, -9.269862664716252, 7.5427148229218, 9.806464314135722, -0.12184300564203782, 1.7537305222999882, -17.995733280604746], [2.1649863202695925, -13.577358056767634, -3.1379370083255926, -11.850191739692438, -3.9309856435740755, 17.352608599368867, 5.890821194801593, -11.10714977610569, -1.3775353579003498, 9.307224919359715, 3.4712035858633197, 1.7470838207038042], [-16.91600851112428, -3.936410129708522, 14.882463789122804, 3.3386800090024265, 6.178321139970624, 20.714772233729107, 20.66900166229858, 3.870562264815885, 3.2890130357253136, -20.378668698328774, -12.87907424218531, -17.755326974816946], [5.887466426090815, -4.664430202348845, -15.908064221429873, 11.431871954994818, 6.1812252817860225, 7.923456658372707, 15.263712499934046, 13.44719758808452, 7.079467515013498, -3.11401248520444, 5.902744455487982, 8.469709573312205], [2.42495760777881, 3.152042555608, -11.927866080096138, -15.54077718770852, -7.387096436928079, 9.41626311012043, -5.619830527779935, 8.941068724787257, 17.784173355794657, -15.901553290216091, 17.013998852165233, -8.181346291518963], [3.2216659426360783, -20.02425986929272, -2.5013181350439018, 10.455785559130039, -9.751701036709637, -21.850132508091356, -5.477731189984496, 17.887531899459983, 18.895801215996855, -20.078349861499017, -8.63699801493516, -0.7087331861870101], [6.649363829429676, -0.43099284046719794, 17.539853668556653, 3.8823494033668613, 0.722575416129957, 8.900282289400586, 3.9322714525873073, -6.15745943574974, 28.005065599497954, -1.8289486172673963, -8.472810747452975, 3.4438567068159465], [-11.040021049617291, 11.357178666592224, -0.3012799485609272, -1.8779708869258922, -5.1340893493464765, -7.312324661969299, 1.4385065339371725, -12.064752127432126, -7.661355260355131, -7.334646235975846, -4.412608717868324, 17.46971589876046], [9.832809430296429, 3.9940904763103893, -4.606815818029994, 6.222789144989018, -11.721080380561647, 6.92227576055695, 13.268910105078698, 5.4464190775745385, -13.04704627497508, -19.52879482338418, 4.54045324672201, -1.9845177739925957], [-5.868699310430014, -11.164053222676854, -6.762495694454187, -4.67778502086598, -2.8642320819625002, 38.208915417396675, -7.503595855172491, -3.4914219393227786, 4.864798889915972, 7.138037394441226, 5.020985922215493, 5.655768031324891], [-9.362242160836406, 19.27020986459944, -3.8141163172430357, -10.31872423965418, 11.668521180119548, 9.400567171332282, -5.013847124496882, -7.4965146183130615, -2.264212567242801, 7.337318479830613, -5.581290353139018, -13.889510205038098], [1.2300481335345699, 17.76164268595945, -19.467389919992396, -7.771192728262861, -5.575621919179669, -14.309000495248362, 15.943736480757828, 2.0256523202928634, 5.131729108582143, -18.34229278701618, 33.44787550252808, 28.632318974363027], [-4.789844655974721, -23.30740162011369, 2.1781862036708146, 6.525056816546028, -10.9858635094998, -11.907434382320401, 10.567023236055746, 2.2150067299276763, 16.95433536280925, -30.71303313552146, -7.4773476945817166, -9.516934102610893]], "weights_ho": [[-5.661185580742968, -10.595479544704892, 0.27277922492747675, -4.699950480621693, 14.758217315142291, -24.579379794628043, 18.03193738260451, 28.168772100960982, 10.260490944670426, -10.152790434674522, -15.501219691930393, 1.664157801729544, -3.8715514830077993, -1.74695554841082, 15.050042024445734, 4.349555264245182], [-5.793480233155421, -2.0384423088679866, 9.615239217818417, -18.422290316771182, 18.9122301992398, -10.195509271623479, 3.983060806574755, -1.0643359433145905, -10.515421926586914, 5.414536900984394, 16.853771869498487, -37.652146437556624, -4.402715577780733, 6.714911468867932, -19.69513315466474, -8.3572475405902], [4.424588550678176, -7.169010554287877, -5.040864991472568, -3.117620727168267, -8.133585054710176, 7.066356386451791, -4.404755077507865, 0.18948328204014783, 3.7220568942979217, 5.5331455379741366, 22.200872472059043, -4.935467996139878, 12.908995519341603, -24.589773291965784, -19.06017839857419, 7.123488616277054], [-2.3151009054581126, 32.29431049569086, -13.417506113163416, 8.482673711197885, -3.606591215360949, -1.2835095790735231, 11.330451980666433, -2.497588739273906, 28.366311569315492, -24.542124085547396, 8.571416117703972, -11.001525582824598, -15.956986665982615, -5.375717790373079, -2.4238039637780773, 14.76321597528936]], "bias_h": [[-10.245402803166614], [-7.904631162037238], [-12.065866464806952], [-17.948307602127667], [-2.2346002056097767], [5.825664930735919], [21.916084313776718], [20.829863097462432], [3.237151465182204], [0.4199210180518448], [0.4395658826863946], [16.086576372502883], [8.192731352702953], [1.1931476398935372], [13.547581155063424], [7.843242952072498]], "bias_o": [[-4.812976726543224], [-0.7551513157893069], [-11.531505199378154], [-12.398696918730344]]}, {"input_nodes": 12, "hidden_nodes": 16, "output_nodes": 4, "weights_ih": [[1.655107138489187, 6.317679350754953, -8.568971092336822, -3.30012899729589, 7.352039893595759, -8.248475966784486, 8.737409571302592, 0.2102726255049324, 3.874791534719934, 0.22760013825607, -5.709030117413854, -17.138595488322903], [-0.023161708000480712, -13.641413296071704, 6.404871719469577, -2.9951755461452394, 12.982707735912195, -4.587698397336034, 16.789727359691504, 9.602577536617469, 1.4881172811806078, -4.380822239124927, -9.120693936426573, 15.838324278048496], [8.099488724882127, 6.451661430599205, -5.074234254044647, 8.634053860702311, -16.55492957561537, -9.776796859397294, 17.160837690489842, -12.251353991026374, 18.251393766125613, -5.804833128679325, 15.941616920048546, -5.671583963318532], [-0.45958448032599897, 25.080831425853933, -21.338523303121374, 2.9192262430640463, -3.0473451451837827, -2.726759398857989, -9.220475635326094, 7.360687359185835, 9.693364080296472, -0.12184300564203782, 1.7537305222999882, -18.000130357149597], [2.3714480223600476, -13.577358056767634, -3.2348555279187097, -11.82721986950596, -4.014011477428728, 17.516780782647068, 5.890821194801593, -11.192602470801107, -1.3789320958707973, 9.476421754911494, 3.4712035858633197, 1.6952962580916517], [-16.898613082221658, -3.936410129708522, 14.904843001440263, 3.3386800090024265, 6.238090298188532, 20.718070796124913, 20.77953863008137, 3.6211230556035234, 3.2890130357253136, -20.32967627253396, -13.139663404414678, -17.59536900834043], [5.87926065942935, -4.60015241588303, -15.908064221429873, 11.4129194142362, 6.472705410383152, 7.932048148700698, 15.374156143068967, 13.44719758808452, 6.938837221351938, -2.938745944538715, 5.902744455487982, 8.469709573312205], [2.492658230748216, 3.152042555608, -11.927866080096138, -15.56851576439108, -7.332722234772309, 9.55460366283338, -5.799564952199715, 8.823268858603189, 17.784173355794657, -15.945370071836752, 17.032012217828736, -8.03545189353535], [3.2216659426360783, -19.996749527566504, -2.6387743438053595, 10.517849807312734, -9.751701036709637, -21.89537372677481, -5.432149004465098, 17.78312382768938, 18.895801215996855, -20.078349861499017, -8.766445379505774, -0.7087331861870101], [6.649363829429676, -0.4692206664572842, 17.661508017504776, 3.8823494033668613, 0.7392331438601769, 8.939711997716802, 3.7755302480410466, -6.0357429038053025, 28.005065599497954, -1.8851104581258875, -8.544833643779363, 3.493299358589674], [-11.013970129327548, 11.3633585162316, -0.21557047568886978, -1.697335208849558, -5.1340893493464765, -7.183110208093258, 1.4385065339371725, -12.35341512716453, -7.692735319004994, -7.451661237366166, -4.370470384509935, 17.402265007599006], [9.870881275361215, 3.9940904763103893, -4.606815818029994, 6.112875163104303, -11.738835087281386, 6.8830082663678365, 13.268910105078698, 5.4464190775745385, -13.150562349880083, -19.414087479545177, 4.54045324672201, -1.9845177739925957], [-5.868699310430014, -10.956098396676289, -6.849601862645272, -4.675608344340927, -3.0629485703698847, 38.21486182304249, -7.503595855172491, -3.4264458587783304, 4.864798889915972, 7.093118256765334, 5.112865889735885, 5.862144276035921], [-9.417426002659461, 19.096720467339026, -3.9020882496465563, -10.200980396916172, 11.694425450495109, 9.400567171332282, -4.738845906250748, -7.418529454617405, -2.358865774653183, 7.376879834893524, -5.802902521223047, -13.957219885977567], [1.2876031557117116, 17.86001781772383, -19.279698002719883, -7.622661787840079, -5.438271224470601, -14.309000495248362, 16.089267493332596, 2.006373043157752, 5.202974559341341, -18.205175152094768, 33.42013936835937, 28.727779630682683], [-4.699675559477089, -23.368914741910107, 1.865159808272543, 6.525056816546028, -10.9858635094998, -11.873711145740954, 10.698718684920642, 2.1761853601611842, 17.031129268777946, -30.67102067697465, -7.484118219629259, -9.516934102610893]], "weights_ho": [[-5.578567447280799, -10.807993171258671, 0.2082379513307622, -4.576403321517083, 14.689862533281792, -24.579379794628043, 18.032303095654385, 28.112855620057, 10.260490944670426, -10.243868465000734, -15.583633788162068, 1.7272796601447649, -3.8715514830077993, -1.6182627533041098, 15.050042024445734, 4.321017425237469], [-5.799984232871408, -2.22971596436531, 9.55156999356123, -18.422290316771182, 18.854864194319845, -10.14462862111099, 3.963166981320128, -1.0643359433145905, -10.34310360878515, 5.414536900984394, 16.94835440940057, -37.648428427551806, -4.459165776587287, 6.712104772627492, -19.742419103738175, -8.518111121795188], [4.331549208327194, -7.057323164583552, -5.040864991472568, -3.186352427569707, -8.23051875132384, 7.142218080834169, -4.323039404084471, 0.04164548911458599, 3.802548435012408, 5.512301807045916, 22.17239734852122, -4.935467996139878, 12.92897022744148, -24.589773291965784, -19.06017839857419, 7.1023058007828626], [-2.2417603336162544, 32.40702552832653, -13.253128302068221, 8.578730347732218, -3.582920961228867, -1.1684135756654161, 11.330451980666433, -2.536729239484205, 28.43899112334893, -24.820663901571884, 8.633185958741944, -11.006763858914924, -15.906500000281506, -5.375717790373079, -2.646683320637477, 14.76321597528936]], "bias_h": [[-10.210075165293336], [-7.904631162037238], [-12.041648849056362], [-17.647474433518333], [-2.246192726477144], [5.430611913183554], [21.885184728900686], [20.81963848623294], [3.2772481380060183], [0.3502923011361155], [0.43809370806406195], [16.086576372502883], [8.187519990700627], [1.3117874229427429], [13.547581155063424], [7.743988246636201]], "bias_o": [[-4.812976726543224], [-0.9425391332476531], [-11.433524715599933], [-12.202654716425029]]}, {"input_nodes": 12, "hidden_nodes": 16, "output_nodes": 4, "weights_ih": [[1.6008366567235497, 6.412219619903234, -8.449699731094887, -3.098309692430662, 7.175642068596298, -8.10865624307449, 8.70311108523881, 0.10373497054130663, 3.893328593620982, 0.38964018208713513, -5.698368757115484, -17.195910239066215], [0.1264237096441209, -13.563647477082162, 6.404871719469577, -2.9951755461452394, 12.865851236727753, -4.550487831860619, 16.691321054682007, 9.61352104906463, 1.495013758664515, -4.379949003825721, -9.225503397742886, 15.80873447537871], [7.921615992323483, 6.451661430599205, -5.074234254044647, 8.66916073167512, -16.400147443228903, -9.776796859397294, 17.190912290944144, -12.362623285287537, 18.251393766125613, -5.898169306974215, 16.09919459348229, -5.625413382492797], [-0.5766927291790708, 25.104242275006097, -21.415014068517355, 2.8821883312188725, -2.991591078183145, -2.490488028138788, -9.289463085052306, 7.497965894777745, 9.71305506803808, -0.2567340722947862, 1.7537305222999882, -17.995733280604746], [2.354973380302369, -13.657438421361784, -3.1496039579337975, -11.7511039981169, -4.014011477428728, 17.352608599368867, 5.84180783087956, -11.08937242149859, -1.3789320958707973, 9.293889993837182, 3.4712035858633197, 1.7470838207038042], [-17.0773906737063, -3.8101545498703855, 15.031471521445473, 3.3386800090024265, 6.178321139970624, 20.718070796124913, 20.672548039050888, 3.870562264815885, 3.2890130357253136, -20.378668698328774, -12.953566720566487, -17.59536900834043], [5.87926065942935, -4.664430202348845, -15.908064221429873, 11.4129194142362, 6.376891474952984, 8.01701889014866, 15.263712499934046, 13.52032232554045, 6.932663516798386, -3.11401248520444, 5.902744455487982, 8.236991890818278], [2.578761994405171, 3.1425877572123992, -11.927866080096138, -15.505110135230208, -7.5615953307044546, 9.610795453455957, -5.708605473054076, 9.147764115141191, 17.784173355794657, -15.815074481432983, 16.865217454373695, -8.149511796186546], [3.323812951386488, -20.143701832757646, -2.5916978089563694, 10.463750972527828, -9.75352290636459, -21.850132508091356, -5.46727773525715, 17.887531899459983, 18.895801215996855, -20.078349861499017, -8.766445379505774, -0.7796383183066199], [6.649363829429676, -0.5092376406453342, 17.539853668556653, 3.8823494033668613, 0.8336021618099219, 8.980525129762748, 3.9322714525873073, -6.0357429038053025, 28.005065599497954, -1.9381600802913108, -8.342398481748356, 3.599530399161763], [-11.013970129327548, 11.600888120470001, -0.17687841892457962, -1.678962666713486, -5.128822691959888, -7.183110208093258, 1.4536043706423463, -12.075920554761064, -7.661355260355131, -7.423255128863822, -4.370470384509935, 17.402761219944818], [9.84256600215723, 3.9940904763103893, -4.606815818029994, 6.146718835518682, -11.626536218459284, 6.8830082663678365, 13.268910105078698, 5.4464190775745385, -13.10239829345149, -19.333030741271195, 4.54045324672201, -2.1728605805001893], [-5.868699310430014, -10.879668058042038, -6.918350696723922, -4.827195620085501, -2.8642320819625002, 38.208915417396675, -7.476138041188062, -3.5255471923737294, 4.864798889915972, 7.1942450870716925, 5.020985922215493, 5.671992914298708], [-9.208540827274637, 19.35215893367828, -3.9020882496465563, -10.145271219635012, 11.441711544384225, 9.400567171332282, -4.70864052444166, -7.418103272302861, -2.358865774653183, 7.376879834893524, -5.732526079575769, -13.957219885977567], [1.307653186688129, 17.79836901618119, -19.353501612075075, -7.622661787840079, -5.709122269695321, -14.280718407333763, 16.054655263474057, 2.0256523202928634, 5.131729108582143, -18.30061535407474, 33.44787550252808, 28.632318974363027], [-4.699675559477089, -23.169307335739607, 1.9427105361952413, 6.525056816546028, -10.795874690352484, -11.873711145740954, 10.859743764755391, 2.0778696801861782, 16.95433536280925, -30.61702379008561, -7.4861899584738065, -9.516934102610893]], "weights_ho": [[-5.671572576395267, -10.699641760951426, 0.2082379513307622, -4.576403321517083, 14.697167528471685, -24.542180064576065, 18.036670841824375, 28.091973397335575, 10.301547616383518, -10.123476345989557, -15.501219691930393, 1.8906035296875998, -3.8234203911998668, -1.5441229003325971, 15.050042024445734, 4.181826521199163], [-5.749386446980634, -2.310794802529262, 9.615239217818417, -18.422290316771182, 18.933754665862416, -10.167089777639957, 3.963166981320128, -0.9583940981025906, -10.34310360878515, 5.3720778559660625, 16.853771869498487, -37.49018293383386, -4.402715577780733, 6.714058391446627, -19.70677101626895, -8.52650846942918], [4.355826966018689, -7.050953833832529, -4.784662350918242, -3.186352427569707, -8.23051875132384, 7.007211352803881, -4.424893191895533, 0.07206719910448975, 3.7678941307733593, 5.71566938275708, 22.137681915961046, -5.006893927388533, 12.897342678272642, -24.821681595101417, -19.06017839857419, 7.103282465767551], [-2.2417603336162544, 32.29431049569086, -13.253128302068221, 8.540391329205587, -3.582920961228867, -1.085742035584741, 11.330451980666433, -2.5278353862070335, 28.366311569315492, -24.680779641507893, 8.719553262059875, -11.006763858914924, -15.770751652383005, -5.389085441493043, -2.4238039637780773, 14.76321597528936]], "bias_h": [[-10.210075165293336], [-7.904631162037238], [-12.01344064795874], [-17.699140770020225], [-2.2888674536748495], [5.778971825437017], [21.90006990480029], [20.847210047687316], [3.330283640093326], [0.4199210180518448], [0.3601830264431143], [16.371204578203802], [8.124431593859741], [1.3117874229427429], [13.709817753240298], [7.743988246636201]], "bias_o": [[-4.812976726543224], [-0.8174130342578393], [-11.653756330784871], [-12.398696918730344]]}, {"input_nodes": 12, "hidden_nodes": 16, "output_nodes": 4, "weights_ih": [[1.433729836206557, 6.337398888356122, -8.491832771106829, -3.195354695640734, 7.2550730209527385, -8.10865624307449, 8.70311108523881, 0.19354643175718086, 3.887731302389126, 0.40011840729202663, -5.709030117413854, -17.117443217290294], [0.0194284945471097, -13.563647477082162, 6.553446040868199, -2.9951755461452394, 13.040943781478344, -4.493729557074568, 16.789727359691504, 9.75786309055642, 1.4881172811806078, -4.301036592847965, -9.316995328789837, 15.715072072881012], [8.030119796906376, 6.451661430599205, -5.171767632293261, 8.66916073167512, -16.400147443228903, -9.715055806838366, 17.02515702298547, -12.286829190662422, 18.19097344087484, -5.898169306974215, 16.119308087185335, -5.752621573495816], [-0.5766927291790708, 25.041680621599323, -21.379253268572587, 2.835381008386848, -3.1132249083725916, -2.652534453277587, -9.29244631321275, 7.5427148229218, 9.632879686541923, -0.12184300564203782, 1.7537305222999882, -18.250477859327823], [2.4815685730069488, -13.546629257304193, -3.1496039579337975, -11.772139241389059, -4.05687833485563, 17.331327557322872, 5.819317599179008, -11.192602470801107, -1.4843908458627997, 9.542982797997741, 3.4712035858633197, 1.8897009029843383], [-17.045595716890766, -3.8904180369979615, 14.904843001440263, 3.3386800090024265, 6.2065532982615705, 20.718070796124913, 20.66900166229858, 4.046773942925132, 3.2643264508644814, -20.344492978677195, -13.124980172627145, -17.606568147909577], [5.87926065942935, -4.708611190967878, -16.0258032957001, 11.4129194142362, 6.376891474952984, 8.141787896462013, 15.263712499934046, 13.44719758808452, 6.970592529133033, -3.11401248520444, 5.902744455487982, 8.31889259092435], [2.407699789154213, 3.152042555608, -11.927866080096138, -15.505110135230208, -7.335412307832705, 9.587905940873638, -5.619830527779935, 9.005697457847742, 17.64746224372709, -15.914215766109743, 16.919154537938653, -8.149511796186546], [3.2216659426360783, -20.301128524575844, -2.4003278912418, 10.517849807312734, -9.643900966738801, -21.95984822924314, -5.422448901355414, 17.887531899459983, 18.81008494813415, -20.078349861499017, -8.766445379505774, -0.6580281764037943], [6.649363829429676, -0.5092376406453342, 17.539853668556653, 3.8823494033668613, 0.722575416129957, 8.955853429303811, 3.9322714525873073, -6.015975220269069, 27.902928936212376, -1.585404375293205, -8.472810747452975, 3.466470457956401], [-11.013970129327548, 11.3633585162316, -0.2797827903028671, -1.697335208849558, -5.1340893493464765, -7.183110208093258, 1.3992440873279224, -12.075920554761064, -7.661355260355131, -7.476162930197961, -4.176522687112273, 17.42515235913301], [9.763530281815978, 3.8923612801419414, -4.58612038022185, 6.1751449977121196, -11.721080380561647, 6.8830082663678365, 13.118890857194089, 5.315871295030206, -13.04704627497508, -19.333030741271195, 4.54045324672201, -2.0356292462952332], [-5.893525054969013, -10.900612386829694, -6.849601862645272, -4.850644712428682, -2.933700030351344, 38.07793587234875, -7.503595855172491, -3.499138018681365, 4.870847132535317, 7.161721327831523, 4.907254297293908, 5.655768031324891], [-9.362242160836406, 19.27020986459944, -3.9143031545720017, -10.200980396916172, 11.694425450495109, 9.400567171332282, -4.738845906250748, -7.507358903994902, -2.358865774653183, 7.376879834893524, -5.732526079575769, -13.957219885977567], [1.307653186688129, 17.843064406900734, -19.353501612075075, -7.7777239127786, -5.575621919179669, -14.309000495248362, 16.054655263474057, 2.0256523202928634, 5.131729108582143, -18.15401341457947, 33.44787550252808, 28.632318974363027], [-4.699675559477089, -23.312648425049527, 1.8657326851918932, 6.638435493400594, -11.013017180683953, -11.917639159522633, 10.673442434479933, 2.1627666049957717, 16.95433536280925, -30.67102067697465, -7.297677230258837, -9.507696940811416]], "weights_ho": [[-5.671572576395267, -10.705703723890716, 0.18821390691541962, -4.609539416088292, 14.697167528471685, -24.579379794628043, 18.060649509819577, 28.112855620057, 10.113426588655567, -10.123476345989557, -15.501219691930393, 1.7272796601447649, -3.8715514830077993, -1.6182627533041098, 15.050042024445734, 4.28456635191281], [-5.793480233155421, -2.310794802529262, 9.47377296643276, -18.422290316771182, 18.91733842748611, -10.236847326725556, 4.010593733627738, -1.2624863134580486, -10.303742994405571, 5.4144916756604, 16.853771869498487, -37.648428427551806, -4.415085072173108, 6.797130486694077, -19.742419103738175, -8.448613545127062], [4.355826966018689, -7.108360678954158, -5.040864991472568, -2.9684966213142108, -8.334273897001736, 7.108613548489038, -4.158421963950559, 0.2463678452773573, 3.7561458973195507, 5.532808677388925, 22.137681915961046, -5.082524662149525, 12.934879760898866, -24.642625745601602, -19.005198342078916, 6.9864251288898185], [-2.2417603336162544, 32.29431049569086, -13.295382139584198, 8.540391329205587, -3.582920961228867, -1.3907702581872314, 11.330451980666433, -2.5723618452798656, 28.366311569315492, -24.663989003518903, 8.559192754452996, -11.006763858914924, -15.844572990735228, -5.375717790373079, -2.4238039637780773, 14.755887076896293]], "bias_h": [[-10.210075165293336], [-8.07073407038299], [-12.061560797334566], [-17.540312961287878], [-2.246192726477144], [5.8899664609714915], [21.838723972228056], [20.66421974892296], [3.2772481380060183], [0.4199210180518448], [0.4395658826863946], [16.090157263024572], [8.124431593859741], [1.3117874229427429], [13.547581155063424], [7.743988246636201]], "bias_o": [[-4.921935747101466], [-0.9425391332476531], [-11.377074862702955], [-12.415108900629548]]}, {"input_nodes": 12, "hidden_nodes": 16, "output_nodes": 4, "weights_ih": [[1.665882745779422, 6.462377063931947, -8.491832771106829, -3.038899216631725, 7.2550730209527385, -8.10865624307449, 8.799310070417839, 0.24669527224698642, 3.893328593620982, 0.40011840729202663, -5.709030117413854, -17.020863195723543], [-0.023161708000480712, -13.563647477082162, 6.404871719469577, -2.9597835850988887, 12.921007138935263, -4.587698397336034, 16.86774724931124, 9.576137653036124, 1.4881172811806078, -4.494476594520973, -9.158036245018536, 15.973078086168973], [8.030119796906376, 6.55971278138172, -5.0575898787313545, 8.717026115085925, -16.40087040118189, -9.776796859397294, 17.096504719697553, -12.480430868655299, 18.251393766125613, -6.028436853111503, 15.99581830947112, -5.7529472419001495], [-0.5766927291790708, 25.041680621599323, -21.528565540715118, 2.8821883312188725, -2.991591078183145, -2.4908017682720347, -9.289463085052306, 7.5427148229218, 9.750909287613734, -0.04524135360446227, 1.7537305222999882, -17.99425019834746], [2.2970838214527745, -13.599931450201426, -3.1496039579337975, -11.7511039981169, -4.014011477428728, 17.352608599368867, 5.890821194801593, -11.273521620590543, -1.3789320958707973, 9.750709445808898, 3.496308605068447, 1.7470838207038042], [-17.160812378313175, -3.9730743591556488, 14.855513331902563, 3.3386800090024265, 6.3632097832154795, 20.718070796124913, 20.62916551274201, 3.870562264815885, 3.2831520500695404, -20.378668698328774, -12.953566720566487, -17.59536900834043], [5.906056082704317, -4.764973995655002, -15.908064221429873, 11.4129194142362, 6.364590172157785, 7.923456658372707, 15.247723305130187, 13.53342261126789, 7.03899676157709, -2.9209852192849532, 5.902744455487982, 8.469709573312205], [2.407699789154213, 3.1721518035421647, -11.927866080096138, -15.505110135230208, -7.387096436928079, 9.587905940873638, -5.619830527779935, 8.966737574476415, 17.73387316047583, -15.901553290216091, 16.919154537938653, -8.149511796186546], [3.2207515177905073, -20.032935715718423, -2.4570161497430365, 10.517849807312734, -9.751701036709637, -21.865935142913774, -5.46727773525715, 17.85387032924063, 18.959451352982352, -20.078349861499017, -8.82885791549464, -0.7087331861870101], [6.649363829429676, -0.557796221300053, 17.45557344440026, 3.8823494033668613, 0.722575416129957, 8.939711997716802, 3.9012715869891466, -6.0357429038053025, 28.005065599497954, -1.9341480684363839, -8.287784103100805, 3.599530399161763], [-10.874384388803954, 11.379874128403195, -0.12815433217260322, -1.5571886985621317, -5.215102125387024, -7.216107683767763, 1.4385065339371725, -12.156296278936772, -7.661355260355131, -7.43077602895773, -4.370470384509935, 17.41067984883544], [9.832809430296429, 3.8722708829176256, -4.606815818029994, 6.168225490536531, -11.456141513310914, 6.820115842772584, 13.425852678869191, 5.380801794387363, -13.04704627497508, -19.333030741271195, 4.54045324672201, -1.9860463020117054], [-5.88754888943052, -11.06667568898729, -6.849601862645272, -4.709543499932341, -2.8642320819625002, 38.208915417396675, -7.454543170354862, -3.4365667405044005, 4.927561211163951, 7.1942450870716925, 5.062637812880031, 5.772933705548199], [-9.280431097015937, 19.603446594238346, -3.9020882496465563, -10.2471866303413, 11.694425450495109, 9.487131791918545, -4.802077590156878, -7.4965146183130615, -2.311243936982559, 7.253207367869881, -5.732526079575769, -13.827299361499543], [1.307653186688129, 17.76164268595945, -19.353501612075075, -7.675398297658536, -5.673436061160166, -14.282885866390254, 16.054655263474057, 2.020026371334749, 5.131729108582143, -18.104427607683988, 33.44787550252808, 28.926810714847075], [-4.701451600900774, -23.312648425049527, 1.865159808272543, 6.664566253436116, -11.003235074746232, -11.924173165524525, 10.673442434479933, 2.1627666049957717, 16.814816133768062, -30.67102067697465, -7.556943361834462, -9.469449324587604]], "weights_ho": [[-5.547819302470474, -10.525731851910633, 0.3765086317237957, -4.585324339231158, 14.932183780141415, -24.622973883160295, 18.03193738260451, 28.112855620057, 10.260490944670426, -10.136828741261176, -15.404857012904843, 1.7272796601447649, -3.8715514830077993, -1.6118282919278069, 15.050042024445734, 4.271168591904449], [-5.793480233155421, -2.155381765426193, 9.615239217818417, -18.544494430973245, 18.91733842748611, -10.202827550136615, 3.963166981320128, -1.0643359433145905, -10.476064234140882, 5.468535341059419, 16.850029399842484, -37.814563147909475, -4.3569856930499515, 6.792335461123795, -19.742419103738175, -8.448613545127062], [4.310401815210556, -7.286839734913167, -5.0331960145431935, -3.186352427569707, -8.290126709744772, 7.095693902671676, -4.458814355668993, 0.2463678452773573, 3.7561458973195507, 5.512301807045916, 22.137681915961046, -4.935467996139878, 13.160528219739252, -24.679096230180843, -18.942699535730828, 7.123488616277054], [-2.2417603336162544, 32.17622920602032, -13.24412807253068, 8.540391329205587, -3.582920961228867, -1.2304806795240726, 11.235763998130333, -2.601453183658779, 28.366311569315492, -24.62044051726503, 8.559192754452996, -11.149465668296296, -15.906500000281506, -5.375717790373079, -2.4238039637780773, 14.73987796305672]], "bias_h": [[-10.210075165293336], [-7.974203450187302], [-11.984344098595805], [-17.76753440525794], [-2.246192726477144], [5.707553762192262], [21.762869430025], [20.756212729186778], [3.3878382886688074], [0.5035527241500598], [0.4395658826863946], [16.102697869423583], [8.180929443554696], [1.3117874229427429], [13.62198150827361], [7.635134938281638]], "bias_o": [[-4.790046213974049], [-0.9425391332476531], [-11.531505199378154], [-12.456684932089326]]}, {"input_nodes": 12, "hidden_nodes": 16, "output_nodes": 4, "weights_ih": [[1.665882745779422, 6.412219619903234, -8.491832771106829, -3.062538938771538, 7.2550730209527385, -8.10865624307449, 8.70311108523881, 0.19354643175718086, 3.7675031663855623, 0.40011840729202663, -5.745067314524503, -17.138595488322903], [-0.023161708000480712, -13.402404570849063, 6.404871719469577, -2.9951755461452394, 12.982707735912195, -4.563847413173647, 16.789727359691504, 9.446621166415389, 1.4788503408573141, -4.170268555179871, -9.158036245018536, 15.838324278048496], [8.065163055821374, 6.540075272602264, -5.074234254044647, 8.611430956003272, -16.389560700686417, -9.730609600001738, 17.167963445162787, -12.634701169414722, 18.289477860070697, -5.898169306974215, 15.94102352891567, -5.752621573495816], [-0.5766927291790708, 25.041680621599323, -21.338523303121374, 2.8821883312188725, -2.991591078183145, -2.575420597058847, -9.289463085052306, 7.475004340485576, 9.805813969010947, -0.12184300564203782, 1.7537305222999882, -17.995733280604746], [2.354973380302369, -13.577358056767634, -3.233335123083035, -11.7511039981169, -4.006395485028077, 17.352608599368867, 5.617391954537072, -11.192602470801107, -1.3789320958707973, 9.417159243185736, 3.4712035858633197, 1.751974248667315], [-17.217014750597322, -4.008596948522161, 14.904843001440263, 3.3386800090024265, 6.289264868567798, 20.78156155296318, 20.66900166229858, 3.806524793253686, 3.3132573711145255, -20.378668698328774, -12.953566720566487, -17.515292067043248], [5.83911529757746, -4.45488022436066, -15.851398652403802, 11.4129194142362, 6.213558382394846, 7.923456658372707, 15.059264506346322, 13.44719758808452, 6.8631772892323495, -3.11401248520444, 5.972069126747523, 8.41729667341557], [2.407699789154213, 3.152042555608, -11.85163641758722, -15.505110135230208, -7.4187263768802785, 9.587905940873638, -5.619830527779935, 8.966737574476415, 17.80399956512758, -15.914910418933328, 16.91705162277767, -8.149511796186546], [3.149349440521087, -20.02425986929272, -2.644122051010422, 10.517849807312734, -9.730891882069058, -21.850132508091356, -5.464611899143475, 17.887531899459983, 18.895801215996855, -20.22122504513086, -8.766445379505774, -0.7114407603325001], [6.685944438304545, -0.5092376406453342, 17.539853668556653, 3.9086407847727056, 0.722575416129957, 8.936887723950923, 3.9179167262124395, -6.163110727865474, 28.005065599497954, -1.8510919869681781, -8.472810747452975, 3.599530399161763], [-11.013970129327548, 11.25100359846037, -0.0060953473959438065, -1.7264755580632223, -5.1340893493464765, -7.337589095995856, 1.627460856278685, -12.075920554761064, -7.687383283498791, -7.277421450219434, -4.370470384509935, 17.402265007599006], [9.932244697646047, 4.050646504434829, -4.622642320996334, 6.22448163682035, -11.721080380561647, 6.938424806197271, 13.268910105078698, 5.4464190775745385, -13.04704627497508, -19.38333480405507, 4.54045324672201, -1.8995699574646199], [-5.607239901877512, -11.053300122558692, -6.849601862645272, -4.67778502086598, -3.092482240934841, 38.208915417396675, -7.503595855172491, -3.492929329976928, 4.864798889915972, 7.1942450870716925, 5.081194298812363, 5.655768031324891], [-9.286155341785665, 19.27020986459944, -3.9437443349533345, -10.230067904797473, 11.694425450495109, 9.400567171332282, -4.738845906250748, -7.445806130954017, -2.391868063378538, 7.376879834893524, -5.732526079575769, -13.980009348346224], [1.2663589972129976, 17.584304267915133, -19.5166600038515, -7.622661787840079, -5.41095643703506, -14.309000495248362, 16.054655263474057, 1.8626415312321747, 5.203609092630612, -18.234117634365287, 33.44787550252808, 28.632318974363027], [-4.8366571512542444, -23.334546248597185, 1.824324700816558, 6.525056816546028, -10.9858635094998, -11.873711145740954, 10.56045358185564, 2.1627666049957717, 16.95433536280925, -30.784127939672246, -7.484118219629259, -9.330431670046556]], "weights_ho": [[-5.5436033164766645, -10.756847319287761, 0.1594795762219549, -4.635608927473484, 14.801891991281042, -24.579379794628043, 18.023103989262644, 28.112855620057, 10.260490944670426, -10.123476345989557, -15.501219691930393, 1.6214842235125104, -3.92399518610452, -1.488275548883499, 15.050042024445734, 4.271168591904449], [-5.793480233155421, -2.310794802529262, 9.59687899995763, -18.422290316771182, 18.88558915196066, -10.047074456157825, 3.8675100140789582, -1.1194806390384924, -10.312529238529114, 5.355595305153161, 16.853771869498487, -37.648428427551806, -4.402715577780733, 6.843085299325218, -19.698843867763124, -8.448613545127062], [4.431992453899328, -7.108360678954158, -5.206348502190468, -3.186352427569707, -8.23051875132384, 7.101829684515775, -4.281728076013897, 0.2463678452773573, 3.7561458973195507, 5.561140617472111, 22.037491933494564, -4.8588552755226955, 12.977019247162373, -24.39636433590065, -19.06017839857419, 7.123488616277054], [-2.2417603336162544, 32.29431049569086, -13.253128302068221, 8.540391329205587, -3.749097400371622, -1.1895911575676006, 11.330451980666433, -2.497588739273906, 28.505916044737543, -24.663989003518903, 8.494537086520154, -10.93966039579811, -15.8401006872089, -5.348312358163609, -2.5485437798200405, 14.76321597528936]], "bias_h": [[-10.15137567710771], [-7.904631162037238], [-11.995056191646322], [-17.679167231944852], [-2.251296727008396], [5.7557110388194666], [21.952021965576577], [20.829863097462432], [3.144796924986278], [0.4199210180518448], [0.4395658826863946], [16.12602763767831], [7.946281146458658], [1.036223382099832], [13.547581155063424], [7.715899209954211]], "bias_o": [[-4.812976726543224], [-0.9425391332476531], [-11.542006260411766], [-12.49126886477389]]}, {"input_nodes": 12, "hidden_nodes": 16, "output_nodes": 4, "weights_ih": [[1.6278666880338069, 6.412219619903234, -8.491832771106829, -3.098309692430662, 7.104235639162796, -8.10865624307449, 8.725986586908377, 0.1857272979761092, 3.893328593620982, 0.3022439734124039, -5.647809746851866, -17.138595488322903], [0.23368617215922158, -13.563647477082162, 6.357993502708763, -2.9347655415271685, 12.982707735912195, -4.587698397336034, 16.768134300626954, 9.61352104906463, 1.6027725400971464, -4.346762990234689, -9.158036245018536, 15.838324278048496], [8.030119796906376, 6.451661430599205, -5.163018491940795, 8.504289548421266, -16.400147443228903, -9.6371586262803, 17.20074985544785, -12.345330858786895, 18.252320511002196, -5.898169306974215, 15.965467491690505, -5.752621573495816], [-0.5766927291790708, 25.041680621599323, -21.338523303121374, 3.0018330325950395, -2.991591078183145, -2.575420597058847, -9.289463085052306, 7.5427148229218, 9.693364080296472, -0.06617275791889274, 1.7537305222999882, -18.03165951919126], [2.354973380302369, -13.577358056767634, -3.332295731237041, -11.809256138427497, -3.801643520640258, 17.343811423244016, 5.890821194801593, -11.110175387650015, -1.2825951069948802, 9.417159243185736, 3.408895018977506, 1.7470838207038042], [-17.0773906737063, -3.936410129708522, 14.950068524924705, 3.3286585013953283, 6.178321139970624, 20.595652523300878, 20.66900166229858, 3.870562264815885, 3.327429038422802, -20.378668698328774, -12.953566720566487, -17.59536900834043], [5.87926065942935, -4.664430202348845, -15.908064221429873, 11.556275528424575, 6.38074301382512, 7.923456658372707, 15.263712499934046, 13.44719758808452, 6.911461589613019, -3.11401248520444, 5.902744455487982, 8.633509150005613], [2.37432314901536, 3.152042555608, -11.886441290648124, -15.505110135230208, -7.405969090985958, 9.587905940873638, -5.6107762550667974, 8.853262042706522, 17.784173355794657, -15.663426790657361, 16.93175940089526, -8.161839796752846], [3.329787624982449, -20.02425986929272, -2.5916978089563694, 10.517849807312734, -9.751701036709637, -21.850132508091356, -5.224595597299832, 17.881978905933305, 18.788258883442992, -20.078349861499017, -8.766445379505774, -0.6951393127988597], [6.649363829429676, -0.4306626645953686, 17.539853668556653, 3.8823494033668613, 0.722575416129957, 8.939711997716802, 4.007387427843488, -6.0357429038053025, 28.1771531089349, -1.837767902360381, -8.472810747452975, 3.599530399161763], [-11.013970129327548, 11.3633585162316, -0.282473450399342, -1.5608328750548939, -5.1340893493464765, -7.183110208093258, 1.2746062037220889, -12.075920554761064, -7.661355260355131, -7.303808737992074, -4.483637599005089, 17.402265007599006], [9.775476649414532, 3.9940904763103893, -4.606815818029994, 6.147043005671461, -11.761358870689346, 6.826882702056896, 13.268910105078698, 5.4464190775745385, -13.046835924265078, -19.333030741271195, 4.54045324672201, -2.051879794467589], [-5.868699310430014, -10.900612386829694, -6.849601862645272, -4.67778502086598, -2.8642320819625002, 38.208915417396675, -7.478134227459423, -3.492929329976928, 4.864798889915972, 7.1942450870716925, 5.089193048086055, 5.655768031324891], [-9.336968807587375, 19.13407939861963, -3.9020882496465563, -10.200980396916172, 11.694425450495109, 9.400567171332282, -4.738845906250748, -7.4965146183130615, -2.358865774653183, 7.411565277604893, -5.733409155900499, -13.897144757134669], [1.307653186688129, 17.7167237036907, -19.362381011908806, -7.622661787840079, -5.575621919179669, -14.25565748977101, 15.997156792441224, 2.0256523202928634, 5.184896544481623, -18.234117634365287, 33.367033986068726, 28.67103893580288], [-4.690415924466616, -23.312648425049527, 1.9314956779445032, 6.525056816546028, -10.9858635094998, -11.873711145740954, 10.547701527738717, 2.222571931649926, 16.95433536280925, -30.705916109188202, -7.484118219629259, -9.516934102610893]], "weights_ho": [[-5.671572576395267, -10.61285842976213, 0.23378047041113198, -4.576403321517083, 14.697167528471685, -24.579379794628043, 18.03193738260451, 28.112855620057, 10.260490944670426, -10.123476345989557, -15.501219691930393, 1.7963122303291665, -3.8715514830077993, -1.8976209768571064, 15.065723084865372, 4.271168591904449], [-5.793480233155421, -2.310794802529262, 9.615239217818417, -18.422290316771182, 18.91733842748611, -10.149164452665188, 3.8151820496139845, -1.0643359433145905, -10.34310360878515, 5.534943250288646, 16.925469797128752, -37.648428427551806, -4.402715577780733, 6.792335461123795, -19.799659202860262, -8.448613545127062], [4.355826966018689, -7.00799671137298, -5.040864991472568, -3.212304023189251, -8.23051875132384, 7.066356386451791, -4.555845286982562, 0.3784642845951926, 3.827671249422607, 5.448971423705147, 22.137681915961046, -4.935467996139878, 12.92897022744148, -24.643046295119305, -19.06017839857419, 7.123488616277054], [-2.2417603336162544, 32.36246723939102, -13.321784093704661, 8.540391329205587, -3.573214509694217, -1.1048565913823192, 11.25870198873359, -2.497588739273906, 28.29271512954446, -24.663989003518903, 8.754767219619897, -11.006763858914924, -15.906500000281506, -5.376215166011434, -2.4238039637780773, 14.76321597528936]], "bias_h": [[-10.210075165293336], [-7.989378053476797], [-12.143844434628239], [-17.725246938979332], [-2.2261073441335637], [5.568447178970832], [21.916084313776718], [20.79694484516747], [3.2772481380060183], [0.4199210180518448], [0.43992369922930036], [16.086576372502883], [8.124431593859741], [1.2980125670571587], [13.547581155063424], [7.874152265949538]], "bias_o": [[-4.702653537505058], [-0.8482755807464244], [-11.604942407264499], [-12.398696918730344]]}, {"input_nodes": 12, "hidden_nodes": 16, "output_nodes": 4, "weights_ih": [[1.6829576278805987, 6.362568321541636, -8.491832771106829, -3.126805712687807, 7.143231561358971, -8.10865624307449, 8.586844333282338, 0.04439255158943717, 4.017970082066872, 0.40011840729202663, -5.780550039994181, -17.26987626852949], [-0.06073067712426353, -13.598078040150368, 6.404871719469577, -2.9951755461452394, 12.982707735912195, -4.587698397336034, 16.789727359691504, 9.638496072917432, 1.4881172811806078, -4.379949003825721, -9.158036245018536, 15.838324278048496], [8.030119796906376, 6.451661430599205, -5.066228568771273, 8.66916073167512, -16.400147443228903, -9.709182178760663, 17.160837690489842, -12.411529809020676, 18.293025478235652, -5.898169306974215, 15.99581830947112, -5.710449843472517], [-0.5766927291790708, 25.041680621599323, -21.338523303121374, 2.8821883312188725, -2.9518517056742115, -2.626990278662087, -9.274706068402466, 7.416725997102713, 9.756270767299457, -0.12184300564203782, 1.7821498561718028, -17.995733280604746], [2.354973380302369, -13.577358056767634, -3.1496039579337975, -11.7511039981169, -4.014011477428728, 17.09908501033415, 5.890821194801593, -11.192602470801107, -1.3789320958707973, 9.417159243185736, 3.4712035858633197, 1.7470838207038042], [-17.0773906737063, -3.936410129708522, 15.051545984725259, 3.365564552379616, 6.197966693522374, 20.728799163754005, 20.80113748532179, 3.870562264815885, 3.2890130357253136, -20.378668698328774, -13.014746782734326, -17.59536900834043], [5.831835514146623, -4.874108643159944, -15.908064221429873, 11.4129194142362, 6.386663144077376, 7.904150556539526, 15.263712499934046, 13.502373709082512, 7.024233553094036, -2.9964362688144175, 5.857106460545514, 8.555128234236575], [2.5432883013963874, 3.1210243822303925, -11.97955640182663, -15.481248057133348, -7.317270692283945, 9.570715325678863, -5.619830527779935, 9.0438651370859, 17.83704139216621, -15.83740550108907, 16.919154537938653, -8.149511796186546], [3.2713731424234567, -20.02425986929272, -2.410362779825895, 10.517849807312734, -9.751701036709637, -21.847636787719846, -5.52079268079947, 17.791288121606414, 18.895801215996855, -20.06219566469384, -8.829457047457188, -0.645760468432721], [6.68038521388328, -0.5092376406453342, 17.539853668556653, 3.878469126377036, 0.9239708289240742, 8.939711997716802, 4.069681701364674, -6.059171163181083, 28.005065599497954, -1.9847239439762037, -8.37638147227191, 3.5818666613111385], [-11.013970129327548, 11.522218915075566, 0.024479500878780536, -1.697335208849558, -5.117744175369883, -7.183110208093258, 1.4385065339371725, -12.075920554761064, -7.661355260355131, -7.334646235975846, -4.370470384509935, 17.402265007599006], [9.761638932321516, 4.1802520223339, -4.604478033188774, 6.221937862866471, -11.655739342843631, 6.727044244995616, 13.549116283881178, 5.4464190775745385, -12.81991808879415, -19.411580922076435, 4.718015772022829, -2.0220771365267596], [-5.982603038935769, -10.970230164508155, -6.849601862645272, -4.48611144201933, -2.8642320819625002, 38.208915417396675, -7.503595855172491, -3.4214586645757024, 4.939409498896494, 7.1942450870716925, 4.993943327184464, 5.700835246719963], [-9.362242160836406, 19.335739561490776, -3.9020882496465563, -10.210571409394833, 11.759493384804033, 9.400567171332282, -4.510221664522344, -7.4671354519282165, -2.473810123671127, 7.376879834893524, -5.941857693602942, -13.957219885977567], [1.4449497105713793, 17.76164268595945, -19.353501612075075, -7.622661787840079, -5.575621919179669, -14.066992817192633, 16.054655263474057, 2.1140351507973967, 5.101529093084514, -18.234117634365287, 33.54905900608145, 28.632318974363027], [-4.667444121059734, -23.192047711677144, 1.7391439211624653, 6.525056816546028, -10.763823598368784, -11.964782452319142, 10.673442434479933, 2.1627666049957717, 16.973503958419464, -30.67102067697465, -7.484118219629259, -9.516934102610893]], "weights_ho": [[-5.671572576395267, -10.61285842976213, 0.2082379513307622, -4.744804556469125, 14.582018858357443, -24.579379794628043, 18.03193738260451, 28.112855620057, 10.200283252957892, -10.123476345989557, -15.501219691930393, 1.630929276712946, -3.6629004262809666, -1.61167545364285, 15.02471709941399, 4.19084897795428], [-5.849657184690785, -2.310794802529262, 9.615239217818417, -18.398215376026418, 18.860909531548938, -10.195509271623479, 4.036223410047697, -0.976352337465341, -10.435479730933066, 5.511164285547581, 16.803042587174218, -37.684092001069544, -4.563189930063128, 6.743774857653822, -19.742419103738175, -8.354730466842268], [4.3950333575643405, -7.24214317277512, -5.040864991472568, -3.186352427569707, -8.23051875132384, 7.066356386451791, -4.534836789371444, 0.21585603673506926, 3.7561458973195507, 5.512301807045916, 22.231266137235956, -4.935467996139878, 12.92897022744148, -24.532715058294578, -19.06017839857419, 7.123488616277054], [-2.175418672899374, 32.29431049569086, -13.047223822985409, 8.540391329205587, -3.582920961228867, -1.1895911575676006, 11.330451980666433, -2.506334798061879, 28.366311569315492, -24.54552456955341, 8.559192754452996, -11.012320337481151, -15.906500000281506, -5.364944631414975, -2.2237495165784797, 14.632646288485738]], "bias_h": [[-10.210075165293336], [-7.978691526528292], [-12.026129834747072], [-17.699140770020225], [-2.1615899005366837], [5.835113798666285], [21.916084313776718], [20.992649966350445], [3.3075970586997783], [0.4192638931679493], [0.3665458635081542], [16.17245948671635], [8.124431593859741], [1.419357806091031], [13.547581155063424], [7.743988246636201]], "bias_o": [[-4.753795927648626], [-0.9425391332476531], [-11.531505199378154], [-12.480238710116774]]}, {"input_nodes": 12, "hidden_nodes": 16, "output_nodes": 4, "weights_ih": [[1.665882745779422, 6.412219619903234, -8.526275552570699, -3.098309692430662, 7.340559083060798, -8.12164177987796, 8.70311108523881, 0.29132634254994283, 4.016930734166232, 0.5340668029759801, -5.748356788605253, -17.138595488322903], [-0.023161708000480712, -13.563647477082162, 6.4980061715462725, -2.9951755461452394, 12.982707735912195, -4.422145973326966, 16.705362895905893, 9.61352104906463, 1.4324539761345734, -4.490342392573343, -9.158036245018536, 15.872479249349645], [8.030119796906376, 6.313753708991158, -5.074234254044647, 8.776526704929461, -16.400147443228903, -9.776796859397294, 17.137514581052198, -12.411529809020676, 18.139508540196207, -5.990147305100125, 15.99581830947112, -5.752621573495816], [-0.5766927291790708, 25.041680621599323, -21.332763365854507, 2.9793094272456684, -2.991591078183145, -2.6145417547365764, -9.289463085052306, 7.491937453840432, 9.921465226584676, -0.12184300564203782, 1.680050264926868, -17.995733280604746], [2.354973380302369, -13.577358056767634, -3.1496039579337975, -11.808453137246422, -4.066802287725737, 17.352608599368867, 5.919763494651893, -11.192602470801107, -1.3789320958707973, 9.475152437817956, 3.3445058987423604, 1.7224700705314964], [-17.002061292510337, -3.936410129708522, 15.041304066563093, 3.3386800090024265, 6.178321139970624, 20.692857409049385, 20.693586852416136, 3.870562264815885, 3.2783022890004045, -20.415685187868995, -12.953566720566487, -17.59536900834043], [5.9678437000337, -4.664430202348845, -15.755416953628353, 11.446712964486286, 6.376891474952984, 7.923456658372707, 15.263712499934046, 13.622081921872972, 7.072280123837835, -3.11401248520444, 5.905767131048519, 8.469709573312205], [2.2865894061308736, 3.2748507787690095, -11.927866080096138, -15.505110135230208, -7.387096436928079, 9.389576503136183, -5.619830527779935, 8.966737574476415, 17.76632902365529, -15.799433610046185, 16.883775244560443, -8.149511796186546], [3.2216659426360783, -20.02425986929272, -2.7172896009944565, 10.618395612891991, -9.751701036709637, -21.883326736839724, -5.359723159759374, 17.887531899459983, 18.895801215996855, -19.915352292243032, -8.761051690816563, -0.6706652907316634], [6.649363829429676, -0.5092376406453342, 17.539853668556653, 3.7085939640662184, 0.722575416129957, 8.8555592859141, 4.000575939944289, -6.0357429038053025, 28.200456344550858, -1.952354530816647, -8.42724331685398, 3.8125384908000655], [-11.013970129327548, 11.467434247604102, -0.17687841892457962, -1.7028196470833932, -5.1340893493464765, -7.183110208093258, 1.4974608007313595, -12.188404085402986, -7.661355260355131, -7.334646235975846, -4.370470384509935, 17.402265007599006], [9.832809430296429, 3.9940904763103893, -4.606815818029994, 6.180760925484455, -11.74643345990957, 6.8830082663678365, 13.268910105078698, 5.436408172356297, -13.04704627497508, -19.333030741271195, 4.475107772757637, -1.9845177739925957], [-5.971669990790363, -10.734333002841796, -6.798203769020386, -4.67778502086598, -2.8642320819625002, 38.208915417396675, -7.503595855172491, -3.492929329976928, 4.788587673164069, 7.1942450870716925, 5.020985922215493, 5.754474399603514], [-9.397758063997387, 19.32873634642734, -3.897292998226145, -10.200980396916172, 11.629955878672435, 9.400567171332282, -4.7287215106192795, -7.624104534723599, -2.358865774653183, 7.370006540658487, -5.792099265618485, -13.957219885977567], [1.3836817051774017, 17.76164268595945, -19.391368890926067, -7.622661787840079, -5.754104924269155, -14.309000495248362, 15.854462896462355, 1.9758027807397154, 5.131729108582143, -18.226367094172048, 33.44787550252808, 28.813811998254014], [-4.728908752624907, -23.30324224978999, 1.865159808272543, 6.487189491269233, -10.9858635094998, -11.873711145740954, 10.6323454973013, 2.025399365178697, 16.985343643630866, -30.836745214804736, -7.484118219629259, -9.516934102610893]], "weights_ho": [[-5.571675638839547, -10.61285842976213, 0.2082379513307622, -4.576403321517083, 14.697167528471685, -24.579379794628043, 17.994267457870045, 28.112855620057, 10.260490944670426, -10.123476345989557, -15.501219691930393, 1.7272796601447649, -4.010032654780901, -1.6182627533041098, 15.050042024445734, 4.35259764829633], [-5.814557440787344, -2.310794802529262, 9.734372652522778, -18.486708814404047, 18.868099246871974, -10.056139867297928, 3.963166981320128, -1.01641139217384, -10.355814049013622, 5.414536900984394, 16.853771869498487, -37.57570089614197, -4.492106582681803, 6.836476752681077, -19.694868635562674, -8.448613545127062], [4.472679354534525, -7.108360678954158, -5.049770107492293, -3.25233942698304, -8.23051875132384, 7.066356386451791, -4.404755077507865, 0.2463678452773573, 3.735393875427014, 5.512301807045916, 22.137681915961046, -4.911247080183384, 12.893916007180492, -24.589773291965784, -18.973745794705543, 7.123488616277054], [-2.2417603336162544, 32.29431049569086, -13.315861394997322, 8.648052207431602, -3.582920961228867, -1.1895911575676006, 11.30270343364988, -2.497588739273906, 28.366311569315492, -24.663989003518903, 8.559192754452996, -11.136710924343406, -15.906500000281506, -5.349880755414049, -2.4238039637780773, 14.57700146199845]], "bias_h": [[-10.081719658004928], [-7.778764723140088], [-12.075602541574895], [-17.699140770020225], [-2.246192726477144], [5.538241437060745], [21.809026170171244], [20.829863097462432], [3.2772481380060183], [0.32032608302125437], [0.4061241936182275], [16.086576372502883], [8.124431593859741], [1.3457319715077503], [13.672501119558236], [7.743988246636201]], "bias_o": [[-4.789193828241724], [-0.9425391332476531], [-11.59065430047416], [-12.397232315373833]]}, {"input_nodes": 12, "hidden_nodes": 16, "output_nodes": 4, "weights_ih": [[1.6639274815923943, 6.412219619903234, -8.491832771106829, -3.0317308922305153, 7.2550730209527385, -8.038772489572247, 8.70311108523881, 0.2761497154713789, 3.893328593620982, 0.5135815503822666, -5.709030117413854, -17.134933545548133], [-0.023161708000480712, -13.580295762849392, 6.404871719469577, -3.1028143344004673, 12.929925543757617, -4.673836294168182, 16.885334769081645, 9.50216006455282, 1.4881172811806078, -4.563115097815501, -9.158036245018536, 15.686898787511156], [8.030119796906376, 6.451661430599205, -5.074234254044647, 8.542184925533885, -16.400147443228903, -9.605594511171274, 17.160837690489842, -12.38710769591122, 18.251393766125613, -5.835109693267777, 15.92735626679101, -5.738834707165404], [-0.5349159464137445, 25.07726903028639, -21.338523303121374, 2.899830853968184, -2.991591078183145, -2.582173393533164, -9.309994522812413, 7.5427148229218, 9.617487717060705, -0.12184300564203782, 1.7537305222999882, -18.0434773077384], [2.354973380302369, -13.644007807767002, -3.1496039579337975, -11.693337469520062, -3.898583703891108, 17.28555521513401, 5.890821194801593, -11.304055396038457, -1.3684364208842221, 9.417159243185736, 3.4712035858633197, 1.8373575542915084], [-17.0773906737063, -3.936410129708522, 14.810057816825191, 3.3232761936218984, 6.178321139970624, 20.48297523969635, 20.875440249282565, 3.870562264815885, 3.410810172544538, -20.479189191676593, -12.953566720566487, -17.76395545541738], [5.818333714117559, -4.790048406038162, -16.058361293198146, 11.374512395991655, 6.128030259359839, 7.923456658372707, 15.343128458771897, 13.489013063016762, 6.9668243359262805, -3.11401248520444, 5.902744455487982, 8.654724727238415], [2.407699789154213, 3.152042555608, -11.927866080096138, -15.529516089559621, -7.080078108413762, 9.587905940873638, -5.619830527779935, 8.966737574476415, 17.784173355794657, -15.948619671769157, 16.919154537938653, -8.16666575279445], [3.0835055673292513, -19.882530080327086, -2.7199899934499223, 10.517849807312734, -9.751701036709637, -21.850132508091356, -5.383472217609686, 17.887531899459983, 18.684665776381998, -20.07983443547024, -8.673763221275168, -0.6552556074491791], [6.5729535520045985, -0.5092376406453342, 17.539853668556653, 3.8823494033668613, 0.8368657774358956, 8.974536177706709, 3.866248600472656, -6.0357429038053025, 27.977527838569873, -1.8851104581258875, -8.472810747452975, 3.591459412693079], [-11.013970129327548, 11.3633585162316, -0.17687841892457962, -1.4777905242194826, -5.1340893493464765, -7.310621139375312, 1.4385065339371725, -12.081232220118707, -7.661355260355131, -7.334646235975846, -4.370470384509935, 17.51870725338985], [9.951080098294598, 3.9940904763103893, -4.606815818029994, 6.180760925484455, -11.714499319424972, 6.8830082663678365, 13.268910105078698, 5.438280688179295, -13.04704627497508, -19.34444766701648, 4.54045324672201, -1.9845177739925957], [-5.868699310430014, -10.900612386829694, -6.849601862645272, -4.67778502086598, -2.845485900350683, 38.14893083401452, -7.5149331549782055, -3.221132900964314, 4.864798889915972, 7.1942450870716925, 4.926194171602366, 5.655768031324891], [-9.362242160836406, 19.27020986459944, -3.9020882496465563, -10.126260294474923, 11.694425450495109, 9.400567171332282, -4.738845906250748, -7.495268181581599, -2.219139250199166, 7.4703325442995965, -5.92110043660888, -13.957219885977567], [1.273829071127172, 17.84394842121231, -19.33858446817818, -7.622661787840079, -5.566575643809166, -14.242915872440754, 16.054655263474057, 2.0256523202928634, 5.131729108582143, -18.340473013057046, 33.44787550252808, 28.632318974363027], [-4.765924989261401, -23.312648425049527, 1.7942329826072754, 6.525056816546028, -10.950281729112687, -11.839739187201234, 10.768242554201898, 2.1627666049957717, 16.8221791958401, -30.67102067697465, -7.484118219629259, -9.516934102610893]], "weights_ho": [[-5.671572576395267, -10.490521418612936, 0.2082379513307622, -4.586030791728492, 14.754146218676608, -24.579379794628043, 18.004809159870955, 28.12596556113322, 10.260490944670426, -10.129336546078044, -15.501219691930393, 1.7272796601447649, -3.8715514830077993, -1.606460780620419, 15.071437427247602, 4.271168591904449], [-5.696510727558157, -2.3935585517561977, 9.656294484438737, -18.422290316771182, 18.895701789586905, -10.195509271623479, 3.902763338904359, -1.0643359433145905, -10.34310360878515, 5.414536900984394, 16.948554310593057, -37.62703423515321, -4.264956962574928, 6.609245658761247, -19.920514385244708, -8.468461279102202], [4.355826966018689, -6.955900158029869, -5.002891327022945, -3.186352427569707, -8.13564154288679, 7.066356386451791, -4.509659658315453, 0.2463678452773573, 3.7561458973195507, 5.512301807045916, 22.168682913688166, -4.732510068101568, 12.910208361251954, -24.589773291965784, -19.06017839857419, 7.123488616277054], [-2.184869008809928, 32.289491048903486, -13.348120986010942, 8.595384626188292, -3.5610587421275746, -1.1895911575676006, 11.503949382935856, -2.497588739273906, 28.274454954733667, -24.711188738597745, 8.559192754452996, -11.038107855217252, -15.906500000281506, -5.375717790373079, -2.4184952632548558, 14.76321597528936]], "bias_h": [[-10.165084771961688], [-7.943756597052174], [-12.12758366627224], [-17.682012713515952], [-2.076091561024684], [5.765334696441164], [21.916084313776718], [20.872588092046144], [3.1181650440126942], [0.46822494474691506], [0.3900511366626421], [16.086576372502883], [8.124431593859741], [1.3117874229427429], [13.39129511358341], [7.743988246636201]], "bias_o": [[-4.812976726543224], [-0.9162404935039], [-11.668583737823335], [-12.38790914531559]]}, {"input_nodes": 12, "hidden_nodes": 16, "output_nodes": 4, "weights_ih": [[1.665882745779422, 6.412219619903234, -8.611423274793799, -3.098309692430662, 7.267739883196831, -8.10865624307449, 8.70311108523881, 0.19354643175718086, 3.893328593620982, 0.40011840729202663, -5.709030117413854, -17.138595488322903], [-0.031195464853627786, -13.563647477082162, 6.404871719469577, -2.9951755461452394, 13.086789662792013, -4.567500383245846, 16.894557379166674, 9.61352104906463, 1.4581704265652584, -4.379949003825721, -9.187685418134901, 15.838324278048496], [8.030119796906376, 6.495517786949121, -5.114601435844102, 8.66916073167512, -16.400147443228903, -9.776796859397294, 17.160837690489842, -12.411529809020676, 18.26293378140342, -5.898169306974215, 15.967643654303977, -5.7578076811615535], [-0.5766927291790708, 25.041680621599323, -21.154336380250616, 2.98619915699634, -2.991591078183145, -2.6207710947675897, -9.289463085052306, 7.5148803581907675, 9.693364080296472, -0.199141436348112, 1.7537305222999882, -18.063244004973768], [2.354973380302369, -13.357483964873705, -3.1496039579337975, -11.796779420787221, -4.014011477428728, 17.352608599368867, 6.014020536261833, -11.358294845840945, -1.3789320958707973, 9.417159243185736, 3.4712035858633197, 1.6401184226995478], [-17.078178573476357, -3.984871077810724, 15.068989185269125, 3.3021150426512866, 6.178321139970624, 20.718070796124913, 20.64804524205625, 3.7873973967166945, 3.300617835739288, -20.25638234002341, -12.953566720566487, -17.609530235261218], [5.87926065942935, -4.664430202348845, -15.908064221429873, 11.473615280025502, 6.353679378840857, 7.923456658372707, 15.299067490523548, 13.430038989804117, 6.9416233785534205, -3.11401248520444, 5.902744455487982, 8.390377040456247], [2.361664721115919, 3.152042555608, -11.927866080096138, -15.573535836449267, -7.255989485475514, 9.587905940873638, -5.718347184660061, 8.678002175787936, 17.713114426218905, -15.901553290216091, 16.679275927919406, -8.000562414873558], [3.198574466054737, -20.02425986929272, -2.4302159921608957, 10.412575312357017, -9.751701036709637, -21.850132508091356, -5.483540747993801, 17.887531899459983, 18.92234196821803, -20.053004698432634, -8.766445379505774, -0.7087331861870101], [6.649363829429676, -0.5092376406453342, 17.497225507244735, 3.7797399745028217, 0.6832547567675045, 8.90867994188398, 3.90333316108458, -5.825025625319913, 28.005065599497954, -1.8851104581258875, -8.427124766427093, 3.6419743040411663], [-11.006300885847837, 11.371973346695837, -0.17687841892457962, -1.5157579196197548, -5.1340893493464765, -7.183110208093258, 1.3956126814737095, -11.889727826578342, -7.661355260355131, -7.553265957215314, -4.370470384509935, 17.402265007599006], [9.832809430296429, 3.972992876245717, -4.606815818029994, 6.180760925484455, -11.721080380561647, 6.8830082663678365, 13.268910105078698, 5.396697157763901, -13.04704627497508, -19.513721417037, 4.659464039401712, -1.9845177739925957], [-6.104407073597779, -10.900612386829694, -6.849601862645272, -4.67778502086598, -2.8642320819625002, 38.160547676671975, -7.58732769860886, -3.492929329976928, 4.956849615011932, 7.157224952949779, 5.161343789624826, 5.655768031324891], [-9.362242160836406, 19.27020986459944, -3.9020882496465563, -10.200980396916172, 11.677537143717554, 9.400567171332282, -4.738845906250748, -7.4965146183130615, -2.358865774653183, 7.376879834893524, -5.661320222603624, -13.957219885977567], [1.3367052120212015, 17.76164268595945, -19.116994392634503, -7.711296670284923, -5.48811633674639, -14.39087982055953, 16.086970575299727, 2.0256523202928634, 5.021322321940202, -18.234117634365287, 33.44787550252808, 28.782472494237087], [-4.8424220328866, -23.22334265437188, 1.865159808272543, 6.407185349867856, -10.9858635094998, -11.800159684316073, 10.685740207177144, 2.1948500264384982, 16.95433536280925, -30.521314670276045, -7.484118219629259, -9.516934102610893]], "weights_ho": [[-5.788358565689967, -10.646071567806734, 0.2069925943014697, -4.506920486456963, 14.697167528471685, -24.673050506848757, 18.03193738260451, 28.112855620057, 10.250785551232985, -10.123476345989557, -15.501219691930393, 1.7272796601447649, -3.8715514830077993, -1.5582168888061176, 15.050042024445734, 4.312714029015308], [-5.976092579968251, -2.310794802529262, 9.615239217818417, -18.422290316771182, 19.077280901078225, -10.195509271623479, 3.963166981320128, -1.0073610428410062, -10.403550338875283, 5.587581220865716, 16.779063357716158, -37.55130315984503, -4.402715577780733, 6.729061836376962, -19.737542967579973, -8.446537542364242], [4.355826966018689, -7.108360678954158, -5.040864991472568, -3.186352427569707, -8.23051875132384, 7.066356386451791, -4.404755077507865, 0.2463678452773573, 3.7561458973195507, 5.512301807045916, 22.312262872693342, -4.935467996139878, 12.92897022744148, -24.589773291965784, -19.21021992363599, 7.130357078074478], [-2.227278741892958, 32.12414512783432, -13.253128302068221, 8.815295031590116, -3.514178371393935, -1.2870483437586733, 11.330451980666433, -2.497588739273906, 28.366311569315492, -24.53802145114334, 8.559192754452996, -10.981028115672236, -15.906500000281506, -5.223946536040648, -2.4238039637780773, 14.86566995444764]], "bias_h": [[-10.279180233135657], [-7.904631162037238], [-11.926165586631976], [-17.425446468513954], [-2.3377522914190405], [5.698488792208623], [21.916084313776718], [20.829863097462432], [3.2772481380060183], [0.4199210180518448], [0.25487098000232433], [16.086576372502883], [7.928544481389607], [1.3117874229427429], [13.547581155063424], [7.743988246636201]], "bias_o": [[-4.812976726543224], [-0.9425391332476531], [-11.531505199378154], [-12.52356438399539]]}, {"input_nodes": 12, "hidden_nodes": 16, "output_nodes": 4, "weights_ih": [[1.7032476407947335, 6.492276314076559, -8.491832771106829, -3.098309692430662, 7.316140637653794, -8.136582623570705, 8.70311108523881, 0.21308026738387154, 3.893328593620982, 0.40011840729202663, -5.556923438280355, -17.286862901293986], [-0.023161708000480712, -13.563647477082162, 6.359740778263607, -2.9951755461452394, 12.982707735912195, -4.587698397336034, 16.69110396750767, 9.49918050565078, 1.4881172811806078, -4.469892349554331, -9.251395511871841, 15.838324278048496], [8.030119796906376, 6.451661430599205, -5.14222927258868, 8.708655419743518, -16.400147443228903, -9.776796859397294, 17.152969012980773, -12.559917937468967, 18.251393766125613, -5.898169306974215, 15.99581830947112, -5.752621573495816], [-0.5766927291790708, 25.07089324520647, -21.338523303121374, 2.89317307857271, -3.0790607219049915, -2.6617701138734824, -9.293589746226942, 7.392124517507187, 9.675860598956511, -0.12184300564203782, 1.7537305222999882, -18.104504178823493], [2.3467685828853897, -13.577358056767634, -3.1496039579337975, -11.7511039981169, -4.014011477428728, 17.352608599368867, 5.8226173795825495, -11.025281768160125, -1.2673986431132767, 9.417159243185736, 3.438407007337909, 1.7470838207038042], [-17.10119618298967, -3.936693707454853, 14.930164501300652, 3.4464533597746767, 6.178321139970624, 20.718070796124913, 20.66900166229858, 3.870562264815885, 3.286516381398802, -20.497102406978204, -12.953566720566487, -17.59536900834043], [5.836052559934794, -4.664430202348845, -15.908064221429873, 11.4129194142362, 6.326861884393815, 7.923456658372707, 15.26806376628311, 13.44719758808452, 6.818750617487875, -3.11401248520444, 5.902744455487982, 8.325825988889145], [2.4043818188961223, 3.152042555608, -11.927866080096138, -15.428183938334154, -7.1876681706795535, 9.587905940873638, -5.6458057897707326, 9.027183738195918, 17.784173355794657, -15.841055854956668, 16.910168540981424, -8.149511796186546], [3.2216659426360783, -20.02425986929272, -2.5916978089563694, 10.418795657501528, -9.751701036709637, -21.698051700042104, -5.432802263929744, 17.949285330950364, 18.895801215996855, -20.078349861499017, -8.766445379505774, -0.8022590477277628], [6.649363829429676, -0.5049176010920241, 17.65453669097721, 3.8823494033668613, 0.674500845541298, 8.790101761577423, 3.882200775832412, -6.0357429038053025, 28.005065599497954, -1.6983158683420072, -8.472810747452975, 3.599530399161763], [-11.013970129327548, 11.245734856161729, -0.16976709898496112, -1.8277051581900539, -5.0855613560300945, -7.186414405398074, 1.4385065339371725, -12.075920554761064, -7.695152424163926, -7.334646235975846, -4.370470384509935, 17.402265007599006], [9.808703534297091, 4.1655181596680775, -4.606815818029994, 6.180760925484455, -11.569436870700473, 6.8830082663678365, 13.268910105078698, 5.4464190775745385, -13.050276178649673, -19.215401082356365, 4.438730252980206, -2.0464864670346095], [-5.976982297508442, -10.900612386829694, -6.849601862645272, -4.69328604075573, -2.722334841823614, 38.208915417396675, -7.503595855172491, -3.492929329976928, 4.864798889915972, 7.026820317683326, 5.020985922215493, 5.655768031324891], [-9.362242160836406, 19.20917408315749, -3.932383883890003, -10.34016664504338, 11.771136049112828, 9.400567171332282, -4.738845906250748, -7.409583724403398, -2.2318720922459345, 7.3484157828944765, -5.732526079575769, -13.897816946184719], [1.307653186688129, 17.903679482762055, -19.353501612075075, -7.6214597417441325, -5.575621919179669, -14.486864500852047, 15.922963766761752, 1.953147696848128, 5.131729108582143, -18.22212364350261, 33.44787550252808, 28.576450037840587], [-4.699675559477089, -23.312648425049527, 1.9621105017477214, 6.673172194867997, -10.9858635094998, -11.936523439947326, 10.709092248122344, 2.0688852435269447, 16.95433536280925, -30.765746960608013, -7.484118219629259, -9.516934102610893]], "weights_ho": [[-5.6288128064506955, -10.61285842976213, 0.2082379513307622, -4.576403321517083, 14.658020011077825, -24.579379794628043, 18.03193738260451, 28.112855620057, 10.27575917057029, -10.123476345989557, -15.501219691930393, 1.7272796601447649, -3.816111261651396, -1.7185776709702318, 15.022276217792365, 4.32698064778349], [-5.793480233155421, -2.310794802529262, 9.615239217818417, -18.44049650637533, 18.844726901835067, -10.144773994003197, 3.963166981320128, -1.050790347693316, -10.34310360878515, 5.387138293634676, 16.866383030181026, -37.648428427551806, -4.402715577780733, 6.556624336795563, -19.83002952336865, -8.26276903772376], [4.355826966018689, -7.068221836365069, -4.884808392405837, -3.186352427569707, -8.23051875132384, 7.03624001152008, -4.404755077507865, 0.5083073587521487, 3.649285080891651, 5.53295715278696, 22.213042024954323, -4.980856577669821, 12.92897022744148, -24.672702395742164, -18.927864314701488, 7.0683310097273795], [-2.2417603336162544, 32.38405114423321, -13.253128302068221, 8.651664982541178, -3.582920961228867, -1.303129172711088, 11.330451980666433, -2.421431238392878, 28.366311569315492, -24.663989003518903, 8.611493453663956, -11.006763858914924, -16.21869110329905, -5.297567623222987, -2.3432399447039534, 14.76739976596661]], "bias_h": [[-10.210075165293336], [-7.904631162037238], [-12.101994226383967], [-17.699140770020225], [-2.246192726477144], [5.83286242139135], [21.916084313776718], [20.829863097462432], [3.2772481380060183], [0.4199210180518448], [0.4395658826863946], [16.086576372502883], [8.124431593859741], [1.4154093168680466], [13.547581155063424], [7.743988246636201]], "bias_o": [[-4.812976726543224], [-0.9425391332476531], [-11.531505199378154], [-12.398696918730344]]}, {"input_nodes": 12, "hidden_nodes": 16, "output_nodes": 4, "weights_ih": [[1.665882745779422, 6.412219619903234, -8.480134822873286, -3.2308146038982137, 7.2550730209527385, -8.10865624307449, 8.70311108523881, 0.19354643175718086, 3.893328593620982, 0.40011840729202663, -5.709030117413854, -17.138595488322903], [0.13196384936698285, -13.609588529343927, 6.404871719469577, -3.0329820653175226, 12.917794404587637, -4.658614653362833, 16.789727359691504, 9.61352104906463, 1.5304054940565337, -4.379949003825721, -9.082714002840747, 15.729183700300934], [8.030119796906376, 6.520658161537817, -5.074234254044647, 8.776357833098022, -16.34075174267544, -10.172603582951819, 17.07719984408921, -12.48546118441274, 18.251393766125613, -5.825337584887469, 15.99581830947112, -5.752621573495816], [-0.5766927291790708, 25.041680621599323, -21.216364018079478, 2.8118246535249094, -2.991591078183145, -2.575420597058847, -9.289463085052306, 7.5427148229218, 9.693364080296472, -0.14110373969267442, 1.7537305222999882, -17.995733280604746], [2.354973380302369, -13.466025292417582, -3.1496039579337975, -11.7511039981169, -4.09004731749945, 17.352608599368867, 5.794034860001149, -11.192602470801107, -1.4089533853459901, 9.459058411037999, 3.4712035858633197, 1.7470838207038042], [-16.866647907384166, -3.8238155590086915, 14.709762986492967, 3.3386800090024265, 6.178321139970624, 20.701632183628394, 20.578033480949433, 3.870562264815885, 3.0207489403440455, -20.209268551084495, -12.953566720566487, -17.635094650924444], [5.87926065942935, -4.664430202348845, -15.908064221429873, 11.4129194142362, 6.48448929504172, 7.923456658372707, 15.263712499934046, 13.44719758808452, 6.842702630177054, -3.0163218097341753, 5.890811807618609, 8.469709573312205], [2.3925954021764952, 3.134761574895327, -11.927866080096138, -15.501983814988511, -7.42569891872923, 9.571981663776725, -5.7063652308250585, 8.966737574476415, 17.787883476507535, -15.8099036993016, 16.919154537938653, -8.149511796186546], [3.2216659426360783, -20.045051033965052, -2.5916978089563694, 10.517849807312734, -9.738763510195218, -21.806121143020427, -5.402999093724752, 17.887531899459983, 18.895801215996855, -20.051385498398798, -8.73564048770064, -0.7087331861870101], [6.601052539503807, -0.5092376406453342, 17.64157816289943, 4.016689190912634, 0.722575416129957, 8.91930187342324, 4.0614747727699605, -6.039682750357998, 28.029616474672235, -1.9865252441257006, -8.472810747452975, 3.691935984657651], [-11.013970129327548, 11.365596244955132, -0.17687841892457962, -1.728405576994377, -5.0941498319447, -7.207051999995385, 1.4385065339371725, -12.080945568350522, -7.661355260355131, -7.334646235975846, -4.370470384509935, 17.299976734351706], [9.832809430296429, 3.9711889656972756, -4.683084993917882, 6.180760925484455, -11.600136607524208, 6.8830082663678365, 13.268910105078698, 5.4464190775745385, -13.21733366054035, -19.277769487114796, 4.54045324672201, -1.9845177739925957], [-5.825339056915091, -10.932816662231287, -6.767502285248803, -4.633390868412009, -2.795209643918077, 38.13868449366908, -7.311127740848646, -3.492929329976928, 4.7858238860427615, 7.34837555480631, 5.213706147478501, 5.655768031324891], [-9.362242160836406, 19.27020986459944, -3.6954490548212275, -10.387841591922648, 11.694425450495109, 9.400567171332282, -4.738845906250748, -7.4965146183130615, -2.358865774653183, 7.43801180330495, -5.732526079575769, -13.821403874825114], [1.368680671885837, 17.76164268595945, -19.353501612075075, -7.622661787840079, -5.674091528108878, -14.309000495248362, 16.054655263474057, 1.909940449908016, 5.131729108582143, -18.234117634365287, 33.44787550252808, 28.665628593684673], [-4.699675559477089, -23.256873116195017, 1.762852884440837, 6.474376823323553, -10.9858635094998, -11.873711145740954, 10.673442434479933, 2.1964992020119705, 16.93795003605131, -30.67102067697465, -7.384985821831138, -9.571687939388845]], "weights_ho": [[-5.652855290302185, -10.61285842976213, 0.2082379513307622, -4.689669720076689, 14.697167528471685, -24.604509980012992, 18.048912184042514, 28.112855620057, 10.243999790714602, -10.123476345989557, -15.501219691930393, 1.597593650397629, -3.7186397924003893, -1.6182627533041098, 15.050042024445734, 4.097800033587176], [-5.895685170798676, -2.310794802529262, 9.685980829527793, -18.422290316771182, 18.91733842748611, -10.195509271623479, 3.876987740390857, -1.0826231532619868, -10.34310360878515, 5.317074571036504, 16.82393830721318, -37.68252674107421, -4.26300607197739, 6.8329604916251565, -19.742419103738175, -8.448613545127062], [4.355826966018689, -7.108360678954158, -5.040864991472568, -3.2174395884159455, -8.23051875132384, 7.308364635854478, -4.589492570001132, 0.14535103100824687, 3.7561458973195507, 5.512301807045916, 22.137681915961046, -4.935467996139878, 12.990906675135022, -24.53219547116417, -19.115727714767747, 7.180878122516365], [-2.240951773086313, 32.29431049569086, -13.274568496560775, 8.540391329205587, -3.582920961228867, -1.217905305623577, 11.330451980666433, -2.547069938734523, 28.366311569315492, -24.663989003518903, 8.559192754452996, -11.133049711147276, -15.906500000281506, -5.375717790373079, -2.2008684154522933, 14.76321597528936]], "bias_h": [[-10.210075165293336], [-8.093721482505789], [-12.041648849056362], [-17.689108754026098], [-2.246192726477144], [5.50364691488781], [21.916084313776718], [20.813389203950287], [3.2317494093735153], [0.4199210180518448], [0.5257512145380445], [15.99811106710286], [8.049605438720999], [1.3117874229427429], [13.734320052725062], [7.6988734476025025]], "bias_o": [[-4.812976726543224], [-0.9946723561755753], [-11.516133421304007], [-12.441705737243769]]}, {"input_nodes": 12, "hidden_nodes": 16, "output_nodes": 4, "weights_ih": [[1.5607141668898474, 6.430385180321935, -8.491832771106829, -2.863401662841088, 7.2550730209527385, -7.9962661748976345, 8.683042358614562, 0.11769739521421387, 3.883838936930758, 0.40011840729202663, -5.7780425348543805, -17.138595488322903], [0.07869829626870034, -13.456262321007685, 6.404871719469577, -2.9951755461452394, 12.982707735912195, -4.587698397336034, 16.789727359691504, 9.61352104906463, 1.4980082691865373, -4.379949003825721, -9.225214551904157, 15.795359594955606], [8.030119796906376, 6.451661430599205, -5.232383243590215, 8.703734332863709, -16.323134100024394, -9.776796859397294, 17.160837690489842, -12.550065773820421, 18.246794979037137, -5.898169306974215, 16.056831315120153, -5.752621573495816], [-0.7138517722392876, 24.925413123605516, -21.340311246310417, 2.748425223069318, -2.96422689939176, -2.447781504515327, -9.268127148451613, 7.5427148229218, 9.618564073750791, -0.056957567718065774, 1.7537305222999882, -17.995733280604746], [2.354973380302369, -13.588283695968638, -3.058622942017366, -11.7511039981169, -4.014011477428728, 17.352608599368867, 5.890821194801593, -11.353970539826438, -1.3347234349166799, 9.257109525110062, 3.4590722000267324, 1.7215122328434482], [-16.97699659241174, -3.936410129708522, 14.904843001440263, 3.3386800090024265, 6.240848516039152, 20.62261622347257, 20.777455510174907, 3.91783564437398, 3.2715646759539014, -20.425157085480176, -12.953566720566487, -17.44386912326645], [5.87926065942935, -4.664430202348845, -16.03860364836429, 11.4129194142362, 6.376891474952984, 7.923456658372707, 15.263712499934046, 13.417575730312965, 6.95528138280244, -3.11401248520444, 5.902744455487982, 8.451327398802476], [2.4717780517588848, 3.078670933252371, -11.725172611918456, -15.681190487903825, -7.373375016579135, 9.492691142470626, -5.608504224053254, 9.022255723400807, 17.665109830298228, -15.901553290216091, 16.919154537938653, -8.149511796186546], [3.2216659426360783, -20.134800638668317, -2.762730914046096, 10.517849807312734, -9.909786934756674, -21.957114984249, -5.46727773525715, 17.72617219313881, 18.863376545954132, -20.078349861499017, -8.766445379505774, -0.7699081472494574], [6.69665498260507, -0.5092376406453342, 17.630677531183427, 3.623793035383032, 0.722575416129957, 8.939711997716802, 3.852848512363669, -6.0357429038053025, 28.005065599497954, -1.8851104581258875, -8.472810747452975, 3.6019095121165154], [-10.955899504145872, 11.3633585162316, -0.11201803586178263, -1.8041970947927577, -5.1340893493464765, -7.263105125635258, 1.4385065339371725, -12.148252976486319, -7.661355260355131, -7.334646235975846, -4.370470384509935, 17.564578723889234], [9.926841272852553, 3.9940904763103893, -4.622473816518704, 6.180760925484455, -11.692557327710327, 6.8830082663678365, 13.268910105078698, 5.4464190775745385, -13.04704627497508, -19.43492747897524, 4.54045324672201, -1.8437496509267752], [-5.874867771520681, -11.088561585022378, -6.849601862645272, -4.685840513053137, -2.898654988823308, 38.208915417396675, -7.503595855172491, -3.429734423850704, 4.864798889915972, 7.1942450870716925, 5.011197223780904, 5.655768031324891], [-9.30138899270359, 19.31037105499647, -3.785492767059774, -10.200980396916172, 11.609120985218095, 9.400567171332282, -4.738845906250748, -7.4965146183130615, -2.358865774653183, 7.400133551469706, -5.8974497289020995, -13.957219885977567], [1.230909806321398, 17.76164268595945, -19.277889215352094, -7.545466361993593, -5.575621919179669, -14.309000495248362, 16.054655263474057, 1.9055092099735835, 5.202517125694602, -18.234117634365287, 33.47585186022162, 28.65305472911971], [-4.836795477671428, -23.312648425049527, 1.9414599549552582, 6.525056816546028, -10.9858635094998, -11.994255002959889, 10.756972796962907, 2.154562912769421, 16.95433536280925, -30.67102067697465, -7.42389515062328, -9.516934102610893]], "weights_ho": [[-5.671572576395267, -10.61285842976213, 0.2082379513307622, -4.608892738316837, 14.706691842174065, -24.558472933469922, 17.921687210207104, 28.112855620057, 10.254655465961381, -10.091216580139886, -15.501219691930393, 1.8580909442196945, -3.8715514830077993, -1.5954346794606347, 15.050042024445734, 4.0963533407829065], [-5.793480233155421, -2.3105267479844382, 9.686395905526648, -18.422290316771182, 18.91733842748611, -10.092511787724996, 3.8485659560877954, -1.0643359433145905, -10.34310360878515, 5.2692027437484, 16.852708680362262, -37.53501896223779, -4.402715577780733, 6.792335461123795, -19.742419103738175, -8.447822137983849], [4.355826966018689, -7.182291016739352, -5.040864991472568, -3.186352427569707, -8.352242341157678, 7.018208221876235, -4.316174317576631, 0.2463678452773573, 3.601216502382466, 5.5357370847965, 22.095256619343232, -4.935467996139878, 12.92897022744148, -24.483777901622528, -19.06017839857419, 7.123488616277054], [-2.3297194929774565, 32.29431049569086, -13.31300935826175, 8.540391329205587, -3.531932931341599, -1.1895911575676006, 11.330451980666433, -2.6012433240268225, 28.370087851904135, -24.663989003518903, 8.488620277434007, -11.006763858914924, -15.858799725038878, -5.375717790373079, -2.4238039637780773, 14.76321597528936]], "bias_h": [[-10.210075165293336], [-7.855033971858382], [-12.041648849056362], [-17.699140770020225], [-2.246192726477144], [5.698488792208623], [21.916084313776718], [20.829863097462432], [3.2772481380060183], [0.4199210180518448], [0.5166850876621748], [16.086576372502883], [8.234124836798776], [1.3117874229427429], [13.546533807399816], [7.672397527020856]], "bias_o": [[-4.812976726543224], [-1.011725666174467], [-11.60894101145045], [-12.398696918730344]]}, {"input_nodes": 12, "hidden_nodes": 16, "output_nodes": 4, "weights_ih": [[1.6884694258578712, 6.412219619903234, -8.510294768518278, -3.098309692430662, 7.307447009254534, -8.10865624307449, 8.70311108523881, 0.19354643175718086, 3.959680512475173, 0.44843746131093704, -5.709030117413854, -17.06512715030518], [-0.023161708000480712, -13.632525240218277, 6.348553876720987, -2.9951755461452394, 12.982707735912195, -4.587698397336034, 16.71260743596605, 9.582917346208129, 1.4881172811806078, -4.475651233715053, -8.997185627872884, 15.838324278048496], [7.94958521652573, 6.616123067997597, -5.074234254044647, 8.66916073167512, -16.428377009427976, -9.83828284086207, 17.11760910311512, -12.617053417210624, 18.251393766125613, -6.010648091633421, 15.99581830947112, -5.787906599952702], [-0.5766927291790708, 25.041680621599323, -21.338523303121374, 2.8821883312188725, -2.991591078183145, -2.575420597058847, -9.289463085052306, 7.5427148229218, 9.654060539160305, -0.12184300564203782, 1.7537305222999882, -17.992429892259697], [2.493779181182307, -13.577358056767634, -3.315722393742057, -11.891714875391603, -4.014011477428728, 17.22785295089886, 5.838672035112782, -11.192602470801107, -1.330730053488155, 9.624416233699908, 3.420697078429576, 1.7470838207038042], [-17.0773906737063, -3.9198541808114293, 15.029426874387319, 3.2970640867988883, 6.019398019026105, 20.718070796124913, 20.66900166229858, 3.870562264815885, 3.3019547095693227, -20.30164692123785, -12.879000216149281, -17.5421490751635], [5.991195120593659, -4.597489998737886, -15.908064221429873, 11.4129194142362, 6.376891474952984, 7.7365157656401635, 15.263712499934046, 13.409123256202216, 6.911461589613019, -3.11401248520444, 5.777416773322663, 8.455794439635346], [2.407699789154213, 3.1576503256864403, -11.838927142539713, -15.516306589633695, -7.645231726606246, 9.587905940873638, -5.59208517581405, 8.939911763360676, 17.9487558756229, -15.961824532934978, 16.919154537938653, -8.325888292795893], [2.986961229448583, -19.77517876851893, -2.5916978089563694, 10.511774295146433, -9.751701036709637, -21.85141916367251, -5.46727773525715, 17.890458878856403, 18.930770367484236, -20.078349861499017, -8.766445379505774, -0.7087331861870101], [6.716532627034099, -0.6295687078722212, 17.74144369503307, 3.9102181446083137, 0.722575416129957, 8.953592627516533, 3.9322714525873073, -5.9785028181781525, 28.005065599497954, -1.9508285559463103, -8.694707657989962, 3.3761868701743922], [-11.013970129327548, 11.3633585162316, -0.17687841892457962, -1.431343928722595, -5.03169947660079, -7.183110208093258, 1.4326877988657927, -12.075920554761064, -7.718048755258203, -7.296918041181602, -4.266936342811005, 17.402265007599006], [9.832809430296429, 3.9940904763103893, -4.690135192398854, 6.180760925484455, -11.721080380561647, 6.8829974795607685, 13.088385823843785, 5.43298945146553, -13.04704627497508, -19.333030741271195, 4.54045324672201, -2.0028934528648836], [-5.8625881015928005, -11.005075197527589, -6.827667109771314, -4.68784941130756, -2.8190927068188336, 38.208915417396675, -7.572224250890868, -3.492929329976928, 