{"generation": 48971, "population": [{"input_nodes": 12, "hidden_nodes": 16, "output_nodes": 4, "weights_ih": [[1.2955727674030106, 6.249848972691564, -8.491960911467446, -3.563247658252257, 7.312083161027639, -8.386101849991247, 8.38481313312342, -0.4172147177060353, 4.385397306816987, 0.4023437432422381, -5.98611126849669, -17.293813318786487], [-0.06797915504824785, -13.288833252852141, 6.33004558282742, -2.694844897096139, 13.424461324773409, -5.340682285716126, 17.51427647011376, 9.984142222585389, 1.3371946369897139, -5.1468903498059335, -9.452680315712245, 16.376639581920397], [7.899283637201696, 6.497169773678004, -4.96615958203153, 9.078227467979236, -16.756749631292486, -10.022773997555264, 16.328860817947668, -12.781833531085855, 18.293100740085375, -5.652610506356445, 16.878227863360607, -5.693237451616092], [-0.936919471283711, 25.426334482320907, -21.208572263202445, 2.97818634838476, -2.975062796020412, -2.6633813992203383, -9.31580309206609, 8.501609195619247, 8.729081226680794, -0.13970866313149605, 1.7392395954908266, -16.981877571910164], [2.4397499278486974, -12.722350175536816, -2.8654678945861094, -11.856559536221193, -4.170644484748163, 16.658040770047254, 6.511716936537175, -11.069878566029518, -0.5654377912969597, 10.490215781623327, 3.315286410856138, 1.8402907828443686], [-16.84428922390654, -3.649124304588387, 14.888137296799403, 2.8730046424384192, 6.532387209907152, 20.39542639219814, 20.244053596352508, 3.8332172571454604, 3.0600435162612283, -20.768313755498415, -12.715731027937338, -16.919279281164357], [5.514852765779224, -4.3642962331505615, -16.13669043220547, 11.384037646212938, 6.687869661009963, 7.860599648569735, 15.438247286178255, 13.117672391680161, 6.95613480184705, -3.6542735589122666, 5.338503217092712, 8.279015517640449], [2.206841444705978, 3.655952121931862, -12.122085256950074, -16.0540769847849, -8.007741414434012, 8.997882247586718, -5.871409626108679, 9.270411199316078, 17.742057370288205, -15.899891415277555, 16.597168899206906, -8.3710003897036], [2.6624576689738393, -20.91753080515624, -2.0162139409976407, 11.74589342837204, -10.236191328208937, -21.8180992255411, -5.9795203453812835, 18.10412547711559, 18.46644124411131, -19.504740857914577, -8.15820119193984, -1.2290329483765163], [6.801996300801286, -1.1416981135669828, 17.04243072760093, 3.921645804209707, 0.9150029684429408, 9.109661255725372, 2.9487073182084678, -5.041334633345706, 28.052359196341413, -2.4641086669849153, -8.94751521953138, 3.9814305580438374], [-11.509794109607752, 11.651623784110521, 0.2331970542330661, -1.3108451105272378, -5.480289975022548, -8.14251786883348, 1.8345321497720604, -11.486969871197838, -7.153806304379993, -7.479746346975375, -3.9098593503794588, 17.961432044100405], [9.591391922330084, 4.691702039200995, -4.91669779947481, 6.106810878873433, -10.689873157387083, 6.386184382039591, 12.810864716159802, 4.758589889082916, -13.451545543648102, -18.779015674855486, 4.90069630003208, -2.43662516727189], [-5.66305336468303, -10.872026311450899, -6.3317332150813534, -4.382259027857089, -3.243370085313167, 37.29379282355122, -7.538949142555414, -2.952700770449026, 5.716729107559712, 6.989398758538022, 4.557119933748809, 5.673476346715217], [-9.312022058731333, 20.06676279840459, -4.143690433584374, -10.480263235284955, 11.03387777579313, 9.538324827866584, -4.8218518429307835, -8.008354350027616, -2.393403158335166, 7.193364205157433, -5.261234386876711, -13.614587288493578], [1.1499487592476243, 17.48597626630997, -20.395478307398104, -7.407735056830401, -5.354221429626512, -14.51163061609527, 16.374974675021917, 1.9453894295069376, 5.248340828714843, -17.569295550046295, 32.95857397413828, 29.12315484390399], [-5.0728601311110815, -22.728474587378834, 0.9654162490176309, 7.327726801284873, -11.853637883617832, -11.924069440021194, 10.46675608816277, 2.257639847931071, 16.995236959436166, -30.331207171590872, -7.719850476696704, -9.860504183007233]], "weights_ho": [[-5.038518441787279, -10.14220133007367, 0.34179055497977406, -4.683462451014444, 13.804687594528634, -25.583273409230458, 19.103158448789774, 27.68928120097206, 9.92373058278249, -10.593194115767055, -15.526389234066185, 1.4990683049571047, -4.053671900471502, -0.7973953019017936, 14.000560023098895, 3.698842506312582], [-6.551832676204382, -2.9025924876076736, 9.809346551290774, -18.4594712056374, 18.088498186362557, -10.577088057161248, 4.503633479902567, -1.5929236656833332, -10.493005121797566, 5.720162406334878, 17.20374656308765, -37.92692257691128, -3.9034333212179675, 6.792275594557298, -19.01677043983829, -8.007570681140054], [3.922060955682703, -6.30673613887211, -4.531880565299212, -3.0227932150499752, -8.119480167610032, 7.05567134946344, -4.227925522566556, 0.13016966153005874, 3.5168409369000746, 5.761076571530949, 22.095888712643735, -5.829453511436771, 12.532245596020399, -24.337233939229286, -18.755373732375634, 7.0100181606071805], [-2.4308647090819915, 31.556295693857887, -13.286913596458604, 8.362378706764382, -3.4246864257862963, -1.3633749367361965, 10.947452762390103, -3.034152714130139, 28.939862227732156, -24.10998816047899, 8.288168371522238, -11.178754739089205, -15.042517592949988, -5.709930913359289, -1.4573413009481335, 14.826238098365291]], "bias_h": [[-9.871573714588823], [-8.065471933954056], [-12.02158381211938], [-17.929033948492055], [-1.9339776147405947], [6.070548059149356], [21.729393743781575], [21.045581908001136], [3.7599981377614697], [-0.7962068544511787], [1.4874409983327253], [15.182144468000036], [7.5650245620050285], [1.803274853012308], [12.999854125286005], [8.011218748470123]], "bias_o": [[-4.491081117867102], [-0.8247541891217786], [-11.571122761257625], [-12.703993949028497]]}, {"input_nodes": 12, "hidden_nodes": 16, "output_nodes": 4, "weights_ih": [[1.2955727674030106, 6.249848972691564, -8.4759014734416, -3.534497665741219, 7.312083161027639, -8.386101849991247, 8.486624045929844, -0.4172147177060353, 4.385397306816987, 0.371495192234905, -6.107967801442443, -17.333314050610092], [-0.06797915504824785, -13.288833252852141, 6.2172177218361355, -2.694844897096139, 13.467662939581663, -5.340682285716126, 17.3793611836446, 9.913397516742608, 1.3562053847822138, -5.167192522967884, -9.349851764779263, 16.376639581920397], [7.899283637201696, 6.491012071975294, -4.998499973231327, 8.933972221734447, -16.755027448298545, -10.022773997555264, 16.15941395231444, -12.762543214580502, 18.365686448616344, -5.566440345085033, 16.878227863360607, -5.693237451616092], [-1.0745545989739098, 25.426334482320907, -21.208572263202445, 2.950865502251053, -2.975062796020412, -2.499986940162959, -9.31580309206609, 8.501609195619247, 8.729081226680794, -0.13970866313149605, 1.7392395954908266, -16.864813037613974], [2.329992354913511, -12.722350175536816, -2.945013874026684, -11.770639309656122, -4.168490727720977, 16.780643200838988, 6.37709738611947, -11.069878566029518, -0.595136548140888, 10.471296497173759, 3.43463660783321, 1.7659222979778635], [-17.011874279791545, -3.575285468142473, 14.888137296799403, 2.8730046424384192, 6.481539032220189, 20.39542639219814, 20.259368548894017, 3.7828620561834434, 3.0600435162612283, -20.768313755498415, -12.715731027937338, -16.889947039680653], [5.514852765779224, -4.3642962331505615, -16.13669043220547, 11.384037646212938, 6.687869661009963, 7.84832870955703, 15.40944799907454, 13.117672391680161, 6.95613480184705, -3.6542735589122666, 5.338503217092712, 8.216727383389687], [2.284972784091348, 3.6868221930498906, -12.230425669060443, -16.127378745578557, -8.007741414434012, 8.970627778932423, -5.902317405346712, 9.513526001210018, 17.742057370288205, -15.899891415277555, 16.597168899206906, -8.3710003897036], [2.7003962921436107, -20.91753080515624, -2.0162139409976407, 11.785592845328168, -10.364826498938074, -21.8180992255411, -6.031345942282548, 18.10412547711559, 18.548415939425734, -19.504740857914577, -8.094178639159635, -1.2677489673034161], [6.801996300801286, -1.1765694106035867, 17.04243072760093, 3.8880283138516285, 0.9150029684429408, 9.14023926651508, 2.9487073182084678, -5.080945187739861, 28.086118219132178, -2.422840457191594, -8.94751521953138, 3.862717612948778], [-11.59972713126588, 11.651623784110521, 0.2331970542330661, -1.3108451105272378, -5.480289975022548, -8.14251786883348, 1.8345321497720604, -11.435452735935074, -7.157967568043558, -7.479746346975375, -3.9098593503794588, 17.882587105926255], [9.507621201699228, 4.7455625396239265, -4.630479668953471, 6.106810878873433, -10.689873157387083, 6.297686771076441, 13.034556090179358, 4.758589889082916, -13.451545543648102, -18.895892666041444, 4.90069630003208, -2.5625244029781595], [-5.902160843345067, -10.859696265543588, -6.309437923332668, -4.485907024305533, -3.243370085313167, 37.29379282355122, -7.507811512695928, -2.8982930912393767, 5.716729107559712, 6.958267731874728, 4.557119933748809, 5.6037188588461895], [-9.312022058731333, 20.240072604888038, -4.17275889122909, -10.480263235284955, 11.03387777579313, 9.538324827866584, -4.724647859213292, -8.008354350027616, -2.393403158335166, 7.193364205157433, -5.261234386876711, -13.612343854928154], [1.1470292950795944, 17.48597626630997, -20.490355587361822, -7.407735056830401, -5.35422014253557, -14.528800607706952, 16.360268224473963, 1.9030230450118155, 5.28201431769552, -17.569295550046295, 32.95857397413828, 28.938222418538285], [-5.215338378482064, -22.728474587378834, 0.9654162490176309, 7.327726801284873, -11.609249067601755, -11.954757235565308, 10.456266066140188, 2.3267599741364258, 16.995236959436166, -30.296420137698004, -7.676319463305783, -9.860504183007233]], "weights_ho": [[-4.938720202484887, -10.14220133007367, 0.34179055497977406, -4.650833797572258, 13.792163315095618, -25.583273409230458, 19.103158448789774, 27.59872700066301, 9.92373058278249, -10.593194115767055, -15.554308303806778, 1.5651764892034845, -4.053671900471502, -0.7973953019017936, 14.000560023098895, 3.698842506312582], [-6.533786197629458, -2.9714894053696232, 9.809346551290774, -18.660115820196733, 18.088498186362557, -10.403683693207594, 4.648391988323389, -1.5929236656833332, -10.493005121797566, 5.720162406334878, 17.20374656308765, -37.94927985155484, -3.9034333212179675, 6.843891765306718, -19.03260335069781, -7.888793083357352], [3.8842132754851955, -6.409526493969539, -4.531880565299212, -3.138212369093151, -8.119480167610032, 7.033223671029258, -4.227925522566556, 0.13016966153005874, 3.5168409369000746, 5.778099581720976, 22.12190790175883, -5.829453511436771, 12.52420872246718, -24.361415247928335, -18.755373732375634, 7.0100181606071805], [-2.4308647090819915, 31.556295693857887, -13.286913596458604, 8.34239355864496, -3.412384604199359, -1.3633749367361965, 10.857027942794153, -3.034152714130139, 28.939862227732156, -24.178263656841445, 8.288168371522238, -11.254657964858833, -15.125598397359058, -5.633770319942107, -1.3608949468570068, 14.837372266579703]], "bias_h": [[-9.843390594399706], [-7.998269188690609], [-12.01747654829965], [-18.047868588512742], [-1.9339776147405947], [6.070548059149356], [21.77887275697869], [21.048721125501572], [3.7599981377614697], [-0.7962068544511787], [1.4874409983327253], [15.182144468000036], [7.5650245620050285], [1.803274853012308], [12.999854125286005], [8.011218748470123]], "bias_o": [[-4.617919150053228], [-0.8247541891217786], [-11.571122761257625], [-12.805219303512756]]}, {"input_nodes": 12, "hidden_nodes": 16, "output_nodes": 4, "weights_ih": [[1.2955727674030106, 6.2409293589819335, -8.390050449584171, -3.5142686879544227, 7.361174309195263, -8.386101849991247, 8.287643317114696, -0.4172147177060353, 4.385397306816987, 0.4023437432422381, -6.0364334128629356, -17.293813318786487], [-0.06797915504824785, -13.288833252852141, 6.33004558282742, -2.694844897096139, 13.424461324773409, -5.205249587136766, 17.51427647011376, 9.984142222585389, 1.3371946369897139, -5.155600552941595, -9.392078893981427, 16.376639581920397], [7.899283637201696, 6.497169773678004, -4.96615958203153, 9.145869133948624, -16.765824323907108, -10.022773997555264, 16.256544603952253, -12.630702325149347, 18.293100740085375, -5.652610506356445, 16.878227863360607, -5.693237451616092], [-0.936919471283711, 25.426334482320907, -21.21841179362974, 3.0416907137364717, -2.975062796020412, -2.6633813992203383, -9.31580309206609, 8.538855206523197, 8.680006840338429, 0.02531619987206221, 1.7228880313579058, -16.857212780658624], [2.4397499278486974, -12.850052120296036, -2.903849225934394, -11.901681910549893, -4.070917294401587, 16.726208835173242, 6.5912050939636275, -11.069878566029518, -0.5654377912969597, 10.644998560132619, 3.413141729867436, 1.620248132045087], [-16.84428922390654, -3.585133282247637, 14.906406178274745, 3.0011923005361605, 6.551516999445524, 20.203786012436492, 20.152754453426432, 3.8332172571454604, 3.0600435162612283, -20.79570740394384, -12.595035465561093, -16.919279281164357], [5.531083480896189, -4.3642962331505615, -16.13669043220547, 11.297796838260101, 6.812393852922177, 8.043850774836283, 15.438247286178255, 13.117672391680161, 7.1018078974131615, -3.480787257779575, 5.329431836850138, 8.279015517640449], [2.360641445792614, 3.6297400165034093, -12.149823180638059, -16.0540769847849, -8.007741414434012, 8.997882247586718, -5.871409626108679, 9.270411199316078, 17.627245269004064, -15.899891415277555, 16.597168899206906, -8.3710003897036], [2.6068667083856623, -20.951402927370722, -2.04315185928403, 11.74589342837204, -10.236191328208937, -21.663588577914762, -5.9795203453812835, 18.10412547711559, 18.46644124411131, -19.568273721861402, -8.135352487218773, -1.2728528830934975], [6.90319499991767, -1.0351745642734032, 17.08901475509329, 3.674635973856663, 1.0045528512419755, 9.122082538752695, 2.9645150214546736, -5.041334633345706, 28.060485386115243, -2.5445667264780742, -8.835849113238693, 3.9814305580438374], [-11.509794109607752, 11.651623784110521, 0.06718619569977877, -1.4385458688381947, -5.43146802108542, -8.13882083429138, 1.8083947326718004, -11.440630344149382, -7.153806304379993, -7.428845992379375, -3.9098593503794588, 17.961432044100405], [9.62430939840965, 4.697690299775399, -5.13935732318457, 6.045731703320096, -10.71524882757187, 6.386184382039591, 12.810864716159802, 4.758589889082916, -13.551738693289034, -18.82823130495165, 4.840968130088676, -2.43662516727189], [-5.66305336468303, -10.872026311450899, -6.471497696089052, -4.382259027857089, -3.243370085313167, 37.30944387489814, -7.537492026125809, -2.888426631236252, 5.716729107559712, 6.977475085342603, 4.557119933748809, 5.5115924678140304], [-9.312022058731333, 20.06676279840459, -4.143690433584374, -10.480263235284955, 11.03387777579313, 9.538324827866584, -4.769665137716261, -7.921398373624566, -2.393403158335166, 7.209937105916906, -5.253212370429702, -13.772885836697172], [1.159370637630734, 17.48597626630997, -20.395478307398104, -7.407735056830401, -5.354221429626512, -14.411292539944268, 16.430848057543106, 1.880766231648433, 5.332242804268748, -17.569295550046295, 32.92773933203415, 29.14216975460694], [-5.0728601311110815, -22.731582289053218, 0.899167959610202, 7.451181535625296, -11.759695024649659, -11.95594627452119, 10.46675608816277, 2.2159850955497475, 16.995236959436166, -30.331207171590872, -7.719850476696704, -9.860504183007233]], "weights_ho": [[-5.038518441787279, -10.37579761676554, 0.42958073772589306, -4.683462451014444, 13.804687594528634, -25.693583144033845, 19.103158448789774, 27.68928120097206, 9.92373058278249, -10.556922681360325, -15.526389234066185, 1.4990683049571047, -3.958456762210692, -0.8037587806268484, 14.000560023098895, 3.698842506312582], [-6.484490423782906, -2.7434592512285176, 9.809346551290774, -18.36939157071053, 18.088498186362557, -10.506380829854153, 4.365203598834106, -1.616471436380012, -10.55540595526802, 5.720162406334878, 17.269045029157034, -37.94213308044185, -3.9743225176079564, 6.658523615419077, -19.01677043983829, -7.802888631184239], [4.09082055891593, -6.356199103558129, -4.470429608125579, -3.0227932150499752, -8.07023425155228, 7.05567134946344, -4.243499536020107, 0.13016966153005874, 3.5168409369000746, 5.761076571530949, 22.095888712643735, -5.829453511436771, 12.532245596020399, -24.337233939229286, -18.55970863487232, 6.874961682156517], [-2.4308647090819915, 31.608818555813357, -13.286913596458604, 8.44145976063715, -3.4246864257862963, -1.3633749367361965, 10.934425178722634, -3.034152714130139, 28.90662678513403, -24.10998816047899, 8.288168371522238, -11.119985542463157, -15.042517592949988, -5.709930913359289, -1.5300052981174674, 14.826238098365291]], "bias_h": [[-9.764173415387907], [-8.065471933954056], [-11.936898345945448], [-17.945315146814565], [-1.9339776147405947], [5.910705615034972], [21.729393743781575], [21.05998613513649], [3.7599981377614697], [-0.7962068544511787], [1.4201113436229016], [15.182144468000036], [7.586373574936876], [1.6832606649192368], [12.999854125286005], [8.011218748470123]], "bias_o": [[-4.451838632631526], [-0.7500568971677869], [-11.571122761257625], [-12.703993949028497]]}, {"input_nodes": 12, "hidden_nodes": 16, "output_nodes": 4, "weights_ih": [[1.2971873072906537, 6.369226353225122, -8.491960911467446, -3.563247658252257, 7.312083161027639, -8.386101849991247, 8.38481313312342, -0.4413772151165953, 4.074659670282672, 0.3738881421939151, -6.112244931104713, -17.293813318786487], [-0.06490625587887446, -13.249212526780012, 6.159936156210806, -2.7092598646632924, 13.424461324773409, -5.340682285716126, 17.51427647011376, 9.978650848950995, 1.3371946369897139, -5.1654121817241885, -9.403018893913261, 16.579354139027622], [7.899283637201696, 6.6594599595474415, -4.96615958203153, 9.181069032198767, -16.750984843674313, -10.022773997555264, 16.328860817947668, -12.781833531085855, 18.238970463238232, -5.674283116414296, 16.878227863360607, -5.645837804398139], [-0.936919471283711, 25.526591283755906, -21.208572263202445, 3.0210273377206867, -2.8284863323092013, -2.686063576020177, -9.298447857516253, 8.501609195619247, 8.846437456646093, -0.13970866313149605, 1.765934884434397, -16.981877571910164], [2.4397499278486974, -12.67721960063746, -2.8654678945861094, -11.856559536221193, -4.170644484748163, 16.687431472030028, 6.511716936537175, -11.069878566029518, -0.5654377912969597, 10.490215781623327, 3.242283641808906, 1.7918089079978254], [-16.84428922390654, -3.649124304588387, 14.888137296799403, 2.9638007126603654, 6.532387209907152, 20.39542639219814, 20.244053596352508, 3.781211481062486, 3.0600435162612283, -20.768313755498415, -12.715731027937338, -16.895057179754442], [5.3652591016261475, -4.326748261160592, -16.13669043220547, 11.483035159616138, 6.687869661009963, 7.860599648569735, 15.189375274616006, 13.117672391680161, 6.95613480184705, -3.6542735589122666, 5.338503217092712, 8.315498552762687], [2.1064913417150968, 3.655952121931862, -12.190854647844859, -16.0540769847849, -8.007741414434012, 9.047733324749275, -6.015963103580486, 9.270411199316078, 17.957739060094656, -16.04365533687747, 16.70863827275991, -8.3710003897036], [2.681401350305565, -20.91753080515624, -2.0054240329524253, 11.74589342837204, -10.236191328208937, -21.921999710770873, -5.9795203453812835, 18.10412547711559, 18.376581101771556, -19.504740857914577, -8.319324177896178, -1.2290329483765163], [6.801996300801286, -1.256630523901498, 17.04243072760093, 3.9908533754243494, 0.907624385188041, 9.109661255725372, 2.940310479747823, -5.003195235706685, 28.052359196341413, -2.692958077919864, -8.94751521953138, 3.9814305580438374], [-11.697492263725046, 11.651623784110521, 0.2331970542330661, -1.3108451105272378, -5.480289975022548, -8.14251786883348, 1.8345321497720604, -11.32662343287678, -7.328232545140053, -7.486592151436753, -3.9098593503794588, 18.000976709235832], [9.591391922330084, 4.691702039200995, -4.91669779947481, 6.106810878873433, -10.689873157387083, 6.189947327054146, 12.889780157815874, 4.758589889082916, -13.451545543648102, -18.797318569795582, 4.7273254853741875, -2.4045272266149493], [-5.66305336468303, -10.872026311450899, -6.3317332150813534, -4.407644023317426, -3.426272030200466, 37.174009129006414, -7.583267309902449, -2.8241233567497757, 5.716729107559712, 7.005146218661991, 4.473459966399766, 5.51080360721729], [-9.312022058731333, 20.24362188629004, -3.9932114758760946, -10.773235815446192, 11.03387777579313, 9.538324827866584, -4.8218518429307835, -7.775838895412645, -2.393403158335166, 7.193364205157433, -5.261234386876711, -13.614587288493578], [1.1499487592476243, 17.46247946606474, -20.495962593233823, -7.237466825679369, -5.354221429626512, -14.527922772479519, 16.4394105880488, 1.85615867463832, 5.248340828714843, -17.569295550046295, 32.95857397413828, 29.30941552392662], [-4.891616507886648, -22.57775974938172, 0.9654162490176309, 7.327726801284873, -11.836992286364548, -11.913790593106711, 10.46675608816277, 2.257639847931071, 17.014150625833288, -30.344519698755512, -7.6526773892283035, -9.85066864892746]], "weights_ho": [[-5.0977187320676265, -10.203882990441103, 0.34179055497977406, -4.9254269021156, 13.705016804312555, -25.583273409230458, 19.103158448789774, 27.68928120097206, 9.92373058278249, -10.566662229796924, -15.526389234066185, 1.4990683049571047, -3.997983136479185, -0.7973953019017936, 14.000560023098895, 3.603651692800109], [-6.618690409788353, -2.9025924876076736, 9.937529074792266, -18.483697170798695, 18.022351381800206, -10.580460379618685, 4.503633479902567, -1.6891221593341221, -10.495645384450242, 5.8112961225318465, 17.33750174399448, -37.932545664781976, -3.9034333212179675, 6.792275594557298, -18.883202511575206, -7.904906260652546], [3.9804237713505497, -6.30673613887211, -4.478179131203529, -3.2199018878503223, -8.119480167610032, 7.05567134946344, -4.256473202626397, 0.13016966153005874, 3.5168409369000746, 5.761076571530949, 22.095888712643735, -5.633319348295817, 12.532245596020399, -24.337233939229286, -18.802269629939584, 7.0100181606071805], [-2.325925476905454, 31.516603901884714, -13.407913981841881, 8.362378706764382, -3.4246864257862963, -1.3633749367361965, 10.85300506449093, -2.9667863655368554, 28.880650798675713, -24.10998816047899, 8.288168371522238, -11.178754739089205, -14.800433420363728, -5.709930913359289, -1.457026235976382, 14.835964313773795]], "bias_h": [[-9.871573714588823], [-8.065471933954056], [-12.085139448572601], [-17.808605931090053], [-1.9301421991387742], [6.0207438172526535], [21.688491961632934], [21.1469558628549], [3.7599981377614697], [-0.6882249726704341], [1.4707648150842587], [15.182144468000036], [7.5650245620050285], [1.8891630773188628], [12.952367235789986], [8.011218748470123]], "bias_o": [[-4.491081117867102], [-0.8247541891217786], [-11.571122761257625], [-12.703993949028497]]}, {"input_nodes": 12, "hidden_nodes": 16, "output_nodes": 4, "weights_ih": [[1.2955727674030106, 6.313086774998622, -8.336434404798293, -3.5128475486958672, 7.312083161027639, -8.386101849991247, 8.30253695942385, -0.4172147177060353, 4.335049889670289, 0.4023437432422381, -5.8224651539773165, -17.272604249510877], [-0.06797915504824785, -13.154798442768689, 6.33004558282742, -2.694844897096139, 13.31773894742064, -5.340682285716126, 17.664091284590327, 9.965765343126, 1.1668405918351583, -5.1468903498059335, -9.452680315712245, 16.447454760396635], [7.899283637201696, 6.595070673677835, -4.96615958203153, 9.175388972359304, -16.756749631292486, -10.029818553151665, 16.328860817947668, -12.818443825429004, 18.293100740085375, -5.652610506356445, 16.764603602660376, -5.693237451616092], [-0.936919471283711, 25.426334482320907, -21.208572263202445, 3.195886403166578, -2.975062796020412, -2.8496471490351105, -9.447334058659923, 8.501609195619247, 8.729081226680794, -0.13970866313149605, 1.7392395954908266, -16.896040853671135], [2.4397499278486974, -12.722350175536816, -2.8654678945861094, -11.856559536221193, -4.093963507811223, 16.60939702098206, 6.511716936537175, -11.069878566029518, -0.6046756286770413, 10.490215781623327, 3.234718487780315, 1.8402907828443686], [-17.037623407180057, -3.5097824241991513, 14.928373424274547, 2.8383869858262734, 6.532387209907152, 20.39542639219814, 20.087060026935426, 3.8332172571454604, 3.1543130492600184, -20.768313755498415, -12.533213578571473, -17.02630637175622], [5.514852765779224, -4.344296237798965, -16.13669043220547, 11.384037646212938, 6.715396986441798, 7.860599648569735, 15.438247286178255, 13.172581205393634, 6.95613480184705, -3.6542735589122666, 5.338503217092712, 8.09919468984605], [2.4197143992415358, 3.655952121931862, -12.122085256950074, -16.0540769847849, -8.007741414434012, 8.975967225955815, -5.871409626108679, 9.270411199316078, 17.85727575628246, -15.899891415277555, 16.523787096785636, -8.3710003897036], [2.5684945828988655, -20.91753080515624, -2.0162139409976407, 11.772260273233236, -10.236191328208937, -21.8180992255411, -5.850715394135643, 18.059874860391368, 18.46644124411131, -19.46390125708423, -8.032341114984998, -1.0849738341362798], [6.801996300801286, -1.2815492599840912, 17.04243072760093, 3.921645804209707, 0.826972107170047, 9.109661255725372, 2.9487073182084678, -5.041334633345706, 27.951192981924606, -2.4641086669849153, -8.890144633075307, 4.104763331305455], [-11.509794109607752, 11.502914016931442, 0.2331970542330661, -1.3890226671136157, -5.480289975022548, -8.14251786883348, 1.8345321497720604, -11.486969871197838, -7.153806304379993, -7.479746346975375, -3.820538425188803, 17.98845582631729], [9.591391922330084, 4.690628572917003, -4.91669779947481, 6.106810878873433, -10.7971998029679, 6.386184382039591, 12.810864716159802, 4.758589889082916, -13.451545543648102, -18.800631540997404, 5.150868398172175, -2.507430922725755], [-5.66305336468303, -10.786567429687686, -6.3317332150813534, -4.321637914882368, -3.2059824809636894, 37.22679647046177, -7.581190263472786, -2.8104788615755876, 5.774084228526016, 6.989398758538022, 4.552817151321365, 5.673476346715217], [-9.312022058731333, 20.17510081283355, -4.143690433584374, -10.480263235284955, 11.03387777579313, 9.515307475393518, -4.8218518429307835, -7.944669927671456, -2.393403158335166, 7.193364205157433, -5.25603956447698, -13.614587288493578], [1.2426068528137444, 17.48597626630997, -20.395478307398104, -7.407735056830401, -5.354221429626512, -14.51163061609527, 16.291064098916923, 1.9453894295069376, 5.248340828714843, -17.569295550046295, 32.98137165997026, 29.12315484390399], [-5.276597127579093, -22.728474587378834, 0.9654162490176309, 7.327726801284873, -11.76303071979215, -11.821641940787124, 10.46675608816277, 2.2879363644708324, 16.995236959436166, -30.331207171590872, -7.883673526844572, -9.860504183007233]], "weights_ho": [[-5.140710783634649, -10.20438405898503, 0.34179055497977406, -4.683462451014444, 13.804687594528634, -25.583273409230458, 19.103158448789774, 27.68928120097206, 9.92373058278249, -10.54237439944071, -15.526389234066185, 1.4900066359047224, -4.053671900471502, -0.7973953019017936, 14.000560023098895, 3.6097775813668695], [-6.554071670846079, -2.9025924876076736, 9.591570102113579, -18.50703008583041, 18.000231559559516, -10.518774895810456, 4.4069943442946595, -1.415003801296671, -10.493005121797566, 5.640231753125919, 17.04544548942517, -37.94005560189732, -3.9034333212179675, 6.792275594557298, -19.01677043983829, -8.117188255157307], [3.922060955682703, -6.30673613887211, -4.597569234537638, -3.0227932150499752, -7.998723406440156, 7.072221213621041, -4.221259739182039, 0.13016966153005874, 3.5168409369000746, 5.758246893273803, 22.095888712643735, -6.034735479816532, 12.532245596020399, -24.337233939229286, -18.865872484793908, 7.0100181606071805], [-2.4308647090819915, 31.56636414330373, -13.468641056450647, 8.551008444119704, -3.4244711714867107, -1.334258319185576, 11.087463222530006, -3.034152714130139, 28.693491380036452, -23.87842068300576, 8.288168371522238, -11.09059392980595, -15.042517592949988, -5.752777841772431, -1.5643542428920134, 14.988373506596083]], "bias_h": [[-9.838700072124329], [-8.109818172718187], [-12.017295652995628], [-17.929033948492055], [-1.9339776147405947], [6.058944631560722], [21.729393743781575], [21.14630641783459], [3.7599981377614697], [-0.6660982334269407], [1.452821214736185], [15.182144468000036], [7.745081906715596], [1.803274853012308], [12.999854125286005], [8.011218748470123]], "bias_o": [[-4.491081117867102], [-0.8247541891217786], [-11.894791303311376], [-12.703993949028497]]}, {"input_nodes": 12, "hidden_nodes": 16, "output_nodes": 4, "weights_ih": [[1.2751432983899902, 6.249848972691564, -8.498049254761119, -3.529739286927548, 7.312083161027639, -8.386101849991247, 8.31580472956684, -0.5001541201840447, 4.385397306816987, 0.4023437432422381, -6.123467556713925, -17.293813318786487], [-0.06797915504824785, -13.288833252852141, 6.111883114455641, -2.694844897096139, 13.424461324773409, -5.340682285716126, 17.314556073762002, 9.984142222585389, 1.290346520069472, -5.1468903498059335, -9.452680315712245, 16.288334407899956], [7.731590947778996, 6.497169773678004, -4.941370928627301, 8.930894675417576, -16.693712569824516, -10.134716744284207, 16.397549878158244, -12.763489061297786, 18.293100740085375, -5.652610506356445, 17.002073071766812, -5.682504361768117], [-0.936919471283711, 25.426334482320907, -21.208572263202445, 2.97818634838476, -3.017743465232242, -2.6348183913515153, -9.340980838668074, 8.363728978700783, 8.853007302519938, -0.07486465914075792, 1.7392395954908266, -16.981877571910164], [2.4397499278486974, -12.722350175536816, -2.7723163611754096, -11.856559536221193, -4.170644484748163, 16.73536867009574, 6.511716936537175, -11.069878566029518, -0.5654377912969597, 10.490215781623327, 3.315027391195305, 1.8402907828443686], [-16.84428922390654, -3.649124304588387, 14.865912143061015, 2.8730046424384192, 6.532387209907152, 20.39542639219814, 20.51233201350653, 3.8332172571454604, 3.0600435162612283, -20.768313755498415, -12.715731027937338, -16.854920553464964], [5.514852765779224, -4.3642962331505615, -16.19175786062877, 11.384037646212938, 6.782195972387448, 8.014716533996497, 15.556867462497074, 13.117672391680161, 6.95613480184705, -3.7327423302480445, 5.338503217092712, 8.36824781293613], [2.206841444705978, 3.39750901540875, -12.122085256950074, -16.0540769847849, -7.810535563750765, 8.934212319078311, -5.90827860106565, 9.440217286508446, 17.742057370288205, -15.847657054153437, 16.597168899206906, -8.3710003897036], [2.6624576689738393, -20.91753080515624, -2.0162139409976407, 11.501493368676087, -10.189750585709312, -21.8180992255411, -5.9213091495978585, 18.093142418135955, 18.456103882686243, -19.504740857914577, -8.15820119193984, -1.2290329483765163], [6.801996300801286, -1.185431137279464, 16.890790826638153, 3.921645804209707, 0.9150029684429408, 9.109661255725372, 2.9487073182084678, -5.041334633345706, 28.052359196341413, -2.4829583420805785, -8.688879957460133, 3.9814305580438374], [-11.589999948869002, 11.651623784110521, 0.2331970542330661, -1.2962439789225029, -5.442324300905024, -8.14251786883348, 1.8206198975592267, -11.486969871197838, -7.011503534952074, -7.519692993883654, -3.7606257321359973, 17.961432044100405], [9.636781197286485, 4.730967911627057, -4.91669779947481, 6.106810878873433, -10.685747663912318, 6.525935151144742, 12.810864716159802, 4.71761026166778, -13.521150053259841, -18.920157715513252, 4.90069630003208, -2.43662516727189], [-5.66305336468303, -10.767904390264976, -6.320376138168467, -4.315052767669631, -3.243370085313167, 37.29379282355122, -7.5028961780258205, -3.0665336959943064, 5.716729107559712, 6.96277892245939, 4.557119933748809, 5.673476346715217], [-9.312022058731333, 20.06676279840459, -4.143690433584374, -10.427476343927848, 11.03387777579313, 9.538324827866584, -4.8218518429307835, -8.008354350027616, -2.393403158335166, 7.094330730607355, -4.996370744148903, -13.549827444781993], [1.0621012617561247, 17.481691560722137, -20.395478307398104, -7.407735056830401, -5.339477041581631, -14.51163061609527, 16.374974675021917, 1.9453894295069376, 5.248340828714843, -17.427158869750475, 32.95857397413828, 29.12315484390399], [-5.0728601311110815, -22.728474587378834, 0.8610998584747135, 7.327726801284873, -11.767861499358483, -11.677482351339195, 10.46675608816277, 2.304147574741849, 16.995236959436166, -30.331207171590872, -7.686693842241271, -9.749244788510959]], "weights_ho": [[-5.038518441787279, -10.132991649571435, 0.28251964466489987, -4.683462451014444, 13.804776639009921, -25.539305194785538, 19.147048925887617, 27.68928120097206, 9.92373058278249, -10.593194115767055, -15.526389234066185, 1.5427847912374268, -4.053671900471502, -0.8022998720500865, 14.19670567925283, 3.675671167370698], [-6.551832676204382, -2.8771286487590797, 10.010549869448077, -18.41924226240999, 18.15499809334079, -10.577088057161248, 4.584587430077625, -1.5929236656833332, -10.308470376217546, 5.720162406334878, 17.02911611778662, -37.92692257691128, -3.7638837242744936, 6.792275594557298, -19.01677043983829, -8.007570681140054], [4.114789319127308, -6.30673613887211, -4.531880565299212, -3.0227932150499752, -8.119480167610032, 7.221141632047494, -4.3295398732952295, 0.13016966153005874, 3.4868669738884748, 5.761076571530949, 22.095888712643735, -5.607198870856497, 12.472560151704105, -24.45099029116264, -18.755373732375634, 7.0100181606071805], [-2.4322048212420007, 31.556295693857887, -13.286913596458604, 8.52350292027858, -3.2021149195191883, -1.314237871594831, 11.012644264010014, -3.070390997968193, 28.90219698917167, -24.171697075841614, 8.288168371522238, -11.178754739089205, -15.042517592949988, -5.709930913359289, -1.4573413009481335, 14.826238098365291]], "bias_h": [[-9.902822912129905], [-8.065471933954056], [-12.02158381211938], [-17.929033948492055], [-1.8802091848704467], [6.070548059149356], [21.729393743781575], [20.959076781080917], [3.677272208979736], [-0.7962068544511787], [1.4229653509040578], [15.200048499198928], [7.462631787976616], [1.8484896418535535], [12.968226987973502], [7.9350096271304755]], "bias_o": [[-4.341409018213005], [-0.7619919163819091], [-11.536843872845779], [-12.728789687254807]]}, {"input_nodes": 12, "hidden_nodes": 16, "output_nodes": 4, "weights_ih": [[1.3550349805268176, 6.249848972691564, -8.46161750306399, -3.563247658252257, 7.399975093309311, -8.404165721640657, 8.3592313876671, -0.4172147177060353, 4.477979108899655, 0.4780109012667777, -6.09234856618528, -17.285850886128934], [-0.06797915504824785, -13.143812793757178, 6.33004558282742, -2.694844897096139, 13.593570177473284, -5.340682285716126, 17.51427647011376, 9.984142222585389, 1.583850261288196, -5.052724597477489, -9.452680315712245, 16.362506056952935], [7.899283637201696, 6.497169773678004, -4.96615958203153, 8.849227750895272, -16.756749631292486, -10.022773997555264, 16.41408077958733, -12.781833531085855, 18.293100740085375, -5.652610506356445, 16.878227863360607, -5.641199560582775], [-0.9096385684370022, 25.443610173549708, -21.208572263202445, 2.97818634838476, -3.142694286370293, -2.6633813992203383, -9.204764880099374, 8.53263610262045, 8.663911074593974, -0.13970866313149605, 1.7392395954908266, -16.981877571910164], [2.291879549649973, -12.722350175536816, -2.890445113941249, -11.988168245656041, -4.0995179178273045, 16.522231292378095, 6.453232772185921, -10.885154508918998, -0.45914534056481915, 10.490215781623327, 3.2482538164494072, 1.8402907828443686], [-16.780913854722076, -3.649124304588387, 14.901907802915192, 2.890460296508992, 6.4165715793230955, 20.39542639219814, 20.244053596352508, 3.8332172571454604, 3.0600435162612283, -20.768313755498415, -12.609537418679741, -16.919279281164357], [5.514852765779224, -4.3642962331505615, -16.110770912434212, 11.436198222778245, 6.687869661009963, 7.860599648569735, 15.441725758385337, 13.05985790239983, 7.013300017962083, -3.6542735589122666, 5.338503217092712, 8.279015517640449], [2.161150120624261, 3.655952121931862, -12.122085256950074, -16.0540769847849, -8.007741414434012, 8.882899639695665, -5.938229782957472, 9.270411199316078, 17.75258462571276, -15.899891415277555, 16.597168899206906, -8.3710003897036], [2.6624576689738393, -20.91753080515624, -2.0162139409976407, 11.74589342837204, -10.236191328208937, -21.80266818921066, -5.983021596621287, 18.162277115855606, 18.46644124411131, -19.481471457786586, -8.112367647328016, -1.135532683788337], [6.692615778732455, -1.0845664958347156, 17.183913204178122, 3.914115229181219, 0.7883147264815727, 9.05079798294056, 2.9487073182084678, -5.091987399947058, 28.096865200350685, -2.3733922434305295, -8.94751521953138, 4.017095779258668], [-11.509794109607752, 11.651623784110521, 0.4625058189319865, -1.330777512163172, -5.559520028033185, -8.148182291788926, 1.819031048595066, -11.486969871197838, -7.153806304379993, -7.479746346975375, -3.8870271194939257, 17.961432044100405], [9.578647938795472, 4.601925530931592, -4.86786366382558, 6.106810878873433, -10.689873157387083, 6.386184382039591, 12.810864716159802, 4.758589889082916, -13.401902794673632, -18.779015674855486, 5.021106804741011, -2.319678262196597], [-5.8692740867683195, -10.794473629598434, -6.3317332150813534, -4.382259027857089, -3.2757119647802977, 37.29379282355122, -7.538949142555414, -2.841100423330325, 5.716729107559712, 7.067663246654009, 4.557119933748809, 5.767327690422279], [-9.312022058731333, 20.06676279840459, -3.986918564025945, -10.41890821758823, 11.03387777579313, 9.538324827866584, -4.729786364771919, -7.991343972565345, -2.327980778624269, 7.094267921601114, -5.261234386876711, -13.659717977319419], [1.1499487592476243, 17.48597626630997, -20.334665154689077, -7.44124255257482, -5.265221814567615, -14.788627496821517, 16.40082423980233, 1.9403900929424691, 5.0905547666289666, -17.569295550046295, 32.85160155123885, 29.12315484390399], [-5.0728601311110815, -22.81677023947419, 0.9654162490176309, 7.20030345636684, -11.853637883617832, -11.924069440021194, 10.46675608816277, 2.257639847931071, 17.038558795942308, -30.331207171590872, -7.750268518713078, -9.964027848529563]], "weights_ho": [[-5.038518441787279, -10.110301271232606, 0.34179055497977406, -4.642287779718421, 13.804687594528634, -25.583273409230458, 19.103158448789774, 27.65404905273151, 9.92373058278249, -10.593194115767055, -15.526389234066185, 1.4990683049571047, -4.053671900471502, -0.7973953019017936, 13.933420845959827, 3.698842506312582], [-6.564204485746433, -3.167467518411844, 9.809346551290774, -18.486176225063673, 18.088498186362557, -10.61776485056644, 4.503633479902567, -1.5929236656833332, -10.493005121797566, 5.706226404807881, 17.221127340912467, -37.92692257691128, -3.9034333212179675, 6.802815731868883, -18.838366232707543, -7.870786978994407], [3.9197008442772168, -6.336548788261478, -4.531880565299212, -3.0997678369613673, -8.194567244392001, 7.05567134946344, -4.227925522566556, -0.1595095768323668, 3.3347995035148914, 5.761076571530949, 22.10267302005868, -5.829453511436771, 12.532245596020399, -24.337233939229286, -18.755373732375634, 7.0100181606071805], [-2.4308647090819915, 31.604552829604316, -13.286913596458604, 8.362378706764382, -3.4246864257862963, -1.3633749367361965, 10.887287464265725, -3.034152714130139, 28.939862227732156, -24.10998816047899, 8.288168371522238, -11.10244838218215, -15.042517592949988, -5.665208060510999, -1.2831024968503595, 14.826238098365291]], "bias_h": [[-9.900263145302004], [-8.043472732844581], [-12.02158381211938], [-17.929033948492055], [-2.0362301701944046], [6.070548059149356], [21.868929337543843], [21.18182551473383], [3.5932822672825164], [-0.7962068544511787], [1.4345916936234762], [15.045139041108143], [7.573178302291836], [1.803274853012308], [12.960554930802784], [8.011218748470123]], "bias_o": [[-4.281670268192194], [-0.8247541891217786], [-11.637027588943154], [-12.589345979063463]]}, {"input_nodes": 12, "hidden_nodes": 16, "output_nodes": 4, "weights_ih": [[1.2992498525494987, 6.249848972691564, -8.535744379793222, -3.518715458869166, 7.438625857017526, -8.386101849991247, 8.38481313312342, -0.2775394785669065, 4.319174276401072, 0.4023437432422381, -5.98611126849669, -17.48616425869912], [-0.06797915504824785, -13.288833252852141, 6.33004558282742, -2.694844897096139, 13.424461324773409, -5.417442534758688, 17.51427647011376, 9.984142222585389, 1.3371946369897139, -5.1468903498059335, -9.452680315712245, 16.608879811377097], [7.899283637201696, 6.631629312258893, -4.96615958203153, 9.030092851800948, -16.827027735673703, -10.022773997555264, 16.328860817947668, -12.781833531085855, 18.24739589996084, -5.405276946705365, 17.139359950803783, -5.382210336832711], [-0.936919471283711, 25.448276578642716, -21.208572263202445, 2.990835662178227, -2.975062796020412, -2.706119877236942, -9.386495821672, 8.496664281677981, 8.684573128299776, -0.18821346009015355, 1.7392395954908266, -16.981877571910164], [2.4397499278486974, -12.722350175536816, -2.8654678945861094, -11.856559536221193, -4.170644484748163, 16.658040770047254, 6.683361629625185, -11.069878566029518, -0.5654377912969597, 10.550231122029054, 3.1555867377622846, 1.8402907828443686], [-16.84428922390654, -3.73733879667333, 14.888137296799403, 2.8730046424384192, 6.532387209907152, 20.593188524029376, 20.244053596352508, 3.8496828878489597, 3.0600435162612283, -20.768313755498415, -12.798914054371624, -16.919279281164357], [5.514852765779224, -4.3642962331505615, -16.13669043220547, 11.364555811724442, 6.591365636572288, 7.860599648569735, 15.438247286178255, 13.033755812640292, 6.921166271498369, -3.6542735589122666, 5.457009273602336, 8.279015517640449], [2.206841444705978, 3.690375659193289, -12.225515717530028, -15.99713581226678, -8.007741414434012, 9.221854706581668, -5.871409626108679, 9.270411199316078, 17.713128966915185, -15.940213092733961, 16.63766921486419, -8.413836943977829], [2.735490455320609, -20.88308540828387, -2.0162139409976407, 11.74589342837204, -10.363403714841413, -21.8180992255411, -5.856214936280087, 17.99622214287645, 18.46944380118055, -19.504740857914577, -8.052998477568426, -1.4543052597505353], [6.738360776677316, -1.3494455997436643, 17.135943881563968, 3.921645804209707, 0.9150029684429408, 9.109661255725372, 2.8852043862493812, -5.041334633345706, 28.052359196341413, -2.3645014779560594, -8.94751521953138, 3.9814305580438374], [-11.47909329368161, 11.521162119496434, 0.2331970542330661, -1.3108451105272378, -5.480289975022548, -8.13257306317179, 1.8345321497720604, -11.486969871197838, -7.154989583249271, -7.5008047726152896, -3.9098593503794588, 17.961432044100405], [9.57580445905111, 4.652974144091155, -5.04568735657741, 6.030146019437121, -10.689873157387083, 6.4772888874531835, 12.810864716159802, 4.67374847129607, -13.451545543648102, -18.8415797746866, 4.90069630003208, -2.440338004285395], [-5.737253585455082, -10.872026311450899, -6.39655600389164, -4.430182936531924, -3.243370085313167, 37.29379282355122, -7.538949142555414, -2.952700770449026, 5.716729107559712, 6.989398758538022, 4.557119933748809, 5.673476346715217], [-9.312022058731333, 20.065888796999996, -4.2590180940814015, -10.531874786857372, 11.03387777579313, 9.662851620997305, -4.8218518429307835, -8.008354350027616, -2.4639516407342255, 7.193364205157433, -5.250385382465992, -13.826694662145961], [1.1499487592476243, 17.48597626630997, -20.395478307398104, -7.335690700645564, -5.354221429626512, -14.51163061609527, 16.385155261349563, 1.9960462419237708, 5.290762440417109, -17.569295550046295, 33.03191388344792, 29.12315484390399], [-5.245518307642583, -22.728474587378834, 0.9654162490176309, 7.327726801284873, -11.889072493577197, -12.027605782950772, 10.473084224306213, 2.257639847931071, 16.995236959436166, -30.358915867195005, -7.719850476696704, -9.860504183007233]], "weights_ho": [[-5.038518441787279, -10.14220133007367, 0.3080871996887104, -4.728960518024608, 13.804687594528634, -25.583273409230458, 19.092655974519925, 27.68928120097206, 9.962664885558036, -10.593194115767055, -15.553138194968824, 1.4990683049571047, -4.017633310324808, -0.7973953019017936, 14.000560023098895, 3.646914752708659], [-6.551832676204382, -2.9025924876076736, 9.884372539562001, -18.289608228575258, 18.06829627170038, -10.514569745399, 4.503633479902567, -1.5929236656833332, -10.493005121797566, 5.720162406334878, 17.08404600148154, -37.80042097903773, -3.811945299240556, 6.792275594557298, -19.01677043983829, -8.011147002510072], [3.922060955682703, -6.30673613887211, -4.531880565299212, -3.0227932150499752, -8.19264441740648, 7.05567134946344, -4.227925522566556, 0.13016966153005874, 3.4657903962456844, 5.538916784800271, 22.095888712643735, -5.764457243762305, 12.617482396469528, -24.337233939229286, -18.755373732375634, 6.7944806371777675], [-2.4308647090819915, 31.49917568364007, -13.158991631110332, 8.410018542866053, -3.4246864257862963, -1.3633749367361965, 10.947452762390103, -3.156089503486704, 28.939862227732156, -24.10998816047899, 8.211467840110084, -11.178754739089205, -15.060487347290003, -5.709930913359289, -1.5753065812691183, 14.836773898849053]], "bias_h": [[-9.773832647402914], [-8.078923195949413], [-12.02158381211938], [-17.929033948492055], [-1.9339776147405947], [6.0591771828902194], [21.599942776735414], [21.045581908001136], [3.6496648956479123], [-0.9832027685658454], [1.4874409983327253], [15.330434574377518], [7.720272324918767], [1.803274853012308], [12.999854125286005], [7.991489688282945]], "bias_o": [[-4.491081117867102], [-0.7258062473369137], [-11.585416462084932], [-12.724985574492809]]}, {"input_nodes": 12, "hidden_nodes": 16, "output_nodes": 4, "weights_ih": [[1.4557027716465487, 6.249848972691564, -8.491960911467446, -3.563247658252257, 7.312083161027639, -8.40328623075548, 8.38481313312342, -0.5540238441126348, 4.385397306816987, 0.4701011998481286, -5.98611126849669, -17.293813318786487], [-0.06797915504824785, -13.291029609895022, 6.414806951450113, -2.694844897096139, 13.524306583675369, -5.340682285716126, 17.51427647011376, 9.892404353477142, 1.3432132679843691, -5.1468903498059335, -9.371799244280224, 16.376639581920397], [7.899283637201696, 6.497169773678004, -4.973147182012898, 9.067393935036415, -16.73131912408939, -10.022773997555264, 16.340024536752747, -12.752963737394307, 18.29245470224273, -5.59031993886161, 16.857222769649443, -5.693237451616092], [-0.9572577371297372, 25.419790264903664, -21.208572263202445, 3.061628912464655, -2.975062796020412, -2.662434144059156, -9.323262682416487, 8.501609195619247, 8.864258544047393, -0.3008567810021799, 1.9094315365000476, -16.89372376006373], [2.709557232647642, -12.647207511027386, -2.8654678945861094, -11.856559536221193, -4.170644484748163, 16.658040770047254, 6.511716936537175, -11.060508712729824, -0.3900657641526416, 10.281135326627567, 3.315286410856138, 1.8092495479064459], [-16.84428922390654, -3.748111344857345, 14.778697491191721, 2.8004479270421703, 6.490449954681683, 20.39542639219814, 20.244053596352508, 3.6827521565670023, 3.062215683873762, -20.768313755498415, -12.715731027937338, -16.99698739643169], [5.514852765779224, -4.3642962331505615, -16.13669043220547, 11.384037646212938, 6.687869661009963, 7.845339795462517, 15.425090682004592, 13.140230219215333, 6.9975071945290255, -3.6542735589122666, 5.338503217092712, 8.309805730200122], [2.206841444705978, 3.633662706992431, -12.08247371678256, -16.0540769847849, -8.007741414434012, 8.957840229833218, -5.871409626108679, 9.318026038505426, 17.742057370288205, -15.899891415277555, 16.563972179281553, -8.3710003897036], [2.7163300539993482, -21.021845580949577, -2.0162139409976407, 11.74589342837204, -10.233044087755877, -21.811337056809826, -5.9795203453812835, 17.82006641962619, 18.46644124411131, -19.504740857914577, -8.263884980876908, -1.2248673049163517], [6.761900973342143, -1.1177356883229748, 17.04243072760093, 3.921645804209707, 0.8015471361474873, 9.232973519158483, 2.923693551909188, -5.059616113336783, 28.052359196341413, -2.531703914504236, -8.94751521953138, 4.129738330513217], [-11.509794109607752, 11.721199711038793, 0.2856493019702723, -1.3108451105272378, -5.480289975022548, -8.199699583476221, 1.8345321497720604, -11.435857515131586, -7.153806304379993, -7.479746346975375, -3.975692113840345, 17.901474919341513], [9.591391922330084, 4.539047576533015, -5.031058883037516, 6.076725167363922, -10.689873157387083, 6.386184382039591, 12.84238267081567, 4.758589889082916, -13.563072610525145, -18.71287508228517, 4.90069630003208, -2.3100729534393234], [-5.66305336468303, -10.872026311450899, -6.3317332150813534, -4.382259027857089, -3.243370085313167, 37.29379282355122, -7.522683027559423, -2.9271271513258803, 5.716729107559712, 6.989398758538022, 4.394913708231261, 5.673476346715217], [-9.192309188641406, 20.13420945612692, -4.143690433584374, -10.77000314059379, 11.03387777579313, 9.538324827866584, -4.8218518429307835, -7.9116609882277, -2.393403158335166, 7.122497719110451, -5.459653918319628, -13.598766383674706], [1.2017646135458606, 17.703343523119777, -20.397795574598675, -7.407735056830401, -5.354221429626512, -14.415721482560832, 16.492936065771477, 2.0062064214327076, 5.248340828714843, -17.512059043831687, 32.86246913793121, 29.33271850017875], [-4.990141725029752, -22.728474587378834, 0.9654162490176309, 7.327726801284873, -11.853637883617832, -11.88396660010738, 10.46675608816277, 2.257639847931071, 17.09309711813676, -30.331207171590872, -7.6107874534044235, -9.860504183007233]], "weights_ho": [[-5.154311494542804, -10.14220133007367, 0.34179055497977406, -4.683462451014444, 13.804687594528634, -25.583273409230458, 19.103158448789774, 27.68928120097206, 10.04241288557149, -10.593194115767055, -15.526389234066185, 1.6370789883979926, -4.053671900471502, -0.9241463997083521, 14.000560023098895, 3.698842506312582], [-6.45334702867302, -2.9025924876076736, 9.93803471137211, -18.4594712056374, 18.088498186362557, -10.638761301225736, 4.421970064395445, -1.5929236656833332, -10.493005121797566, 5.720162406334878, 17.20374656308765, -37.92692257691128, -3.9545347321594235, 6.804736975034638, -19.29227105586784, -8.021540757935576], [3.922060955682703, -6.287753242404691, -4.531880565299212, -3.065955208866052, -8.03811437472892, 7.05567134946344, -4.227925522566556, 0.068131584608087, 3.5168409369000746, 5.700747170293988, 22.095888712643735, -5.706403123206714, 12.532245596020399, -24.337233939229286, -18.755373732375634, 7.0100181606071805], [-2.478263888155103, 31.556295693857887, -13.383816356972714, 8.362378706764382, -3.3502419062146673, -1.429694886247447, 10.947452762390103, -2.9376845325061254, 28.84737696317936, -24.0580706712077, 8.255262261152168, -11.178754739089205, -14.940005001516901, -5.578674282061518, -1.4573413009481335, 14.945169468365503]], "bias_h": [[-9.894609295392346], [-8.065471933954056], [-11.960237954648308], [-17.929033948492055], [-1.8387511419186577], [6.070548059149356], [21.779082003592638], [21.045581908001136], [3.8384426932331555], [-0.7962068544511787], [1.4874409983327253], [15.182144468000036], [7.570293590058778], [1.803274853012308], [12.999854125286005], [8.011218748470123]], "bias_o": [[-4.491081117867102], [-0.8247541891217786], [-11.571122761257625], [-12.703993949028497]]}, {"input_nodes": 12, "hidden_nodes": 16, "output_nodes": 4, "weights_ih": [[1.4790919758835286, 6.249848972691564, -8.543156900644234, -3.563247658252257, 7.312083161027639, -8.393425567582916, 8.4471619932855, -0.4619184516714716, 4.524162350644246, 0.46707366810096246, -5.98611126849669, -17.293813318786487], [-0.06797915504824785, -13.360457641089328, 6.33004558282742, -2.694844897096139, 13.420053816343794, -5.364352167139007, 17.490396073958596, 9.984142222585389, 1.3371946369897139, -5.1468903498059335, -9.452680315712245, 16.256894109028213], [7.899283637201696, 6.486807548284714, -4.901410471308916, 9.299708875016233, -16.5161803989917, -10.022773997555264, 16.328860817947668, -12.824147593508041, 18.20023233725362, -5.8415075209735985, 16.94686018894912, -5.440980592453648], [-0.936919471283711, 25.426334482320907, -21.208572263202445, 3.0001205442659464, -3.038060523138937, -2.6633813992203383, -9.181643030602784, 8.501609195619247, 8.722844373313752, 0.008396490351718133, 1.7392395954908266, -16.981877571910164], [2.408860500620571, -12.563095522493215, -2.9386638149641757, -11.518105989959176, -4.316690145758063, 16.658040770047254, 6.43027298125478, -11.069878566029518, -0.6172062006649482, 10.490215781623327, 3.3229477801294003, 1.8402907828443686], [-16.84428922390654, -3.649124304588387, 14.888137296799403, 2.808867243382563, 6.420260129417956, 20.296898812175804, 20.244053596352508, 3.8609087661386616, 3.1797474528742042, -20.68845062374722, -12.715731027937338, -16.872275708143288], [5.435937423327525, -4.3642962331505615, -16.13669043220547, 11.38174024482029, 6.687869661009963, 7.860599648569735, 15.438247286178255, 13.117672391680161, 6.822865996882167, -3.6542735589122666, 5.338503217092712, 8.279015517640449], [2.206841444705978, 3.655952121931862, -12.122085256950074, -16.0540769847849, -7.908946206156227, 8.96678883745819, -6.0422640035586594, 9.299312002275858, 17.787865853442316, -15.730288270314905, 16.597168899206906, -8.36397624035335], [2.6624576689738393, -20.91753080515624, -2.017892405811929, 11.775806041002728, -10.213794942374708, -21.8180992255411, -5.9795203453812835, 18.10412547711559, 18.46644124411131, -19.504740857914577, -8.238870019940638, -1.1449382574388915], [6.801996300801286, -1.1416981135669828, 17.04243072760093, 3.921645804209707, 0.9860156822425146, 9.003624999388249, 2.9487073182084678, -5.091969566043746, 28.052359196341413, -2.5572019293176496, -9.039613592685932, 3.9420603256366618], [-11.725629453906473, 11.73363697962248, 0.19245551631070407, -1.237561425195958, -5.616529149913589, -8.297228505895681, 1.8345321497720604, -11.486969871197838, -7.044337436521576, -7.461861955793062, -3.9098593503794588, 17.961432044100405], [9.591269806069628, 4.6970539105751214, -5.089267751884737, 5.95896984851782, -10.816588654255021, 6.4993794707205454, 12.77794730512183, 4.852579617399367, -13.451545543648102, -18.779015674855486, 4.814016494379788, -2.43662516727189], [-5.457909938051048, -10.872026311450899, -6.3317332150813534, -4.382259027857089, -3.243370085313167, 37.14541897355491, -7.538949142555414, -2.889057823951654, 5.6992457623878625, 6.989398758538022, 4.340645063674329, 5.673476346715217], [-9.312022058731333, 19.926596594574026, -4.143690433584374, -10.480263235284955, 11.03387777579313, 9.538324827866584, -4.701467829096723, -8.054171572761422, -2.2856146808152484, 7.005150493350485, -5.437981157029612, -13.614587288493578], [1.137265593984372, 17.48597626630997, -20.34420183790523, -7.407735056830401, -5.2916751546436265, -14.628200947771372, 16.398400429863827, 1.9915355797461682, 5.318604247781421, -17.438319898399577, 32.9103233679305, 29.12315484390399], [-5.1974607117109874, -22.747730899305402, 0.9654162490176309, 7.327726801284873, -11.978897826324557, -12.014390801210128, 10.418407375894738, 2.257639847931071, 16.98729966724257, -30.331207171590872, -7.785335523834408, -9.860504183007233]], "weights_ho": [[-5.038518441787279, -10.14220133007367, 0.34179055497977406, -4.736775045914506, 13.785989123947942, -25.583273409230458, 19.173362391625318, 27.68928120097206, 9.814026395555636, -10.499137184741116, -15.526389234066185, 1.4990683049571047, -4.057934066885967, -0.7973953019017936, 14.145004520674515, 3.591758219191885], [-6.514871982910348, -2.9025924876076736, 9.859023763823814, -18.4594712056374, 18.054975616869985, -10.577088057161248, 4.413889463120834, -1.528438065314519, -10.493005121797566, 5.7582926405300645, 17.20374656308765, -37.92692257691128, -3.9034333212179675, 6.792275594557298, -19.151314907386993, -8.007570681140054], [3.922060955682703, -6.30673613887211, -4.531880565299212, -3.0227932150499752, -8.038722631927659, 7.05567134946344, -4.227925522566556, 0.13016966153005874, 3.556370289698377, 5.761076571530949, 22.05330660198728, -5.898717743106625, 12.378568767444875, -24.324925485473457, -18.755373732375634, 7.0100181606071805], [-2.4308647090819915, 31.669928452919915, -13.286913596458604, 8.362378706764382, -3.3528486567559015, -1.3633749367361965, 10.947452762390103, -3.069568142827106, 29.05024127395077, -24.10998816047899, 8.310300080068817, -11.178754739089205, -15.042517592949988, -5.744448867328827, -1.4573413009481335, 14.826238098365291]], "bias_h": [[-9.721299185728634], [-8.132378055507411], [-12.02158381211938], [-17.935921699152814], [-1.9339776147405947], [5.857117170605784], [21.628990906107372], [20.929055851491476], [3.7599981377614697], [-0.6324194579977729], [1.7156981521770216], [15.182144468000036], [7.5650245620050285], [1.803274853012308], [12.821318953180455], [8.011218748470123]], "bias_o": [[-4.361229194632458], [-0.8247541891217786], [-11.571122761257625], [-12.703993949028497]]}, {"input_nodes": 12, "hidden_nodes": 16, "output_nodes": 4, "weights_ih": [[1.2955727674030106, 6.249848972691564, -8.491960911467446, -3.563247658252257, 7.188263016909593, -8.386101849991247, 8.38481313312342, -0.5040703875958301, 4.200305960541942, 0.35389457405586977, -5.98611126849669, -17.386205195395956], [-0.06797915504824785, -13.288833252852141, 6.33004558282742, -2.694844897096139, 13.424461324773409, -5.475989372264548, 17.51427647011376, 9.978541731925446, 1.4595337083918414, -5.068567658064408, -9.452680315712245, 16.382376836077555], [7.865310801572566, 6.662286479755791, -4.96615958203153, 8.886480097829455, -16.756749631292486, -9.995947004339698, 16.328860817947668, -12.659480658090366, 18.279143392685977, -5.652610506356445, 16.89035864937748, -5.8011666408196705], [-1.1115460764432556, 25.426334482320907, -21.208572263202445, 2.98862837251792, -2.975062796020412, -2.6633813992203383, -9.31580309206609, 8.543396297018912, 8.518738364610828, -0.13970866313149605, 1.7392395954908266, -16.981877571910164], [2.3982501616460876, -12.722350175536816, -2.7934912762410216, -11.787350995926372, -4.170644484748163, 16.719533190195733, 6.390498235839157, -11.051358919720442, -0.5622860507890932, 10.490215781623327, 3.400832703649115, 1.832548306338858], [-16.78362258132237, -3.649124304588387, 14.888137296799403, 2.8730046424384192, 6.532387209907152, 20.39542639219814, 20.244053596352508, 3.705711028666218, 3.0577842677846023, -20.855806118469584, -12.758814495057056, -16.919279281164357], [5.514852765779224, -4.3642962331505615, -16.13669043220547, 11.283269741639684, 6.721806354307116, 7.910643262958631, 15.438247286178255, 13.117672391680161, 7.194782613647538, -3.6542735589122666, 5.337348292174134, 8.279015517640449], [2.3423582632438107, 3.4795814063662034, -12.055474512177561, -16.09575372482017, -7.978073372048578, 9.235577117705745, -5.871409626108679, 9.270411199316078, 17.742057370288205, -15.899891415277555, 16.597168899206906, -8.3710003897036], [2.6624576689738393, -20.91753080515624, -2.0706653700328004, 11.74589342837204, -10.267140330063471, -21.74192253126978, -5.9795203453812835, 17.98030890091166, 18.46644124411131, -19.425925537458234, -8.202109371783303, -1.2828101756309735], [6.740740772066383, -1.1561489417380497, 16.855637473242098, 3.898660706290552, 0.7088176804221165, 9.109661255725372, 2.9487073182084678, -5.041334633345706, 28.1344919831056, -2.4641086669849153, -8.87265631602583, 3.8530477722017595], [-11.658139796675599, 11.651623784110521, 0.2331970542330661, -1.3108451105272378, -5.478297606850214, -8.29717860400436, 1.8345321497720604, -11.538401459191153, -7.153806304379993, -7.479746346975375, -4.078307983654542, 17.937173018589203], [9.591391922330084, 4.7464420393845375, -4.836046739916414, 6.106810878873433, -10.689873157387083, 6.386184382039591, 12.78994847662744, 4.697026517934344, -13.451545543648102, -18.887883487091216, 4.762008984774216, -2.4691715694352476], [-5.553257631098316, -10.696678309310144, -6.3317332150813534, -4.275468957094298, -3.243370085313167, 37.448074558479654, -7.538949142555414, -3.0463978945268555, 5.716729107559712, 6.989398758538022, 4.557119933748809, 5.575500232054172], [-9.312022058731333, 20.091165384187068, -4.255895960835038, -10.480263235284955, 11.03387777579313, 9.592375734774858, -4.8218518429307835, -8.077688225316152, -2.486145522952039, 7.217244781606567, -5.126199816149132, -13.614587288493578], [1.2190348245151592, 17.48597626630997, -20.395478307398104, -7.5197331805196574, -5.354221429626512, -14.239843425629024, 16.499598260570924, 2.083811208349851, 5.248340828714843, -17.569295550046295, 32.95857397413828, 29.27824458755597], [-5.209991940736398, -22.728474587378834, 0.9654162490176309, 7.313010667446538, -11.853637883617832, -11.924069440021194, 10.454281607710671, 2.257639847931071, 16.995236959436166, -30.331207171590872, -7.771447432828217, -9.689783883210787]], "weights_ho": [[-5.190789296612744, -10.14220133007367, 0.39948993179512676, -4.683462451014444, 13.7125010409697, -25.627931119030308, 19.111361524442156, 27.68928120097206, 10.115069799576629, -10.593194115767055, -15.304322689617731, 1.6273664635838796, -4.053671900471502, -0.7958791421572747, 13.832085907712266, 3.718907761774557], [-6.551832676204382, -2.9025924876076736, 9.809346551290774, -18.441955943278657, 18.088498186362557, -10.436616008117026, 4.567546378847177, -1.5929236656833332, -10.493005121797566, 5.720162406334878, 17.19597947280559, -37.92692257691128, -4.007186101219215, 6.602143924180176, -19.084477083860186, -8.171679626198417], [3.922060955682703, -6.30673613887211, -4.584916678997164, -3.0958466136862834, -8.119480167610032, 7.0044976588172645, -4.227925522566556, 0.13016966153005874, 3.5168409369000746, 5.784580599295117, 22.095888712643735, -5.847120958229548, 12.46352301493241, -24.337233939229286, -18.755373732375634, 7.062614777484274], [-2.2426846328376007, 31.56369113600432, -13.302661613594122, 8.362378706764382, -3.400852143841017, -1.3633749367361965, 10.870626286493998, -2.966951115388592, 28.939862227732156, -24.10998816047899, 8.195620471596978, -11.159323876492227, -15.23123632799769, -5.808440444348861, -1.6751389367682876, 14.726313126754839]], "bias_h": [[-9.871573714588823], [-8.111877218327601], [-12.12092301483587], [-17.929033948492055], [-1.9339776147405947], [6.070548059149356], [21.729393743781575], [21.045581908001136], [3.7599981377614697], [-0.7962068544511787], [1.4874409983327253], [15.182144468000036], [7.471958024923217], [1.803274853012308], [13.095526212953235], [8.011218748470123]], "bias_o": [[-4.491081117867102], [-0.6072930193181145], [-11.571122761257625], [-12.763524698152825]]}, {"input_nodes": 12, "hidden_nodes": 16, "output_nodes": 4, "weights_ih": [[1.2955727674030106, 6.335822752821798, -8.598753899563091, -3.563247658252257, 7.312083161027639, -8.386101849991247, 8.38481313312342, -0.4172147177060353, 4.365055484349247, 0.4023437432422381, -6.109885712784485, -17.293342611203503], [-0.06797915504824785, -13.288833252852141, 6.292169194834307, -2.7118185868015003, 13.424461324773409, -5.340682285716126, 17.34578397993064, 9.984142222585389, 1.3371946369897139, -4.99579992717654, -9.452680315712245, 16.29093446832308], [7.899283637201696, 6.5106198056307525, -4.96615958203153, 9.078227467979236, -16.756749631292486, -10.019702310498294, 16.44010655066745, -12.781833531085855, 18.309878035960686, -5.652610506356445, 16.744672917181227, -5.74019519681082], [-0.791438803826776, 25.38124934683937, -21.27617972520006, 2.97818634838476, -2.975062796020412, -2.77393083668874, -9.31580309206609, 8.501609195619247, 8.729081226680794, -0.15756113305195701, 1.8827446999275417, -16.981877571910164], [2.4397499278486974, -12.722350175536816, -2.8654678945861094, -11.869439456282638, -4.170644484748163, 16.701246360567012, 6.570127223147361, -11.069878566029518, -0.5654377912969597, 10.490215781623327, 3.315286410856138, 1.874235979107801], [-16.84428922390654, -3.66199365642145, 14.888137296799403, 2.820105028725145, 6.532387209907152, 20.39542639219814, 20.27842379006825, 3.9023955441152416, 3.1819224604779026, -20.768313755498415, -12.703860925684868, -16.739762237075258], [5.630495859238827, -4.4269069335863405, -15.94191136639811, 11.384037646212938, 6.657408383941611, 7.860599648569735, 15.447316811514089, 12.9866458822018, 6.952206124205473, -3.6591691987676054, 5.112626519541289, 8.279015517640449], [2.076427120054313, 3.655952121931862, -12.159050286628213, -16.01211843295309, -8.007741414434012, 8.997882247586718, -5.871409626108679, 9.270411199316078, 17.747685543408856, -15.899891415277555, 16.597168899206906, -8.3710003897036], [2.6902789169673875, -21.005387245477266, -2.0162139409976407, 11.74589342837204, -10.052377723964954, -21.7254769775327, -5.9795203453812835, 18.0270092390616, 18.471012828416818, -19.504740857914577, -8.097723479577109, -1.3217074934295132], [6.898914933842917, -0.9828963373168367, 16.767736407227343, 3.921645804209707, 1.0400927387666816, 9.109661255725372, 2.9487073182084678, -5.041334633345706, 27.944681551698057, -2.4641086669849153, -8.94751521953138, 3.9814305580438374], [-11.509794109607752, 11.649246320970347, 0.2331970542330661, -1.3108451105272378, -5.480289975022548, -8.15513416251681, 1.9143992165411088, -11.486969871197838, -7.263471496466146, -7.450368755069145, -3.912203391384501, 17.961432044100405], [9.591391922330084, 4.691702039200995, -4.901018329240457, 6.171522475461858, -10.689873157387083, 6.3082374688055465, 12.810864716159802, 4.758589889082916, -13.451545543648102, -18.779015674855486, 4.90069630003208, -2.437629035367087], [-5.700866044130343, -10.878671614360927, -6.423904084386724, -4.382259027857089, -3.319619467026462, 37.29379282355122, -7.435872769077009, -2.952700770449026, 5.610268837779559, 6.89805227952895, 4.55062904786451, 5.751915347394836], [-9.412298648813968, 20.12678419426928, -4.143690433584374, -10.480263235284955, 11.171998539031208, 9.478665074738599, -4.932551312072741, -8.008354350027616, -2.393403158335166, 7.193364205157433, -5.3854001301835, -13.711503650569401], [1.1741273832295651, 17.48597626630997, -20.395478307398104, -7.469482333093251, -5.4088886062935435, -14.51163061609527, 16.374974675021917, 1.9453894295069376, 5.241618964390018, -17.569295550046295, 32.99531175953099, 29.12315484390399], [-5.0728601311110815, -22.728474587378834, 0.9281129555572982, 7.413550744792591, -11.860307750513183, -11.924069440021194, 10.46675608816277, 2.338964623370714, 16.990525260520688, -30.392220536968697, -7.6150586884769575, -9.860504183007233]], "weights_ho": [[-4.93396017453559, -10.14220133007367, 0.40687408264821673, -4.683462451014444, 13.804687594528634, -25.561740935840813, 19.094866596626566, 27.68928120097206, 9.92373058278249, -10.593194115767055, -15.526389234066185, 1.4990683049571047, -4.053671900471502, -0.7973953019017936, 13.939032790082269, 3.840887276620731], [-6.393405274228255, -2.9025924876076736, 9.83085965863572, -18.525369506835855, 18.088498186362557, -10.577088057161248, 4.561185179500893, -1.832991147629099, -10.493005121797566, 5.7034563215358975, 17.20374656308765, -37.92692257691128, -3.9034333212179675, 6.792275594557298, -19.01677043983829, -8.142505787294114], [3.7988096904225195, -6.30673613887211, -4.531880565299212, -3.0227932150499752, -8.216489286378257, 7.116555330977421, -4.227925522566556, 0.13016966153005874, 3.6846280460212033, 5.910650469264699, 22.095888712643735, -5.829453511436771, 12.532245596020399, -24.304689938960532, -18.755373732375634, 7.023498394725739], [-2.4228821652653134, 31.556295693857887, -13.204389767202297, 8.362378706764382, -3.3678995611000615, -1.3633749367361965, 11.00868086019789, -3.034152714130139, 28.89662946615446, -24.10998816047899, 8.288168371522238, -11.137767906314048, -14.944435077445233, -5.709930913359289, -1.4060012717658261, 14.858984372513522]], "bias_h": [[-9.871573714588823], [-8.212234288135651], [-12.06750524215601], [-17.929033948492055], [-1.9339776147405947], [6.053016306646363], [21.66605336662262], [21.045581908001136], [3.5185719838526013], [-0.6282952775328802], [1.5209607684783224], [15.299431952876704], [7.5650245620050285], [1.7726312136728637], [12.999854125286005], [7.992667944706201]], "bias_o": [[-4.491081117867102], [-0.9105543620061547], [-11.59807577123618], [-12.831953835958853]]}, {"input_nodes": 12, "hidden_nodes": 16, "output_nodes": 4, "weights_ih": [[1.2418677389995838, 6.249848972691564, -8.491960911467446, -3.563247658252257, 7.312083161027639, -8.386101849991247, 8.380354013942885, -0.4172147177060353, 4.385397306816987, 0.4023437432422381, -6.009225207488672, -17.293813318786487], [-0.19518413360635634, -13.27555843152771, 6.33004558282742, -2.6218010791390887, 13.435183047214956, -5.340682285716126, 17.51427647011376, 9.984142222585389, 1.3371946369897139, -5.156933764067524, -9.452680315712245, 16.376639581920397], [8.135205961689618, 6.444806410555248, -4.949675506676957, 9.078227467979236, -16.665484347090832, -10.022773997555264, 16.23088974620729, -12.857308656404566, 18.210251216394138, -5.53895920315519, 16.879138261083757, -5.630905370735915], [-0.936919471283711, 25.426334482320907, -21.05254912651776, 3.0118088291409086, -2.975062796020412, -2.7159997938655684, -9.31580309206609, 8.536045927878154, 8.729081226680794, -0.1382435680398997, 1.7392395954908266, -16.7990136837771], [2.243947237630929, -12.722350175536816, -2.8654678945861094, -11.808324475336324, -4.260192620263014, 16.658040770047254, 6.490985183773484, -11.102812671379954, -0.45620618693452586, 10.490215781623327, 3.315286410856138, 1.625177033170255], [-16.704645088784044, -3.649124304588387, 14.868804312412378, 2.793197202827156, 6.532387209907152, 20.454156914217172, 20.276143873016892, 3.8332172571454604, 3.054789131395401, -20.768313755498415, -12.715731027937338, -16.919279281164357], [5.46102059103466, -4.588785264666258, -16.187190827888315, 11.384037646212938, 6.687869661009963, 7.860599648569735, 15.438247286178255, 13.158790611669584, 6.892453507462658, -3.6542735589122666, 5.338503217092712, 8.316435681416923], [2.206841444705978, 3.5182175930836888, -12.267190383000994, -16.0540769847849, -8.26619132241581, 8.997882247586718, -5.871409626108679, 9.270411199316078, 17.742057370288205, -15.86445102218988, 16.534771748676356, -8.3710003897036], [2.631914641734602, -21.097866793629393, -2.0162139409976407, 11.88396894410754, -10.458119583097265, -21.921340533768888, -5.994570545702058, 18.10412547711559, 18.46644124411131, -19.54624421773313, -8.076222151222451, -1.0134652951606964], [6.75615308080323, -1.1416981135669828, 17.04243072760093, 3.921645804209707, 0.9003604566182016, 9.109661255725372, 2.9487073182084678, -5.041334633345706, 28.052359196341413, -2.490124886071108, -9.049815084821539, 3.9814305580438374], [-11.509794109607752, 11.651623784110521, 0.1111365746183308, -1.2586387101942433, -5.480289975022548, -8.150051755162236, 1.8345321497720604, -11.482507101660323, -7.083925697733348, -7.479746346975375, -3.9429282138783974, 17.961432044100405], [9.426185123345899, 4.852798464551219, -4.91669779947481, 6.106810878873433, -10.689873157387083, 6.386184382039591, 12.798671457809906, 4.58668851453893, -13.451545543648102, -18.72519660272341, 4.868646973785616, -2.494247541930751], [-5.542197275724425, -10.894012085429631, -6.178448748960575, -4.437051819817807, -3.243370085313167, 37.27415817668914, -7.352032068614273, -3.1245136906158986, 5.728340814441241, 6.9894340172655465, 4.557119933748809, 5.581240323219361], [-9.312022058731333, 19.90630497706768, -4.143690433584374, -10.480263235284955, 11.104872711663605, 9.54807431415838, -4.8218518429307835, -8.008354350027616, -2.393403158335166, 7.247430888636272, -5.352900083174805, -13.614587288493578], [1.1478810541395597, 17.48597626630997, -20.195718483775558, -7.382968611120925, -5.354221429626512, -14.579550732276434, 16.26830568111464, 1.9453894295069376, 5.134938820430768, -17.661254587599544, 32.884437557745706, 29.12315484390399], [-5.049222813169087, -22.728474587378834, 1.0849832504223444, 7.3786531351705875, -11.853637883617832, -11.924069440021194, 10.46675608816277, 2.257639847931071, 17.203629393703984, -30.331207171590872, -7.806260178470818, -9.860504183007233]], "weights_ho": [[-5.038518441787279, -10.14220133007367, 0.34179055497977406, -4.732493480206669, 13.804687594528634, -25.583273409230458, 19.103158448789774, 27.704967314841948, 9.846144039522645, -10.627419043067881, -15.583316550357978, 1.4990683049571047, -3.9258874721133536, -0.955061243220776, 14.000560023098895, 3.6387680227843227], [-6.551832676204382, -2.9025924876076736, 9.842902605780061, -18.669701878100945, 18.088498186362557, -10.577088057161248, 4.503633479902567, -1.5038378039680116, -10.493005121797566, 5.720162406334878, 17.220475672089275, -37.96580018705012, -3.9034333212179675, 6.792275594557298, -19.01677043983829, -8.007570681140054], [3.7978980765954975, -6.352750159048192, -4.531880565299212, -3.0063021552553346, -8.243262474877753, 7.05567134946344, -4.306055200733655, 0.149593716841799, 3.5168409369000746, 5.761076571530949, 22.014589517835486, -5.829453511436771, 12.532245596020399, -24.337233939229286, -18.755373732375634, 7.026135005704977], [-2.4308647090819915, 31.556295693857887, -13.286913596458604, 8.362378706764382, -3.4246864257862963, -1.3599902422197185, 10.947452762390103, -2.9001282924044642, 28.939862227732156, -24.10998816047899, 8.263207387646805, -11.26123020101634, -15.042517592949988, -5.803469379209137, -1.4573413009481335, 14.826238098365291]], "bias_h": [[-9.871573714588823], [-8.065471933954056], [-12.010986515621074], [-17.929033948492055], [-1.9339776147405947], [6.070548059149356], [21.729393743781575], [21.096986678487013], [3.7599981377614697], [-0.8987840532626488], [1.4874409983327253], [15.221692076958332], [7.5650245620050285], [1.803274853012308], [12.999854125286005], [8.021853359222016]], "bias_o": [[-4.491081117867102], [-0.9652935769593634], [-11.571122761257625], [-12.703993949028497]]}, {"input_nodes": 12, "hidden_nodes": 16, "output_nodes": 4, "weights_ih": [[1.1716785520590918, 6.26630372394483, -8.450873384909194, -3.563247658252257, 7.2696153490830655, -8.377874198023061, 8.468958381589022, -0.613534136650837, 4.421559411348555, 0.4023437432422381, -5.859328315168518, -17.293813318786487], [-0.09842234243251344, -13.288833252852141, 6.33004558282742, -2.612478300998327, 13.424461324773409, -5.301987789997333, 17.51427647011376, 9.984142222585389, 1.4106257776610636, -5.027272127358243, -9.452680315712245, 16.370037350098578], [7.899283637201696, 6.497169773678004, -4.96615958203153, 9.078227467979236, -16.827215463337005, -10.022773997555264, 16.328860817947668, -12.78718562728517, 18.293100740085375, -5.652610506356445, 16.878227863360607, -5.693237451616092], [-0.936919471283711, 25.426334482320907, -21.156928595374538, 2.97818634838476, -2.975062796020412, -2.5544570446302286, -9.31580309206609, 8.501609195619247, 8.864985973828096, -0.13970866313149605, 1.7392395954908266, -16.981877571910164], [2.4397499278486974, -12.722350175536816, -2.8654678945861094, -11.856559536221193, -4.017915996845011, 16.726416642435264, 6.3896516338820755, -10.947391649025676, -0.5654377912969597, 10.490215781623327, 3.255990527813794, 1.9094008193117111], [-16.9458017342504, -3.649124304588387, 14.756462230583248, 2.8730046424384192, 6.643633264981783, 20.39542639219814, 20.244053596352508, 3.8332172571454604, 3.1299992186179746, -20.741161038895388, -12.7701729910255, -16.919279281164357], [5.514852765779224, -4.294319403165091, -16.06029231984588, 11.384037646212938, 6.774825223069524, 7.860599648569735, 15.438247286178255, 13.117672391680161, 6.95613480184705, -3.8875056380362696, 5.338503217092712, 8.353379697975337], [2.4086672778151113, 3.5525128633541256, -12.122085256950074, -16.0540769847849, -8.007741414434012, 9.037196261419501, -5.871409626108679, 9.34067274713162, 17.764337494466407, -15.899891415277555, 16.597168899206906, -8.3710003897036], [2.8434774311474023, -20.867531651738478, -2.0162139409976407, 11.74589342837204, -10.210289584959908, -21.910229145413503, -5.9795203453812835, 18.10412547711559, 18.495714830614826, -19.394111501107925, -8.167080029392377, -1.3098180744446268], [6.87976067278582, -1.1515195256984003, 17.04243072760093, 4.198295899270148, 0.8129263538710785, 9.122827456934665, 2.9487073182084678, -5.023284182043865, 28.052359196341413, -2.4641086669849153, -8.94751521953138, 3.9814305580438374], [-11.509794109607752, 11.651623784110521, 0.21582782375735865, -1.3108451105272378, -5.41093516739937, -8.22482455994472, 1.752599104968833, -11.486969871197838, -7.155937409044898, -7.524454104370818, -3.8774997843542054, 17.90094490560443], [9.591391922330084, 4.644615511106574, -4.91669779947481, 6.106810878873433, -10.689873157387083, 6.386184382039591, 12.778384556417341, 4.770725409282091, -13.451545543648102, -18.80388237851541, 4.90069630003208, -2.246634935030631], [-5.66305336468303, -10.872026311450899, -6.1451736898656675, -4.280387138633803, -3.234391770329773, 37.45379437559215, -7.521249854524447, -2.952700770449026, 5.673416589819446, 6.989398758538022, 4.656032017964464, 5.513900144684101], [-9.312022058731333, 19.930380750586938, -4.143690433584374, -10.480263235284955, 11.123137477720991, 9.511913880901297, -4.8218518429307835, -8.008354350027616, -2.3547862120362835, 7.193364205157433, -5.287048400799841, -13.538963397644086], [1.14008857007245, 17.4008486424067, -20.283278698876437, -7.407735056830401, -5.354221429626512, -14.51163061609527, 16.47627718560711, 1.8721231560231058, 5.25551577051977, -17.56937547758694, 33.15767289056527, 29.26671704315509], [-5.0728601311110815, -22.728474587378834, 0.9654162490176309, 7.327726801284873, -11.853637883617832, -11.86612321958747, 10.46675608816277, 2.336523967722954, 16.96872280430842, -30.331207171590872, -7.719850476696704, -9.860504183007233]], "weights_ho": [[-5.1288844057079235, -10.103818989109861, 0.3066809385624233, -4.747093569599403, 13.804687594528634, -25.596480785221193, 19.103158448789774, 27.72299781248857, 9.92373058278249, -10.811916631691242, -15.526389234066185, 1.4990683049571047, -4.12064578732145, -0.8851517117265925, 14.105566201919766, 3.7746696123069543], [-6.543801769443863, -2.9025924876076736, 9.69837324531016, -18.4594712056374, 18.088498186362557, -10.49533805237019, 4.503633479902567, -1.5929236656833332, -10.493005121797566, 5.8032700152461585, 17.081072543304547, -38.08797171419694, -3.9034333212179675, 6.792275594557298, -19.01677043983829, -7.715375499342073], [3.8682962082640655, -6.30673613887211, -4.531880565299212, -3.0227932150499752, -8.119480167610032, 7.05567134946344, -4.227925522566556, 0.03978376242541799, 3.5168409369000746, 5.630224643076365, 22.095888712643735, -5.829453511436771, 12.532245596020399, -24.152443290761358, -18.755373732375634, 6.9431761337504785], [-2.4308647090819915, 31.556295693857887, -13.232415573833073, 8.46078906370458, -3.4246864257862963, -1.3633749367361965, 10.947452762390103, -3.034152714130139, 28.939862227732156, -24.10998816047899, 8.131611531694864, -11.24599875149754, -15.042517592949988, -5.718812845269453, -1.3283077291877188, 14.826238098365291]], "bias_h": [[-9.871573714588823], [-8.067527232400993], [-12.02158381211938], [-17.83780826751633], [-1.9339776147405947], [6.070548059149356], [21.710234944043346], [21.02678689629963], [3.8687872606356284], [-1.0042447218779704], [1.4640321649266748], [15.182144468000036], [7.5650245620050285], [1.9057288357217832], [12.999854125286005], [8.011218748470123]], "bias_o": [[-4.617304945864558], [-0.9553035413255032], [-11.482069078506361], [-12.703993949028497]]}, {"input_nodes": 12, "hidden_nodes": 16, "output_nodes": 4, "weights_ih": [[1.5625543711936722, 6.249848972691564, -8.454252055145005, -3.563247658252257, 7.312083161027639, -8.353805054859494, 8.38481313312342, -0.37944432965822805, 4.413903775479236, 0.5533810808324972, -5.98611126849669, -17.293813318786487], [-0.0952772825402026, -13.288833252852141, 6.385457975319872, -2.690071519978335, 13.424461324773409, -5.132782159102445, 17.383891443830045, 9.889210605131547, 1.4524987698221679, -5.1468903498059335, -9.41610602747861, 16.376639581920397], [7.765402445538349, 6.546611271263769, -4.802607801115589, 9.078227467979236, -16.730433551847874, -10.040605576993935, 16.328860817947668, -12.631800930874224, 18.2558078905516, -5.647098101641116, 16.878227863360607, -5.693237451616092], [-0.936919471283711, 25.426334482320907, -21.208572263202445, 2.97818634838476, -3.006150146726873, -2.673593779218848, -9.225920684397186, 8.73629792188614, 8.754301687073875, 0.011687188308772245, 1.7748410302821045, -16.95309351735566], [2.4018903439323354, -12.722350175536816, -2.9418228051962565, -11.974383067028885, -4.170644484748163, 16.54399070933883, 6.511716936537175, -11.069878566029518, -0.5654377912969597, 10.498560668275912, 3.3931186264201165, 1.8821421024306133], [-16.84428922390654, -3.889666729890839, 14.67586178561082, 2.8730046424384192, 6.428388027957366, 20.61225657121016, 20.244053596352508, 3.818739599064705, 3.0600435162612283, -20.952657105708436, -12.753675376652025, -16.795655534588057], [5.514852765779224, -4.3642962331505615, -16.13669043220547, 11.384037646212938, 6.542631153854925, 7.860599648569735, 15.438247286178255, 13.153289748670218, 6.95613480184705, -3.6542735589122666, 5.101208856269569, 8.352113558507753], [2.2186047378529645, 3.655952121931862, -11.978934927595803, -16.0540769847849, -8.091867047720502, 9.004127167899304, -5.871409626108679, 9.290369296725768, 17.742057370288205, -15.813767484483973, 16.597168899206906, -8.286075125083544], [2.555077126065868, -20.91753080515624, -2.0162139409976407, 11.74589342837204, -10.196833242492039, -21.836198612054197, -5.9795203453812835, 18.0011385304379, 18.49205339567337, -19.504740857914577, -8.15820119193984, -1.2290329483765163], [6.801996300801286, -1.1416981135669828, 17.04243072760093, 3.951077685811125, 0.8974952864332059, 9.009117919486638, 2.9487073182084678, -5.100393108089637, 28.0855749894363, -2.4641086669849153, -9.00631950350296, 3.886136658260333], [-11.509794109607752, 11.6021277299737, 0.24650063034341296, -1.3108451105272378, -5.459244492359706, -8.01263621723412, 1.8141778142276763, -11.447642637851898, -7.153806304379993, -7.38757230035403, -4.0711267545438865, 17.9619078884608], [9.642868540745408, 4.772662795615339, -4.929101589286193, 6.03268250058585, -10.735616905053716, 6.346914320758348, 12.810864716159802, 4.758589889082916, -13.451545543648102, -18.779015674855486, 4.90069630003208, -2.43662516727189], [-5.66305336468303, -10.705274117700322, -6.135072132209399, -4.382259027857089, -3.243370085313167, 37.29379282355122, -7.533669164426747, -2.967887741375063, 5.716729107559712, 7.011805134645603, 4.451138622880221, 5.673476346715217], [-9.312022058731333, 20.114091147529525, -4.0268647982665176, -10.480263235284955, 11.046287972681574, 9.538324827866584, -4.684592204726716, -8.008354350027616, -2.61262231611424, 7.193364205157433, -5.253842220003444, -13.614587288493578], [1.1499487592476243, 17.48597626630997, -20.395478307398104, -7.539460967250173, -5.365797008129508, -14.52711365364517, 16.374974675021917, 1.9776730593906808, 5.248340828714843, -17.569295550046295, 32.91188920756768, 29.12315484390399], [-5.134516465151362, -22.701130553440898, 0.866726786419946, 7.327726801284873, -11.853637883617832, -11.660093331294783, 10.423975393838576, 2.257639847931071, 16.995236959436166, -30.331207171590872, -7.818656271486039, -9.860504183007233]], "weights_ho": [[-5.073292353793984, -10.121321464232738, 0.34179055497977406, -4.683462451014444, 13.804687594528634, -25.583273409230458, 19.19164654912435, 27.68928120097206, 9.91231552278866, -10.593194115767055, -15.526389234066185, 1.4990683049571047, -4.053671900471502, -0.9153023598862698, 13.995709382944455, 3.7931499501693744], [-6.551832676204382, -2.9025924876076736, 9.809346551290774, -18.4594712056374, 18.088498186362557, -10.582059410382373, 4.503633479902567, -1.5929236656833332, -10.48950050044019, 5.720162406334878, 17.202663232418313, -37.92692257691128, -3.9034333212179675, 6.725941891898102, -19.0734019324155, -7.904178838981864], [3.9546860521139235, -6.30673613887211, -4.531880565299212, -3.0227932150499752, -8.119480167610032, 7.0106358961404895, -4.227925522566556, 0.17616515390084972, 3.7411854628559142, 5.694497410090278, 22.095816471791352, -5.829453511436771, 12.434336967678814, -24.24771793053007, -18.755373732375634, 7.0100181606071805], [-2.4028351859629855, 31.556295693857887, -13.286913596458604, 8.362378706764382, -3.4246864257862963, -1.3633749367361965, 11.050010068037249, -3.034152714130139, 28.99933968703754, -24.0813791538825, 8.288168371522238, -11.086889506255782, -15.10730449305465, -5.703861691684956, -1.4360235829265486, 14.826238098365291]], "bias_h": [[-9.871573714588823], [-8.03958430701753], [-12.02158381211938], [-17.929033948492055], [-1.9339776147405947], [5.9244257119944095], [21.677426797913913], [21.04370010423381], [3.627304273005974], [-0.8205652531270149], [1.6377282583333548], [15.182144468000036], [7.5577024526437455], [1.8871906140549097], [12.999854125286005], [8.011218748470123]], "bias_o": [[-4.310353679880607], [-0.793338609354048], [-11.738196417781536], [-12.71188965636689]]}, {"input_nodes": 12, "hidden_nodes": 16, "output_nodes": 4, "weights_ih": [[1.3627253742758527, 6.2902856066721595, -8.491960911467446, -3.563247658252257, 7.314258415200799, -8.33546323680748, 8.38481313312342, -0.4991202798609097, 4.385397306816987, 0.4023437432422381, -5.9405266832259995, -17.293813318786487], [-0.06797915504824785, -13.288833252852141, 6.33004558282742, -2.666637126607622, 13.424461324773409, -5.219516875168653, 17.51427647011376, 9.984142222585389, 1.509237008925395, -5.1468903498059335, -9.524430022444985, 16.38017575454054], [7.899283637201696, 6.497169773678004, -5.061454190068182, 9.078227467979236, -16.756749631292486, -9.906011917909716, 16.027658220729684, -12.702265871375268, 18.293100740085375, -5.652610506356445, 16.878227863360607, -5.693237451616092], [-0.936919471283711, 25.426334482320907, -21.13466285143019, 2.8970143107347304, -2.975062796020412, -2.6633813992203383, -9.31580309206609, 8.454543097301489, 8.729081226680794, -0.13970866313149605, 1.7392395954908266, -16.949922734779893], [2.4397499278486974, -12.485518246206198, -2.9264469025688293, -11.856559536221193, -4.183767135062476, 16.585235282020985, 6.511716936537175, -11.069878566029518, -0.4812658449555868, 10.490215781623327, 3.315286410856138, 1.8402907828443686], [-16.742144680803378, -3.7194002068510077, 14.888137296799403, 2.9332198217514236, 6.575895210161402, 20.39542639219814, 20.244053596352508, 3.842428926345618, 3.0600435162612283, -20.695371697796407, -12.715731027937338, -16.919279281164357], [5.586232396950848, -4.3642962331505615, -16.212145523941274, 11.384037646212938, 6.687869661009963, 7.860599648569735, 15.438247286178255, 13.117672391680161, 6.95613480184705, -3.6542735589122666, 5.3189312049283, 8.279015517640449], [2.21235592135033, 3.760275895257432, -12.005725773506045, -16.0540769847849, -8.007741414434012, 8.997882247586718, -5.871409626108679, 9.270411199316078, 17.77530484737142, -15.899891415277555, 16.597168899206906, -8.3710003897036], [2.795242161142425, -21.07461634427332, -2.0162139409976407, 11.734101843196518, -10.236191328208937, -21.8180992255411, -5.981100035821023, 18.10412547711559, 18.390980168243395, -19.504740857914577, -8.143376756686148, -1.332277908343026], [6.801996300801286, -1.1416981135669828, 16.921116314313608, 3.9225357909246186, 0.9150029684429408, 8.958912576186234, 2.9487073182084678, -5.117324503136031, 28.052359196341413, -2.4641086669849153, -9.008475946298155, 3.982606977072699], [-11.509794109607752, 11.651623784110521, 0.2331970542330661, -1.2128588807291978, -5.480289975022548, -8.14251786883348, 1.8825897444255755, -11.39115618304255, -7.181356373154995, -7.479746346975375, -3.9098593503794588, 18.085367019266858], [9.626270334353586, 4.818198484359639, -4.91669779947481, 5.926690301352757, -10.689873157387083, 6.260853655999712, 12.744664293982062, 4.758589889082916, -13.511751073633818, -18.779015674855486, 4.811521261013828, -2.42818268340242], [-5.66305336468303, -10.94458664327448, -6.3317332150813534, -4.382259027857089, -3.3015460504425547, 37.31117257002338, -7.507971330149081, -2.9077860645469262, 5.716729107559712, 7.081971414391866, 4.536827658566021, 5.673476346715217], [-9.453148584115596, 20.06676279840459, -4.1834060187822875, -10.35734828533343, 11.03387777579313, 9.538324827866584, -4.8218518429307835, -8.19499294264188, -2.441783264623737, 7.193364205157433, -5.261234386876711, -13.614587288493578], [1.1179227082779712, 17.457448382646014, -20.395478307398104, -7.407735056830401, -5.179124625453131, -14.554496722463405, 16.401921242138382, 1.962310022832278, 5.248340828714843, -17.569295550046295, 32.95857397413828, 29.12315484390399], [-5.008065509129118, -22.81358470557634, 0.9075913351193182, 7.327726801284873, -11.794332873319995, -11.853271891254542, 10.637716741885066, 2.219012419192854, 17.01850472447659, -30.21882752523129, -7.731686621159568, -9.972864112989008]], "weights_ho": [[-5.038518441787279, -10.14220133007367, 0.27237605093903106, -4.760533135979309, 13.977545209286017, -25.583273409230458, 19.224032712953754, 27.777424042392056, 9.92373058278249, -10.769012752303764, -15.526389234066185, 1.4990683049571047, -4.053671900471502, -0.7973953019017936, 14.000560023098895, 3.7506397536107023], [-6.551832676204382, -2.9025924876076736, 9.787070887885587, -18.4594712056374, 18.04601217199429, -10.577088057161248, 4.380157307529768, -1.810235483521786, -10.493005121797566, 5.670463976139169, 17.20374656308765, -38.03691646997438, -3.9034333212179675, 6.640911571930563, -19.01677043983829, -8.007570681140054], [3.922060955682703, -6.152178550156511, -4.531880565299212, -3.0227932150499752, -8.119480167610032, 7.119380965436869, -4.227925522566556, 0.13016966153005874, 3.3796977714822507, 5.761076571530949, 22.095888712643735, -6.171423814548985, 12.512811908873879, -24.305583820350666, -18.767957335574444, 6.956669073418354], [-2.3977766861803764, 31.393141317573182, -13.147241999539375, 8.362378706764382, -3.3198903101701345, -1.3633749367361965, 10.947452762390103, -3.034152714130139, 28.939862227732156, -24.200100552913664, 8.288168371522238, -11.178754739089205, -14.924035489233297, -5.7334673105399, -1.3779731506745436, 14.826238098365291]], "bias_h": [[-9.871573714588823], [-8.012907228023458], [-11.971663469342914], [-17.72516847779857], [-1.9339776147405947], [5.970317293254811], [21.77004383305615], [20.925174383933214], [3.7599981377614697], [-0.7962068544511787], [1.4874409983327253], [15.182144468000036], [7.5650245620050285], [1.7727680997995436], [12.887377595139986], [8.031954167080034]], "bias_o": [[-4.473405953697016], [-0.987776545350707], [-11.571122761257625], [-12.583757990973217]]}, {"input_nodes": 12, "hidden_nodes": 16, "output_nodes": 4, "weights_ih": [[1.3421231982024089, 6.306906900997076, -8.618611968912267, -3.6139974056406188, 7.312083161027639, -8.34464955807019, 8.347753743900068, -0.4172147177060353, 4.334647686672843, 0.24805570158118848, -5.98611126849669, -17.0884796992184], [-0.06797915504824785, -13.264936084721526, 6.33004558282742, -2.7093068962291955, 13.480311845072787, -5.340682285716126, 17.51427647011376, 9.984142222585389, 1.3371946369897139, -5.1468903498059335, -9.314912988296392, 16.376639581920397], [7.880280199017408, 6.660830232845108, -5.266015201927806, 8.972781732410155, -16.845037552750657, -10.022773997555264, 16.324090263845374, -12.725556200143798, 18.293100740085375, -5.796188267023928, 16.878227863360607, -5.693237451616092], [-0.936919471283711, 25.426334482320907, -21.17247811019496, 2.97818634838476, -2.975062796020412, -2.6633813992203383, -9.31580309206609, 8.501609195619247, 8.729081226680794, -0.13275288618412395, 1.7392395954908266, -16.981877571910164], [2.4397499278486974, -12.722350175536816, -2.9702942883671413, -11.856559536221193, -4.170644484748163, 16.658040770047254, 6.511716936537175, -11.069878566029518, -0.4263207364951549, 10.490215781623327, 3.315286410856138, 1.9488799032540718], [-16.899809376811557, -3.7290654597528614, 14.888137296799403, 2.7799766541554822, 6.475389112079053, 20.39542639219814, 20.244053596352508, 3.8332172571454604, 3.0600435162612283, -20.695729510048626, -12.715731027937338, -16.919279281164357], [5.514852765779224, -4.3642962331505615, -16.174053447582864, 11.358805760087103, 6.687869661009963, 7.860599648569735, 15.438247286178255, 13.15175395424956, 6.95613480184705, -3.6271907766144067, 5.338503217092712, 8.29222224001269], [2.2089855291186007, 3.61699317856014, -12.285807289109359, -16.11769509110671, -7.919632063026085, 8.997882247586718, -5.871409626108679, 9.270411199316078, 17.65027781028093, -15.899891415277555, 16.597168899206906, -8.3710003897036], [2.6378520523419673, -20.889166530958683, -2.0162139409976407, 11.811985471601606, -10.089140439970716, -21.733194427195954, -5.9689203326314955, 18.232987907625922, 18.49144330649583, -19.313936834839428, -8.15820119193984, -1.1009581745247286], [6.801996300801286, -1.2813689794572418, 17.128727499633822, 3.9616294735590847, 0.9150029684429408, 9.112046798066263, 2.8885518706470545, -4.90592333285763, 27.974936377479764, -2.4641086669849153, -8.824153085573608, 3.9814305580438374], [-11.509794109607752, 11.651623784110521, 0.2331970542330661, -1.3108451105272378, -5.579376823160024, -8.373960699307752, 1.727782496703879, -11.486969871197838, -7.153806304379993, -7.410202884321325, -3.9498942195256563, 18.095306980334254], [9.571922298380771, 4.691702039200995, -4.91669779947481, 6.106810878873433, -10.710900823766636, 6.398304723460367, 12.810864716159802, 4.811751998019718, -13.466128325495477, -18.779015674855486, 4.90069630003208, -2.43662516727189], [-5.739320327208254, -10.872026311450899, -6.186253312846675, -4.40256295291313, -3.223308664500302, 37.26786348046847, -7.538949142555414, -2.952700770449026, 5.587088225360409, 6.989398758538022, 4.480049304209689, 5.673476346715217], [-9.312022058731333, 20.06676279840459, -4.163683850395395, -10.480263235284955, 11.03387777579313, 9.691554766156873, -4.8218518429307835, -7.919703872802271, -2.393403158335166, 6.992010664290218, -5.229905237285788, -13.65468131332331], [1.1499487592476243, 17.41417295483706, -20.395478307398104, -7.407735056830401, -5.318057545718413, -14.51163061609527, 16.374974675021917, 1.8865627764494064, 5.207003129223015, -17.569295550046295, 32.95857397413828, 29.12315484390399], [-5.0728601311110815, -22.477601056215217, 0.9654162490176309, 7.327726801284873, -11.735727856081036, -11.924069440021194, 10.46675608816277, 2.257639847931071, 16.722269615935303, -30.410842156058575, -7.719850476696704, -9.766387961700751]], "weights_ho": [[-5.038518441787279, -10.077064038202922, 0.34179055497977406, -4.683462451014444, 13.95695874368529, -25.746697427212503, 19.103158448789774, 27.68928120097206, 9.90754361424809, -10.593194115767055, -15.526389234066185, 1.5117407039419717, -3.8712522094512605, -0.7973953019017936, 13.788465718091226, 3.782951481016476], [-6.551832676204382, -2.9972091262844494, 9.809346551290774, -18.48688400753387, 18.088498186362557, -10.577088057161248, 4.503633479902567, -1.5929236656833332, -10.493005121797566, 5.772116449735258, 17.20374656308765, -37.927021831853125, -3.9034333212179675, 6.846893747225659, -19.01677043983829, -8.083549225268312], [3.922060955682703, -6.30673613887211, -4.531441617387332, -3.0227932150499752, -8.119480167610032, 7.05567134946344, -4.185666424042388, 0.1278432862526271, 3.5168409369000746, 5.72214630985286, 21.846313016010534, -5.829453511436771, 12.532245596020399, -24.464941864392387, -18.755373732375634, 7.0100181606071805], [-2.4308647090819915, 31.556295693857887, -13.270589829781645, 8.362378706764382, -3.4246864257862963, -1.3633749367361965, 10.967116507290795, -3.034152714130139, 28.894405863170878, -23.967999149075073, 8.028877681736049, -11.178754739089205, -15.042517592949988, -5.709930913359289, -1.4573413009481335, 14.850884148912948]], "bias_h": [[-9.985155979455566], [-8.065471933954056], [-11.96610626797108], [-17.929033948492055], [-1.9339776147405947], [6.070548059149356], [21.80860426138575], [20.945352087396447], [3.7599981377614697], [-0.8493243506608503], [1.4874409983327253], [15.14373470104776], [7.5650245620050285], [1.7938560983140124], [12.999854125286005], [8.011218748470123]], "bias_o": [[-4.379645458210656], [-0.8247541891217786], [-11.571122761257625], [-12.555741894285115]]}, {"input_nodes": 12, "hidden_nodes": 16, "output_nodes": 4, "weights_ih": [[1.0794909304631313, 6.195836640692488, -8.355735549894039, -3.4540655872704495, 7.283575197761409, -8.26148397296664, 8.38481313312342, -0.3669375842077066, 4.361481485326376, 0.38725930823055266, -5.98611126849669, -17.293813318786487], [-0.06797915504824785, -13.298207122614249, 6.33004558282742, -2.860695151644134, 13.39634177702042, -5.340682285716126, 17.51427647011376, 9.984142222585389, 1.391439975994181, -4.994055020215921, -9.452680315712245, 16.408436624008505], [7.899283637201696, 6.497169773678004, -4.96615958203153, 8.947807210370833, -16.84438215722089, -10.128194357386581, 16.275877388923924, -12.781833531085855, 18.293100740085375, -5.652610506356445, 16.878227863360607, -5.683527333714385], [-0.912039085348396, 25.426334482320907, -21.208572263202445, 2.97738259477964, -2.975062796020412, -2.4960830598109878, -9.31580309206609, 8.543740915381271, 8.686766965845583, -0.02352515575432873, 1.7392395954908266, -16.981877571910164], [2.4397499278486974, -12.722350175536816, -2.917689278715109, -11.856559536221193, -4.357596023072693, 16.643622258073556, 6.511716936537175, -11.051859304523191, -0.5654377912969597, 10.490215781623327, 3.332132592293683, 1.8402907828443686], [-16.8956680757983, -3.5762345975275016, 14.888137296799403, 2.8730046424384192, 6.641971310055492, 20.615368941590425, 20.385644145586557, 3.8332172571454604, 3.0600435162612283, -20.82242259856749, -12.715731027937338, -16.864995684779032], [5.5949777980411755, -4.120680038507072, -16.24535615038745, 11.384037646212938, 6.779012212214345, 7.860599648569735, 15.438247286178255, 13.117672391680161, 6.95613480184705, -3.5535423355458566, 5.338503217092712, 8.279015517640449], [2.206841444705978, 3.857940298543509, -12.122085256950074, -16.0540769847849, -8.007741414434012, 9.055742742971374, -5.620262590086159, 9.192032806038963, 17.83094151272284, -15.899891415277555, 16.55796195303614, -8.3710003897036], [2.6624576689738393, -20.91753080515624, -2.0162139409976407, 11.749671277667142, -10.19070384560069, -21.8180992255411, -5.999152507739322, 18.135598057108478, 18.46644124411131, -19.504740857914577, -8.15820119193984, -1.2290329483765163], [6.801996300801286, -1.1416981135669828, 17.04243072760093, 3.921645804209707, 0.9814373404388175, 9.109661255725372, 2.9487073182084678, -5.002331452570663, 28.197425735733383, -2.4641086669849153, -8.94751521953138, 3.9814305580438374], [-11.509794109607752, 11.629160582734947, 0.2331970542330661, -1.1744827656131371, -5.480289975022548, -8.14251786883348, 1.8345321497720604, -11.485976597985484, -7.173115886945072, -7.479746346975375, -3.7850827980058455, 17.875540217946295], [9.591391922330084, 4.691702039200995, -4.91669779947481, 6.106810878873433, -10.689873157387083, 6.519649671415931, 12.724580953898506, 4.710378143830857, -13.451545543648102, -18.779015674855486, 4.90069630003208, -2.43662516727189], [-5.66305336468303, -11.030616814060373, -6.331171449425784, -4.202136646869027, -3.243370085313167, 